SVM-light Version V5.01-TK-1.5
5 # kernel type
3 # kernel parameter -d 
1 # kernel parameter -g 
1 # kernel parameter -s 
1 # kernel parameter -r 
empty# kernel parameter -u 
0.4 # kernel parameter -L 
1 # kernel parameter -T 
+ # kernel parameter -C 
3 # kernel parameter -F 
1 # kernel parameter -S 
0.400000 # kernel parameter -M 
3 # kernel parameter -N 
R # kernel parameter -V 
R # kernel parameter -W 
0 # kernel parameter -U 
16 # highest feature index 
4814 # number of training documents 
2138 # number of support vectors plus 1 
-0.035749872 # threshold b, each following line is a SV (starting with alpha*y)
-0.53782960320724026992422750481637  |BT| (ROOT (S (NP (WP (what)))(VP (VBZ (be)))(REL-FOCUS-ENTY-NP (DT (the))(NN (name)))(PP (IN (of)))(REL-NP (DT (the))(REL-NN (airport)))(PP (IN (in)))(NP (NNP (dallas))(NNP (ft))))(S (REL-INTJ (REL-NNP (worth))))) |BT| (ROOT (S (REL-NP (NNP (dallas/fort))(REL-NNP (worth))(REL-NNP (airport))(NNP (overhead))(NNS (television)))(ADVP (RB (usually)))(VP (VBP (dominate)))(NP (NNS (area)))(PP (IN (at)))(REL-NP (NNP (dallas/fort))(REL-NNP (worth))(REL-NNP (airport)))(PP (IN (with)))(NP (JJ (nonstop))(NN (news))))) |BT| (ROOT (S (NP (WP (what)))(VP (VBZ (be)))(REL-FOCUS-ENTY-NP (DT (the))(NN (name)))(PP (IN (of)))(REL-NP (DT (the))(REL-NN (airport)))(PP (IN (in)))(REL-NP (REL-NNP (dallas))(NNP (ft))))(S (REL-INTJ (REL-NNP (worth))))) |BT| (ROOT (S (NP (CD (38,000))(NNS (people))(RB (north)))(PP (IN (of)))(REL-NP (REL-NNP (dallas)))(PP (IN (near)))(REL-NP (DT (the))(NNP (dallas-fort))(REL-NNP (worth))(NNP (international))(REL-NNP (airport))))) |ET| 1:0.23186944 2:0.12320355 3:0.062136982 4:0.085498199 5:0.045360919 11:0.47010264 12:0.40894738 13:0.13644965 14:0.70773381 15:0.45940384 16:0.29515067  |BV| 1:0.45074895 2:0.24653342 3:0.16495723 4:0.17342199 5:0.12171612 11:0.5777483 12:0.49541509 13:0.223653 14:0.79060906 15:0.65977496 16:0.28283912  |EV| 
0.81202166703310196815834842709592  |BT| (ROOT (S (NP (WP (what)))(VP (VBZ (be)))(REL-FOCUS-ENTY-NP (DT (the))(NN (name)))(PP (IN (of)))(REL-NP (REL-NNP (scarlett))(REL-NNP (o'hara)))(NP (POS ('s))(NN (house))))) |BT| (ROOT (S (VP (VB (mean))(TO (to))(VB (tell)))(NP (PRP (i)))(REL-FOCUS-ENTY-NP (NNP (katie))(REL-NNP (scarlett))(REL-NNP (o'hara)))(NP (WDT (that)))(REL-FOCUS-ENTY-NP (NNP (tara)))(SBAR (DT (that)))(NP (NN (land))))) |BT| (ROOT (S (NP (WP (what)))(VP (VBZ (be)))(REL-FOCUS-ENTY-NP (DT (the))(NN (name)))(PP (IN (of)))(REL-NP (REL-NNP (scarlett))(REL-NNP (o'hara)))(NP (POS ('s))(NN (house))))) |BT| (ROOT (S (NP (DT (the))(JJ (secret))(NN (diary)))(PP (IN (of)))(REL-NP (REL-NNP (scarlett))(REL-NNP (o'hara))))) |ET| 1:0.23354968 2:0.17742765 3:0.260133 4:0.12698413 5:0.19245009 6:0.053896811 7:0.10846523 8:0.0372678 9:0.083333328 11:0.40141371 12:0.33232519 13:0.09165445 14:0.73575616 15:0.4350937 16:0.31148893  |BV| 1:0.42257714 2:0.30905756 3:0.34188172 4:0.24653342 5:0.25819889 6:0.14552137 7:0.1490712 8:0.10206207 9:0.11785113 10:0.05383819 11:0.48435947 12:0.41932961 13:0.23179317 14:0.74449223 15:0.68461353 16:0.35715717  |EV| 
0.19483912176058673648704200331849  |BT| (ROOT (S (REL-FOCUS-LOC-NP (WP (what))(REL-NN (country)))(VP (VBZ (be)))(REL-NP (REL-NNP (berlin)))(PP (IN (in))))) |BT| (ROOT (S (REL-NP (REL-NNP (berlin)))(REL-FOCUS-LOC-NP (NNP (germany)))(NP (POS ('s))(NN (trade)))(PP (IN (with)))(REL-NP (JJ (eastern))(JJ (european))(REL-NNS (country)))(VP (VBD (post)))(NP (DT (a))(NN (deficit))))) |BT| (ROOT (S (REL-FOCUS-LOC-NP (WP (what))(REL-NN (country)))(VP (VBZ (be)))(REL-NP (REL-NNP (berlin)))(PP (IN (in))))) |BT| (ROOT (S (REL-NP (REL-NNP (berlin)))(REL-FOCUS-LOC-NP (NNP (august))(CD (2))(NN (xinhua)))(REL-FOCUS-LOC-ADJP (REL-JJ (berlin)))(NP (DT (the))(JJ (new))(NN (seat)))(PP (IN (of)))(VP (VBZ (have))(RB (also))(VBN (emerge)))(PP (IN (as)))(REL-NP (DT (the))(REL-NN (country)))(NP (POS ('s))(NNS (media))(NN (capital)))(NP (PRP (it))))) |ET| 1:0.13245323 2:0.072595403 3:0.097590007 4:0.051899929 5:0.080845207 11:0.23107688 12:0.1969697 14:0.58671403 15:0.40059629 16:0.16192219  |BV| 1:0.11215443 2:0.064650819 3:0.10369517 4:0.047140449 5:0.086066298 11:0.23624977 12:0.1980295 14:0.61587799 15:0.42998558 16:0.16749565  |EV| 
-0.81202166703310196815834842709592  |BT| (ROOT (S (NP (WP (what)))(VP (VBZ (be)))(REL-FOCUS-ENTY-NP (DT (the))(NN (name)))(PP (IN (of)))(REL-NP (REL-NNP (scarlett))(REL-NNP (o'hara)))(NP (POS ('s))(NN (house))))) |BT| (ROOT (S (VP (VBZ (be)))(NP (DT (a))(JJ (strong))(NN (denouncement)))(REL-FOCUS-ENTY-NP (NNP (rod))(NNP (steiger)))(PP (IN (as)))(NP (DT (the))(NNP (southern))(NN (judge))))(S (NP (DT (the))(NN (spirit)))(PP (IN (of)))(REL-NP (REL-NNP (scarlett))(REL-NNP (o'hara))))) |BT| (ROOT (S (NP (WP (what)))(VP (VBZ (be)))(REL-FOCUS-ENTY-NP (DT (the))(NN (name)))(PP (IN (of)))(REL-NP (REL-NNP (scarlett))(REL-NNP (o'hara)))(NP (POS ('s))(NN (house))))) |BT| (ROOT (S (VP (VB (mean))(TO (to))(VB (tell)))(NP (PRP (i)))(REL-FOCUS-ENTY-NP (NNP (katie))(REL-NNP (scarlett))(REL-NNP (o'hara)))(NP (WDT (that)))(REL-FOCUS-ENTY-NP (NNP (tara)))(SBAR (DT (that)))(NP (NN (land))))) |ET| 1:0.24701609 2:0.19031443 3:0.20365328 4:0.15430336 5:0.1490712 6:0.088891327 7:0.083045483 8:0.061545748 9:0.062994078 10:0.032025632 11:0.51058888 12:0.46073931 13:0.26648545 14:0.79954177 15:0.67876428 16:0.28929442  |BV| 1:0.23354968 2:0.17742765 3:0.260133 4:0.12698413 5:0.19245009 6:0.053896811 7:0.10846523 8:0.0372678 9:0.083333328 11:0.40141371 12:0.33232519 13:0.09165445 14:0.73575616 15:0.4350937 16:0.31148893  |EV| 
-0.49872229831868658544991035341809  |BT| (ROOT (S (ADVP (WRB (how)))(NP (JJ (old)))(VP (VBD (be)))(REL-FOCUS-DESC-NP (REL-NNP (nolan))(REL-NNP (ryan)))(ADVP (WRB (when)))(NP (PRP (he)))(VP (VBD (retire))))) |BT| (ROOT (S (VP (VBD (do)))(REL-NP (REL-NNP (nolan))(REL-NNP (ryan))))) |BT| (ROOT (S (ADVP (WRB (how)))(NP (JJ (old)))(VP (VBD (be)))(REL-FOCUS-DESC-NP (REL-NNP (nolan))(REL-NNP (ryan)))(ADVP (WRB (when)))(NP (PRP (he)))(VP (VBD (retire))))) |BT| (ROOT (S (NP (CD (44)))(REL-NP (REL-NNP (nolan))(REL-NNP (ryan))))) |ET| 1:0.16666667 2:0.14002801 3:0.50709254 4:0.10067341 5:0.40824828 6:0.056343619 7:0.25819889 8:0.039840952 9:0.23570226 11:0.48574448 12:0.40881491 13:0.15430336 14:0.67150074 15:0.46378595 16:0.3053309  |BV| 1:0.33333334 2:0.27500954 3:0.60000002 4:0.20412415 5:0.5 6:0.11547005 7:0.33333334 8:0.089087076 9:0.33333334 11:0.27524093 12:0.2405626 13:0.089087076 14:0.56904417 15:0.36702487 16:0.3053309  |EV| 
0.81202166703310196815834842709592  |BT| (ROOT (S (NP (WP (what)))(VP (VBZ (be)))(REL-FOCUS-ENTY-NP (DT (the))(NN (name)))(PP (IN (of)))(REL-NP (REL-NNP (scarlett))(REL-NNP (o'hara)))(NP (POS ('s))(NN (house))))) |BT| (ROOT (S (NP (DT (a))(NN (bit)))(PP (IN (like)))(REL-FOCUS-ENTY-NP (REL-NNP (scarlett))(REL-NNP (o'hara)))(VP (VBG (survey)))(REL-FOCUS-ENTY-NP (NNP (tara)))(ADVP (IN (though)))(PP (IN (in)))(NP (DT (the))(JJ (current))(NN (housing))(NN (market)))(REL-FOCUS-ENTY-NP (NNP (tara)))(VP (MD (would))(VB (be)))(NP (DT (a))(NN (teardown))))) |BT| (ROOT (S (NP (WP (what)))(VP (VBZ (be)))(REL-FOCUS-ENTY-NP (DT (the))(NN (name)))(PP (IN (of)))(REL-NP (REL-NNP (scarlett))(REL-NNP (o'hara)))(NP (POS ('s))(NN (house))))) |BT| (ROOT (S (NP (DT (the))(JJ (secret))(NN (diary)))(PP (IN (of)))(REL-NP (REL-NNP (scarlett))(REL-NNP (o'hara))))) |ET| 1:0.24701609 2:0.15823503 3:0.1770844 4:0.11305037 5:0.13130642 6:0.02662174 7:0.07559289 8:0.01855674 9:0.0571662 11:0.47568262 12:0.41714883 13:0.17919968 14:0.76760119 15:0.55908984 16:0.30093682  |BV| 1:0.42257714 2:0.30905756 3:0.34188172 4:0.24653342 5:0.25819889 6:0.14552137 7:0.1490712 8:0.10206207 9:0.11785113 10:0.05383819 11:0.48435947 12:0.41932961 13:0.23179317 14:0.74449223 15:0.68461353 16:0.35715717  |EV| 
0.23252732994471142502490579317964  |BT| (ROOT (S (REL-FOCUS-ENTY-NP (WP (what))(REL-NN (year)))(VP (VBD (do)))(REL-NP (REL-NNP (nintendo))(REL-CD (64)))(VP (VBN (come)))(PRT (RP (out))))) |BT| (ROOT (S (NP (DT (the))(JJS (fastest))(VBG (sell))(NN (product)))(PP (IN (in)))(REL-FOCUS-ENTY-NP (NNP (sony)))(NP (POS ('s))(JJ (50-year))(NN (history)))(NP (NNS (playstation)))(VP (VBP (have))(VBN (be))(VBG (trounce)))(NP (PRP$ (they))(JJS (closest))(NN (competition)))(REL-NP (REL-NNP (nintendo)))(PP (IN (of)))(NP (NNP (america)))(PRT (RP (out)))(PP (IN (with)))(REL-NP (DT (the))(RBR (more))(JJ (powerful))(REL-NNP (nintendo))(REL-CD (64)))(PP (IN (in)))(NP (CD (1996))))(S (REL-NP (JJ (last))(REL-NN (year)))(NP (NNS (consumer)))(VP (VBD (buy)))(NP (JJ (many))(NNS (playstation)))(SBAR (IN (as)))(REL-NP (REL-NNP (nintendo)))(REL-VP (REL-VBD (64)))(SBAR (IN (as)))(NP (NNS (price))))) |BT| (ROOT (S (REL-FOCUS-ENTY-NP (WP (what))(NN (year)))(VP (VBD (do)))(REL-NP (REL-NNP (nintendo))(REL-CD (64)))(VP (VBN (come)))(PRT (RP (out))))) |BT| (ROOT (S (NP (NNP (pokemon))(NN (snap)))(REL-NP (REL-NNP (nintendo)))(PP (IN (for)))(REL-NP (REL-NNP (nintendo))(REL-CD (64)))(NP (CD (54.99)))(NP (DT (all))(NNS (age))))) |ET| 1:0.29981267 2:0.23586476 3:0.45074895 4:0.17058878 5:0.3501505 6:0.079695962 7:0.16169041 8:0.055727821 9:0.13423121 11:0.2522625 12:0.2101682 13:0.017236261 14:0.57265913 15:0.32141763 16:0.30065551  |BV| 1:0.23145501 2:0.17978664 3:0.46188021 4:0.13159034 5:0.36514837 6:0.057831489 7:0.17407766 8:0.0410305 9:0.1490712 11:0.21182965 12:0.17434742 13:0.039840952 14:0.54385412 15:0.34443784 16:0.30418742  |EV| 
0.81202166703310196815834842709592  |BT| (ROOT (S (PP (IN (in)))(REL-FOCUS-LOC-NP (WDT (which))(NN (city)))(NP (PRP (you)))(VP (VB (find)))(REL-NP (DT (the))(REL-NNP (louvre))))) |BT| (ROOT (S (VP (VBZ (have)))(NP (PRP (it)))(REL-NP (DT (the))(REL-NNP (louvre)))(PP (IN (in)))(REL-FOCUS-LOC-NP (NNP (paris))))) |BT| (ROOT (S (PP (IN (in)))(REL-FOCUS-LOC-NP (WDT (which))(REL-NN (city)))(NP (PRP (you)))(REL-VP (REL-VB (find)))(REL-NP (DT (the))(REL-NNP (louvre))))) |BT| (ROOT (S (VP (VBZ (be)))(ADJP (JJ (hard)))(REL-VP (TO (to))(REL-VB (find)))(NP (DT (the))(JJ (striking))(NN (comparability)))(PP (IN (between)))(NP (NNP (qian))(NNP (men)))(NP (DT (the))(NNP (summer))(NNP (palace))(CC (and))(NNP (versaille)))(REL-NP (DT (the))(NNP (forbidden))(REL-NNP (city)))(REL-NP (REL-NNP (louvre))(NNP (palace)))(NP (NNP (champs-elysee)))(REL-FOCUS-LOC-NP (NNP (chang))(DT (a))(NNP (avenue))))) |ET| 1:0.35355338 2:0.25048971 3:0.25819889 4:0.17817415 5:0.23570226 6:0.071611486 8:0.05143445 11:0.25537696 12:0.20701967 13:0.05143445 14:0.75529575 15:0.68096244 16:0.20177162  |BV| 1:0.22645541 2:0.15695699 3:0.14704292 4:0.11551721 5:0.11215443 6:0.02981424 8:0.02080626 11:0.31463405 12:0.26722395 13:0.10591482 14:0.6312955 15:0.38209677 16:0.23742424  |EV| 
-0.71829218849649933975598514734884  |BT| (ROOT (S (NP (WP (what)))(VP (VBZ (be)))(REL-NP (REL-NNP (horatio)))(REL-FOCUS-DESC-NP (POS ('s))(NN (relationship)))(PP (TO (to)))(REL-NP (REL-NNP (hamlet))))) |BT| (ROOT (S (NP (NNP (with)))(REL-NP (NNP (derek))(NNP (lucci))(REL-NNP (hamlet)))(NP (NNP (tom))(NNP (huston)))(REL-NP (REL-NNP (horatio)))(NP (NNP (joe))(NNP (muzikar))(NN (claudius)))(NP (NNP (christopher))(NNP (george))(NNP (laertes))))) |BT| (ROOT (S (NP (WP (what)))(VP (VBZ (be)))(REL-NP (REL-NNP (horatio)))(REL-FOCUS-DESC-NP (REL-POS ('s))(NN (relationship)))(PP (TO (to)))(REL-NP (REL-NNP (hamlet))))) |BT| (ROOT (S (NP (DT (the))(JJ (last))(NNS (line)))(PP (TO (to)))(REL-NP (REL-NNP (hamlet)))(REL-NP (REL-POS ('s))(NN (friend))(REL-NNP (horatio)))(ADVP (RB (rather)))(PP (IN (than))))) |ET| 1:0.051031038 2:0.03136893 3:0.11026357 4:0.02443571 5:0.080257237 11:0.29348606 12:0.24688536 14:0.57990986 15:0.27389535 16:0.23130682  |BV| 1:0.22430886 2:0.15223655 3:0.16198477 4:0.11454053 5:0.11785113 6:0.0238705 8:0.01687899 11:0.33323869 12:0.28641751 13:0.077540353 14:0.64958084 15:0.62277597 16:0.22259527  |EV| 
-0.10021265495015439783710320398313  |BT| (ROOT (S (ADVP (WRB (when)))(VP (VBD (be)))(REL-FOCUS-NUM-NP (DT (the))(REL-NNP (panama))(REL-NNP (canal)))(REL-VP (REL-VBD (return)))(PP (TO (to)))(REL-NP (REL-NNP (panama))))) |BT| (ROOT (S (NP (DT (the))(NN (government)))(VP (VBZ (have))(VBN (dub)))(REL-FOCUS-NUM-NP (CD (1999)))(NP (DT (the))(NN (year)))(PP (IN (of)))(REL-NP (DT (the))(REL-NN (return)))(PP (IN (of)))(REL-NP (DT (the))(REL-NNP (panama))(REL-NNP (canal))))) |BT| (ROOT (S (ADVP (WRB (when)))(VP (VBD (be)))(REL-FOCUS-NUM-NP (DT (the))(REL-NNP (panama))(REL-NNP (canal)))(REL-VP (REL-VBD (return)))(PP (TO (to)))(REL-NP (REL-NNP (panama))))) |BT| (ROOT (S (PP (IN (under)))(REL-NP (DT (the))(REL-NNP (panama))(REL-NNP (canal))(NNP (treaty)))(REL-NP (DT (the))(NNP (u.s.))(CC (and))(REL-NNP (panama)))(VP (VBD (sign)))(PP (IN (in)))(REL-FOCUS-NUM-NP (CD (1977)))(NP (DT (the))(NNP (u.s.)))(REL-VP (MD (must))(REL-VB (return)))(NP (DT (the))(JJ (interoceanic))(NN (waterway)))(PP (TO (to)))(REL-NP (REL-NNP (panama)))(PP (IN (before)))(REL-FOCUS-NUM-NP (NNP (december))(CD (31))(CD (1999))))) |ET| 1:0.41989109 2:0.32124627 3:0.5547002 4:0.26554251 5:0.42640144 6:0.13483997 7:0.26967993 8:0.095491052 9:0.21081851 10:0.051502619 11:0.28931877 12:0.24333213 13:0.11175975 14:0.54392856 15:0.45019451 16:0.35257748  |BV| 1:0.55432189 2:0.41298059 3:0.49319696 4:0.32536259 5:0.38376129 6:0.13926212 7:0.086066298 8:0.097590007 9:0.06537205 10:0.038836781 11:0.53760332 12:0.46114299 13:0.18609685 14:0.72994888 15:0.55472839 16:0.35109103  |EV| 
0.81202166703310196815834842709592  |BT| (ROOT (S (REL-FOCUS-ENTY-NP (WP (what))(REL-NN (comedy))(NN (team)))(VP (VBD (be)))(REL-NP (REL-NNP (john))(REL-NNP (cleese))(NN (part)))(PP (IN (of))))) |BT| (ROOT (S (NP (NNP (london))(NNP (ap)))(REL-FOCUS-ENTY-NP (NNP (monty))(NNP (python))(NN (star))(REL-NNP (john))(REL-NNP (cleese)))(VP (VBD (order)))(NP (NN (train))(NN (crash))(NN (footage)))(PRT (IN (out)))(PP (IN (of)))(REL-NP (DT (the))(REL-NN (comedy))(NN (group)))(NP (POS ('s))(JJ (upcoming))(JJ (30-year))(NN (anniversary))(JJ (special)))(PP (JJ (due))))) |BT| (ROOT (S (REL-FOCUS-ENTY-NP (WP (what))(REL-NN (comedy))(NN (team)))(VP (VBD (be)))(REL-NP (REL-NNP (john))(REL-NNP (cleese))(NN (part)))(PP (IN (of))))) |BT| (ROOT (S (REL-FOCUS-ENTY-NP (NNP (cbs)))(NP (POS ('s)))(NP (NNP (payne)))(VP (VBZ (star)))(REL-FOCUS-ENTY-NP (REL-NNP (john))(NNP (larroquette)))(PP (IN (in)))(NP (DT (a))(NN (remake)))(NP (DT (the))(JJ (british))(NN (cult))(NN (fave)))(PP (IN (from)))(REL-FOCUS-ENTY-NP (REL-NNP (john))(REL-NNP (cleese))))(S (REL-FOCUS-ENTY-NP (NNP (abc)))(NP (POS ('s))(DT (the))(NNP (norm))(NNP (show)))(VP (VBZ (have)))(REL-FOCUS-ENTY-NP (NNP (norm))(NNP (macdonald)))(VP (VBG (take)))(NP (DT (no))(NNS (prisoner)))(PP (IN (with)))(REL-NP (PRP$ (he))(JJ (blunt))(REL-NN (comedy))))) |ET| 1:0.21919864 2:0.14598928 3:0.18670401 4:0.10206207 5:0.13514748 6:0.032529999 7:0.056343619 8:0.02262814 9:0.0410305 11:0.629767 12:0.54676414 13:0.20528212 14:0.75438803 15:0.44951028 16:0.26482964  |BV| 1:0.21821789 2:0.14297628 3:0.22075538 4:0.10232344 5:0.16037507 6:0.02450715 7:0.05399492 8:0.017039949 9:0.039283711 11:0.46511886 12:0.40226397 13:0.1348854 14:0.63442117 15:0.3639414 16:0.28198287  |EV| 
-0.81202166703310196815834842709592  |BT| (ROOT (S (NP (WP (what)))(VP (VBZ (be)))(REL-FOCUS-ENTY-NP (DT (the))(NN (name)))(PP (IN (of)))(REL-NP (REL-NNP (scarlett))(REL-NNP (o'hara)))(REL-NP (REL-POS ('s))(NN (house))))) |BT| (ROOT (S (REL-FOCUS-ENTY-NP (NNP (gordon)))(VP (VBZ (have))(VBN (say)))(PP (IN (with)))(VP (VBG (cast)))(NP (NNP (connelly)))(REL-NP (REL-POS ('s))(NN (part)))(PP (IN (in)))(VP (VBG (wake)))(NP (DT (the))(NN (search)))(PP (IN (for)))(REL-NP (DT (a))(REL-NNP (scarlett))(REL-NNP (o'hara)))(PP (IN (for)))(VP (VBN (go))))) |BT| (ROOT (S (NP (WP (what)))(VP (VBZ (be)))(REL-FOCUS-ENTY-NP (DT (the))(NN (name)))(PP (IN (of)))(REL-NP (REL-NNP (scarlett))(REL-NNP (o'hara)))(NP (POS ('s))(NN (house))))) |BT| (ROOT (S (VP (VB (mean))(TO (to))(VB (tell)))(NP (PRP (i)))(REL-FOCUS-ENTY-NP (NNP (katie))(REL-NNP (scarlett))(REL-NNP (o'hara)))(NP (WDT (that)))(REL-FOCUS-ENTY-NP (NNP (tara)))(SBAR (DT (that)))(NP (NN (land))))) |ET| 1:0.33218193 2:0.20964275 3:0.28074497 4:0.1490712 5:0.2057378 6:0.027639501 7:0.086066298 8:0.019117979 9:0.06537205 11:0.54958332 12:0.47450587 13:0.24326682 14:0.75980443 15:0.60124445 16:0.28929442  |BV| 1:0.23354968 2:0.17742765 3:0.260133 4:0.12698413 5:0.19245009 6:0.053896811 7:0.10846523 8:0.0372678 9:0.083333328 11:0.40141371 12:0.33232519 13:0.09165445 14:0.73575616 15:0.4350937 16:0.31148893  |EV| 
-0.81202166703310196815834842709592  |BT| (ROOT (S (NP (WP (what)))(VP (VBZ (be)))(REL-FOCUS-ENTY-NP (DT (the))(NN (name)))(PP (IN (of)))(REL-NP (REL-NNP (scarlett))(REL-NNP (o'hara)))(REL-NP (REL-POS ('s))(NN (house))))) |BT| (ROOT (S (PP (IN (of)))(NP (NNP (becky)))(REL-NP (REL-POS ('s))(JJ (few))(NNS (moment)))(PP (IN (of)))(NP (NN (introspection))))(S (VP (VBZ (be)))(ADVP (RB (surely)))(REL-FOCUS-ENTY-NP (REL-NNP (scarlett))(REL-NNP (o'hara)))(REL-NP (REL-POS ('s))(NN (prototype)))(VP (VBG (resume)))(NP (PRP$ (she))(JJ (ardent))(NN (pursuit))))) |BT| (ROOT (S (NP (WP (what)))(VP (VBZ (be)))(REL-FOCUS-ENTY-NP (DT (the))(NN (name)))(PP (IN (of)))(REL-NP (REL-NNP (scarlett))(REL-NNP (o'hara)))(NP (POS ('s))(NN (house))))) |BT| (ROOT (S (VP (VB (mean))(TO (to))(VB (tell)))(NP (PRP (i)))(REL-FOCUS-ENTY-NP (NNP (katie))(REL-NNP (scarlett))(REL-NNP (o'hara)))(NP (WDT (that)))(REL-FOCUS-ENTY-NP (NNP (tara)))(SBAR (DT (that)))(NP (NN (land))))) |ET| 1:0.44177064 2:0.29676035 3:0.33806169 4:0.2301897 5:0.29633364 6:0.084016807 7:0.22677869 8:0.058387421 9:0.1714986 10:0.030642571 11:0.53895509 12:0.46169025 13:0.25663245 14:0.78718281 15:0.65199977 16:0.30372182  |BV| 1:0.23354968 2:0.17742765 3:0.260133 4:0.12698413 5:0.19245009 6:0.053896811 7:0.10846523 8:0.0372678 9:0.083333328 11:0.40141371 12:0.33232519 13:0.09165445 14:0.73575616 15:0.4350937 16:0.31148893  |EV| 
0.5954521702104373925834579495131  |BT| (ROOT (S (NP (WP (what)))(VP (VBZ (be)))(REL-NP (REL-NNP (madonna)))(REL-FOCUS-HUM-NP (POS ('s))(JJ (last))(NN (name))))) |BT| (ROOT (S (NP (PRP (he)))(VP (VBZ (claim)))(REL-FOCUS-HUM-NP (REL-NNP (madonna)))(NP (WP$ (whose))(JJ (full))(NN (name)))(VP (VBZ (be)))(REL-FOCUS-HUM-NP (REL-NNP (madonna))(NNP (ciccone)))(VP (VBZ (have)))(NP (DT (no))(JJR (more))(NN (right))))) |BT| (ROOT (S (NP (WP (what)))(VP (VBZ (be)))(REL-NP (REL-NNP (madonna)))(REL-FOCUS-HUM-NP (POS ('s))(JJ (last))(NN (name))))) |BT| (ROOT (S (NP (WP (who)))(VP (VBP (need)))(REL-FOCUS-HUM-NP (RB (only))(CD (one))(NN (name))(NNP (cher))(CC (and))(REL-NNP (madonna))(CC (and))(NNP (charo))(CC (and))(NNP (ann-margret))))) |ET| 1:0.28800923 2:0.19129682 3:0.22222222 4:0.13797289 5:0.18731716 6:0.03350126 8:0.02357023 11:0.42472896 12:0.35816118 13:0.1573133 14:0.69646662 15:0.56953186 16:0.25038636  |BV| 1:0.19682713 2:0.14080317 3:0.11111111 4:0.10180787 5:0.09245003 6:0.034815531 8:0.02450715 11:0.3005667 12:0.25026011 13:0.02205942 14:0.63662434 15:0.30442721 16:0.22642162  |EV| 
-0.81202166703310196815834842709592  |BT| (ROOT (S (NP (WP (what)))(VP (VBZ (be)))(REL-FOCUS-ENTY-NP (DT (the))(NN (name)))(PP (IN (of)))(REL-NP (DT (the))(REL-NN (airport)))(PP (IN (in)))(REL-NP (REL-NNP (amsterdam))))) |BT| (ROOT (S (PP (IN (out)))(PP (IN (of)))(REL-NP (DT (the))(JJ (present))(JJ (international))(REL-NN (airport)))(NP (PRP (he)))(VP (VBD (say)))(NP (DT (this)))(VP (MD (would))(VB (be)))(REL-FOCUS-ENTY-NP (DT (the))(NNP (klm))(NN (flight)))(PP (TO (to)))(REL-NP (REL-NNP (amsterdam))))) |BT| (ROOT (S (NP (WP (what)))(VP (VBZ (be)))(REL-FOCUS-ENTY-NP (DT (the))(NN (name)))(PP (IN (of)))(REL-NP (DT (the))(REL-NN (airport)))(PP (IN (in)))(REL-NP (REL-NNP (amsterdam))))) |BT| (ROOT (S (REL-NP (REL-NNP (amsterdam)))(REL-NP (NNP (schipol))(REL-NNP (airport)))(NP (NN (&ql))))) |ET| 1:0.48795003 2:0.34091458 3:0.28005603 4:0.24607943 5:0.24077171 6:0.070754908 8:0.049147319 11:0.41192627 12:0.34539846 13:0.094660312 14:0.78459954 15:0.72284234 16:0.22189179  |BV| 1:0.091287091 2:0.050062619 3:0.17407766 4:0.035737079 5:0.1490712 11:0.17505471 12:0.14896989 14:0.54693145 15:0.43188506 16:0.24200073  |EV| 
-0.81202166703310196815834842709592  |BT| (ROOT (S (REL-NP (WP (what))(REL-NN (galaxy)))(VP (VBZ (be)))(ADJP (JJS (closest)))(PP (TO (to)))(REL-FOCUS-ENTY-NP (DT (the))(REL-JJ (milky))(NN (way))))) |BT| (ROOT (S (NP (NN (part)))(PP (IN (of)))(REL-NP (DT (the))(REL-NNP (milky))(NNP (way))(REL-NN (galaxy))))(S (VP (VBP (be)))(PP (IN (in)))(REL-NP (DT (the))(REL-NNP (milky))(NN (way))))(S (NP (DT (the))(JJ (solar))(NN (system)))(ADVP (WRB (where)))(REL-FOCUS-ENTY-NP (NNP (earth)))(VP (VBZ (be))(VBN (situate)))(VP (VBP (have))))) |BT| (ROOT (S (NP (WP (what))(NN (galaxy)))(VP (VBZ (be)))(ADJP (JJS (closest)))(PP (TO (to)))(REL-FOCUS-ENTY-NP (DT (the))(REL-JJ (milky))(NN (way))))) |BT| (ROOT (S (PP (IN (of)))(NP (DT (the))(NNP (andromeda)))(REL-NP (REL-NNP (milky))(NNP (way))(NNP (galaxies))))) |ET| 1:0.41344911 2:0.25322509 3:0.068199433 4:0.18456791 5:0.05607722 6:0.02834101 8:0.02017425 11:0.46963626 12:0.39467612 13:0.15740836 14:0.67389107 15:0.5190177 16:0.37791777  |BV| 1:0.11111111 2:0.05882353 4:0.041666672 11:0.057831489 12:0.04902903 14:0.32690158 15:0.26880273 16:0.40816799  |EV| 
-0.058090737826776338292855683675953  |BT| (ROOT (S (NP (WP (what)))(VP (VBZ (be)))(REL-FOCUS-ENTY-NP (DT (the))(REL-JJ (full))(NN (name)))(PP (IN (of)))(NP (NN (conductor))(NNP (seiji))))) |BT| (ROOT (S (NP (DT (the))(NNP (eu))(NN (semi-conductor))(NN (industry)))(VP (MD (will))(VB (become)))(REL-NP (DT (a))(REL-JJ (full))(NN (participant)))(PP (IN (in)))(NP (DT (the))(NN (agreement)))(VP (VBD (reach)))(PP (IN (between)))(REL-FOCUS-ENTY-NP (NNP (us))(CC (and))(NNP (japan))(NN (semi-conductor))(NNS (company))))) |BT| (ROOT (S (NP (WP (what)))(VP (VBZ (be)))(REL-FOCUS-ENTY-NP (DT (the))(JJ (full))(NN (name)))(PP (IN (of)))(REL-NP (REL-NN (conductor))(REL-NNP (seiji))))) |BT| (ROOT (S (NP (CD (2002)))(PP (IN (of)))(REL-FOCUS-ENTY-NP (NNP (bso))(REL-NN (conductor))(REL-NNP (seiji))(NNP (ozawa))))(S (PP (IN (by)))(REL-FOCUS-ENTY-NP (NNP (susan))(NNP (larson))))) |ET| 1:0.18257418 2:0.099944487 3:0.093250483 4:0.070710681 5:0.072168782 11:0.49690765 12:0.4301545 13:0.15220389 14:0.70714831 15:0.5793786 16:0.23291352  |BV| 1:0.20100756 2:0.14002801 3:0.2409658 4:0.099602379 5:0.18257418 6:0.033058979 7:0.10721125 8:0.023002191 9:0.089087076 11:0.39733303 12:0.33371192 13:0.088173337 14:0.67549938 15:0.40467665 16:0.25962856  |EV| 
0.81202166703310196815834842709592  |BT| (ROOT (S (ADVP (WRB (where)))(PP (IN (on)))(NP (DT (the))(NN (body)))(NP (PRP (you)))(VP (VB (find)))(REL-FOCUS-LOC-NP (DT (the))(REL-NNS (jowl))))) |BT| (ROOT (S (REL-NP (PRP$ (you))(REL-NNS (jowl)))(VP (VBP (be))(RB (not))(VBG (sag))))) |BT| (ROOT (S (ADVP (WRB (where)))(PP (IN (on)))(NP (DT (the))(NN (body)))(NP (PRP (you)))(VP (VB (find)))(REL-FOCUS-LOC-NP (DT (the))(REL-NNS (jowl))))) |BT| (ROOT (S (VP (VBD (say)))(SBAR (IN (that)))(REL-NP (REL-NNS (jowl)))(VP (VBP (be)))(NP (JJ (such))(DT (a))(JJ (well-recognized))(NN (symbol)))(NP (DT (the))(NN (man)))(PP (IN (with)))(REL-NP (DT (the))(JJS (biggest))(REL-NNS (jowl))))) |ET| 1:0.20412415 2:0.12156613 3:0.1490712 4:0.089205161 5:0.11785113 11:0.10611162 12:0.087537616 14:0.38799652 15:0.22743785 16:0.21328473  |BV| 1:0.31740552 2:0.18811335 3:0.15569979 4:0.13645765 5:0.11909827 11:0.50803983 12:0.43090641 13:0.19185884 14:0.72383499 15:0.55087459 16:0.20453908  |EV| 
0.25655838146333725946490744718176  |BT| (ROOT (S (NP (WP (what))(NN (galaxy)))(VP (VBZ (be)))(ADJP (JJS (closest)))(PP (TO (to)))(REL-FOCUS-ENTY-NP (DT (the))(REL-JJ (milky))(NN (way))))) |BT| (ROOT (S (PP (IN (of)))(NP (DT (the))(NNP (andromeda)))(REL-NP (REL-NNP (milky))(NNP (way))(NNP (galaxies))))) |BT| (ROOT (S (REL-NP (WP (what))(REL-NN (galaxy)))(VP (VBZ (be)))(REL-ADJP (REL-JJS (closest)))(PP (TO (to)))(REL-FOCUS-ENTY-NP (DT (the))(REL-JJ (milky))(NN (way))))) |BT| (ROOT (S (NP (CD (one)))(PP (IN (of)))(REL-NP (DT (the))(REL-JJS (closest))(NNS (member)))(PP (IN (of)))(NP (DT (a))(NN (class)))(NP (DT (the))(RBS (most))(JJ (common)))(PP (IN (in)))(REL-NP (DT (the))(REL-NNP (milky))(NNP (way))(REL-NN (galaxy))))) |ET| 1:0.11111111 2:0.05882353 4:0.041666672 11:0.057831489 12:0.04902903 14:0.32690158 15:0.26880273 16:0.40816799  |BV| 1:0.37851664 2:0.21737453 3:0.2309401 4:0.15683874 5:0.17817415 11:0.26542968 12:0.21875 13:0.025717219 14:0.61181128 15:0.39162484 16:0.47516608  |EV| 
0.81202166703310196815834842709592  |BT| (ROOT (S (REL-FOCUS-ENTY-NP (WP (what))(REL-NN (liverpool))(REL-NN (club)))(VP (VBD (spawn)))(NP (DT (the))(NNP (beatles))))) |BT| (ROOT (S (REL-NP (NNP (mccartney-liverpool))(REL-NN (liverpool)))(NP (NNP (england)))(REL-FOCUS-ENTY-NP (NNP (paul))(NNP (mccartney))(NNS (return)))(PP (TO (to)))(REL-NP (REL-NNP (liverpool)))(REL-NP (POS ('s))(NNP (cavern))(REL-NNP (club))))(S (PP (IN (by)))(REL-FOCUS-ENTY-NP (NNP (allan))(NNP (kozinn))))) |BT| (ROOT (S (REL-FOCUS-ENTY-NP (WP (what))(REL-NN (liverpool))(NN (club)))(VP (VBD (spawn)))(REL-NP (DT (the))(REL-NNP (beatles))))) |BT| (ROOT (S (REL-FOCUS-ENTY-NP (DT (the))(REL-NNP (beatles)))(NP (NN (feature))(NN (film)))(VP (JJ (''let)))(VP (VBN (premiere)))(PP (IN (in)))(REL-NP (NNP (london))(CC (and))(REL-NNP (liverpool))(CD (one))(NN (week)))(SBAR (IN (after)))(NP (PRP (it))))) |ET| 1:0.080582298 2:0.043314811 3:0.078811042 4:0.03068582 5:0.058025889 11:0.28246635 12:0.24358869 13:0.064549722 14:0.49053022 15:0.32913232 16:0.2668713  |BV| 1:0.1973855 2:0.14694367 3:0.082478613 4:0.10540926 5:0.06085806 6:0.04397995 8:0.031083491 11:0.40144828 12:0.33503917 13:0.12257028 14:0.64141536 15:0.40793109 16:0.27057213  |EV| 
0.81202166703310196815834842709592  |BT| (ROOT (S (NP (WP (who)))(VP (VBD (invent)))(REL-FOCUS-HUM-NP (DT (the))(REL-NN (cotton))(REL-NN (gin))))) |BT| (ROOT (S (PP (IN (in)))(NP (CD (1794)))(REL-FOCUS-HUM-NP (NNP (eli))(NNP (whitney)))(VP (VBD (receive)))(NP (DT (a))(NN (patent)))(PP (IN (for)))(REL-NP (PRP$ (he))(REL-NN (cotton))(REL-NN (gin)))(NP (DT (a))(NN (invention)))(NP (WDT (that)))(VP (VBD (revolutionize)))(NP (NNP (america)))(REL-NP (POS ('s))(REL-NN (cotton))(NN (industry))))) |BT| (ROOT (S (NP (WP (who)))(VP (VBD (invent)))(REL-FOCUS-HUM-NP (DT (the))(REL-NN (cotton))(REL-NN (gin))))) |BT| (ROOT (S (NP (DT (the))(NN (invention)))(PP (IN (of)))(REL-NP (DT (the))(REL-NN (cotton))(REL-NN (gin)))(PP (IN (in)))(NP (CD (1793)))(NP (DT (the))(NN (rise)))(PP (IN (of)))(REL-NP (REL-NN (cotton)))(PP (IN (as)))(NP (DT (the))(NN (world))))) |ET| 1:0.23145501 2:0.1722922 3:0.34426519 4:0.12433397 5:0.26490647 6:0.052057918 7:0.12038585 8:0.0372678 9:0.10050378 11:0.57551157 12:0.49029034 13:0.28867513 14:0.70224553 15:0.44944298 16:0.40473241  |BV| 1:0.40016338 2:0.29785654 3:0.31139958 4:0.24182542 5:0.23819654 6:0.12598816 7:0.10721125 8:0.089802653 9:0.089087076 10:0.048393391 11:0.51880121 12:0.44907311 13:0.22874786 14:0.69648528 15:0.39380735 16:0.37935871  |EV| 
-0.32265773931942409724626941169845  |BT| (ROOT (S (NP (WP (who)))(VP (VBD (be)))(REL-FOCUS-HUM-NP (DT (the))(JJ (first))(NN (person)))(REL-VP (TO (to))(REL-VB (reach)))(REL-NP (DT (the))(REL-JJ (south))(REL-NN (pole))))) |BT| (ROOT (S (NP (NN (hke123113)))(REL-NP (NNP (singapore))(NNPS (trekkers))(REL-NNP (reach))(REL-NNP (south))(REL-NNP (pole))))) |BT| (ROOT (S (NP (WP (who)))(VP (VBD (be)))(REL-FOCUS-HUM-NP (DT (the))(JJ (first))(NN (person)))(REL-VP (TO (to))(REL-VB (reach)))(REL-NP (DT (the))(REL-JJ (south))(REL-NN (pole))))) |BT| (ROOT (S (NP (PDT (all))(DT (the))(NN (way)))(PP (TO (to)))(REL-NP (DT (the))(REL-NNP (south))(REL-NNP (pole)))(REL-VP (RB (first))(REL-VBN (reach)))(PP (IN (in)))(NP (CD (1911))))(S (REL-NP (DT (the))(REL-NNP (south))(REL-NNP (pole)))(VP (VBZ (be)))(NP (JJ (stable))(NN (ice))))) |ET| 11:0.05455447 12:0.047140449 14:0.30702084 15:0.22686398 16:0.29276541  |BV| 1:0.40967324 2:0.23749575 3:0.05763904 4:0.1714986 5:0.043033149 11:0.35613161 12:0.30413812 13:0.089562222 14:0.66267025 15:0.52015597 16:0.27396485  |EV| 
-0.81202166703310196815834842709592  |BT| (ROOT (S (REL-FOCUS-NUM-NP (WRB (how))(JJ (many))(NNS (room)))(VP (VBZ (do)))(REL-NP (DT (the))(REL-NNP (las))(REL-NNP (vegas))(REL-NNP (mgm))(REL-NNP (grand))(REL-NNP (hotel)))(VP (VBP (have))))) |BT| (ROOT (S (NP (WP (what)))(VP (VBD (be)))(REL-NP (DT (the))(JJS (largest))(REL-NN (hotel)))(PP (IN (in)))(NP (DT (the))(NN (world)))(VP (VBZ (be)))(ADVP (RB (now)))(REL-NP (DT (the))(REL-NNP (las))(REL-NNP (vegas))(NNP (hilton)))(REL-NP (DT (the))(JJ (former))(REL-NNP (mgm))(REL-NNP (grand)))(ADVP (RB (now)))(REL-NP (NNP (ballys-las))(REL-NNP (vegas)))(REL-NP (DT (the))(JJ (current))(REL-NNP (mgm))(REL-NNP (grand)))(NP (DT (the))(NN (world)))(NP (POS ('s))(JJS (largest)))(VP (VBD (open)))(PP (IN (in)))(REL-FOCUS-NUM-NP (CD (1993))))) |BT| (ROOT (S (REL-FOCUS-NUM-NP (WRB (how))(JJ (many))(NNS (room)))(VP (VBZ (do)))(REL-NP (DT (the))(REL-NNP (las))(REL-NNP (vegas))(REL-NNP (mgm))(REL-NNP (grand))(REL-NNP (hotel)))(VP (VBP (have))))) |BT| (ROOT (S (ADVP (RB (meantime)))(REL-NP (REL-NNP (mgm))(REL-NNP (grand)))(NP (POS ('s))(NNS (earnings)))(VP (VBP (have))(VBN (be))(VBG (rise)))(NP (PRP (it)))(VP (VBD (cite)))(REL-NP (JJ (strong))(NN (casino))(CC (and))(REL-NN (hotel))(NNS (volume)))(PP (IN (at)))(REL-NP (PRP$ (its))(JJ (5,005-room))(REL-NNP (mgm))(REL-NNP (grand)))(PP (IN (in)))(REL-NP (REL-NNP (las))(REL-NNP (vegas)))(NP (NNS (earnings)))(PP (IN (from)))(NP (DT (the))(JJ (successful))(NN (opening)))(PP (IN (of)))(REL-NP (DT (the))(REL-NNP (mgm))(REL-NNP (grand))(NNP (detroit))(NNP (casino))))) |ET| 1:0.36740473 2:0.28211227 3:0.4065578 4:0.21904291 5:0.2981424 6:0.1054796 7:0.15249857 8:0.073323563 9:0.10998534 10:0.02305715 11:0.55639809 12:0.49236679 13:0.26668698 14:0.67002571 15:0.6102947 16:0.5030973  |BV| 1:0.40000001 2:0.29840153 3:0.4234708 4:0.21488611 5:0.31298432 6:0.090512559 7:0.17660432 8:0.06285394 9:0.12830006 11:0.68911725 12:0.62680423 13:0.45658833 14:0.72879809 15:0.62495136 16:0.53051913  |EV| 
0.51430570116828455695667798863724  |BT| (ROOT (S (ADVP (WRB (when)))(VP (VBD (be)))(REL-FOCUS-NUM-NP (NNP (oj))(REL-NNP (simpson)))(VP (VBN (arrest)))(PP (IN (for)))(REL-NP (REL-NN (murder))))) |BT| (ROOT (S (REL-NP (REL-NNP (simpson)))(VP (VBD (be))(VBN (acquit)))(PP (IN (of)))(REL-FOCUS-NUM-NP (DT (the))(CD (1994))(REL-NNS (murder)))(PP (IN (of)))(REL-NP (PRP$ (he))(NN (ex-wife))(NNP (nicole))(NNP (brown))(REL-NNP (simpson)))(NP (PRP$ (she))(NN (friend))(NNP (ron))(NNP (goldman))))(S (VP (VBN (file)))(PP (IN (after)))(REL-NP (DT (the))(REL-NNS (murder))))) |BT| (ROOT (S (ADVP (WRB (when)))(VP (VBD (be)))(REL-FOCUS-NUM-NP (NNP (oj))(NNP (simpson)))(VP (VBN (arrest)))(PP (IN (for)))(REL-NP (REL-NN (murder))))) |BT| (ROOT (S (NP (JJ (oj-longevity))(CD (six))(NNS (year)))(PP (IN (after)))(REL-NP (DT (the))(NNP (simpson/goldman))(REL-NNS (murder)))(NP (DT (the))(JJ (mere))(NN (mention)))(PP (IN (of))))) |ET| 1:0.31277162 2:0.17654698 3:0.24854791 4:0.12657551 5:0.18490008 11:0.47018296 12:0.39497656 13:0.10849076 14:0.70311069 15:0.53937846 16:0.25172004  |BV| 1:0.068041377 2:0.03688556 3:0.082478613 4:0.02608203 5:0.06085806 11:0.2222771 12:0.18184824 14:0.50065565 15:0.25546592 16:0.39761817  |EV| 
0.3711998498802890900094553217059  |BT| (ROOT (S (ADVP (WRB (where)))(VP (VBZ (be)))(REL-FOCUS-LOC-NP (DT (the))(REL-JJ (national))(REL-NN (hurricane))(REL-NN (center)))(VP (VBN (locate))))) |BT| (ROOT (S (NP (PRP (it)))(VP (VBZ (be)))(REL-NP (DT (a))(JJ (well-organized))(REL-NN (hurricane)))(NP (EX (there)))(VP (VBZ (be)))(NP (DT (the))(JJ (east)))(PP (IN (of)))(REL-NP (PRP$ (its))(REL-NN (center)))(VP (VBD (say)))(NP (NNP (richard))(NNP (pasch)))(REL-NP (DT (a))(REL-NN (hurricane))(NN (specialist)))(PP (IN (at)))(REL-NP (DT (the))(REL-NNP (national))(REL-NNP (hurricane))(REL-NNP (center)))(PP (IN (outside)))(REL-FOCUS-LOC-NP (NNP (miami))))) |BT| (ROOT (S (ADVP (WRB (where)))(VP (VBZ (be)))(REL-FOCUS-LOC-NP (DT (the))(REL-JJ (national))(REL-NN (hurricane))(REL-NN (center)))(VP (VBN (locate))))) |BT| (ROOT (S (VP (VBN (plan)))(PP (IN (for)))(REL-FOCUS-LOC-NP (DT (the))(CD (1999))(NNP (atlantic))(REL-NN (hurricane))(NN (season)))(PP (VBG (accord)))(PP (TO (to)))(REL-NP (DT (the))(REL-NNP (national))(REL-NNP (hurricane))(REL-NNP (center))))) |ET| 1:0.31180477 2:0.17808765 3:0.18156826 4:0.12818708 5:0.13483997 11:0.4369424 12:0.37994164 13:0.22151142 14:0.53832239 15:0.40745986 16:0.26111543  |BV| 1:0.25 2:0.13483997 3:0.09166985 4:0.095491052 5:0.068041377 11:0.21016277 12:0.17342199 13:0.035533451 14:0.44814634 15:0.39281523 16:0.26323158  |EV| 
0.81202166703310196815834842709592  |BT| (ROOT (S (NP (WP (what)))(VP (VBZ (be)))(REL-FOCUS-ENTY-NP (DT (the))(REL-JJS (coldest))(REL-NN (place)))(PP (IN (on)))(REL-NP (REL-NN (earth))))) |BT| (ROOT (S (REL-FOCUS-ENTY-NP (NNP (nielsen)))(VP (VBZ (be)))(NP (NN (rescue)))(PP (IN (from)))(REL-NP (DT (the))(REL-JJS (coldest))(REL-NN (place)))(PP (IN (on)))(REL-NP (REL-NNP (earth)))(VP (VBD (be)))(ADJP (JJ (possible))))) |BT| (ROOT (S (NP (WP (what)))(VP (VBZ (be)))(REL-FOCUS-ENTY-NP (DT (the))(REL-JJS (coldest))(REL-NN (place)))(PP (IN (on)))(REL-NP (REL-NN (earth))))) |BT| (ROOT (S (VP (TO (to))(VB (see)))(NP (DT (the))(NNS (penguin)))(REL-NP (DT (the))(REL-NN (place)))(ADVP (RB (simply)))(VP (VBD (get))))(S (NP (PRP (it)))(VP (VBZ (be)))(REL-NP (DT (the))(REL-JJS (coldest))(JJS (highest))(VB (driest))(VB (windiest))(REL-NN (place)))(PP (IN (on)))(REL-NP (REL-NN (earth)))(NP (PRP (she)))(VP (VBZ (say))))) |ET| 1:0.30338994 2:0.23556598 3:0.18090682 4:0.19928952 5:0.13608275 6:0.12403473 7:0.079305157 8:0.10369517 9:0.06537205 10:0.081559092 11:0.3470993 12:0.30155879 13:0.13137724 14:0.65741962 15:0.6863566 16:0.21677266  |BV| 1:0.38807526 2:0.32861677 3:0.46625239 4:0.27776772 5:0.36084393 6:0.19215378 7:0.13245323 8:0.13423121 9:0.11111111 10:0.070578471 11:0.37426156 12:0.311528 13:0.13074408 14:0.74371219 15:0.64497423 16:0.3189801  |EV| 
-0.51718784001021056440094980644062  |BT| (ROOT (S (NP (WP (what)))(VP (VBZ (be)))(REL-NP (REL-NNP (speedy))(REL-NNP (claxton)))(REL-FOCUS-HUM-NP (REL-POS ('s))(JJ (real))(NN (name))))) |BT| (ROOT (S (NP (PRP (they)))(ADVP (RB (there)))(REL-NP (REL-NNP (speedy))(REL-NNP (claxton)))(NP (WP (who)))(VP (VBD (be))(VBN (name)))(NP (DT (the))(NN (tournament)))(REL-NP (REL-POS ('s))(JJ (outstanding))(NN (player)))(VP (VBD (stand)))(PP (IN (on)))(PP (IN (of)))(NP (DT (the))(NN (scorer)))(REL-NP (REL-POS ('s))(NN (table)))(VP (TO (to))(VB (take)))(PP (IN (in))))) |BT| (ROOT (S (NP (WP (what)))(VP (VBZ (be)))(REL-NP (REL-NNP (speedy))(REL-NNP (claxton)))(REL-FOCUS-HUM-NP (POS ('s))(JJ (real))(NN (name))))) |BT| (ROOT (S (PP (IN (over)))(NP (NNP (hofstra)))(REL-FOCUS-HUM-NP (NNP (alexander)))(VP (VBD (hold)))(REL-FOCUS-HUM-NP (NNP (craig))(REL-JJ (speedy))(REL-NN (claxton)))(PP (TO (to)))(NP (CD (20))(NNS (point))))) |ET| 1:0.2090199 2:0.14708349 3:0.27565891 4:0.10855649 5:0.20361574 6:0.02845552 7:0.069843031 8:0.01984971 9:0.052704629 11:0.29754889 12:0.25385988 13:0.086181283 14:0.59093338 15:0.50101507 16:0.28899136  |BV| 11:0.3223719 12:0.26457512 13:0.062439051 14:0.58000189 15:0.25596669 16:0.28786048  |EV| 
-0.75525578021159556207919649750693  |BT| (ROOT (S (NP (WP (what)))(VP (VBZ (be)))(REL-FOCUS-LOC-NP (REL-NN (capital)))(PP (IN (of)))(REL-NP (REL-NNP (maryland))))) |BT| (ROOT (S (NP (PRP (he)))(VP (VBZ (believe)))(REL-FOCUS-LOC-NP (DT (the))(REL-NNP (maryland))(NNS (case)))(VP (MD (will))(VB (become)))(NP (DT (a))(JJ (national))(NN (effort))))(S (VP (VBD (be))(VBN (file)))(PP (IN (in)))(REL-FOCUS-LOC-NP (REL-NNP (maryland)))(SBAR (IN (because)))(NP (PDT (all))(DT (the))(NNS (plaintiff)))(PP (IN (outside)))(NP (DT (the))(NN (nation)))(REL-NP (POS ('s))(REL-NN (capital)))(NP (DT (the))(NNS (lawyer)))(VP (VBD (say))))) |BT| (ROOT (S (NP (WP (what)))(VP (VBZ (be)))(REL-FOCUS-LOC-NP (REL-NN (capital)))(PP (IN (of)))(REL-NP (REL-NNP (maryland))))) |BT| (ROOT (S (REL-FOCUS-LOC-NP (REL-NNP (maryland)))(NP (NNP (joe))(NNP (platania)))(NP (NNP (wcbm)))(REL-FOCUS-LOC-NP (NNP (baltimore)))(NP (NNP (joe))(NNP (gross)))(REL-FOCUS-LOC-NP (DT (the))(REL-NNP (capital))(NNP (annapolis))))) |ET| 1:0.18731716 2:0.10701922 3:0.26413527 4:0.078072011 5:0.21997067 11:0.29059327 12:0.245781 13:0.045931522 14:0.67110091 15:0.48445845 16:0.17756324  |BV| 1:0.064549722 2:0.039936151 3:0.13245323 4:0.03021989 5:0.1132277 11:0.2111095 12:0.18425693 13:0.03077287 14:0.53641587 15:0.2753028 16:0.19375044  |EV| 
-0.53062743995335637237076298333704  |BT| (ROOT (S (REL-FOCUS-ENTY-NP (DT (the))(REL-NN (duomo))))) |BT| (ROOT (S (NP (DT (the))(NN (bell))(NN (tower)))(PP (IN (of)))(REL-NP (DT (the))(REL-NN (duomo))))(S (PP (IN (from)))(NP (DT (the))(NN (top)))(REL-FOCUS-ENTY-NP (NNP (rosato)))(VP (VBZ (say)))(NP (PRP (it))))(S (NP (DT (the))(JJ (golden))(JJ (snowflaked))(NN (ceiling)))(PP (IN (of)))(REL-NP (DT (the))(REL-NN (duomo))(NNS (cheer)))(NP (PRP (she))))) |BT| (ROOT (S (REL-FOCUS-ENTY-NP (DT (the))(REL-NN (duomo))))) |BT| (ROOT (S (PP (IN (of)))(NP (NNP (florence)))(REL-NP (DT (the))(JJ (central))(NNP (piazza))(FW (del))(REL-NNP (duomo)))(VP (VBD (be))(VBN (close)))(PP (TO (to))))) |ET| 1:0.32907259 2:0.25444156 3:0.24806947 4:0.19827063 5:0.20851441 6:0.071842119 8:0.054192781 11:0.46407509 12:0.41654861 13:0.19145551 14:0.60548097 15:0.45616952 16:0.19202623  |BV| 1:0.13867505 2:0.079242893 4:0.059628479 11:0.20272121 12:0.17787813 14:0.46677083 15:0.25345433 16:0.16806813  |EV| 
0.81202166703310196815834842709592  |BT| (ROOT (S (NP (WP (what)))(VP (VBZ (be)))(REL-FOCUS-LOC-NP (REL-NN (capital)))(PP (IN (of)))(REL-NP (REL-NNP (maryland))))) |BT| (ROOT (S (REL-FOCUS-LOC-NP (REL-NNP (maryland)))(NP (NNP (joe))(NNP (platania)))(NP (NNP (wcbm)))(REL-FOCUS-LOC-NP (NNP (baltimore)))(NP (NNP (joe))(NNP (gross)))(REL-FOCUS-LOC-NP (DT (the))(REL-NNP (capital))(NNP (annapolis))))) |BT| (ROOT (S (NP (WP (what)))(VP (VBZ (be)))(REL-FOCUS-LOC-NP (REL-NN (capital)))(PP (IN (of)))(REL-NP (REL-NNP (maryland))))) |BT| (ROOT (S (NP (CD (two))(JJ (other))(NNS (group)))(PP (IN (from)))(REL-FOCUS-LOC-NP (REL-NNP (maryland)))(VP (VBD (be))(TO (to))(VB (meet)))(NP (PRP (they)))(PP (IN (on)))(NP (DT (the))(NN (nation)))(REL-NP (POS ('s))(REL-NN (capital)))(PP (IN (by)))(NP (RB (about))(CD (11))(NN (a.m.))))) |ET| 1:0.064549722 2:0.039936151 3:0.13245323 4:0.03021989 5:0.1132277 11:0.2111095 12:0.18425693 13:0.03077287 14:0.53641587 15:0.2753028 16:0.19375044  |BV| 1:0.24494897 2:0.12921914 3:0.25197631 4:0.091287091 5:0.21081851 11:0.28690228 12:0.23668233 13:0.069504797 14:0.71095699 15:0.49662203 16:0.19375044  |EV| 
0.81202166703310196815834842709592  |BT| (ROOT (S (REL-FOCUS-LOC-NP (WP (what))(NN (continent)))(VP (VBZ (be)))(REL-ADVP (REL-RB (togo)))(PP (IN (on))))) |BT| (ROOT (S (NP (NNP (lome)))(REL-NP (REL-NNP (togo))(NNP (ap)))(NP (JJ (african))(NNS (leader)))(VP (VBD (sign))))) |BT| (ROOT (S (REL-FOCUS-LOC-NP (WP (what))(NN (continent)))(VP (VBZ (be)))(REL-ADVP (REL-RB (togo)))(PP (IN (on))))) |BT| (ROOT (S (REL-NP (REL-NNP (togo)))(NP (POS ('s))(NN (president)))(VP (VBZ (look))(TO (to))(VB (extend))))) |ET| 11:0.15256429 12:0.1300665 14:0.36319324 15:0.1684663 16:0.18996687  |BV| 1:0.11785113 2:0.062869459 4:0.044946659 11:0.28941438 12:0.23814484 13:0.052704629 14:0.51041955 15:0.28743151 16:0.19258498  |EV| 
-0.619457441074428682981078964076  |BT| (ROOT (S (ADVP (WRB (when)))(VP (VBD (be)))(REL-FOCUS-NUM-NP (DT (the))(NNP (u.s.))(REL-NN (invasion)))(PP (IN (of)))(REL-NP (REL-NNP (haiti))))) |BT| (ROOT (S (NP (CD (nine))(NNS (time)))(PP (JJ (such))(IN (as)))(REL-NP (DT (the))(REL-NN (invasion)))(PP (IN (of)))(NP (NNP (grenada)))(NP (PRP$ (its))(NN (intervention)))(PP (IN (in)))(REL-NP (NNP (somalia))(CC (and))(REL-NNP (haiti))))) |BT| (ROOT (S (ADVP (WRB (when)))(VP (VBD (be)))(REL-FOCUS-NUM-NP (DT (the))(REL-NNP (u.s.))(REL-NN (invasion)))(PP (IN (of)))(REL-NP (REL-NNP (haiti))))) |BT| (ROOT (S (REL-NP (DT (the))(REL-NNP (u.s.))(NN (military)))(VP (VBD (pull)))(ADVP (IN (out)))(PP (IN (of)))(REL-NP (REL-NNP (haiti)))(NP (DT (this))(NN (month)))(VP (VBG (end)))(VP (VBD (begin)))(PP (IN (with)))(REL-FOCUS-NUM-NP (DT (the))(CD (1994))(JJ (u.s.-led))(REL-NN (invasion)))(NP (WDT (that)))(VP (VBD (restore))(VBN (elect))))(S (PP (IN (for)))(NP (NNP (cbs)))(REL-FOCUS-NUM-NP (POS ('s))(NNP (sunday))(NNP (morning))))) |ET| 1:0.30323923 2:0.20149815 3:0.14704292 4:0.14803913 5:0.11111111 6:0.02939905 8:0.020593399 11:0.42214784 12:0.3596473 13:0.16222142 14:0.65700179 15:0.4705267 16:0.19704631  |BV| 1:0.33678767 2:0.23841582 3:0.20459829 4:0.16903085 5:0.15430336 6:0.06163336 8:0.043033149 11:0.5500499 12:0.46814084 13:0.17556173 14:0.74437231 15:0.62257797 16:0.19286305  |EV| 
-0.81202166703310196815834842709592  |BT| (ROOT (S (ADVP (WRB (where)))(VP (VBD (be)))(REL-FOCUS-LOC-NP (DT (the))(REL-NN (battle)))(PP (IN (of)))(NP (NNP (alamo)))(VP (VBD (fight))))) |BT| (ROOT (S (REL-NP (DT (a))(REL-NNP (battle))(NNP (fought))(NNP (line)))(PP (IN (by)))(NP (NNP (line))))) |BT| (ROOT (S (ADVP (WRB (where)))(VP (VBD (be)))(REL-FOCUS-LOC-NP (DT (the))(REL-NN (battle)))(PP (IN (of)))(REL-NP (REL-NNP (alamo)))(VP (VBD (fight))))) |BT| (ROOT (S (PP (IN (after)))(REL-NP (DT (the))(REL-NNP (alamo))(REL-NN (battle)))(NP (DT (the))(NN (struggle)))(VP (VBD (shift))))) |ET| 11:0.27104107 12:0.23385359 13:0.062994078 14:0.42975995 15:0.32443142 16:0.23570904  |BV| 1:0.44194174 2:0.23973165 3:0.26967993 4:0.17039955 5:0.21081851 11:0.40098321 12:0.3307189 13:0.07647191 14:0.71129346 15:0.61145842 16:0.24559616  |EV| 
-0.51558406818590551967673718536389  |BT| (ROOT (S (REL-FOCUS-ENTY-NP (WP (what))(REL-NN (instrument)))(REL-NP (DT (the))(REL-NN (jazz))(REL-NN (musician))(NNP (art))(NNP (tatum))(NN (play))))) |BT| (ROOT (S (REL-NP (DT (the))(NNP (guinea-born))(REL-NN (musician)))(VP (VBD (settle)))(PP (IN (in)))(NP (DT (a))(JJ (integral))(NN (part)))(PP (IN (of)))(REL-NP (DT (the))(JJ (national))(REL-NN (jazz))(NN (scene))))(S (PP (IN (for)))(VP (VBG (blend)))(REL-NP (JJ (traditional))(REL-NNS (instrument)))(NP (NNS (rhythm)))(PP (IN (with)))(REL-NP (JJ (modern))(REL-NNS (instrument))))) |BT| (ROOT (S (REL-FOCUS-ENTY-NP (WP (what))(NN (instrument)))(REL-NP (DT (the))(REL-NN (jazz))(NN (musician))(REL-NNP (art))(REL-NNP (tatum))(NN (play))))) |BT| (ROOT (S (SBAR (IN (as)))(PP (IN (with)))(REL-FOCUS-ENTY-NP (JJ (fellow))(REL-NN (jazz))(NN (piano))(NNS (legend))(REL-NNP (art))(REL-NNPS (tatum))(CC (and))(NNP (oscar))(NNP (peterson)))(NP (NNP (tyner)))(NP (POS ('s))(NN (technique))))) |ET| 1:0.33508313 2:0.19031443 3:0.19312182 4:0.13608275 5:0.13801311 11:0.43529937 12:0.37632528 13:0.12883678 14:0.52944911 15:0.39968339 16:0.30236503  |BV| 1:0.18136907 2:0.12026487 3:0.16888013 4:0.084895268 5:0.11925696 6:0.0232307 7:0.047619049 8:0.016037511 9:0.034020688 11:0.408461 12:0.35187206 13:0.076498762 14:0.52228796 15:0.30898875 16:0.30595878  |EV| 
-0.81202166703310196815834842709592  |BT| (ROOT (S (ADVP (WRB (when)))(REL-FOCUS-NUM-NP (DT (the))(REL-NNP (persian))(REL-NNP (gulf))(REL-NNP (war)))(REL-VP (REL-VBP (occur))))) |BT| (ROOT (S (NP (DT (the))(CD (21))(CD (million))(NN (barrel))(NN (release)))(NP (WDT (that)))(REL-VP (REL-VBD (occur)))(PP (IN (during)))(REL-NP (DT (the))(REL-JJ (persian))(REL-NNP (gulf))(REL-NNP (war))))) |BT| (ROOT (S (ADVP (WRB (when)))(REL-FOCUS-NUM-NP (DT (the))(REL-NNP (persian))(REL-NNP (gulf))(REL-NNP (war)))(VP (VBP (occur))))) |BT| (ROOT (S (REL-FOCUS-NUM-NP (CD (1991)))(REL-FOCUS-NUM-NP (CD (119.6))(NNS (cent)))(REL-NP (REL-NNP (persian))(REL-NNP (gulf))(REL-NNP (war))))) |ET| 1:0.36927447 2:0.24370871 3:0.27153769 4:0.17521916 5:0.20100756 6:0.042295489 7:0.086066298 8:0.02969569 9:0.06537205 11:0.33687431 12:0.29021475 13:0.10063092 14:0.49573296 15:0.38326538 16:0.33775651  |BV| 1:0.35355338 2:0.31311214 3:0.56980288 4:0.26726124 5:0.51639777 6:0.21483447 7:0.44721359 8:0.15430336 9:0.35355338 10:0.083624199 11:0.44585082 12:0.3796283 13:0.23312619 14:0.61864686 15:0.45910212 16:0.3237969  |EV| 
-0.35861973093982391080913885161863  |BT| (ROOT (S (NP (WP (what)))(VP (VBZ (be)))(REL-NP (REL-NNP (buzz))(REL-NNP (aldrin)))(REL-FOCUS-HUM-NP (POS ('s))(JJ (real))(JJ (first))(NN (name))))) |BT| (ROOT (S (NP (NNP (apollo))(CD (11)))(PP (IN (astronaut)))(REL-NP (REL-NNP (buzz))(REL-NNP (aldrin)))(VP (VBD (do)))(NP (PRP (it))))) |BT| (ROOT (S (NP (WP (what)))(VP (VBZ (be)))(REL-NP (REL-NNP (buzz))(REL-NNP (aldrin)))(REL-FOCUS-HUM-NP (POS ('s))(JJ (real))(JJ (first))(NN (name))))) |BT| (ROOT (S (NP (NNP (nyt102)))(REL-FOCUS-HUM-NP (NNP (edwin))(REL-NNP (buzz))(REL-NNP (aldrin)))(REL-FOCUS-HUM-NP (NNP (jr.)))(VP (VBZ (leave)))(NP (DT (a))(NN (footprint))))) |ET| 1:0.2 2:0.14150983 3:0.27500954 4:0.099014752 5:0.20412415 6:0.039374959 7:0.11547005 8:0.02749287 9:0.089087076 11:0.28635132 12:0.23681587 13:0.0270666 14:0.64413732 15:0.44700986 16:0.30018398  |BV| 1:0.12379689 2:0.069295891 3:0.24743582 4:0.04950738 5:0.18257418 7:0.10259784 9:0.078567423 11:0.28074497 12:0.23704354 14:0.61602437 15:0.4080677 16:0.29230583  |EV| 
0.81202166703310196815834842709592  |BT| (ROOT (S (ADVP (WRB (when)))(REL-FOCUS-NUM-NP (DT (the))(REL-NNP (vietnam))(REL-NNP (war))(REL-NN (end))))) |BT| (ROOT (S (NP (PRP (he)))(VP (VBZ (be))(VBG (plan))(TO (to))(VB (visit)))(REL-NP (REL-NNP (vietnam)))(PP (IN (in)))(REL-FOCUS-NUM-NP (NNP (november)))(NP (DT (the))(JJ (first))(NNP (u.s.))(NN (leader)))(VP (TO (to))(VB (do)))(NP (DT (the))(NNP (u.s.))(NN (involvement)))(PP (IN (in)))(REL-NP (DT (the))(REL-NNP (vietnam))(REL-NNP (war)))(REL-VP (REL-VBD (end)))(PP (IN (in)))(REL-FOCUS-NUM-NP (CD (1975))))) |BT| (ROOT (S (ADVP (WRB (when)))(REL-FOCUS-NUM-NP (DT (the))(REL-NNP (vietnam))(REL-NNP (war))(REL-NN (end))))) |BT| (ROOT (S (NP (DT (a))(JJ (former))(NN (prisoner)))(PP (IN (of)))(REL-NP (REL-NN (war)))(VP (VBD (be)))(PP (IN (in)))(REL-NP (REL-NNP (vietnam)))(PP (IN (on)))(REL-FOCUS-NUM-NP (NNP (thursday)))(VP (TO (to))(VB (commemorate)))(NP (DT (the))(JJ (25th))(NN (anniversary)))(PP (IN (of)))(REL-NP (DT (the))(REL-NN (end)))(PP (IN (of)))(REL-NP (DT (the))(REL-NNP (vietnam))(REL-NNP (war))))) |ET| 1:0.44582257 2:0.3570751 3:0.51639777 4:0.30795658 5:0.46980923 6:0.20707884 7:0.37796447 8:0.1754116 9:0.31622776 10:0.14002801 11:0.46423835 12:0.39139017 13:0.16514456 14:0.59732401 15:0.32802573 16:0.25144422  |BV| 1:0.40824828 2:0.30050126 3:0.46625239 4:0.24441186 5:0.36084393 6:0.12666009 7:0.13245323 8:0.090045027 9:0.11111111 10:0.048621658 11:0.40282744 12:0.34240752 13:0.079893552 14:0.58795643 15:0.33479559 16:0.27155009  |EV| 
0.81202166703310196815834842709592  |BT| (ROOT (S (NP (WP (who)))(VP (VBD (create)))(REL-FOCUS-HUM-NP (DT (the))(REL-JJ (literary))(NN (character))(NNP (phineas))(REL-NNP (fogg))))) |BT| (ROOT (S (REL-FOCUS-HUM-NP (NNP (jules))(NNP (verne)))(REL-NP (POS ('s))(NNP (phileas))(REL-NNP (fogg)))(VP (VBD (make)))(REL-NP (REL-JJ (literary))(NN (history)))(ADVP (WRB (when)))(NP (PRP (he))))) |BT| (ROOT (S (NP (WP (who)))(REL-VP (REL-VBD (create)))(REL-FOCUS-HUM-NP (DT (the))(REL-JJ (literary))(REL-NN (character))(NNP (phineas))(NNP (fogg))))) |BT| (ROOT (S (NP (NNS (part)))(PP (IN (of)))(REL-FOCUS-HUM-NP (DT (the))(NNP (reagan))(NN (story)))(ADVP (RB (brilliantly))))(S (NP (JJ (dutch))(NNS (trip)))(PP (IN (over)))(REL-NP (PRP$ (its))(JJ (own))(JJ (central))(REL-JJ (literary))(NN (device))))(S (NP (PRP (he)))(REL-VP (REL-VBZ (create)))(REL-NP (DT (a))(JJ (fictional))(REL-NN (character)))(VP (VBN (model)))(PP (IN (after)))(VP (VBZ (run)))(PP (IN (into)))(REL-FOCUS-HUM-NP (NNP (reagan)))(ADVP (RB (repeatedly)))(PP (IN (through))))(S (PP (IN (in)))(NP (NN (effect)))(REL-NP (DT (another))(REL-NN (character)))(PP (IN (in)))(NP (DT (the))(NN (narrative))))) |ET| 1:0.21650635 2:0.11547005 3:0.13333333 4:0.081199788 5:0.096225038 11:0.3934485 12:0.32433748 13:0.088388354 14:0.62887192 15:0.45086071 16:0.29836947  |BV| 1:0.23652495 2:0.14022146 3:0.14294834 4:0.1028689 5:0.10540926 11:0.44099343 12:0.37911341 13:0.086874448 14:0.6053918 15:0.34041858 16:0.22183013  |EV| 
0.81202166703310196815834842709592  |BT| (ROOT (S (NP (WP (who)))(VP (VBD (defeat)))(REL-FOCUS-HUM-NP (DT (the))(REL-JJ (spanish))(REL-NN (armada))))) |BT| (ROOT (S (NP (NNP (england)))(PP (IN (by)))(REL-NP (REL-NNP (spanish))(REL-NNP (armada))))) |BT| (ROOT (S (NP (WP (who)))(REL-VP (REL-VBD (defeat)))(REL-FOCUS-HUM-NP (DT (the))(REL-JJ (spanish))(REL-NN (armada))))) |BT| (ROOT (S (REL-NP (DT (the))(REL-JJ (spanish))(NN (empire)))(VP (VBD (reach)))(NP (PRP$ (its))(NN (peak)))(NP (POS ('s))(NN (reign)))(PP (IN (after)))(REL-NP (DT (the))(REL-NNP (armada)))(REL-NP (POS ('s))(REL-NN (defeat)))(VP (VBD (begin)))(NP (PRP$ (its))(JJ (slow))(NN (decline))))(S (VP (VBD (do))(RB (not))(RB (necessarily))(VB (mean)))(SBAR (IN (that)))(REL-FOCUS-HUM-NP (NNP (philip)))(NP (PRP (himself)))(VP (VBD (be))))) |ET| 11:0.15321285 12:0.12858611 13:0.041666672 14:0.45807987 15:0.24986893 16:0.27062458  |BV| 1:0.25717226 2:0.17488921 3:0.13046561 4:0.12649111 5:0.099750929 6:0.035737079 8:0.02541643 11:0.45643547 12:0.38924947 13:0.20734905 14:0.66505945 15:0.29873911 16:0.28102028  |EV| 
-0.81202166703310196815834842709592  |BT| (ROOT (S (REL-NP (WP (what))(REL-NN (river)))(VP (VBZ (be))(VBN (call)))(REL-NP (REL-NNP (china)))(NP (POS ('s))(JJ (sorrow))))) |BT| (ROOT (S (REL-NP (REL-NNP (china))(NNP (calls)))(PP (IN (for)))(NP (NNP (effective))(NNP (pollution))(NNP (control)))(PP (IN (on)))(REL-NP (NNP (haihe))(REL-NNP (river))))) |BT| (ROOT (S (NP (WP (what))(NN (river)))(VP (VBZ (be))(VBN (call)))(NP (NNP (china)))(REL-NP (POS ('s))(REL-JJ (sorrow))))) |BT| (ROOT (S (NP (DT (the))(NN (cradle)))(PP (IN (of)))(REL-NP (JJ (chinese))(NN (civilization))(CC (and))(DT (the))(REL-NN (sorrow)))(PP (IN (of)))(NP (DT (the))(JJ (chinese))(NN (nation))))) |ET| 1:0.096225038 2:0.052925609 3:0.09245003 4:0.0379049 5:0.068041377 11:0.14200214 12:0.12004901 14:0.41922241 15:0.30454123 16:0.21741827  |BV| 1:0.33557802 2:0.20901483 3:0.064150028 4:0.15638369 5:0.046829291 11:0.24184744 12:0.198373 14:0.5082944 15:0.27053779 16:0.2103011  |EV| 
-0.47614447840766360720010652585188  |BT| (ROOT (S (NP (WP (what)))(VP (VBZ (be)))(REL-FOCUS-NUM-NP (DT (the))(NN (range)))(PP (IN (for)))(NP (DT (the))(NN (number)))(PP (IN (of)))(REL-NP (REL-NNS (passenger)))(REL-NP (DT (a))(NNP (boeing))(CD (747))(REL-NN (airplane)))(VP (MD (can))(VB (carry))))) |BT| (ROOT (S (NP (CD (63))(CD (million))(NNP (us))(NNS (dollar)))(VP (MD (can))(VB (hold)))(REL-NP (CD (three))(JJ (long-range))(REL-NN (passenger))(REL-NNS (airplane)))(NP (DT (the))(NN (company)))(VP (VBZ (have))(VBN (do))))) |BT| (ROOT (S (NP (WP (what)))(VP (VBZ (be)))(REL-FOCUS-NUM-NP (DT (the))(NN (range)))(PP (IN (for)))(NP (DT (the))(NN (number)))(PP (IN (of)))(REL-NP (REL-NNS (passenger)))(REL-NP (DT (a))(REL-NNP (boeing))(REL-CD (747))(NN (airplane)))(REL-VP (MD (can))(REL-VB (carry))))) |BT| (ROOT (S (PP (IN (with)))(REL-NP (PRP$ (its))(REL-CD (747)))(REL-NP (REL-NNP (boeing)))(REL-FOCUS-NUM-NP (NN (today)))(VP (VBZ (enjoy)))(NP (DT (a))(NN (monopoly)))(NP (NNS (plane)))(NP (WDT (that)))(REL-VP (MD (can))(REL-VB (carry)))(REL-NP (JJR (more))(IN (than))(CD (400))(REL-NNS (passenger))))(S (VP (VBZ (want))(TO (to))(VB (break)))(SBAR (IN (that)))(REL-NP (REL-NNP (boeing))(NN (stranglehold)))(VP (VBZ (be))(VBG (plan))(TO (to))(VB (develop)))(NP (DT (a))(NN (plane)))(VP (MD (will))(VB (be)))(ADJP (JJ (able)))(REL-VP (TO (to))(REL-VB (carry)))(ADVP (RB (upward)))(PP (IN (of)))(REL-NP (CD (600))(REL-NNS (passenger))))) |ET| 1:0.17376201 2:0.097926334 3:0.0996271 4:0.069224462 5:0.070272841 11:0.38721603 12:0.32661346 13:0.070096523 14:0.70955265 15:0.53414816 16:0.4913573  |BV| 1:0.41380295 2:0.25320387 3:0.27185747 4:0.18114109 5:0.19580898 6:0.019255711 8:0.01318302 11:0.51909912 12:0.4501631 13:0.19219165 14:0.78212678 15:0.66524225 16:0.41285345  |EV| 
0.81202166703310196815834842709592  |BT| (ROOT (S (NP (WP (what)))(VP (VBZ (be)))(REL-NP (DT (the))(REL-NN (world)))(REL-FOCUS-LOC-NP (REL-POS ('s))(REL-JJS (tallest))(REL-NN (office))(REL-NN (building))))) |BT| (ROOT (S (REL-NP (DT (the))(REL-NN (world)))(REL-NP (REL-POS ('s))(REL-JJS (tallest))(REL-NN (office))(REL-NN (building)))(VP (VBZ (be)))(NP (DT (the))(NNP (petronas))(NNP (towers)))(PP (IN (in)))(NP (NNP (kuala))(NNP (lumpur)))(REL-FOCUS-LOC-NP (NNP (malaysia)))(NP (WDT (which)))(VP (VBZ (be))))) |BT| (ROOT (S (NP (WP (what)))(VP (VBZ (be)))(REL-NP (DT (the))(REL-NN (world)))(REL-FOCUS-LOC-NP (REL-POS ('s))(REL-JJS (tallest))(NN (office))(REL-NN (building))))) |BT| (ROOT (S (REL-NP (DT (the))(REL-NN (building)))(VP (VBZ (be)))(ADJP (JJR (higher)))(NP (DT (the))(NNP (sears))(NNP (towers)))(PP (IN (in)))(REL-FOCUS-LOC-NP (NNP (chicago)))(REL-FOCUS-LOC-NP (NNP (united))(NNP (states)))(NP (WDT (which)))(VP (VBD (be)))(ADVP (RB (previously)))(REL-NP (DT (the))(REL-NN (world)))(REL-NP (REL-POS ('s))(REL-JJS (tallest))(REL-NNS (building))))) |ET| 1:0.52223295 2:0.47363174 3:0.55708599 4:0.42316362 5:0.53452247 6:0.36155075 7:0.50917506 8:0.32756922 9:0.48038447 10:0.2773501 11:0.43333334 12:0.40277779 13:0.31520361 14:0.71049339 15:0.61790943 16:0.30219638  |BV| 1:0.54073805 2:0.39723602 3:0.43328911 4:0.32826608 5:0.36066785 6:0.18442778 7:0.22677869 8:0.15430336 9:0.16666667 10:0.12136701 11:0.31799442 12:0.27972713 13:0.17295817 14:0.6315133 15:0.57753634 16:0.27367961  |EV| 
-0.81202166703310196815834842709592  |BT| (ROOT (S (REL-FOCUS-NUM-NP (WP (what))(NN (year)))(VP (VBD (be)))(REL-NP (DT (the))(REL-NN (phonograph)))(VP (VBD (invent))))) |BT| (ROOT (S (VP (VBD (be)))(ADVP (RB (neither)))(REL-NP (DT (the))(REL-NN (phonograph)))(NP (DT (the))(NN (light))(NN (bulb))))) |BT| (ROOT (S (REL-FOCUS-NUM-NP (WP (what))(NN (year)))(VP (VBD (be)))(REL-NP (DT (the))(REL-NN (phonograph)))(VP (VBD (invent))))) |BT| (ROOT (S (NP (NN (invention)))(PP (IN (of)))(REL-NP (DT (the))(REL-NN (phonograph)))(PP (IN (in)))(NP (NNP (united))(NNP (states))))) |ET| 1:0.42857143 2:0.33075929 3:0.12403473 4:0.24142866 5:0.096225038 6:0.10497278 8:0.074535601 11:0.55777335 12:0.47907013 13:0.21221867 14:0.77060205 15:0.60979104 16:0.3200416  |BV| 1:0.20203051 2:0.16012815 3:0.10846523 4:0.1132277 5:0.083333328 6:0.060302269 8:0.043033149 11:0.16957556 12:0.14608718 13:0.03656362 14:0.44461668 15:0.28535226 16:0.3109245  |EV| 
-0.040202655047235552610018771702016  |BT| (ROOT (S (NP (WDT (which))(NN (religion)))(VP (VBZ (have)))(REL-FOCUS-ENTY-NP (DT (the))(REL-JJS (largest))(REL-NN (number)))(PP (IN (of)))(NP (NNS (follower)))(ADJP (JJ (worldwide))))) |BT| (ROOT (S (PP (VBG (accord)))(PP (TO (to)))(REL-NP (DT (the))(REL-NN (number)))(PP (IN (of)))(NP (NNS (stroke)))(NP (DT (the))(JJS (smallest)))(PP (TO (to)))(REL-NP (DT (the))(REL-JJS (largest))(REL-NN (number)))(PP (IN (of)))(NP (NNS (stroke))))) |BT| (ROOT (S (REL-NP (WDT (which))(REL-NN (religion)))(VP (VBZ (have)))(REL-FOCUS-ENTY-NP (DT (the))(REL-JJS (largest))(NN (number)))(PP (IN (of)))(NP (NNS (follower)))(ADJP (JJ (worldwide))))) |BT| (ROOT (S (REL-NP (REL-NNP (religion)))(NP (EX (there)))(VP (VBP (be)))(REL-NP (CD (four))(JJ (major))(REL-NNS (religion)))(NP (NNP (islam)))(NP (NNP (hinduism))))(S (NP (PRP (it)))(VP (VBZ (be)))(REL-NP (DT (the))(JJ (second))(REL-JJS (largest))(NNP (muslin))(NN (country)))(PP (IN (in)))(NP (DT (the))(NN (world))))) |ET| 1:0.44280744 2:0.35254309 3:0.27801922 4:0.29359034 5:0.21081851 6:0.18945269 7:0.09166985 8:0.15683874 9:0.069504797 10:0.10846523 11:0.50034469 12:0.44222385 13:0.29957235 14:0.69669831 15:0.52732158 16:0.22717208  |BV| 1:0.23732223 2:0.13925007 3:0.10411584 4:0.10097321 5:0.075164601 11:0.31846488 12:0.26574701 13:0.047105569 14:0.64910465 15:0.46769026 16:0.22622468  |EV| 
0.81202166703310196815834842709592  |BT| (ROOT (S (NP (WP (what)))(VP (VBZ (be)))(REL-FOCUS-ENTY-NP (DT (the))(REL-JJS (coldest))(REL-NN (place)))(PP (IN (on)))(REL-NP (REL-NN (earth))))) |BT| (ROOT (S (PP (IN (over)))(NP (NNP (antarctica)))(REL-NP (DT (the))(REL-JJS (coldest))(REL-NN (place)))(PP (IN (on)))(REL-NP (REL-NN (earth)))(NP (JJ (severe))(NN (ozone))(NN (depletion)))(VP (VBZ (take)))(REL-NP (REL-NN (place)))(NP (DT (every))(NN (winter))))) |BT| (ROOT (S (NP (WP (what)))(VP (VBZ (be)))(REL-FOCUS-ENTY-NP (DT (the))(REL-JJS (coldest))(REL-NN (place)))(PP (IN (on)))(REL-NP (REL-NN (earth))))) |BT| (ROOT (S (VP (TO (to))(VB (see)))(NP (DT (the))(NNS (penguin)))(REL-NP (DT (the))(REL-NN (place)))(ADVP (RB (simply)))(VP (VBD (get))))(S (NP (PRP (it)))(VP (VBZ (be)))(REL-NP (DT (the))(REL-JJS (coldest))(JJS (highest))(VB (driest))(VB (windiest))(REL-NN (place)))(PP (IN (on)))(REL-NP (REL-NN (earth)))(NP (PRP (she)))(VP (VBZ (say))))) |ET| 1:0.3686049 2:0.30228347 3:0.36857706 4:0.26703036 5:0.32998317 6:0.19318156 7:0.25819889 8:0.17320508 9:0.21320072 10:0.15151516 11:0.5436492 12:0.48465464 13:0.25649458 14:0.76521891 15:0.64333266 16:0.25749367  |BV| 1:0.38807526 2:0.32861677 3:0.46625239 4:0.27776772 5:0.36084393 6:0.19215378 7:0.13245323 8:0.13423121 9:0.11111111 10:0.070578471 11:0.37426156 12:0.311528 13:0.13074408 14:0.74371219 15:0.64497423 16:0.3189801  |EV| 
0.41238566825828976147860771561682  |BT| (ROOT (S (NP (WP (who)))(REL-VP (REL-VBZ (make)))(REL-FOCUS-HUM-NP (REL-NN (viagra))))) |BT| (ROOT (S (PP (IN (for)))(NP (NNP (pfizer))(NNP (inc.)))(REL-NP (POS ('s))(REL-NNP (viagra)))(SBAR (IN (since)))(NP (PRP (it)))(PP (IN (in)))(NP (NNP (april)))(REL-VP (REL-VBG (make)))(REL-NP (REL-NNP (viagra)))(NP (DT (the))(RBS (most))(JJ (successful))(JJ (new))(JJ (pharmaceutical)))(PP (IN (on))))) |BT| (ROOT (S (NP (WP (who)))(REL-VP (REL-VBZ (make)))(REL-FOCUS-HUM-NP (REL-NN (viagra))))) |BT| (ROOT (S (REL-NP (DT (that))(NN (anti-impotence))(NN (pill))(REL-NNP (viagra)))(VP (VBG (get)))(NP (JJR (more))(JJ (popular))(DT (every))(NN (day))))(S (NP (DT (the))(NN (company)))(NP (WDT (that)))(REL-VP (REL-VBZ (make)))(REL-NP (REL-NNP (viagra)))(VP (VBZ (have))(RB (now))(VBN (set)))(PRT (RP (up)))(REL-NP (DT (a))(REL-NNP (viagra))(NN (hotline)))(PP (IN (for)))(NP (NNS (man))))) |ET| 1:0.077151671 2:0.043073051 3:0.09245003 4:0.0316386 5:0.077151671 11:0.067884423 12:0.059999999 13:0.038575839 14:0.41439822 15:0.25994554 16:0.21102546  |BV| 1:0.10369517 2:0.062776484 3:0.090166964 4:0.047863878 5:0.07647191 11:0.32732683 12:0.29047376 13:0.030344861 14:0.66767168 15:0.30856028 16:0.24901062  |EV| 
0.16962962641664325325052686821437  |BT| (ROOT (S (NP (WP (who)))(VP (VBZ (be)))(REL-FOCUS-HUM-NP (REL-NNP (tom))(REL-NNP (cruise)))(REL-VP (REL-VBD (marry)))(PP (TO (to))))) |BT| (ROOT (S (REL-VP (REL-VBN (marry)))(REL-FOCUS-HUM-NP (NNS (actor))(REL-NNP (tom))(REL-NNP (cruise))(CC (and))(NNP (nicole))(NNP (kidman)))(VP (VBP (play)))(NP (DT (a))(JJ (loving))(JJ (upscale))(JJ (married))(NN (couple))))) |BT| (ROOT (S (NP (WP (who)))(VP (VBZ (be)))(REL-FOCUS-HUM-NP (REL-NNP (tom))(REL-NNP (cruise)))(REL-VP (REL-VBD (marry)))(PP (TO (to))))) |BT| (ROOT (S (NP (WP (who)))(VP (VBZ (be)))(REL-ADJP (REL-VBN (marry)))(PP (TO (to)))(REL-FOCUS-HUM-NP (REL-NNP (tom))(REL-NNP (cruise)))(VP (VBZ (have))(VBN (star)))(PP (IN (in))))) |ET| 1:0.39405519 2:0.28941438 3:0.33218193 4:0.20309059 5:0.25197631 6:0.091960102 7:0.11111111 8:0.065059997 9:0.09245003 11:0.30123204 12:0.25259075 13:0.064051263 14:0.62354845 15:0.39999968 16:0.3272959  |BV| 1:0.46056619 2:0.37397879 3:0.43386093 4:0.27036905 5:0.33333334 6:0.13794015 7:0.1490712 8:0.097590007 9:0.12598816 11:0.35777089 12:0.2981424 13:0.062166989 14:0.77730823 15:0.78161097 16:0.34456852  |EV| 
0.40683772284062769131196546368301  |BT| (ROOT (S (NP (WP (who)))(REL-VP (REL-VBD (compose)))(REL-NP (DT (the))(REL-NNP (messiah))))) |BT| (ROOT (S (REL-NP (DT (the))(REL-NNP (messiah)))(NP (NN (charlene))(JJ (.cyber-crew.com/holidays/messiah))(NN (.html))))(S (NP (NNP (george))(NNP (frederic))(NNP (handel)))(NP (POS ('s))(NNP (hallelujah))(NNP (chorus)))(REL-VP (REL-VBN (compose)))(PP (IN (in)))(NP (CD (1741))))) |BT| (ROOT (S (NP (WP (who)))(VP (VBD (compose)))(REL-NP (DT (the))(REL-NNP (messiah))))) |BT| (ROOT (S (NP (DT (the))(JJ (present))(NN (search)))(PP (IN (for)))(REL-NP (NNS (doctrine))(CC (and))(REL-NNS (messiah))))) |ET| 1:0.16439898 2:0.12433397 3:0.20739034 4:0.089442722 5:0.1721326 6:0.03798686 8:0.02677398 11:0.26650089 12:0.22281598 13:0.07707525 14:0.5370307 15:0.41715005 16:0.27277872  |BV| 1:0.086792611 2:0.051899929 4:0.038069349 11:0.12326671 12:0.10303941 14:0.48015329 15:0.35566908 16:0.24991474  |EV| 
-0.81202166703310196815834842709592  |BT| (ROOT (S (NP (WP (what)))(VP (VBZ (be)))(REL-FOCUS-LOC-NP (DT (the))(REL-NN (city)))(PP (IN (of)))(REL-NP (REL-JJ (brotherly))(REL-NN (love))))) |BT| (ROOT (S (REL-FOCUS-LOC-NP (NNP (washington)))(NP (NNP (nov.))(CD (5)))(REL-NP (DT (the))(REL-NNP (city)))(PP (IN (of)))(REL-NP (REL-NNP (brotherly))(REL-NNP (love)))(VP (MD (will))(VB (be))(VBG (host)))(NP (DT (a))(NNP (grand))(NNP (old))(NNP (party))))) |BT| (ROOT (S (NP (WP (what)))(VP (VBZ (be)))(REL-FOCUS-LOC-NP (DT (the))(REL-NN (city)))(PP (IN (of)))(REL-NP (JJ (brotherly))(REL-NN (love))))) |BT| (ROOT (S (NP (PRP (you)))(PP (TO (to)))(REL-FOCUS-LOC-NP (NNP (philadelphia)))(REL-NP (DT (the))(REL-NN (city)))(PP (IN (of)))(REL-NP (RB (motherly))(REL-NN (love)))(NP (PRP (she)))(VP (VBD (say)))(NP (DT (a))(NN (twist)))(PP (IN (on)))(REL-NP (DT (the))(JJ (''brotherly))(REL-NN (love)))(PP (IN (for)))(NP (WDT (which)))(REL-NP (DT (the))(REL-NN (city)))(VP (VBZ (like))(TO (to))(VB (be))(VBN (know))))) |ET| 1:0.2773501 2:0.14754222 4:0.1035908 11:0.15804073 12:0.13363062 13:0.02777778 14:0.52528334 15:0.38170117 16:0.28517079  |BV| 1:0.44035241 2:0.35503581 3:0.35777089 4:0.27865094 5:0.28005603 6:0.15602162 8:0.10942203 10:0.034815531 11:0.44886535 12:0.37675554 13:0.17801724 14:0.78420937 15:0.66918707 16:0.30664524  |EV| 
0.48144206091185415274935621710028  |BT| (ROOT (S (REL-FOCUS-ENTY-NP (DT (the))(REL-NN (duomo))))) |BT| (ROOT (S (NP (NNS (attraction)))(PP (JJ (such))(IN (as)))(REL-FOCUS-ENTY-NP (DT (the))(REL-NNP (duomo))(CC (or))(NNP (st))(NNP (maria))(FW (del))(NNP (fiore)))(NP (DT (the))(JJ (great))(JJ (domed))(NN (cathedral))))) |BT| (ROOT (S (REL-FOCUS-ENTY-NP (DT (the))(REL-NN (duomo))))) |BT| (ROOT (S (NP (DT (the))(NN (bell))(NN (tower)))(PP (IN (of)))(REL-NP (DT (the))(REL-NN (duomo))))(S (PP (IN (from)))(NP (DT (the))(NN (top)))(REL-FOCUS-ENTY-NP (NNP (rosato)))(VP (VBZ (say)))(NP (PRP (it))))(S (NP (DT (the))(JJ (golden))(JJ (snowflaked))(NN (ceiling)))(PP (IN (of)))(REL-NP (DT (the))(REL-NN (duomo))(NNS (cheer)))(NP (PRP (she))))) |ET| 1:0.39605901 2:0.2460665 4:0.18999213 11:0.37803197 12:0.33520076 13:0.096824579 14:0.58301908 15:0.35889551 16:0.14833544  |BV| 1:0.32907259 2:0.25444156 3:0.24806947 4:0.19827063 5:0.20851441 6:0.071842119 8:0.054192781 11:0.46407509 12:0.41654861 13:0.19145551 14:0.60548097 15:0.45616952 16:0.19202623  |EV| 
0.81202166703310196815834842709592  |BT| (ROOT (S (NP (WP (what)))(VP (VBZ (be)))(REL-FOCUS-LOC-NP (DT (the))(REL-JJS (longest))(REL-NN (river)))(PP (IN (in)))(REL-NP (DT (the))(REL-NN (world))))) |BT| (ROOT (S (PP (IN (along)))(NP (DT (the))(NNP (nile)))(REL-NP (DT (the))(REL-NN (world)))(REL-NP (POS ('s))(REL-JJS (longest))(REL-NN (river))))) |BT| (ROOT (S (NP (WP (what)))(VP (VBZ (be)))(REL-FOCUS-LOC-NP (DT (the))(REL-JJS (longest))(REL-NN (river)))(PP (IN (in)))(REL-NP (DT (the))(REL-NN (world))))) |BT| (ROOT (S (VP (VBD (go))(VBG (sightsee)))(PP (TO (to)))(REL-FOCUS-LOC-NP (DT (the))(NNP (nanjing))(NNP (yangtze))(REL-NNP (river))(NNP (bridge)))(PP (IN (across)))(REL-NP (DT (the))(REL-NN (world)))(REL-NP (POS ('s))(JJ (third))(REL-JJS (longest))(REL-NN (river)))(NP (CD (one)))(PP (IN (of))))) |ET| 1:0.52636135 2:0.36735919 3:0.46188021 4:0.26207122 5:0.35634831 6:0.087287158 7:0.16012815 8:0.061113231 9:0.13608275 11:0.57047909 12:0.47259453 13:0.26482046 14:0.78297448 15:0.69301766 16:0.26655266  |BV| 1:0.44611344 2:0.31794032 3:0.33218193 4:0.22996655 5:0.25503069 6:0.07231015 7:0.11547005 8:0.050395261 9:0.096225038 11:0.39929786 12:0.33277178 13:0.15672079 14:0.700849 15:0.59817255 16:0.25484031  |EV| 
-0.81202166703310196815834842709592  |BT| (ROOT (S (ADVP (WRB (where)))(VP (VBZ (be)))(REL-FOCUS-LOC-NP (DT (the))(REL-NNP (sea)))(PP (IN (of)))(NP (NNP (tranquility))))) |BT| (ROOT (S (NP (JJ (civil))(NN (unrest)))(PP (IN (amid)))(REL-FOCUS-LOC-NP (NNP (vietnam))(NNP (war))(NNS (protest)))(NP (DT (the))(NNS (assassination)))(PP (IN (of)))(REL-FOCUS-LOC-NP (NNP (robert))(NNP (f.))(NNP (kennedy)))(NP (DT (the))(NNP (rev.))(NNP (martin))(NNP (luther))(NNP (king))))(S (NP (PRP$ (you))(JJ (first))(NN (step)))(PP (IN (into)))(REL-NP (DT (the))(REL-NNP (sea)))(PP (IN (of)))(NP (NNP (tranquillity))))) |BT| (ROOT (S (ADVP (WRB (where)))(VP (VBZ (be)))(REL-FOCUS-LOC-NP (DT (the))(REL-NNP (sea)))(PP (IN (of)))(REL-NP (REL-NNP (tranquility))))) |BT| (ROOT (S (NP (DT (the))(JJ (rock-strewn))(NN (surface)))(PP (IN (of)))(REL-NP (DT (the))(REL-NNP (sea)))(PP (IN (of)))(REL-NP (REL-NNP (tranquility))))) |ET| 1:0.29793558 2:0.21591675 3:0.072739303 4:0.17323372 5:0.060192931 6:0.082230367 8:0.05789607 10:0.03081668 11:0.49731138 12:0.44229922 13:0.16297369 14:0.69475925 15:0.53197867 16:0.19095901  |BV| 1:0.46056619 2:0.35511041 3:0.31108552 4:0.30151135 5:0.25819889 6:0.20327891 7:0.18569534 8:0.1721326 9:0.15430336 10:0.13736056 11:0.55536813 12:0.50086731 13:0.27369028 14:0.75811493 15:0.65407765 16:0.19566834  |EV| 
0.71105352218080508652775506561738  |BT| (ROOT (S (NP (WP (what)))(VP (VBZ (be)))(REL-FOCUS-LOC-NP (DT (the))(REL-NN (city)))(PP (IN (of)))(REL-NP (JJ (brotherly))(REL-NN (love))))) |BT| (ROOT (S (NP (PRP (you)))(PP (TO (to)))(REL-FOCUS-LOC-NP (NNP (philadelphia)))(REL-NP (DT (the))(REL-NN (city)))(PP (IN (of)))(REL-NP (RB (motherly))(REL-NN (love)))(NP (PRP (she)))(VP (VBD (say)))(NP (DT (a))(NN (twist)))(PP (IN (on)))(REL-NP (DT (the))(JJ (''brotherly))(REL-NN (love)))(PP (IN (for)))(NP (WDT (which)))(REL-NP (DT (the))(REL-NN (city)))(VP (VBZ (like))(TO (to))(VB (be))(VBN (know))))) |BT| (ROOT (S (NP (WP (what)))(VP (VBZ (be)))(REL-FOCUS-LOC-NP (DT (the))(NN (city)))(PP (IN (of)))(REL-NP (REL-JJ (brotherly))(REL-NN (love))))) |BT| (ROOT (S (REL-NP (REL-NNP (brotherly))(REL-NNP (love))(NNP (it)))(NP (POS ('s))(NNP (got)))(VP (RB (now))(RB (there))(VBZ (be))))) |ET| 1:0.44035241 2:0.35503581 3:0.35777089 4:0.27865094 5:0.28005603 6:0.15602162 8:0.10942203 10:0.034815531 11:0.44886535 12:0.37675554 13:0.17801724 14:0.78420937 15:0.66918707 16:0.30664524  |BV| 1:0.16666667 2:0.089893311 4:0.063660704 11:0.12202383 12:0.10189239 13:0.034752399 14:0.4906958 15:0.32534435 16:0.27932024  |EV| 
-0.81202166703310196815834842709592  |BT| (ROOT (S (ADVP (WRB (where)))(PP (IN (on)))(NP (DT (the))(NN (body)))(NP (PRP (you)))(VP (VB (find)))(REL-FOCUS-LOC-NP (DT (the))(REL-NNS (jowl))))) |BT| (ROOT (S (PP (IN (of)))(NP (NNP (barnaby)))(REL-NP (POS ('s))(REL-NNS (jowl)))(VP (VBD (pollute)))(NP (DT (the))(NN (air))(NN (space))))) |BT| (ROOT (S (ADVP (WRB (where)))(PP (IN (on)))(NP (DT (the))(NN (body)))(NP (PRP (you)))(VP (VB (find)))(REL-FOCUS-LOC-NP (DT (the))(NNS (jowl))))) |BT| (ROOT) |ET| 1:0.26352313 2:0.14987266 3:0.10846523 4:0.10721125 5:0.083333328 11:0.41202095 12:0.34050262 13:0.11556254 14:0.73566121 15:0.54988241 16:0.19505706  |BV| 1:0.12038585 2:0.066555828 4:0.04716666 11:0.32465386 12:0.26940796 13:0.05063697 14:0.66266167 15:0.14612241 16:0.18454285  |EV| 
-0.81202166703310196815834842709592  |BT| (ROOT (S (REL-NP (WP (what))(REL-UH (dam)))(VP (VBZ (be))(VBD (say)))(NP (DT (the))(VB (be)))(REL-FOCUS-LOC-NP (DT (the))(REL-JJS (largest))(REL-JJ (hydroelectric))(NN (station)))(PP (IN (in)))(REL-NP (DT (the))(REL-NN (world))))) |BT| (ROOT (S (VP (VBN (divert)))(NP (DT (the))(NN (yangtze)))(REL-NP (DT (the))(REL-NN (world)))(NP (POS ('s))(JJ (third))(JJS (longest))(NN (river)))(SBAR (IN (in)))(PP (IN (of)))(NP (DT (the))(CD (three))(NNS (gorge)))(REL-ADVP (REL-RB (dam)))(REL-NP (DT (the))(REL-NN (world)))(REL-NP (POS ('s))(REL-JJS (largest))(REL-JJ (hydroelectric))(NN (project))))(S (REL-FOCUS-LOC-NP (NNP (xinhua)))(VP (VBD (do))(RB (not))(VB (mention)))(NP (DT (the))(NNS (floodwater))))) |BT| (ROOT (S (NP (WP (what))(UH (dam)))(VP (VBZ (be))(VBD (say)))(NP (DT (the))(VB (be)))(REL-FOCUS-LOC-NP (DT (the))(REL-JJS (largest))(REL-JJ (hydroelectric))(REL-NN (station)))(PP (IN (in)))(NP (DT (the))(NN (world))))) |BT| (ROOT (S (NP (NN (sandouping))(CD (three))(NNS (gorge)))(REL-FOCUS-LOC-NP (NNP (november))(CD (4))(NNP (xinhua)))(REL-NP (DT (the))(CD (three))(NNS (gorge))(REL-NNP (hydroelectric))(NNP (power))(REL-NNP (station)))(VP (MD (will))(VB (be)))(REL-FOCUS-LOC-NP (NNP (china)))(REL-NP (POS ('s))(REL-JJS (largest))(REL-JJ (hydroelectric))(NN (power))(NN (plant))))) |ET| 1:0.5135718 2:0.36578396 3:0.28005603 4:0.27089694 5:0.20555662 6:0.062897094 7:0.05763904 8:0.043519411 9:0.042333379 11:0.51662576 12:0.43211588 13:0.18182263 14:0.76688188 15:0.66791105 16:0.32704264  |BV| 1:0.2522625 2:0.17036708 3:0.17960531 4:0.12439408 5:0.13055824 6:0.02747211 7:0.072739303 8:0.01899343 9:0.053376049 11:0.2174845 12:0.17987657 13:0.075005859 14:0.47871217 15:0.31303042 16:0.32735699  |EV| 
-0.81202166703310196815834842709592  |BT| (ROOT (S (REL-FOCUS-ENTY-NP (WP (what))(REL-NN (liverpool))(NN (club)))(VP (VBD (spawn)))(REL-NP (DT (the))(REL-NNP (beatles))))) |BT| (ROOT (S (NP (NNS (people)))(PP (IN (in)))(REL-NP (REL-NN (liverpool)))(NP (DT (a))(VBD (fade))(JJ (port))(NN (city)))(PP (IN (of)))(NP (DT (the))(JJ (potential))(NN (impact)))(PP (IN (of)))(REL-FOCUS-ENTY-NP (DT (the))(REL-NNP (beatles)))(PP (IN (on)))(NP (DT (the))(JJ (local))(NN (economy))))(S (NP (WP (who)))(VP (VBP (visit)))(REL-NP (REL-NNP (liverpool)))(NP (DT (each))(NN (year)))(NP (IN (about))(CD (500,000)))(VP (VBN (come)))(PP (IN (because))(IN (of)))(REL-FOCUS-ENTY-NP (DT (the))(REL-NNP (beatles)))(PP (VBG (accord)))(PP (TO (to)))(NP (DT (the))(NNP (merseyside))(NNP (tourism)))(REL-FOCUS-ENTY-NP (NNP (conference))(NNP (bureau))))) |BT| (ROOT (S (REL-FOCUS-ENTY-NP (WP (what))(REL-NN (liverpool))(REL-NN (club)))(VP (VBD (spawn)))(NP (DT (the))(NNP (beatles))))) |BT| (ROOT (S (REL-NP (NNP (mccartney-liverpool))(REL-NN (liverpool)))(NP (NNP (england)))(REL-FOCUS-ENTY-NP (NNP (paul))(NNP (mccartney))(NNS (return)))(PP (TO (to)))(REL-NP (REL-NNP (liverpool)))(REL-NP (POS ('s))(NNP (cavern))(REL-NNP (club))))(S (PP (IN (by)))(REL-FOCUS-ENTY-NP (NNP (allan))(NNP (kozinn))))) |ET| 1:0.30358836 2:0.22188008 3:0.15289415 4:0.1672484 5:0.1132277 6:0.052686341 8:0.037562411 11:0.34900504 12:0.30253169 13:0.066805989 14:0.59342736 15:0.35777465 16:0.2679514  |BV| 1:0.080582298 2:0.043314811 3:0.078811042 4:0.03068582 5:0.058025889 11:0.28246635 12:0.24358869 13:0.064549722 14:0.49053022 15:0.32913232 16:0.2668713  |EV| 
0.0079601360769794293759105130448006  |BT| (ROOT (S (ADVP (WRB (how)))(REL-FOCUS-DESC-NP (REL-NNP (john))(REL-NNP (dillinger)))(VP (VBP (die))))) |BT| (ROOT (S (REL-NP (NNP (hoosier))(NN (gangster))(REL-NNP (john))(REL-NNP (dillinger)))(VP (VBD (be))(VBN (gun)))(PRT (RP (down))))(S (VP (TO (to))(VB (read)))(PP (IN (on)))(REL-NP (REL-NNP (john))(REL-NNP (dillinger)))(VP (VBD (lay)))(PP (IN (on))))) |BT| (ROOT (S (ADVP (WRB (how)))(REL-FOCUS-DESC-NP (REL-NNP (john))(REL-NNP (dillinger)))(VP (VBP (die))))) |BT| (ROOT (S (REL-NP (REL-NNP (john))(REL-NNP (dillinger)))(VP (VBD (have)))(NP (CD (one))))) |ET| 1:0.16843037 2:0.14625448 3:0.343559 4:0.10715994 5:0.26413527 6:0.062166989 7:0.15861031 8:0.044280741 9:0.13159034 11:0.31690228 12:0.27442652 13:0.060338851 14:0.46838495 15:0.41320682 16:0.26253104  |BV| 1:0.15161961 2:0.12921914 3:0.34641016 4:0.095346257 5:0.26726124 6:0.054799661 7:0.16012815 8:0.039652579 9:0.13608275 11:0.41231057 12:0.34701106 13:0.069504797 14:0.61780274 15:0.45152789 16:0.29149395  |EV| 
0.81202166703310196815834842709592  |BT| (ROOT (S (NP (WP (who)))(VP (VBD (defeat)))(REL-FOCUS-HUM-NP (DT (the))(REL-JJ (spanish))(REL-NN (armada))))) |BT| (ROOT (S (NP (NNP (england)))(PP (IN (by)))(REL-NP (REL-NNP (spanish))(REL-NNP (armada))))) |BT| (ROOT (S (NP (WP (who)))(VP (VBD (defeat)))(REL-FOCUS-HUM-NP (DT (the))(REL-JJ (spanish))(REL-NN (armada))))) |BT| (ROOT (S (NP (DT (a))(NN (month)))(ADVP (RB (earlier)))(REL-NP (DT (the))(REL-JJ (spanish))(REL-NN (armada)))(VP (VBD (have))(VBN (be))(VBN (destroy)))(PP (IN (in)))(NP (NNP (u.s.))(JJ (naval))(NNS (force)))(PP (IN (under)))(REL-FOCUS-HUM-NP (NNP (commodore))(NNP (george))(NNP (dewey)))(NP (WP (who)))(VP (VBD (be))(VBN (send))))) |ET| 11:0.15321285 12:0.12858611 13:0.041666672 14:0.45807987 15:0.24986893 16:0.27062458  |BV| 1:0.37204579 2:0.27272728 3:0.20459829 4:0.22140372 5:0.15811388 6:0.11396058 7:0.0949158 8:0.081468821 9:0.079305157 10:0.044237401 11:0.42289004 12:0.3611111 13:0.19448666 14:0.61696988 15:0.46074361 16:0.26975089  |EV| 
0.81202166703310196815834842709592  |BT| (ROOT (S (ADVP (WRB (when)))(NP (PRP (they)))(REL-VP (REL-VB (put)))(REL-FOCUS-NUM-NP (REL-NNP (mir)))(ADVP (IN (down))))) |BT| (ROOT (S (NP (NNP (russia)))(VP (MD (will))(VB (discard)))(REL-NP (PRP$ (its))(REL-NNP (mir))(NN (space))(NN (station)))(PP (IN (in)))(NP (DT (the))(NN (fall)))(PP (IN (of)))(REL-FOCUS-NUM-NP (CD (1999)))(PP (IN (after)))(NP (DT (the))(JJ (new))(JJ (international))(NN (space))(NN (station))))(S (NP (JJ (invaluable))(NN (experience)))(PP (IN (by)))(REL-VP (REL-VBG (put)))(NP (CD (seven))(NNS (astronaut)))(PP (IN (on)))(REL-NP (REL-NNP (mir))))) |BT| (ROOT (S (ADVP (WRB (when)))(NP (PRP (they)))(REL-VP (REL-VB (put)))(REL-FOCUS-NUM-NP (REL-NNP (mir)))(ADVP (IN (down))))) |BT| (ROOT (S (NP (DT (the))(JJ (main))(NN (unit)))(PP (IN (of)))(REL-NP (DT (the))(REL-NNP (mir))(NN (station)))(REL-VP (VBD (be))(REL-VBN (put)))(PP (IN (in)))(NP (NN (space)))(REL-FOCUS-NUM-NP (DT (a))(NN (decade)))(REL-FOCUS-NUM-ADVP (RB (ago))))(S (VP (VBP (have))(VBN (be))(VBN (attach)))(PP (TO (to)))(REL-NP (REL-NNP (mir)))(NP (DT (the))(JJ (entire))(NN (space))(NN (construction))(NN (project)))(VP (MD (will))(VB (be))(VBN (complete))))) |ET| 1:0.14518018 2:0.08043734 3:0.25264558 4:0.05773503 5:0.21483447 11:0.28673118 12:0.24281108 14:0.48156101 15:0.27271321 16:0.1976005  |BV| 1:0.11172584 2:0.066831887 3:0.25264558 4:0.049266461 5:0.21160369 11:0.16568914 12:0.13998741 14:0.44396967 15:0.2209086 16:0.1915267  |EV| 
0.78929611807920874166910607527825  |BT| (ROOT (S (NP (WP (what)))(VP (VBZ (be)))(REL-FOCUS-DESC-NP (DT (the))(REL-NN (motto)))(PP (IN (of)))(REL-NP (DT (the))(NNP (new))(REL-NNP (york))(REL-NNP (times))))) |BT| (ROOT (S (NP (DT (a))(NN (insult)))(PP (TO (to)))(REL-NP (DT (the))(REL-NN (motto)))(VP (VBN (cherish)))(PP (IN (by)))(REL-NP (DT (the))(NNP (new))(REL-NNP (york))(REL-NNP (times)))(NP (WDT (which)))(VP (VBZ (say))))) |BT| (ROOT (S (NP (WP (what)))(VP (VBZ (be)))(REL-FOCUS-DESC-NP (DT (the))(REL-NN (motto)))(PP (IN (of)))(NP (DT (the))(NNP (new))(NNP (york))(NNP (times))))) |BT| (ROOT (S (NP (NNP (gwapa)))(REL-NP (POS ('s))(REL-NN (motto)))(VP (VBZ (be)))(VP (VBG (make))))) |ET| 1:0.63737744 2:0.44541648 3:0.27279773 4:0.34115148 5:0.20739034 6:0.085183538 7:0.09245003 8:0.058470529 9:0.07647191 10:0.022605 11:0.48988703 12:0.42145866 13:0.22845289 14:0.70769197 15:0.7360245 16:0.24100509  |BV| 1:0.2773501 2:0.15396006 3:0.13483997 4:0.10959932 5:0.10540926 11:0.47062081 12:0.38461539 13:0.092318617 14:0.7479257 15:0.46785802 16:0.22101028  |EV| 
0.81202166703310196815834842709592  |BT| (ROOT (S (ADVP (WRB (where)))(PP (IN (on)))(NP (DT (the))(NN (body)))(NP (PRP (you)))(VP (VB (find)))(REL-FOCUS-LOC-NP (DT (the))(NNS (jowl))))) |BT| (ROOT) |BT| (ROOT (S (ADVP (WRB (where)))(PP (IN (on)))(NP (DT (the))(NN (body)))(NP (PRP (you)))(VP (VB (find)))(REL-FOCUS-LOC-NP (DT (the))(REL-NNS (jowl))))) |BT| (ROOT (S (VP (VBD (say)))(SBAR (IN (that)))(REL-NP (REL-NNS (jowl)))(VP (VBP (be)))(NP (JJ (such))(DT (a))(JJ (well-recognized))(NN (symbol)))(NP (DT (the))(NN (man)))(PP (IN (with)))(REL-NP (DT (the))(JJS (biggest))(REL-NNS (jowl))))) |ET| 1:0.12038585 2:0.066555828 4:0.04716666 11:0.32465386 12:0.26940796 13:0.05063697 14:0.66266167 15:0.14612241 16:0.18454285  |BV| 1:0.31740552 2:0.18811335 3:0.15569979 4:0.13645765 5:0.11909827 11:0.50803983 12:0.43090641 13:0.19185884 14:0.72383499 15:0.55087459 16:0.20453908  |EV| 
0.71892757723873135233816356048919  |BT| (ROOT (S (NP (WP (what))(NN (river)))(VP (VBZ (be))(VBN (call)))(NP (NNP (china)))(REL-NP (POS ('s))(REL-JJ (sorrow))))) |BT| (ROOT (S (NP (DT (the))(NN (cradle)))(PP (IN (of)))(REL-NP (JJ (chinese))(NN (civilization))(CC (and))(DT (the))(REL-NN (sorrow)))(PP (IN (of)))(NP (DT (the))(JJ (chinese))(NN (nation))))) |BT| (ROOT (S (NP (WP (what))(NN (river)))(REL-VP (VBZ (be))(REL-VBN (call)))(NP (NNP (china)))(REL-NP (POS ('s))(REL-JJ (sorrow))))) |BT| (ROOT (S (NP (NNP (arafat)))(ADVP (RB (also)))(REL-VP (REL-VBD (call)))(NP (NNP (prime))(NNP (minister))(NNP (benjamin))(NNP (netanyahu)))(VP (TO (to))(VB (express)))(REL-NP (PRP$ (he))(REL-NN (sorrow))))) |ET| 1:0.33557802 2:0.20901483 3:0.064150028 4:0.15638369 5:0.046829291 11:0.24184744 12:0.198373 14:0.5082944 15:0.27053779 16:0.2103011  |BV| 1:0.16666667 2:0.09100315 3:0.1721326 4:0.064650819 5:0.12598816 11:0.17248496 12:0.14348601 14:0.49871036 15:0.39824829 16:0.20685595  |EV| 
-0.81202166703310196815834842709592  |BT| (ROOT (S (ADVP (WRB (where)))(PP (IN (on)))(REL-NP (DT (the))(REL-NN (body)))(NP (PRP (you)))(REL-VP (REL-VB (find)))(REL-FOCUS-LOC-NP (DT (the))(NNS (jowl))))) |BT| (ROOT (S (NP (PRP (we)))(REL-VP (REL-VBP (find)))(NP (PRP (she)))(NP (PRP (we)))(REL-VP (REL-VBP (find)))(REL-NP (PRP$ (she))(REL-NN (body))))) |BT| (ROOT (S (ADVP (WRB (where)))(PP (IN (on)))(NP (DT (the))(NN (body)))(NP (PRP (you)))(VP (VB (find)))(REL-FOCUS-LOC-NP (DT (the))(NNS (jowl))))) |BT| (ROOT) |ET| 1:0.14433756 2:0.082478613 3:0.40451992 4:0.059725892 5:0.32732683 11:0.17951846 12:0.14731391 14:0.58240163 15:0.39889467 16:0.20677894  |BV| 1:0.12038585 2:0.066555828 4:0.04716666 11:0.32465386 12:0.26940796 13:0.05063697 14:0.66266167 15:0.14612241 16:0.18454285  |EV| 
-0.81202166703310196815834842709592  |BT| (ROOT (S (REL-FOCUS-ENTY-NP (WP (what))(REL-NN (year)))(VP (VBD (do)))(REL-NP (REL-NNP (ellis))(REL-NNP (island)))(VP (RB (open)))(NP (PRP$ (its))(NNS (door)))(PP (TO (to)))(REL-NP (REL-NNS (immigrant))))) |BT| (ROOT (S (SBAR (RB (just))(IN (as)))(REL-NP (REL-NNP (ellis))(REL-NNP (island)))(VP (VBD (be)))(NP (DT (the))(NN (port)))(NP (NNS (million)))(PP (IN (of)))(REL-NP (REL-NNS (immigrant)))(NP (NNP (south))(NNP (peak))(NNP (interactive)))(PP (IN (in)))(SBAR (IN (that)))(NP (PRP$ (its))(JJ (new))(NNP (cd-rom)))(REL-NP (DT (the))(REL-NNP (ellis))(REL-NNP (island))(NNP (experience)))(VP (MD (will))(VB (be)))(NP (DT (the))(NN (port)))(NP (PRP (it)))(VP (VBZ (be))(VBN (release)))(REL-NP (JJ (next))(REL-NN (year))))) |BT| (ROOT (S (REL-FOCUS-ENTY-NP (WP (what))(NN (year)))(VP (VBD (do)))(REL-NP (REL-NNP (ellis))(REL-NNP (island)))(VP (RB (open)))(NP (PRP$ (its))(NNS (door)))(PP (TO (to)))(NP (NNS (immigrant))))) |BT| (ROOT (S (REL-NP (REL-NNP (ellis))(REL-NNP (island)))(VP (VBD (be)))(NP (DT (the))(JJ (primary))(NN (immigration))(NN (gateway))))) |ET| 1:0.19767387 2:0.14598008 3:0.30883658 4:0.10540926 5:0.22537448 6:0.04039786 7:0.093352012 8:0.028071729 9:0.06851887 11:0.35115552 12:0.29880714 13:0.062904283 14:0.69687134 15:0.52304065 16:0.29751766  |BV| 1:0.21320072 2:0.15194744 3:0.21938173 4:0.10652473 5:0.15811388 6:0.042601429 7:0.086066298 8:0.02969569 9:0.062994078 11:0.3142783 12:0.25877458 13:0.058025889 14:0.633973 15:0.50325447 16:0.31446582  |EV| 
-0.81202166703310196815834842709592  |BT| (ROOT (S (REL-FOCUS-HUM-NP (WP (what))(NN (position)))(VP (VBD (do)))(REL-NP (REL-NNP (satchel))(REL-NNP (paige))(NN (play)))(PP (IN (in)))(REL-NP (JJ (professional))(REL-NN (baseball))))) |BT| (ROOT (S (NP (NN (cleveland))(NNP (ap)))(REL-FOCUS-HUM-NP (NNP (buck))(NNP (leonard)))(REL-NP (REL-NNP (satchel))(REL-NNP (paige)))(VP (VBD (be))(VBN (select)))(NP (DT (the))(JJS (best))(NNP (negro))(NNP (leagues)))(NP (DT (the))(NNP (society)))(PP (IN (for)))(REL-NP (NNP (american))(REL-NNP (baseball))(NNP (research))))) |BT| (ROOT (S (REL-FOCUS-HUM-NP (WP (what))(NN (position)))(VP (VBD (do)))(REL-NP (REL-NNP (satchel))(REL-NNP (paige))(NN (play)))(PP (IN (in)))(REL-NP (JJ (professional))(REL-NN (baseball))))) |BT| (ROOT (S (VP (VBP (do))(RB (not))(VB (look)))(ADVP (RB (back)))(REL-FOCUS-HUM-NP (DT (the))(JJ (legendary))(REL-NN (baseball))(NN (pitcher))(REL-NNP (satchel))(REL-NNP (paige)))(ADVP (RB (once)))(VP (VBD (say))))) |ET| 1:0.17038855 2:0.11946954 3:0.16245911 4:0.083009712 5:0.11547005 6:0.0327035 7:0.061898451 8:0.02268046 9:0.044543538 11:0.42170191 12:0.36504725 13:0.10056475 14:0.64996511 15:0.35600963 16:0.36211741  |BV| 1:0.19289713 2:0.13425539 3:0.26318067 4:0.095276989 5:0.18856181 6:0.031575449 7:0.07647191 8:0.02188441 9:0.05555556 11:0.43666303 12:0.36473113 13:0.064911351 14:0.67958558 15:0.38910434 16:0.39823571  |EV| 
0.81202166703310196815834842709592  |BT| (ROOT (S (PP (IN (on)))(REL-FOCUS-LOC-NP (WP (what))(REL-NN (continent)))(VP (VBZ (be)))(NP (NNP (egypt)))(VP (VBN (locate))))) |BT| (ROOT (S (NP (DT (any))(JJ (regional))(JJ (economic))(NNS (bloc)))(PP (IN (in)))(REL-NP (DT (the))(REL-NN (continent)))(NP (PRP (he)))(VP (VBD (say))))) |BT| (ROOT (S (PP (IN (on)))(REL-FOCUS-LOC-NP (WP (what))(REL-NN (continent)))(VP (VBZ (be)))(NP (NNP (egypt)))(REL-VP (REL-VBN (locate))))) |BT| (ROOT (S (REL-FOCUS-LOC-NP (NNP (china)))(NP (DT (the))(NNP (republic)))(PP (IN (of)))(REL-FOCUS-LOC-NP (DT (the))(NNP (congo)))(VP (VBP (enjoy)))(NP (DT (a))(JJ (traditional))(NN (friendship)))(SBAR (IN (that)))(NP (PRP (they)))(REL-VP (VBP (be))(REL-VBN (locate)))(PP (IN (in)))(REL-NP (CD (two))(JJ (different))(REL-NNS (continent)))(NP (NNP (li)))(VP (VBD (say))))) |ET| 1:0.21428572 2:0.11651035 3:0.11547005 4:0.082760587 5:0.089087076 11:0.19955704 12:0.16575962 14:0.59934872 15:0.35093307 16:0.21579088  |BV| 1:0.19166297 2:0.10653312 3:0.20519567 4:0.076249287 5:0.15713485 11:0.25197631 12:0.20889319 14:0.61283928 15:0.50359839 16:0.21224238  |EV| 
0.81202166703310196815834842709592  |BT| (ROOT (S (REL-FOCUS-HUM-NP (WP (what))(NN (position)))(VP (VBD (do)))(REL-NP (REL-NNP (satchel))(REL-NNP (paige))(NN (play)))(PP (IN (in)))(REL-NP (JJ (professional))(REL-NN (baseball))))) |BT| (ROOT (S (VP (VBP (do))(RB (not))(VB (look)))(ADVP (RB (back)))(REL-FOCUS-HUM-NP (DT (the))(JJ (legendary))(REL-NN (baseball))(NN (pitcher))(REL-NNP (satchel))(REL-NNP (paige)))(ADVP (RB (once)))(VP (VBD (say))))) |BT| (ROOT (S (REL-FOCUS-HUM-NP (WP (what))(NN (position)))(VP (VBD (do)))(REL-NP (REL-NNP (satchel))(REL-NNP (paige))(REL-NN (play)))(PP (IN (in)))(REL-NP (JJ (professional))(REL-NN (baseball))))) |BT| (ROOT (S (REL-FOCUS-HUM-NP (NNP (miller)))(NP (WP (who)))(REL-VP (REL-VBD (play)))(NP (JJ (semi-pro))(NN (ball)))(PP (IN (during)))(NP (PRP$ (he))(NN (student))(NNS (year)))(PP (IN (against)))(REL-NP (JJ (several))(REL-NN (baseball))(NNS (great)))(PP (VBG (include)))(REL-NP (REL-NNP (satchel))(REL-NNP (paige)))(VP (MD (may))(RB (not)))(SBAR (IN (as)))(VP (VBP (have))(RB (once))(VBN (strike)))(PRT (RP (out)))(REL-FOCUS-HUM-NP (NNP (babe))(NNP (ruth)))(NP (PRP$ (he))(NN (friendship)))(PP (IN (with))))) |ET| 1:0.19289713 2:0.13425539 3:0.26318067 4:0.095276989 5:0.18856181 6:0.031575449 7:0.07647191 8:0.02188441 9:0.05555556 11:0.43666303 12:0.36473113 13:0.064911351 14:0.67958558 15:0.38910434 16:0.39823571  |BV| 1:0.13719887 2:0.10178677 3:0.24784081 4:0.074239232 5:0.17568208 6:0.02662174 7:0.056343619 8:0.018405249 9:0.0404226 11:0.48894709 12:0.4159455 13:0.13468701 14:0.74182802 15:0.46529692 16:0.36906469  |EV| 
-0.81202166703310196815834842709592  |BT| (ROOT (S (NP (WP (what)))(VP (VBZ (be)))(REL-FOCUS-DESC-NP (DT (the))(NN (motto)))(PP (IN (for)))(REL-NP (DT (the))(REL-NNP (boy))(REL-NNP (scouts))))) |BT| (ROOT (S (REL-NP (REL-NNP (boy))(REL-NNP (scouts)))(NP (NN (lawyer))(NNP (george))(NNP (davidson)))(VP (VBD (say)))(NP (DT (the))(JJ (''selective))(VBG (target)))(PP (IN (of)))(REL-NP (DT (the))(REL-NNP (boy))(REL-NNP (scouts)))(PP (IN (for)))(NP (NN (exclusion)))(NP (PRP$ (they))(NN (dislike)))(PP (IN (of)))(REL-NP (DT (the))(REL-NNP (boy))(REL-NNP (scouts)))(NP (NN (message)))(VP (VBZ (be))))) |BT| (ROOT (S (NP (WP (what)))(VP (VBZ (be)))(REL-FOCUS-DESC-NP (DT (the))(REL-NN (motto)))(PP (IN (for)))(REL-NP (DT (the))(REL-NNP (boy))(NNP (scouts))))) |BT| (ROOT (S (VP (VBZ (be)))(ADVP (RB (still)))(REL-NP (DT (the))(JJ (official))(REL-NNP (boy))(NNP (scout))(REL-NN (motto))))) |ET| 1:0.58536941 2:0.45199677 3:0.5749889 4:0.36545235 5:0.46291006 6:0.20869967 7:0.29277003 8:0.14978617 9:0.25 10:0.069885664 11:0.60715824 12:0.54701674 13:0.34443739 14:0.82581526 15:0.73826754 16:0.26854271  |BV| 1:0.48420012 2:0.29950377 3:0.15569979 4:0.22343586 5:0.11909827 11:0.30658492 12:0.25676295 13:0.058789641 14:0.63082159 15:0.6079964 16:0.33623666  |EV| 
0.57600047885212690701450810593087  |BT| (ROOT (S (ADVP (WRB (where)))(VP (VBZ (be)))(REL-FOCUS-LOC-NP (REL-NN (bile)))(VP (VBN (produce))))) |BT| (ROOT (S (NP (DT (the))(NN (disease)))(VP (NNS (scar)))(REL-NP (DT (the))(REL-NN (bile))(NNS (duct)))(NP (WDT (which)))(VP (VBP (carry)))(REL-NP (REL-NN (bile)))(PP (IN (from)))(NP (DT (the))(NN (liver))))(S (NP (DT (the))(NNS (duct)))(VP (VBP (get))(VBN (block)))(REL-NP (REL-NN (bile)))(VP (VBZ (back)))(PRT (RP (up))))) |BT| (ROOT (S (ADVP (WRB (where)))(VP (VBZ (be)))(REL-FOCUS-LOC-NP (REL-NN (bile)))(VP (VBN (produce))))) |BT| (ROOT (S (PP (IN (after)))(VP (VBG (dominate)))(REL-NP (REL-NNS (bile)))(ADJP (JJ ([2-2)))(PP (IN (in))))) |ET| 1:0.11952286 2:0.075164601 3:0.24253564 4:0.05773503 5:0.20555662 11:0.26345539 12:0.23039086 13:0.0248452 14:0.52226102 15:0.36753106 16:0.20879745  |BV| 1:0.091287091 2:0.048621658 3:0.12598816 4:0.034752399 5:0.10540926 11:0.13578136 12:0.11543927 14:0.39817286 15:0.22491682 16:0.20519915  |EV| 
0.81202166703310196815834842709592  |BT| (ROOT (S (REL-FOCUS-NUM-NP (WP (what))(NN (year)))(VP (VBD (do)))(REL-NP (REL-NNP (mussolini)))(VP (VB (seize)))(NP (NN (power)))(PP (IN (in)))(REL-NP (REL-NNP (italy))))) |BT| (ROOT (S (NP (CD (1922)))(REL-NP (NNP (benito))(REL-NNP (mussolini))(NNS (form)))(NP (JJ (fascist))(NN (government)))(VP (VBZ (become)))(NP (NN (premier)))(PP (IN (of)))(REL-NP (REL-NNP (italy))))) |BT| (ROOT (S (REL-FOCUS-NUM-NP (WP (what))(NN (year)))(VP (VBD (do)))(REL-NP (REL-NNP (mussolini)))(VP (VB (seize)))(NP (NN (power)))(PP (IN (in)))(REL-NP (REL-NNP (italy))))) |BT| (ROOT (S (NP (DT (the))(JJ (gay-rights))(NN (movement)))(PP (IN (in)))(REL-NP (REL-NNP (italy)))(NP (DT (a))(NN (country)))(NP (WDT (that)))(ADVP (RB (even)))(PP (IN (under)))(REL-NP (REL-NNP (mussolini)))(VP (VBZ (have))(RB (never))(VBN (be)))(ADJP (RB (as))(JJ (powerful)))(NP (NNS (gay-rights))(NNS (issue)))(PP (IN (in)))(REL-NP (REL-NNP (italy))))) |ET| 1:0.18490008 2:0.097014248 3:0.1721326 4:0.068041377 5:0.12598816 11:0.48433244 12:0.42008403 13:0.22792114 14:0.75403482 15:0.59665471 16:0.26545307  |BV| 1:0.20412415 2:0.15686275 3:0.1490712 4:0.11405319 5:0.10825318 6:0.049461938 8:0.034503281 11:0.4612799 12:0.39439255 13:0.12664951 14:0.74548304 15:0.57173473 16:0.25442225  |EV| 
0.81202166703310196815834842709592  |BT| (ROOT (S (ADVP (WRB (where)))(PP (IN (on)))(NP (DT (the))(NN (body)))(NP (PRP (you)))(VP (VB (find)))(REL-FOCUS-LOC-NP (DT (the))(NNS (jowl))))) |BT| (ROOT) |BT| (ROOT (S (ADVP (WRB (where)))(PP (IN (on)))(REL-NP (DT (the))(REL-NN (body)))(NP (PRP (you)))(REL-VP (REL-VB (find)))(REL-FOCUS-LOC-NP (DT (the))(NNS (jowl))))) |BT| (ROOT (S (VP (VBD (dig)))(PRT (RP (up)))(REL-NP (REL-NNS (body)))(REL-NP (VBN (incinerate))(REL-NNS (body)))(VP (VBN (transport)))(REL-NP (REL-NNS (body)))(SBAR (IN (so)))(NP (PRP (we)))(REL-VP (MD (could))(RB (not))(REL-VB (find)))(NP (PRP (they)))(NP (PRP (he))))) |ET| 1:0.12038585 2:0.066555828 4:0.04716666 11:0.32465386 12:0.26940796 13:0.05063697 14:0.66266167 15:0.14612241 16:0.18454285  |BV| 1:0.18033393 2:0.10663823 3:0.39036003 4:0.078296028 5:0.31426969 11:0.21678714 12:0.1780989 14:0.55887526 15:0.35219833 16:0.192003  |EV| 
0.81202166703310196815834842709592  |BT| (ROOT (S (NP (WP (what)))(VP (VBZ (be)))(REL-FOCUS-LOC-NP (DT (the))(REL-JJS (deepest))(REL-NN (lake)))(PP (IN (in)))(REL-NP (DT (the))(REL-NN (world))))) |BT| (ROOT (S (NP (NNP (listvyanka)))(REL-FOCUS-LOC-NP (NNP (russia)))(NP (RB (almost))(DT (any))(NN (resident)))(PP (IN (of)))(NP (NNS (superlative)))(PP (IN (about)))(REL-NP (DT (the))(JJ (great))(REL-NN (lake)))(NP (NN (inland))(NN (sea)))(ADVP (RB (really))))(S (REL-NP (REL-NNP (lake))(NNP (baikal)))(VP (VBZ (be)))(NP (DT (the))(JJS (biggest)))(NP (DT (the))(JJS (oldest)))(PP (IN (by)))(REL-NP (RB (far))(DT (the))(REL-JJS (deepest)))(REL-NP (DT (the))(NN (clearest))(REL-NN (lake)))(PP (IN (on)))(NP (NN (earth))))(S (NP (PRP (it)))(ADJP (JJ (empty)))(REL-NP (DT (the))(REL-NN (world)))(NP (POS ('s))(NNS (river)))(VP (MD (would))(VB (have))(TO (to))(VB (flow))))(S (ADJP (JJ (else)))(PP (VBG (include)))(REL-NP (DT (the))(REL-NN (world)))(NP (POS ('s))(RB (only))(RB (purely))(JJ (freshwater))(NN (seal))))) |BT| (ROOT (S (NP (WP (what)))(VP (VBZ (be)))(REL-FOCUS-LOC-NP (DT (the))(REL-JJS (deepest))(REL-NN (lake)))(PP (IN (in)))(NP (DT (the))(NN (world))))) |BT| (ROOT (S (VP (VBD (be))(VBG (vacation)))(PP (IN (in)))(REL-FOCUS-LOC-NP (NNP (california)))(PP (IN (at)))(REL-FOCUS-LOC-NP (REL-NNP (lake))(NNP (tahoe)))(NP (PRP (i)))(VP (VBD (be))(VBN (tell)))(NP (CD (one)))(PP (IN (of)))(REL-NP (DT (the))(REL-JJS (deepest))(REL-NNS (lake)))(PP (IN (in)))(REL-FOCUS-LOC-NP (DT (the))(NNP (united))(NNP (states))))(S (NP (PRP (it)))(VP (VBZ (be)))(REL-NP (DT (the))(REL-JJS (deepest))(NN (one)))(NP (WP (what)))(VP (VBZ (be))))) |ET| 1:0.47578067 2:0.35310757 3:0.23186944 4:0.2669214 5:0.17633639 6:0.07248804 8:0.050479472 11:0.55618775 12:0.48759112 13:0.2640076 14:0.70004761 15:0.61433995 16:0.20952143  |BV| 1:0.6184873 2:0.50054342 3:0.37300193 4:0.42125836 5:0.28867513 6:0.25819889 7:0.13245323 8:0.22191676 9:0.11111111 10:0.16230687 11:0.40047535 12:0.3362422 13:0.13554595 14:0.73993677 15:0.68553704 16:0.29781342  |EV| 
-0.61226440544628202289345608733129  |BT| (ROOT (S (REL-FOCUS-LOC-NP (WP (what))(REL-NN (city)))(VP (VBZ (be)))(REL-NP (DT (the))(REL-NN (gateway))(REL-NN (arch)))(VP (VBN (locate)))(PP (IN (in))))) |BT| (ROOT (S (NP (DT (the))(VBG (tower))(NN (statue)))(PP (IN (of)))(REL-FOCUS-LOC-NP (NNP (saddam)))(PP (IN (atop)))(REL-NP (DT (a))(JJ (three-story))(JJ (high))(JJ (white))(NN (stone))(REL-NN (arch)))(REL-NP (DT (the))(REL-NN (gateway)))(PP (TO (to)))(REL-NP (DT (the))(REL-NN (city))))) |BT| (ROOT (S (REL-FOCUS-LOC-NP (WP (what))(NN (city)))(VP (VBZ (be)))(REL-NP (DT (the))(REL-NN (gateway))(REL-NN (arch)))(VP (VBN (locate)))(PP (IN (in))))) |BT| (ROOT (S (PP (IN (in)))(NP (CD (1968)))(REL-NP (DT (the))(REL-NNP (gateway))(REL-NNP (arch)))(NP (NN (part)))(PP (IN (of)))(NP (DT (the))(NNP (jefferson))(NNP (national))(NNP (expansion))(NNP (memorial)))(PP (IN (in)))(REL-FOCUS-LOC-NP (NNP (st))(NNP (louis)))(VP (VBD (be))(VBN (dedicate))))) |ET| 1:0.31210974 2:0.20180184 3:0.1770844 4:0.14523688 5:0.13018891 6:0.027681829 8:0.01921301 11:0.50203073 12:0.43263862 13:0.10383483 14:0.69906288 15:0.54167426 16:0.24653886  |BV| 1:0.28583097 2:0.16351749 4:0.11785113 11:0.16131184 12:0.13898464 14:0.4511016 15:0.39750361 16:0.2603935  |EV| 
0.030542726245640611226761507168703  |BT| (ROOT (S (NP (WP (what)))(VP (VBZ (be)))(REL-FOCUS-LOC-NP (REL-NN (capital)))(PP (IN (of)))(REL-NP (REL-NNP (maryland))))) |BT| (ROOT (S (REL-FOCUS-LOC-NP (REL-NNP (maryland)))(NP (NNP (joe))(NNP (platania)))(NP (NNP (wcbm)))(REL-FOCUS-LOC-NP (NNP (baltimore)))(NP (NNP (joe))(NNP (gross)))(REL-FOCUS-LOC-NP (DT (the))(REL-NNP (capital))(NNP (annapolis))))) |BT| (ROOT (S (NP (WP (what)))(VP (VBZ (be)))(REL-FOCUS-LOC-NP (REL-NN (capital)))(PP (IN (of)))(REL-NP (REL-NNP (maryland))))) |BT| (ROOT (S (REL-FOCUS-LOC-NP (REL-NNP (maryland))(NNS (authority)))(VP (VBD (say)))(NP (PRP (they)))(VP (MD (would))(RB (not))(VB (pursue)))(REL-NP (DT (a))(REL-NN (capital))(NN (case)))(VP (VBD (note)))(ADVP (RB (nonetheless)))(PP (IN (than)))(PP (IN (in)))(REL-FOCUS-LOC-NP (NNP (israel))))) |ET| 1:0.064549722 2:0.039936151 3:0.13245323 4:0.03021989 5:0.1132277 11:0.2111095 12:0.18425693 13:0.03077287 14:0.53641587 15:0.2753028 16:0.19375044  |BV| 1:0.21004201 2:0.11396058 3:0.22222222 4:0.081199788 5:0.18490008 11:0.39139685 12:0.32732683 13:0.15386435 14:0.67216045 15:0.48883474 16:0.17442538  |EV| 
0.81202166703310196815834842709592  |BT| (ROOT (S (REL-FOCUS-LOC-NP (WP (what))(NN (city)))(VP (VBZ (do)))(REL-NP (DT (the))(REL-NNP (tour)))(PP (IN (de)))(NP (NNP (france)))(REL-VP (REL-NN (end)))(PP (IN (in))))) |BT| (ROOT (S (REL-FOCUS-LOC-NP (NN (tour-de-france-react))(NNP (paris))(REL-JJ (tour)))(REL-VP (REL-NNS (end)))(PP (IN (for)))(NP (NNS (rider))))) |BT| (ROOT (S (REL-FOCUS-LOC-NP (WP (what))(NN (city)))(VP (VBZ (do)))(REL-NP (DT (the))(REL-NNP (tour)))(REL-PP (REL-IN (de)))(REL-NP (REL-NNP (france)))(REL-VP (REL-NN (end)))(PP (IN (in))))) |BT| (ROOT (S (NP (DT (the))(JJ (warm-up))(NN (act)))(VP (VBZ (be)))(REL-VP (TO (to))(REL-VB (end)))(REL-FOCUS-LOC-NP (REL-NNP (france)))(VP (VBZ (be)))(ADJP (JJ (ready)))(PP (IN (for)))(NP (PRP$ (its))(JJ (annual))(NN (showstopper)))(REL-FOCUS-LOC-NP (DT (the))(REL-NNP (tour))(REL-NNP (de))(REL-NNP (france))))) |ET| 1:0.14142136 2:0.075431429 3:0.080845207 4:0.05287011 5:0.058925569 11:0.45046112 12:0.37508863 13:0.028306929 14:0.73944265 15:0.47790614 16:0.32111478  |BV| 1:0.36391267 2:0.28903666 3:0.50917506 4:0.24618298 5:0.42884502 6:0.16980889 7:0.27500954 8:0.14142136 9:0.20412415 10:0.11065667 11:0.40644851 12:0.33791891 13:0.045360919 14:0.66509259 15:0.46835464 16:0.31876907  |EV| 
0.81202166703310196815834842709592  |BT| (ROOT (S (REL-FOCUS-DESC-NP (WP (what))(REL-NN (canal)))(VP (VBZ (be)))(PP (IN (between)))(REL-NP (DT (the))(REL-NNP (mediterranean))(NNP (sea)))(REL-NP (DT (the))(REL-NNP (red))(NNP (sea))))) |BT| (ROOT (S (NP (CD (1869)))(REL-NP (NNP (suez))(REL-NNP (canal)))(VP (VBZ (open)))(PP (IN (in)))(NP (NNP (egypt)))(VP (VBG (link)))(REL-NP (REL-NNP (mediterranean))(CC (and))(REL-NNP (red))(NNP (seas))))) |BT| (ROOT (S (REL-FOCUS-DESC-NP (WP (what))(REL-NN (canal)))(VP (VBZ (be)))(PP (IN (between)))(REL-NP (DT (the))(REL-NNP (mediterranean))(REL-NNP (sea)))(REL-NP (DT (the))(REL-NNP (red))(REL-NNP (sea))))) |BT| (ROOT (S (REL-NP (DT (the))(REL-NN (canal)))(VP (VBG (link)))(REL-NP (DT (the))(REL-NNP (mediterranean)))(REL-NP (DT (the))(REL-NNP (red))(REL-NNP (sea)))(VP (VBD (be))(VBN (open)))(PP (IN (in))))) |ET| 1:0.20044594 2:0.11111111 3:0.14625448 4:0.078974716 5:0.10910895 11:0.58686119 12:0.50489342 13:0.21629523 14:0.72410595 15:0.56016982 16:0.43162468  |BV| 1:0.61871845 2:0.48507124 3:0.43876344 4:0.39582625 5:0.32732683 6:0.21524879 7:0.097590007 8:0.1739164 9:0.072739303 10:0.11633501 11:0.53015757 12:0.47322872 13:0.29633364 14:0.77058643 15:0.80803794 16:0.43162468  |EV| 
-0.81202166703310196815834842709592  |BT| (ROOT (S (NP (WP (what))(NN (gas)))(VP (VBZ (be)))(REL-FOCUS-ENTY-NP (CD (78))(NN (percent)))(PP (IN (of)))(REL-NP (DT (the))(REL-NN (earth)))(REL-NP (REL-POS ('s))(REL-NN (atmosphere))))) |BT| (ROOT (S (NP (NN (prowess))(NN (stop)))(PP (IN (at)))(REL-NP (REL-NNP (earth)))(REL-NP (REL-POS ('s))(REL-NN (atmosphere))))) |BT| (ROOT (S (REL-NP (WP (what))(REL-NN (gas)))(VP (VBZ (be)))(REL-FOCUS-ENTY-NP (CD (78))(NN (percent)))(PP (IN (of)))(REL-NP (DT (the))(REL-NN (earth)))(REL-NP (REL-POS ('s))(REL-NN (atmosphere))))) |BT| (ROOT (S (PP (IN (in)))(NP (DT (the))(NN (moon)))(REL-NP (REL-POS ('s))(REL-NN (atmosphere)))(ADVP (RB (so))(RB (far)))(VP (VBZ (be)))(NP (NN (nitrogen)))(REL-NP (DT (the))(REL-NN (gas)))(NP (WDT (that)))(VP (VBZ (make)))(NP (NNS (three-quarter)))(PP (IN (of)))(REL-NP (DT (the))(REL-NNP (earth)))(REL-NP (REL-POS ('s))(REL-NN (atmosphere))))) |ET| 1:0.27272728 2:0.23809524 3:0.27272728 4:0.2 5:0.2 6:0.15789475 7:0.11111111 8:0.11111111 9:0.083333328 10:0.05882353 11:0.48862728 12:0.40508136 13:0.14814815 14:0.74520558 15:0.64265823 16:0.24624503  |BV| 1:0.43549418 2:0.30704412 3:0.35675302 4:0.21837711 5:0.26363525 6:0.077433862 7:0.12830006 8:0.053605631 9:0.093658581 11:0.56568944 12:0.4959183 13:0.26352313 14:0.76847106 15:0.70059568 16:0.31079847  |EV| 
0.81202166703310196815834842709592  |BT| (ROOT (S (NP (WP (what)))(VP (VBD (be)))(REL-NP (REL-NNP (andrew))(REL-NNP (jackson)))(REL-NP (REL-POS ('s))(REL-NN (wife)))(VP (VBZ (be)))(REL-FOCUS-HUM-NP (NN (name))))) |BT| (ROOT (S (PP (IN (in)))(NP (CD (1824)))(REL-FOCUS-HUM-NP (DT (the))(JJ (fiery))(REL-NNP (andrew))(REL-NNP (jackson)))(VP (VBD (be))(VBN (denounce)))(PP (IN (as)))(SBAR (IN (because)))(NP (PRP (he)))(REL-FOCUS-HUM-NP (PRP$ (he))(REL-NN (wife))(NNP (rachel)))(VP (VBD (have)))(ADJP (VBN (marry))))(S (NP (IN (that))(VBN (provide))(NN (fuel)))(PP (IN (for)))(REL-FOCUS-HUM-NP (REL-NNP (jackson)))(REL-NP (REL-POS ('s))(JJ (many))(NNS (opponent))))(S (VP (VBD (do))(VB (obtain)))(NP (DT (a))(NN (divorce)))(REL-FOCUS-HUM-NP (REL-NNP (jackson))(CC (and))(NNP (rachel)))(VP (VBD (be))(VBN (remarry))))) |BT| (ROOT (S (NP (WP (what)))(VP (VBD (be)))(REL-NP (NNP (andrew))(REL-NNP (jackson)))(REL-NP (REL-POS ('s))(REL-NN (wife)))(VP (VBZ (be)))(REL-FOCUS-HUM-NP (NN (name))))) |BT| (ROOT (S (PP (IN (for)))(NP (DT (the))(NN (record)))(REL-FOCUS-HUM-NP (NNP (keith))(REL-NNP (jackson)))(REL-NP (REL-POS ('s))(REL-NN (wife)))(PP (IN (of)))(NP (CD (46))(NNS (year)))(VP (VBZ (be))(VBN (name)))(REL-FOCUS-HUM-NP (NNP (turi))(NNP (ann))))) |ET| 1:0.26860765 2:0.19816446 3:0.32578519 4:0.14737523 5:0.24077171 6:0.045466289 7:0.10383483 8:0.031830352 9:0.076980039 11:0.36324459 12:0.31014362 13:0.04413674 14:0.69650739 15:0.5130313 16:0.24868387  |BV| 1:0.39477101 2:0.33062327 3:0.36369649 4:0.26207122 5:0.31622776 6:0.17457432 7:0.260133 8:0.12222647 9:0.19245009 10:0.048280451 11:0.49487165 12:0.42874646 13:0.20597146 14:0.75054836 15:0.52529818 16:0.25489151  |EV| 
0.3325748734054946864624469071714  |BT| (ROOT (S (REL-NP (WP (what))(REL-NNP (spanish)))(REL-FOCUS-HUM-VP (REL-VBD (explorer))(REL-VBN (discover)))(REL-NP (DT (the))(REL-NNP (mississippi))(REL-NNP (river))))) |BT| (ROOT (S (ADJP (JJ (native)))(PP (TO (to)))(REL-NP (DT (the))(JJR (lower))(REL-NNP (mississippi))(NNP (valley)))(PP (TO (to)))(NP (NNP (georgia))))(S (REL-FOCUS-HUM-NP (DT (the))(JJ (16th-century))(REL-NNP (spanish))(REL-NN (explorer))(NNP (hernando))(NNP (de))(NNP (soto)))(NP (WP (who)))(REL-VP (REL-VBD (discover)))(REL-NP (DT (the))(REL-NNP (mississippi))(REL-NNP (river)))(VP (VBD (write)))(PP (IN (about))))) |BT| (ROOT (S (NP (WP (what))(NNP (spanish)))(REL-FOCUS-HUM-VP (REL-VBD (explorer))(VBN (discover)))(REL-NP (DT (the))(REL-NNP (mississippi))(REL-NNP (river))))) |BT| (ROOT (S (PP (IN (in)))(NP (CD (1682)))(REL-FOCUS-HUM-NP (NNP (french))(REL-NN (explorer))(NNP (robert))(NNP (la))(NNP (salle)))(VP (VBD (reach)))(REL-NP (DT (the))(REL-NNP (mississippi))(REL-NNP (river))))) |ET| 1:0.35533452 2:0.28849122 3:0.40451992 4:0.23867309 5:0.3247849 6:0.15517817 7:0.2159797 8:0.12617221 9:0.15713485 10:0.085091397 11:0.4679096 12:0.4048129 13:0.13300124 14:0.65412915 15:0.52599227 16:0.36447212  |BV| 1:0.39223227 2:0.30983868 3:0.32338083 4:0.25458753 5:0.23570226 6:0.17349447 7:0.097590007 8:0.12309149 9:0.072739303 10:0.065795168 11:0.65773338 12:0.58565164 13:0.33968312 14:0.76560169 15:0.48087746 16:0.31337482  |EV| 
