SVM-light Version V5.01-TK-1.5
5 # kernel type
3 # kernel parameter -d 
1 # kernel parameter -g 
1 # kernel parameter -s 
1 # kernel parameter -r 
empty# kernel parameter -u 
0.4 # kernel parameter -L 
1 # kernel parameter -T 
+ # kernel parameter -C 
3 # kernel parameter -F 
1 # kernel parameter -S 
0.400000 # kernel parameter -M 
3 # kernel parameter -N 
R # kernel parameter -V 
R # kernel parameter -W 
0 # kernel parameter -U 
16 # highest feature index 
4738 # number of training documents 
2014 # number of support vectors plus 1 
-0.026405984 # threshold b, each following line is a SV (starting with alpha*y)
0.80277098990865147776219146180665  |BT| (ROOT (S (ADVP (WRB (how)))(REL-NP (JJ (many))(REL-JJ (olympic))(REL-NN (gold))(REL-NNS (medal)))(VP (VBD (do)))(REL-FOCUS-NUM-NP (REL-NNP (carl))(REL-NNP (lewis)))(REL-VP (REL-VBP (win))))) |BT| (ROOT (S (NP (CD (10)))(NP (NNP (track)))(REL-NP (NN (field))(NN (legend))(REL-NNP (carl))(REL-NNP (lewis)))(PP (IN (of)))(NP (DT (the))(NNP (united))(NNP (states)))(NP (CD (35)))(PP (IN (after)))(REL-VP (REL-VBG (win)))(REL-NP (CD (nine))(REL-NNP (olympic))(REL-NN (gold))(REL-NNS (medal)))(NP (CD (eight))(NN (world))(NN (championship))(NNS (title)))(PP (IN (in))))) |BT| (ROOT (S (ADVP (WRB (how)))(REL-NP (JJ (many))(REL-JJ (olympic))(REL-NN (gold))(REL-NNS (medal)))(VP (VBD (do)))(REL-FOCUS-NUM-NP (NNP (carl))(REL-NNP (lewis)))(REL-VP (REL-VBP (win))))) |BT| (ROOT (S (REL-NP (REL-NNP (lewis)))(VP (VBD (be)))(NP (DT (a))(NN (member)))(PP (IN (of)))(REL-NP (CD (five))(NNP (u.s.))(REL-NNP (olympic))(NNS (team)))(REL-VP (REL-VBG (win)))(REL-NP (CD (four))(REL-NN (gold))(REL-NNS (medal)))(PP (IN (at)))(REL-FOCUS-NUM-NP (DT (the))(CD (1984))(NNPS (olympics)))(PP (IN (in)))(NP (NNP (los))(NNP (angeles)))(NP (PRP$ (he))(NN (career)))(PP (IN (with)))(REL-NP (DT (a))(JJ (record-tying))(JJ (ninth))(REL-NNP (olympic))(REL-NN (gold))(REL-NN (medal)))(PP (IN (in)))(NP (DT (the))(JJ (long))(NN (jump)))(PP (IN (at)))(REL-FOCUS-NUM-NP (DT (the))(CD (1996))(NNP (atlanta))(NNPS (olympics))))) |ET| 1:0.2469324 2:0.18795756 3:0.34697711 4:0.13209899 5:0.24595493 6:0.061113231 7:0.11268723 8:0.042333379 9:0.080845207 11:0.34217659 12:0.28960007 13:0.081244446 14:0.51702601 15:0.26053938 16:0.44928488  |BV| 1:0.2409658 2:0.17742765 3:0.31948924 4:0.12698413 5:0.23239715 6:0.052613359 7:0.097243331 8:0.036661781 9:0.070014 11:0.35645688 12:0.30262509 13:0.079697087 14:0.54547554 15:0.34642184 16:0.424943  |EV| 
0.68302321592477988065894578539883  |BT| (ROOT (S (NP (WP (what)))(VP (VBZ (be)))(REL-FOCUS-ENTY-NP (DT (the))(NN (name)))(PP (IN (of)))(REL-NP (REL-NNP (scarlett))(REL-NNP (o'hara)))(NP (POS ('s))(NN (house))))) |BT| (ROOT (S (VP (VB (mean))(TO (to))(VB (tell)))(NP (PRP (i)))(REL-FOCUS-ENTY-NP (NNP (katie))(REL-NNP (scarlett))(REL-NNP (o'hara)))(NP (WDT (that)))(REL-FOCUS-ENTY-NP (NNP (tara)))(SBAR (DT (that)))(NP (NN (land))))) |BT| (ROOT (S (NP (WP (what)))(VP (VBZ (be)))(REL-FOCUS-ENTY-NP (DT (the))(NN (name)))(PP (IN (of)))(REL-NP (REL-NNP (scarlett))(REL-NNP (o'hara)))(NP (POS ('s))(NN (house))))) |BT| (ROOT (S (NP (DT (the))(JJ (secret))(NN (diary)))(PP (IN (of)))(REL-NP (REL-NNP (scarlett))(REL-NNP (o'hara))))) |ET| 1:0.23354968 2:0.17742765 3:0.260133 4:0.12698413 5:0.19245009 6:0.053896811 7:0.10846523 8:0.0372678 9:0.083333328 11:0.40141371 12:0.33232519 13:0.09165445 14:0.73575616 15:0.4350937 16:0.31148893  |BV| 1:0.42257714 2:0.30905756 3:0.34188172 4:0.24653342 5:0.25819889 6:0.14552137 7:0.1490712 8:0.10206207 9:0.11785113 10:0.05383819 11:0.48435947 12:0.41932961 13:0.23179317 14:0.74449223 15:0.68461353 16:0.35715717  |EV| 
-0.1840052346493332435795053925176  |BT| (ROOT (S (NP (WP (what)))(VP (VBZ (be)))(REL-FOCUS-ENTY-NP (DT (the))(NN (name)))(PP (IN (of)))(REL-NP (REL-NNP (scarlett))(REL-NNP (o'hara)))(REL-NP (REL-POS ('s))(NN (house))))) |BT| (ROOT (S (VP (VBZ (say)))(PP (IN (with)))(REL-NP (DT (a))(REL-NNP (scarlett))(REL-NNP (o'hara))(NN (kind)))(PP (IN (of)))(NP (NN (survivor)))(REL-NP (REL-POS ('s))(NN (determination))))) |BT| (ROOT (S (NP (WP (what)))(VP (VBZ (be)))(REL-FOCUS-ENTY-NP (DT (the))(NN (name)))(PP (IN (of)))(REL-NP (REL-NNP (scarlett))(REL-NNP (o'hara)))(NP (POS ('s))(NN (house))))) |BT| (ROOT (S (NP (DT (a))(NN (bit)))(PP (IN (like)))(REL-FOCUS-ENTY-NP (REL-NNP (scarlett))(REL-NNP (o'hara)))(VP (VBG (survey)))(REL-FOCUS-ENTY-NP (NNP (tara)))(ADVP (IN (though)))(PP (IN (in)))(NP (DT (the))(JJ (current))(NN (housing))(NN (market)))(REL-FOCUS-ENTY-NP (NNP (tara)))(VP (MD (would))(VB (be)))(NP (DT (a))(NN (teardown))))) |ET| 1:0.35355338 2:0.2204155 3:0.39036003 4:0.15294382 5:0.29095718 6:0.039872609 7:0.12403473 8:0.02777778 9:0.096225038 11:0.4540607 12:0.36734849 13:0.1388889 14:0.78129905 15:0.74496442 16:0.34698275  |BV| 1:0.24701609 2:0.15823503 3:0.1770844 4:0.11305037 5:0.13130642 6:0.02662174 7:0.07559289 8:0.01855674 9:0.0571662 11:0.47568262 12:0.41714883 13:0.17919968 14:0.76760119 15:0.55908984 16:0.30093682  |EV| 
-0.80277098990865147776219146180665  |BT| (ROOT (S (NP (WP (what)))(VP (VBZ (be)))(REL-FOCUS-ENTY-NP (DT (the))(NN (name)))(PP (IN (of)))(REL-NP (REL-NNP (scarlett))(REL-NNP (o'hara)))(NP (POS ('s))(NN (house))))) |BT| (ROOT (S (VP (VBZ (be)))(NP (DT (a))(JJ (strong))(NN (denouncement)))(REL-FOCUS-ENTY-NP (NNP (rod))(NNP (steiger)))(PP (IN (as)))(NP (DT (the))(NNP (southern))(NN (judge))))(S (NP (DT (the))(NN (spirit)))(PP (IN (of)))(REL-NP (REL-NNP (scarlett))(REL-NNP (o'hara))))) |BT| (ROOT (S (NP (WP (what)))(VP (VBZ (be)))(REL-FOCUS-ENTY-NP (DT (the))(NN (name)))(PP (IN (of)))(REL-NP (REL-NNP (scarlett))(REL-NNP (o'hara)))(NP (POS ('s))(NN (house))))) |BT| (ROOT (S (VP (VB (mean))(TO (to))(VB (tell)))(NP (PRP (i)))(REL-FOCUS-ENTY-NP (NNP (katie))(REL-NNP (scarlett))(REL-NNP (o'hara)))(NP (WDT (that)))(REL-FOCUS-ENTY-NP (NNP (tara)))(SBAR (DT (that)))(NP (NN (land))))) |ET| 1:0.24701609 2:0.19031443 3:0.20365328 4:0.15430336 5:0.1490712 6:0.088891327 7:0.083045483 8:0.061545748 9:0.062994078 10:0.032025632 11:0.51058888 12:0.46073931 13:0.26648545 14:0.79954177 15:0.67876428 16:0.28929442  |BV| 1:0.23354968 2:0.17742765 3:0.260133 4:0.12698413 5:0.19245009 6:0.053896811 7:0.10846523 8:0.0372678 9:0.083333328 11:0.40141371 12:0.33232519 13:0.09165445 14:0.73575616 15:0.4350937 16:0.31148893  |EV| 
-0.14571563092096012637099988751288  |BT| (ROOT (S (ADVP (WRB (where)))(VP (VBD (be)))(REL-FOCUS-LOC-NP (NNP (hans))(REL-NNP (christian))(NNP (anderson)))(REL-VP (REL-VBN (bear))))) |BT| (ROOT (S (REL-VP (REL-VBN (bear)))(PP (IN (in)))(NP (CD (1923)))(NP (POS ('s))(NNP (university)))(PP (IN (of)))(REL-FOCUS-LOC-NP (NNP (shanghai))))(S (NP (NN (president)))(PP (IN (of)))(REL-NP (DT (the))(NNP (china))(REL-NNP (christian))(NNP (council))))) |BT| (ROOT (S (ADVP (WRB (where)))(VP (VBD (be)))(REL-FOCUS-LOC-NP (REL-NNP (hans))(REL-NNP (christian))(NNP (anderson)))(VP (VBN (bear))))) |BT| (ROOT (S (LST (CD (4)))(REL-NP (REL-NNP (hans))(NNP (andersen)))(NP (POS ('s))(JJ (fairy))(NNS (tale)))(PP (IN (by)))(REL-NP (REL-NNP (hans))(REL-NNP (christian))(NNP (andersen)))(VP (VBN (publish)))(PP (IN (in)))(NP (CD (1835-73)))(PP (IN (in)))(REL-FOCUS-LOC-NP (NNP (denmark))))) |ET| 1:0.17291713 2:0.098746203 3:0.12777531 4:0.071428567 5:0.094280899 11:0.49372846 12:0.43246025 13:0.11834527 14:0.56492084 15:0.36531189 16:0.29826614  |BV| 1:0.2223748 2:0.16918197 3:0.29095718 4:0.12274328 5:0.21919864 6:0.05248639 7:0.097590007 8:0.0372678 9:0.074535601 11:0.53218114 12:0.46169025 13:0.2268713 14:0.56702834 15:0.33963656 16:0.2410937  |EV| 
0.54609972100349335466518141402048  |BT| (ROOT (S (NP (WP (what)))(VP (VBZ (be)))(REL-FOCUS-ENTY-NP (DT (the))(NN (name)))(PP (IN (of)))(REL-NP (REL-NNP (scarlett))(REL-NNP (o'hara)))(NP (POS ('s))(NN (house))))) |BT| (ROOT (S (NP (DT (a))(NN (bit)))(PP (IN (like)))(REL-FOCUS-ENTY-NP (REL-NNP (scarlett))(REL-NNP (o'hara)))(VP (VBG (survey)))(REL-FOCUS-ENTY-NP (NNP (tara)))(ADVP (IN (though)))(PP (IN (in)))(NP (DT (the))(JJ (current))(NN (housing))(NN (market)))(REL-FOCUS-ENTY-NP (NNP (tara)))(VP (MD (would))(VB (be)))(NP (DT (a))(NN (teardown))))) |BT| (ROOT (S (NP (WP (what)))(VP (VBZ (be)))(REL-FOCUS-ENTY-NP (DT (the))(NN (name)))(PP (IN (of)))(REL-NP (REL-NNP (scarlett))(REL-NNP (o'hara)))(NP (POS ('s))(NN (house))))) |BT| (ROOT (S (NP (DT (the))(JJ (secret))(NN (diary)))(PP (IN (of)))(REL-NP (REL-NNP (scarlett))(REL-NNP (o'hara))))) |ET| 1:0.24701609 2:0.15823503 3:0.1770844 4:0.11305037 5:0.13130642 6:0.02662174 7:0.07559289 8:0.01855674 9:0.0571662 11:0.47568262 12:0.41714883 13:0.17919968 14:0.76760119 15:0.55908984 16:0.30093682  |BV| 1:0.42257714 2:0.30905756 3:0.34188172 4:0.24653342 5:0.25819889 6:0.14552137 7:0.1490712 8:0.10206207 9:0.11785113 10:0.05383819 11:0.48435947 12:0.41932961 13:0.23179317 14:0.74449223 15:0.68461353 16:0.35715717  |EV| 
0.16129500209694330736809320114844  |BT| (ROOT (S (NP (WP (what)))(VP (VBZ (be)))(REL-FOCUS-ENTY-NP (DT (the))(JJ (scientific))(NN (name)))(PP (IN (for)))(REL-NP (REL-JJ (red))(REL-NNS (ant))))) |BT| (ROOT (S (VP (VBP (have))(VBN (be))(VBN (sting)))(PP (IN (by)))(REL-NP (DT (any))(REL-JJ (ant))(NNS (chance)))(VP (VBP (be)))(NP (PRP (it)))(VP (VBD (be)))(NP (DT (a))(NNP (solenopsis))(NN (invicta)))(REL-NP (DT (the))(REL-JJ (red))(VBN (import))(NN (fire))(REL-NN (ant)))(VP (VBZ (say)))(NP (NNP (bart))(NNP (drees)))(NP (NN (coordinator)))(PP (IN (of)))(REL-FOCUS-ENTY-NP (DT (the))(NNP (texas))(NNP (imported))(NNP (fire))(REL-NNP (ant))(NNP (research))(CC (and))(NNP (management))(NNP (project)))(PP (IN (at)))(REL-FOCUS-ENTY-NP (NNP (texas))(NNP (a&amp;m))(NNP (university))))) |BT| (ROOT (S (NP (WP (what)))(VP (VBZ (be)))(REL-FOCUS-ENTY-NP (DT (the))(JJ (scientific))(NN (name)))(PP (IN (for)))(REL-NP (REL-JJ (red))(REL-NNS (ant))))) |BT| (ROOT (S (NP (NN (lift)))(REL-NP (REL-JJ (red))(REL-NN (ant))(NNP (love))(CC (and))(NNP (rockets))))) |ET| 1:0.32102895 2:0.18093251 3:0.19569843 4:0.12991396 5:0.1496264 11:0.21002924 12:0.1801585 13:0.045722999 14:0.52957416 15:0.41540998 16:0.22839105  |BV| 1:0.20100756 2:0.15877683 3:0.44721359 4:0.1118034 5:0.35355338 6:0.059234891 7:0.21821789 8:0.041996051 9:0.19245009 11:0.15907119 12:0.1303215 13:0.041996051 14:0.49896729 15:0.32775033 16:0.25498095  |EV| 
0.43554416418784491771276634608512  |BT| (ROOT (S (REL-FOCUS-LOC-NP (WP (what))(REL-NN (country)))(VP (VBZ (be)))(REL-NP (REL-NNP (pretoria)))(PP (IN (in))))) |BT| (ROOT (S (NP (DT (the))(NNS (representative)))(PP (IN (from)))(REL-NP (DT (the))(CD (four))(JJ (southern))(JJ (african))(REL-NNS (country)))(PP (IN (in)))(REL-FOCUS-LOC-NP (REL-NNP (pretoria)))(REL-FOCUS-LOC-NP (NNP (south))(NNP (africa))))) |BT| (ROOT (S (REL-FOCUS-LOC-NP (WP (what))(REL-NN (country)))(VP (VBZ (be)))(REL-NP (REL-NNP (pretoria)))(PP (IN (in))))) |BT| (ROOT (S (PP (IN (in)))(REL-FOCUS-LOC-NP (REL-NNP (pretoria)))(NP (NN (weekend))(NNS (talk)))(VP (VBN (organize)))(NP (DT (a))(NN (meeting)))(PP (IN (of)))(REL-NP (DT (the))(JJ (main))(REL-NNS (country)))(VP (VBN (involve)))(PP (IN (in))))(S (VP (VBD (do))(RB (not))(VB (go)))(PP (TO (to)))(REL-FOCUS-LOC-NP (REL-NNP (pretoria)))(VP (RB (neither))(VBD (do)))(REL-FOCUS-LOC-NP (NNP (zimbabwe))(NNP (president))(NNP (robert))(NNP (mugabe))))(S (NP (DT (the))(NNS (head)))(PP (IN (of)))(REL-FOCUS-LOC-NP (NNP (uganda))(CC (and))(NNP (rwanda)))(VP (VBD (arrive)))(PP (IN (in)))(REL-FOCUS-LOC-NP (REL-NNP (pretoria)))(SBAR (IN (as)))(VP (VBN (plan))))) |ET| 1:0.30860671 2:0.1722922 3:0.3973597 4:0.12433397 5:0.33333334 7:0.24253564 9:0.20412415 11:0.24730968 12:0.20833333 14:0.61332643 15:0.42787975 16:0.18551791  |BV| 1:0.35218036 2:0.20170917 3:0.3006584 4:0.14792006 5:0.25197631 11:0.32299331 12:0.28090033 13:0.019733431 14:0.65786457 15:0.50103283 16:0.19397776  |EV| 
0.019349671174641095566792969862036  |BT| (ROOT (S (NP (WP (what)))(VP (VBZ (be)))(REL-NP (REL-NNP (horatio)))(REL-FOCUS-DESC-NP (REL-POS ('s))(NN (relationship)))(PP (TO (to)))(REL-NP (REL-NNP (hamlet))))) |BT| (ROOT (S (NP (DT (the))(JJ (last))(NNS (line)))(PP (TO (to)))(REL-NP (REL-NNP (hamlet)))(REL-NP (REL-POS ('s))(NN (friend))(REL-NNP (horatio)))(ADVP (RB (rather)))(PP (IN (than))))) |BT| (ROOT (S (NP (WP (what)))(VP (VBZ (be)))(REL-NP (REL-NNP (horatio)))(REL-FOCUS-DESC-NP (POS ('s))(NN (relationship)))(PP (TO (to)))(REL-NP (REL-NNP (hamlet))))) |BT| (ROOT (S (NP (NNP (with)))(REL-NP (NNP (ted))(NNP (zurkowski))(REL-NNP (hamlet)))(NP (NNP (austin))(NNP (pendleton))(NNP (claudius))(CC (and))(NNP (ghost)))(NP (NNP (vivien))(NNP (landau))(NNP (gertrude)))(NP (NNP (josephine))(NNP (gallarello))(NNP (ophelia)))(NP (NNP (matthew))(NNP (d.))(NNP (barton))(NNP (laertes)))(REL-NP (NNP (joe))(NNP (corey))(REL-NNP (horatio)))(NP (NNP (jerry))(NNP (less))(NNP (rosencrantz)))(NP (NNP (tom))(NNP (marsden))))) |ET| 1:0.22430886 2:0.15223655 3:0.16198477 4:0.11454053 5:0.11785113 6:0.0238705 8:0.01687899 11:0.33323869 12:0.28641751 13:0.077540353 14:0.64958084 15:0.62277597 16:0.22259527  |BV| 1:0.050125469 2:0.03069666 3:0.10585122 4:0.023809521 5:0.076980039 11:0.29601881 12:0.24902911 14:0.52761823 15:0.13982531 16:0.22686745  |EV| 
-0.12148248448730139537055094933748  |BT| (ROOT (S (NP (WP (what)))(VP (VBZ (be)))(REL-NP (REL-NNP (horatio)))(REL-FOCUS-DESC-NP (POS ('s))(NN (relationship)))(PP (TO (to)))(REL-NP (REL-NNP (hamlet))))) |BT| (ROOT (S (NP (NNP (with)))(REL-NP (NNP (derek))(NNP (lucci))(REL-NNP (hamlet)))(NP (NNP (tom))(NNP (huston)))(REL-NP (REL-NNP (horatio)))(NP (NNP (joe))(NNP (muzikar))(NN (claudius)))(NP (NNP (christopher))(NNP (george))(NNP (laertes))))) |BT| (ROOT (S (NP (WP (what)))(VP (VBZ (be)))(REL-NP (REL-NNP (horatio)))(REL-FOCUS-DESC-NP (REL-POS ('s))(NN (relationship)))(PP (TO (to)))(REL-NP (REL-NNP (hamlet))))) |BT| (ROOT (S (NP (DT (the))(JJ (last))(NNS (line)))(PP (TO (to)))(REL-NP (REL-NNP (hamlet)))(REL-NP (REL-POS ('s))(NN (friend))(REL-NNP (horatio)))(ADVP (RB (rather)))(PP (IN (than))))) |ET| 1:0.051031038 2:0.03136893 3:0.11026357 4:0.02443571 5:0.080257237 11:0.29348606 12:0.24688536 14:0.57990986 15:0.27389535 16:0.23130682  |BV| 1:0.22430886 2:0.15223655 3:0.16198477 4:0.11454053 5:0.11785113 6:0.0238705 8:0.01687899 11:0.33323869 12:0.28641751 13:0.077540353 14:0.64958084 15:0.62277597 16:0.22259527  |EV| 
-0.65099654849573507231497160319122  |BT| (ROOT (S (ADVP (WRB (when)))(NP (PRP (they)))(REL-VP (REL-VB (put)))(REL-FOCUS-NUM-NP (REL-NNP (mir)))(ADVP (IN (down))))) |BT| (ROOT (S (NP (JJ (american))(NN (participation)))(PP (IN (on)))(REL-NP (NN (board))(REL-NNP (mir)))(REL-VP (VBZ (do))(RB (not))(REL-VB (put)))(NP (JJ (human))(NN (life)))(PP (IN (in))))) |BT| (ROOT (S (ADVP (WRB (when)))(NP (PRP (they)))(REL-VP (REL-VB (put)))(REL-FOCUS-NUM-NP (REL-NNP (mir)))(ADVP (IN (down))))) |BT| (ROOT (S (NP (NNP (russia)))(VP (MD (will))(VB (discard)))(REL-NP (PRP$ (its))(REL-NNP (mir))(NN (space))(NN (station)))(PP (IN (in)))(NP (DT (the))(NN (fall)))(PP (IN (of)))(REL-FOCUS-NUM-NP (CD (1999)))(PP (IN (after)))(NP (DT (the))(JJ (new))(JJ (international))(NN (space))(NN (station))))(S (NP (JJ (invaluable))(NN (experience)))(PP (IN (by)))(REL-VP (REL-VBG (put)))(NP (CD (seven))(NNS (astronaut)))(PP (IN (on)))(REL-NP (REL-NNP (mir))))) |ET| 1:0.18156826 2:0.097384118 3:0.20100756 4:0.068680279 5:0.16666667 11:0.16583952 12:0.13937367 14:0.44355854 15:0.32271177 16:0.21102194  |BV| 1:0.14518018 2:0.08043734 3:0.25264558 4:0.05773503 5:0.21483447 11:0.28673118 12:0.24281108 14:0.48156101 15:0.27271321 16:0.1976005  |EV| 
-0.80277098990865147776219146180665  |BT| (ROOT (S (NP (WP (what)))(VP (VBZ (be)))(REL-FOCUS-ENTY-NP (DT (the))(NN (name)))(PP (IN (of)))(REL-NP (REL-NNP (scarlett))(REL-NNP (o'hara)))(REL-NP (REL-POS ('s))(NN (house))))) |BT| (ROOT (S (REL-FOCUS-ENTY-NP (NNP (gordon)))(VP (VBZ (have))(VBN (say)))(PP (IN (with)))(VP (VBG (cast)))(NP (NNP (connelly)))(REL-NP (REL-POS ('s))(NN (part)))(PP (IN (in)))(VP (VBG (wake)))(NP (DT (the))(NN (search)))(PP (IN (for)))(REL-NP (DT (a))(REL-NNP (scarlett))(REL-NNP (o'hara)))(PP (IN (for)))(VP (VBN (go))))) |BT| (ROOT (S (NP (WP (what)))(VP (VBZ (be)))(REL-FOCUS-ENTY-NP (DT (the))(NN (name)))(PP (IN (of)))(REL-NP (REL-NNP (scarlett))(REL-NNP (o'hara)))(NP (POS ('s))(NN (house))))) |BT| (ROOT (S (VP (VB (mean))(TO (to))(VB (tell)))(NP (PRP (i)))(REL-FOCUS-ENTY-NP (NNP (katie))(REL-NNP (scarlett))(REL-NNP (o'hara)))(NP (WDT (that)))(REL-FOCUS-ENTY-NP (NNP (tara)))(SBAR (DT (that)))(NP (NN (land))))) |ET| 1:0.33218193 2:0.20964275 3:0.28074497 4:0.1490712 5:0.2057378 6:0.027639501 7:0.086066298 8:0.019117979 9:0.06537205 11:0.54958332 12:0.47450587 13:0.24326682 14:0.75980443 15:0.60124445 16:0.28929442  |BV| 1:0.23354968 2:0.17742765 3:0.260133 4:0.12698413 5:0.19245009 6:0.053896811 7:0.10846523 8:0.0372678 9:0.083333328 11:0.40141371 12:0.33232519 13:0.09165445 14:0.73575616 15:0.4350937 16:0.31148893  |EV| 
-0.80277098990865147776219146180665  |BT| (ROOT (S (NP (WP (what)))(VP (VBZ (be)))(REL-FOCUS-ENTY-NP (DT (the))(NN (name)))(PP (IN (of)))(REL-NP (REL-NNP (scarlett))(REL-NNP (o'hara)))(REL-NP (REL-POS ('s))(NN (house))))) |BT| (ROOT (S (PP (IN (of)))(NP (NNP (becky)))(REL-NP (REL-POS ('s))(JJ (few))(NNS (moment)))(PP (IN (of)))(NP (NN (introspection))))(S (VP (VBZ (be)))(ADVP (RB (surely)))(REL-FOCUS-ENTY-NP (REL-NNP (scarlett))(REL-NNP (o'hara)))(REL-NP (REL-POS ('s))(NN (prototype)))(VP (VBG (resume)))(NP (PRP$ (she))(JJ (ardent))(NN (pursuit))))) |BT| (ROOT (S (NP (WP (what)))(VP (VBZ (be)))(REL-FOCUS-ENTY-NP (DT (the))(NN (name)))(PP (IN (of)))(REL-NP (REL-NNP (scarlett))(REL-NNP (o'hara)))(NP (POS ('s))(NN (house))))) |BT| (ROOT (S (VP (VB (mean))(TO (to))(VB (tell)))(NP (PRP (i)))(REL-FOCUS-ENTY-NP (NNP (katie))(REL-NNP (scarlett))(REL-NNP (o'hara)))(NP (WDT (that)))(REL-FOCUS-ENTY-NP (NNP (tara)))(SBAR (DT (that)))(NP (NN (land))))) |ET| 1:0.44177064 2:0.29676035 3:0.33806169 4:0.2301897 5:0.29633364 6:0.084016807 7:0.22677869 8:0.058387421 9:0.1714986 10:0.030642571 11:0.53895509 12:0.46169025 13:0.25663245 14:0.78718281 15:0.65199977 16:0.30372182  |BV| 1:0.23354968 2:0.17742765 3:0.260133 4:0.12698413 5:0.19245009 6:0.053896811 7:0.10846523 8:0.0372678 9:0.083333328 11:0.40141371 12:0.33232519 13:0.09165445 14:0.73575616 15:0.4350937 16:0.31148893  |EV| 
-0.80277098990865147776219146180665  |BT| (ROOT (S (NP (WP (what)))(VP (VBZ (be)))(REL-FOCUS-ENTY-NP (DT (the))(NN (name)))(PP (IN (of)))(REL-NP (DT (the))(REL-NN (airport)))(PP (IN (in)))(REL-NP (REL-NNP (amsterdam))))) |BT| (ROOT (S (PP (IN (out)))(PP (IN (of)))(REL-NP (DT (the))(JJ (present))(JJ (international))(REL-NN (airport)))(NP (PRP (he)))(VP (VBD (say)))(NP (DT (this)))(VP (MD (would))(VB (be)))(REL-FOCUS-ENTY-NP (DT (the))(NNP (klm))(NN (flight)))(PP (TO (to)))(REL-NP (REL-NNP (amsterdam))))) |BT| (ROOT (S (NP (WP (what)))(VP (VBZ (be)))(REL-FOCUS-ENTY-NP (DT (the))(NN (name)))(PP (IN (of)))(REL-NP (DT (the))(REL-NN (airport)))(PP (IN (in)))(REL-NP (REL-NNP (amsterdam))))) |BT| (ROOT (S (REL-NP (REL-NNP (amsterdam)))(REL-NP (NNP (schipol))(REL-NNP (airport)))(NP (NN (&ql))))) |ET| 1:0.48795003 2:0.34091458 3:0.28005603 4:0.24607943 5:0.24077171 6:0.070754908 8:0.049147319 11:0.41192627 12:0.34539846 13:0.094660312 14:0.78459954 15:0.72284234 16:0.22189179  |BV| 1:0.091287091 2:0.050062619 3:0.17407766 4:0.035737079 5:0.1490712 11:0.17505471 12:0.14896989 14:0.54693145 15:0.43188506 16:0.24200073  |EV| 
-0.80277098990865147776219146180665  |BT| (ROOT (S (REL-NP (WP (what))(REL-NN (galaxy)))(VP (VBZ (be)))(REL-ADJP (REL-JJS (closest)))(PP (TO (to)))(REL-FOCUS-ENTY-NP (DT (the))(REL-JJ (milky))(NN (way))))) |BT| (ROOT (S (NP (DT (the))(NN (star)))(VP (VBZ (be)))(REL-NP (DT (the))(REL-JJS (closest)))(PP (TO (to)))(NP (NNP (earth))))(S (NP (CD (one)))(PP (IN (of)))(REL-NP (DT (the))(REL-JJS (closest))(NNS (member)))(PP (IN (of)))(NP (DT (a))(NN (class)))(NP (DT (the))(RBS (most))(JJ (common)))(PP (IN (in)))(REL-NP (DT (the))(REL-NNP (milky))(NNP (way))(REL-NN (galaxy))))) |BT| (ROOT (S (NP (WP (what))(NN (galaxy)))(VP (VBZ (be)))(ADJP (JJS (closest)))(PP (TO (to)))(REL-FOCUS-ENTY-NP (DT (the))(REL-JJ (milky))(NN (way))))) |BT| (ROOT (S (PP (IN (of)))(NP (DT (the))(NNP (andromeda)))(REL-NP (REL-NNP (milky))(NNP (way))(NNP (galaxies))))) |ET| 1:0.44459063 2:0.28198081 3:0.2409658 4:0.20732211 5:0.18677184 6:0.026490649 8:0.018509001 11:0.39021218 12:0.32789463 13:0.087078422 14:0.66990036 15:0.48664591 16:0.4455685  |BV| 1:0.11111111 2:0.05882353 4:0.041666672 11:0.057831489 12:0.04902903 14:0.32690158 15:0.26880273 16:0.40816799  |EV| 
-0.80277098990865147776219146180665  |BT| (ROOT (S (REL-NP (WP (what))(REL-NN (galaxy)))(VP (VBZ (be)))(ADJP (JJS (closest)))(PP (TO (to)))(REL-FOCUS-ENTY-NP (DT (the))(REL-JJ (milky))(NN (way))))) |BT| (ROOT (S (NP (NN (part)))(PP (IN (of)))(REL-NP (DT (the))(REL-NNP (milky))(NNP (way))(REL-NN (galaxy))))(S (VP (VBP (be)))(PP (IN (in)))(REL-NP (DT (the))(REL-NNP (milky))(NN (way))))(S (NP (DT (the))(JJ (solar))(NN (system)))(ADVP (WRB (where)))(REL-FOCUS-ENTY-NP (NNP (earth)))(VP (VBZ (be))(VBN (situate)))(VP (VBP (have))))) |BT| (ROOT (S (NP (WP (what))(NN (galaxy)))(VP (VBZ (be)))(ADJP (JJS (closest)))(PP (TO (to)))(REL-FOCUS-ENTY-NP (DT (the))(REL-JJ (milky))(NN (way))))) |BT| (ROOT (S (PP (IN (of)))(NP (DT (the))(NNP (andromeda)))(REL-NP (REL-NNP (milky))(NNP (way))(NNP (galaxies))))) |ET| 1:0.41344911 2:0.25322509 3:0.068199433 4:0.18456791 5:0.05607722 6:0.02834101 8:0.02017425 11:0.46963626 12:0.39467612 13:0.15740836 14:0.67389107 15:0.5190177 16:0.37791777  |BV| 1:0.11111111 2:0.05882353 4:0.041666672 11:0.057831489 12:0.04902903 14:0.32690158 15:0.26880273 16:0.40816799  |EV| 
0.80277098990865147776219146180665  |BT| (ROOT (S (ADVP (WRB (where)))(VP (VBZ (be)))(REL-FOCUS-LOC-NP (REL-NN (bile)))(REL-VP (REL-VBN (produce))))) |BT| (ROOT (S (VP (VBZ (be)))(VP (TO (to))(VB (store)))(REL-NP (REL-NN (bile)))(REL-VP (REL-VBN (produce)))(PP (IN (by)))(NP (DT (the))(NN (liver))(CC (and))(NN (secrete))))) |BT| (ROOT (S (ADVP (WRB (where)))(VP (VBZ (be)))(REL-FOCUS-LOC-NP (REL-NN (bile)))(VP (VBN (produce))))) |BT| (ROOT (S (NP (NN (commentary)))(REL-NP (REL-NNP (bile)))(PP (IN (in)))(REL-FOCUS-LOC-NP (NNP (bloom))))) |ET| 1:0.232889 2:0.16922437 3:0.30151135 4:0.12562972 5:0.25264558 6:0.044237401 7:0.18569534 8:0.032224551 9:0.15430336 11:0.32475954 12:0.28249416 13:0.056143459 14:0.57070023 15:0.47315884 16:0.21082032  |BV| 11:0.077151671 12:0.066815309 14:0.327894 15:0.21049015 16:0.21455595  |EV| 
0.80277098990865147776219146180665  |BT| (ROOT (S (NP (WP (what)))(VP (VBZ (be)))(REL-FOCUS-LOC-NP (REL-NN (capital)))(PP (IN (of)))(REL-NP (REL-NNP (maryland))))) |BT| (ROOT (S (REL-FOCUS-LOC-NP (REL-NNP (maryland)))(NP (NNP (joe))(NNP (platania)))(NP (NNP (wcbm)))(REL-FOCUS-LOC-NP (NNP (baltimore)))(NP (NNP (joe))(NNP (gross)))(REL-FOCUS-LOC-NP (DT (the))(REL-NNP (capital))(NNP (annapolis))))) |BT| (ROOT (S (NP (WP (what)))(VP (VBZ (be)))(REL-FOCUS-LOC-NP (REL-NN (capital)))(PP (IN (of)))(REL-NP (REL-NNP (maryland))))) |BT| (ROOT (S (NP (CD (two))(JJ (other))(NNS (group)))(PP (IN (from)))(REL-FOCUS-LOC-NP (REL-NNP (maryland)))(VP (VBD (be))(TO (to))(VB (meet)))(NP (PRP (they)))(PP (IN (on)))(NP (DT (the))(NN (nation)))(REL-NP (POS ('s))(REL-NN (capital)))(PP (IN (by)))(NP (RB (about))(CD (11))(NN (a.m.))))) |ET| 1:0.064549722 2:0.039936151 3:0.13245323 4:0.03021989 5:0.1132277 11:0.2111095 12:0.18425693 13:0.03077287 14:0.53641587 15:0.2753028 16:0.19375044  |BV| 1:0.24494897 2:0.12921914 3:0.25197631 4:0.091287091 5:0.21081851 11:0.28690228 12:0.23668233 13:0.069504797 14:0.71095699 15:0.49662203 16:0.19375044  |EV| 
0.80277098990865147776219146180665  |BT| (ROOT (S (ADVP (WRB (where)))(PP (IN (on)))(NP (DT (the))(NN (body)))(NP (PRP (you)))(VP (VB (find)))(REL-FOCUS-LOC-NP (DT (the))(NNS (jowl))))) |BT| (ROOT) |BT| (ROOT (S (ADVP (WRB (where)))(PP (IN (on)))(NP (DT (the))(NN (body)))(NP (PRP (you)))(VP (VB (find)))(REL-FOCUS-LOC-NP (DT (the))(REL-NNS (jowl))))) |BT| (ROOT (S (VP (VBD (say)))(SBAR (IN (that)))(REL-NP (REL-NNS (jowl)))(VP (VBP (be)))(NP (JJ (such))(DT (a))(JJ (well-recognized))(NN (symbol)))(NP (DT (the))(NN (man)))(PP (IN (with)))(REL-NP (DT (the))(JJS (biggest))(REL-NNS (jowl))))) |ET| 1:0.12038585 2:0.066555828 4:0.04716666 11:0.32465386 12:0.26940796 13:0.05063697 14:0.66266167 15:0.14612241 16:0.18454285  |BV| 1:0.31740552 2:0.18811335 3:0.15569979 4:0.13645765 5:0.11909827 11:0.50803983 12:0.43090641 13:0.19185884 14:0.72383499 15:0.55087459 16:0.20453908  |EV| 
-0.37750625974341911472720312303863  |BT| (ROOT (S (NP (WP (what)))(REL-FOCUS-ENTY-VP (VBZ (sport)))(NP (NN (stadium)))(VP (VBZ (have))(VBN (be))(VBN (bill)))(PP (IN (as)))(REL-NP (DT (the))(REL-JJ (eighth))(NN (wonder)))(PP (IN (of)))(REL-NP (DT (the))(REL-NN (world))))) |BT| (ROOT (S (NP (NN (yellowknife)))(VP (VBZ (be)))(REL-NP (DT (the))(REL-JJ (eighth))(NN (wonder)))(PP (IN (of)))(REL-NP (DT (the))(REL-NN (world))))) |BT| (ROOT (S (NP (WP (what)))(REL-FOCUS-ENTY-VP (REL-VBZ (sport)))(NP (NN (stadium)))(VP (VBZ (have))(VBN (be))(VBN (bill)))(PP (IN (as)))(REL-NP (DT (the))(REL-JJ (eighth))(NN (wonder)))(PP (IN (of)))(REL-NP (DT (the))(REL-NN (world))))) |BT| (ROOT (S (PP (IN (of)))(NP (DT (the))(NNP (astrodome))(NNP (&lr)))(REL-NP (DT (the))(REL-NNP (eighth))(NNP (wonder)))(PP (IN (of)))(REL-NP (DT (the))(REL-NNP (world)))(VP (VBD (become)))(NP (DT (the))(NN (planet)))(NP (POS ('s)))(ADJP (RBS (most))(JJ (famous)))(REL-NP (JJ (fabulous))(CC (and))(JJ (revolutionary))(REL-NNS (sport))(NN (venue))))) |ET| 1:0.40451992 2:0.34102461 3:0.25819889 4:0.30460384 5:0.18898223 6:0.22956495 7:0.10482848 8:0.20965697 9:0.078567423 10:0.18863882 11:0.58108586 12:0.5122332 13:0.25253814 14:0.82905805 15:0.80681336 16:0.26432264  |BV| 1:0.38579425 2:0.26186147 3:0.052057918 4:0.19113278 5:0.0372678 6:0.038103878 8:0.02608203 11:0.50502157 12:0.43528575 13:0.20483413 14:0.74272901 15:0.59268683 16:0.2486767  |EV| 
0.80277098990865147776219146180665  |BT| (ROOT (S (ADVP (WRB (when)))(VP (VBD (be)))(REL-FOCUS-NUM-NP (DT (the))(REL-NNP (u.s.))(REL-NN (invasion)))(PP (IN (of)))(REL-NP (REL-NNP (haiti))))) |BT| (ROOT (S (REL-NP (DT (the))(REL-NNP (u.s.))(NN (military)))(VP (VBD (pull)))(ADVP (IN (out)))(PP (IN (of)))(REL-NP (REL-NNP (haiti)))(NP (DT (this))(NN (month)))(VP (VBG (end)))(VP (VBD (begin)))(PP (IN (with)))(REL-FOCUS-NUM-NP (DT (the))(CD (1994))(JJ (u.s.-led))(REL-NN (invasion)))(NP (WDT (that)))(VP (VBD (restore))(VBN (elect))))(S (PP (IN (for)))(NP (NNP (cbs)))(REL-FOCUS-NUM-NP (POS ('s))(NNP (sunday))(NNP (morning))))) |BT| (ROOT (S (ADVP (WRB (when)))(VP (VBD (be)))(REL-FOCUS-NUM-NP (DT (the))(NNP (u.s.))(REL-NN (invasion)))(PP (IN (of)))(REL-NP (REL-NNP (haiti))))) |BT| (ROOT (S (NP (NNP (haiti-pullout))(NNP (port))(NN (au))(NNP (prince)))(REL-NP (REL-NNP (haiti)))(PP (IN (after)))(REL-FOCUS-NUM-NP (DT (a))(CD (3))(CD (billion)))(NP (JJ (five-year))(NN (effort)))(NP (JJ (american))(NNS (troops)))(PP (IN (out)))(PP (IN (of)))(REL-NP (REL-NNP (haiti))))(S (PP (IN (after)))(NP (NNP (america)))(REL-NP (POS ('s))(JJ (sixth))(REL-NN (invasion)))(NP (DT (this))(NN (century)))(REL-NP (REL-NNP (haiti)))(VP (MD (could))(VB (find)))(NP (PRP (itself))))) |ET| 1:0.33678767 2:0.23841582 3:0.20459829 4:0.16903085 5:0.15430336 6:0.06163336 8:0.043033149 11:0.5500499 12:0.46814084 13:0.17556173 14:0.74437231 15:0.62257797 16:0.19286305  |BV| 1:0.29933554 2:0.19086611 3:0.21229796 4:0.13801311 5:0.16169041 6:0.02369562 8:0.016543061 11:0.50771576 12:0.43472204 13:0.15182917 14:0.70150232 15:0.4622857 16:0.22584774  |EV| 
0.80277098990865147776219146180665  |BT| (ROOT (S (REL-FOCUS-ENTY-NP (WP (what))(REL-NN (court))(REL-NN (case)))(REL-VP (REL-VBD (overturn)))(REL-ADVP (REL-RB (plessy)))(NP (NNP (furgeson))))) |BT| (ROOT (S (PP (IN (on)))(NP (NNP (may))(CD (18))(CD (1896)))(REL-FOCUS-ENTY-NP (DT (the))(NNP (supreme))(REL-NNP (court)))(VP (VBD (endorse)))(NP (DT (the))(NN (concept)))(NP (JJ (racial))(NN (segregation)))(PP (IN (with)))(REL-NP (PRP$ (its))(REL-NNP (plessy))(CC (v.))(NNP (ferguson))(NN (decision)))(NP (DT (a))(NN (ruling)))(NP (WDT (that)))(REL-VP (VBD (be))(REL-VBN (overturn)))(NP (CD (58))(NNS (year)))(ADVP (RB (later)))(PP (IN (in)))(REL-NP (DT (the))(REL-NN (case)))(PP (IN (of)))(NP (NNP (brown)))(PP (CC (v.)))(REL-FOCUS-ENTY-NP (NNP (board)))(REL-FOCUS-ENTY-PP (IN (of)))(REL-FOCUS-ENTY-NP (NNP (education))))) |BT| (ROOT (S (REL-FOCUS-ENTY-NP (WP (what))(REL-NN (court))(NN (case)))(REL-VP (REL-VBD (overturn)))(REL-ADVP (REL-RB (plessy)))(NP (NNP (furgeson))))) |BT| (ROOT (S (PP (IN (in)))(NP (CD (1896)))(REL-FOCUS-ENTY-NP (DT (the))(NNP (supreme))(REL-NNP (court)))(VP (VBD (endorse)))(ADJP (JJ (''separate))(CC (but))(JJ (equal)))(NP (JJ (racial))(NN (segregation)))(PP (IN (with)))(REL-NP (PRP$ (its))(REL-NNP (plessy))(CC (vs.))(NNP (ferguson))(NN (decision)))(NP (DT (a))(NN (ruling)))(NP (WDT (that)))(REL-VP (VBD (be))(REL-VBN (overturn)))(NP (CD (58))(NNS (year)))(ADVP (RB (later))))) |ET| 1:0.15713485 2:0.09023577 3:0.1759198 4:0.065424487 5:0.12524486 11:0.31946322 12:0.27003086 13:0.05285164 14:0.53575516 15:0.29732642 16:0.337441  |BV| 1:0.063500062 2:0.033614632 3:0.05415304 4:0.02353104 5:0.03849002 11:0.32092613 12:0.26408216 13:0.025871679 14:0.58578306 15:0.30079213 16:0.33330408  |EV| 
0.80277098990865147776219146180665  |BT| (ROOT (S (ADVP (WRB (how)))(REL-NP (JJ (many))(REL-JJ (olympic))(REL-NN (gold))(REL-NNS (medal)))(VP (VBD (do)))(REL-FOCUS-NUM-NP (NNP (carl))(REL-NNP (lewis)))(REL-VP (REL-VBP (win))))) |BT| (ROOT (S (REL-NP (REL-NNP (lewis)))(NP (DT (the))(NN (owner)))(PP (IN (of)))(REL-NP (CD (nine))(REL-JJ (olympic))(REL-JJ (gold))(REL-NNS (medal)))(REL-VP (VBZ (have))(RB (twice))(REL-VBN (win)))(REL-NP (DT (the))(JJ (100-meter))(REL-NN (gold)))(PP (IN (at)))(NP (DT (the))(NNPS (olympics))))) |BT| (ROOT (S (ADVP (WRB (how)))(REL-NP (JJ (many))(REL-JJ (olympic))(REL-NN (gold))(REL-NNS (medal)))(VP (VBD (do)))(REL-FOCUS-NUM-NP (REL-NNP (carl))(REL-NNP (lewis)))(VP (VBP (win))))) |BT| (ROOT (S (NP (DT (a))(NN (class)))(PP (IN (with)))(REL-NP (REL-NNP (carl))(REL-NNP (lewis)))(REL-NP (DT (a))(REL-NNP (olympic))(REL-NN (gold))(REL-NN (medal))))) |ET| 1:0.34641016 2:0.26218942 3:0.55337155 4:0.21160369 5:0.45573273 6:0.11961783 7:0.25819889 8:0.083333328 9:0.18898223 10:0.043643579 11:0.28655094 12:0.23424608 13:0.05455447 14:0.53982735 15:0.38406724 16:0.41113341  |BV| 1:0.2236068 2:0.17920431 3:0.34815532 4:0.12524486 5:0.24806947 6:0.066629663 7:0.13333333 8:0.046225019 9:0.096225038 11:0.30394742 12:0.25623003 13:0.043519411 14:0.53791833 15:0.39635846 16:0.42242613  |EV| 
0.80277098990865147776219146180665  |BT| (ROOT (S (REL-FOCUS-LOC-NP (WP (what))(NN (city)))(REL-NP (REL-POS ('s))(JJS (biggest))(REL-NN (shopping))(REL-NN (district)))(VP (VBZ (be))(VBN (call)))(REL-NP (DT (the))(REL-NNP (ginza))(REL-NNP (district))))) |BT| (ROOT (S (NP (DT (the))(NN (heart)))(PP (IN (of)))(REL-NP (REL-NNP (ginza)))(REL-FOCUS-LOC-NP (NNP (tokyo)))(REL-NP (REL-POS ('s))(JJS (most))(JJ (exclusive))(REL-NN (shopping))(REL-NN (district))))) |BT| (ROOT (S (REL-FOCUS-LOC-NP (WP (what))(NN (city)))(REL-NP (POS ('s))(JJS (biggest))(REL-NN (shopping))(REL-NN (district)))(VP (VBZ (be))(VBN (call)))(REL-NP (DT (the))(REL-NNP (ginza))(REL-NNP (district))))) |BT| (ROOT (S (VP (VBG (wrestle)))(PP (IN (on)))(REL-NP (NN (tv))(CC (or))(REL-NN (shopping)))(PP (IN (in)))(REL-NP (DT (the))(JJ (famous))(REL-NNP (ginza))(REL-NN (district))))) |ET| 1:0.34426519 2:0.21669453 3:0.22473329 4:0.15362747 5:0.1574852 6:0.02840955 7:0.04981355 8:0.019574011 9:0.03513642 11:0.42816284 12:0.36212534 13:0.0451754 14:0.69211453 15:0.63639504 16:0.30617404  |BV| 1:0.29793978 2:0.16421793 3:0.13483997 4:0.11565904 5:0.094491117 11:0.39468235 12:0.33023718 13:0.054232609 14:0.66420197 15:0.52446634 16:0.30617404  |EV| 
0.48338745921746917311168090236606  |BT| (ROOT (S (NP (WP (what)))(VP (VBP (be)))(REL-FOCUS-ENTY-NP (REL-NNS (penny)))(REL-VP (REL-VBN (make)))(PP (IN (of))))) |BT| (ROOT (S (PP (IN (during)))(NP (NNP (world))(NNP (war))(NNP (ii)))(REL-NP (REL-NNS (penny)))(REL-VP (VBP (be))(REL-VBN (make)))(PP (IN (of)))(NP (JJ (zinc-coated))(NN (steel))))) |BT| (ROOT (S (NP (WP (what)))(VP (VBP (be)))(REL-FOCUS-ENTY-NP (REL-NNS (penny)))(REL-VP (REL-VBN (make)))(PP (IN (of))))) |BT| (ROOT (S (REL-FOCUS-ENTY-NP (REL-NNP (penny))(NNP (wallace)))(NP (DT (a))(NN (radiation))(NN (therapist))(CC (and))(NN (chairwoman)))(PP (IN (of)))(ADJP (JJ (necessary)))(NP (JJ (great))(NNS (stride)))(REL-VP (VBP (have))(VBN (be))(REL-VBN (make))))) |ET| 1:0.38490018 2:0.2548236 3:0.37796447 4:0.18077537 5:0.31622776 6:0.058025889 7:0.22941573 8:0.041666672 9:0.19245009 11:0.21758446 12:0.18002057 13:0.040824831 14:0.60784268 15:0.55286664 16:0.1767793  |BV| 1:0.27216554 2:0.15194744 3:0.12038585 4:0.10947611 5:0.10050378 11:0.20620301 12:0.1720618 14:0.56530309 15:0.43939161 16:0.1767793  |EV| 
0.80277098990865147776219146180665  |BT| (ROOT (S (NP (WP (who)))(VP (VBZ (be)))(REL-FOCUS-HUM-NP (DT (the))(REL-NN (governor)))(PP (IN (of)))(REL-NP (REL-NNP (tennessee))))) |BT| (ROOT (S (SBAR (IN (while)))(REL-FOCUS-HUM-NP (NNP (bush)))(VP (VBZ (have))(VBN (dwarf)))(NP (PRP (he)))(NP (NNS (endorsement)))(PP (IN (from)))(REL-NP (REL-NNS (governor)))(REL-FOCUS-HUM-NP (NNP (alexander)))(VP (VBD (trumpet)))(REL-NP (DT (the))(CD (two))(REL-NNS (governor)))(NP (WP (who)))(VP (VBP (be))(VBG (back)))(NP (PRP (he)))(NP (NNP (tuesday)))(REL-FOCUS-HUM-NP (NNP (don))(NNP (sundquist)))(PP (IN (of)))(REL-FOCUS-HUM-NP (REL-NNP (tennessee))(CC (and))(NNP (mike))(NNP (huckabee)))(PP (IN (of)))(NP (NNP (arkansas))))) |BT| (ROOT (S (NP (WP (who)))(VP (VBZ (be)))(REL-FOCUS-HUM-NP (DT (the))(REL-NN (governor)))(PP (IN (of)))(REL-NP (REL-NNP (tennessee))))) |BT| (ROOT (S (REL-NP (REL-NN (tennessee)))(VP (VBZ (debate)))(REL-NP (REL-NNP (governor)))(NP (POS ('s))(NNP (appeal)))(PP (IN (for))))) |ET| 1:0.48595431 2:0.33487442 3:0.30151135 4:0.24072845 5:0.25264558 6:0.073670954 8:0.051899929 11:0.37463433 12:0.31611803 13:0.11935248 14:0.75742191 15:0.53197831 16:0.22862799  |BV| 11:0.33333334 12:0.2766858 14:0.72876424 15:0.56594849 16:0.21745826  |EV| 
0.80277098990865147776219146180665  |BT| (ROOT (S (ADVP (WRB (when)))(VP (VBD (be)))(REL-FOCUS-NUM-NP (DT (the))(JJ (first))(REL-NN (patent)))(VP (VBN (file)))(PP (IN (on)))(REL-NP (DT (the))(REL-NN (ice))(REL-NN (cream))(REL-NN (cone))))) |BT| (ROOT (S (REL-NP (NNP (ice-cream))(REL-NNP (cone)))(PP (IN (at)))(REL-FOCUS-NUM-NP (DT (the))(CD (1904))(NNP (st))(NNP (louis))(NNP (world)))(NP (POS ('s))(NNP (fair)))(REL-NP (NN (food))(NNS (vender))(NNP (arnold))(NNP (fornachou))(NN ([ice))(REL-NN (cream)))(NP (NNP (ernest))(NNP (hamwi)))(ADJP (JJ (sweet))))(S (NP (JJ (other))(NNS (version)))(PP (IN (of)))(REL-NP (DT (the))(NN (ice-cream))(REL-NN (cone)))(NP (POS ('s))(NN (origin))))(S (NP (NNP (italo))(NNP (marconi)))(VP (VBD (receive)))(REL-FOCUS-NUM-NP (DT (a))(CD (1903))(REL-NN (patent)))(PP (IN (for)))(NP (NN (pastry))(NNS (cornet)))(VP (TO (to))(VB (hold)))(REL-NP (REL-NN (ice))(REL-NN (cream)))(NP (PRP (he)))(VP (VBD (sell))))) |BT| (ROOT (S (ADVP (WRB (when)))(VP (VBD (be)))(REL-FOCUS-NUM-NP (DT (the))(JJ (first))(REL-NN (patent)))(VP (VBN (file)))(PP (IN (on)))(REL-NP (DT (the))(REL-NN (ice))(REL-NN (cream))(NN (cone))))) |BT| (ROOT (S (REL-NP (REL-NN (ice))(REL-NN (cream)))(VP (VBD (take)))(NP (DT (a))(JJ (big))(NN (step)))(PP (IN (in)))(REL-FOCUS-NUM-NP (CD (1846)))(ADVP (WRB (when)))(NP (NNP (nancy))(NNP (johnson)))(VP (VBD (invent)))(REL-NP (DT (the))(NN (hand-cranked))(REL-NN (ice))(REL-NN (cream))(NN (freezer))))(S (VP (VBD (fail)))(PP (TO (to)))(REL-NP (REL-NN (patent)))(NP (PRP$ (she))(NN (invention)))(ADVP (RB (however)))(NP (DT (a))(JJ (similar))(NN (type)))(REL-VP (VBD (be))(REL-VBN (patent)))(PP (IN (in)))(REL-FOCUS-NUM-NP (CD (1848))))(S (NP (DT (this)))(PP (IN (in)))(REL-FOCUS-NUM-NP (CD (1851)))(SBAR (IN (that)))(NP (NNP (jacob))(NNP (fussell)))(VP (VBD (establish)))(REL-NP (DT (the))(JJ (first))(NN (commercial))(REL-NN (ice))(REL-NN (cream))(NN (plant))))) |ET| 1:0.28329635 2:0.17785946 3:0.22792114 4:0.12651202 5:0.16366342 6:0.019363711 7:0.044856131 8:0.01328032 9:0.032529999 11:0.50529116 12:0.44608516 13:0.19520897 14:0.61344969 15:0.45494381 16:0.42418584  |BV| 1:0.42134452 2:0.31139958 3:0.41785544 4:0.22792114 5:0.31137618 6:0.080697 7:0.14518018 8:0.05584719 9:0.10721125 11:0.74275923 12:0.67474455 13:0.4745526 14:0.7691676 15:0.66238827 16:0.37899688  |EV| 
0.80277098990865147776219146180665  |BT| (ROOT (S (REL-FOCUS-LOC-NP (WP (what))(REL-NN (country)))(VP (VBZ (be)))(REL-NP (REL-NNP (pretoria)))(PP (IN (in))))) |BT| (ROOT (S (REL-NP (REL-NNP (pretoria)))(REL-FOCUS-LOC-NP (NNP (south))(NNP (africa)))(NP (NNP (ap)))(NP (JJR (more))(IN (than))(CD (100))(NNS (evacuee)))(PP (IN (from)))(REL-FOCUS-LOC-NP (NNP (congo)))(VP (VBD (arrive)))(NP (JJ (early))(NNP (sunday))(NN (morning)))(PP (IN (in)))(REL-FOCUS-LOC-NP (REL-NNP (pretoria)))(NP (NN (part)))(PP (IN (of)))(NP (DT (the))(VBG (escalate))(NN (conflict)))(PP (IN (in)))(REL-NP (DT (the))(JJ (west))(JJ (african))(REL-NN (country))))) |BT| (ROOT (S (REL-FOCUS-LOC-NP (WP (what))(REL-NN (country)))(VP (VBZ (be)))(REL-NP (REL-NNP (pretoria)))(PP (IN (in))))) |BT| (ROOT (S (PP (IN (in)))(REL-FOCUS-LOC-NP (REL-NNP (pretoria)))(NP (NN (weekend))(NNS (talk)))(VP (VBN (organize)))(NP (DT (a))(NN (meeting)))(PP (IN (of)))(REL-NP (DT (the))(JJ (main))(REL-NNS (country)))(VP (VBN (involve)))(PP (IN (in))))(S (VP (VBD (do))(RB (not))(VB (go)))(PP (TO (to)))(REL-FOCUS-LOC-NP (REL-NNP (pretoria)))(VP (RB (neither))(VBD (do)))(REL-FOCUS-LOC-NP (NNP (zimbabwe))(NNP (president))(NNP (robert))(NNP (mugabe))))(S (NP (DT (the))(NNS (head)))(PP (IN (of)))(REL-FOCUS-LOC-NP (NNP (uganda))(CC (and))(NNP (rwanda)))(VP (VBD (arrive)))(PP (IN (in)))(REL-FOCUS-LOC-NP (REL-NNP (pretoria)))(SBAR (IN (as)))(VP (VBN (plan))))) |ET| 1:0.24618298 2:0.1356907 3:0.18490008 4:0.097157232 5:0.15294382 11:0.31842452 12:0.27036905 14:0.68407077 15:0.45258304 16:0.18732855  |BV| 1:0.35218036 2:0.20170917 3:0.3006584 4:0.14792006 5:0.25197631 11:0.32299331 12:0.28090033 13:0.019733431 14:0.65786457 15:0.50103283 16:0.19397776  |EV| 
0.80277098990865147776219146180665  |BT| (ROOT (S (NP (WP (who)))(VP (VBZ (have)))(REL-FOCUS-HUM-NP (DT (the))(RBS (most))(RB (no))(NNS (hitter)))(PP (IN (in)))(REL-NP (REL-JJ (major))(REL-NN (league))(REL-NN (baseball))))) |BT| (ROOT (S (REL-FOCUS-HUM-NP (NNP (ryan)))(VP (VBD (retire)))(PP (IN (in))))(S (NP (DT (the))(NNS (strikeout))(CC (and))(NNS (no-hitter)))(VP (VBP (be)))(REL-NP (REL-JJ (major))(REL-NN (league))(NNS (record)))(NP (CD (two)))(PP (IN (of)))(VP (VBZ (be)))(PP (IN (in)))(REL-NP (REL-NN (baseball)))(NP (POS ('s))(JJ (record))(NN (book))))) |BT| (ROOT (S (NP (WP (who)))(VP (VBZ (have)))(REL-FOCUS-HUM-NP (DT (the))(RBS (most))(RB (no))(NNS (hitter)))(PP (IN (in)))(REL-NP (REL-JJ (major))(REL-NN (league))(REL-NN (baseball))))) |BT| (ROOT (S (NP (NNP (la)))(NP (NNP (ap)))(REL-FOCUS-HUM-NP (NNP (joe))(NNP (adcock)))(NP (WP (who)))(VP (VBD (break)))(PRT (RP (up)))(REL-NP (REL-NN (baseball)))(NP (POS ('s))(JJS (longest))(NN (no-hitter)))(NP (WP (who))(NNS (share)))(REL-NP (DT (the))(REL-JJ (major))(REL-NN (league))(NN (record)))(PP (IN (of)))(NP (CD (four))(NNS (homer))))) |ET| 1:0.28991038 2:0.1850484 3:0.22537448 4:0.13116518 5:0.1693335 6:0.02722664 7:0.073521458 8:0.018781209 9:0.05607722 11:0.3365728 12:0.28114295 13:0.05163978 14:0.67272788 15:0.60556304 16:0.30323848  |BV| 1:0.3146266 2:0.19397146 3:0.24209101 4:0.1356127 5:0.17660432 6:0.02722664 7:0.073521458 8:0.018781209 9:0.05555556 11:0.35537115 12:0.29319775 13:0.092166878 14:0.68867213 15:0.5052017 16:0.30520168  |EV| 
-0.80193297595185164539088873425499  |BT| (ROOT (S (REL-FOCUS-LOC-NP (WP (what))(NN (city)))(VP (VBZ (do)))(REL-NP (DT (the))(REL-NNP (tour)))(REL-PP (REL-IN (de)))(REL-NP (REL-NNP (france)))(VP (NN (end)))(PP (IN (in))))) |BT| (ROOT (S (REL-FOCUS-LOC-NP (NN (tour-de-france))(NNP (futuroscope))(REL-NNP (france))(NNP (advance)))(PP (IN (on)))(REL-FOCUS-LOC-NP (DT (the))(REL-NNP (tour))(REL-NNP (de))(REL-NNP (france))))) |BT| (ROOT (S (REL-FOCUS-LOC-NP (WP (what))(NN (city)))(VP (VBZ (do)))(REL-NP (DT (the))(REL-NNP (tour)))(PP (IN (de)))(NP (NNP (france)))(REL-VP (REL-NN (end)))(PP (IN (in))))) |BT| (ROOT (S (REL-FOCUS-LOC-NP (NN (tour-de-france-react))(NNP (paris))(REL-JJ (tour)))(REL-VP (REL-NNS (end)))(PP (IN (for)))(NP (NNS (rider))))) |ET| 1:0.33709994 2:0.29388735 3:0.45883146 4:0.25949964 5:0.39629695 6:0.21110018 7:0.29277003 8:0.17677671 9:0.21821789 10:0.13912167 11:0.44310677 12:0.3796283 13:0.080408439 14:0.64448035 15:0.44128382 16:0.3193554  |BV| 1:0.14142136 2:0.075431429 3:0.080845207 4:0.05287011 5:0.058925569 11:0.45046112 12:0.37508863 13:0.028306929 14:0.73944265 15:0.47790614 16:0.32111478  |EV| 
-0.80277098990865147776219146180665  |BT| (ROOT (S (NP (WP (what))(NN (country)))(VP (VBZ (be)))(REL-FOCUS-LOC-ADVP (NN (home)))(PP (TO (to)))(REL-NP (REL-NNP (sabena))(REL-NNPS (airlines))))) |BT| (ROOT (S (ADJP (JJ (pre-qualified)))(VP (TO (to))(VB (purchase)))(REL-FOCUS-LOC-NP (NNP (uganda))(REL-NNPS (airlines))))(S (VP (VBP (be)))(NP (NNP (british))(NNP (airways)))(REL-NP (REL-NNP (sabena))(REL-NNPS (airlines)))(NP (NNP (kenya))(NNPS (airways)))(NP (NNP (air))(NNP (mauritius))))) |BT| (ROOT (S (NP (WP (what))(NN (country)))(VP (VBZ (be)))(REL-FOCUS-LOC-ADVP (NN (home)))(PP (TO (to)))(REL-NP (REL-NNP (sabena))(NNPS (airlines))))) |BT| (ROOT (S (REL-NP (DT (a))(REL-NNP (sabena))(NN (spokesman)))(VP (VBD (say)))(NP (DT (the))(NN (airline))))) |ET| 1:0.36380345 2:0.23939495 3:0.27153769 4:0.17186002 5:0.20333143 6:0.041344911 7:0.089442722 8:0.029012941 9:0.068041377 11:0.32302913 12:0.2723524 13:0.13344014 14:0.56121188 15:0.3751891 16:0.27903873  |BV| 1:0.13130642 2:0.07231015 3:0.09166985 4:0.05143445 5:0.068041377 11:0.22936586 12:0.18976803 14:0.49687207 15:0.44740084 16:0.2774722  |EV| 
0.80277098990865147776219146180665  |BT| (ROOT (S (NP (WP (what)))(VP (VBZ (be)))(REL-FOCUS-ENTY-NP (DT (the))(NN (name)))(PP (IN (of)))(REL-NP (DT (the))(REL-NN (canopy)))(PP (IN (at)))(REL-NP (DT (a))(REL-JJ (jewish))(NN (wedding))))) |BT| (ROOT (S (NP (PRP$ (my))(NN (sister)))(VP (VBD (be))(VBG (plan)))(REL-NP (DT (a))(JJ (full))(REL-JJ (jewish))(NN (ceremony)))(ADJP (JJ (complete)))(PP (IN (with)))(REL-NP (DT (the))(JJ (traditional))(NN (huppah))(REL-NN (canopy)))(NP (DT (the))(NN (ketubah))(NN (contract)))(NP (DT (the))(NN (breaking))))) |BT| (ROOT (S (NP (WP (what)))(VP (VBZ (be)))(REL-FOCUS-ENTY-NP (DT (the))(NN (name)))(PP (IN (of)))(NP (DT (the))(NN (canopy)))(PP (IN (at)))(REL-NP (DT (a))(REL-JJ (jewish))(REL-NN (wedding))))) |BT| (ROOT (S (NP (NNS (administrator)))(PP (IN (at)))(REL-FOCUS-ENTY-NP (DT (the))(REL-NNP (jewish))(NNP (community))(NNP (center)))(PP (IN (in)))(NP (NNP (san))(NNP (francisco)))(PP (IN (of)))(NP (NN (ketubot)))(REL-NP (REL-JJ (jewish))(REL-NN (wedding))(NNS (contract)))(VP (VBD (notice)))(NP (JJ (mixed))(NNS (image)))(ADVP (RB (now)))(VP (JJ (defunct)))(REL-NP (REL-NN (wedding)))(PP (IN (of)))(NP (NNP (&ur)))(REL-FOCUS-ENTY-NP (NNP (roseanne))(NNP (barr))(NNP (&lr)))(PP (TO (to)))(NP (NNP (&ur)))(REL-FOCUS-ENTY-NP (NNP (tom))(NNP (&lr)))(NP (NNP (&ur)))(REL-FOCUS-ENTY-NP (NNP (arnold))(NNP (&lr))))) |ET| 1:0.51328945 2:0.32161209 3:0.16609097 4:0.23190841 5:0.12598816 6:0.025197631 8:0.017329169 11:0.64116085 12:0.5807749 13:0.36912471 14:0.83312321 15:0.61937433 16:0.22531275  |BV| 1:0.37796447 2:0.25780135 3:0.20655911 4:0.19281411 5:0.16169041 6:0.039675981 7:0.07647191 8:0.027681829 9:0.063372433 11:0.36678383 12:0.33459494 13:0.23816526 14:0.67886031 15:0.45297948 16:0.20363167  |EV| 
-0.57509696006026966852431314691785  |BT| (ROOT (S (ADVP (WRB (how))(RB (far)))(VP (VBZ (be)))(REL-FOCUS-NUM-NP (DT (the))(REL-NN (moon)))(PP (IN (from)))(REL-NP (REL-NNP (earth)))(PP (IN (in)))(REL-NP (REL-NNS (mile))))) |BT| (ROOT (S (ADVP (RB (likely)))(VP (MD (will))(VB (pass)))(REL-NP (RB (no))(JJR (closer))(IN (than))(CD (10))(CD (million))(REL-NNS (mile)))(PP (TO (to)))(REL-NP (REL-NNP (earth)))(NP (IN (about))(CD (40))(NNS (time)))(NP (DT (the))(NN (distance)))(PP (IN (between)))(REL-NP (DT (the))(REL-NNP (earth)))(REL-NP (DT (the))(REL-NN (moon))))) |BT| (ROOT (S (ADVP (WRB (how))(RB (far)))(VP (VBZ (be)))(REL-FOCUS-NUM-NP (DT (the))(REL-NN (moon)))(PP (IN (from)))(REL-NP (REL-NNP (earth)))(PP (IN (in)))(REL-NP (REL-NNS (mile))))) |BT| (ROOT (S (PP (IN (around)))(NP (CD (3))(RB (a.m.)))(REL-NP (DT (the))(REL-NN (moon)))(VP (VBZ (reach)))(NP (NN (perigee)))(VP (VBG (come)))(PP (IN (within)))(REL-NP (CD (221,662))(REL-NNS (mile)))(PP (IN (of)))(REL-NP (REL-NNP (earth))))(S (PP (IN (at)))(NP (CD (9:31))(RB (a.m.)))(REL-NP (DT (the))(REL-NN (moon)))(VP (VBZ (be)))(PP (IN (at))))) |ET| 1:0.39528471 2:0.24627551 3:0.30237159 4:0.17580321 5:0.2309401 6:0.0269484 8:0.0186339 11:0.44443041 12:0.3698521 13:0.10350983 14:0.7582767 15:0.59565568 16:0.27460507  |BV| 1:0.33756998 2:0.23841582 3:0.32128772 4:0.16984156 5:0.25197631 6:0.062107012 8:0.043768808 11:0.39421099 12:0.32120803 13:0.05865464 14:0.77774125 15:0.67906529 16:0.3132498  |EV| 
0.5499245246897337402458560973173  |BT| (ROOT (S (ADVP (WRB (how))(RB (far)))(VP (VBZ (be)))(REL-FOCUS-NUM-NP (DT (the))(REL-NN (moon)))(PP (IN (from)))(REL-NP (REL-NNP (earth)))(PP (IN (in)))(REL-NP (REL-NNS (mile))))) |BT| (ROOT (S (PP (IN (for)))(NP (DT (the))(NN (record)))(REL-NP (DT (the))(REL-NN (moon)))(VP (MD (will))(VB (be)))(REL-NP (CD (221,662))(REL-NNS (mile)))(ADVP (RB (away)))(PP (IN (from)))(REL-NP (REL-NNP (earth)))(ADVP (WRB (when)))(NP (PRP (it))))(S (REL-FOCUS-NUM-NP (NNP (wednesday))))) |BT| (ROOT (S (ADVP (WRB (how))(RB (far)))(VP (VBZ (be)))(REL-FOCUS-NUM-NP (DT (the))(REL-NN (moon)))(PP (IN (from)))(REL-NP (REL-NNP (earth)))(PP (IN (in)))(NP (NNS (mile))))) |BT| (ROOT (S (NP (NNP (shepard)))(VP (VBD (be))(RB (only))(VBG (try))(TO (to))(VB (demonstrate)))(REL-NP (DT (the))(REL-NN (moon)))(NP (POS ('s))(NN (gravity)))(NP (WDT (which)))(UCP (IN (that)))(PP (IN (of)))(REL-NP (REL-NNP (earth))))) |ET| 1:0.45184806 2:0.3077935 3:0.3077935 4:0.21483447 5:0.23570226 6:0.075755402 8:0.052704629 11:0.45272434 12:0.36886266 13:0.10369517 14:0.80810195 15:0.70406449 16:0.28659937  |BV| 1:0.42163703 2:0.28903666 3:0.2309401 4:0.20399669 5:0.17817415 6:0.066629663 8:0.046225019 11:0.40908691 12:0.33114955 13:0.091287091 14:0.70876306 15:0.48644918 16:0.28505516  |EV| 
-0.80277098990865147776219146180665  |BT| (ROOT (S (ADVP (WRB (where)))(PP (IN (on)))(NP (DT (the))(NN (body)))(NP (PRP (you)))(VP (VB (find)))(REL-FOCUS-LOC-NP (DT (the))(REL-NNS (jowl))))) |BT| (ROOT (S (PP (IN (of)))(NP (NNP (barnaby)))(REL-NP (POS ('s))(REL-NNS (jowl)))(VP (VBD (pollute)))(NP (DT (the))(NN (air))(NN (space))))) |BT| (ROOT (S (ADVP (WRB (where)))(PP (IN (on)))(NP (DT (the))(NN (body)))(NP (PRP (you)))(VP (VB (find)))(REL-FOCUS-LOC-NP (DT (the))(REL-NNS (jowl))))) |BT| (ROOT (S (REL-NP (PRP$ (you))(REL-NNS (jowl)))(VP (VBP (be))(RB (not))(VBG (sag))))) |ET| 1:0.26352313 2:0.14987266 3:0.10846523 4:0.10721125 5:0.083333328 11:0.41202095 12:0.34050262 13:0.11556254 14:0.73566121 15:0.54988241 16:0.19505706  |BV| 1:0.20412415 2:0.12156613 3:0.1490712 4:0.089205161 5:0.11785113 11:0.10611162 12:0.087537616 14:0.38799652 15:0.22743785 16:0.21328473  |EV| 
0.35428982446145507179124933827552  |BT| (ROOT (S (ADVP (WRB (where)))(PP (IN (on)))(NP (DT (the))(NN (body)))(NP (PRP (you)))(VP (VB (find)))(REL-FOCUS-LOC-NP (DT (the))(REL-NNS (jowl))))) |BT| (ROOT (S (NP (NN (cheek)))(PP (TO (to)))(REL-NP (REL-NN (jowl)))(PP (IN (with)))(NP (NNP (mr.))(NNP (right))))) |BT| (ROOT (S (ADVP (WRB (where)))(PP (IN (on)))(NP (DT (the))(NN (body)))(NP (PRP (you)))(VP (VB (find)))(REL-FOCUS-LOC-NP (DT (the))(NNS (jowl))))) |BT| (ROOT) |ET| 1:0.1490712 2:0.081044093 3:0.2 4:0.05730683 5:0.16666667 11:0.23176178 12:0.1875 14:0.61991084 15:0.37174705 16:0.21328473  |BV| 11:0.023973171 12:0.02051525 14:0.34493709 15:0.14612241 16:0.21328473  |EV| 
-0.80277098990865147776219146180665  |BT| (ROOT (S (NP (WP (what)))(REL-NP (NNP (e))(REL-NNP (pluribus))(REL-NNP (unum))(VB (mean))))) |BT| (ROOT (S (NP (DT (that)))(NP (DT (the))(NN (phrase)))(REL-NP (NNP (e))(REL-NNP (pluribus))(REL-NNP (unum)))(VP (VBP (appear)))(PP (IN (on))))) |BT| (ROOT (S (NP (WP (what)))(REL-NP (NNP (e))(REL-NNP (pluribus))(REL-NNP (unum))(VB (mean))))) |BT| (ROOT (S (REL-NP (NNP (e))(REL-NN (pluribus))(REL-NN (unum))))) |ET| 1:0.12543631 2:0.12297974 3:0.33333334 4:0.10697244 5:0.28097573 6:0.093250483 7:0.20851441 8:0.064820372 9:0.17407766 10:0.033883709 11:0.43641034 12:0.39237559 13:0.21673036 14:0.56513357 15:0.58856374 16:0.37393424  |BV| 1:0.08703883 2:0.050062619 4:0.036417849 11:0.15386435 12:0.12824729 14:0.48053837 15:0.43816248 16:0.51526713  |EV| 
0.80277098990865147776219146180665  |BT| (ROOT (S (ADVP (WRB (where)))(PP (IN (on)))(NP (DT (the))(NN (body)))(NP (PRP (you)))(VP (VB (find)))(REL-FOCUS-LOC-NP (DT (the))(REL-NNS (jowl))))) |BT| (ROOT (S (REL-NP (PRP$ (you))(REL-NNS (jowl)))(VP (VBP (be))(RB (not))(VBG (sag))))) |BT| (ROOT (S (ADVP (WRB (where)))(PP (IN (on)))(NP (DT (the))(NN (body)))(NP (PRP (you)))(VP (VB (find)))(REL-FOCUS-LOC-NP (DT (the))(REL-NNS (jowl))))) |BT| (ROOT (S (VP (VBD (say)))(SBAR (IN (that)))(REL-NP (REL-NNS (jowl)))(VP (VBP (be)))(NP (JJ (such))(DT (a))(JJ (well-recognized))(NN (symbol)))(NP (DT (the))(NN (man)))(PP (IN (with)))(REL-NP (DT (the))(JJS (biggest))(REL-NNS (jowl))))) |ET| 1:0.20412415 2:0.12156613 3:0.1490712 4:0.089205161 5:0.11785113 11:0.10611162 12:0.087537616 14:0.38799652 15:0.22743785 16:0.21328473  |BV| 1:0.31740552 2:0.18811335 3:0.15569979 4:0.13645765 5:0.11909827 11:0.50803983 12:0.43090641 13:0.19185884 14:0.72383499 15:0.55087459 16:0.20453908  |EV| 
0.80277098990865147776219146180665  |BT| (ROOT (S (REL-FOCUS-ENTY-NP (WP (what))(REL-NN (liverpool))(REL-NN (club)))(VP (VBD (spawn)))(NP (DT (the))(NNP (beatles))))) |BT| (ROOT (S (REL-NP (NNP (mccartney-liverpool))(REL-NN (liverpool)))(NP (NNP (england)))(REL-FOCUS-ENTY-NP (NNP (paul))(NNP (mccartney))(NNS (return)))(PP (TO (to)))(REL-NP (REL-NNP (liverpool)))(REL-NP (POS ('s))(NNP (cavern))(REL-NNP (club))))(S (PP (IN (by)))(REL-FOCUS-ENTY-NP (NNP (allan))(NNP (kozinn))))) |BT| (ROOT (S (REL-FOCUS-ENTY-NP (WP (what))(REL-NN (liverpool))(NN (club)))(VP (VBD (spawn)))(REL-NP (DT (the))(REL-NNP (beatles))))) |BT| (ROOT (S (REL-FOCUS-ENTY-NP (DT (the))(REL-NNP (beatles)))(NP (NN (feature))(NN (film)))(VP (JJ (''let)))(VP (VBN (premiere)))(PP (IN (in)))(REL-NP (NNP (london))(CC (and))(REL-NNP (liverpool))(CD (one))(NN (week)))(SBAR (IN (after)))(NP (PRP (it))))) |ET| 1:0.080582298 2:0.043314811 3:0.078811042 4:0.03068582 5:0.058025889 11:0.28246635 12:0.24358869 13:0.064549722 14:0.49053022 15:0.32913232 16:0.2668713  |BV| 1:0.1973855 2:0.14694367 3:0.082478613 4:0.10540926 5:0.06085806 6:0.04397995 8:0.031083491 11:0.40144828 12:0.33503917 13:0.12257028 14:0.64141536 15:0.40793109 16:0.27057213  |EV| 
0.80277098990865147776219146180665  |BT| (ROOT (S (REL-FOCUS-LOC-NP (WP (what))(NN (body)))(PP (IN (of)))(REL-NP (REL-NN (water)))(VP (VBZ (do)))(REL-NP (DT (the))(REL-NNP (colorado))(REL-NNP (river))(JJ (empty)))(PP (IN (into))))) |BT| (ROOT (S (VP (VBP (have))(VBN (plead)))(PP (IN (with)))(REL-NP (JJ (federal))(CC (and))(NN (state))(REL-NN (water))(NNS (manager)))(VP (TO (to))(VB (set)))(REL-NP (RP (aside))(REL-NN (water)))(VP (TO (to))(VB (help))(VB (preserve))(CC (and))(VB (restore)))(REL-NP (REL-NN (river))(NNS (system))))(S (VP (VBZ (flow)))(PP (IN (in)))(REL-FOCUS-LOC-NP (DT (the))(REL-NNP (colorado))(REL-NNP (river)))(PP (IN (for)))(NP (NN (example)))(NP (JJ (entire))(NNS (ecosystem)))(PP (IN (because)))(REL-NP (RB (so))(JJ (little))(REL-NN (water)))(PP (IN (from)))(REL-NP (DT (the))(REL-NNP (colorado)))(ADVP (RB (actually)))(VP (VBZ (reach)))(REL-FOCUS-LOC-NP (DT (the))(NNP (gulf)))(PP (IN (of)))(REL-FOCUS-LOC-NP (NNP (california))))) |BT| (ROOT (S (REL-FOCUS-LOC-NP (WP (what))(NN (body)))(PP (IN (of)))(NP (NN (water)))(VP (VBZ (do)))(REL-NP (DT (the))(REL-NNP (colorado))(REL-NNP (river))(JJ (empty)))(PP (IN (into))))) |BT| (ROOT (S (REL-FOCUS-LOC-NP (NNP (--a))(REL-NNP (colorado))(REL-NNP (river))(NN (water-use))(NN (fight)))(PP (IN (between)))(NP (NNS (consumer)))(PP (IN (in)))(REL-FOCUS-LOC-NP (NNP (arizona))(CC (and))(NNP (southern))(NNP (california)))(PP (IN (on)))(NP (CD (one))(NN (side))))) |ET| 1:0.34815532 2:0.25172818 3:0.34717044 4:0.19266866 5:0.2534897 6:0.091310874 7:0.10798985 8:0.063064501 9:0.078567423 10:0.02462576 11:0.5217492 12:0.44008622 13:0.13483997 14:0.75984001 15:0.67798835 16:0.26789522  |BV| 1:0.17407766 2:0.12469594 3:0.20851441 4:0.087287158 5:0.15075567 6:0.034985568 7:0.082478613 8:0.02424643 9:0.06085806 11:0.54307884 12:0.45866433 13:0.1126229 14:0.76493227 15:0.51180571 16:0.26040974  |EV| 
0.80277098990865147776219146180665  |BT| (ROOT (S (NP (WP (who)))(VP (VBD (be)))(REL-FOCUS-HUM-NP (DT (the))(JJ (first))(NN (person)))(REL-VP (TO (to))(REL-VB (reach)))(REL-NP (DT (the))(REL-JJ (south))(REL-NN (pole))))) |BT| (ROOT (S (NP (PDT (all))(DT (the))(NN (way)))(PP (TO (to)))(REL-NP (DT (the))(REL-NNP (south))(REL-NNP (pole)))(REL-VP (RB (first))(REL-VBN (reach)))(PP (IN (in)))(NP (CD (1911))))(S (REL-NP (DT (the))(REL-NNP (south))(REL-NNP (pole)))(VP (VBZ (be)))(NP (JJ (stable))(NN (ice))))) |BT| (ROOT (S (NP (WP (who)))(VP (VBD (be)))(REL-FOCUS-HUM-NP (DT (the))(JJ (first))(NN (person)))(REL-VP (TO (to))(REL-VB (reach)))(REL-NP (DT (the))(REL-JJ (south))(REL-NN (pole))))) |BT| (ROOT (S (PP (IN (by)))(REL-VP (REL-VBG (reach)))(REL-FOCUS-HUM-NP (DT (the))(REL-NNP (south))(REL-NNP (pole))(NNP (hillary)))(NP (PRP$ (he))(NN (father)))(VP (VBD (become)))(NP (DT (the))(JJ (first))(NN (father))(CC (and))(NN (son)))(REL-VP (TO (to))(REL-VB (reach)))(NP (DT (the))(NN (bottom)))(PP (IN (of))))(S (REL-FOCUS-HUM-NP (NNP (sir))(NNP (edmund))(NNP (hillary)))(VP (VBD (be)))(ADVP (RB (also))))) |ET| 1:0.40967324 2:0.23749575 3:0.05763904 4:0.1714986 5:0.043033149 11:0.35613161 12:0.30413812 13:0.089562222 14:0.66267025 15:0.52015597 16:0.27396485  |BV| 1:0.49724516 2:0.3794691 3:0.12104551 4:0.2936101 5:0.090721838 6:0.13245323 8:0.091746978 10:0.028783681 11:0.53081167 12:0.47356802 13:0.32366943 14:0.71752965 15:0.53829288 16:0.26377472  |EV| 
0.24370498710265436903554814307427  |BT| (ROOT (S (NP (WP (what)))(VP (VBZ (be)))(REL-FOCUS-LOC-NP (REL-NN (capital)))(PP (IN (of)))(REL-NP (REL-NNP (maryland))))) |BT| (ROOT (S (NP (NNS (reason)))(VP (TO (to))(VB (visit)))(REL-FOCUS-LOC-NP (REL-NNP (maryland)))(REL-NP (POS ('s))(REL-NN (capital))))) |BT| (ROOT (S (NP (WP (what)))(VP (VBZ (be)))(REL-FOCUS-LOC-NP (NN (capital)))(PP (IN (of)))(REL-NP (REL-NNP (maryland))))) |BT| (ROOT (S (REL-NP (REL-NNP (maryland))(NNP (his))(REL-NNP (maryland))))) |ET| 1:0.17407766 2:0.094176322 3:0.24077171 4:0.067229263 5:0.20100756 11:0.27975145 12:0.22874786 13:0.039283711 14:0.71111429 15:0.48481554 16:0.17442538  |BV| 11:0.20701967 12:0.18898223 14:0.48487002 15:0.44658029 16:0.17088373  |EV| 
0.80277098990865147776219146180665  |BT| (ROOT (S (REL-FOCUS-ENTY-NP (DT (the))(REL-NN (duomo))))) |BT| (ROOT (S (PP (IN (beneath)))(NP (NNP (florence)))(REL-NP (POS ('s))(REL-NNP (duomo))(NN (cathedral))))) |BT| (ROOT (S (REL-FOCUS-ENTY-NP (DT (the))(REL-NN (duomo))))) |BT| (ROOT (S (NP (NN (&ur)))(REL-FOCUS-ENTY-NP (NNP (mastro))(NNP (paolo)))(NP (NNP (&lr)))(REL-NP (CD (36))(NNP (piazza))(REL-NNP (duomo)))(NP (NNP (orvieto))(CD (05018)))(NP (JJ (39-0763))(CD (342-892))))) |ET| 1:0.094491117 2:0.051917411 4:0.03798686 11:0.31927544 12:0.27524093 13:0.096225038 14:0.5501827 15:0.21372329 16:0.18442374  |BV| 11:0.14470719 12:0.12909944 14:0.41270545 15:0.15383188 16:0.160932  |EV| 
-0.80277098990865147776219146180665  |BT| (ROOT (S (NP (WP (who)))(VP (VBD (defeat)))(REL-FOCUS-HUM-NP (DT (the))(REL-JJ (spanish))(REL-NN (armada))))) |BT| (ROOT (S (NP (NNP (u.s.))(JJ (naval))(NNS (force)))(VP (VBD (destroy)))(REL-NP (DT (a))(REL-JJ (spanish))(REL-NN (armada)))(PP (IN (in)))(NP (NNP (manila))(NNP (bay))))) |BT| (ROOT (S (NP (WP (who)))(VP (VBD (defeat)))(REL-FOCUS-HUM-NP (DT (the))(REL-JJ (spanish))(REL-NN (armada))))) |BT| (ROOT (S (NP (NNP (england)))(PP (IN (by)))(REL-NP (REL-NNP (spanish))(REL-NNP (armada))))) |ET| 1:0.30772874 2:0.2117354 3:0.24913643 4:0.1541505 5:0.18898223 6:0.044151079 7:0.11111111 8:0.031497039 9:0.09245003 11:0.47544348 12:0.43758944 13:0.31622776 14:0.63688624 15:0.3939811 16:0.26408809  |BV| 11:0.15321285 12:0.12858611 13:0.041666672 14:0.45807987 15:0.24986893 16:0.27062458  |EV| 
0.80277098990865147776219146180665  |BT| (ROOT (S (NP (WP (who)))(VP (VBD (defeat)))(REL-FOCUS-HUM-NP (DT (the))(REL-JJ (spanish))(REL-NN (armada))))) |BT| (ROOT (S (NP (NNP (england)))(PP (IN (by)))(REL-NP (REL-NNP (spanish))(REL-NNP (armada))))) |BT| (ROOT (S (NP (WP (who)))(VP (VBD (defeat)))(REL-FOCUS-HUM-NP (DT (the))(REL-JJ (spanish))(REL-NN (armada))))) |BT| (ROOT (S (NP (DT (a))(NN (month)))(ADVP (RB (earlier)))(REL-NP (DT (the))(REL-JJ (spanish))(REL-NN (armada)))(VP (VBD (have))(VBN (be))(VBN (destroy)))(PP (IN (in)))(NP (NNP (u.s.))(JJ (naval))(NNS (force)))(PP (IN (under)))(REL-FOCUS-HUM-NP (NNP (commodore))(NNP (george))(NNP (dewey)))(NP (WP (who)))(VP (VBD (be))(VBN (send))))) |ET| 11:0.15321285 12:0.12858611 13:0.041666672 14:0.45807987 15:0.24986893 16:0.27062458  |BV| 1:0.37204579 2:0.27272728 3:0.20459829 4:0.22140372 5:0.15811388 6:0.11396058 7:0.0949158 8:0.081468821 9:0.079305157 10:0.044237401 11:0.42289004 12:0.3611111 13:0.19448666 14:0.61696988 15:0.46074361 16:0.26975089  |EV| 
-0.80277098990865147776219146180665  |BT| (ROOT (S (REL-NP (WDT (which))(REL-NN (city)))(VP (VBZ (be)))(REL-FOCUS-LOC-ADVP (REL-NN (home)))(PP (TO (to)))(REL-NP (REL-NNP (superman))))) |BT| (ROOT (S (ADJP (RB (too))(JJ (strong)))(PP (IN (for)))(REL-NP (REL-NNP (superman)))(PP (IN (for)))(NP (DT (a))(JJ (resourceful))(NNP (new))(NNP (yorker))))(S (PP (IN (of)))(VP (VBG (try))(TO (to))(VB (return)))(REL-NP (REL-NN (home)))(PP (IN (on)))(NP (PRP$ (my))(NN (bike))))(S (REL-NP (DT (this))(DT (a))(JJ (great))(REL-NN (city)))(NP (WP (what))))) |BT| (ROOT (S (NP (WDT (which))(NN (city)))(VP (VBZ (be)))(REL-FOCUS-LOC-ADVP (NN (home)))(PP (TO (to)))(REL-NP (REL-NNP (superman))))) |BT| (ROOT (S (VP (VBP (live)))(PP (IN (near)))(REL-FOCUS-LOC-NP (NNP (metropolis)))(NP (PRP (i)))(VP (MD (must))(VB (know)))(REL-NP (REL-NNP (superman)))(NP (PRP (he)))(VP (VBD (say))))(S (NP (NN (fun)))(VP (TO (to))(RB (actually))(VB (be)))(REL-NP (REL-NNP (superman))))) |ET| 1:0.36681262 2:0.21021383 3:0.22677869 4:0.15269598 5:0.17320508 11:0.32348719 12:0.27443022 13:0.01992048 14:0.58649939 15:0.43960044 16:0.22358957  |BV| 1:0.32566947 2:0.19129682 3:0.19518001 4:0.14096183 5:0.15161961 11:0.21144502 12:0.1780989 13:0.047140449 14:0.54084605 15:0.52245492 16:0.19734573  |EV| 
-0.80277098990865147776219146180665  |BT| (ROOT (S (NP (WP (who)))(VP (VBD (be)))(REL-FOCUS-HUM-NP (DT (the))(JJ (first))(NN (person)))(REL-VP (TO (to))(REL-VB (reach)))(REL-NP (DT (the))(REL-JJ (south))(REL-NN (pole))))) |BT| (ROOT (S (VP (VBD (be))(VBN (use)))(PP (IN (by)))(REL-FOCUS-HUM-NP (NNP (english))(NN (explorer))(NNP (robert))(NNP (f.))(NNP (scott)))(NP (WP (who)))(VP (VBD (die)))(VP (TO (to))(VB (be)))(NP (DT (the))(JJ (first))(NN (man)))(REL-VP (TO (to))(REL-VB (reach)))(REL-NP (DT (the))(REL-NNP (south))(REL-NNP (pole))))) |BT| (ROOT (S (NP (WP (who)))(VP (VBD (be)))(REL-FOCUS-HUM-NP (DT (the))(JJ (first))(NN (person)))(REL-VP (TO (to))(REL-VB (reach)))(REL-NP (DT (the))(REL-JJ (south))(REL-NN (pole))))) |BT| (ROOT (S (VP (VBZ (become)))(NP (JJ (first))(NN (man)))(REL-VP (TO (to))(REL-VB (reach)))(REL-NP (REL-NNP (south))(REL-NNP (pole))))) |ET| 1:0.4571636 2:0.34595099 3:0.065795168 4:0.27695584 5:0.048112519 6:0.15486772 8:0.1067521 10:0.055279002 11:0.64823669 12:0.61442357 13:0.55221021 14:0.72697484 15:0.61700982 16:0.27270275  |BV| 1:0.2223748 2:0.16051447 3:0.09166985 4:0.1132277 5:0.068041377 6:0.045883149 8:0.03207501 11:0.38168311 12:0.33806169 13:0.24771684 14:0.61054033 15:0.49657559 16:0.30083537  |EV| 
0.80277098990865147776219146180665  |BT| (ROOT (S (REL-FOCUS-LOC-NP (WP (what))(NN (city)))(VP (VBZ (be)))(REL-NP (DT (the))(REL-NN (gateway))(REL-NN (arch)))(VP (VBN (locate)))(PP (IN (in))))) |BT| (ROOT (S (VP (VBD (be))(VBG (fit)))(SBAR (IN (that)))(REL-FOCUS-LOC-NP (NNP (miami)))(NP (POS ('s))(JJ (improbable))(NNP (ncaa))(NN (tournament))(NN (run)))(VP (VBD (die)))(PP (IN (under)))(REL-NP (DT (the))(REL-NNP (gateway))(REL-NNP (arch))))) |BT| (ROOT (S (REL-FOCUS-LOC-NP (WP (what))(REL-NN (city)))(VP (VBZ (be)))(REL-NP (DT (the))(REL-NN (gateway))(REL-NN (arch)))(VP (VBN (locate)))(PP (IN (in))))) |BT| (ROOT (S (NP (DT (the))(VBG (tower))(NN (statue)))(PP (IN (of)))(REL-FOCUS-LOC-NP (NNP (saddam)))(PP (IN (atop)))(REL-NP (DT (a))(JJ (three-story))(JJ (high))(JJ (white))(NN (stone))(REL-NN (arch)))(REL-NP (DT (the))(REL-NN (gateway)))(PP (TO (to)))(REL-NP (DT (the))(REL-NN (city))))) |ET| 1:0.15294382 2:0.079745218 4:0.05555556 11:0.1932503 12:0.16463819 13:0.028903671 14:0.47510591 15:0.41515961 16:0.2603935  |BV| 1:0.31210974 2:0.20180184 3:0.1770844 4:0.14523688 5:0.13018891 6:0.027681829 8:0.01921301 11:0.50203073 12:0.43263862 13:0.10383483 14:0.69906288 15:0.54167426 16:0.24653886  |EV| 
-0.80277098990865147776219146180665  |BT| (ROOT (S (NP (WP (what)))(VP (VBZ (be)))(REL-FOCUS-ENTY-NP (DT (the))(REL-NN (currency)))(VP (VBN (use)))(PP (IN (in)))(REL-NP (REL-NNP (china))))) |BT| (ROOT (S (REL-NP (REL-NNP (china))(NNP (tightens))(NN (control)))(PP (IN (of)))(REL-NP (REL-NN (currency))))) |BT| (ROOT (S (NP (WP (what)))(VP (VBZ (be)))(REL-FOCUS-ENTY-NP (DT (the))(REL-NN (currency)))(VP (VBN (use)))(PP (IN (in)))(REL-NP (REL-NNP (china))))) |BT| (ROOT (S (NP (PRP (he)))(VP (VBD (say)))(REL-NP (REL-NN (currency))(NNS (devaluation)))(PP (IN (in)))(NP (JJ (southeast))(JJ (asian))(NNS (country)))(VP (VBD (have))(VBN (weaken)))(REL-NP (REL-NNP (china)))(NP (POS ('s))(NN (export))(NN (competitiveness)))(VP (VBD (stress)))(REL-NP (REL-NNP (china)))(VP (MD (would))(RB (not))(VB (devalue)))(REL-NP (PRP$ (its))(REL-NN (currency)))(NP (DT (the))(NN (yuan))))) |ET| 1:0.15811388 2:0.086066298 3:0.21821789 4:0.062994078 5:0.19245009 11:0.27277237 12:0.23112509 14:0.61779189 15:0.44693628 16:0.17343429  |BV| 1:0.36927447 2:0.20168778 3:0.40201512 4:0.14285713 5:0.34050262 11:0.24525574 12:0.20033418 13:0.02686077 14:0.71295303 15:0.54851627 16:0.17414717  |EV| 
-0.12153670550005368777846115335706  |BT| (ROOT (S (NP (WP (what)))(VP (VBZ (be)))(REL-FOCUS-ENTY-NP (DT (the))(JJ (scientific))(NN (name)))(PP (IN (for)))(REL-NP (REL-JJ (red))(REL-NNS (ant))))) |BT| (ROOT (S (REL-NP (REL-NNP (red))(REL-NNP (ant))))) |BT| (ROOT (S (NP (WP (what)))(VP (VBZ (be)))(REL-FOCUS-ENTY-NP (DT (the))(JJ (scientific))(NN (name)))(PP (IN (for)))(REL-NP (REL-JJ (red))(REL-NNS (ant))))) |BT| (ROOT (S (VP (VBP (have))(VBN (be))(VBN (sting)))(PP (IN (by)))(REL-NP (DT (any))(REL-JJ (ant))(NNS (chance)))(VP (VBP (be)))(NP (PRP (it)))(VP (VBD (be)))(NP (DT (a))(NNP (solenopsis))(NN (invicta)))(REL-NP (DT (the))(REL-JJ (red))(VBN (import))(NN (fire))(REL-NN (ant)))(VP (VBZ (say)))(NP (NNP (bart))(NNP (drees)))(NP (NN (coordinator)))(PP (IN (of)))(REL-FOCUS-ENTY-NP (DT (the))(NNP (texas))(NNP (imported))(NNP (fire))(REL-NNP (ant))(NNP (research))(CC (and))(NNP (management))(NNP (project)))(PP (IN (at)))(REL-FOCUS-ENTY-NP (NNP (texas))(NNP (a&amp;m))(NNP (university))))) |ET| 11:0.16574839 12:0.13975425 13:0.048795 14:0.43858236 15:0.26233608 16:0.25498095  |BV| 1:0.32102895 2:0.18093251 3:0.19569843 4:0.12991396 5:0.1496264 11:0.21002924 12:0.1801585 13:0.045722999 14:0.52957416 15:0.41540998 16:0.22839105  |EV| 
-0.80277098990865147776219146180665  |BT| (ROOT (S (NP (WP (what)))(VP (VBZ (do)))(REL-FOCUS-NUM-NP (DT (the))(REL-NN (bugler))(NN (play)))(PP (IN (at)))(REL-NP (DT (the))(REL-NN (end)))(PP (IN (of)))(NP (DT (the))(NN (day)))(PP (IN (on)))(REL-NP (DT (a))(NNP (us))(REL-JJ (military))(NN (base))))) |BT| (ROOT (S (REL-NP (DT (the))(REL-NN (bugler)))(REL-VP (REL-VBD (end)))(NP (CD (two))(NNS (minute)))(PP (IN (of)))(NP (NN (silence)))(PP (IN (with)))(REL-NP (DT (the))(REL-JJ (military))(NN (score)))(REL-FOCUS-NUM-NP (JJ (last))(NNP (post))))) |BT| (ROOT (S (NP (WP (what)))(VP (VBZ (do)))(REL-FOCUS-NUM-NP (DT (the))(REL-NN (bugler))(REL-NN (play)))(PP (IN (at)))(NP (DT (the))(NN (end)))(PP (IN (of)))(NP (DT (the))(NN (day)))(PP (IN (on)))(REL-NP (DT (a))(NNP (us))(REL-JJ (military))(NN (base))))) |BT| (ROOT (S (NP (JJ (such))(JJ (large))(NNS (number)))(SBAR (IN (that)))(REL-NP (REL-JJ (military))(NNS (basis)))(VP (VBP (be))(VBG (have)))(NP (DT (a))(JJ (difficult))(NN (time)))(VP (VBD (serve)))(PP (IN (in)))(REL-NP (DT (the))(REL-JJ (military))))(S (ADJP (JJ (unable)))(VP (TO (to))(VB (send)))(REL-NP (DT (a))(REL-NN (bugler)))(REL-VP (TO (to))(REL-VB (play)))(PP (IN (at)))(NP (DT (every))(NN (funeral))))) |ET| 1:0.39125401 2:0.24606888 3:0.14870448 4:0.17613198 5:0.10540926 6:0.021621941 8:0.01476025 11:0.47713146 12:0.40924597 13:0.22325271 14:0.69313884 15:0.73301613 16:0.25547287  |BV| 1:0.5118081 2:0.33143637 3:0.18993428 4:0.24393056 5:0.13684514 6:0.016194461 7:0.04578685 8:0.01101966 9:0.032686021 11:0.56555063 12:0.49885058 13:0.23920478 14:0.76481795 15:0.59497738 16:0.27008772  |EV| 
0.80277098990865147776219146180665  |BT| (ROOT (S (NP (WP (who)))(VP (VBD (be)))(NP (CD (one)))(PP (IN (of)))(REL-FOCUS-HUM-NP (DT (the))(REL-JJ (egyptian))(REL-NNS (god))))) |BT| (ROOT (S (VP (VBZ (be))(VBD (say)))(VP (VBD (be)))(REL-FOCUS-HUM-NP (DT (the))(REL-JJ (egyptian))(REL-NN (god))(NNP (osiris))(NN (brother))(CC (and))(NN (husband)))(PP (IN (of)))(NP (NNP (isis))))) |BT| (ROOT (S (NP (WP (who)))(VP (VBD (be)))(NP (CD (one)))(PP (IN (of)))(REL-FOCUS-HUM-NP (DT (the))(REL-JJ (egyptian))(REL-NNS (god))))) |BT| (ROOT (S (REL-FOCUS-HUM-NP (NNP (ahmed))(NNP (younes)))(NP (NN (head)))(PP (IN (of)))(REL-NP (DT (the))(REL-JJ (egyptian))(NNP (organization)))(PP (IN (for)))(NP (NNP (rights)))(ADJP (JJR (closer)))(PP (TO (to)))(REL-NP (REL-NNP (god))))) |ET| 1:0.44474959 2:0.30019152 3:0.31108552 4:0.23500697 5:0.26111647 6:0.081984349 7:0.19245009 8:0.058321182 9:0.16012815 10:0.03126527 11:0.33089486 12:0.27653316 13:0.12923138 14:0.69895035 15:0.58258784 16:0.19055273  |BV| 1:0.45927933 2:0.34426519 3:0.12598816 4:0.26926023 5:0.10540926 6:0.13977131 8:0.098294638 10:0.039253429 11:0.33694965 12:0.2832644 13:0.1721326 14:0.68275255 15:0.44627318 16:0.18859284  |EV| 
0.80277098990865147776219146180665  |BT| (ROOT (S (NP (WP (what)))(VP (VBZ (be)))(REL-NP (REL-NNP (horatio)))(REL-FOCUS-DESC-NP (REL-POS ('s))(NN (relationship)))(PP (TO (to)))(REL-NP (REL-NNP (hamlet))))) |BT| (ROOT (S (NP (DT (the))(JJ (last))(NNS (line)))(PP (TO (to)))(REL-NP (REL-NNP (hamlet)))(REL-NP (REL-POS ('s))(NN (friend))(REL-NNP (horatio)))(ADVP (RB (rather)))(PP (IN (than))))) |BT| (ROOT (S (NP (WP (what)))(VP (VBZ (be)))(REL-NP (REL-NNP (horatio)))(REL-FOCUS-DESC-NP (POS ('s))(NN (relationship)))(PP (TO (to)))(REL-NP (REL-NNP (hamlet))))) |BT| (ROOT (S (REL-NP (REL-NNP (hamlet)))(VP (VBZ (be)))(ADVP (RB (always))))(S (PP (IN (on)))(NP (NN (stage)))(REL-NP (REL-NN (hamlet)))(VP (VBZ (fall)))(PP (IN (at)))(NP (DT (the))(NN (center)))(PP (IN (with)))(REL-NP (REL-NNP (horatio)))(PP (IN (at)))(NP (PRP$ (he))(NN (side))))) |ET| 1:0.22430886 2:0.15223655 3:0.16198477 4:0.11454053 5:0.11785113 6:0.0238705 8:0.01687899 11:0.33323869 12:0.28641751 13:0.077540353 14:0.64958084 15:0.62277597 16:0.22259527  |BV| 1:0.20140237 2:0.11943584 3:0.10012523 4:0.087899201 5:0.073176168 11:0.23223923 12:0.19914833 13:0.01367683 14:0.63274252 15:0.56048846 16:0.25271317  |EV| 
-0.45176080008509622576440278862719  |BT| (ROOT (S (REL-FOCUS-NUM-NP (WP (what))(REL-NN (day)))(VP (VBD (do)))(REL-NP (REL-NNP (neil))(REL-NNP (armstrong))(NN (land)))(PP (IN (on)))(REL-NP (DT (the))(REL-NN (moon))))) |BT| (ROOT (S (NP (PRP (i)))(VP (VBD (interview)))(REL-NP (REL-NNP (neil))(REL-NNP (armstrong)))(NP (DT (some))(CD (10))(NNS (year)))(PP (IN (after)))(REL-NP (PRP$ (he))(REL-NNP (moon))(NN (walk))))(S (NP (DT (no))(JJR (more))(VBN (unite)))(PP (IN (after)))(REL-NP (DT (the))(REL-NNP (moon))(NN (landing)))(PP (IN (than)))(NP (RB (before))))(S (NP (PRP (i)))(VP (VBD (have))(VBN (hope)))(REL-NP (DT (the))(REL-NN (moon))(NN (shot)))(VP (MD (would))(VB (take)))(NP (PRP$ (we))(NNS (mind))))(S (PRT (RP (up)))(PP (IN (with)))(REL-FOCUS-NUM-NP (NN (today)))(NP (POS ('s))(NNS (problem))))(S (ADVP (RB (however)))(REL-NP (NNP (lance))(REL-NNP (armstrong)))(NP (POS ('s))(NN (message)))(ADVP (RB (exactly)))(NP (CD (30))(NNS (year)))(REL-NP (CD (5))(REL-NNS (day)))(PP (IN (after)))(REL-NP (REL-NNP (neil))(REL-NNP (armstrong)))(NP (POS ('s)))(VP (VBZ (be))))(S (REL-NP (NNP (lance))(REL-NNP (armstrong)))(NP (POS ('s))(NN (message)))(VP (VBZ (be))))) |BT| (ROOT (S (REL-FOCUS-NUM-NP (WP (what))(NN (day)))(VP (VBD (do)))(REL-NP (REL-NNP (neil))(REL-NNP (armstrong))(REL-NN (land)))(PP (IN (on)))(REL-NP (DT (the))(REL-NN (moon))))) |BT| (ROOT (S (REL-FOCUS-NUM-NP (NNP (july))(CD (20)))(REL-FOCUS-NUM-NP (CD (1969)))(REL-NP (NNP (apollo))(CD (11))(NNS (astronaut))(REL-NNP (neil))(REL-NNP (armstrong))(CC (and))(NNP (buzz))(NNP (aldrin))(REL-NN (land)))(PP (IN (on)))(REL-NP (DT (the))(REL-NN (moon))))) |ET| 1:0.2079501 2:0.15723409 3:0.3045001 4:0.11688115 5:0.24806947 6:0.04371766 7:0.14480972 8:0.03042903 9:0.1067521 11:0.52915025 12:0.46023944 13:0.15565573 14:0.4769364 15:0.55922961 16:0.38723788  |BV| 1:0.44721359 2:0.38778338 3:0.41702884 4:0.32338083 5:0.30151135 6:0.25332019 7:0.16495723 8:0.20623948 9:0.12171612 10:0.13912167 11:0.58963478 12:0.5590654 13:0.45291081 14:0.6910091 15:0.56809777 16:0.41438791  |EV| 
0.20272978743706904225518883322366  |BT| (ROOT (S (NP (WP (what)))(VP (VBZ (be)))(REL-FOCUS-ENTY-NP (DT (the))(NN (name)))(PP (IN (of)))(NP (NNP (ling))(NNP (ling)))(REL-NP (POS ('s))(REL-NN (mate))))) |BT| (ROOT (S (NP (DT (the))(JJ (severe))(NN (difficulty)))(PP (IN (of)))(REL-VP (REL-VBG (mate)))(NP (NNS (panda)))(PP (IN (in))))) |BT| (ROOT (S (NP (WP (what)))(VP (VBZ (be)))(REL-FOCUS-ENTY-NP (DT (the))(NN (name)))(PP (IN (of)))(REL-NP (REL-NNP (ling))(REL-NNP (ling)))(NP (POS ('s))(NN (mate))))) |BT| (ROOT (S (NP (DT (the))(JJ (chinese))(NNS (people)))(ADVP (RB (forever)))(REL-NP (REL-NNP (ling)))(VP (VBD (say))))) |ET| 1:0.2773501 2:0.15538619 3:0.064150028 4:0.11031947 5:0.048280451 11:0.32308769 12:0.26995277 13:0.12186667 14:0.64893061 15:0.44349399 16:0.26838368  |BV| 1:0.45291081 2:0.33277917 3:0.18490008 4:0.26593021 5:0.14213382 6:0.12666009 8:0.088388354 10:0.046373889 11:0.38919488 12:0.33629635 13:0.17320508 14:0.707335 15:0.44523498 16:0.22695963  |EV| 
0.22540609806450856433812646173465  |BT| (ROOT (S (REL-FOCUS-LOC-NP (WP (what))(NN (continent)))(VP (VBZ (be)))(REL-NP (REL-NNP (india)))(PP (IN (on))))) |BT| (ROOT (S (NP (WDT (which)))(VP (VBZ (form)))(REL-FOCUS-LOC-NP (DT (the))(NNP (earth)))(NP (POS ('s))(JJS (largest))(NN (region)))(PP (IN (of)))(NP (DT (a))(NN (collision)))(PP (IN (between)))(REL-FOCUS-LOC-NP (REL-NNP (india))(CC (and))(NNP (asia)))(VP (VBZ (be))(VBN (consider)))(NP (DT (the))(JJ (archetypal))(JJ (continent-to-continent))(NN (collision))))) |BT| (ROOT (S (REL-FOCUS-LOC-NP (WP (what))(NN (continent)))(VP (VBZ (be)))(REL-NP (REL-NNP (india)))(PP (IN (on))))) |BT| (ROOT (S (REL-FOCUS-LOC-NP (NNP (new))(NNP (delhi)))(REL-FOCUS-LOC-NP (NNP (march))(CD (29))(NNP (xinhua)))(REL-FOCUS-LOC-NP (REL-NNP (india)))(VP (VBZ (have))(VBN (accept)))(NP (DT (the))(NNP (thai))(NN (proposal))))) |ET| 1:0.14433756 2:0.085091397 3:0.084215187 4:0.062622428 5:0.070014 11:0.30550504 12:0.2630761 14:0.64276749 15:0.4088645 16:0.18351452  |BV| 1:0.067115612 2:0.036835469 3:0.0949158 4:0.026352311 5:0.079305157 11:0.30289608 12:0.25973123 14:0.57801569 15:0.29488412 16:0.17829515  |EV| 
-0.80277098990865147776219146180665  |BT| (ROOT (S (REL-FOCUS-LOC-NP (WP (what))(NN (river)))(VP (VBZ (be)))(PP (IN (under)))(REL-NP (NNP (new))(REL-NNP (york)))(REL-NP (POS ('s))(REL-NNP (george))(REL-NNP (washington))(REL-NN (bridge))))) |BT| (ROOT (S (REL-FOCUS-LOC-NP (NNP (new))(REL-NN (york)))(PP (IN (in)))(REL-FOCUS-LOC-NP (NNP (new))(REL-NNP (york)))(REL-NP (REL-NNP (george))(REL-NNP (washington)))(VP (VBZ (be)))(ADJP (JJR (more))))(S (NP (NNS (avenue)))(NP (DT (a))(NN (park)))(REL-NP (CD (two))(REL-NNS (bridge)))(NP (DT (a))(JJ (magnificent))(NN (marble))(JJ (triumphal))(NN (arch)))(NP (DT (all))))(S (REL-FOCUS-LOC-NP (NNP (new))(REL-NNP (york)))(VP (VBZ (love)))(REL-NP (REL-NNP (george))(REL-NNP (washington))))) |BT| (ROOT (S (REL-FOCUS-LOC-NP (WP (what))(REL-NN (river)))(VP (VBZ (be)))(PP (IN (under)))(NP (NNP (new))(NNP (york)))(REL-NP (POS ('s))(REL-NNP (george))(REL-NNP (washington))(REL-NN (bridge))))) |BT| (ROOT (S (NP (JJ (tall))(NNS (ship))(NN (sail)))(PP (IN (up)))(REL-FOCUS-LOC-NP (DT (the))(NNP (hudson))(REL-NNP (river)))(PP (TO (to)))(REL-NP (REL-NNP (george))(REL-NNP (washington))(REL-NNP (bridge)))(ADVP (RB (then)))(VP (VB (return)))(NP (NN (berth)))(PP (IN (in)))(REL-FOCUS-LOC-NP (DT (the))(NNP (east))(REL-NNP (river)))(REL-FOCUS-LOC-NP (NNP (north))(REL-NNP (river))))) |ET| 1:0.28867513 2:0.23203585 3:0.3532809 4:0.17016912 5:0.25506908 6:0.081429422 7:0.093352012 8:0.0564445 9:0.067115612 11:0.51121402 12:0.45024621 13:0.16376789 14:0.69984108 15:0.63473111 16:0.3150062  |BV| 1:0.0879599 2:0.074604712 3:0.14126448 4:0.053199518 5:0.10259784 6:0.029867381 7:0.058025889 8:0.02063282 9:0.041666672 11:0.57606959 12:0.5017094 13:0.17846705 14:0.75675535 15:0.51539099 16:0.32567722  |EV| 
0.80277098990865147776219146180665  |BT| (ROOT (S (REL-NP (WP (what))(REL-NN (color)))(VP (VBZ (be)))(REL-FOCUS-ENTY-NP (DT (the))(JJ (top))(REL-NN (stripe)))(PP (IN (on)))(REL-NP (DT (the))(NNP (u.s.))(REL-NN (flag))))) |BT| (ROOT (S (VP (VBP (be)))(ADJP (JJ (red)))(REL-NP (JJ (green))(JJ (black))(CC (and))(JJ (white))(REL-NNS (stripe)))(VP (TO (to))(VB (demonstrate)))(REL-NP (DT (the))(REL-NNS (color)))(PP (IN (of)))(REL-NP (DT (the))(JJ (palestinian))(JJ (national))(REL-NN (flag))))) |BT| (ROOT (S (REL-NP (WP (what))(REL-NN (color)))(VP (VBZ (be)))(REL-FOCUS-ENTY-NP (DT (the))(JJ (top))(REL-NN (stripe)))(PP (IN (on)))(NP (DT (the))(NNP (u.s.))(NN (flag))))) |BT| (ROOT (S (NP (DT (a))(NN (candle)))(PP (IN (of)))(REL-NP (DT (all))(CD (one))(REL-NN (color)))(REL-NP (NN (layer))(REL-NNS (color)))(VP (TO (to))(VB (make)))(REL-NP (REL-NNS (stripe)))(VP (VB (run)))(NP (DT (a))(NN (knife)))(NP (PRP (it)))(VP (TO (to))(VB (marbleize)))(REL-NP (DT (the))(REL-NNS (color)))(VP (VB (tilt)))(NP (DT (the))(NN (jar))(CC (or))(JJ (mug)))(NP (NN (layer)))(PP (IN (in)))(REL-NP (REL-NNS (color)))(VP (TO (to))(VB (make)))(REL-NP (VBN (slant))(REL-NNS (stripe))))) |ET| 1:0.51753318 2:0.33570173 3:0.15617377 4:0.24696958 5:0.11371471 6:0.025181649 8:0.017352641 11:0.50164205 12:0.42571011 13:0.12874788 14:0.74902833 15:0.4991906 16:0.26310238  |BV| 1:0.30261377 2:0.18080492 3:0.24806947 4:0.13287351 5:0.18786728 11:0.36261258 12:0.3074933 13:0.075601541 14:0.64684594 15:0.47192553 16:0.27592385  |EV| 
-0.26853697313043345396010863623815  |BT| (ROOT (S (ADVP (WRB (how)))(REL-FOCUS-NUM-NP (JJ (many))(REL-NN (home))(REL-NNS (run)))(VP (VBD (do)))(REL-NP (REL-NNP (babe))(REL-NNP (ruth)))(REL-VP (REL-VBD (hit))))) |BT| (ROOT (S (NP (JJ (worth))(VBG (note)))(REL-NP (REL-NNP (babe))(REL-NNP (ruth)))(REL-VP (REL-VBD (hit)))(REL-NP (DT (a))(REL-NN (home))(REL-NN (run)))(PP (IN (in)))(NP (DT (the))(JJ (first))(NNP (all-star))(NNP (game))))) |BT| (ROOT (S (ADVP (WRB (how)))(REL-FOCUS-NUM-NP (JJ (many))(REL-NN (home))(REL-NNS (run)))(VP (VBD (do)))(REL-NP (REL-NNP (babe))(REL-NNP (ruth)))(REL-VP (REL-VBD (hit))))) |BT| (ROOT (S (PP (IN (in)))(REL-FOCUS-NUM-NP (CD (1935)))(REL-NP (REL-NNP (babe))(REL-NNP (ruth)))(REL-VP (REL-VBD (hit)))(REL-NP (DT (the))(JJ (714th))(CC (and))(JJ (final))(REL-NN (home))(REL-NN (run)))(PP (IN (of)))(NP (PRP$ (he))(NN (career))))) |ET| 1:0.43033147 2:0.36030188 3:0.64676166 4:0.28347334 5:0.53033006 6:0.1987616 7:0.39036003 8:0.13977131 9:0.29095718 10:0.05547002 11:0.4560146 12:0.37878981 13:0.13631964 14:0.67305887 15:0.47622848 16:0.44929653  |BV| 1:0.25416428 2:0.23026948 3:0.51320022 4:0.18557687 5:0.41602516 6:0.13926212 7:0.30237159 8:0.096985728 9:0.22222222 10:0.038096972 11:0.37017575 12:0.31361446 13:0.12657551 14:0.51438856 15:0.49479511 16:0.40557307  |EV| 
-0.80277098990865147776219146180665  |BT| (ROOT (S (NP (WP (what)))(REL-NP (REL-NNP (charles))(NNP (babbage)))(REL-FOCUS-ENTY-VP (REL-VB (invent))))) |BT| (ROOT (S (NP (DT (the))(JJ (first))(NN (telegraph)))(NP (NN (sounder)))(REL-VP (REL-VBN (invent)))(PP (IN (by)))(REL-FOCUS-ENTY-NP (NNP (samuel))(NNP (morse)))(PP (IN (in)))(NP (CD (1860)))(VP (VBD (manufacture)))(PP (IN (by)))(REL-FOCUS-ENTY-NP (REL-NNP (charles))(NNP (l.))(NNP (williams))))) |BT| (ROOT (S (NP (WP (what)))(REL-NP (NNP (charles))(REL-NNP (babbage)))(REL-FOCUS-ENTY-VP (VB (invent))))) |BT| (ROOT (S (REL-NP (REL-NNP (babbage)))(NP (POS ('s)))(VP (VBN (base)))(NP (CD (495))(NNS (store)))(PP (IN (under)))(REL-NP (DT (the))(REL-NNP (babbage)))(NP (POS ('s)))(NP (NNP (software))(NNP (etc.))))) |ET| 1:0.16012815 2:0.0879599 3:0.19518001 4:0.06308803 5:0.1490712 11:0.35170206 12:0.29880714 13:0.10206207 14:0.60168755 15:0.28323111 16:0.20753278  |BV| 1:0.097590007 2:0.056727599 3:0.12285902 4:0.041748289 5:0.0949158 11:0.25619733 12:0.22094698 13:0.02475369 14:0.58363998 15:0.47082704 16:0.21303029  |EV| 
0.80277098990865147776219146180665  |BT| (ROOT (S (NP (WP (what)))(REL-NP (NNP (charles))(REL-NNP (babbage)))(REL-FOCUS-ENTY-VP (VB (invent))))) |BT| (ROOT (S (REL-NP (REL-NNP (babbage)))(NP (POS ('s)))(VP (VBN (base)))(NP (CD (495))(NNS (store)))(PP (IN (under)))(REL-NP (DT (the))(REL-NNP (babbage)))(NP (POS ('s)))(NP (NNP (software))(NNP (etc.))))) |BT| (ROOT (S (NP (WP (what)))(REL-NP (NNP (charles))(REL-NNP (babbage)))(REL-FOCUS-ENTY-VP (VB (invent))))) |BT| (ROOT (S (PP (IN (of)))(NP (NNP (boole))(NNP (&amp)))(REL-FOCUS-ENTY-NP (REL-NNP (babbage))(NN (update1))))) |ET| 1:0.097590007 2:0.056727599 3:0.12285902 4:0.041748289 5:0.0949158 11:0.25619733 12:0.22094698 13:0.02475369 14:0.58363998 15:0.47082704 16:0.21303029  |BV| 11:0.4498677 12:0.39207575 13:0.13867505 14:0.68500561 15:0.35325155 16:0.20618898  |EV| 
0.80277098990865147776219146180665  |BT| (ROOT (S (NP (WP (what)))(VP (VBZ (be)))(REL-FOCUS-ENTY-NP (DT (the))(NN (name)))(PP (IN (of)))(REL-NP (DT (the))(CD (five))(JJ (pointed))(REL-NN (star)))(VP (RB (commonly))(VBN (use)))(PP (IN (by)))(REL-NP (REL-NNS (satanist))))) |BT| (ROOT (S (NP (NNP (mississippi))(NNS (official)))(VP (VBP (appear))(TO (to))(VB (have))(VBN (confuse)))(REL-NP (DT (the))(JJ (six-pointed))(REL-NNP (star)))(PP (IN (of)))(REL-FOCUS-ENTY-NP (NNP (david)))(PP (IN (with)))(NP (DT (the))(JJ (five-pointed))(NN (pentagram)))(VP (RB (often))(VBN (favor)))(PP (IN (by)))(REL-NP (JJ (violent))(NNS (gang))(CC (and))(REL-NNS (satanist))))) |BT| (ROOT (S (NP (WP (what)))(VP (VBZ (be)))(REL-FOCUS-ENTY-NP (DT (the))(NN (name)))(PP (IN (of)))(REL-NP (DT (the))(CD (five))(JJ (pointed))(REL-NN (star)))(REL-VP (REL-RB (commonly))(VBN (use)))(PP (IN (by)))(NP (NNS (satanist))))) |BT| (ROOT (S (VP (VBN (call)))(REL-FOCUS-ENTY-NP (DT (the))(NNP (stars))(CC (and))(NNP (bars)))(NP (DT (the))(NN (flag))(NNS (display)))(NP (CD (three))(NNS (bar)))(REL-NP (CD (seven))(REL-NNS (star)))(VP (VBG (predate)))(REL-NP (DT (the))(RBR (more))(REL-RB (commonly))(VBN (know))(NNP (confederate))(NN (flag)))(PP (IN (with)))(REL-NP (JJ (diagonal))(NNS (bar))(CC (and))(REL-NNS (star)))(PP (IN (in)))(NP (DT (the))(NN (margin))))) |ET| 1:0.34999999 2:0.18960515 3:0.078811042 4:0.13257195 5:0.058025889 11:0.46681243 12:0.40595597 13:0.22397731 14:0.72187191 15:0.64789873 16:0.34263802  |BV| 1:0.3642464 2:0.21652032 3:0.18641093 4:0.15814656 5:0.14142136 11:0.42043748 12:0.34668761 13:0.086412638 14:0.71049607 15:0.58105052 16:0.21332391  |EV| 
0.80277098990865147776219146180665  |BT| (ROOT (S (NP (WP (what)))(REL-NP (NNP (charles))(REL-NNP (babbage)))(REL-FOCUS-ENTY-VP (VB (invent))))) |BT| (ROOT (S (REL-NP (REL-NNP (babbage)))(NP (POS ('s)))(VP (VBN (base)))(NP (CD (495))(NNS (store)))(PP (IN (under)))(REL-NP (DT (the))(REL-NNP (babbage)))(NP (POS ('s)))(NP (NNP (software))(NNP (etc.))))) |BT| (ROOT (S (NP (WP (what)))(REL-NP (NNP (charles))(REL-NNP (babbage)))(REL-FOCUS-ENTY-VP (VB (invent))))) |BT| (ROOT (S (NP (DT (the))(JJ (current))(NN (version)))(PP (IN (of)))(REL-FOCUS-ENTY-NP (REL-NNP (babbage)))(NP (POS ('s)))(VP (VBD (get))))(S (REL-FOCUS-ENTY-NP (CD (two))(JJ (former))(NNP (harvard))(NNP (business))(NNP (school))(NNS (classmate)))(VP (VBD (establish)))(REL-FOCUS-ENTY-NP (REL-NNP (babbage)))(NP (POS ('s)))(PP (IN (in)))(NP (NNP (riggio))(CC (and))(NNP (dutch))(NN (retailer))(NNP (vendex)))(VP (VBD (found)))(REL-FOCUS-ENTY-NP (NNP (software))(NNP (etc.)))(PP (IN (in)))(NP (CD (1987))))) |ET| 1:0.097590007 2:0.056727599 3:0.12285902 4:0.041748289 5:0.0949158 11:0.25619733 12:0.22094698 13:0.02475369 14:0.58363998 15:0.47082704 16:0.21303029  |BV| 1:0.1062988 2:0.060003001 3:0.12060454 4:0.043643579 5:0.093048424 11:0.42702803 12:0.37158406 13:0.14586499 14:0.58914047 15:0.30500579 16:0.20994078  |EV| 
0.80277098990865147776219146180665  |BT| (ROOT (S (ADVP (WRB (where)))(PP (IN (on)))(NP (DT (the))(NN (body)))(NP (PRP (you)))(VP (VB (find)))(REL-FOCUS-LOC-NP (DT (the))(NNS (jowl))))) |BT| (ROOT) |BT| (ROOT (S (ADVP (WRB (where)))(PP (IN (on)))(REL-NP (DT (the))(REL-NN (body)))(NP (PRP (you)))(REL-VP (REL-VB (find)))(REL-FOCUS-LOC-NP (DT (the))(NNS (jowl))))) |BT| (ROOT (S (VP (VBD (dig)))(PRT (RP (up)))(REL-NP (REL-NNS (body)))(REL-NP (VBN (incinerate))(REL-NNS (body)))(VP (VBN (transport)))(REL-NP (REL-NNS (body)))(SBAR (IN (so)))(NP (PRP (we)))(REL-VP (MD (could))(RB (not))(REL-VB (find)))(NP (PRP (they)))(NP (PRP (he))))) |ET| 1:0.12038585 2:0.066555828 4:0.04716666 11:0.32465386 12:0.26940796 13:0.05063697 14:0.66266167 15:0.14612241 16:0.18454285  |BV| 1:0.18033393 2:0.10663823 3:0.39036003 4:0.078296028 5:0.31426969 11:0.21678714 12:0.1780989 14:0.55887526 15:0.35219833 16:0.192003  |EV| 
-0.80277098990865147776219146180665  |BT| (ROOT (S (NP (WP (what)))(VP (VBZ (be)))(REL-FOCUS-ENTY-NP (DT (the))(JJ (national))(REL-NN (airline)))(PP (IN (of)))(REL-NP (REL-NNP (spain))))) |BT| (ROOT (S (REL-NP (DT (the))(REL-NN (airline)))(VP (VBZ (be)))(ADJP (JJ (likely)))(NP (DT (a))(NN (flight)))(PP (TO (to)))(REL-NP (REL-NNP (spain)))(PP (IN (in)))(NP (NNP (may))))) |BT| (ROOT (S (NP (WP (what)))(VP (VBZ (be)))(REL-FOCUS-ENTY-NP (DT (the))(JJ (national))(NN (airline)))(PP (IN (of)))(REL-NP (REL-NNP (spain))))) |BT| (ROOT (S (PP (IN (besides)))(REL-FOCUS-ENTY-NP (NNP (american))(NNPS (airlines)))(REL-FOCUS-ENTY-NP (NNP (british))(NNPS (airways)))(NP (DT (oneworld))(NNS (partner)))(VP (VBP (include)))(PP (IN (of)))(NP (NNP (hong))(NNP (kong)))(REL-FOCUS-ENTY-NP (NNP (iberia)))(PP (IN (of)))(REL-FOCUS-ENTY-NP (REL-NNP (spain)))(NP (NNP (finnair)))(NP (NNP (lanchile))))) |ET| 1:0.30772874 2:0.17099638 3:0.20519567 4:0.12198751 5:0.15713485 11:0.36369649 12:0.30261377 13:0.04941662 14:0.73476666 15:0.62815249 16:0.17396335  |BV| 1:0.18107149 2:0.13533299 3:0.071611486 4:0.099602379 5:0.05455447 6:0.036107909 8:0.025269929 11:0.27994168 12:0.24082018 13:0.094660312 14:0.62004375 15:0.40586457 16:0.17546603  |EV| 
-0.16351156512267772669133591989521  |BT| (ROOT (S (NP (WP (who)))(VP (VBD (be)))(NP (CD (one)))(PP (IN (of)))(REL-FOCUS-HUM-NP (DT (the))(REL-JJ (egyptian))(REL-NNS (god))))) |BT| (ROOT (S (NP (DT (the))(NN (afterlife)))(VP (VBP (be)))(REL-ADJP (REL-JJ (egyptian)))(NP (EX (there)))(VP (VBP (be))(VBN (repeat)))(NP (NNS (reference)))(PP (TO (to)))(REL-NP (REL-JJ (egyptian))(REL-NNS (god))))) |BT| (ROOT (S (NP (WP (who)))(VP (VBD (be)))(NP (CD (one)))(PP (IN (of)))(REL-FOCUS-HUM-NP (DT (the))(REL-JJ (egyptian))(REL-NNS (god))))) |BT| (ROOT (S (NP (NNP (osiris)))(REL-NP (DT (the))(REL-NN (god)))(PP (IN (of)))(NP (DT (the))(NN (underworld)))(VP (VBD (be))(VBN (worship)))(PP (IN (by)))(REL-NP (JJ (ancient))(REL-NNS (egyptian))))) |ET| 1:0.50207901 2:0.34806171 3:0.40201512 4:0.25373402 5:0.33686078 6:0.068802088 7:0.18569534 8:0.048112519 9:0.15430336 11:0.32087398 12:0.26688027 13:0.11135885 14:0.72346306 15:0.5321157 16:0.20091666  |BV| 1:0.31622776 2:0.2205644 3:0.24077171 4:0.166581 5:0.20100756 6:0.036107909 8:0.02541643 11:0.20458131 12:0.1709352 13:0.080845207 14:0.67709243 15:0.58658499 16:0.18859284  |EV| 
-0.80277098990865147776219146180665  |BT| (ROOT (S (NP (WP (what)))(VP (VBZ (be)))(REL-FOCUS-ENTY-NP (DT (the))(JJ (national))(REL-NN (airline)))(PP (IN (of)))(REL-NP (REL-NNP (spain))))) |BT| (ROOT (S (REL-NP (DT (the))(REL-NN (airline)))(VP (VBZ (be)))(ADJP (JJ (likely)))(NP (DT (a))(NN (flight)))(PP (TO (to)))(REL-NP (REL-NNP (spain)))(PP (IN (in)))(NP (NNP (may))))) |BT| (ROOT (S (NP (WP (what)))(VP (VBZ (be)))(REL-FOCUS-ENTY-NP (DT (the))(JJ (national))(REL-NN (airline)))(PP (IN (of)))(REL-NP (REL-NNP (spain))))) |BT| (ROOT (S (NP (DT (a))(NN (pilot)))(PP (IN (for)))(REL-NP (REL-NNP (spain)))(REL-FOCUS-ENTY-NP (POS ('s))(NNP (iberia))(REL-NNS (airline)))(VP (VBD (claim)))(NP (PDT (such))(DT (a))(NN (arrangement))))) |ET| 1:0.30772874 2:0.17099638 3:0.20519567 4:0.12198751 5:0.15713485 11:0.36369649 12:0.30261377 13:0.04941662 14:0.73476666 15:0.62815249 16:0.17396335  |BV| 1:0.22116293 2:0.12097168 3:0.19518001 4:0.085960239 5:0.1490712 11:0.42004129 12:0.3438732 13:0.12950478 14:0.72225976 15:0.43034944 16:0.18334056  |EV| 
0.80277098990865147776219146180665  |BT| (ROOT (S (REL-FOCUS-ENTY-NP (WP (what))(REL-NN (liverpool))(REL-NN (club)))(VP (VBD (spawn)))(REL-NP (DT (the))(REL-NNP (beatles))))) |BT| (ROOT (S (NP (DT (a))(JJ (permanent))(NN (exhibit)))(VP (VBN (call)))(REL-FOCUS-ENTY-NP (DT (the))(REL-NNP (beatles))(NNP (story)))(PP (IN (in)))(REL-FOCUS-ENTY-NP (DT (the))(VBN (refurbish))(NNP (albert))(NNP (dock))(NN (complex)))(REL-FOCUS-ENTY-NP (DT (a))(JJ (two-hour))(NNP (magical))(NNP (mystery))(NNP (tour)))(NP (IN (that)))(VP (VBZ (take)))(NP (NNS (place)))(PP (IN (like)))(REL-FOCUS-ENTY-NP (NNP (penny))(NNP (lane)))(REL-FOCUS-ENTY-NP (NNP (strawberry))(NNP (fields)))(REL-NP (DT (the))(NNP (cavern))(REL-NNP (club)))(NP (DT (the))(JJ (small))(JJ (underground))(NN (room)))(PP (IN (with)))(NP (JJ (low))(NN (brick))(NNS (arch)))(ADVP (WRB (where)))(REL-FOCUS-ENTY-NP (DT (the))(JJ (early))(REL-NNP (beatles)))(VP (VBD (make)))(NP (PRP$ (they))(NN (debut)))(PP (IN (in)))(REL-NP (REL-NN (liverpool)))(PP (IN (in)))(NP (CD (1961))))) |BT| (ROOT (S (REL-FOCUS-ENTY-NP (WP (what))(REL-NN (liverpool))(NN (club)))(VP (VBD (spawn)))(REL-NP (DT (the))(REL-NNP (beatles))))) |BT| (ROOT (S (NP (NNS (people)))(PP (IN (in)))(REL-NP (REL-NN (liverpool)))(NP (DT (a))(VBD (fade))(JJ (port))(NN (city)))(PP (IN (of)))(NP (DT (the))(JJ (potential))(NN (impact)))(PP (IN (of)))(REL-FOCUS-ENTY-NP (DT (the))(REL-NNP (beatles)))(PP (IN (on)))(NP (DT (the))(JJ (local))(NN (economy))))(S (NP (WP (who)))(VP (VBP (visit)))(REL-NP (REL-NNP (liverpool)))(NP (DT (each))(NN (year)))(NP (IN (about))(CD (500,000)))(VP (VBN (come)))(PP (IN (because))(IN (of)))(REL-FOCUS-ENTY-NP (DT (the))(REL-NNP (beatles)))(PP (VBG (accord)))(PP (TO (to)))(NP (DT (the))(NNP (merseyside))(NNP (tourism)))(REL-FOCUS-ENTY-NP (NNP (conference))(NNP (bureau))))) |ET| 1:0.30087098 2:0.19921453 3:0.13852713 4:0.14569288 5:0.10101525 6:0.02861819 8:0.020100759 11:0.34003675 12:0.29715282 13:0.032725379 14:0.6199975 15:0.30930588 16:0.26274329  |BV| 1:0.30358836 2:0.22188008 3:0.15289415 4:0.1672484 5:0.1132277 6:0.052686341 8:0.037562411 11:0.34900504 12:0.30253169 13:0.066805989 14:0.59342736 15:0.35777465 16:0.2679514  |EV| 
0.80277098990865147776219146180665  |BT| (ROOT (S (NP (WP (what)))(VP (VBZ (be)))(REL-FOCUS-ENTY-NP (DT (the))(REL-NNP (playboy))(REL-NN (logo))))) |BT| (ROOT (S (ADVP (DT (all))(RB (together)))(VP (VBD (say)))(REL-FOCUS-ENTY-NP (NNP (bruno))(NNP (derval)))(NP (NN (president)))(PP (IN (of)))(NP (DT (a))(NN (licensee)))(PP (IN (of)))(REL-FOCUS-ENTY-NP (REL-NNP (playboy))(NNP (enterprises))))(S (NP (POS ('s))(NN (booth)))(PP (IN (in)))(REL-FOCUS-ENTY-NP (DT (the))(JJ (immense))(NNP (las))(NNP (vegas))(NNP (convention))(NNP (center)))(NP (DT (the))(JJ (main))(NN (exhibition))(NN (hall)))(NP (NNS (buyer)))(NP (NN (denim))(NN (wear)))(VP (VBG (sport)))(REL-FOCUS-ENTY-NP (REL-NNP (playboy))(NN (bunny))(REL-NNS (logo)))(SBAR (IN (as)))(NP (NN (centerfold))(NNS (model))))) |BT| (ROOT (S (NP (WP (what)))(VP (VBZ (be)))(REL-FOCUS-ENTY-NP (DT (the))(REL-NNP (playboy))(REL-NN (logo))))) |BT| (ROOT (S (REL-FOCUS-ENTY-NP (REL-NNP (playboy)))(VP (VBZ (be))(VBG (demand)))(SBAR (IN (that)))(NP (PRP (he)))(VP (VB (alter)))(REL-NP (PRP$ (he))(REL-NN (logo)))(NP (POS ('s))(NN (typeface)))(NP (WDT (which)))(ADJP (JJ (similar)))(PP (TO (to)))(REL-FOCUS-ENTY-NP (REL-NNP (playboy)))(NP (POS ('s)))(VP (TO (to))(VB (avoid))))(S (NP (PRP$ (he))(NN (use)))(PP (IN (of)))(REL-NP (DT (the))(REL-NN (logo)))(PP (IN (on)))(NP (NN (dog))(NNS (dish))))) |ET| 1:0.18516402 2:0.11260782 3:0.1973855 4:0.082855232 5:0.16366342 11:0.29375485 12:0.25198773 13:0.01358565 14:0.63043982 15:0.36476082 16:0.20452742  |BV| 1:0.36464646 2:0.22628763 3:0.35218036 4:0.1681792 5:0.2981424 11:0.28486773 12:0.23956916 13:0.034289628 14:0.69866294 15:0.49289429 16:0.31047729  |EV| 
0.80277098990865147776219146180665  |BT| (ROOT (S (REL-FOCUS-ENTY-NP (WP (what))(NN (branch)))(PP (IN (of)))(REL-NP (DT (the))(REL-NN (military)))(VP (VBZ (have)))(REL-NP (PRP$ (its))(REL-NN (academy)))(PP (IN (in)))(REL-NP (REL-NNP (annapolis))))) |BT| (ROOT (S (NP (NNS (nyt8)))(REL-NP (REL-NNP (annapolis)))(NP (NNP (md))))(S (PP (IN (for)))(NP (JJ (such))(DT (a))(JJ (small))(NN (town)))(REL-NP (REL-NNP (annapolis))(NN (pop))))(S (PP (TO (to)))(REL-NP (REL-JJ (military))(NNS (type)))(NP (NNS (sport))(NNS (fan)))(REL-NP (REL-NNP (annapolis)))(VP (VBZ (be)))(REL-FOCUS-ENTY-NP (DT (the))(NNP (united))(NNP (states))(NNP (naval))(REL-NNP (academy))))(S (REL-NP (REL-NNP (annapolis)))(PP (IN (from)))(NP (DT (the))(NN (waterfront)))(NP (DT (the))(NNP (baroque))(NN (dome)))(PP (IN (of)))(REL-FOCUS-ENTY-NP (DT (the))(NNP (maryland))(NNP (state))(NNP (house))))) |BT| (ROOT (S (REL-FOCUS-ENTY-NP (WP (what))(NN (branch)))(PP (IN (of)))(REL-NP (DT (the))(REL-NN (military)))(VP (VBZ (have)))(REL-NP (PRP$ (its))(REL-NN (academy)))(PP (IN (in)))(REL-NP (REL-NNP (annapolis))))) |BT| (ROOT (S (NP (PRP$ (she))(JJ (american))(NNS (counterpart)))(PP (IN (at)))(REL-NP (REL-JJ (military))(REL-NNS (academy)))(PP (JJ (such))(IN (as)))(REL-NP (REL-NNP (annapolis)))(NP (NNP (west))(NNP (point)))(NP (WP (who))))) |ET| 1:0.25568962 2:0.16592756 3:0.13977131 4:0.12213225 5:0.10317643 6:0.01610183 8:0.01109264 11:0.4535372 12:0.39884219 13:0.15937899 14:0.64097649 15:0.50379676 16:0.26125601  |BV| 1:0.38138503 2:0.20158105 3:0.32897586 4:0.13989948 5:0.28867513 7:0.2409658 9:0.18257418 11:0.33904594 12:0.28644824 13:0.099258333 14:0.72014624 15:0.44450355 16:0.27414134  |EV| 
0.80277098990865147776219146180665  |BT| (ROOT (S (REL-FOCUS-LOC-NP (WP (what))(NN (continent)))(VP (VBZ (be)))(REL-NP (REL-NNP (india)))(PP (IN (on))))) |BT| (ROOT (S (NP (WDT (which)))(VP (VBZ (form)))(REL-FOCUS-LOC-NP (DT (the))(NNP (earth)))(NP (POS ('s))(JJS (largest))(NN (region)))(PP (IN (of)))(NP (DT (a))(NN (collision)))(PP (IN (between)))(REL-FOCUS-LOC-NP (REL-NNP (india))(CC (and))(NNP (asia)))(VP (VBZ (be))(VBN (consider)))(NP (DT (the))(JJ (archetypal))(JJ (continent-to-continent))(NN (collision))))) |BT| (ROOT (S (REL-FOCUS-LOC-NP (WP (what))(REL-NN (continent)))(VP (VBZ (be)))(REL-NP (REL-NNP (india)))(PP (IN (on))))) |BT| (ROOT (S (VP (VBP (have))(VBN (be))(VBN (report)))(PP (IN (on)))(REL-NP (DT (every))(REL-NN (continent)))(PP (IN (except)))(REL-FOCUS-LOC-NP (NNP (north))(NNP (america)))(PP (IN (in)))(NP (NNS (country)))(PP (VBG (include)))(REL-FOCUS-LOC-NP (NNP (uganda)))(REL-FOCUS-LOC-NP (REL-NNP (india)))(REL-FOCUS-LOC-NP (NNP (japan)))(REL-FOCUS-LOC-NP (NNP (israel)))(REL-FOCUS-LOC-NP (NNP (paraguay))))) |ET| 1:0.14433756 2:0.085091397 3:0.084215187 4:0.062622428 5:0.070014 11:0.30550504 12:0.2630761 14:0.64276749 15:0.4088645 16:0.18351452  |BV| 1:0.26846242 2:0.15441829 3:0.2309401 4:0.11268723 5:0.19245009 11:0.24343225 12:0.20628425 14:0.66442823 15:0.45856556 16:0.18582097  |EV| 
-0.80277098990865147776219146180665  |BT| (ROOT (S (NP (WP (who)))(VP (VBZ (be)))(REL-FOCUS-HUM-NP (DT (the))(REL-NN (president))(REL-FW (pro))(REL-NN (tempore)))(PP (IN (of)))(REL-NP (DT (the))(NNP (us))(REL-NNP (senate))))) |BT| (ROOT (S (NP (DT (the))(NN (year)))(VP (VBD (say)))(REL-FOCUS-HUM-NP (JJ (democratic))(REL-NNP (senate))(REL-NNP (president))(REL-NNP (pro))(REL-NNP (tempore))(NNP (kevin))(NNP (sullivan))))) |BT| (ROOT (S (NP (WP (who)))(VP (VBZ (be)))(REL-FOCUS-HUM-NP (DT (the))(REL-NN (president))(REL-FW (pro))(REL-NN (tempore)))(PP (IN (of)))(REL-NP (DT (the))(NNP (us))(REL-NNP (senate))))) |BT| (ROOT (S (ADVP (RB (then)))(NP (NNP (thurmond)))(REL-NP (DT (the))(REL-NN (president))(REL-FW (pro))(REL-NN (tempore)))(PP (IN (of)))(REL-NP (DT (the))(REL-NNP (senate)))(VP (VBD (bellow)))(REL-NP (DT (the))(REL-NNP (senate)))(VP (MD (will))(VB (come))(TO (to))(VB (order))))) |ET| 1:0.38074982 2:0.23830219 3:0.086710997 4:0.16783626 5:0.064150028 6:0.034199279 8:0.02368897 11:0.49827287 12:0.41382045 13:0.23854215 14:0.73246074 15:0.38268298 16:0.3014009  |BV| 1:0.54912519 2:0.44019711 3:0.6598289 4:0.38943914 5:0.61898446 6:0.26880646 7:0.54232615 8:0.24902911 9:0.5 10:0.22892448 11:0.50283533 12:0.46163306 13:0.32457632 14:0.75962889 15:0.65002221 16:0.30448079  |EV| 
-0.80277098990865147776219146180665  |BT| (ROOT (S (REL-FOCUS-ENTY-NP (WP (what))(REL-NN (year)))(VP (VBD (do)))(REL-NP (REL-NNP (ellis))(REL-NNP (island)))(REL-VP (REL-RB (open)))(NP (PRP$ (its))(NNS (door)))(PP (TO (to)))(NP (NNS (immigrant))))) |BT| (ROOT (S (VP (VBD (show)))(PP (IN (at)))(REL-FOCUS-ENTY-NP (DT (the))(REL-NNP (ellis))(REL-NNP (island))(NNP (immigration))(NNP (museum)))(REL-NP (RBR (earlier))(DT (this))(REL-NN (year))))(S (NP (JJ (next))(NN (month)))(NP (DT (the))(NN (exhibit)))(REL-VP (REL-VBZ (open)))(PP (IN (at)))(REL-FOCUS-ENTY-NP (DT (the))(NNP (william))(NNP (breman))(NNP (jewish))(NNP (heritage))(NNP (museum)))(PP (IN (in)))(NP (NNP (atlanta))))) |BT| (ROOT (S (REL-FOCUS-ENTY-NP (WP (what))(NN (year)))(VP (VBD (do)))(REL-NP (REL-NNP (ellis))(REL-NNP (island)))(REL-VP (REL-RB (open)))(NP (PRP$ (its))(NNS (door)))(PP (TO (to)))(REL-NP (REL-NNS (immigrant))))) |BT| (ROOT (S (REL-FOCUS-ENTY-NP (REL-NNP (ellis))(REL-NNP (island)))(NP (POS ('s))(JJ (main))(NN (attraction)))(REL-FOCUS-ENTY-NP (DT (the))(REL-NNP (immigrant))(NNP (museum)))(PP (IN (with)))(NP (PRP$ (its))(NNP (great))(NNP (hall)))(NP (NNP (new))(NNP (york))(NN (soil)))(VP (VBZ (have))(VBN (be)))(REL-ADJP (REL-JJ (open)))(PP (TO (to)))(NP (DT (the))(NN (public))))(S (NP (NNS (million)))(PP (IN (of)))(REL-NP (REL-NNS (immigrant)))(PP (IN (from)))(NP (CD (1892))))) |ET| 1:0.16854997 2:0.11527808 3:0.19968078 4:0.082807869 5:0.14256649 6:0.023537559 7:0.046675999 8:0.016264999 9:0.033333331 11:0.38818911 12:0.3274042 13:0.10107974 14:0.63537705 15:0.30754915 16:0.27116564  |BV| 1:0.27023199 2:0.17201318 3:0.24140227 4:0.12171612 5:0.17099638 6:0.025181649 7:0.054799661 8:0.017352641 9:0.039283711 11:0.35744071 12:0.30096462 13:0.063064501 14:0.68474305 15:0.44835427 16:0.32530114  |EV| 
0.80277098990865147776219146180665  |BT| (ROOT (S (NP (WP (who)))(VP (VBZ (be)))(REL-FOCUS-HUM-NP (DT (the))(REL-NN (president))(REL-FW (pro))(REL-NN (tempore)))(PP (IN (of)))(REL-NP (DT (the))(NNP (us))(REL-NNP (senate))))) |BT| (ROOT (S (ADVP (RB (then)))(NP (NNP (thurmond)))(REL-NP (DT (the))(REL-NN (president))(REL-FW (pro))(REL-NN (tempore)))(PP (IN (of)))(REL-NP (DT (the))(REL-NNP (senate)))(VP (VBD (bellow)))(REL-NP (DT (the))(REL-NNP (senate)))(VP (MD (will))(VB (come))(TO (to))(VB (order))))) |BT| (ROOT (S (NP (WP (who)))(VP (VBZ (be)))(REL-FOCUS-HUM-NP (DT (the))(REL-NN (president))(REL-FW (pro))(REL-NN (tempore)))(PP (IN (of)))(REL-NP (DT (the))(NNP (us))(REL-NNP (senate))))) |BT| (ROOT (S (REL-FOCUS-HUM-NP (NNP (senator))(NNP (leticia))(NNP (ramos))(NNP (shahani)))(REL-FOCUS-HUM-NP (REL-NNP (president))(NNP (fidel))(NNP (ramos)))(NP (JJR (younger))(NN (sister)))(ADVP (RB (also)))(NP (PRP$ (she))(NN (position)))(PP (IN (as)))(REL-NP (REL-NNP (senate))(REL-NN (president))(REL-FW (pro))(REL-JJ (tempore)))(PP (TO (to)))(NP (NNP (senator))(NNP (blas))(NNP (ople))))) |ET| 1:0.54912519 2:0.44019711 3:0.6598289 4:0.38943914 5:0.61898446 6:0.26880646 7:0.54232615 8:0.24902911 9:0.5 10:0.22892448 11:0.50283533 12:0.46163306 13:0.32457632 14:0.75962889 15:0.65002221 16:0.30448079  |BV| 1:0.19611613 2:0.16571045 3:0.36313653 4:0.13749298 5:0.3146266 6:0.098321028 7:0.23354968 8:0.068041377 9:0.17677671 10:0.035377461 11:0.44539934 12:0.38533732 13:0.18859299 14:0.60357219 15:0.35505095 16:0.2966789  |EV| 
0.097364303243515470942526235376135  |BT| (ROOT (S (ADVP (WRB (when)))(VP (VBD (be)))(REL-FOCUS-NUM-NP (REL-NNP (julius))(REL-NNP (caesar)))(REL-VP (REL-VBN (bear))))) |BT| (ROOT (S (PP (IN (in)))(REL-NP (CD (100))(NNP (b.c.))(NNP (roman))(NN (dictator))(REL-NNP (julius))(REL-NNP (caesar)))(REL-VP (VBD (be))(REL-VBN (bear))))) |BT| (ROOT (S (ADVP (WRB (when)))(VP (VBD (be)))(REL-FOCUS-NUM-NP (NNP (julius))(NNP (caesar)))(VP (VBN (bear))))) |BT| (ROOT (S (NP (NNP (`julius))(NNP (caesar')))(REL-FOCUS-NUM-NP (CD (1953))))) |ET| 1:0.49236596 2:0.32897586 3:0.62017369 4:0.23570226 5:0.57735026 6:0.07647191 7:0.52223295 8:0.05555556 9:0.44721359 11:0.48651278 12:0.4110961 13:0.11111111 14:0.70186752 15:0.45775232 16:0.42416808  |BV| 11:0.3253957 12:0.27386129 13:0.074535601 14:0.45505095 15:0.32438377 16:0.3505795  |EV| 
-0.80277098990865147776219146180665  |BT| (ROOT (S (NP (WP (who)))(VP (VBZ (be)))(REL-FOCUS-HUM-NP (DT (the))(REL-NN (head)))(PP (IN (of)))(REL-NP (DT (the))(REL-NNP (fbi))))) |BT| (ROOT (S (PP (TO (to)))(VP (VBD (tell)))(REL-NP (DT (the))(REL-NNP (fbi))))(S (NP (DT (the))(NN (situation)))(VP (VBD (say)))(REL-FOCUS-HUM-NP (NNP (ring)))(NP (WP (who)))(REL-VP (REL-VBD (head)))(NP (DT (the))(JJ (organized))(NN (crime))(NN (squad)))(PP (IN (in)))(NP (DT (the))(NNP (boston))(NN (office)))(PP (IN (of)))(REL-NP (DT (the))(REL-NNP (fbi)))(PP (IN (from)))(NP (CD (1983))))) |BT| (ROOT (S (NP (WP (who)))(VP (VBZ (be)))(REL-FOCUS-HUM-NP (DT (the))(NN (head)))(PP (IN (of)))(REL-NP (DT (the))(REL-NNP (fbi))))) |BT| (ROOT (S (NP (DT (the))(NN (advice)))(PP (IN (of)))(REL-FOCUS-HUM-NP (REL-NNP (fbi))(NNP (director))(NNP (louis))(NNP (j.))(NNP (freeh)))(REL-FOCUS-HUM-NP (REL-NNP (fbi))(NNP (special))(NNP (agent))(NNP (james))(NNP (v.))(NNP (desarno))))) |ET| 1:0.64450341 2:0.477247 3:0.28474739 4:0.37111259 5:0.24019223 6:0.14699526 8:0.10336228 10:0.03309517 11:0.57449657 12:0.50669175 13:0.35627785 14:0.79345208 15:0.68471575 16:0.2053825  |BV| 1:0.37947333 2:0.21226475 3:0.20100756 4:0.15171652 5:0.16843037 11:0.2932463 12:0.25040096 13:0.083965451 14:0.53400415 15:0.26090893 16:0.1872201  |EV| 
