SVM-light Version V5.01-TK-1.5
5 # kernel type
3 # kernel parameter -d 
1 # kernel parameter -g 
1 # kernel parameter -s 
1 # kernel parameter -r 
empty# kernel parameter -u 
0.4 # kernel parameter -L 
1 # kernel parameter -T 
+ # kernel parameter -C 
3 # kernel parameter -F 
1 # kernel parameter -S 
0.400000 # kernel parameter -M 
3 # kernel parameter -N 
R # kernel parameter -V 
R # kernel parameter -W 
0 # kernel parameter -U 
16 # highest feature index 
4975 # number of training documents 
2175 # number of support vectors plus 1 
-0.032898349 # threshold b, each following line is a SV (starting with alpha*y)
-0.012337454830655486537338560992794  |BT| (ROOT (S (ADVP (WRB (where)))(VP (VBZ (be)))(REL-FOCUS-LOC-NP (REL-NNP (mesa))(REL-NNP (verde))(REL-NNP (national))(REL-NN (park))))) |BT| (ROOT (S (NP (DT (the))(NN (entrance)))(PP (IN (at)))(REL-FOCUS-LOC-NP (REL-NNP (mesa))(REL-NNP (verde))(REL-NNP (national))(REL-NNP (park))))) |BT| (ROOT (S (ADVP (WRB (where)))(VP (VBZ (be)))(REL-FOCUS-LOC-NP (REL-NNP (mesa))(REL-NNP (verde))(REL-NNP (national))(REL-NN (park))))) |BT| (ROOT (S (REL-NP (REL-NNP (mesa))(REL-NNP (verde))(REL-NNP (national))(REL-NNP (park)))(REL-FOCUS-LOC-NP (NNP (colo))))(S (ADVP (RB (quickly)))(PP (IN (across)))(REL-NP (JJ (tinder-dry))(REL-NNS (mesa))(CC (and))(NNS (canyon)))(VP (VBG (force)))(NP (DT (the))(NN (evacuation)))(NP (CD (1,000))(NNS (tourist)))(PP (IN (from)))(REL-FOCUS-LOC-NP (REL-NNP (mesa))(REL-NNP (verde))(REL-NNP (national))(REL-NNP (park))))) |ET| 1:0.31524417 2:0.25377297 3:0.43355498 4:0.20953952 5:0.38490018 6:0.14484136 7:0.3253957 8:0.10259784 9:0.25 10:0.054799661 11:0.44388801 12:0.38575837 13:0.22404481 14:0.48933202 15:0.68258494 16:0.39613348  |BV| 1:0.15289415 2:0.13798682 3:0.2503131 4:0.11704115 5:0.21821789 6:0.094820932 7:0.18090682 8:0.06666667 9:0.13608275 10:0.035333261 11:0.56536031 12:0.4959183 13:0.28377539 14:0.61760461 15:0.62371582 16:0.40678903  |EV| 
0.82625616384198385944159781502094  |BT| (ROOT (S (NP (WP (what)))(VP (VBZ (be)))(REL-FOCUS-ENTY-NP (DT (the))(NN (name)))(PP (IN (of)))(REL-NP (REL-NNP (scarlett))(REL-NNP (o'hara)))(NP (POS ('s))(NN (house))))) |BT| (ROOT (S (VP (VB (mean))(TO (to))(VB (tell)))(NP (PRP (i)))(REL-FOCUS-ENTY-NP (NNP (katie))(REL-NNP (scarlett))(REL-NNP (o'hara)))(NP (WDT (that)))(REL-FOCUS-ENTY-NP (NNP (tara)))(SBAR (DT (that)))(NP (NN (land))))) |BT| (ROOT (S (NP (WP (what)))(VP (VBZ (be)))(REL-FOCUS-ENTY-NP (DT (the))(NN (name)))(PP (IN (of)))(REL-NP (REL-NNP (scarlett))(REL-NNP (o'hara)))(NP (POS ('s))(NN (house))))) |BT| (ROOT (S (NP (DT (the))(JJ (secret))(NN (diary)))(PP (IN (of)))(REL-NP (REL-NNP (scarlett))(REL-NNP (o'hara))))) |ET| 1:0.23354968 2:0.17742765 3:0.260133 4:0.12698413 5:0.19245009 6:0.053896811 7:0.10846523 8:0.0372678 9:0.083333328 11:0.40141371 12:0.33232519 13:0.09165445 14:0.73575616 15:0.4350937 16:0.31148893  |BV| 1:0.42257714 2:0.30905756 3:0.34188172 4:0.24653342 5:0.25819889 6:0.14552137 7:0.1490712 8:0.10206207 9:0.11785113 10:0.05383819 11:0.48435947 12:0.41932961 13:0.23179317 14:0.74449223 15:0.68461353 16:0.35715717  |EV| 
0.14929361505225874351410197959922  |BT| (ROOT (S (NP (WP (what)))(VP (VBZ (be)))(REL-NP (REL-NNP (frank))(REL-NNP (sinatra)))(REL-FOCUS-HUM-NP (POS ('s))(NN (nickname))))) |BT| (ROOT (S (PP (IN (of)))(NP (DT (the))(NN (board)))(REL-FOCUS-HUM-NP (REL-NNP (frank))(REL-NNP (sinatra)))(NP (DT (the))(NN (actor)))(VP (VBZ (have))))(S (NP (JJ (several))(NNS (concert))(CC (and))(NNS (performance)))(PP (VBG (include)))(REL-FOCUS-HUM-NP (REL-NNP (frank))(REL-NNP (sinatra)))(NP (NNP (portrait)))(PP (IN (of)))(NP (DT (a))(NNP (album)))(REL-FOCUS-HUM-NP (REL-NNP (frank))(REL-NNP (sinatra)))(NP (DT (the))(NN (man)))(NP (PRP$ (he))(NN (music)))(PP (IN (with)))(NP (DT (the))(NNP (count))(NNP (basie))(NNP (orchestra)))(REL-FOCUS-HUM-NP (REL-NNP (frank))(REL-NNP (sinatra)))(NP (DT (a))(NN (man)))(NP (PRP$ (he))(NN (music)))(REL-FOCUS-HUM-NP (REL-NNP (frank))(REL-NNP (sinatra)))(PP (IN (in)))(NP (NNP (concert)))(PP (IN (at)))(NP (NNP (royal))(NNP (festival))(NNP (hall)))(REL-FOCUS-HUM-NP (REL-NNP (sinatra)))(REL-FOCUS-HUM-NP (DT (the))(NNP (main))(NNP (event))(CC (and))(REL-NNP (frank))(REL-NNP (sinatra)))(NP (NNP (ol)))(NP (NNP (blue))(NNP (eyes))))) |BT| (ROOT (S (NP (WP (what)))(VP (VBZ (be)))(REL-NP (REL-NNP (frank))(REL-NNP (sinatra)))(REL-FOCUS-HUM-NP (POS ('s))(NN (nickname))))) |BT| (ROOT (S (VP (VBP (feel)))(PP (IN (like)))(REL-FOCUS-HUM-NP (DT (the))(NNP (haitian))(REL-NNP (frank))(REL-NNP (sinatra))))) |ET| 1:0.27811521 2:0.23419461 3:0.51692307 4:0.17654239 5:0.41139421 6:0.09656091 7:0.24597602 8:0.071307398 9:0.19364917 11:0.45067596 12:0.39503285 13:0.13509084 14:0.69964027 15:0.40448853 16:0.32220629  |BV| 1:0.26726124 2:0.21483447 3:0.42857143 4:0.15430336 5:0.33333334 6:0.083624199 7:0.2 8:0.06085806 9:0.16666667 11:0.33218193 12:0.28005603 13:0.11547005 14:0.61026388 15:0.39167514 16:0.28155375  |EV| 
-0.82625616384198385944159781502094  |BT| (ROOT (S (NP (WP (what)))(VP (VBZ (be)))(REL-FOCUS-ENTY-NP (DT (the))(NN (name)))(PP (IN (of)))(REL-NP (REL-NNP (scarlett))(REL-NNP (o'hara)))(NP (POS ('s))(NN (house))))) |BT| (ROOT (S (VP (VBZ (be)))(NP (DT (a))(JJ (strong))(NN (denouncement)))(REL-FOCUS-ENTY-NP (NNP (rod))(NNP (steiger)))(PP (IN (as)))(NP (DT (the))(NNP (southern))(NN (judge))))(S (NP (DT (the))(NN (spirit)))(PP (IN (of)))(REL-NP (REL-NNP (scarlett))(REL-NNP (o'hara))))) |BT| (ROOT (S (NP (WP (what)))(VP (VBZ (be)))(REL-FOCUS-ENTY-NP (DT (the))(NN (name)))(PP (IN (of)))(REL-NP (REL-NNP (scarlett))(REL-NNP (o'hara)))(NP (POS ('s))(NN (house))))) |BT| (ROOT (S (VP (VB (mean))(TO (to))(VB (tell)))(NP (PRP (i)))(REL-FOCUS-ENTY-NP (NNP (katie))(REL-NNP (scarlett))(REL-NNP (o'hara)))(NP (WDT (that)))(REL-FOCUS-ENTY-NP (NNP (tara)))(SBAR (DT (that)))(NP (NN (land))))) |ET| 1:0.24701609 2:0.19031443 3:0.20365328 4:0.15430336 5:0.1490712 6:0.088891327 7:0.083045483 8:0.061545748 9:0.062994078 10:0.032025632 11:0.51058888 12:0.46073931 13:0.26648545 14:0.79954177 15:0.67876428 16:0.28929442  |BV| 1:0.23354968 2:0.17742765 3:0.260133 4:0.12698413 5:0.19245009 6:0.053896811 7:0.10846523 8:0.0372678 9:0.083333328 11:0.40141371 12:0.33232519 13:0.09165445 14:0.73575616 15:0.4350937 16:0.31148893  |EV| 
0.037267278395367968435447636466051  |BT| (ROOT (S (NP (WP (what)))(VP (VBZ (be)))(REL-FOCUS-ENTY-NP (DT (the))(NN (name)))(PP (IN (of)))(REL-NP (DT (the))(REL-NN (canopy)))(PP (IN (at)))(REL-NP (DT (a))(REL-JJ (jewish))(NN (wedding))))) |BT| (ROOT (S (NP (PRP$ (my))(NN (sister)))(VP (VBD (be))(VBG (plan)))(REL-NP (DT (a))(JJ (full))(REL-JJ (jewish))(NN (ceremony)))(ADJP (JJ (complete)))(PP (IN (with)))(REL-NP (DT (the))(JJ (traditional))(NN (huppah))(REL-NN (canopy)))(NP (DT (the))(NN (ketubah))(NN (contract)))(NP (DT (the))(NN (breaking))))) |BT| (ROOT (S (NP (WP (what)))(VP (VBZ (be)))(REL-FOCUS-ENTY-NP (DT (the))(NN (name)))(PP (IN (of)))(REL-NP (DT (the))(REL-NN (canopy)))(PP (IN (at)))(REL-NP (DT (a))(JJ (jewish))(REL-NN (wedding))))) |BT| (ROOT (S (NP (DT (the))(NN (morning)))(PP (IN (of)))(REL-NP (DT (the))(REL-NN (wedding)))(NP (DT (the))(NNS (worker)))(VP (VBD (use))))(S (REL-NP (DT (a))(NN (shimmering))(REL-NN (canopy)))(VP (VBD (await)))(REL-NP (DT (the))(REL-NN (wedding))(NNS (guest))))) |ET| 1:0.51328945 2:0.32161209 3:0.16609097 4:0.23190841 5:0.12598816 6:0.025197631 8:0.017329169 11:0.64116085 12:0.5807749 13:0.36912471 14:0.83312321 15:0.61937433 16:0.22531275  |BV| 1:0.50283647 2:0.32500577 3:0.18428855 4:0.24041249 5:0.13957264 6:0.02129589 8:0.01466471 11:0.64899296 12:0.59250021 13:0.3987495 14:0.79935545 15:0.72982919 16:0.22639666  |EV| 
0.053226090854600928425899297735668  |BT| (ROOT (S (NP (WP (what)))(VP (VBZ (be)))(REL-FOCUS-ENTY-NP (DT (the))(NN (name)))(PP (IN (of)))(REL-NP (REL-NNP (scarlett))(REL-NNP (o'hara)))(NP (POS ('s))(NN (house))))) |BT| (ROOT (S (NP (DT (a))(NN (bit)))(PP (IN (like)))(REL-FOCUS-ENTY-NP (REL-NNP (scarlett))(REL-NNP (o'hara)))(VP (VBG (survey)))(REL-FOCUS-ENTY-NP (NNP (tara)))(ADVP (IN (though)))(PP (IN (in)))(NP (DT (the))(JJ (current))(NN (housing))(NN (market)))(REL-FOCUS-ENTY-NP (NNP (tara)))(VP (MD (would))(VB (be)))(NP (DT (a))(NN (teardown))))) |BT| (ROOT (S (NP (WP (what)))(VP (VBZ (be)))(REL-FOCUS-ENTY-NP (DT (the))(NN (name)))(PP (IN (of)))(REL-NP (REL-NNP (scarlett))(REL-NNP (o'hara)))(NP (POS ('s))(NN (house))))) |BT| (ROOT (S (NP (DT (the))(JJ (secret))(NN (diary)))(PP (IN (of)))(REL-NP (REL-NNP (scarlett))(REL-NNP (o'hara))))) |ET| 1:0.24701609 2:0.15823503 3:0.1770844 4:0.11305037 5:0.13130642 6:0.02662174 7:0.07559289 8:0.01855674 9:0.0571662 11:0.47568262 12:0.41714883 13:0.17919968 14:0.76760119 15:0.55908984 16:0.30093682  |BV| 1:0.42257714 2:0.30905756 3:0.34188172 4:0.24653342 5:0.25819889 6:0.14552137 7:0.1490712 8:0.10206207 9:0.11785113 10:0.05383819 11:0.48435947 12:0.41932961 13:0.23179317 14:0.74449223 15:0.68461353 16:0.35715717  |EV| 
0.82625616384198385944159781502094  |BT| (ROOT (S (REL-FOCUS-ENTY-NP (DT (the))(REL-NN (duomo))))) |BT| (ROOT (S (PP (IN (beneath)))(NP (NNP (florence)))(REL-NP (POS ('s))(REL-NNP (duomo))(NN (cathedral))))) |BT| (ROOT (S (REL-FOCUS-ENTY-NP (DT (the))(REL-NN (duomo))))) |BT| (ROOT (S (NP (DT (the))(NN (bell))(NN (tower)))(PP (IN (of)))(REL-NP (DT (the))(REL-NN (duomo))))(S (PP (IN (from)))(NP (DT (the))(NN (top)))(REL-FOCUS-ENTY-NP (NNP (rosato)))(VP (VBZ (say)))(NP (PRP (it))))(S (NP (DT (the))(JJ (golden))(JJ (snowflaked))(NN (ceiling)))(PP (IN (of)))(REL-NP (DT (the))(REL-NN (duomo))(NNS (cheer)))(NP (PRP (she))))) |ET| 1:0.094491117 2:0.051917411 4:0.03798686 11:0.31927544 12:0.27524093 13:0.096225038 14:0.5501827 15:0.21372329 16:0.18442374  |BV| 1:0.32907259 2:0.25444156 3:0.24806947 4:0.19827063 5:0.20851441 6:0.071842119 8:0.054192781 11:0.46407509 12:0.41654861 13:0.19145551 14:0.60548097 15:0.45616952 16:0.19202623  |EV| 
0.50977351958355543448675462059327  |BT| (ROOT (S (REL-NP (WDT (which))(JJ (political))(REL-NN (party)))(VP (VBZ (be)))(REL-NP (REL-NNP (lionel))(REL-NNP (jospin)))(REL-FOCUS-HUM-NP (DT (a))(NN (member)))(PP (IN (of))))) |BT| (ROOT (S (SBAR (IN (if)))(REL-NP (DT (the))(JJ (french))(NN (left))(REL-NNS (party)))(VP (VBD (win)))(NP (DT (the))(JJ (second))(NN (round)))(PP (IN (of)))(NP (DT (the))(JJ (legislative))(NNS (election)))(REL-FOCUS-HUM-NP (REL-NNP (lionel))(REL-NNP (jospin)))(NP (DT (the))(NN (chief)))(PP (IN (of)))(REL-NP (DT (the))(NNP (socialist))(REL-NNP (party)))(VP (MD (would))(VB (set)))(PRT (RP (up))))) |BT| (ROOT (S (REL-NP (WDT (which))(REL-JJ (political))(NN (party)))(VP (VBZ (be)))(REL-NP (REL-NNP (lionel))(REL-NNP (jospin)))(REL-FOCUS-HUM-NP (DT (a))(NN (member)))(PP (IN (of))))) |BT| (ROOT (S (REL-NP (DT (a))(JJ (major))(REL-JJ (political))(NN (act)))(REL-FOCUS-HUM-NP (NNP (prime))(NNP (minister))(REL-NNP (lionel))(REL-NNP (jospin)))(VP (VBD (call)))(NP (DT (the))(NN (accord))))) |ET| 1:0.2704336 2:0.17910947 3:0.22537448 4:0.13012001 5:0.16169041 6:0.028386651 7:0.065795168 8:0.019733431 9:0.048112519 11:0.4657287 12:0.39466888 13:0.14950249 14:0.72042388 15:0.47690511 16:0.326204  |BV| 1:0.32659864 2:0.21300717 3:0.32338083 4:0.14847846 5:0.23570226 6:0.046675999 7:0.097590007 8:0.032686021 9:0.072739303 11:0.47916752 12:0.39901194 13:0.14887284 14:0.73064083 15:0.50621915 16:0.34467801  |EV| 
-0.21357514566888247120601818096475  |BT| (ROOT (S (NP (WP (what)))(VP (VBZ (be)))(REL-FOCUS-ENTY-NP (DT (the))(REL-NN (principle))(NN (port)))(PP (IN (in)))(REL-NP (REL-NNP (ecuador))))) |BT| (ROOT (S (NP (JJ (joint))(NNS (effort)))(PP (IN (with)))(REL-NP (REL-NNP (ecuador)))(PP (IN (on)))(NP (DT (the))(NN (basis)))(PP (IN (of)))(REL-NP (DT (the))(CD (five))(REL-NNS (principle)))(PP (IN (of)))(NP (JJ (peaceful))(NN (co-existence))))) |BT| (ROOT (S (NP (WP (what)))(VP (VBZ (be)))(REL-FOCUS-ENTY-NP (DT (the))(NN (principle))(REL-NN (port)))(PP (IN (in)))(REL-NP (REL-NNP (ecuador))))) |BT| (ROOT (S (NP (NNP (guayaquil)))(REL-NP (REL-NNP (ecuador))(NNP (ap)))(NP (NN (crime)))(VP (VBZ (be)))(ADJP (RB (so))(JJ (bad)))(PP (IN (in)))(REL-NP (REL-NNP (ecuador)))(REL-NP (POS ('s))(JJ (rough-and-tumble))(NNP (pacific))(REL-NN (port)))(PP (IN (of)))(NP (NNP (guayaquil))))) |ET| 1:0.3168751 2:0.18543454 3:0.16609097 4:0.13501543 5:0.12598816 11:0.36319718 12:0.30624747 13:0.087162733 14:0.70437431 15:0.51410359 16:0.19441083  |BV| 1:0.36927447 2:0.23141286 3:0.23354968 4:0.16283473 5:0.1786474 6:0.03739788 8:0.026189139 11:0.53087878 12:0.44774842 13:0.20215948 14:0.78010219 15:0.54326522 16:0.2246514  |EV| 
-0.82625616384198385944159781502094  |BT| (ROOT (S (NP (WP (what))(NN (island)))(VP (VBD (do)))(REL-NP (DT (the))(NNP (u.s.))(REL-NN (gain)))(PP (IN (after)))(REL-FOCUS-LOC-NP (DT (the))(JJ (spanish))(JJ (american))(REL-NN (war))))) |BT| (ROOT (S (SBAR (IN (before)))(REL-FOCUS-LOC-NP (DT (the))(NNPS (philippines)))(REL-VP (MD (could))(REL-VB (gain)))(NP (NN (independence)))(ADVP (RB (however)))(REL-FOCUS-LOC-NP (DT (the))(NNP (united))(NNP (states)))(VP (VBD (acquire)))(NP (PRP (it)))(PP (IN (after)))(VP (VBG (defeat)))(REL-FOCUS-LOC-NP (NNP (spain)))(PP (IN (in)))(REL-NP (DT (the))(CD (1898))(NNP (spanish-american))(REL-NNP (war))))) |BT| (ROOT (S (REL-NP (WP (what))(REL-NN (island)))(VP (VBD (do)))(NP (DT (the))(NNP (u.s.))(NN (gain)))(PP (IN (after)))(REL-FOCUS-LOC-NP (DT (the))(JJ (spanish))(REL-JJ (american))(REL-NN (war))))) |BT| (ROOT (S (REL-FOCUS-LOC-NP (NNP (guam)))(REL-NP (DT (a))(REL-NN (island))(NN (home)))(PP (TO (to)))(NP (CD (145,000))(NNS (people)))(NP (POS ('s))(NNP (day))(NNP (begins)))(VP (VBZ (be)))(REL-NP (DT (the))(JJ (westernmost))(REL-JJ (american))(NN (territory)))(VP (VBN (cede)))(PP (IN (in)))(NP (CD (1898)))(PP (IN (after)))(REL-NP (DT (the))(NNP (spanish-american))(REL-NNP (war))))) |ET| 1:0.38401228 2:0.2197769 3:0.065795168 4:0.15719549 5:0.047140449 11:0.32898173 12:0.27397451 13:0.066914961 14:0.63897288 15:0.54889774 16:0.30218661  |BV| 1:0.35085654 2:0.22501758 3:0.10497278 4:0.1611646 5:0.074535601 6:0.02749287 8:0.018932059 11:0.46784425 12:0.40203807 13:0.14679517 14:0.74138916 15:0.56834805 16:0.28649482  |EV| 
-0.82625616384198385944159781502094  |BT| (ROOT (S (NP (WP (what)))(VP (VBZ (be)))(REL-FOCUS-LOC-NP (REL-NN (capital)))(PP (IN (of)))(REL-NP (REL-NNP (maryland))))) |BT| (ROOT (S (REL-FOCUS-LOC-NP (REL-NNP (maryland))(NNS (authority)))(VP (VBD (say)))(PP (IN (in)))(NP (PRP (they)))(VP (MD (would))(RB (not))(VB (pursue)))(REL-NP (DT (a))(REL-NN (capital))(NN (case)))(VP (VBD (add)))(SBAR (IN (that)))(PP (IN (than)))(PP (IN (in)))(REL-FOCUS-LOC-NP (NNP (israel))))) |BT| (ROOT (S (NP (WP (what)))(VP (VBZ (be)))(REL-FOCUS-LOC-NP (REL-NN (capital)))(PP (IN (of)))(REL-NP (REL-NNP (maryland))))) |BT| (ROOT (S (REL-FOCUS-LOC-NP (REL-NNP (maryland)))(NP (NNP (joe))(NNP (platania)))(NP (NNP (wcbm)))(REL-FOCUS-LOC-NP (NNP (baltimore)))(NP (NNP (joe))(NNP (gross)))(REL-FOCUS-LOC-NP (DT (the))(REL-NNP (capital))(NNP (annapolis))))) |ET| 1:0.18898223 2:0.1058677 3:0.22222222 4:0.076323278 5:0.18490008 11:0.42696318 12:0.36128739 13:0.17320508 14:0.6767354 15:0.50895911 16:0.17442538  |BV| 1:0.064549722 2:0.039936151 3:0.13245323 4:0.03021989 5:0.1132277 11:0.2111095 12:0.18425693 13:0.03077287 14:0.53641587 15:0.2753028 16:0.19375044  |EV| 
0.82625616384198385944159781502094  |BT| (ROOT (S (ADVP (WRB (how)))(REL-FOCUS-DESC-NP (REL-NNP (john))(REL-NNP (dillinger)))(VP (VBP (die))))) |BT| (ROOT (S (VP (VBN (put)))(PP (IN (in)))(REL-NP (REL-NNP (john))(REL-NNP (dillinger))))) |BT| (ROOT (S (ADVP (WRB (how)))(REL-FOCUS-DESC-NP (REL-NNP (john))(REL-NNP (dillinger)))(VP (VBP (die))))) |BT| (ROOT (S (NP (JJ (high))(NN (praise)))(PP (IN (from)))(REL-NP (REL-NNP (john))(REL-NNP (dillinger)))(NP (NNP (clyde))(NNP (barrow))))) |ET| 1:0.097590007 2:0.085854568 3:0.24913643 4:0.063035779 5:0.18898223 6:0.037037041 7:0.11111111 8:0.026352311 9:0.09245003 11:0.20427196 12:0.17248787 13:0.025125951 14:0.39383894 15:0.45152789 16:0.24303101  |BV| 1:0.19245009 2:0.15745915 3:0.3077935 4:0.11298654 5:0.23570226 6:0.061898451 7:0.14002801 8:0.044543538 9:0.11785113 11:0.39741307 12:0.33756998 13:0.08703883 14:0.57190704 15:0.29008797 16:0.27578145  |EV| 
-0.82625616384198385944159781502094  |BT| (ROOT (S (NP (WP (what)))(VP (VBZ (be)))(REL-FOCUS-ENTY-NP (DT (the))(NN (name)))(PP (IN (of)))(REL-NP (DT (the))(REL-NN (airport)))(PP (IN (in)))(REL-NP (REL-NNP (amsterdam))))) |BT| (ROOT (S (PP (IN (out)))(PP (IN (of)))(REL-NP (DT (the))(JJ (present))(JJ (international))(REL-NN (airport)))(NP (PRP (he)))(VP (VBD (say)))(NP (DT (this)))(VP (MD (would))(VB (be)))(REL-FOCUS-ENTY-NP (DT (the))(NNP (klm))(NN (flight)))(PP (TO (to)))(REL-NP (REL-NNP (amsterdam))))) |BT| (ROOT (S (NP (WP (what)))(VP (VBZ (be)))(REL-FOCUS-ENTY-NP (DT (the))(NN (name)))(PP (IN (of)))(REL-NP (DT (the))(REL-NN (airport)))(PP (IN (in)))(REL-NP (REL-NNP (amsterdam))))) |BT| (ROOT (S (REL-NP (REL-NNP (amsterdam)))(REL-NP (NNP (schipol))(REL-NNP (airport)))(NP (NN (&ql))))) |ET| 1:0.48795003 2:0.34091458 3:0.28005603 4:0.24607943 5:0.24077171 6:0.070754908 8:0.049147319 11:0.41192627 12:0.34539846 13:0.094660312 14:0.78459954 15:0.72284234 16:0.22189179  |BV| 1:0.091287091 2:0.050062619 3:0.17407766 4:0.035737079 5:0.1490712 11:0.17505471 12:0.14896989 14:0.54693145 15:0.43188506 16:0.24200073  |EV| 
-0.82625616384198385944159781502094  |BT| (ROOT (S (NP (WP (what)))(REL-NP (NNP (e))(REL-NNP (pluribus))(REL-NNP (unum))(VB (mean))))) |BT| (ROOT (S (NP (DT (that)))(NP (DT (the))(NN (phrase)))(REL-NP (NNP (e))(REL-NNP (pluribus))(REL-NNP (unum)))(VP (VBP (appear)))(PP (IN (on))))) |BT| (ROOT (S (NP (WP (what)))(REL-NP (NNP (e))(REL-NNP (pluribus))(REL-NNP (unum))(VB (mean))))) |BT| (ROOT (S (REL-NP (NNP (e))(REL-NN (pluribus))(REL-NN (unum))))) |ET| 1:0.12543631 2:0.12297974 3:0.33333334 4:0.10697244 5:0.28097573 6:0.093250483 7:0.20851441 8:0.064820372 9:0.17407766 10:0.033883709 11:0.43641034 12:0.39237559 13:0.21673036 14:0.56513357 15:0.58856374 16:0.37393424  |BV| 1:0.08703883 2:0.050062619 4:0.036417849 11:0.15386435 12:0.12824729 14:0.48053837 15:0.43816248 16:0.51526713  |EV| 
0.087791237110975459123629605073802  |BT| (ROOT (S (NP (WP (what)))(VP (VBZ (do)))(REL-FOCUS-NUM-NP (DT (the))(REL-NN (bugler))(REL-NN (play)))(PP (IN (at)))(REL-NP (DT (the))(REL-NN (end)))(PP (IN (of)))(NP (DT (the))(NN (day)))(PP (IN (on)))(NP (DT (a))(NNP (us))(JJ (military))(NN (base))))) |BT| (ROOT (S (NP (DT (the))(NNS (strain)))(PP (IN (of)))(REL-NP (REL-NNS (bugler)))(REL-VP (REL-VBG (play)))(REL-FOCUS-NUM-NP (NNP (taps))(JJ (last))(NN (post)))(NP (DT (the))(JJ (british))(NN (monarch)))(VP (VBD (meet)))(NP (DT (the))(NN (war)))(SBAR (IN (that)))(REL-VP (REL-VBN (end)))(REL-FOCUS-NUM-NP (CD (80))(NNS (year)))(REL-FOCUS-NUM-ADVP (RB (ago))))) |BT| (ROOT (S (NP (WP (what)))(VP (VBZ (do)))(REL-FOCUS-NUM-NP (DT (the))(REL-NN (bugler))(NN (play)))(PP (IN (at)))(NP (DT (the))(NN (end)))(PP (IN (of)))(NP (DT (the))(NN (day)))(PP (IN (on)))(REL-NP (DT (a))(NNP (us))(REL-JJ (military))(NN (base))))) |BT| (ROOT (S (NP (EX (there)))(VP (VBP (be)))(REL-NP (RB (only))(CD (500))(REL-NNS (bugler)))(PP (IN (in)))(NP (DT (the))(JJ (whole)))(REL-ADJP (REL-JJ (military)))(NP (PRP (we)))(VP (VBP (seem))(TO (to))(VB (have))))) |ET| 1:0.52048343 2:0.3433508 3:0.20385888 4:0.24742322 5:0.14462031 6:0.043243881 7:0.058025889 8:0.0295205 9:0.041666672 11:0.56052339 12:0.48987147 13:0.22527315 14:0.81793642 15:0.61063814 16:0.25014636  |BV| 1:0.22116293 2:0.12508146 3:0.22792114 4:0.08856149 5:0.1721326 11:0.20824929 12:0.17293721 13:0.037736598 14:0.56120509 15:0.43958622 16:0.27975515  |EV| 
0.2762557117470539336245849426632  |BT| (ROOT (S (REL-FOCUS-ENTY-NP (WP (what))(NN (color))(REL-NN (hair)))(VP (VBD (do)))(NP (NNP (thomas))(NNP (jefferson)))(VP (VB (have))(RB (before)))(REL-UCP (REL-JJ (gray))))) |BT| (ROOT (S (NP (PRP$ (they))(JJ (original))(NN (shade)))(PP (IN (of)))(REL-NP (REL-JJ (gray)))(SBAR (IN (because)))(NP (PRP (they)))(NP (NN (spending))(NNS (hour)))(VP (VBG (have)))(REL-NP (PRP$ (they))(REL-NN (hair)))(ADJP (JJ (colored))))) |BT| (ROOT (S (REL-FOCUS-ENTY-NP (WP (what))(NN (color))(NN (hair)))(VP (VBD (do)))(REL-NP (REL-NNP (thomas))(REL-NNP (jefferson)))(VP (VB (have))(RB (before)))(UCP (JJ (gray))))) |BT| (ROOT (S (REL-FOCUS-ENTY-NP (REL-NNP (thomas))(REL-NNP (jefferson)))(NP (NN (someone)))(VP (MD (would))(VB (say))))(S (ADJP (VBN (relate)))(PP (TO (to)))(REL-FOCUS-ENTY-NP (REL-NNP (thomas))(REL-NNP (jefferson))))) |ET| 1:0.14142136 2:0.080553241 3:0.13333333 4:0.05773503 5:0.096225038 11:0.25400025 12:0.20915478 13:0.022405541 14:0.45538756 15:0.27791575 16:0.28398263  |BV| 1:0.2828427 2:0.23267002 3:0.51639777 4:0.16843037 5:0.40824828 6:0.093352012 7:0.25197631 8:0.066226617 9:0.20100756 11:0.3632696 12:0.29952115 13:0.066226617 14:0.63037628 15:0.43954322 16:0.30215266  |EV| 
-0.27654674508491905449147907347651  |BT| (ROOT (S (REL-FOCUS-LOC-NP (WP (what))(NN (river)))(VP (VBZ (be)))(PP (IN (under)))(REL-NP (NNP (new))(REL-NNP (york)))(REL-NP (POS ('s))(REL-NNP (george))(REL-NNP (washington))(REL-NN (bridge))))) |BT| (ROOT (S (REL-FOCUS-LOC-NP (NNP (new))(REL-NN (york)))(PP (IN (in)))(REL-FOCUS-LOC-NP (NNP (new))(REL-NNP (york)))(REL-NP (REL-NNP (george))(REL-NNP (washington)))(VP (VBZ (be)))(ADJP (JJR (more))))(S (NP (NNS (avenue)))(NP (DT (a))(NN (park)))(REL-NP (CD (two))(REL-NNS (bridge)))(NP (DT (a))(JJ (magnificent))(NN (marble))(JJ (triumphal))(NN (arch)))(NP (DT (all))))(S (REL-FOCUS-LOC-NP (NNP (new))(REL-NNP (york)))(VP (VBZ (love)))(REL-NP (REL-NNP (george))(REL-NNP (washington))))) |BT| (ROOT (S (REL-FOCUS-LOC-NP (WP (what))(REL-NN (river)))(VP (VBZ (be)))(PP (IN (under)))(REL-NP (NNP (new))(REL-NNP (york)))(REL-NP (POS ('s))(REL-NNP (george))(REL-NNP (washington))(REL-NN (bridge))))) |BT| (ROOT (S (NP (NNS (participant)))(VP (RB (eventually))(VBG (kayake)))(REL-FOCUS-LOC-NP (DT (the))(NNP (hudson))(REL-NNP (river)))(REL-FOCUS-LOC-NP (NNP (new))(REL-NNP (york))(NNP (harbor)))(VP (VBG (tour)))(REL-NP (DT (the))(REL-NNP (george))(REL-NNP (washington))(REL-NNP (bridge)))(NP (DT (the))(NNP (statue)))(PP (IN (of)))(REL-FOCUS-LOC-NP (NNP (liberty)))(PP (IN (from)))(NP (DT (the))(NN (water))))) |ET| 1:0.28867513 2:0.23203585 3:0.3532809 4:0.17016912 5:0.25506908 6:0.081429422 7:0.093352012 8:0.0564445 9:0.067115612 11:0.51121402 12:0.45024621 13:0.16376789 14:0.69984108 15:0.63473111 16:0.3150062  |BV| 1:0.15316792 2:0.13159034 3:0.18835264 4:0.094280899 5:0.13333333 6:0.053702161 7:0.053376049 8:0.037037041 9:0.038235959 11:0.57109237 12:0.50225216 13:0.19708538 14:0.74249226 15:0.48399684 16:0.33066824  |EV| 
0.82625616384198385944159781502094  |BT| (ROOT (S (NP (WP (what)))(VP (VBZ (be)))(REL-FOCUS-ENTY-NP (DT (the))(NN (name)))(PP (IN (of)))(REL-NP (DT (the))(REL-NN (airport)))(PP (IN (in)))(REL-NP (REL-NNP (amsterdam))))) |BT| (ROOT (S (REL-NP (REL-NNP (amsterdam)))(REL-NP (NNP (schipol))(REL-NNP (airport)))(NP (NN (&ql))))) |BT| (ROOT (S (NP (WP (what)))(VP (VBZ (be)))(REL-FOCUS-ENTY-NP (DT (the))(NN (name)))(PP (IN (of)))(REL-NP (DT (the))(REL-NN (airport)))(PP (IN (in)))(REL-NP (REL-NNP (amsterdam))))) |BT| (ROOT (S (NP (DT (the))(NNS (gate)))(PP (IN (of)))(REL-NP (REL-NNP (amsterdam))(REL-NN (airport)))(NP (DT (every))(NN (day)))(PP (IN (for))))) |ET| 1:0.091287091 2:0.050062619 3:0.17407766 4:0.035737079 5:0.1490712 11:0.17505471 12:0.14896989 14:0.54693145 15:0.43188506 16:0.24200073  |BV| 1:0.55277079 2:0.32971987 3:0.28005603 4:0.24072845 5:0.23570226 11:0.58470535 12:0.51459479 13:0.32501355 14:0.82417464 15:0.69540715 16:0.21591143  |EV| 
0.82625616384198385944159781502094  |BT| (ROOT (S (ADVP (WRB (when)))(VP (VBD (be)))(REL-FOCUS-NUM-NP (REL-NNP (mtv)))(REL-VP (REL-VBD (start))))) |BT| (ROOT (S (REL-NP (REL-NNP (mtv)))(NP (POS ('s))(NN (parent))(NN (company)))(NP (NNP (viacom))))(S (NP (DT (the))(NNS (outlet)))(PP (IN (with)))(REL-NP (REL-NNP (mtv))(JJ (second))(CC (and))(JJ (vh1))(JJ (third)))(VP (VBZ (celebrate)))(NP (PRP$ (its))(JJ (20th))(NN (anniversary)))(PP (IN (on)))(REL-FOCUS-NUM-NP (NNP (april))(CD (1))))(S (REL-NP (REL-NNP (mtv)))(REL-VP (REL-VBD (start)))(PP (IN (in)))(REL-FOCUS-NUM-NP (CD (1981)))(NP (NNP (vh1)))(PP (IN (in)))(REL-FOCUS-NUM-NP (CD (1985))))(S (NP (NNS (graduate)))(PP (IN (of)))(REL-NP (REL-NNP (mtv)))(NP (WP (who)))(ADVP (RB (still))))) |BT| (ROOT (S (ADVP (WRB (when)))(VP (VBD (be)))(REL-FOCUS-NUM-NP (REL-NNP (mtv)))(REL-VP (REL-VBD (start))))) |BT| (ROOT (S (NP (DT (the))(NN (channel)))(REL-VP (REL-VBD (start)))(PP (IN (in)))(REL-FOCUS-NUM-NP (CD (1985)))(PP (IN (with)))(NP (DT (the))(NN (purpose)))(NP (NN (competition)))(PP (IN (for)))(REL-NP (REL-NNP (mtv))))(S (NP (DT (that))(NN (year)))(NP (NNP (ted))(NNP (turner)))(REL-VP (VBD (have))(REL-VBN (start)))(NP (DT (a))(VBG (compete))(NN (music))(NN (channel)))(SBAR (RB (so)))(REL-NP (REL-NNP (mtv))(NNP (networks)))(VP (VBD (offer)))(ADJP (JJ (free))))) |ET| 1:0.23717082 2:0.16709347 3:0.37139067 4:0.1255618 5:0.31889641 6:0.03302291 7:0.12598816 8:0.023931939 9:0.10369517 11:0.26164532 12:0.23077486 13:0.044946659 14:0.44349971 15:0.2956517 16:0.19483615  |BV| 1:0.22703829 2:0.13386989 3:0.27029496 4:0.099602379 5:0.22866479 11:0.21912149 12:0.1943704 13:0.046114299 14:0.41571739 15:0.27028924 16:0.18541543  |EV| 
-0.19291413360081993699779445705644  |BT| (ROOT (S (ADVP (WRB (when)))(VP (VBD (be)))(REL-FOCUS-NUM-NP (DT (the))(REL-NNP (panama))(REL-NNP (canal)))(REL-VP (REL-VBD (return)))(PP (TO (to)))(REL-NP (REL-NNP (panama))))) |BT| (ROOT (S (REL-NP (REL-NNP (canal)))(REL-NP (POS ('s))(NNP (final))(REL-NNP (return))(NNP (colors))(NNP (vote)))(PP (IN (in)))(REL-NP (REL-NNP (panama))))) |BT| (ROOT (S (ADVP (WRB (when)))(VP (VBD (be)))(REL-FOCUS-NUM-NP (DT (the))(REL-NNP (panama))(REL-NNP (canal)))(REL-VP (REL-VBD (return)))(PP (TO (to)))(REL-NP (REL-NNP (panama))))) |BT| (ROOT (S (REL-FOCUS-NUM-NP (DT (the))(CD (1977))(REL-NNP (panama))(REL-NNP (canal))(NNP (treaties)))(VP (VBP (require)))(NP (NNP (u.s.)))(NP (PRP$ (its))(NNS (troops)))(PP (IN (from)))(REL-NP (REL-NNP (panama)))(ADVP (RB (no)))(ADVP (RB (later)))(PP (IN (than)))(REL-FOCUS-NUM-NP (NNP (december))(CD (31))(CD (1999)))(REL-VP (REL-VB (return)))(NP (DT (the))(JJ (full))(NN (administration)))(PP (IN (of)))(REL-NP (DT (the))(REL-NNP (canal)))(PP (TO (to)))(NP (DT (the))(JJ (panamanian))(NN (government))))) |ET| 11:0.48330167 12:0.42583123 13:0.12838815 14:0.63552225 15:0.44179717 16:0.35257748  |BV| 1:0.54886043 2:0.35254309 3:0.42700842 4:0.25715142 5:0.32524624 6:0.032529999 7:0.077849887 8:0.02262814 9:0.058925569 11:0.40399668 12:0.34376606 13:0.063887663 14:0.70284963 15:0.5426622 16:0.3383472  |EV| 
-0.82625616384198385944159781502094  |BT| (ROOT (S (ADVP (WRB (when)))(VP (VBD (be)))(REL-FOCUS-NUM-NP (DT (the))(REL-NNP (panama))(REL-NNP (canal)))(REL-VP (REL-VBD (return)))(PP (TO (to)))(REL-NP (REL-NNP (panama))))) |BT| (ROOT (S (REL-NP (REL-NNP (canal)))(REL-NP (POS ('s))(NNP (final))(REL-NNP (return))(NNP (colors))(NNP (vote)))(PP (IN (in)))(REL-NP (REL-NNP (panama))))) |BT| (ROOT (S (ADVP (WRB (when)))(VP (VBD (be)))(REL-FOCUS-NUM-NP (DT (the))(REL-NNP (panama))(REL-NNP (canal)))(REL-VP (REL-VBD (return)))(PP (TO (to)))(REL-NP (REL-NNP (panama))))) |BT| (ROOT (S (PP (IN (under)))(REL-NP (DT (the))(REL-NNP (panama))(REL-NNP (canal))(NNP (treaty)))(REL-NP (DT (the))(NNP (u.s.))(CC (and))(REL-NNP (panama)))(VP (VBD (sign)))(PP (IN (in)))(REL-FOCUS-NUM-NP (CD (1977)))(NP (DT (the))(NNP (u.s.)))(REL-VP (MD (must))(REL-VB (return)))(NP (DT (the))(JJ (interoceanic))(NN (waterway)))(PP (TO (to)))(REL-NP (REL-NNP (panama)))(PP (IN (before)))(REL-FOCUS-NUM-NP (NNP (december))(CD (31))(CD (1999))))) |ET| 11:0.48330167 12:0.42583123 13:0.12838815 14:0.63552225 15:0.44179717 16:0.35257748  |BV| 1:0.55432189 2:0.41298059 3:0.49319696 4:0.32536259 5:0.38376129 6:0.13926212 7:0.086066298 8:0.097590007 9:0.06537205 10:0.038836781 11:0.53760332 12:0.46114299 13:0.18609685 14:0.72994888 15:0.55472839 16:0.35109103  |EV| 
-0.82625616384198385944159781502094  |BT| (ROOT (S (ADVP (WRB (how)))(REL-NP (JJ (many))(REL-JJ (olympic))(REL-NN (gold))(REL-NNS (medal)))(VP (VBD (do)))(REL-FOCUS-NUM-NP (NNP (carl))(REL-NNP (lewis)))(REL-VP (REL-VBP (win))))) |BT| (ROOT (S (REL-NP (REL-NNP (lewis)))(VP (VBD (be)))(NP (DT (a))(NN (member)))(PP (IN (of)))(REL-NP (CD (five))(NNP (u.s.))(REL-NNP (olympic))(NNS (team)))(REL-VP (REL-VBG (win)))(REL-NP (CD (four))(REL-NN (gold))(REL-NNS (medal)))(PP (IN (at)))(REL-FOCUS-NUM-NP (DT (the))(CD (1984))(NNPS (olympics)))(PP (IN (in)))(NP (NNP (los))(NNP (angeles)))(NP (PRP$ (he))(NN (career)))(PP (IN (with)))(REL-NP (DT (a))(JJ (record-tying))(JJ (ninth))(REL-NNP (olympic))(REL-NN (gold))(REL-NN (medal)))(PP (IN (in)))(NP (DT (the))(JJ (long))(NN (jump)))(PP (IN (at)))(REL-FOCUS-NUM-NP (DT (the))(CD (1996))(NNP (atlanta))(NNPS (olympics))))) |BT| (ROOT (S (ADVP (WRB (how)))(REL-NP (JJ (many))(REL-JJ (olympic))(REL-NN (gold))(REL-NNS (medal)))(VP (VBD (do)))(REL-FOCUS-NUM-NP (REL-NNP (carl))(REL-NNP (lewis)))(REL-VP (REL-VBP (win))))) |BT| (ROOT (S (NP (NNP (sydney)))(NP (NNP (australia))(NNP (ap)))(REL-NP (REL-NNP (carl))(REL-NNP (lewis)))(NP (NN (winner)))(PP (IN (of)))(REL-NP (CD (nine))(REL-JJ (olympic))(REL-JJ (gold))(REL-NNS (medal)))(VP (VBZ (think)))(SBAR (IN (that)))(NP (DT (the))(NN (position)))(PP (IN (of)))(REL-VP (VBG (try))(TO (to))(REL-VB (win)))(REL-NP (CD (five))(REL-VBZ (gold)))(PP (IN (at)))(NP (DT (the))(NNP (sydney))(NNPS (games))))) |ET| 1:0.2409658 2:0.17742765 3:0.31948924 4:0.12698413 5:0.23239715 6:0.052613359 7:0.097243331 8:0.036661781 9:0.070014 11:0.35645688 12:0.30262509 13:0.079697087 14:0.54547554 15:0.34642184 16:0.424943  |BV| 1:0.31304953 2:0.24595948 3:0.50964719 4:0.19087905 5:0.40166321 6:0.11354659 7:0.23947375 8:0.078567423 9:0.1721326 10:0.030642571 11:0.33072245 12:0.27701417 13:0.056373451 14:0.58501434 15:0.28432715 16:0.48514736  |EV| 
0.82625616384198385944159781502094  |BT| (ROOT (S (NP (WP (what)))(VP (VBZ (be)))(REL-FOCUS-LOC-NP (DT (the))(REL-JJS (richest))(REL-NN (country)))(PP (IN (in)))(REL-NP (DT (the))(REL-NN (world))))) |BT| (ROOT (S (REL-FOCUS-LOC-NP (DT (the))(NNP (united))(NNP (states)))(VP (VBZ (be))(VBN (rate)))(REL-NP (DT (the))(JJ (sixth))(REL-JJS (richest))(REL-NN (country)))(PP (IN (in)))(REL-NP (DT (the))(REL-NN (world)))(PP (IN (with)))(REL-FOCUS-LOC-NP (NNP (britain)))(NP (DT (the))(JJ (18th))))) |BT| (ROOT (S (NP (WP (what)))(VP (VBZ (be)))(REL-FOCUS-LOC-NP (DT (the))(REL-JJS (richest))(REL-NN (country)))(PP (IN (in)))(REL-NP (DT (the))(REL-NN (world))))) |BT| (ROOT (S (NP (PRP (we)))(VP (VBP (be)))(REL-NP (DT (the))(REL-JJS (richest))(REL-NN (country)))(PP (IN (in)))(REL-NP (DT (the))(REL-NN (world))))(S (NP (PDT (all))(DT (the))(NN (way)))(PP (TO (to)))(REL-FOCUS-LOC-NP (NNP (canada))))) |ET| 1:0.72786027 2:0.58138776 3:0.54232615 4:0.50636965 5:0.5 6:0.32461724 7:0.44721359 8:0.29277003 9:0.37796447 10:0.25751311 11:0.54194373 12:0.48809353 13:0.31173983 14:0.82179451 15:0.74270707 16:0.24553575  |BV| 1:0.4710412 2:0.42820746 3:0.57735026 4:0.40184253 5:0.53452247 6:0.34698415 7:0.48038447 8:0.32897586 9:0.40824828 10:0.30960941 11:0.44670257 12:0.41821054 13:0.32558277 14:0.72346967 15:0.74664563 16:0.24553575  |EV| 
-0.82625616384198385944159781502094  |BT| (ROOT (S (ADVP (WRB (how))(RB (long)))(SBAR (IN (before)))(REL-FOCUS-NUM-NP (REL-NN (bankruptcy)))(VP (VBZ (be))(VBN (remove)))(PP (IN (from)))(REL-NP (DT (a))(REL-NN (credit))(REL-NN (report))))) |BT| (ROOT (S (NP (CD (three))(JJ (non-bank))(NNS (affiliate)))(PP (IN (of)))(REL-NP (DT (the))(VBN (trouble))(NNP (long-term))(REL-NNP (credit))(NNP (bank)))(PP (IN (of)))(NP (NNP (japan)))(NP (CD (one)))(PP (IN (of)))(REL-NP (DT (the))(JJS (largest))(REL-NNS (bankruptcy)))(PP (IN (in)))(NP (NNP (japan)))(SBAR (IN (since)))(NP (NNP (world))(NNP (war))(NNP (ii)))(REL-NP (REL-NNS (report)))(VP (VBD (say)))(REL-FOCUS-NUM-NP (NNP (monday))))) |BT| (ROOT (S (ADVP (WRB (how))(RB (long)))(SBAR (IN (before)))(REL-FOCUS-NUM-NP (REL-NN (bankruptcy)))(VP (VBZ (be))(VBN (remove)))(PP (IN (from)))(REL-NP (DT (a))(REL-NN (credit))(REL-NN (report))))) |BT| (ROOT (S (NP (PRP$ (its))(NN (way)))(PP (TO (to)))(REL-NP (PRP$ (you))(REL-NN (credit))(REL-NN (report)))(NP (PRP (it)))(VP (VBZ (stay)))(NP (NN (consumer))(NN (education)))(PP (IN (for)))(REL-NP (REL-NN (credit))(NN (reporting))(NN (service))(NN (experian))))(S (REL-NP (NN (chapter))(CD (7))(REL-NNS (bankruptcy)))(VP (MD (will))(VB (remain)))(PP (IN (on)))(REL-NP (PRP$ (you))(REL-NN (report)))(PP (IN (for)))(NP (CD (10))(NNS (year))))(S (REL-NP (NNP (chapter))(CD (13))(REL-NNS (bankruptcy)))(NP (DT (that)))(VP (VBZ (be))))) |ET| 1:0.10241831 2:0.05763904 3:0.093352012 4:0.041403931 5:0.068041377 11:0.29156679 12:0.25208163 13:0.09525793 14:0.45834509 15:0.30172345 16:0.22917122  |BV| 1:0.28977484 2:0.1820063 3:0.2561166 4:0.13046561 5:0.18761969 6:0.01866959 7:0.046175711 8:0.01283001 9:0.03350126 11:0.61386687 12:0.53464425 13:0.23063534 14:0.64645213 15:0.4480502 16:0.23004016  |EV| 
-0.80282516876759424384601970814401  |BT| (ROOT (S (NP (WP (who)))(VP (VBZ (be)))(REL-FOCUS-HUM-NP (DT (the))(NN (author)))(PP (IN (of)))(NP (DT (the))(NN (poem)))(REL-NP (DT (the))(REL-JJ (midnight))(REL-NNP (ride)))(PP (IN (of)))(REL-NP (REL-NNP (paul))(REL-NNP (revere))))) |BT| (ROOT (S (NP (CD (one))(NN (stop)))(VP (VBZ (be)))(REL-FOCUS-HUM-NP (REL-NNP (paul))(REL-NNP (revere)))(NP (POS ('s))(NN (house)))(VP (VBN (build))))(S (VP (MD ('ll))(VB (learn)))(SBAR (IN (that)))(REL-NP (REL-NNP (revere)))(REL-NP (POS ('s))(REL-NN (midnight))(REL-NN (ride)))(VP (VBD (be)))(ADVP (RB (partly))))(S (NP (PRP (he)))(REL-VP (VBD (do))(RB (not))(REL-VB (ride)))(PP (IN (through)))(NP (DT (the))(NNS (street))))) |BT| (ROOT (S (NP (WP (who)))(VP (VBZ (be)))(REL-FOCUS-HUM-NP (DT (the))(NN (author)))(PP (IN (of)))(NP (DT (the))(NN (poem)))(REL-NP (DT (the))(REL-JJ (midnight))(REL-NNP (ride)))(PP (IN (of)))(REL-NP (NNP (paul))(REL-NNP (revere))))) |BT| (ROOT (S (PP (IN (in)))(NP (CD (1775)))(REL-NP (REL-NNP (revere)))(VP (VBD (gallop)))(PRT (RP (out))))(S (REL-NP (PRP$ (he))(REL-NN (midnight))(NN (mission)))(VP (MD (would))(VB (be))(VBN (immortalize)))(PP (IN (in)))(REL-FOCUS-HUM-NP (NNP (henry))(NNP (wadsworth))(NNP (longfellow)))(REL-NP (POS ('s))(JJ (''paul))(REL-NNP (revere)))(REL-NP (POS ('s))(REL-NNP (ride))))) |ET| 1:0.43581364 2:0.29570854 3:0.19626717 4:0.21751282 5:0.14170505 6:0.03624402 7:0.046675999 8:0.02478789 9:0.033557799 11:0.47760561 12:0.4020012 13:0.10499242 14:0.74512476 15:0.54279119 16:0.38248953  |BV| 1:0.35673863 2:0.22037388 3:0.16566306 4:0.16142102 5:0.11846978 11:0.56837434 12:0.4887318 13:0.19189563 14:0.76549208 15:0.48467109 16:0.3646526  |EV| 
-0.82625616384198385944159781502094  |BT| (ROOT (S (REL-FOCUS-ENTY-NP (WP (what))(REL-NN (liverpool))(NN (club)))(VP (VBD (spawn)))(REL-NP (DT (the))(REL-NNP (beatles))))) |BT| (ROOT (S (NP (NNS (people)))(PP (IN (in)))(REL-NP (REL-NN (liverpool)))(NP (DT (a))(VBD (fade))(JJ (port))(NN (city)))(PP (IN (of)))(NP (DT (the))(JJ (potential))(NN (impact)))(PP (IN (of)))(REL-FOCUS-ENTY-NP (DT (the))(REL-NNP (beatles)))(PP (IN (on)))(NP (DT (the))(JJ (local))(NN (economy))))(S (NP (WP (who)))(VP (VBP (visit)))(REL-NP (REL-NNP (liverpool)))(NP (DT (each))(NN (year)))(NP (IN (about))(CD (500,000)))(VP (VBN (come)))(PP (IN (because))(IN (of)))(REL-FOCUS-ENTY-NP (DT (the))(REL-NNP (beatles)))(PP (VBG (accord)))(PP (TO (to)))(NP (DT (the))(NNP (merseyside))(NNP (tourism)))(REL-FOCUS-ENTY-NP (NNP (conference))(NNP (bureau))))) |BT| (ROOT (S (REL-FOCUS-ENTY-NP (WP (what))(REL-NN (liverpool))(REL-NN (club)))(VP (VBD (spawn)))(NP (DT (the))(NNP (beatles))))) |BT| (ROOT (S (REL-NP (NNP (mccartney-liverpool))(REL-NN (liverpool)))(NP (NNP (england)))(REL-FOCUS-ENTY-NP (NNP (paul))(NNP (mccartney))(NNS (return)))(PP (TO (to)))(REL-NP (REL-NNP (liverpool)))(REL-NP (POS ('s))(NNP (cavern))(REL-NNP (club))))(S (PP (IN (by)))(REL-FOCUS-ENTY-NP (NNP (allan))(NNP (kozinn))))) |ET| 1:0.30358836 2:0.22188008 3:0.15289415 4:0.1672484 5:0.1132277 6:0.052686341 8:0.037562411 11:0.34900504 12:0.30253169 13:0.066805989 14:0.59342736 15:0.35777465 16:0.2679514  |BV| 1:0.080582298 2:0.043314811 3:0.078811042 4:0.03068582 5:0.058025889 11:0.28246635 12:0.24358869 13:0.064549722 14:0.49053022 15:0.32913232 16:0.2668713  |EV| 
-0.82625616384198385944159781502094  |BT| (ROOT (S (ADVP (WRB (how)))(NP (JJ (old)))(VP (VBZ (be)))(REL-FOCUS-NUM-NP (DT (the))(REL-NNP (red))(REL-NNP (pyramid))))) |BT| (ROOT (S (REL-NP (DT (the))(REL-NN (pyramid)))(VP (VBD (believe))(TO (to))(VB (be)))(NP (DT (the))(NN (burial))(NN (site)))(NP (NNP (king))(NNP (sneferu)))(VP (VBZ (be))(VBN (call)))(REL-NP (REL-NNP (red))(REL-NNP (pyramid)))(VP (VBN (color)))(PP (IN (by))))) |BT| (ROOT (S (ADVP (WRB (how)))(NP (JJ (old)))(VP (VBZ (be)))(REL-FOCUS-NUM-NP (DT (the))(NNP (red))(REL-NNP (pyramid))))) |BT| (ROOT (S (NP (DT (the))(NN (restoration))(NN (work)))(PP (IN (on)))(REL-FOCUS-NUM-NP (DT (the))(JJ (4,500-year-old))(REL-NN (pyramid)))(PP (IN (of)))(NP (NNP (khafra)))(NP (NN (director)))(PP (IN (of)))(REL-NP (NNP (giza))(REL-NNS (pyramid))(CC (and))(NNS (antiquity))))) |ET| 1:0.41833001 2:0.30960941 3:0.36115757 4:0.22485951 5:0.30151135 6:0.086146101 7:0.21821789 8:0.06085806 9:0.18257418 11:0.29083753 12:0.24514517 13:0.0556846 14:0.62627155 15:0.46015605 16:0.24925126  |BV| 1:0.09600307 2:0.05465623 4:0.039420828 11:0.24449661 12:0.20868251 13:0.020672459 14:0.53375769 15:0.33270904 16:0.18879563  |EV| 
-0.085275067884905270121365106206213  |BT| (ROOT (S (REL-FOCUS-DESC-NP (WP (what))(REL-NN (canal)))(VP (VBZ (be)))(PP (IN (between)))(REL-NP (DT (the))(REL-NNP (mediterranean))(REL-NNP (sea)))(REL-NP (DT (the))(REL-NNP (red))(REL-NNP (sea))))) |BT| (ROOT (S (VP (VBG (pass)))(PP (IN (through)))(REL-NP (DT (the))(REL-NN (canal)))(NP (WDT (which)))(VP (VBZ (link)))(REL-NP (DT (the))(REL-NNP (mediterranean)))(REL-NP (DT (the))(REL-NNP (red))(REL-NNP (sea))))) |BT| (ROOT (S (REL-FOCUS-DESC-NP (WP (what))(REL-NN (canal)))(VP (VBZ (be)))(PP (IN (between)))(REL-NP (DT (the))(REL-NNP (mediterranean))(NNP (sea)))(REL-NP (DT (the))(REL-NNP (red))(NNP (sea))))) |BT| (ROOT (S (NP (CD (1869)))(REL-NP (NNP (suez))(REL-NNP (canal)))(VP (VBZ (open)))(PP (IN (in)))(NP (NNP (egypt)))(VP (VBG (link)))(REL-NP (REL-NNP (mediterranean))(CC (and))(REL-NNP (red))(NNP (seas))))) |ET| 1:0.60104078 2:0.46056619 3:0.34815532 4:0.3725704 5:0.2567763 6:0.1798472 7:0.07559289 8:0.14470719 9:0.05555556 10:0.096373878 11:0.55524719 12:0.50451028 13:0.33379599 14:0.74368984 15:0.81306982 16:0.37912002  |BV| 1:0.20044594 2:0.11111111 3:0.14625448 4:0.078974716 5:0.10910895 11:0.58686119 12:0.50489342 13:0.21629523 14:0.72410595 15:0.56016982 16:0.43162468  |EV| 
0.82625616384198385944159781502094  |BT| (ROOT (S (NP (WP (what))(NN (river)))(VP (VBZ (be))(VBN (call)))(NP (NNP (china)))(REL-NP (POS ('s))(REL-JJ (sorrow))))) |BT| (ROOT (S (NP (DT (the))(NN (cradle)))(PP (IN (of)))(REL-NP (JJ (chinese))(NN (civilization))(CC (and))(DT (the))(REL-NN (sorrow)))(PP (IN (of)))(NP (DT (the))(JJ (chinese))(NN (nation))))) |BT| (ROOT (S (REL-NP (WP (what))(REL-NN (river)))(VP (VBZ (be))(VBN (call)))(REL-NP (REL-NNP (china)))(REL-NP (REL-POS ('s))(REL-JJ (sorrow))))) |BT| (ROOT (S (NP (DT (a))(JJ (annual))(NN (occurrence)))(PP (IN (in)))(REL-NP (REL-NNP (china)))(NP (WDT (that)))(VP (VBZ (have))(VBN (take)))(ADVP (RB (especially)))(PP (IN (along)))(REL-NP (DT (the))(REL-NN (river)))(VP (VBN (dub)))(REL-NP (REL-NNP (china)))(REL-NP (REL-POS ('s))(REL-NNP (sorrow)))(PP (IN (because))(IN (of)))(NP (PRP$ (its))(NN (flooding))))) |ET| 1:0.33557802 2:0.20901483 3:0.064150028 4:0.15638369 5:0.046829291 11:0.24184744 12:0.198373 14:0.5082944 15:0.27053779 16:0.2103011  |BV| 1:0.22541741 2:0.15324283 3:0.32075015 4:0.10925356 5:0.23414645 6:0.030556619 7:0.078811042 8:0.02116669 9:0.058025889 11:0.32861453 12:0.28174767 13:0.14507967 14:0.64691156 15:0.53276747 16:0.27086535  |EV| 
0.82625616384198385944159781502094  |BT| (ROOT (S (NP (WP (what)))(VP (VBZ (be)))(REL-FOCUS-LOC-NP (DT (the))(REL-JJS (deepest))(REL-NN (lake)))(PP (IN (in)))(NP (NNP (america))))) |BT| (ROOT (S (NP (NNP (a:)))(PP (IN (at)))(REL-NP (PRP$ (its))(REL-JJS (deepest))(NN (point)))(REL-FOCUS-LOC-NP (REL-NNP (lake))(NNP (tahoe)))(VP (VBZ (go)))(NP (CD (1,640))(NNS (foot))))(S (REL-FOCUS-LOC-NP (NNP (oregon)))(REL-FOCUS-LOC-NP (POS ('s))(NNP (crater))(REL-NNP (lake)))(VP (VBZ (top)))(NP (PRP (it))))) |BT| (ROOT (S (NP (WP (what)))(VP (VBZ (be)))(REL-FOCUS-LOC-NP (DT (the))(REL-JJS (deepest))(REL-NN (lake)))(PP (IN (in)))(NP (NNP (america))))) |BT| (ROOT (S (VP (VBD (be))(VBG (vacation)))(PP (IN (in)))(REL-FOCUS-LOC-NP (NNP (california)))(PP (IN (at)))(REL-FOCUS-LOC-NP (REL-NNP (lake))(NNP (tahoe)))(NP (PRP (i)))(VP (VBD (be))(VBN (tell)))(NP (CD (one)))(PP (IN (of)))(REL-NP (DT (the))(REL-JJS (deepest))(REL-NNS (lake)))(PP (IN (in)))(REL-FOCUS-LOC-NP (DT (the))(NNP (united))(NNP (states))))(S (NP (PRP (it)))(VP (VBZ (be)))(REL-NP (DT (the))(REL-JJS (deepest))(NN (one)))(NP (WP (what)))(VP (VBZ (be))))) |ET| 1:0.048564289 2:0.0270666 3:0.073521458 4:0.019596551 5:0.056613851 11:0.30733234 12:0.25353625 13:0.04321358 14:0.67421645 15:0.53521967 16:0.21508151  |BV| 1:0.6043672 2:0.46945253 3:0.37300193 4:0.38193062 5:0.28867513 6:0.21571673 7:0.13245323 8:0.17432545 9:0.11111111 10:0.1058677 11:0.47734618 12:0.39691114 13:0.16732155 14:0.81551301 15:0.71715999 16:0.29781342  |EV| 
0.82625616384198385944159781502094  |BT| (ROOT (S (REL-FOCUS-DESC-NP (WP (what))(REL-NN (canal)))(VP (VBZ (be)))(PP (IN (between)))(REL-NP (DT (the))(REL-NNP (mediterranean))(NNP (sea)))(REL-NP (DT (the))(REL-NNP (red))(NNP (sea))))) |BT| (ROOT (S (NP (CD (1869)))(REL-NP (NNP (suez))(REL-NNP (canal)))(VP (VBZ (open)))(PP (IN (in)))(NP (NNP (egypt)))(VP (VBG (link)))(REL-NP (REL-NNP (mediterranean))(CC (and))(REL-NNP (red))(NNP (seas))))) |BT| (ROOT (S (REL-FOCUS-DESC-NP (WP (what))(REL-NN (canal)))(VP (VBZ (be)))(PP (IN (between)))(REL-NP (DT (the))(REL-NNP (mediterranean))(REL-NNP (sea)))(REL-NP (DT (the))(REL-NNP (red))(REL-NNP (sea))))) |BT| (ROOT (S (REL-NP (DT (the))(REL-NN (canal)))(VP (VBG (link)))(REL-NP (DT (the))(REL-NNP (mediterranean)))(REL-NP (DT (the))(REL-NNP (red))(REL-NNP (sea)))(VP (VBD (be))(VBN (open)))(PP (IN (in))))) |ET| 1:0.20044594 2:0.11111111 3:0.14625448 4:0.078974716 5:0.10910895 11:0.58686119 12:0.50489342 13:0.21629523 14:0.72410595 15:0.56016982 16:0.43162468  |BV| 1:0.61871845 2:0.48507124 3:0.43876344 4:0.39582625 5:0.32732683 6:0.21524879 7:0.097590007 8:0.1739164 9:0.072739303 10:0.11633501 11:0.53015757 12:0.47322872 13:0.29633364 14:0.77058643 15:0.80803794 16:0.43162468  |EV| 
-0.57725934097729103555707297346089  |BT| (ROOT (S (NP (WP (what)))(VP (VBG (sport)))(REL-NP (REL-NN (event)))(ADVP (RB (first)))(VP (VBD (take)))(REL-FOCUS-ENTY-NP (REL-NN (place)))(PP (IN (in)))(NP (CD (1903))))) |BT| (ROOT (S (PP (IN (by)))(NP (CD (two))(NNS (channel)))(REL-FOCUS-ENTY-NP (NNP (espn))(NNP (classic)))(NP (NNP (fox))(NNP (sports))(JJ (net)))(NP (WDT (that)))(PP (IN (about)))(ADVP (WRB (when)))(REL-NP (DT (the))(REL-NN (event)))(VP (VBD (take)))(REL-NP (REL-NN (place))))) |BT| (ROOT (S (NP (WP (what)))(VP (VBG (sport)))(REL-NP (REL-NN (event)))(ADVP (RB (first)))(VP (VBD (take)))(REL-FOCUS-ENTY-NP (NN (place)))(PP (IN (in)))(REL-NP (REL-CD (1903))))) |BT| (ROOT (S (PP (IN (around)))(PP (IN (since)))(REL-NP (REL-CD (1903)))(VP (VBG (stop)))(ADVP (RB (only))))(S (ADVP (RBR (more)))(PP (IN (than)))(REL-NP (DT (any))(JJ (other))(JJ (regular))(JJ (sporting))(REL-NN (event)))(SBAR (IN (because)))(NP (PRP (it))))) |ET| 1:0.15617377 2:0.11202241 3:0.21055873 4:0.078567423 5:0.15430336 6:0.031544011 7:0.086066298 8:0.021931721 9:0.06537205 11:0.41391867 12:0.34320325 13:0.085183538 14:0.72868687 15:0.56035453 16:0.24992019  |BV| 1:0.089087076 2:0.048751488 3:0.13159034 4:0.034380712 5:0.096225038 11:0.24307092 12:0.20217343 13:0.018712031 14:0.61959684 15:0.52173233 16:0.26135856  |EV| 
-0.099317677186371591813163206552417  |BT| (ROOT (S (REL-FOCUS-LOC-NP (WP (what))(REL-NN (city)))(NP (POS ('s))(JJS (biggest))(NN (shopping))(NN (district)))(VP (VBZ (be))(VBN (call)))(REL-NP (DT (the))(REL-NNP (ginza))(NNP (district))))) |BT| (ROOT (S (REL-FOCUS-LOC-NP (NNP (takamatsu,))(NNP (japan)))(REL-NP (DT (the))(REL-NN (ginza)))(VP (VBG (shop)))(NP (NN (street)))(NP (DT (the))(NN (island)))(PP (IN (of)))(REL-FOCUS-LOC-NP (NNP (shikoku)))(VP (VBZ (look)))(ADVP (RB (much)))(PP (IN (like)))(REL-NP (DT (the))(REL-NN (ginza)))(PP (IN (of)))(REL-NP (DT (any))(JJ (other))(RB (moderately))(JJ (sized))(REL-NN (city)))(ADVP (RB (here))))) |BT| (ROOT (S (REL-FOCUS-LOC-NP (WP (what))(NN (city)))(REL-NP (REL-POS ('s))(JJS (biggest))(REL-NN (shopping))(REL-NN (district)))(VP (VBZ (be))(VBN (call)))(REL-NP (DT (the))(REL-NNP (ginza))(REL-NNP (district))))) |BT| (ROOT (S (NP (DT (the))(NN (heart)))(PP (IN (of)))(REL-NP (REL-NNP (ginza)))(REL-FOCUS-LOC-NP (NNP (tokyo)))(REL-NP (REL-POS ('s))(JJS (most))(JJ (exclusive))(REL-NN (shopping))(REL-NN (district))))) |ET| 1:0.16169041 2:0.090466253 3:0.04794633 4:0.064100593 5:0.034079909 11:0.3281059 12:0.27747518 13:0.015713479 14:0.57774234 15:0.43277222 16:0.35062566  |BV| 1:0.34426519 2:0.21669453 3:0.22473329 4:0.15362747 5:0.1574852 6:0.02840955 7:0.04981355 8:0.019574011 9:0.03513642 11:0.42816284 12:0.36212534 13:0.0451754 14:0.69211453 15:0.63639504 16:0.30617404  |EV| 
0.13326872374378101460123957622272  |BT| (ROOT (S (NP (WP (what)))(VP (VBZ (be)))(REL-FOCUS-ENTY-NP (DT (the))(JJ (scientific))(NN (name)))(PP (IN (for)))(REL-NP (REL-JJ (red))(REL-NNS (ant))))) |BT| (ROOT (S (VP (VBP (have))(VBN (be))(VBN (sting)))(PP (IN (by)))(REL-NP (DT (any))(REL-JJ (ant))(NNS (chance)))(VP (VBP (be)))(NP (PRP (it)))(VP (VBD (be)))(NP (DT (a))(NNP (solenopsis))(NN (invicta)))(REL-NP (DT (the))(REL-JJ (red))(VBN (import))(NN (fire))(REL-NN (ant)))(VP (VBZ (say)))(NP (NNP (bart))(NNP (drees)))(NP (NN (coordinator)))(PP (IN (of)))(REL-FOCUS-ENTY-NP (DT (the))(NNP (texas))(NNP (imported))(NNP (fire))(REL-NNP (ant))(NNP (research))(CC (and))(NNP (management))(NNP (project)))(PP (IN (at)))(REL-FOCUS-ENTY-NP (NNP (texas))(NNP (a&amp;m))(NNP (university))))) |BT| (ROOT (S (NP (WP (what)))(VP (VBZ (be)))(REL-FOCUS-ENTY-NP (DT (the))(JJ (scientific))(NN (name)))(PP (IN (for)))(REL-NP (REL-JJ (red))(NNS (ant))))) |BT| (ROOT (S (REL-NP (NNP (crazy))(NNP (ants))(NNP (attack))(REL-NNP (red))(NNPS (crabs))))) |ET| 1:0.32102895 2:0.18093251 3:0.19569843 4:0.12991396 5:0.1496264 11:0.21002924 12:0.1801585 13:0.045722999 14:0.52957416 15:0.41540998 16:0.22839105  |BV| 14:0.17874357 15:0.1464994 16:0.25498095  |EV| 
0.035824090489081653054803666691441  |BT| (ROOT (S (REL-FOCUS-NUM-NP (WRB (how))(JJ (many))(REL-NNS (chromosome)))(VP (VBZ (do)))(REL-NP (DT (a))(REL-NN (human))(NN (zygote)))(VP (VBP (have))))) |BT| (ROOT (S (NP (EX (there)))(VP (VBP (be)))(REL-NP (CD (46))(VBN (pair))(REL-NNS (chromosome)))(PP (IN (in)))(REL-NP (DT (a))(REL-JJ (human))(NN (being)))(NP (POS ('s))(NN (cell))(NN (nucleus))))(S (NP (DT (the))(VBN (complicate))(JJ (wrong))(NN (connection)))(PP (IN (of)))(REL-NP (REL-NNS (chromosome)))(VP (VBZ (refer)))(PP (TO (to)))(NP (DT (the))(NN (misconnection)))(PP (IN (of)))(REL-NP (JJR (more))(IN (than))(CD (two))(REL-NNS (chromosome))))) |BT| (ROOT (S (REL-FOCUS-NUM-NP (WRB (how))(JJ (many))(REL-NNS (chromosome)))(VP (VBZ (do)))(REL-NP (DT (a))(REL-NN (human))(NN (zygote)))(VP (VBP (have))))) |BT| (ROOT (S (NP (DT (the))(NN (history)))(PP (IN (of)))(REL-NP (DT (a))(JJ (particular))(REL-JJ (human))(REL-NN (chromosome)))(NP (NNP (florence))(NNP (richard)))(NP (NNS (colleague)))(VP (VBD (look)))(PP (IN (for)))(REL-NP (JJ (analogous))(REL-NNS (chromosome)))(REL-NP (REL-NN (chromosome))(NNS (fragment)))(PP (IN (in)))(NP (JJ (other))(JJ (mammalian))(NNS (fragment))))) |ET| 1:0.26028961 2:0.17518716 3:0.38924947 4:0.125 5:0.30429032 6:0.034815531 7:0.11547005 8:0.02424643 9:0.096225038 11:0.41437098 12:0.34301332 13:0.071007162 14:0.6151402 15:0.39020145 16:0.27736947  |BV| 1:0.26352313 2:0.14391842 3:0.27937213 4:0.10155556 5:0.21821789 11:0.33880195 12:0.28474739 13:0.083992109 14:0.55843371 15:0.33985564 16:0.26530954  |EV| 
0.82625616384198385944159781502094  |BT| (ROOT (S (NP (WP (what)))(VP (VBZ (be)))(REL-FOCUS-ENTY-NP (DT (another))(NN (name)))(PP (IN (for)))(REL-NP (DT (the))(REL-NNP (north))(REL-NNP (star))))) |BT| (ROOT (S (VP (NNS (point)))(PRT (IN (out)))(REL-NP (DT (some))(JJR (more))(VBG (emerge))(REL-NNS (star))))(S (REL-FOCUS-ENTY-NP (DT (the))(NNP (big))(NNP (dipper)))(NP (POS ('s))(NN (beginning)))(VP (TO (to))(VB (peek))))(S (VP (VB (see)))(REL-NP (DT (the))(CD (three))(REL-NNS (star)))(VP (VBG (make)))(PRT (RP (up))))(S (PP (IN (of)))(NP (DT (the))(NN (bucket)))(REL-NP (DT (those))(CD (two))(REL-NNS (star)))(VP (VBP (be)))(REL-NP (JJ (pointer))(REL-NNS (star)))(NP (PRP (they)))(VP (VBP (point)))(PP (IN (toward)))(NP (NNP (polaris)))(REL-NP (DT (the))(REL-NNP (north))(REL-NNP (star))))) |BT| (ROOT (S (NP (WP (what)))(VP (VBZ (be)))(REL-FOCUS-ENTY-NP (DT (another))(NN (name)))(PP (IN (for)))(REL-NP (DT (the))(REL-NNP (north))(REL-NNP (star))))) |BT| (ROOT (S (PP (IN (for)))(NP (NNP (canada)))(REL-NP (DT (a))(JJ (former))(REL-NNP (north))(NNP (carolina))(NNP (state))(REL-NN (star)))(VP (VBN (name)))(NP (NNP (charmaine))(NNP (hooper))))) |ET| 1:0.29838911 2:0.21209125 3:0.21821789 4:0.16839384 5:0.18677184 6:0.066178262 7:0.14586499 8:0.045947678 9:0.12038585 10:0.024049301 11:0.54527855 12:0.47190741 13:0.2399608 14:0.72969502 15:0.57566845 16:0.2019072  |BV| 1:0.3149704 2:0.16657415 3:0.10050378 4:0.11631053 5:0.083333328 11:0.48990813 12:0.41263703 13:0.14824986 14:0.74227774 15:0.40527752 16:0.19313404  |EV| 
0.82625616384198385944159781502094  |BT| (ROOT (S (NP (WP (what))(NN (building)))(VP (VBZ (be)))(REL-FOCUS-LOC-NP (DT (the))(REL-NNP (academy)))(PP (IN (of)))(REL-NP (REL-NNP (country))(REL-NNP (music))(REL-NNP (awards)))(VP (VBD (hold)))(PP (IN (in))))) |BT| (ROOT (S (NP (NNS (winner)))(PP (IN (of)))(REL-NP (DT (the))(JJ (34th))(JJ (annual))(REL-NNP (academy)))(PP (IN (of)))(REL-NP (REL-NNP (country))(REL-NNP (music))(REL-NNP (awards)))(VP (VBD (present)))(PP (IN (at))))) |BT| (ROOT (S (NP (WP (what))(NN (building)))(VP (VBZ (be)))(REL-FOCUS-LOC-NP (DT (the))(REL-NNP (academy)))(PP (IN (of)))(REL-NP (REL-NNP (country))(REL-NNP (music))(REL-NNP (awards)))(VP (VBD (hold)))(PP (IN (in))))) |BT| (ROOT (S (NP (NNP (web))(NN (site)))(PP (IN (for)))(REL-NP (REL-NNP (academy)))(PP (IN (of)))(REL-NP (REL-NNP (country))(REL-NNP (music))(REL-NNP (awards)))(NP (NN (http))(NN (://www.acmcountry))))) |ET| 1:0.51639777 2:0.42294443 3:0.48420012 4:0.37302354 5:0.44721359 6:0.2836543 7:0.40422603 8:0.25354627 9:0.35355338 10:0.22075538 11:0.7258662 12:0.67594123 13:0.5 14:0.83435714 15:0.76044559 16:0.32944646  |BV| 1:0.41666666 2:0.39130434 3:0.51189071 4:0.36363637 5:0.47434166 6:0.33333334 7:0.43033147 8:0.30000001 9:0.37796447 10:0.2631579 11:0.67333144 12:0.6105625 13:0.36380345 14:0.79493111 15:0.71086782 16:0.33857152  |EV| 
-0.82625616384198385944159781502094  |BT| (ROOT (S (REL-FOCUS-ENTY-NP (DT (the))(REL-NN (duomo))))) |BT| (ROOT (S (NP (DT (the))(NN (bell))(NN (tower)))(PP (IN (of)))(REL-NP (DT (the))(REL-NN (duomo))))(S (PP (IN (from)))(NP (DT (the))(NN (top)))(REL-FOCUS-ENTY-NP (NNP (rosato)))(VP (VBZ (say)))(NP (PRP (it))))(S (NP (DT (the))(JJ (golden))(JJ (snowflaked))(NN (ceiling)))(PP (IN (of)))(REL-NP (DT (the))(REL-NN (duomo))(NNS (cheer)))(NP (PRP (she))))) |BT| (ROOT (S (REL-FOCUS-ENTY-NP (DT (the))(REL-NN (duomo))))) |BT| (ROOT (S (PP (IN (of)))(NP (NNP (florence)))(REL-NP (DT (the))(JJ (central))(NNP (piazza))(FW (del))(REL-NNP (duomo)))(VP (VBD (be))(VBN (close)))(PP (TO (to))))) |ET| 1:0.32907259 2:0.25444156 3:0.24806947 4:0.19827063 5:0.20851441 6:0.071842119 8:0.054192781 11:0.46407509 12:0.41654861 13:0.19145551 14:0.60548097 15:0.45616952 16:0.19202623  |BV| 1:0.13867505 2:0.079242893 4:0.059628479 11:0.20272121 12:0.17787813 14:0.46677083 15:0.25345433 16:0.16806813  |EV| 
-0.82625616384198385944159781502094  |BT| (ROOT (S (NP (WP (what)))(VP (VBG (sport)))(REL-NP (REL-NN (event)))(ADVP (RB (first)))(VP (VBD (take)))(REL-FOCUS-ENTY-NP (REL-NN (place)))(PP (IN (in)))(NP (CD (1903))))) |BT| (ROOT (S (PP (IN (of)))(NP (CD (1972)))(REL-NP (DT (a))(JJ (transformative))(REL-NN (event)))(PP (IN (of)))(NP (DT (the))(JJ (first))(NN (magnitude)))(VP (VBD (take)))(REL-NP (REL-NN (place)))(PP (IN (for)))(NP (PRP (i)))(REL-NP (DT (a))(REL-NN (event)))(NP (WDT (that)))(ADVP (RB (forever)))(NP (PRP (i)))(VP (VBD (take)))(REL-FOCUS-ENTY-NP (PRP$ (my))(PRP$ (my))(JJ (first))(NN (lsd))(NN (trip)))(NP (WP (what)))(NP (DT (a))(NN (trip))))) |BT| (ROOT (S (NP (WP (what)))(VP (VBG (sport)))(REL-NP (REL-NN (event)))(ADVP (RB (first)))(VP (VBD (take)))(REL-FOCUS-ENTY-NP (NN (place)))(PP (IN (in)))(REL-NP (REL-CD (1903))))) |BT| (ROOT (S (PP (IN (around)))(PP (IN (since)))(REL-NP (REL-CD (1903)))(VP (VBG (stop)))(ADVP (RB (only))))(S (ADVP (RBR (more)))(PP (IN (than)))(REL-NP (DT (any))(JJ (other))(JJ (regular))(JJ (sporting))(REL-NN (event)))(SBAR (IN (because)))(NP (PRP (it))))) |ET| 1:0.35856858 2:0.23020463 3:0.21055873 4:0.16611387 5:0.15811388 6:0.02868877 8:0.01992048 11:0.46346179 12:0.39306957 13:0.15826049 14:0.76842356 15:0.61434317 16:0.28818247  |BV| 1:0.089087076 2:0.048751488 3:0.13159034 4:0.034380712 5:0.096225038 11:0.24307092 12:0.20217343 13:0.018712031 14:0.61959684 15:0.52173233 16:0.26135856  |EV| 
0.7557729629233829182766157828155  |BT| (ROOT (S (REL-NP (WP (what))(REL-CD (1857))(REL-NNP (u.s.))(REL-NNP (supreme))(REL-NNP (court))(REL-NN (decision)))(VP (VBD (deny)))(SBAR (IN (that)))(REL-FOCUS-ENTY-NP (NNS (black)))(VP (VBD (be)))(NP (NNS (citizen))))) |BT| (ROOT (S (VP (VBG (recall)))(REL-FOCUS-ENTY-NP (DT (the))(REL-NNP (u.s.))(REL-NNP (supreme))(REL-NNP (court)))(REL-FOCUS-ENTY-NP (POS ('s))(REL-CD (1857))(NNP (dred))(NNP (scott))(REL-NN (decision)))(NP (WDT (which)))(VP (VBD (reduce))))) |BT| (ROOT (S (REL-NP (WP (what))(CD (1857))(NNP (u.s.))(REL-NNP (supreme))(REL-NNP (court))(REL-NN (decision)))(REL-VP (REL-VBD (deny)))(SBAR (IN (that)))(REL-FOCUS-ENTY-NP (NNS (black)))(VP (VBD (be)))(NP (NNS (citizen))))) |BT| (ROOT (S (PP (IN (in)))(REL-NP (DT (the))(REL-NN (court)))(NP (POS ('s))(JJ (main))(NN (opinion)))(REL-FOCUS-ENTY-NP (NNP (justice))(NNP (anthony))(NNP (m.))(NNP (kennedy)))(VP (VBD (say)))(REL-NP (JJ (federal))(REL-NNS (court)))(VP (MD (could))(RB (not))(VB (help)))(NP (NNP (ramdass)))(SBAR (IN (because)))(NP (PRP (''the)))(REL-FOCUS-ENTY-NP (NNP (virginia))(REL-NNP (supreme))(REL-NNP (court)))(REL-NP (POS ('s))(REL-NN (decision)))(REL-VP (TO (to))(REL-VB (deny)))(NP (PRP (he)))(NP (NN (relief)))(NP (DT (a))(JJ (unreasonable))(NN (application)))(PP (IN (of)))(REL-FOCUS-ENTY-NP (DT (the))(REL-NNP (supreme))(REL-NNP (court)))(REL-NP (POS ('s))(CD (1994))(REL-NN (decision))))) |ET| 1:0.28213826 2:0.19444069 3:0.25308552 4:0.15044516 5:0.20158105 6:0.067166053 7:0.11886433 8:0.046126559 9:0.083333328 10:0.0237893 11:0.45929173 12:0.38797015 13:0.18111542 14:0.66183352 15:0.49592021 16:0.30146962  |BV| 1:0.26846242 2:0.18502662 3:0.30642572 4:0.13084479 5:0.22043335 6:0.043003298 7:0.11020775 8:0.02981424 9:0.078567423 11:0.49566364 12:0.42548147 13:0.20519567 14:0.68878341 15:0.45690405 16:0.34025258  |EV| 
0.82625616384198385944159781502094  |BT| (ROOT (S (ADVP (WRB (how)))(REL-FOCUS-DESC-NP (REL-NNP (john))(REL-NNP (dillinger)))(VP (VBP (die))))) |BT| (ROOT (S (VP (VBN (put)))(PP (IN (in)))(REL-NP (REL-NNP (john))(REL-NNP (dillinger))))) |BT| (ROOT (S (ADVP (WRB (how)))(REL-FOCUS-DESC-NP (REL-NNP (john))(REL-NNP (dillinger)))(VP (VBP (die))))) |BT| (ROOT (S (REL-NP (REL-NNP (john))(REL-NNP (dillinger))))) |ET| 1:0.097590007 2:0.085854568 3:0.24913643 4:0.063035779 5:0.18898223 6:0.037037041 7:0.11111111 8:0.026352311 9:0.09245003 11:0.20427196 12:0.17248787 13:0.025125951 14:0.39383894 15:0.45152789 16:0.24303101  |BV| 1:0.57735026 2:0.52223295 3:0.77459669 4:0.44721359 5:0.70710677 6:0.33333334 7:0.57735026 8:0.28867513 9:0.57735026 11:0.54232615 12:0.5 13:0.28867513 14:0.76137751 15:0.50635678 16:0.35158861  |EV| 
-0.40818748782494213012128625450714  |BT| (ROOT (S (NP (WP (what)))(VP (VBZ (be)))(REL-FOCUS-ENTY-NP (REL-NN (rum)))(VP (VBN (make)))(PP (IN (out)))(PP (IN (of))))) |BT| (ROOT (S (REL-FOCUS-ENTY-NP (NNP (warm))(NNP (pineapple-rum))(NNP (soup)))(REL-FOCUS-ENTY-PP (IN (with)))(REL-FOCUS-ENTY-NP (REL-NNP (rum))(NNP (raisin))(NNP (ice))(NNP (cream))(NNP (&ql))))) |BT| (ROOT (S (NP (WP (what)))(VP (VBZ (be)))(REL-FOCUS-ENTY-NP (REL-NN (rum)))(REL-VP (REL-VBN (make)))(PP (IN (out)))(PP (IN (of))))) |BT| (ROOT (S (NP (DT (the))(JJ (white-jacketed))(NNS (waiter)))(NP (DT (the))(NNP (tito))(NNP (puente))(NN (soundtrack)))(REL-VP (REL-VBP (make)))(NP (PRP (you)))(VP (VB (feel)))(NP (DT (a))(NN (club))(NNP (ricky))(NNP (ricardo)))(VP (MD (might))(VB (have))(VBN (open)))(REL-NP (REL-NN (rum)))(VP (VBZ (seem))(TO (to))(VB (be)))(PP (IN (in)))(NP (DT (the))(NN (bar)))(NP (DT (the))(NNS (mojito))(JJ (fresh))(NN (lime))(NN (juice)))(REL-NP (REL-NN (rum)))(NP (NN (sugar))(NN (cane))(VB (extract)))(NP (NN (mint))))(S (NP (DT (the))(NNS (caipirinha)))(NP (JJ (sweet))(NNS (cocktail)))(REL-VP (REL-VBN (make)))(PP (IN (with)))(NP (DT (a))(JJ (brazilian))(NN (liqueur)))(ADVP (RB (just)))(PP (IN (like)))(REL-NP (REL-NN (rum))))(S (NP (DT (the))(JJ (special))(NNP (crazyy))(NNS (martini)))(REL-VP (REL-VBN (make)))(PP (IN (with)))(NP (NNP (bacardi))(NNP (limon)))(VP (VBD (flavor)))(REL-NP (REL-NN (rum)))(NP (NNP (cointreau)))(NP (JJ (cranberry))(NN (juice))))) |ET| 11:0.039999999 12:0.035267279 14:0.20608702 15:0.12523618 16:0.20342895  |BV| 1:0.19851667 2:0.12158953 3:0.37686732 4:0.091465913 5:0.31851104 11:0.30035704 12:0.26325133 13:0.026490649 14:0.57875937 15:0.38136047 16:0.20709759  |EV| 
-0.82625616384198385944159781502094  |BT| (ROOT (S (NP (WP (what))(UH (dam)))(VP (VBZ (be))(VBD (say)))(NP (DT (the))(VB (be)))(REL-FOCUS-LOC-NP (DT (the))(REL-JJS (largest))(REL-JJ (hydroelectric))(REL-NN (station)))(PP (IN (in)))(NP (DT (the))(NN (world))))) |BT| (ROOT (S (REL-NP (DT (the))(NNP (ertan))(REL-NNP (hydroelectric))(NNP (power))(REL-NNP (station)))(REL-FOCUS-LOC-NP (NNP (china)))(REL-NP (POS ('s))(REL-JJS (largest))(REL-JJ (hydroelectric))(NN (power))(REL-NN (station)))(VP (VBN (locate)))(PP (IN (on)))(REL-FOCUS-LOC-NP (DT (the))(NNP (yalong))(NNP (river)))(PP (IN (in)))(NP (NNP (ertan)))(PP (IN (of)))(REL-FOCUS-LOC-NP (NNP (sichuan))(NNP (province)))(VP (VBD (go)))(PP (IN (on))))) |BT| (ROOT (S (REL-NP (WP (what))(REL-UH (dam)))(VP (VBZ (be))(VBD (say)))(NP (DT (the))(VB (be)))(REL-FOCUS-LOC-NP (DT (the))(REL-JJS (largest))(REL-JJ (hydroelectric))(NN (station)))(PP (IN (in)))(REL-NP (DT (the))(REL-NN (world))))) |BT| (ROOT (S (NP (DT (the))(NN (mammoth)))(NP (CD (three))(NNS (gorge)))(REL-ADVP (REL-RB (dam)))(REL-NP (DT (the))(REL-NN (world)))(REL-NP (POS ('s))(REL-JJS (largest))(REL-JJ (hydroelectric))(NN (project)))(PP (IN (under)))(NP (NN (construction))))) |ET| 1:0.35049981 2:0.23062266 3:0.21919864 4:0.16728224 5:0.15861031 6:0.026967989 7:0.065795168 8:0.018518521 9:0.048112519 11:0.22052714 12:0.18900567 13:0.06163336 14:0.52840799 15:0.39551553 16:0.33508772  |BV| 1:0.59887815 2:0.42557961 3:0.27399832 4:0.31532073 5:0.19641855 6:0.065858558 7:0.063887663 8:0.045083482 9:0.046675999 11:0.49290064 12:0.41150853 13:0.1721326 14:0.77582055 15:0.56782836 16:0.33771822  |EV| 
-0.82625616384198385944159781502094  |BT| (ROOT (S (NP (WP (what)))(VP (VBZ (be)))(REL-FOCUS-LOC-NP (DT (the))(REL-NN (city)))(PP (IN (of)))(REL-NP (REL-JJ (brotherly))(REL-NN (love))))) |BT| (ROOT (S (REL-FOCUS-LOC-NP (NNP (washington)))(NP (NNP (nov.))(CD (5)))(REL-NP (DT (the))(REL-NNP (city)))(PP (IN (of)))(REL-NP (REL-NNP (brotherly))(REL-NNP (love)))(VP (MD (will))(VB (be))(VBG (host)))(NP (DT (a))(NNP (grand))(NNP (old))(NNP (party))))) |BT| (ROOT (S (NP (WP (what)))(VP (VBZ (be)))(REL-FOCUS-LOC-NP (DT (the))(REL-NN (city)))(PP (IN (of)))(REL-NP (JJ (brotherly))(REL-NN (love))))) |BT| (ROOT (S (NP (PRP (you)))(PP (TO (to)))(REL-FOCUS-LOC-NP (NNP (philadelphia)))(REL-NP (DT (the))(REL-NN (city)))(PP (IN (of)))(REL-NP (RB (motherly))(REL-NN (love)))(NP (PRP (she)))(VP (VBD (say)))(NP (DT (a))(NN (twist)))(PP (IN (on)))(REL-NP (DT (the))(JJ (''brotherly))(REL-NN (love)))(PP (IN (for)))(NP (WDT (which)))(REL-NP (DT (the))(REL-NN (city)))(VP (VBZ (like))(TO (to))(VB (be))(VBN (know))))) |ET| 1:0.2773501 2:0.14754222 4:0.1035908 11:0.15804073 12:0.13363062 13:0.02777778 14:0.52528334 15:0.38170117 16:0.28517079  |BV| 1:0.44035241 2:0.35503581 3:0.35777089 4:0.27865094 5:0.28005603 6:0.15602162 8:0.10942203 10:0.034815531 11:0.44886535 12:0.37675554 13:0.17801724 14:0.78420937 15:0.66918707 16:0.30664524  |EV| 
-0.82625616384198385944159781502094  |BT| (ROOT (S (ADVP (WRB (where)))(VP (VBZ (be)))(REL-FOCUS-LOC-NP (REL-NNP (hill))(REL-NNP (air))(REL-NNP (force))(REL-NNP (base))))) |BT| (ROOT (S (PP (IN (at)))(REL-FOCUS-LOC-NP (REL-NNP (hill))(REL-NNP (air))(REL-NNP (force))(REL-NNP (base)))(NP (PRP (he)))(VP (VBD (teach))))) |BT| (ROOT (S (ADVP (WRB (where)))(VP (VBZ (be)))(REL-FOCUS-LOC-NP (REL-NNP (hill))(REL-NNP (air))(REL-NNP (force))(REL-NNP (base))))) |BT| (ROOT (S (NP (DT (those)))(PP (IN (at)))(REL-FOCUS-LOC-NP (REL-NNP (hill))(REL-NNP (air))(REL-NNP (force))(REL-NNP (base)))(REL-FOCUS-LOC-NP (NNP (utah)))(REL-FOCUS-LOC-NP (NNP (dyess))(REL-NNP (air))(REL-NNP (force))(REL-NNP (base)))(REL-FOCUS-LOC-NP (NNP (texas))))(S (NP (DT (the))(NN (group)))(PP (IN (at)))(REL-FOCUS-LOC-NP (NNP (pope))(REL-NNP (air))(REL-NNP (force))(REL-NNP (base)))(NP (NNP (n.c.)))(VP (MD (would))(VB (be))))) |ET| 1:0.30237159 2:0.28318968 3:0.52915025 4:0.25724787 5:0.5 6:0.22990024 7:0.46625239 8:0.19518001 9:0.42640144 10:0.15617377 11:0.4268328 12:0.39056328 13:0.32042402 14:0.48282638 15:0.77327091 16:0.27346265  |BV| 1:0.44721359 2:0.40287885 3:0.7229135 4:0.35794732 5:0.67990011 6:0.28977484 7:0.6298582 8:0.22718473 9:0.54433107 10:0.15408339 11:0.65893102 12:0.61211371 13:0.49356866 14:0.67961609 15:0.73314941 16:0.30711642  |EV| 
-0.14786759346783906465816471609287  |BT| (ROOT (S (NP (WP (what)))(VP (VBZ (be)))(REL-FOCUS-ENTY-NP (DT (the))(NN (name)))(PP (IN (of)))(REL-NP (DT (the))(REL-NN (airport)))(PP (IN (in)))(NP (NNP (dallas))(NNP (ft))))(S (REL-INTJ (REL-NNP (worth))))) |BT| (ROOT (S (REL-NP (NNP (dallas/fort))(REL-NNP (worth))(REL-NNP (airport))(NNP (overhead))(NNS (television)))(ADVP (RB (usually)))(VP (VBP (dominate)))(NP (NNS (area)))(PP (IN (at)))(REL-NP (NNP (dallas/fort))(REL-NNP (worth))(REL-NNP (airport)))(PP (IN (with)))(NP (JJ (nonstop))(NN (news))))) |BT| (ROOT (S (NP (WP (what)))(VP (VBZ (be)))(REL-FOCUS-ENTY-NP (DT (the))(NN (name)))(PP (IN (of)))(REL-NP (DT (the))(REL-NN (airport)))(PP (IN (in)))(REL-NP (REL-NNP (dallas))(NNP (ft))))(S (REL-INTJ (REL-NNP (worth))))) |BT| (ROOT (S (NP (CD (38,000))(NNS (people))(RB (north)))(PP (IN (of)))(REL-NP (REL-NNP (dallas)))(PP (IN (near)))(REL-NP (DT (the))(NNP (dallas-fort))(REL-NNP (worth))(NNP (international))(REL-NNP (airport))))) |ET| 1:0.23186944 2:0.12320355 3:0.062136982 4:0.085498199 5:0.045360919 11:0.47010264 12:0.40894738 13:0.13644965 14:0.70773381 15:0.45940384 16:0.29515067  |BV| 1:0.45074895 2:0.24653342 3:0.16495723 4:0.17342199 5:0.12171612 11:0.5777483 12:0.49541509 13:0.223653 14:0.79060906 15:0.65977496 16:0.28283912  |EV| 
0.82625616384198385944159781502094  |BT| (ROOT (S (NP (WP (what)))(VP (VBZ (be)))(REL-FOCUS-LOC-NP (DT (the))(REL-NN (capital))(REL-NN (city)))(PP (IN (of)))(REL-NP (NNP (new))(REL-NNP (zealand))))) |BT| (ROOT (S (PP (IN (from)))(NP (NNP (wellington)))(REL-FOCUS-LOC-NP (NNP (new))(REL-NNP (zealand)))(REL-NP (POS ('s))(REL-NN (capital)))(NP (NNP (auckland)))(REL-NP (PRP$ (its))(JJS (biggest))(REL-NN (city))))) |BT| (ROOT (S (NP (WP (what)))(VP (VBZ (be)))(REL-FOCUS-LOC-NP (DT (the))(REL-NN (capital))(REL-NN (city)))(PP (IN (of)))(REL-NP (NNP (new))(REL-NNP (zealand))))) |BT| (ROOT (S (VP (VBD (come)))(PP (IN (from)))(REL-FOCUS-LOC-NP (NNP (south))(NN (land)))(NP (CD (one)))(PP (IN (of)))(REL-FOCUS-LOC-NP (NNP (new))(REL-NNP (zealand)))(NP (POS ('s)))(ADJP (RBS (most))(JJ (important)))(ADVP (RB (away)))(PP (IN (from)))(REL-NP (DT (the))(REL-NN (capital))(REL-NN (city))))) |ET| 1:0.40246895 2:0.25236607 3:0.19569843 4:0.18156826 5:0.14744195 6:0.025949961 8:0.01799831 11:0.50124955 12:0.42364699 13:0.15289415 14:0.78648067 15:0.53545773 16:0.2276856  |BV| 1:0.46291006 2:0.36902642 3:0.35777089 4:0.30169424 5:0.27216554 6:0.19835389 7:0.12038585 8:0.13801311 9:0.10050378 10:0.07221581 11:0.50021642 12:0.41863796 13:0.17457432 14:0.78194016 15:0.57034999 16:0.23850931  |EV| 
0.82625616384198385944159781502094  |BT| (ROOT (S (NP (WP (what)))(VP (VBZ (be)))(REL-FOCUS-ENTY-NP (DT (the))(NN (principle))(REL-NN (port)))(PP (IN (in)))(REL-NP (REL-NNP (ecuador))))) |BT| (ROOT (S (PP (IN (in)))(NP (NNP (guayaquil)))(REL-NP (DT (a))(REL-JJ (port))(NN (city)))(PP (IN (in)))(REL-NP (JJ (southwestern))(REL-NNP (ecuador)))(VP (VBP (have))(VBN (be))(VBN (search)))(PP (IN (with))))) |BT| (ROOT (S (NP (WP (what)))(VP (VBZ (be)))(REL-FOCUS-ENTY-NP (DT (the))(REL-NN (principle))(NN (port)))(PP (IN (in)))(REL-NP (REL-NNP (ecuador))))) |BT| (ROOT (S (NP (NNP (bolivia)))(NP (NNP (colombia)))(REL-NP (REL-NNP (ecuador)))(NP (NNP (peru)))(NP (NNP (venezuela)))(VP (VBD (sign)))(NP (DT (a))(NN (document)))(REL-NP (NNP (saturday))(VBG (establish))(, (''the))(REL-NN (principle)))(PP (IN (of)))(NP (NN (nonintervention))))) |ET| 1:0.36927447 2:0.20519567 3:0.19518001 4:0.14638501 5:0.1490712 11:0.33199579 12:0.27548659 13:0.11034745 14:0.67295265 15:0.54373449 16:0.21270794  |BV| 1:0.19245009 2:0.11202241 3:0.15569979 4:0.081395693 5:0.11785113 11:0.37532595 12:0.31523475 13:0.082060993 14:0.75138235 15:0.40111104 16:0.19441083  |EV| 
-0.82625616384198385944159781502094  |BT| (ROOT (S (REL-NP (WP (what))(REL-UH (dam)))(VP (VBZ (be))(VBD (say)))(NP (DT (the))(VB (be)))(REL-FOCUS-LOC-NP (DT (the))(REL-JJS (largest))(REL-JJ (hydroelectric))(NN (station)))(PP (IN (in)))(REL-NP (DT (the))(REL-NN (world))))) |BT| (ROOT (S (VP (VBN (divert)))(NP (DT (the))(NN (yangtze)))(REL-NP (DT (the))(REL-NN (world)))(NP (POS ('s))(JJ (third))(JJS (longest))(NN (river)))(SBAR (IN (in)))(PP (IN (of)))(NP (DT (the))(CD (three))(NNS (gorge)))(REL-ADVP (REL-RB (dam)))(REL-NP (DT (the))(REL-NN (world)))(REL-NP (POS ('s))(REL-JJS (largest))(REL-JJ (hydroelectric))(NN (project))))(S (REL-FOCUS-LOC-NP (NNP (xinhua)))(VP (VBD (do))(RB (not))(VB (mention)))(NP (DT (the))(NNS (floodwater))))) |BT| (ROOT (S (NP (WP (what))(UH (dam)))(VP (VBZ (be))(VBD (say)))(NP (DT (the))(VB (be)))(REL-FOCUS-LOC-NP (DT (the))(REL-JJS (largest))(REL-JJ (hydroelectric))(REL-NN (station)))(PP (IN (in)))(NP (DT (the))(NN (world))))) |BT| (ROOT (S (NP (NN (sandouping))(CD (three))(NNS (gorge)))(REL-FOCUS-LOC-NP (NNP (november))(CD (4))(NNP (xinhua)))(REL-NP (DT (the))(CD (three))(NNS (gorge))(REL-NNP (hydroelectric))(NNP (power))(REL-NNP (station)))(VP (MD (will))(VB (be)))(REL-FOCUS-LOC-NP (NNP (china)))(REL-NP (POS ('s))(REL-JJS (largest))(REL-JJ (hydroelectric))(NN (power))(NN (plant))))) |ET| 1:0.5135718 2:0.36578396 3:0.28005603 4:0.27089694 5:0.20555662 6:0.062897094 7:0.05763904 8:0.043519411 9:0.042333379 11:0.51662576 12:0.43211588 13:0.18182263 14:0.76688188 15:0.66791105 16:0.32704264  |BV| 1:0.2522625 2:0.17036708 3:0.17960531 4:0.12439408 5:0.13055824 6:0.02747211 7:0.072739303 8:0.01899343 9:0.053376049 11:0.2174845 12:0.17987657 13:0.075005859 14:0.47871217 15:0.31303042 16:0.32735699  |EV| 
0.82625616384198385944159781502094  |BT| (ROOT (S (NP (WP (what)))(VP (VBZ (be)))(REL-FOCUS-LOC-NP (REL-NN (capital)))(PP (IN (of)))(REL-NP (REL-NNP (maryland))))) |BT| (ROOT (S (REL-FOCUS-LOC-NP (REL-NNP (maryland)))(NP (NNP (joe))(NNP (platania)))(NP (NNP (wcbm)))(REL-FOCUS-LOC-NP (NNP (baltimore)))(NP (NNP (joe))(NNP (gross)))(REL-FOCUS-LOC-NP (DT (the))(REL-NNP (capital))(NNP (annapolis))))) |BT| (ROOT (S (NP (WP (what)))(VP (VBZ (be)))(REL-FOCUS-LOC-NP (REL-NN (capital)))(PP (IN (of)))(REL-NP (REL-NNP (maryland))))) |BT| (ROOT (S (NP (CD (two))(JJ (other))(NNS (group)))(PP (IN (from)))(REL-FOCUS-LOC-NP (REL-NNP (maryland)))(VP (VBD (be))(TO (to))(VB (meet)))(NP (PRP (they)))(PP (IN (on)))(NP (DT (the))(NN (nation)))(REL-NP (POS ('s))(REL-NN (capital)))(PP (IN (by)))(NP (RB (about))(CD (11))(NN (a.m.))))) |ET| 1:0.064549722 2:0.039936151 3:0.13245323 4:0.03021989 5:0.1132277 11:0.2111095 12:0.18425693 13:0.03077287 14:0.53641587 15:0.2753028 16:0.19375044  |BV| 1:0.24494897 2:0.12921914 3:0.25197631 4:0.091287091 5:0.21081851 11:0.28690228 12:0.23668233 13:0.069504797 14:0.71095699 15:0.49662203 16:0.19375044  |EV| 
0.032024263349910341014403769577257  |BT| (ROOT (S (NP (WP (what)))(VP (VBZ (be)))(REL-FOCUS-NUM-NP (DT (the))(NN (body))(REL-NN (temperature)))(PP (IN (of)))(REL-NP (DT (a))(REL-NN (dog))))) |BT| (ROOT (S (REL-NP (PRP$ (she))(REL-NN (temperature)))(VP (VBD (be)))(REL-FOCUS-NUM-NP (CD (107.9))))(S (REL-NP (DT (the))(JJ (normal))(REL-NN (temperature)))(PP (IN (for)))(REL-NP (DT (a))(REL-NN (dog)))(VP (VBZ (be)))(PP (IN (between))))) |BT| (ROOT (S (NP (WP (what)))(VP (VBZ (be)))(REL-FOCUS-NUM-NP (DT (the))(REL-NN (body))(REL-NN (temperature)))(PP (IN (of)))(NP (DT (a))(NN (dog))))) |BT| (ROOT (S (VP (VBZ (hit)))(NP (CD (105)))(REL-NP (DT (the))(REL-NN (body)))(VP (VBZ (lose)))(NP (PRP$ (its))(NN (ability))))(S (ADVP (WRB (when)))(REL-NP (DT (the))(REL-NN (temperature))(NN (outside)))(VP (VBZ (be)))(ADJP (JJR (higher)))(PP (IN (than)))(REL-NP (REL-NN (body))(REL-NN (temperature)))(NP (PRP (it)))(VP (VBZ (be)))(ADJP (RBR (more))(JJ (difficult)))(PP (IN (for)))(REL-NP (DT (the))(REL-NN (body)))(VP (TO (to))(VB (release)))(NP (NN (heat))))(S (PP (IN (in)))(NP (NN (fact)))(REL-NP (DT (the))(REL-NN (body))(VBZ (start))(VBG (absorb))(NN (heat))))) |ET| 1:0.47628966 2:0.30302161 3:0.43386093 4:0.21629523 5:0.34050262 6:0.044946659 7:0.16012815 8:0.031497039 9:0.13608275 11:0.49550408 12:0.43129098 13:0.21067524 14:0.77586031 15:0.70363957 16:0.24314716  |BV| 1:0.42491829 2:0.32494625 3:0.38829014 4:0.24003255 5:0.30815783 6:0.10079053 7:0.08804509 8:0.071269661 9:0.072739303 11:0.67738527 12:0.591784 13:0.30508563 14:0.81470942 15:0.62073076 16:0.2257328  |EV| 
-0.7723084455859512420516921338276  |BT| (ROOT (S (NP (WP (who)))(VP (VBZ (be)))(REL-FOCUS-HUM-NP (DT (the))(REL-NN (head)))(PP (IN (of)))(REL-NP (DT (the))(REL-NNP (fbi))))) |BT| (ROOT (S (REL-FOCUS-HUM-NP (REL-NNP (fbi))(NN (agent))(NNP (kenneth))(NNP (piernick)))(NP (WP (who)))(REL-VP (REL-VBZ (head)))(NP (DT (the))(NNP (u.s.))(NN (side)))(PP (IN (of))))) |BT| (ROOT (S (NP (WP (who)))(VP (VBZ (be)))(REL-FOCUS-HUM-NP (DT (the))(NN (head)))(PP (IN (of)))(REL-NP (DT (the))(REL-NNP (fbi))))) |BT| (ROOT (S (NP (DT (the))(NN (advice)))(PP (IN (of)))(REL-FOCUS-HUM-NP (REL-NNP (fbi))(NNP (director))(NNP (louis))(NNP (j.))(NNP (freeh)))(REL-FOCUS-HUM-NP (REL-NNP (fbi))(NNP (special))(NNP (agent))(NNP (james))(NNP (v.))(NNP (desarno))))) |ET| 1:0.55000001 2:0.35037431 3:0.21442251 4:0.25405717 5:0.17817415 6:0.036735918 8:0.025717219 11:0.60428804 12:0.53469831 13:0.37712362 14:0.81281 15:0.49997699 16:0.1863026  |BV| 1:0.37947333 2:0.21226475 3:0.20100756 4:0.15171652 5:0.16843037 11:0.2932463 12:0.25040096 13:0.083965451 14:0.53400415 15:0.26090893 16:0.1872201  |EV| 
-0.82625616384198385944159781502094  |BT| (ROOT (S (REL-FOCUS-NUM-NP (WRB (how))(JJ (many))(NNS (room)))(VP (VBZ (do)))(REL-NP (DT (the))(REL-NNP (las))(REL-NNP (vegas))(REL-NNP (mgm))(REL-NNP (grand))(REL-NNP (hotel)))(VP (VBP (have))))) |BT| (ROOT (S (NP (WP (what)))(VP (VBD (be)))(REL-NP (DT (the))(JJS (largest))(REL-NN (hotel)))(PP (IN (in)))(NP (DT (the))(NN (world)))(VP (VBZ (be)))(ADVP (RB (now)))(REL-NP (DT (the))(REL-NNP (las))(REL-NNP (vegas))(NNP (hilton)))(REL-NP (DT (the))(JJ (former))(REL-NNP (mgm))(REL-NNP (grand)))(ADVP (RB (now)))(REL-NP (NNP (ballys-las))(REL-NNP (vegas)))(REL-NP (DT (the))(JJ (current))(REL-NNP (mgm))(REL-NNP (grand)))(NP (DT (the))(NN (world)))(NP (POS ('s))(JJS (largest)))(VP (VBD (open)))(PP (IN (in)))(REL-FOCUS-NUM-NP (CD (1993))))) |BT| (ROOT (S (REL-FOCUS-NUM-NP (WRB (how))(JJ (many))(NNS (room)))(VP (VBZ (do)))(REL-NP (DT (the))(REL-NNP (las))(REL-NNP (vegas))(REL-NNP (mgm))(REL-NNP (grand))(REL-NNP (hotel)))(VP (VBP (have))))) |BT| (ROOT (S (ADVP (RB (meantime)))(REL-NP (REL-NNP (mgm))(REL-NNP (grand)))(NP (POS ('s))(NNS (earnings)))(VP (VBP (have))(VBN (be))(VBG (rise)))(NP (PRP (it)))(VP (VBD (cite)))(REL-NP (JJ (strong))(NN (casino))(CC (and))(REL-NN (hotel))(NNS (volume)))(PP (IN (at)))(REL-NP (PRP$ (its))(JJ (5,005-room))(REL-NNP (mgm))(REL-NNP (grand)))(PP (IN (in)))(REL-NP (REL-NNP (las))(REL-NNP (vegas)))(NP (NNS (earnings)))(PP (IN (from)))(NP (DT (the))(JJ (successful))(NN (opening)))(PP (IN (of)))(REL-NP (DT (the))(REL-NNP (mgm))(REL-NNP (grand))(NNP (detroit))(NNP (casino))))) |ET| 1:0.36740473 2:0.28211227 3:0.4065578 4:0.21904291 5:0.2981424 6:0.1054796 7:0.15249857 8:0.073323563 9:0.10998534 10:0.02305715 11:0.55639809 12:0.49236679 13:0.26668698 14:0.67002571 15:0.6102947 16:0.5030973  |BV| 1:0.40000001 2:0.29840153 3:0.4234708 4:0.21488611 5:0.31298432 6:0.090512559 7:0.17660432 8:0.06285394 9:0.12830006 11:0.68911725 12:0.62680423 13:0.45658833 14:0.72879809 15:0.62495136 16:0.53051913  |EV| 
0.82625616384198385944159781502094  |BT| (ROOT (S (NP (WP (what)))(REL-NP (REL-NNP (alfred))(NNP (noble)))(REL-FOCUS-ENTY-VP (REL-VBP (invent))))) |BT| (ROOT (S (NP (DT (the))(NN (will)))(PP (IN (of)))(REL-FOCUS-ENTY-NP (REL-NNP (alfred))(NNP (nobel)))(NP (DT (a))(NNP (swede)))(NP (WP (who)))(REL-VP (REL-VBD (invent)))(NP (NN (dynamite)))(VP (VBD (die))))) |BT| (ROOT (S (NP (WP (what)))(REL-NP (REL-NNP (alfred))(REL-NNP (noble)))(REL-FOCUS-ENTY-VP (VBP (invent))))) |BT| (ROOT (S (NP (PRP$ (he))(CD (three))(NNS (year)))(PP (IN (with)))(REL-FOCUS-ENTY-NP (DT (the))(NNP (treasury))(NNP (department)))(REL-FOCUS-ENTY-NP (REL-NNP (noble)))(ADVP (RB (also)))(VP (VBD (make)))(NP (NN (front)))(PP (IN (of)))(REL-FOCUS-ENTY-NP (DT (the))(NNP (white))(NNP (house))))(S (NP (DT (the))(NN (bombing)))(PP (IN (of)))(REL-FOCUS-ENTY-NP (DT (the))(REL-NNP (alfred))(NNP (p.))(NNP (murrah))(JJ (federal))(NN (building)))(PP (IN (in)))(NP (NNP (oklahoma))(NNP (city)))(PP (IN (in)))(NP (NNP (april))(CD (1995)))(REL-FOCUS-ENTY-NP (REL-NNP (noble)))(VP (VBZ (insist)))(SBAR (IN (that))))) |ET| 1:0.089087076 2:0.052686341 3:0.12285902 4:0.038814832 5:0.0949158 11:0.27341989 12:0.23537631 13:0.043274231 14:0.51615173 15:0.38737109 16:0.17723873  |BV| 1:0.10425721 2:0.063800909 3:0.16903085 4:0.04794633 5:0.12768848 11:0.343712 12:0.30308002 13:0.098373882 14:0.52461743 15:0.20818891 16:0.20537829  |EV| 
-0.82625616384198385944159781502094  |BT| (ROOT (S (REL-FOCUS-ENTY-NP (WP (what))(REL-NNP (american))(NN (landmark))(NNS (stand)))(PP (IN (on)))(REL-NP (REL-NNP (liberty))(REL-NNP (island))))) |BT| (ROOT (S (PP (IN (in)))(NP (DT (a))(NN (sense)))(REL-NP (DT (the))(JJ (twin))(REL-NNS (island)))(PP (IN (of)))(REL-NP (REL-NN (liberty))(CC (and))(NN (immigration)))(VP (VBD (be)))(NP (NN (hostage)))(NP (NNP (tuesday)))(PP (TO (to)))(REL-NP (DT (the))(NN (classically))(REL-NNP (american)))(ADVP (RB (very)))(NP (NNP (new))(NNP (york))(NN (need))))) |BT| (ROOT (S (REL-FOCUS-ENTY-NP (WP (what))(NNP (american))(NN (landmark))(REL-NNS (stand)))(PP (IN (on)))(REL-NP (REL-NNP (liberty))(NNP (island))))) |BT| (ROOT (S (NP (DT (that))(NNP (statue)))(PP (IN (of)))(REL-NP (REL-NNP (liberty)))(VP (VBZ (be)))(CONJP (RB (not))(RB (just))(IN (for)))(PP (IN (in)))(NP (DT (the))(NNP (united))(NNP (states)))(REL-FOCUS-ENTY-NP (NNP (courter)))(VP (VBD (say))))(S (NP (DT (the))(NNP (statue)))(PP (IN (of)))(REL-NP (REL-NNP (liberty)))(REL-VP (REL-VBZ (stand)))(PP (IN (for)))(NP (NN (freedom))))) |ET| 1:0.058925569 2:0.032025632 3:0.069504797 4:0.02262814 5:0.05025189 11:0.45524225 12:0.39036003 13:0.072932497 14:0.64381617 15:0.33630028 16:0.23010933  |BV| 1:0.13258252 2:0.07707525 3:0.2 4:0.056765672 5:0.15075567 11:0.46188021 12:0.39467612 13:0.084666751 14:0.65864885 15:0.47261694 16:0.22181822  |EV| 
-0.82625616384198385944159781502094  |BT| (ROOT (S (NP (WP (who)))(VP (VBD (invent)))(REL-FOCUS-HUM-NP (DT (the))(REL-NN (cotton))(REL-NN (gin))))) |BT| (ROOT (S (NP (NNP (al)))(VP (VBD (lecture)))(REL-FOCUS-HUM-NP (NNP (diane))(NNP (persha)))(NP (POS ('s))(NN (history))(NN (class)))(PP (IN (about)))(NP (JJ (special))(NN (attention)))(PP (TO (to)))(REL-NP (DT (the))(REL-NN (cotton))(REL-NN (gin))(CC (and))(NN (telegraph)))(VP (VBD (refrain)))(PP (IN (from))))) |BT| (ROOT (S (NP (WP (who)))(REL-VP (REL-VBD (invent)))(REL-FOCUS-HUM-NP (DT (the))(REL-NN (cotton))(REL-NN (gin))))) |BT| (ROOT (S (NP (DT (the))(JJ (late))(NNS (1950)))(NP (WP (who)))(REL-VP (REL-VBD (invent)))(NP (DT (a))(NN (alignment)))(VP (VBD (call))))(S (ADVP (RB (there)))(PP (IN (with)))(REL-FOCUS-HUM-NP (NNP (eli))(NNP (whitney)))(REL-NP (DT (the))(REL-NN (cotton))(REL-NN (gin))))) |ET| 1:0.27602622 2:0.22438727 3:0.22677869 4:0.18641827 5:0.1714986 6:0.13018891 7:0.10050378 8:0.092847668 9:0.083333328 10:0.050062619 11:0.50450462 12:0.43666688 13:0.1723455 14:0.67948025 15:0.40062946 16:0.32846272  |BV| 1:0.40089187 2:0.31373218 3:0.29408586 4:0.25088298 5:0.22222222 6:0.13679712 7:0.097590007 8:0.097590007 9:0.080845207 10:0.039621439 11:0.52741879 12:0.4775359 13:0.31722063 14:0.68259895 15:0.59439063 16:0.33047205  |EV| 
0.82625616384198385944159781502094  |BT| (ROOT (S (REL-FOCUS-LOC-NP (WP (what))(REL-NN (county)))(VP (VBZ (be)))(REL-NP (REL-NNP (elmira)))(NP (NNP (ny)))(PP (IN (in))))) |BT| (ROOT (S (REL-NP (JJ (-chemung))(REL-NNP (county))(NNP (nursing))(NNP (facility)))(REL-NP (REL-NNP (elmira))))) |BT| (ROOT (S (REL-FOCUS-LOC-NP (WP (what))(REL-NN (county)))(VP (VBZ (be)))(REL-NP (REL-NNP (elmira)))(NP (NNP (ny)))(PP (IN (in))))) |BT| (ROOT (S (NP (PRP (he)))(PP (IN (from)))(REL-FOCUS-LOC-NP (NNP (long))(NNP (island)))(PP (TO (to)))(REL-FOCUS-LOC-NP (NNP (buffalo)))(PP (TO (to)))(REL-FOCUS-LOC-NP (NNP (rochester)))(REL-FOCUS-LOC-VP (TO (to))(VB (syracuse)))(PP (TO (to)))(REL-FOCUS-LOC-NP (NNP (binghamton)))(PP (TO (to)))(REL-NP (REL-NNP (elmira)))(PP (TO (to)))(NP (NNP (utica)))(PP (TO (to)))(REL-FOCUS-LOC-NP (NNP (watertown)))(PP (TO (to)))(REL-FOCUS-LOC-NP (NNP (albany)))(ADVP (RB (then)))(PP (TO (to)))(REL-FOCUS-LOC-NP (NNP (westchester))(REL-NNP (county))))) |ET| 1:0.28867513 2:0.15569979 3:0.1490712 4:0.11268723 5:0.11785113 11:0.46464187 12:0.40089187 13:0.18898223 14:0.62202185 15:0.42970788 16:0.30253762  |BV| 1:0.067115612 2:0.042304952 3:0.073521458 4:0.032001019 5:0.05555556 11:0.28144521 12:0.23746786 14:0.65759861 15:0.35058081 16:0.2106676  |EV| 
0.82625616384198385944159781502094  |BT| (ROOT (S (NP (WP (who)))(VP (VBD (defeat)))(REL-FOCUS-HUM-NP (DT (the))(REL-JJ (spanish))(REL-NN (armada))))) |BT| (ROOT (S (NP (NNP (england)))(PP (IN (by)))(REL-NP (REL-NNP (spanish))(REL-NNP (armada))))) |BT| (ROOT (S (NP (WP (who)))(REL-VP (REL-VBD (defeat)))(REL-FOCUS-HUM-NP (DT (the))(REL-JJ (spanish))(REL-NN (armada))))) |BT| (ROOT (S (REL-NP (DT (the))(REL-JJ (spanish))(NN (empire)))(VP (VBD (reach)))(NP (PRP$ (its))(NN (peak)))(NP (POS ('s))(NN (reign)))(PP (IN (after)))(REL-NP (DT (the))(REL-NNP (armada)))(REL-NP (POS ('s))(REL-NN (defeat)))(VP (VBD (begin)))(NP (PRP$ (its))(JJ (slow))(NN (decline))))(S (VP (VBD (do))(RB (not))(RB (necessarily))(VB (mean)))(SBAR (IN (that)))(REL-FOCUS-HUM-NP (NNP (philip)))(NP (PRP (himself)))(VP (VBD (be))))) |ET| 11:0.15321285 12:0.12858611 13:0.041666672 14:0.45807987 15:0.24986893 16:0.27062458  |BV| 1:0.25717226 2:0.17488921 3:0.13046561 4:0.12649111 5:0.099750929 6:0.035737079 8:0.02541643 11:0.45643547 12:0.38924947 13:0.20734905 14:0.66505945 15:0.29873911 16:0.28102028  |EV| 
0.82625616384198385944159781502094  |BT| (ROOT (S (NP (WP (what))(NN (animal)))(VP (VBZ (have)))(REL-FOCUS-ENTY-NP (JJ (human-like))(REL-NNS (fingerprint))))) |BT| (ROOT (S (REL-NP (DT (the))(REL-NNS (fingerprint)))(PP (IN (of)))(NP (NN (koala))(NNS (bear))))) |BT| (ROOT (S (REL-NP (WP (what))(REL-NN (animal)))(VP (VBZ (have)))(REL-FOCUS-ENTY-NP (JJ (human-like))(NNS (fingerprint))))) |BT| (ROOT (S (NP (DT (no))(NN (part)))(PP (IN (of)))(REL-NP (REL-NN (animal)))(VP (VBG (show)))(NP (NNS (sign)))(PP (IN (of)))(REL-FOCUS-ENTY-NP (NNP (tse)))(NP (WDT (which)))(VP (VBP (occur)))(PP (IN (in)))(REL-NP (JJ (several))(REL-NN (animal))(NNS (species)))(NP (NNS (tissue)))(ADJP (JJ (likely)))(NP (JJ (tse))(NN (agent)))(VP (MD (should))(VB (enter)))(REL-NP (DT (any))(NN (food))(NN (chain))(NN (human))(CC (or))(REL-NN (animal))))) |ET| 1:0.071066909 2:0.039253429 3:0.10846523 4:0.028171809 5:0.083333328 11:0.19926335 12:0.1677051 14:0.43813023 15:0.33418331 16:0.22651277  |BV| 1:0.15309311 2:0.087444611 3:0.19166297 4:0.063457429 5:0.14852212 11:0.29370129 12:0.25034699 14:0.61707133 15:0.37668756 16:0.23201293  |EV| 
-0.82625616384198385944159781502094  |BT| (ROOT (S (NP (WP (what)))(VP (VBZ (be)))(REL-FOCUS-LOC-NP (DT (the))(REL-NN (city)))(PP (IN (of)))(REL-NP (REL-JJ (brotherly))(REL-NN (love))))) |BT| (ROOT (S (NP (DT (the))(NNS (taxpayer)))(PP (IN (of)))(REL-NP (DT (the))(REL-NNP (city)))(PP (IN (of)))(REL-NP (REL-NNP (brotherly))(REL-NNP (love))))) |BT| (ROOT (S (NP (WP (what)))(VP (VBZ (be)))(REL-FOCUS-LOC-NP (DT (the))(REL-NN (city)))(PP (IN (of)))(REL-NP (JJ (brotherly))(REL-NN (love))))) |BT| (ROOT (S (NP (PRP (you)))(PP (TO (to)))(REL-FOCUS-LOC-NP (NNP (philadelphia)))(REL-NP (DT (the))(REL-NN (city)))(PP (IN (of)))(REL-NP (RB (motherly))(REL-NN (love)))(NP (PRP (she)))(VP (VBD (say)))(NP (DT (a))(NN (twist)))(PP (IN (on)))(REL-NP (DT (the))(JJ (''brotherly))(REL-NN (love)))(PP (IN (for)))(NP (WDT (which)))(REL-NP (DT (the))(REL-NN (city)))(VP (VBZ (like))(TO (to))(VB (be))(VBN (know))))) |ET| 1:0.29462782 2:0.16807316 4:0.12123216 11:0.22747026 12:0.19030844 13:0.027399831 14:0.63439971 15:0.51137584 16:0.27805993  |BV| 1:0.44035241 2:0.35503581 3:0.35777089 4:0.27865094 5:0.28005603 6:0.15602162 8:0.10942203 10:0.034815531 11:0.44886535 12:0.37675554 13:0.17801724 14:0.78420937 15:0.66918707 16:0.30664524  |EV| 
0.060049777383500563265883442909399  |BT| (ROOT (S (NP (WP (who)))(VP (VBZ (be)))(REL-FOCUS-HUM-NP (REL-NNP (tom))(REL-NNP (cruise)))(REL-VP (REL-VBD (marry)))(PP (TO (to))))) |BT| (ROOT (S (REL-VP (REL-VBN (marry)))(REL-FOCUS-HUM-NP (NNS (actor))(REL-NNP (tom))(REL-NNP (cruise))(CC (and))(NNP (nicole))(NNP (kidman)))(VP (VBP (play)))(NP (DT (a))(JJ (loving))(JJ (upscale))(JJ (married))(NN (couple))))) |BT| (ROOT (S (NP (WP (who)))(VP (VBZ (be)))(REL-FOCUS-HUM-NP (REL-NNP (tom))(REL-NNP (cruise)))(VP (VBD (marry)))(PP (TO (to))))) |BT| (ROOT (S (NP (PRP (he)))(VP (VBZ (be)))(REL-FOCUS-HUM-NP (REL-NNP (tom))(REL-NNP (cruise))))(S (REL-FOCUS-HUM-NP (REL-NNP (tom))(REL-NNP (cruise)))(VP (VBP (appear)))(PP (IN (in))))) |ET| 1:0.39405519 2:0.28941438 3:0.33218193 4:0.20309059 5:0.25197631 6:0.091960102 7:0.11111111 8:0.065059997 9:0.09245003 11:0.30123204 12:0.25259075 13:0.064051263 14:0.62354845 15:0.39999968 16:0.3272959  |BV| 1:0.40730655 2:0.29918304 3:0.53665632 4:0.21629523 5:0.42640144 6:0.089893311 7:0.26490647 8:0.064051263 9:0.22645541 11:0.42485291 12:0.35404411 13:0.096076891 14:0.73329341 15:0.75090832 16:0.26592812  |EV| 
0.70705155864098401252704206854105  |BT| (ROOT (S (NP (WP (what)))(VP (VBZ (be)))(REL-FOCUS-ENTY-NP (DT (the))(REL-NN (currency)))(VP (VBN (use)))(PP (IN (in)))(REL-NP (REL-NNP (china))))) |BT| (ROOT (S (NP (PRP (he)))(VP (VBD (say)))(REL-NP (REL-NN (currency))(NNS (devaluation)))(PP (IN (in)))(NP (JJ (southeast))(JJ (asian))(NNS (country)))(VP (VBD (have))(VBN (weaken)))(REL-NP (REL-NNP (china)))(NP (POS ('s))(NN (export))(NN (competitiveness)))(VP (VBD (stress)))(REL-NP (REL-NNP (china)))(VP (MD (would))(RB (not))(VB (devalue)))(REL-NP (PRP$ (its))(REL-NN (currency)))(NP (DT (the))(NN (yuan))))) |BT| (ROOT (S (NP (WP (what)))(VP (VBZ (be)))(REL-FOCUS-ENTY-NP (DT (the))(REL-NN (currency)))(VP (VBN (use)))(PP (IN (in)))(REL-NP (REL-NNP (china))))) |BT| (ROOT (S (REL-NP (REL-NNP (china))(NNS (restrict))(REL-NNP (currency))(NNP (dealings))))) |ET| 1:0.36927447 2:0.20168778 3:0.40201512 4:0.14285713 5:0.34050262 11:0.24525574 12:0.20033418 13:0.02686077 14:0.71295303 15:0.54851627 16:0.17414717  |BV| 11:0.16903085 12:0.1470871 14:0.40399101 15:0.34978473 16:0.17343429  |EV| 
-0.82625616384198385944159781502094  |BT| (ROOT (S (ADVP (WRB (how)))(REL-FOCUS-NUM-NP (JJ (many))(REL-NNS (stripe)))(VP (VBP (be)))(PP (IN (on)))(REL-NP (DT (the))(REL-JJ (american))(REL-NN (flag))))) |BT| (ROOT (S (NP (NNP (unity))(NNP (boulevard)))(VP (VBG (carry)))(REL-NP (DT (a))(JJ (large))(NNP (u.s.))(REL-NN (flag)))(VP (VBD (turn)))(ADVP (RB (upside))(RB (down)))(REL-NP (DT (the))(NNS (star))(CC (and))(REL-NNS (stripe)))(VP (VBG (drag)))(NP (DT (the))(NN (pavement))))(S (NP (CD (two))(NNS (woman)))(VP (VBD (carry)))(REL-NP (DT (a))(REL-JJ (american))(REL-NN (flag)))(VP (VBN (tie)))(PP (IN (at))))) |BT| (ROOT (S (ADVP (WRB (how)))(REL-FOCUS-NUM-NP (JJ (many))(REL-NNS (stripe)))(VP (VBP (be)))(PP (IN (on)))(REL-NP (DT (the))(REL-JJ (american))(REL-NN (flag))))) |BT| (ROOT (S (NP (DT (a))(NN (picture)))(PP (IN (of)))(REL-NP (DT (a))(JJ (old))(REL-JJ (american))(REL-NN (flag)))(PP (IN (with)))(REL-NP (CD (15))(REL-NNS (stripe))))(S (NP (PRP (i)))(VP (VBD (think)))(REL-NP (DT (the))(REL-NNS (stripe)))(VP (VBD (represent)))(NP (DT (the))(CD (13))(JJ (original))(NNS (colony))))) |ET| 1:0.29397237 2:0.19118196 3:0.32616404 4:0.13801311 5:0.24937733 6:0.02942449 7:0.090166964 8:0.02052821 9:0.074535601 11:0.5 12:0.44108978 13:0.28171808 14:0.65752101 15:0.48554948 16:0.24989343  |BV| 1:0.37363237 2:0.23704354 3:0.44721359 4:0.16843037 5:0.34503278 6:0.034815531 7:0.12598816 8:0.02424643 9:0.10540926 11:0.4163332 12:0.34645116 13:0.11194342 14:0.66522503 15:0.53303593 16:0.29924929  |EV| 
-0.82625616384198385944159781502094  |BT| (ROOT (S (NP (WP (who)))(VP (VBD (defeat)))(REL-FOCUS-HUM-NP (DT (the))(REL-JJ (spanish))(REL-NN (armada))))) |BT| (ROOT (S (NP (NNP (u.s.))(JJ (naval))(NNS (force)))(VP (VBD (destroy)))(REL-NP (DT (a))(REL-JJ (spanish))(REL-NN (armada)))(PP (IN (in)))(NP (NNP (manila))(NNP (bay))))) |BT| (ROOT (S (NP (WP (who)))(VP (VBD (defeat)))(REL-FOCUS-HUM-NP (DT (the))(REL-JJ (spanish))(REL-NN (armada))))) |BT| (ROOT (S (NP (NNP (england)))(PP (IN (by)))(REL-NP (REL-NNP (spanish))(REL-NNP (armada))))) |ET| 1:0.30772874 2:0.2117354 3:0.24913643 4:0.1541505 5:0.18898223 6:0.044151079 7:0.11111111 8:0.031497039 9:0.09245003 11:0.47544348 12:0.43758944 13:0.31622776 14:0.63688624 15:0.3939811 16:0.26408809  |BV| 11:0.15321285 12:0.12858611 13:0.041666672 14:0.45807987 15:0.24986893 16:0.27062458  |EV| 
0.82625616384198385944159781502094  |BT| (ROOT (S (NP (WP (who)))(VP (VBD (defeat)))(REL-FOCUS-HUM-NP (DT (the))(REL-JJ (spanish))(REL-NN (armada))))) |BT| (ROOT (S (NP (NNP (england)))(PP (IN (by)))(REL-NP (REL-NNP (spanish))(REL-NNP (armada))))) |BT| (ROOT (S (NP (WP (who)))(VP (VBD (defeat)))(REL-FOCUS-HUM-NP (DT (the))(REL-JJ (spanish))(REL-NN (armada))))) |BT| (ROOT (S (NP (DT (a))(NN (month)))(ADVP (RB (earlier)))(REL-NP (DT (the))(REL-JJ (spanish))(REL-NN (armada)))(VP (VBD (have))(VBN (be))(VBN (destroy)))(PP (IN (in)))(NP (NNP (u.s.))(JJ (naval))(NNS (force)))(PP (IN (under)))(REL-FOCUS-HUM-NP (NNP (commodore))(NNP (george))(NNP (dewey)))(NP (WP (who)))(VP (VBD (be))(VBN (send))))) |ET| 11:0.15321285 12:0.12858611 13:0.041666672 14:0.45807987 15:0.24986893 16:0.27062458  |BV| 1:0.37204579 2:0.27272728 3:0.20459829 4:0.22140372 5:0.15811388 6:0.11396058 7:0.0949158 8:0.081468821 9:0.079305157 10:0.044237401 11:0.42289004 12:0.3611111 13:0.19448666 14:0.61696988 15:0.46074361 16:0.26975089  |EV| 
-0.82625616384198385944159781502094  |BT| (ROOT (S (NP (WP (who)))(VP (VBZ (be)))(REL-FOCUS-HUM-NP (DT (the))(REL-NN (head)))(PP (IN (of)))(REL-NP (DT (the))(REL-NNP (fbi))))) |BT| (ROOT (S (PP (TO (to)))(VP (VBD (tell)))(REL-NP (DT (the))(REL-NNP (fbi))))(S (NP (DT (the))(NN (situation)))(VP (VBD (say)))(REL-FOCUS-HUM-NP (NNP (ring)))(NP (WP (who)))(REL-VP (REL-VBD (head)))(NP (DT (the))(JJ (organized))(NN (crime))(NN (squad)))(PP (IN (in)))(NP (DT (the))(NNP (boston))(NN (office)))(PP (IN (of)))(REL-NP (DT (the))(REL-NNP (fbi)))(PP (IN (from)))(NP (CD (1983))))) |BT| (ROOT (S (NP (WP (who)))(VP (VBZ (be)))(REL-FOCUS-HUM-NP (DT (the))(NN (head)))(PP (IN (of)))(REL-NP (DT (the))(REL-NNP (fbi))))) |BT| (ROOT (S (NP (DT (the))(NN (advice)))(PP (IN (of)))(REL-FOCUS-HUM-NP (REL-NNP (fbi))(NNP (director))(NNP (louis))(NNP (j.))(NNP (freeh)))(REL-FOCUS-HUM-NP (REL-NNP (fbi))(NNP (special))(NNP (agent))(NNP (james))(NNP (v.))(NNP (desarno))))) |ET| 1:0.64450341 2:0.477247 3:0.28474739 4:0.37111259 5:0.24019223 6:0.14699526 8:0.10336228 10:0.03309517 11:0.57449657 12:0.50669175 13:0.35627785 14:0.79345208 15:0.68471575 16:0.2053825  |BV| 1:0.37947333 2:0.21226475 3:0.20100756 4:0.15171652 5:0.16843037 11:0.2932463 12:0.25040096 13:0.083965451 14:0.53400415 15:0.26090893 16:0.1872201  |EV| 
-0.82625616384198385944159781502094  |BT| (ROOT (S (ADVP (WRB (how)))(REL-FOCUS-NUM-NP (JJ (many))(REL-NN (cabinet))(REL-NNS (officer)))(VP (VBP (be)))(ADVP (RB (there))))) |BT| (ROOT (S (REL-NP (DT (the))(JJ (new))(REL-NN (cabinet)))(VP (VBZ (include)))(NP (CD (nine))(NNS (minister)))(VP (VBD (serve)))(PP (IN (in)))(REL-NP (DT (the))(JJ (previous))(REL-NN (cabinet))))(S (NP (DT (the))(JJ (new))(NNS (appointee)))(VP (VBP (be)))(REL-NP (JJ (military))(REL-NNS (officer))))) |BT| (ROOT (S (ADVP (WRB (how)))(REL-FOCUS-NUM-NP (JJ (many))(REL-NN (cabinet))(NNS (officer)))(VP (VBP (be)))(ADVP (RB (there))))) |BT| (ROOT (S (VP (VBD (be))(VBN (join)))(PP (IN (by)))(REL-NP (CD (six))(JJ (other))(REL-NN (cabinet))(NNS (minister)))(PP (IN (in)))(NP (DT (the))(NNP (office)))(PP (IN (of)))(NP (DT (the))(NNP (president)))(REL-NP (CD (one))(REL-NN (cabinet))(NN (minister)))(PP (IN (of)))(NP (DT (the))(NNP (office))))) |ET| 1:0.25928149 2:0.14694367 3:0.3973597 4:0.10744306 5:0.33968312 11:0.33557802 12:0.28048411 13:0.088852331 14:0.48449484 15:0.33565587 16:0.17817499  |BV| 1:0.14064217 2:0.079695962 3:0.18490008 4:0.05933908 5:0.16012815 11:0.17641258 12:0.14832397 13:0.066178262 14:0.27075019 15:0.15329923 16:0.19324116  |EV| 
0.82625616384198385944159781502094  |BT| (ROOT (S (REL-FOCUS-ENTY-NP (DT (the))(REL-NN (duomo))))) |BT| (ROOT (S (PP (IN (of)))(NP (NNP (florence)))(REL-NP (DT (the))(JJ (central))(NNP (piazza))(FW (del))(REL-NNP (duomo)))(VP (VBD (be))(VBN (close)))(PP (TO (to))))) |BT| (ROOT (S (REL-FOCUS-ENTY-NP (DT (the))(REL-NN (duomo))))) |BT| (ROOT (S (VP (VB (consider)))(REL-NP (DT (the))(REL-NN (duomo))(NN (cathedral)))(NP (NN (construction)))(PP (IN (of))))(S (PP (IN (as)))(NP (NNP (milan)))(REL-NP (POS ('s))(JJ (famous))(REL-NN (duomo)))(NP (PRP (it)))(VP (VBZ (confer))))) |ET| 1:0.13867505 2:0.079242893 4:0.059628479 11:0.20272121 12:0.17787813 14:0.46677083 15:0.25345433 16:0.16806813  |BV| 1:0.18738292 2:0.13826939 3:0.21693046 4:0.10614898 5:0.17960531 6:0.033614632 8:0.025221661 11:0.43745247 12:0.39644787 13:0.17358521 14:0.51573014 15:0.34514534 16:0.16136819  |EV| 
-0.82625616384198385944159781502094  |BT| (ROOT (S (NP (WP (what)))(VP (VBZ (be)))(REL-FOCUS-ENTY-NP (DT (the))(REL-JJS (oldest))(REL-NNS (sport))(REL-NN (trophy))))) |BT| (ROOT (S (NP (WP$ (whose))(NN (winner)))(VP (MD (will))(VB (hold)))(REL-NP (DT (the))(REL-JJS (oldest))(REL-NN (trophy)))(PP (IN (in)))(REL-NP (REL-NNS (sport))))) |BT| (ROOT (S (NP (WP (what)))(VP (VBZ (be)))(REL-FOCUS-ENTY-NP (DT (the))(REL-JJS (oldest))(NNS (sport))(REL-NN (trophy))))) |BT| (ROOT (S (NP (NNP (london)))(NP (NNP (april))(CD (7))(NN (xinhua)))(REL-NP (DT (the))(NN (world))(REL-JJS (oldest))(NN (sporting))(REL-NN (trophy)))(NP (DT (the))(NNP (americas))(NNP (cup)))(VP (VBZ (have))(VBN (be))(VBN (bring))))) |ET| 1:0.34583426 2:0.21843027 3:0.23354968 4:0.15452877 5:0.17677671 6:0.03578281 8:0.025197631 11:0.29095718 12:0.240012 13:0.02428931 14:0.66003662 15:0.43731648 16:0.24308762  |BV| 1:0.35355338 2:0.19712445 3:0.13968606 4:0.14200214 5:0.10540926 11:0.21195026 12:0.17671137 14:0.57881057 15:0.38632515 16:0.2381371  |EV| 
-0.084071442827023876165348781341891  |BT| (ROOT (S (REL-FOCUS-NUM-NP (WRB (how))(JJ (many))(REL-NNS (term)))(VP (VBD (be)))(REL-NP (REL-NNP (dwight))(NNP (d.))(REL-NNP (eisenhower))(REL-NN (president))))) |BT| (ROOT (S (NP (NNS (eggshell)))(PP (IN (during)))(REL-NP (REL-NNP (president))(REL-NNP (dwight))(REL-NNP (eisenhower)))(REL-NP (POS ('s))(JJ (second))(REL-NN (term))))) |BT| (ROOT (S (REL-FOCUS-NUM-NP (WRB (how))(JJ (many))(NNS (term)))(VP (VBD (be)))(REL-NP (REL-NNP (dwight))(REL-NNP (d.))(REL-NNP (eisenhower))(NN (president))))) |BT| (ROOT (S (NP (JJR (higher))(IN (than))(DT (those)))(PP (IN (of)))(REL-NP (REL-NNP (dwight))(REL-NNP (d.))(REL-NNP (eisenhower)))(NP (NNP (ronald))(NNP (reagan)))(PP (IN (at))))) |ET| 1:0.20412415 2:0.10613237 3:0.18569534 4:0.073720977 5:0.13363062 11:0.5824824 12:0.49674264 13:0.17700261 14:0.73081189 15:0.54030776 16:0.35508338  |BV| 1:0.2 2:0.17688727 3:0.36369649 4:0.14852212 5:0.31622776 6:0.11812488 7:0.260133 8:0.082478613 9:0.19245009 10:0.043314811 11:0.47193989 12:0.39837727 13:0.19796887 14:0.59611958 15:0.42322037 16:0.40293378  |EV| 
-0.1382234422742062152078545977929  |BT| (ROOT (S (NP (WP (who)))(VP (VBD (be))(VBN (elect)))(REL-FOCUS-HUM-NP (NNP (president)))(PP (IN (of)))(REL-NP (REL-NNP (south))(REL-NNP (africa)))(PP (IN (in)))(REL-NP (REL-CD (1994))))) |BT| (ROOT (S (NP (DT (the))(JJ (few))(NNS (country)))(SBAR (IN (that)))(REL-NP (REL-NNP (south))(REL-NNP (africa)))(VP (VBZ (have))(RB (not))(VBN (take)))(PRT (RP (up)))(PP (IN (with)))(SBAR (IN (since)))(REL-NP (REL-NNP (south))(REL-NNP (africa)))(NP (POS ('s))(JJ (first))(JJ (all-race))(NNS (election)))(PP (IN (in)))(REL-NP (REL-CD (1994))))) |BT| (ROOT (S (NP (WP (who)))(VP (VBD (be))(VBN (elect)))(REL-FOCUS-HUM-NP (REL-NNP (president)))(PP (IN (of)))(REL-NP (REL-NNP (south))(REL-NNP (africa)))(PP (IN (in)))(REL-NP (REL-CD (1994))))) |BT| (ROOT (S (NP (NNP (mandela,79)))(VP (VBD (,has))(VBN (be)))(REL-NP (REL-NN (president)))(PP (IN (of)))(NP (DT (the))(NNP (anc))))(S (NP (PRP (he)))(VP (VBD (become)))(REL-NP (REL-NNP (south))(REL-NNP (africa)))(REL-NP (POS ('s))(JJ (first))(JJ (black))(REL-NN (president)))(PP (IN (after)))(NP (DT (all-race))(JJ (democratic))(NNS (election)))(PP (IN (in)))(REL-NP (REL-CD (1994))))) |ET| 1:0.46188021 2:0.33425543 3:0.44905022 4:0.23521678 5:0.33678767 6:0.10188534 7:0.16495723 8:0.071186848 9:0.12379689 11:0.51178741 12:0.43681046 13:0.1860521 14:0.77862293 15:0.62481463 16:0.33102572  |BV| 1:0.35233212 2:0.25210139 3:0.24759378 4:0.17660432 5:0.18033393 6:0.070754908 7:0.07559289 8:0.049147319 9:0.05555556 11:0.56101167 12:0.48658851 13:0.26148817 14:0.81618547 15:0.66972065 16:0.33508003  |EV| 
0.82625616384198385944159781502094  |BT| (ROOT (S (NP (WP (what)))(VP (VBZ (be)))(REL-FOCUS-ENTY-NP (DT (the))(REL-JJS (oldest))(NNS (sport))(REL-NN (trophy))))) |BT| (ROOT (S (NP (NNP (london)))(NP (NNP (april))(CD (7))(NN (xinhua)))(REL-NP (DT (the))(NN (world))(REL-JJS (oldest))(NN (sporting))(REL-NN (trophy)))(NP (DT (the))(NNP (americas))(NNP (cup)))(VP (VBZ (have))(VBN (be))(VBN (bring))))) |BT| (ROOT (S (NP (WP (what)))(VP (VBZ (be)))(REL-FOCUS-ENTY-NP (DT (the))(REL-JJS (oldest))(REL-NNS (sport))(REL-NN (trophy))))) |BT| (ROOT (S (VP (VBG (vie)))(PP (IN (for)))(REL-NP (DT (the))(REL-JJS (oldest))(REL-NN (trophy)))(PP (IN (in)))(REL-NP (JJ (professional))(REL-NNS (sport)))(NP (NNP (america))(NNP (true)))(ADVP (RB (recently))))) |ET| 1:0.35355338 2:0.19712445 3:0.13968606 4:0.14200214 5:0.10540926 11:0.21195026 12:0.17671137 14:0.57881057 15:0.38632515 16:0.2381371  |BV| 1:0.27153769 2:0.1836796 3:0.23354968 4:0.1301448 5:0.17677671 6:0.04222003 8:0.02981424 11:0.27691573 12:0.23166619 13:0.057377528 14:0.55227637 15:0.36197475 16:0.26513466  |EV| 
0.63106044133393801587317284429446  |BT| (ROOT (S (REL-NP (WP (what))(REL-NN (continent)))(VP (VBZ (be)))(REL-NP (DT (the))(REL-NN (world)))(REL-FOCUS-LOC-NP (POS ('s))(REL-JJS (largest))(NN (dessert)))(PP (IN (on))))) |BT| (ROOT (S (NP (NNP (china)))(VP (VBZ (be)))(REL-NP (DT (the))(REL-JJS (largest))(VBG (develop))(NN (country)))(REL-FOCUS-LOC-NP (NNP (africa)))(VP (VBZ (be))(VBN (consider)))(REL-NP (DT (the))(REL-JJS (largest))(VBG (develop))(REL-NN (continent)))(PP (IN (in)))(REL-NP (DT (the))(REL-NN (world))))) |BT| (ROOT (S (REL-NP (WP (what))(REL-NN (continent)))(VP (VBZ (be)))(REL-NP (DT (the))(REL-NN (world)))(REL-FOCUS-LOC-NP (REL-POS ('s))(REL-JJS (largest))(NN (dessert)))(PP (IN (on))))) |BT| (ROOT (S (VP (VBZ (be)))(ADVP (RB (already)))(REL-NP (DT (the))(REL-NN (world)))(REL-NP (REL-POS ('s))(JJ (no.1))(JJ (mobile))(NN (carrier)))(PP (IN (with)))(NP (IN (over))(CD (30))(CD (million))(NNS (customer)))(SBAR (IN (while)))(NP (NNP (mannesmann)))(REL-NP (DT (the))(REL-JJS (largest)))(PP (IN (in)))(REL-NP (JJ (european))(REL-NN (continent))))) |ET| 1:0.51961523 2:0.3533709 3:0.33333334 4:0.25485095 5:0.25125945 6:0.077673562 7:0.086710997 8:0.05555556 9:0.06537205 11:0.4012576 12:0.33203915 13:0.077771381 14:0.7599591 15:0.67157233 16:0.27194953  |BV| 1:0.42163703 2:0.28903666 3:0.30949223 4:0.22439636 5:0.2227177 6:0.099944487 7:0.072739303 8:0.069337517 9:0.053376049 10:0.036155079 11:0.42513952 12:0.35588849 13:0.1127087 14:0.71999305 15:0.59996074 16:0.22514281  |EV| 
-0.54365749191393619721424101953744  |BT| (ROOT (S (NP (WP (what)))(VP (VBZ (be)))(REL-NP (REL-NNP (south))(REL-NNP (africa)))(REL-FOCUS-NUM-NP (POS ('s))(JJ (total))(REL-NN (population))))) |BT| (ROOT (S (NP (NNP (gauteng)))(PP (IN (with)))(REL-NP (DT (a))(REL-NN (population)))(PP (IN (of)))(NP (JJR (more))(IN (than))(CD (seven))(CD (million)))(NP (DT (the))(JJ ("economic))(NN (powerhouse)))(PP (IN (of)))(REL-NP (REL-NNP (south))(REL-NNP (africa))))) |BT| (ROOT (S (NP (WP (what)))(VP (VBZ (be)))(REL-NP (REL-NNP (south))(REL-NNP (africa)))(REL-FOCUS-NUM-NP (POS ('s))(REL-JJ (total))(REL-NN (population))))) |BT| (ROOT (S (REL-NP (REL-NNP (south))(REL-NNP (africa)))(VP (VBZ (have)))(REL-NP (DT (a))(REL-JJ (total))(REL-NN (population)))(PP (IN (of)))(NP (IN (about))(CD (42))(CD (million))))) |ET| 1:0.32826608 2:0.21693046 3:0.34426519 4:0.15430336 5:0.25197631 6:0.042295489 7:0.10482848 8:0.02969569 9:0.078567423 11:0.28260869 12:0.23214287 13:0.059391391 14:0.59917575 15:0.36436811 16:0.24846673  |BV| 1:0.37688917 2:0.28226724 3:0.48507124 4:0.19886684 5:0.35355338 6:0.091192149 7:0.19518001 8:0.064150028 9:0.14547859 11:0.25176173 12:0.20788047 13:0.062994078 14:0.62347722 15:0.5587998 16:0.31543854  |EV| 
