SVM-light Version V5.01-TK-1.5
5 # kernel type
3 # kernel parameter -d 
1 # kernel parameter -g 
1 # kernel parameter -s 
1 # kernel parameter -r 
empty# kernel parameter -u 
0.4 # kernel parameter -L 
1 # kernel parameter -T 
T # kernel parameter -C 
1 # kernel parameter -F 
1 # kernel parameter -S 
0.400000 # kernel parameter -M 
3 # kernel parameter -N 
S # kernel parameter -V 
S # kernel parameter -W 
0 # kernel parameter -U 
10 # highest feature index 
5452 # number of training documents 
1955 # number of support vectors plus 1 
1.1149925 # threshold b, each following line is a SV (starting with alpha*y)
-0.0027037277028479564378038446648134  |BT| (ROOT (SBARQ (WHNP (WDT (what))(NNS (film)))(SQ (NP (DT (the))(NN (character))(NNP (popeye))(NNP (doyle)))))) |ET| 
-0.37612356083564307818178917841578  |BT| (ROOT (SBARQ (WHNP (WP (what)))(SQ (VP (S (NP (NP (NNP (mao)))(NP (NP (JJ (chinese))(NN (leader))(POS ('s)))))(ADJP (JJ (full))(NN (name)))))))) |ET| 
-0.11125390973025410523700173826001  |BT| (ROOT (SBARQ (WHNP (WHADJP (WRB (how))(JJ (many)))(NP (NP (NNS (gallon)))(PP (NP (NN (water))))))(SQ (PP (NP (NP (NNP (niagra))(NNP (falls)))(NP (DT (every))(NN (second)))))))) |ET| 
0.20223030081599308038775575369073  |BT| (ROOT (SBARQ (WHADVP (WRB (how)))(SQ (NP (PRP (you)))(VP (PRT (RP (out)))(SBAR (WHNP (WP (what)))(S (VP (VP (S (VP (VP (PP (NP (DT (a))(NN (contibution))))(PP (NP (NN (income))(NN (tax))(NNS (purpose))))))))))))))) |ET| 
-0.5775427458519357681865358244977  |BT| (ROOT (SBARQ (WHNP (WDT (what))(NN (cooking))(NN (oil)))(SQ (NP (`` (``))(NN (corn))(NN (goodness))('' ('')))))) |ET| 
0.10068892953206722007397644347293  |BT| (ROOT (SBARQ (WHADVP (WRB (how)))(SQ (NP (PRP (they)))(VP (VP (VB (find)))(VP (NP (NNS (witness)))(PP (NP (DT (a))(NN (execution))))))))) |ET| 
0.43309413078999586810269306624832  |BT| (ROOT (SBARQ (WHADVP (WRB (how)))(SQ (NP (PRP (i)))(VP (NP (NP (DT (a))(NN (list)))(PP (NP (NP (NNS (celebrity))(POS (')))))))))) |ET| 
0.58455530663562382809317341525457  |BT| (ROOT (SBARQ (WHNP (WP (what)))(SQ (NP (NN (liver))(NNS (enzyme)))))) |ET| 
0.27770791168363501144611404924945  |BT| (ROOT (SBARQ (WHADVP (WRB (why)))(SQ (NP (NP (NNP (rush))(POS ('s))))(VP (NP (CD (2112))))))) |ET| 
1  |BT| (ROOT (SBARQ (WHNP (WP (what)))(SQ (NP (NP (ADJP (RB (only))(VBN (repeal))))(PP (NP (DT (the))(NNP (u.s.))(NNP (constitution)))))(VP (PP (IN (with))))))) |ET| 
-0.14364615035793118491547204484959  |BT| (ROOT (SBARQ (WHADVP (WRB (where)))(SQ (NP (PRP (i)))(VP (NP (NN (mailing))(NNS (list))))))) |ET| 
0.15444334017546770820850099426025  |BT| (ROOT (SBARQ (WHNP (WP (what)))(SQ (NP (DT (a))(NN (multiplexer)))))) |ET| 
0.37108888439735704389832449123787  |BT| (ROOT (SBARQ (WHNP (WP (what)))(SQ (NP (NP (DT (the))(NN (difference)))(PP (NP (NNS (carelessness))(CC (and))(NNS (carefreeness)))))))) |ET| 
1  |BT| (ROOT (SBARQ (WHNP (WDT (what))(NNS (problem)))(SQ (VP (PP (NP (NP (DT (the))(JJ (high))(NN (failure))(NN (rate)))(PP (NP (NNP (plains))(NNS (farmer))))))(PP (NP (DT (the))(NN (1800)))))))) |ET| 
1  |BT| (ROOT (SBARQ (WHNP (WDT (what))(NN (excuse)))(SQ (NP (DT (the))(NNP (nato))(NNS (people)))(VP (PP (S (VP (NP (DT (the))(JJ (chinese))(NN (embassy)))))))))) |ET| 
1  |BT| (ROOT (SBARQ (WHNP (WDT (what))(NN (motto)))(SQ (VP (NP (NNP (merrie))(NNP (melodies))(NNS (cartoon))))))) |ET| 
-1  |BT| (ROOT (SBARQ (WHNP (WP (what)))(SQ (NP (NN (snafu)))(VP (PP (IN (for))))))) |ET| 
-1  |BT| (ROOT (SBARQ (WHNP (WP (what)))(SQ (NP (NN (ph)))(VP (PP (IN (for))))))) |ET| 
-1  |BT| (ROOT (SBARQ (WHNP (WP (what)))(SQ (VP (PP (NP (NN (death)))))))) |ET| 
0.54120634038825776723768967713113  |BT| (ROOT (SBARQ (WHADVP (WRB (how)))(SQ (NP (PRP (i)))(VP (NP (DT (a))(NN (file)))(PP (NP (DT (a))(NNP (art))(NN (file))))(PP (NP (ADJP (NNP (jpeg))(CC (or))(NNP (bitmap))))))))) |ET| 
0.88576194929564067148675121643464  |BT| (ROOT (SBARQ (WHADVP (WRB (why)))(SQ (NP (NP (NP (NNP (microsoft))(POS ('s))))(NP (PDT (such))(DT (a))(JJ (successful))(NN (computer))(NN (program))))))) |ET| 
0.51065757787892984698174814184313  |BT| (ROOT (SBARQ (WHADVP (WRB (why)))(SQ (NP (DT (the))(NN (world)))(VP (NP (DT (a))(JJ (global))(NN (depression)))(PP (NP (CD (1929)))))))) |ET| 
-1  |BT| (ROOT (SBARQ (WHADVP (WRB (how)))(SQ (NP (PRP (you)))(VP (ADJP (PP (NP (NNP (spanish))))))))) |ET| 
-1  |BT| (ROOT (SBARQ (WHADVP (WRB (where)))(SQ (NP (PRP (i)))(VP (NP (NP (JJ (pictorial))(NNS (direction)))(PP (SBAR (WHADVP (WRB (how)))(S (VP (VP (NP (ADJP (RB (very))(JJ (simple)))))))))))))) |ET| 
-1  |BT| (ROOT (SBARQ (WHADVP (WRB (how)))(SQ (NP (PRP (you)))(VP (NP (CD (2)))(PP (NP (NNP (latin)))))))) |ET| 
1  |BT| (ROOT (SBARQ (WHNP (WP (what)))(SQ (NP (NN (laser)))(VP (PP (IN (for))))))) |ET| 
1  |BT| (ROOT (SBARQ (WHNP (WP (what)))(SQ (VP (PP (NP (NNP (pompeii)))))))) |ET| 
1  |BT| (ROOT (SBARQ (WHNP (WP (what)))(SQ (NP (NNP (hazmat)))(VP (PP (IN (for))))))) |ET| 
-0.19885923798806698359342703952279  |BT| (ROOT (SBARQ (WHNP (WP (what)))(SQ (NP (NNP (s.o.s.)))(VP (PP (IN (for))))))) |ET| 
-0.19885923798806773299396866150346  |BT| (ROOT (SBARQ (WHNP (WP (what)))(SQ (NP (NNP (nasdaq)))(VP (PP (IN (for))))))) |ET| 
-0.19885923798806495743640709861211  |BT| (ROOT (SBARQ (WHNP (WP (what)))(SQ (NP (NNP (g.m.t.)))(VP (PP (IN (for))))))) |ET| 
0.46975140988279429077323356978013  |BT| (ROOT (SBARQ (WHADVP (WRB (why)))(SQ (NP (NP (DT (the))(JJ (american))(NNS (soldier)))(PP (NP (NNP (wwi)))))(VP (NP (`` (``))(NNPS (doughboys))('' (''))))))) |ET| 
0.36994779801083366166380983486306  |BT| (ROOT (SBARQ (WHADVP (WRB (how)))(SQ (NP (PRP (you)))(VP (NP (DT (a))(NN (girl)))(S (VP (VP (NP (NN (sex)))(PP (NP (PRP (you))))))))))) |ET| 
-0.7264627435025728940942713052209  |BT| (ROOT (SBARQ (WHNP (WDT (what))(NNS (food)))(SQ (NP (NN (vitamin))(NN (b12)))))) |ET| 
-1  |BT| (ROOT (SBARQ (WHADVP (WRB (how)))(SQ (NP (PRP (you)))(VP (SBAR (S (NP (PRP (i)))(VP (NP (PRP (you)))(PP (NP (JJ (other))(NNS (language))))))))))) |ET| 
-0.26787032661077064821242288417125  |BT| (ROOT (SBARQ (WHNP (WP (what)))(SQ (NP (NP (DT (the))(JJS (youngest))(NN (age)))(SBAR (S (NP (DT (a))(NN (boy))(CC (or))(NN (girl)))(VP (VP (NP (DT (a))(NN (orgasm))))))))))) |ET| 
-1  |BT| (ROOT (SBARQ (WHADVP (WRB (how))(RB (far)))(SQ (NP (PRP (you)))(VP (S (VP (VP (SBAR (S (NP (PRP (you)))(VP (NP (DT (a))(NN (home))(NN (run))))))))))))) |ET| 
1  |BT| (ROOT (SBARQ (WHNP (WP (what)))(SQ (NP (NNP (jane))(NNP (goodall)))(VP (PP (IN (for))))))) |ET| 
1  |BT| (ROOT (SBARQ (WHNP (WP (what)))(SQ (NP (NNP (d.b.))(NNP (cooper)))(VP (PP (IN (for))))))) |ET| 
1  |BT| (ROOT (SBARQ (WHNP (WP (what)))(SQ (NP (NNP (margaret))(NNP (thatcher)))(VP (PP (IN (for))))))) |ET| 
-0.80159102686573058260677271391614  |BT| (ROOT (SBARQ (WHNP (WP (what)))(SQ (NP (NNP (shirley))(NNP (maclaine)))(VP (PP (IN (as))))))) |ET| 
-1  |BT| (ROOT (SBARQ (WHNP (WP (what)))(SQ (NP (NNP (larry))(NNP (king)))(VP (PP (NP (DT (a))(NN (living)))))))) |ET| 
-1  |BT| (ROOT (SBARQ (WHNP (WP (what)))(SQ (NP (NNP (nicholas))(NNP (cage)))(VP (PP (NP (DT (a))(NN (living)))))))) |ET| 
-0.19749861843104796199632744446717  |BT| (ROOT (SBARQ (WHNP (WP (what)))(SQ (NP (NP (DT (the))(NN (dot)))(PP (NP (DT (a))(DT (the))(NN (letter))(FW (i)))))(VP (VBN (call)))))) |ET| 
0.80414166671494913263273929260322  |BT| (ROOT (SBARQ (WHADVP (WRB (why)))(SQ (VP (VP (S (VP (NP (NN (t))))))(SBAR (S (NP (PRP (you)))(VP (NP (NN (anything)))(SBAR (WHADVP (WRB (when)))(S (NP (PRP (you)))(VP (NP (DT (a))(NN (cold))))))))))))) |ET| 
1  |BT| (ROOT (SBARQ (WHNP (WP (what)))(SQ (NP (PRP (you)))(VP (SBAR (WHADVP (WRB (when)))(S (NP (PRP (you)))(VP (NP (DT (a))(NN (seashell)))(PP (NP (PRP$ (you))(NN (ear))))))))))) |ET| 
-0.55347352923354387055354663971229  |BT| (ROOT (SBARQ (WHADVP (WRB (when)))(SQ (NP (PRP (you)))(VP (NP (NN (winter))(NN (wheat))))))) |ET| 
-0.50212355031529987137162152066594  |BT| (ROOT (SBARQ (WHADVP (WRB (when)))(SQ (NP (NN (swimming)))(VP (ADJP (JJ (commonplace))))))) |ET| 
-0.57531196395412342869946087375865  |BT| (ROOT (SBARQ (WHADVP (WRB (when)))(SQ (NP (NN (sheep)))(VP (VB (shear)))))) |ET| 
1  |BT| (ROOT (SBARQ (WHNP (WDT (what))(NN (effect)))(SQ (NP (NNP (lsd)))(VP (PP (NP (DT (the))(NN (brain)))))))) |ET| 
1  |BT| (ROOT (SBARQ (WHNP (WP (what)))(SQ (NP (NN (storm))(NN (wave)))(VP (PP (NP (NNP (japanese)))))))) |ET| 
1  |BT| (ROOT (SBARQ (WHNP (WP (what)))(SQ (NP (DT (the))(NN (double-o)))(VP (PP (NP (CD (007)))))))) |ET| 
-1  |BT| (ROOT (SBARQ (WHNP (WP (what)))(SQ (NP (DT (a))(NN (society)))(VP (PP (NP (NNS (elder)))))))) |ET| 
-1  |BT| (ROOT (SBARQ (WHNP (WP (what)))(SQ (NP (DT (the))(NN (crocodile)))(VP (PP (NP (NNP (peter))(NNP (pan)))))))) |ET| 
-1  |BT| (ROOT (SBARQ (WHNP (WP (what)))(SQ (VP (PP (NP (NNS (jeroboam)))))))) |ET| 
1  |BT| (ROOT (SBARQ (WHADVP (WRB (where)))(SQ (NP (NN (marijuana)))(VP (PP (IN (from))))))) |ET| 
1  |BT| (ROOT (SBARQ (WHADVP (WRB (where)))(SQ (NP (NNS (chihuahua)))(VP (PP (IN (from))))))) |ET| 
1  |BT| (ROOT (SBARQ (WHADVP (WRB (where)))(SQ (NP (NNS (rock)))(VP (PP (IN (from))))))) |ET| 
-1  |BT| (ROOT (SBARQ (WHADVP (WRB (where)))(SQ (NP (NN (chocolate)))(VP (PP (IN (from))))))) |ET| 
-1  |BT| (ROOT (SBARQ (WHADVP (WRB (where)))(SQ (NP (NN (dew)))(VP (PP (IN (from))))))) |ET| 
-1  |BT| (ROOT (SBARQ (WHADVP (WRB (where)))(SQ (NP (NNP (tuberculosis)))(VP (PP (IN (from))))))) |ET| 
1  |BT| (ROOT (SBARQ (WHNP (WP (what)))(SQ (NP (NNP (elysium)))(VP (VB (mean)))))) |ET| 
1  |BT| (ROOT (SBARQ (WHNP (WP (what)))(SQ (NP (NNP (tiffany)))(VP (VB (mean)))))) |ET| 
1  |BT| (ROOT (SBARQ (WHNP (WP (what)))(SQ (NP (NNP (aaron)))(VP (VB (mean)))))) |ET| 
-1  |BT| (ROOT (SBARQ (WHNP (WP (what)))(SQ (NP (NNP (necrosis)))(VP (VB (mean)))))) |ET| 
-1  |BT| (ROOT (SBARQ (WHNP (WP (what)))(SQ (NP (NNP (lol)))(VP (VB (mean)))))) |ET| 
-1  |BT| (ROOT (SBARQ (WHNP (WP (what)))(SQ (NP (NNP (jessica)))(VP (VB (mean)))))) |ET| 
1  |BT| (ROOT (SBARQ (WHADVP (WRB (where)))(SQ (NP (JJ (indian))(NN (pudding)))(VP (PP (IN (from))))))) |ET| 
1  |BT| (ROOT (SBARQ (WHADVP (WRB (where)))(SQ (NP (DT (the))(NN (term))(NN (fireplug)))(VP (PP (IN (from))))))) |ET| 
1  |BT| (ROOT (SBARQ (WHADVP (WRB (where)))(SQ (NP (DT (the))(NN (marriage))(NN (ceremony)))(VP (PP (IN (from))))))) |ET| 
-1  |BT| (ROOT (SBARQ (WHADVP (WRB (where)))(SQ (NP (DT (the))(NN (world)))(VP (PP (IN (from))))))) |ET| 
-0.15507698019240667708373848654446  |BT| (ROOT (SBARQ (WHADVP (WRB (where)))(SQ (NP (DT (the))(NN (opera))(NN (singer))(NNP (ileana))(NNP (cotrubas)))(VP (PP (IN (from))))))) |ET| 
-0.17060246153788133360862389054091  |BT| (ROOT (SBARQ (WHADVP (WRB (where)))(SQ (NP (DT (the))(NN (tennis))(NN (star))(NNP (stefan))(NNP (edberg)))(VP (PP (IN (from))))))) |ET| 
1  |BT| (ROOT (SBARQ (WHNP (WP (what)))(SQ (NP (NNP (tuberculosis)))))) |ET| 
1  |BT| (ROOT (SBARQ (WHNP (WP (what)))(SQ (NP (NNP (melissa)))(VP (VB (mean)))))) |ET| 
1  |BT| (ROOT (SBARQ (WHNP (WP (what)))(SQ (NP (NNP (robert)))(VP (VB (mean)))))) |ET| 
-1  |BT| (ROOT (SBARQ (WHNP (WP (what)))(SQ (NP (NNP (btu)))(VP (VB (mean)))))) |ET| 
-1  |BT| (ROOT (SBARQ (WHNP (WP (what)))(SQ (NP (NNP (bph)))))) |ET| 
1  |BT| (ROOT (SBARQ (WHADVP (WRB (where)))(SQ (NP (NP (DT (the)))(VP (NP (NP (NN (rule)))(PP (NP (NN (thumb)))))))(VP (PP (IN (from))))))) |ET| 
1  |BT| (ROOT (SBARQ (WHADVP (WRB (where)))(SQ (NP (DT (the))(NN (name))(NN (root))(NN (beer)))(VP (PP (IN (from))))))) |ET| 
1  |BT| (ROOT (SBARQ (WHADVP (WRB (where)))(SQ (VP (NP (NP (DT (the))(NN (expression)))(NP (NN (cloud))(CD (nine))))(VP (PP (IN (from)))))))) |ET| 
-0.50459242280861160701022072316846  |BT| (ROOT (SBARQ (WHADVP (WRB (where)))(SQ (NP (NP (JJS (most)))(PP (NP (NP (DT (the))(NN (marijuana)))(VP (NP (DT (the))(NNP (united))(NNP (states)))))))(VP (PP (IN (from))))))) |ET| 
-0.013412582041053970269284256744413  |BT| (ROOT (SBARQ (WHADVP (WRB (where)))(SQ (NP (NP (DT (the))(JJ (weird))(NN (shape)))(PP (NP (DT (the))(NN (dinner))(NN (fish))(NN (knife)))))(VP (PP (IN (from))))))) |ET| 
-1  |BT| (ROOT (SBARQ (WHADVP (WRB (how)))(S (NP (NP (JJ (many))(NNS (type)))(PP (NP (NP (NNS (dog))(POS ('))))))(VP (NP (EX (there)))(NP (CD (three))))))) |ET| 
1  |BT| (ROOT (SBARQ (WHNP (WP (what)))(SQ (NP (DT (a))(NN (tornado)))(VP (VB (turn)))))) |ET| 
1  |BT| (ROOT (SBARQ (WHNP (WP (what)))(SQ (NP (DT (a))(NN (water)))(VP (VB (funnel)))))) |ET| 
1  |BT| (ROOT (SBARQ (WHNP (WP (what)))(SQ (NP (DT (a))(NN (emperor)))(VP (VB (do)))))) |ET| 
-0.58161076232335828795072529828758  |BT| (ROOT (SBARQ (WHNP (WP (what)))(SQ (NP (DT (a))(NN (spermologer)))(VP (VB (collect)))))) |ET| 
-0.58161076232335107150106523477007  |BT| (ROOT (SBARQ (WHNP (WP (what)))(SQ (NP (DT (a))(NN (philatelist)))(VP (VB (collect)))))) |ET| 
-0.077274940315597881457243545355595  |BT| (ROOT (SBARQ (WHNP (WDT (what))(NN (penalty))(NN (space)))(SQ (VP (PP (NP (NP (NNP (baltic))(NNP (avenue)))(NP (NP (NNP (reading))(NN (railroad)))(PP (NP (DT (a))(NNP (monopoly))(NN (board))))))))))) |ET| 
1  |BT| (ROOT (SBARQ (WHNP (WP (what)))(SINV (S (VP (PP (NP (DT (the))(NNP (kinsey))(NNP (institute))))))(VP (VBZ (be)))(NP (NP (DT (the))(JJ (sexual))(NN (preference)))(PP (NP (NP (CD (four))(NN (percent)))(PP (NP (JJ (american))(NNS (male)))))))))) |ET| 
0.86406533292999143647250548383454  |BT| (ROOT (SBARQ (WHADVP (WRB (why)))(SQ (NP (NP (NNS (people)))(PP (NP (NP (DT (the))(JJ (upper))(NN (peninsula)))(PP (NP (NNP (michagin)))))))(VP (INTJ (`` (``))(UH (eh))(. (?))('' (''))))))(INTJ (UH (?)))) |ET| 
1  |BT| (ROOT (SBARQ (WHNP (WDT (what))(NN (baseball))(NN (expression)))(SQ (VP (PP (NP (NP (DT (the))(JJ (nautical))(NN (term)))(PP (NP (NP (NNS (ship)))(VP (PP (NP (DT (the))(NNP (atlantic))(CC (and))(NNP (pacific))))(PP (NP (DT (the))(NNP (panama))(NNP (canal))))))))))))) |ET| 
-0.021536609431493630717469045521284  |BT| (ROOT (SBARQ (WHNP (WP (what)))(SQ (NP (NP (DT (the))(JJ (predominant))(NN (color)))(PP (NP (DT (the))(NNP (tab))(NN (label)))))))) |ET| 
-0.1238899211475225636824859520857  |BT| (ROOT (S (NP (NNP (woodrow))(NNP (wilson)))(VP (PP (NP (NN (president))))(PP (WHNP (WDT (what))(NN (university))))))) |ET| 
-0.098295100240877147923512779925659  |BT| (ROOT (S (VP (NP (NP (DT (the))(NN (vessel)))(VP (PP (NP (DT (the))(NNP (atari))(NNP (force))))(PP (NP (DT (the))(NNP (dc))(NNS (comic))))))))) |ET| 
1  |BT| (ROOT (SBARQ (WHNP (WP (what)))(SQ (NP (NN (popcorn)))(VP (VB (pop)))))) |ET| 
1  |BT| (ROOT (SBARQ (WHNP (WP (what)))(SQ (NP (DT (a))(NN (echidna)))(VP (PP (IN (like))))))) |ET| 
0.16090013133213265650311996068922  |BT| (ROOT (SBARQ (WHNP (WP (what)))(SQ (NP (DT (a))(NN (caldera)))))) |ET| 
-1  |BT| (ROOT (SBARQ (WHNP (WP (what)))(SQ (NP (NNS (peacock)))(VP (PP (IN (with))))))) |ET| 
-1  |BT| (ROOT (SBARQ (WHNP (WP (what)))(SQ (NP (DT (a))(NN (adult)))))) |ET| 
-0.4552849451745079600861743074347  |BT| (ROOT (SBARQ (WHNP (WP (what)))(SQ (NP (NNS (ladybug)))(VP (VB (eat)))))) |ET| 
1  |BT| (ROOT (SBARQ (WHNP (WDT (what))(NNS (current)))(SQ (NP (NP (DT (the))(NN (area)))(PP (NP (NP (DT (the))(NNP (shetland))(NNPS (islands)))(NP (NP (NNP (orkney))(NNPS (islands)))(PP (NP (DT (the))(NNP (north))(NNP (sea))))))))))) |ET| 
1  |BT| (ROOT (SBARQ (WHNP (WP (what)))(SQ (NP (NP (DT (the))(NN (origin)))(PP (NP (NP (DT (the))(NN (term)))(NP (JJ (buffalo))(NNS (wing)))(SBAR (WHNP (WDT (that)))(S (VP (VP (PP (NP (NP (DT (a))(NN (menu))(NN (item)))(PP (NP (NP (NNS (bar)))(PP (NP (NP (DT (the))(NN (nation)))(PP (NP (NN (chicken))(NNS (wing))))))))))(PP (NP (DT (a))(JJ (spicey))(NN (sauce)))))))))))))) |ET| 
1  |BT| (ROOT (S (VP (NP (DT (the))(NNP (pheonix))(NNP (club)))))) |ET| 
-0.83109023128662184998205475494615  |BT| (ROOT (SBARQ (WHNP (WP (what)))(SQ (NP (NP (DT (some))(JJ (good))(NNS (exercise)))(PP (NP (S (VP (VP (VB (do))))))))))) |ET| 
0.56254254296964878445663771344698  |BT| (ROOT (SBARQ (WHNP (WP (what)))(SQ (NP (`` (``))(JJ (rolling))(NN (thunder))('' ('')))))) |ET| 
-0.049812026506977004347564985664576  |BT| (ROOT (SBARQ (WHNP (WDT (what))(NN (letter)))(SQ (VP (PP (NP (NP (DT (the))(NN (right)))(PP (NP (NNP (k))))))(PP (NP (DT (a))(NN (typewriter))(NN (keyboard)))))))) |ET| 
1  |BT| (ROOT (SBARQ (WHNP (WP (what)))(SQ (NP (NNP (delilah)))(VP (PP (NP (NP (NNP (samson))(POS ('s))))))))) |ET| 
1  |BT| (ROOT (SBARQ (WHNP (WP (what)))(SQ (NP (NNP (cushman))(CC (and))(NNP (wakefield)))(VP (PP (IN (for))))))) |ET| 
1  |BT| (ROOT (SBARQ (WHNP (WP (what)))(SQ (VP (PP (NP (NNS (curie)))))))) |ET| 
-1  |BT| (ROOT (SBARQ (WHNP (WP (what)))(SQ (NP (PRP (you)))(VP (PP (S (VP (NP (NN (gin))(CC (and))(NN (vermouth)))))))))) |ET| 
-1  |BT| (ROOT (SBARQ (WHNP (WP (what)))(SQ (NP (DT (a))(JJ (topophobic))(NN (actor)))(VP (PP (IN (from))))))) |ET| 
-1  |BT| (ROOT (SBARQ (WHNP (WP (what)))(SQ (NP (NNP (jell-o)))(VP (PP (IN (from))))))) |ET| 
1  |BT| (ROOT (SBARQ (WHNP (WP (what))(RB (exactly)))(SQ (NP (NP (DT (the))(NN (purpose)))(PP (NP (DT (the))(NN (anteater)))))))) |ET| 
1  |BT| (ROOT (SBARQ (WHADVP (WRB (how)))(SQ (NP (NP (DT (the))(NN (speed)))(SBAR (S (NP (DT (the))(NN (magnet)))(VP (PP (NP (DT (a))(NN (generator))))))))(VP (NP (NP (DT (the))(NN (output)))(PP (NP (DT (the))(NN (generator))))))))) |ET| 
1  |BT| (ROOT (SBARQ (WHNP (WP (what)))(SQ (NP (NP (DT (the))(NN (difference)))(PP (NP (NP (DT (the))(NNS (anus)))(NP (DT (the))(NN (rectum))))))))) |ET| 
-0.19167146073716692655786175691901  |BT| (ROOT (SBARQ (WHNP (NP (NP (NN (chocolate))(NN (bar)))(PP (NP (NP (NNP (frank))(NNP (mars)))(NP (PRP$ (he))(NN (wife)))))))(SQ (ADVP (RB (often)))(VP (NP (NP (DT (a))(NNP (milky))(NNP (way)))(PP (NP (NNS (peanut))))))))) |ET| 
-0.025132122212102311203940629980025  |BT| (ROOT (SBARQ (WHADJP (WRB (how))(JJ (much)))(SQ (NP (DT (a))(JJ (new))(NN (railroad))(NN (coal))(NN (car)))(VP (VB (cost)))))) |ET| 
-1  |BT| (ROOT (SBARQ (WHNP (WP (what)))(SQ (NP (NP (DT (the))(NN (name)))(PP (NP (NP (DT (the))(NN (gulf)))(PP (NP (NNP (sweden))(CC (and))(NNP (finland)))))))))) |ET| 
1  |BT| (ROOT (SBARQ (WHNP (WP (what)))(SQ (NP (PRP (i)))(VP (S (VP (VP (S (VP (VP (NP (NN (web))(NNS (page))))))))))))) |ET| 
1  |BT| (ROOT (SBARQ (WHNP (WP (what)))(SQ (NP (PRP (it)))(VP (S (VP (VP (NP (DT (a))(JJ (near))(NN (death))(NN (episode)))))))))) |ET| 
1  |BT| (ROOT (SBARQ (WHNP (WP (what)))(SQ (NP (NNP (john))(NNP (hinckley)))(VP (S (VP (VP (NP (NNP (jodie))(NNP (foster)))))))))) |ET| 
-1  |BT| (ROOT (SBARQ (WHNP (WP (what)))(SQ (NP (PRP (it)))(VP (S (VP (VP (NP (DT (a))(NN (hero)))))))))) |ET| 
-1  |BT| (ROOT (SBARQ (WHNP (WP (what)))(SQ (NP (PRP (it)))(VP (S (VP (VP (NP (DT (a))(NN (lawyer)))))))))) |ET| 
-0.38549629074965680031183978826448  |BT| (ROOT (SBARQ (WHNP (WP (who)))(SQ (NP (NP (DT (the))(NN (software)))(NP (`` (``))(NNP (photoshop))('' (''))))))) |ET| 
1  |BT| (ROOT (SBARQ (WHNP (WDT (what))(NN (function)))(SQ (NP (RB (homeostasis)))(VP (PP (NP (NP (DT (the))(NN (existence)))(PP (NP (DT (a))(NN (organism)))))))))) |ET| 
1  |BT| (ROOT (SBARQ (WHADVP (WRB (where)))(SQ (NP (NP (DT (the))(NN (energy)))(PP (NP (DT (the))(NNP (big))(NNP (bang)))))(VP (PP (IN (from))))))) |ET| 
1  |BT| (ROOT (SBARQ (WHNP (WDT (what))(NN (incident)))(SQ (NP (NP (DT (the))(NN (canning)))(PP (NP (NP (DT (a))(NN (summit))(NN (conference)))(PP (NP (NNP (eisenhower))(CC (and))(NNP (khrushchev)))))))))) |ET| 
0.59643937075079689336121191445272  |BT| (ROOT (SBARQ (WHNP (WP (what)))(SQ (ADVP (RB (chromatology)))))) |ET| 
-1  |BT| (ROOT (S (NP (DT (the))(NN (corpus))(NN (callosum)))(VP (PP (NP (NP (WP (what))(NN (part)))(PP (NP (DT (the))(NN (body))))))))) |ET| 
-1  |BT| (ROOT (SBARQ (WHADVP (WRB (when)))(SQ (NP (NP (DT (the))(NN (use)))(PP (NP (`` (``))(DT (the))(NN (syringe))('' ('')))))(ADVP (RB (first)))(VP (PP (NP (JJ (medicinal))(NN (history)))))))) |ET| 
1  |BT| (ROOT (SBARQ (WHNP (WP (what)))(SQ (NP (PRP (you)))(VP (S (VP (VP (NP (DT (a))(NN (taxi)))(PP (NP (NNP (madrid))))))))))) |ET| 
1  |BT| (ROOT (SBARQ (WHNP (WP (what)))(SQ (NP (PRP (you)))(VP (PP (NP (NP (DT (a))(NN (friend)))(SBAR (WHNP (WP (who)))(S (VP (NP (PRP (you)))(PP (NP (JJ (other))(NNS (friend))))))))))))) |ET| 
1  |BT| (ROOT (SBARQ (WHNP (WP (what)))(SQ (NP (PRP (you)))(VP (S (VP (VP (S (VP (VP (NP (NN (someone)))(PP (NP (NN (jail)))))))))))))) |ET| 
-1  |BT| (ROOT (SBARQ (WHNP (WP (what)))(SQ (NP (NNS (people)))(VP (S (VP (VP (NP (PRP$ (they))(NN (breath)))(PP (NP (NN (toothpaste))))))))))) |ET| 
-0.66895272184829357442481523321476  |BT| (ROOT (SBARQ (WHNP (WP (what)))(SQ (NP (PRP (i)))(VP (S (VP (VP (NP (DT (the))(JJ (stubborn))(JJ (gummed))(NNS (label)))(PP (NP (DT (some))(NNS (diskette))))))))))) |ET| 
-1  |BT| (ROOT (SBARQ (WHADVP (WRB (how)))(SQ (NP (PRP (you)))(VP (SBAR (S (NP (PRP (i)))(VP (NP (PRP (you)))(PP (NP (NNP (spanish))))))))))) |ET| 
-0.38959853155054741113971772392688  |BT| (ROOT (SBARQ (WHNP (WP (what)))(SQ (NP (NP (DT (the))(VBG (start))(NN (salary)))(PP (S (VP (NP (NNS (lawyer)))))))))) |ET| 
1  |BT| (ROOT (SBARQ (WHNP (WP (what)))(SQ (NP (NP (DT (the))(NN (history)))(PP (NP (`` (``))(DT (the))(NN (toast))('' ('')))))))) |ET| 
1  |BT| (ROOT (SBARQ (WHNP (WP (what)))(SQ (NP (NP (DT (the))(NN (origin)))(PP (SBAR (S (NP (NN (beauty)))(VP (PP (NP (NP (DT (the))(NN (eye)))(PP (NP (DT (the))(NN (beholder)))))))))))))) |ET| 
-1  |BT| (ROOT (SBARQ (WHNP (WP (what)))(SQ (NP (NP (DT (the))(NN (value)))(PP (NP (DT (the))(NN (pearl)))))))) |ET| 
-1  |BT| (ROOT (SBARQ (WHNP (WP (what)))(SQ (NP (NP (DT (the))(NN (habitat)))(PP (NP (DT (the))(NN (chickadee)))))))) |ET| 
-1  |BT| (ROOT (SBARQ (WHNP (WP (what)))(SQ (NP (NP (DT (the))(NN (wingspan)))(PP (NP (DT (a))(NN (condor)))))))) |ET| 
-0.33518195264118461063063136862183  |BT| (ROOT (SBARQ (WHNP (WP (what)))(SQ (NP (NP (PDT (all))(DT (the))(NNS (river)))(PP (NP (NNP (europe)))))))) |ET| 
1  |BT| (ROOT (SBARQ (WHADVP (WRB (where)))(SQ (ADJP (`` (``))(JJ (bovine))('' ('')))(VP (PP (IN (from))))))) |ET| 
0.061733581905082691998476462913459  |BT| (ROOT (SBARQ (WHADVP (WRB (how)))(SQ (NP (`` (`))(NN (stat))('' (')))(VP (S (VP (VP (VP (PP (NP (NP (DT (a))(NN (expression)))(PP (NP (RB (quickly)))))))))))))) |ET| 
-1  |BT| (ROOT (SBARQ (WHADVP (WRB (how)))(SQ (NP (PRP (you)))(VP (NP (`` (``))(NNP (grandma))('' ('')))(PP (NP (NNP (irish)))))))) |ET| 
-0.46382839493986655066137814173999  |BT| (ROOT (SBARQ (WHADVP (WRB (where)))(SQ (NP (PRP (i)))(VP (PP (NP (NNP (samuel))(NNP (gompers)))))))) |ET| 
-0.46382839493986954826354462966265  |BT| (ROOT (SBARQ (WHADVP (WRB (where)))(SQ (NP (PRP (i)))(VP (PP (NP (NNP (chiang))(NNP (kai-shek)))))))) |ET| 
1  |BT| (ROOT (SBARQ (WHNP (WP (what)))(SQ (NP (NP (DT (the))(NN (secret)))(PP (NP (DT (the))(NN (universe)))))))) |ET| 
1  |BT| (ROOT (SBARQ (WHNP (WP (what)))(SQ (NP (NP (DT (the))(NN (definition)))(PP (NP (DT (a))(NN (cascade)))))))) |ET| 
1  |BT| (ROOT (SBARQ (WHNP (WP (what)))(SQ (NP (NP (DT (the))(NN (executor)))(PP (NP (DT (a))(NN (will)))))))) |ET| 
-0.51547062174501356857092559948796  |BT| (ROOT (SBARQ (WHNP (WP (what)))(SQ (NP (NP (DT (the))(NN (term)))(PP (NP (NP (DT (a))(NN (bet)))(SBAR (S (NP (NNS (card)))(VP (VP (VBN (deal)))))))))))) |ET| 
-0.1978745833053678626622939873414  |BT| (ROOT (SBARQ (WHADVP (WRB (where)))(SQ (NP (PRP (i)))(VP (NP (NP (NN (book))(NNS (review)))(PP (NP (`` (``))(JJ (turbulent))(NNS (soul))('' (''))))))))) |ET| 
1  |BT| (ROOT (SBARQ (WHADVP (NP (NP (NNS (shouldn))(POS (')))))(SQ (NP (PRP (you)))(VP (NP (DT (a))(NN (bee))(NN (stinger)))(PP (NP (NNS (tweezers)))))))) |ET| 
0.14166319057290605032406460850325  |BT| (ROOT (SBARQ (WHADVP (WRB (why)))(SQ (NP (DT (some))(NNS (people)))(VP (NP (CD (two))(JJ (different))(NN (color))(NNS (eye))))))) |ET| 
1  |BT| (ROOT (SBARQ (WHNP (WDT (what))(NN (information)))(SQ (NP (PRP (you)))(VP (NP (PRP (i)))(PP (NP (NP (NNP (fairground))(NNP (park)))(PP (NP (NNP (st.))(NNP (louis)))))))))) |ET| 
-0.49563708248938576073072681538179  |BT| (ROOT (SBARQ (WHNP (WP (what)))(SQ (NP (NP (DT (the))(JJ (top))(NN (vegetable))(NNS (crop)))(PP (NP (DT (the))(NN (world)))))))) |ET| 
0.35125694459862255580873124927166  |BT| (ROOT (SBARQ (WHNP (WP (what)))(SQ (NP (NP (DT (the))(NN (origin)))(PP (NP (DT (the))(NN (word))(`` (``))(NN (pallbearer)))))))) |ET| 
-0.2152335645577521106019958097022  |BT| (ROOT (SBARQ (WHNP (WP (what)))(SQ (NP (NP (DT (the))(JJ (collective))(NN (noun)))(PP (NP (NNS (goose)))))))) |ET| 
1  |BT| (ROOT (SBARQ (WHNP (WP (what)))(SQ (NP (NP (DT (the))(CD (three))(NNS (prophecy)))(SBAR (S (NP (DT (the))(NNS (witch)))(VP (PP (NP (NNP (macbeth))))))))))) |ET| 
1  |BT| (ROOT (SBARQ (WHNP (WP (what)))(SQ (NP (NP (DT (the))(NNS (lyric)))(PP (NP (DT (the))(NN (star))(JJ (spangled))(NN (banner)))))))) |ET| 
1  |BT| (ROOT (SBARQ (WHNP (WP (what)))(SQ (NP (NP (DT (the))(NNS (word)))(PP (NP (NP (PRP$ (my))(NN (way)))(VP (PP (NP (NNP (paul))(NNP (anka))))))))))) |ET| 
-0.46245229263478104808626767407986  |BT| (ROOT (SBARQ (WHNP (WP (what)))(SQ (NP (NP (DT (the))(NN (name)))(PP (NP (NP (DT (the))(NN (planet)))(SBAR (S (NP (DT (the))(NNPS (ewoks)))(VP (PRT (RP (on)))))))))))) |ET| 
-1  |BT| (ROOT (SBARQ (WHNP (WP (what)))(SQ (NP (NP (DT (the))(NNS (component)))(PP (NP (NN (polyester)))))))) |ET| 
-0.2795401131224652391260576678178  |BT| (ROOT (SBARQ (WHNP (WP (what)))(SQ (NP (PRP (we)))(VP (NP (NP (DT (the))(JJ (imaginary))(NN (line)))(PP (NP (NP (DT (the))(NN (top)))(PP (NP (DT (the))(NNP (rocky))(NNPS (mountains))))))))))) |ET| 
-1  |BT| (ROOT (SBARQ (WHNP (WP (what)))(SQ (NP (NP (DT (the))(NNS (length)))(PP (NP (NN (pearl))(NNS (necklace)))))))) |ET| 
1  |BT| (ROOT (SBARQ (WHPP (WHNP (WDT (what))(NN (cause))))(SQ (NP (NNP (tuberculosis)))(VP (VB (stem)))))) |ET| 
1  |BT| (ROOT (SBARQ (WHPP (WHNP (WDT (what))(NN (reason))))(SQ (NP (DT (some))(NNP (san))(NNP (diego))(NNS (school)))(VP (S (VP (NP (NNS (apple))))))))) |ET| 
1  |BT| (ROOT (SBARQ (WHNP (WDT (what))(NN (function)))(SQ (NP (NP (DT (a))(NN (community))(POS ('s))))(VP (VB (serve)))))) |ET| 
1  |BT| (ROOT (SBARQ (WHNP (WP (what)))(SQ (NP (DT (the))(NNP (low))(NNPS (countries)))))) |ET| 
-0.060495662441934695829903745334377  |BT| (ROOT (SBARQ (WHADJP (WRB (how))(JJ (old)))(SQ (NP (NNP (sir))(NNP (edmund))(NNP (hillary)))(SBAR (WHADVP (WRB (when)))(S (NP (PRP (he)))(VP (NP (NNP (mt.))(NNP (everest))))))))) |ET| 
-0.20950452721945944656312121878727  |BT| (ROOT (SBARQ (WHADVP (WRB (where)))(SQ (NP (NNP (buzz))(NNP (aldrin)))(VP (S (VP (VP (NP (DT (a))(JJ (permanent))(, (,))(JJ (manned))(NN (space))(NN (station)))))))))) |ET| 
1  |BT| (ROOT (SBARQ (WHNP (WP (what)))(SQ (NP (NP (DT (the))(NNS (limit)))(PP (NP (NN (self-defense)))))))) |ET| 
1  |BT| (ROOT (SBARQ (WHNP (WP (what)))(SQ (NP (NP (DT (the))(NNS (cookie)))(PP (NP (NN (internet)))))))) |ET| 
1  |BT| (ROOT (SBARQ (WHNP (WP (what)))(SQ (NP (NP (DT (the))(NNS (benefit)))(PP (NP (NN (home))(NN (school)))))))) |ET| 
-1  |BT| (ROOT (SBARQ (WHNP (WP (what)))(SQ (NP (NP (DT (the))(NNS (ingredient)))(PP (NP (NNP (coca-cola)))))))) |ET| 
-0.42564575807885213221126718963205  |BT| (ROOT (SBARQ (WHNP (WP (what)))(SQ (NP (NP (DT (the))(NN (chemical))(NN (symbol)))(PP (NP (NN (nitrogen)))))))) |ET| 
-0.60748256320384041995197321739397  |BT| (ROOT (SBARQ (WHNP (WP (what)))(SQ (NP (NP (DT (the))(NN (chemical))(NN (reactivity)))(PP (NP (NN (neon)))))))) |ET| 
1  |BT| (ROOT (S (NP (NNP (colin))(NNP (powell)))(VP (ADJP (WHPP (WHNP (WDT (what))(NN (achievement)))))))) |ET| 
1  |BT| (ROOT (SBARQ (WHNP (WDT (what))(JJ (facial))(NN (feature)))(SQ (VP (ADVP (RB (typically)))(NP (RB (about))(CD (55))(NNS (hair))))))) |ET| 
1  |BT| (ROOT (SBARQ (WHPP (WHNP (WDT (what))(NN (reason))))(SQ (NP (NP (NP (NNP (shea))(CC (&))(NNP (gould)))))(VP (NP (PRP$ (they))(NNP (l.a.))(NN (office))))))) |ET| 
-0.051426450913355757632583475924548  |BT| (ROOT (SBARQ (WHPP (WHNP (WDT (what))(NN (day))))(SQ (NP (NP (NNP (john))(NNP (f)))(NP (NNP (jackie))(NNP (kennedy))))(VP (VBN (marry)))))) |ET| 
0.15479673343580149791343103515828  |BT| (ROOT (SBARQ (WHNP (WP (what)))(SQ (NP (DT (a))(NN (disaccharide)))))) |ET| 
-0.24155162328997012433084989879717  |BT| (ROOT (SBARQ (WHNP (WP (what)))(SQ (NP (NP (DT (the))(NN (date)))(PP (NP (NP (NNP (cnn))(POS ('s))))))))) |ET| 
1  |BT| (ROOT (SBARQ (WHNP (WP (what)))(SQ (NP (NP (DT (the))(NN (state))(NN (motto)))(PP (NP (NNP (california)))))))) |ET| 
1  |BT| (ROOT (SBARQ (WHNP (WP (what)))(SQ (NP (NP (DT (the))(NN (living))(NNS (condition)))(PP (NP (NNP (cuba)))))))) |ET| 
1  |BT| (ROOT (SBARQ (WHNP (WP (what)))(SQ (NP (NP (DT (the))(JJ (long))(NN (march)))(PP (NP (NNP (china)))))))) |ET| 
-1  |BT| (ROOT (SBARQ (WHNP (WP (what)))(SQ (NP (NP (NN (state))(NN (tree)))(PP (NP (NNP (nebraska)))))))) |ET| 
-0.79145084165219603544727533517289  |BT| (ROOT (SBARQ (WHNP (WP (what)))(SQ (NP (NP (NNS (tourist)))(PP (NP (NNP (reims)))))))) |ET| 
-1  |BT| (ROOT (SBARQ (WHNP (WP (what)))(SQ (NP (NP (DT (the))(NN (capital)))(PP (NP (NNP (california)))))))) |ET| 
1  |BT| (ROOT (SBARQ (WHADJP (WRB (how))(JJ (successful)))(SQ (NP (NN (arometherapy)))))) |ET| 
1  |BT| (ROOT (SBARQ (WHNP (WDT (what))(NN (effect)))(SQ (NP (NN (friction)))(VP (PP (NP (JJ (perpetual))(NN (motion)))))))) |ET| 
1  |BT| (ROOT (SBARQ (WHNP (WDT (what))(NN (revelation)))(SQ (NP (NNP (alexander))(NNP (butterfield)))(VP (PP (NP (DT (the))(NNP (senate))(NNP (watergate))(NN (committee)))))))) |ET| 
-0.5526231433564504635924663489277  |BT| (ROOT (SBARQ (WHNP (WDT (what))(JJ (common))(NN (ailment)))(SQ (VP (VP (S (VP (NP (NN (t))))))(SBAR (S (NP (PRP (you)))(VP (PP (NP (DT (the))(NNP (north))(NNP (pole))))))))))) |ET| 
-0.023603420685137443263412748706287  |BT| (ROOT (SBARQ (WHNP (WHADJP (WRB (how))(JJ (many))))(SQ (NP (DT (a))(NN (kilowatt)))))) |ET| 
-0.65715987336415893071972504912992  |BT| (ROOT (SBARQ (WHNP (WDT (what))(NN (money)))(SQ (VP (PP (NP (PRP (they)))))))) |ET| 
1  |BT| (ROOT (SBARQ (WHNP (WP (what)))(SQ (NP (NP (DT (the))(NN (hub)))(PP (NP (NNP (london)))))))) |ET| 
1  |BT| (ROOT (SBARQ (WHNP (WP (what)))(SQ (NP (NP (DT (the))(NN (half-life)))(PP (NP (NNP (p-32)))))))) |ET| 
1  |BT| (ROOT (SBARQ (WHNP (WP (what)))(SQ (NP (NP (DT (the))(NN (rathaus)))(PP (NP (NNP (frankfurt)))))))) |ET| 
-1  |BT| (ROOT (SBARQ (WHNP (WP (what)))(SQ (NP (NP (DT (the))(NN (price)))(PP (NP (NNP (tuberculosis))(NNS (drug)))))))) |ET| 
-0.32325524461312937773982412181795  |BT| (ROOT (SBARQ (WHNP (WP (what)))(SQ (NP (NP (DT (the))(NN (population)))(PP (NP (NNP (ohio)))))))) |ET| 
0.27153032774378643710022629420564  |BT| (ROOT (SBARQ (WHNP (WP (what)))(SQ (NP (DT (a))(JJ (urban))(NN (legend)))))) |ET| 
1  |BT| (ROOT (SBARQ (WHNP (WDT (what))(NNS (step)))(SQ (VP (VP (VP (S (VP (VP (NP (NN (diabetes)))))))))))) |ET| 
1  |BT| (ROOT (S (VP (NP (NN (cosmology)))))) |ET| 
1  |BT| (ROOT (SBARQ (WHNP (NP (PP (NP (VBG (greet))))))(SQ (ADJP (S (VP (VP (PP (NP (NNP (yom))(NNP (kippur))))))))))) |ET| 
-0.06740889394342937379622782145816  |BT| (ROOT (SBARQ (WHADVP (WRB (when)))(SQ (NP (NNP (cnn)))(VP (S (VP (VBG (broadcast)))))))) |ET| 
-0.53644778462225761739290419427562  |BT| (ROOT (S (VP (NP (DT (a))(JJ (civil))(NN (war))(NN (battlefield)))))) |ET| 
-1  |BT| (ROOT (SBARQ (WHNP (WP (what)))(SQ (VP (VP (VP (S (VP (VP (NP (DT (a))(JJ (sonic))(NN (boom)))))))))))) |ET| 
1  |BT| (ROOT (SBARQ (WHNP (WP (what)))(SQ (NP (NP (DT (the))(NN (importance)))(PP (NP (NNP (magellan)))))))) |ET| 
1  |BT| (ROOT (SBARQ (WHNP (WP (what)))(SQ (NP (NP (DT (the))(NN (history)))(PP (NP (NNP (skateboarding)))))))) |ET| 
1  |BT| (ROOT (SBARQ (WHNP (WP (what)))(SQ (NP (NP (DT (the))(NN (meaning)))(PP (NP (NNP (jesus)))))))) |ET| 
-1  |BT| (ROOT (SBARQ (WHNP (WP (what)))(SQ (NP (NP (DT (the))(NN (frequency)))(PP (NP (NNP (vhf)))))))) |ET| 
-1  |BT| (ROOT (SBARQ (WHNP (WP (what)))(SQ (NP (NP (DT (the))(NN (size)))(PP (NP (NNP (argentina)))))))) |ET| 
-1  |BT| (ROOT (SBARQ (WHNP (WP (what)))(SQ (NP (NP (DT (the))(NN (mission)))(PP (NP (NNP (nike)))))))) |ET| 
1  |BT| (ROOT (S (VP (NP (NNP (sinn))(NNP (fein)))))) |ET| 
1  |BT| (ROOT (S (VP (NP (NNP (spumante)))))) |ET| 
0.96116358696794701454990672573331  |BT| (ROOT (SBARQ (WHADVP (WRB (how)))(SQ (NP (PRP (i)))(VP (NP (NP (DT (a))(JJ (comic))(NN (character)))(SBAR (S (NP (PRP (i)))(VP (VP (VBN (copyright))(CC (and))(VBN (publish))))))))))) |ET| 
0.73554367663834452351068193820538  |BT| (ROOT (SBARQ (WHNP (WP (what)))(SQ (NP (JJ (white))(NN (chocolate)))))) |ET| 
1  |BT| (ROOT (SBARQ (WHNP (WP (what)))(SQ (NP (DT (the))(JJ (socratic))(NN (method)))))) |ET| 
0.81084249894588966700581522673019  |BT| (ROOT (SBARQ (WHNP (WP (what)))(SQ (NP (DT (a))(NN (rhomboideus))(JJ (minor)))))) |ET| 
1  |BT| (ROOT (SBARQ (WHNP (WP (what)))(SQ (NP (NP (DT (the))(NN (text)))(PP (NP (DT (the))(NNP (fifth))(NNP (amendment)))))))) |ET| 
1  |BT| (ROOT (SBARQ (WHNP (WP (what)))(SQ (NP (NP (DT (the))(NN (orgin)))(PP (NP (NN (xoxoxox)))))))) |ET| 
1  |BT| (ROOT (SBARQ (WHNP (WP (what)))(SQ (NP (NP (NNS (fault)))(PP (NP (NP (DT (the))(NN (earth))(POS ('s))))))))) |ET| 
-1  |BT| (ROOT (SBARQ (WHNP (WP (what)))(SQ (NP (NP (DT (the))(NN (fear)))(PP (NP (NNS (frog)))))))) |ET| 
-1  |BT| (ROOT (SBARQ (WHNP (WP (what)))(SQ (NP (NP (DT (the))(NN (singular)))(PP (NP (NNS (dice)))))))) |ET| 
-1  |BT| (ROOT (SBARQ (WHNP (WP (what)))(SQ (NP (NP (DT (the))(NN (treatment)))(PP (NP (NN (depression)))))))) |ET| 
1  |BT| (ROOT (S (VP (NP (NP (DT (the))(JJ (finnish))(NN (music))(NN (personality))(NN (salonen))(POS ('s))))))) |ET| 
1  |BT| (ROOT (SBARQ (WHNP (WP (what)))(SQ (VP (NP (NP (NP (NNP (dead))(NNP (man))(POS ('s))))))))) |ET| 
1  |BT| (ROOT (SBARQ (WHNP (WP (what)))(SQ (VP (NP (NP (NP (NNP (franz))(NNP (kafka))(POS ('s))))(NP (DT (a))(NNP (country))(NNP (doctor))))(S (VP (S (VP (VP (NP (PRP (we)))))))))))) |ET| 
-0.21314139507442861343200490864547  |BT| (ROOT (S (SBAR (WHADVP (WRB (when)))(S (VP (PRT (RP (upon)))(S (VP (VP (VB (surrender))))))))(X (WP (what)))(NP (JJ (american))(NN (general)))(VP (S (ADVP (NNP (sir)))(NP (PRP (i)))(VP (ADVP (RB (yet)))(VP (S (VP (VP (VB (fight))))))))))(INTJ (UH (?)))) |ET| 
-1  |BT| (ROOT (SBARQ (WHNP (WP (what)))(SQ (VP (S (VP (VP (NP (NN (coprolite)))))))))) |ET| 
-0.70336372346957820589352650131332  |BT| (ROOT (SBARQ (WHADJP (WRB (how))(JJ (loud)))(SQ (NP (NN (thunder)))))) |ET| 
1  |BT| (ROOT (SBARQ (WHNP (WP (what)))(SQ (NP (NP (DT (the))(NN (motto)))(PP (NP (NP (DT (the))(NN (state)))(PP (NP (NNP (maryland)))))))))) |ET| 
1  |BT| (ROOT (SBARQ (WHNP (WP (what)))(SQ (NP (NP (DT (the))(NN (verdict)))(PP (NP (NP (DT (the))(NN (trial)))(PP (NP (NNP (lizzie))(NNP (borden)))))))))) |ET| 
1  |BT| (ROOT (SBARQ (WHNP (WP (what)))(SQ (NP (NP (DT (the))(NN (origin)))(PP (NP (NP (DT (the))(NN (surname)))(PP (NP (NNP (braun)))))))))) |ET| 
-0.09669076913491866931416041097691  |BT| (ROOT (SBARQ (WHNP (WP (what)))(SQ (NP (NP (DT (the))(NN (name)))(PP (NP (NP (DT (the))(NN (art)))(PP (NP (VBG (grow))(NN (miniature))(NNS (tree)))))))))) |ET| 
-0.042494308206595360344337564129091  |BT| (ROOT (SBARQ (WHNP (WP (what)))(SQ (NP (NP (DT (the))(NN (capital)))(PP (NP (NNP (italy)))))))) |ET| 
0.15464542628826052905743893006729  |BT| (ROOT (SBARQ (WHNP (WP (what)))(SQ (NP (DT (a))(NN (urologist)))))) |ET| 
1  |BT| (ROOT (SBARQ (WHNP (WP (what)))(SQ (NP (PRP (i)))(VP (S (VP (VP (S (VP (VP (NP (JJ (good))(NNS (grade)))(PP (NP (NN (school)))))))))))))) |ET| 
1  |BT| (ROOT (SBARQ (WHNP (WDT (what))(NN (personality))(NNS (trait)))(SQ (NP (NNPS (capricorns)))(VP (S (VP (VP (VB (have))))))))) |ET| 
1  |BT| (ROOT (SBARQ (WHADJP (WRB (how))(JJ (effective)))(SQ (NP (NP (NNS (condom)))(PP (S (VP (PP (NP (NNP (aids))))))))))) |ET| 
-0.19262097515637061073690006196557  |BT| (ROOT (SBARQ (WHNP (WP (what)))(SQ (NP (NNP (ioc)))(VP (PP (IN (for))))))) |ET| 
-0.42550963669249836085484162140347  |BT| (ROOT (SBARQ (WHADVP (WRB (where)))(SQ (NP (PRP (i)))(VP (NP (DT (a))(NN (tape))(CC (or))(NN (book)))(S (VP (VP (S (NP (PRP (i)))(VP (VP (VB (say)))(VP (VB (write)))(VP (ADJP (JJ (japanese))))))))))))) |ET| 
-1  |BT| (ROOT (SBARQ (WHNP (WP (what)))(SQ (NP (NP (DT (the))(NN (speed)))(PP (NP (DT (the))(NNP (mississippi))(NNP (river)))))))) |ET| 
1  |BT| (ROOT (SBARQ (WHNP (WP (what)))(SQ (NP (NP (DT (the))(NN (function)))(PP (NP (DT (the))(NN (appendix)))))))) |ET| 
1  |BT| (ROOT (SBARQ (WHNP (WP (what)))(SQ (NP (NP (DT (the))(NN (claim)))(PP (NP (NP (NN (fame)))(PP (NP (NNP (king))(NNP (camp))(NNP (gillette)))))))))) |ET| 
1  |BT| (ROOT (SBARQ (WHNP (WP (what)))(SQ (NP (NP (DT (the))(NN (history)))(PP (NP (NP (NNP (valentine))(POS ('s))))))))) |ET| 
-1  |BT| (ROOT (SBARQ (WHNP (WP (what)))(SQ (NP (NP (DT (the))(NN (length)))(PP (NP (NP (NN (border)))(PP (NP (DT (the))(NNP (ukraine))(CC (and))(NNP (russia)))))))))) |ET| 
-0.99914259790216930490203139925143  |BT| (ROOT (SBARQ (WHNP (WP (what)))(SQ (NP (NP (DT (the))(NN (sequel)))(PP (NP (NP (DT (the))(NNP (moon))(POS ('s))))))))) |ET| 
-1  |BT| (ROOT (SBARQ (WHNP (WP (what)))(SQ (NP (NP (DT (the))(NN (date)))(PP (NP (NNP (boxing))(NNP (day)))))))) |ET| 
1  |BT| (ROOT (SBARQ (WHNP (WP (what)))(SQ (NP (PRP (you)))(VP (ADVP (RB (not)))(VP (S (NP (DT (a))(NN (tennis))(NN (ball)))(VP (SBAR (S (NP (PRP (you)))(VP (VBP (volley)))))))))))) |ET| 
1  |BT| (ROOT (SBARQ (WHADVP (WRB (why)))(SQ (NP (DT (a))(NN (woman)))(VP (S (VP (VP (NP (DT (a))(JJ (virgin)))(S (VP (VP (NP (DT (a))(NN (nun))))))))))))) |ET| 
0.22781085182548238554645081421768  |BT| (ROOT (SBARQ (WHADVP (WRB (how)))(SQ (NP (NN (water)))(VP (S (VP (VP (S (NP (PRP (it)))(ADJP (S (VP (VP (VB (drink)))))))))))))) |ET| 
-1  |BT| (ROOT (SBARQ (WHADVP (WRB (how)))(SQ (NP (PRP (you)))(VP (S (VP (NP (DT (the))(NN (day)))(PP (NP (NNP (latin)))))))))) |ET| 
-0.45455337945801044252647216126206  |BT| (ROOT (SBARQ (WHADVP (WRB (how))(RB (long)))(SQ (NP (NNP (shea))(CC (and))(NNP (gould)))(VP (NP (NN (law)))(PP (NP (NNP (los))(NNP (angeles)))))))) |ET| 
-0.5069391774018527918599374970654  |BT| (ROOT (SBARQ (WHADVP (WRB (how))(RB (long)))(SQ (NP (DT (a))(NN (person)))(VP (NP (PRP$ (they))(NNS (hand)))(SBAR (S (NP (PRP (they)))(VP (ADJP (JJ (clean)))))))))) |ET| 
1  |BT| (ROOT (SBARQ (WHNP (WP (what)))(SQ (NP (NP (DT (the))(NN (division)))(PP (NP (NP (DT (the))(NNPS (anglicans)))(NP (DT (the))(NNP (vatican))))))))) |ET| 
1  |BT| (ROOT (SBARQ (WHNP (WP (what)))(SQ (NP (NP (NP (DT (the))(NN (order)))(PP (NP (DT (the))(NNP (arrow)))))(PP (NP (NN (boy))(NNS (scout)))))))) |ET| 
1  |BT| (ROOT (SBARQ (WHNP (WP (what)))(SQ (NP (NP (DT (the))(NN (mystery)))(PP (NP (DT (the))(NNP (bermuda))(NN (triangle)))))))) |ET| 
-1  |BT| (ROOT (SBARQ (WHNP (WP (what)))(SQ (NP (NP (NNS (cloud)))(PP (NP (DT (the))(NN (air)))))))) |ET| 
-1  |BT| (ROOT (SBARQ (WHNP (WP (what)))(SQ (NP (NP (DT (the))(NN (acreage)))(PP (NP (DT (the))(NNP (chappellet))(NN (vineyard)))))))) |ET| 
-1  |BT| (ROOT (SBARQ (WHNP (WP (what)))(SQ (NP (NP (DT (the))(NN (website)))(PP (NP (DT (the))(NNP (usa))(NN (journal)))))))) |ET| 
1  |BT| (ROOT (S (NP (NNP (shea))(CC (and))(NNP (gould)))(VP (NP (PRP$ (they))(NNP (los))(NNP (angeles))(NN (office)))(PP (WHNP (WDT (what))(NN (reason))))))) |ET| 
1  |BT| (ROOT (SBARQ (WHADVP (WRB (where)))(SQ (NP (DT (the))(NN (term))(`` (``))(VBD (86e))('' ('')))(VP (PP (IN (from))))))) |ET| 
0.7173255321235881831753999904322  |BT| (ROOT (SBARQ (WHADVP (WRB (how)))(SQ (NP (PRP (i)))(VP (PRT (RP (on)))(PP (NP (NP (NN (home))(NN (page)))(PP (NP (NN (headquarters))(NNP (u.s.))(JJ (european))(NN (command)))))))))) |ET| 
-0.05440280871055890726806225643486  |BT| (ROOT (SBARQ (WHADVP (WRB (where)))(SQ (NP (NP (NNP (grimace))(CC (and))(NNP (mayor))))(VP (VB (live)))))) |ET| 
-0.20993249393353008436235995759489  |BT| (ROOT (SBARQ (WHNP (WP (what)))(SQ (NP (ADJP (RBS (most))(JJ (common))))))) |ET| 
-0.24692385493258603434973963430821  |BT| (ROOT (SBARQ (WHNP (WP (what)))(SQ (NP (`` (``))(JJ (little))(JJ (red))(NN (car))('' ('')))(VP (PP (PP (NP (NN (pop))(NN (singer)))))(NP (NP (NNP (prince))(POS ('s)))))))) |ET| 
1  |BT| (ROOT (SBARQ (WHNP (WP (what)))(SQ (NP (NP (DT (the))(NN (death)))(PP (NP (NNP (bob))(NNP (marley)))))))) |ET| 
1  |BT| (ROOT (SBARQ (WHNP (WP (what)))(SQ (NP (NP (DT (the))(NN (purpose)))(PP (NP (NNP (bios)))))))) |ET| 
1  |BT| (ROOT (SBARQ (WHNP (WP (what)))(SQ (NP (NP (DT (the))(NN (origin)))(PP (NP (NNP (boxing))(NNP (day)))))))) |ET| 
-1  |BT| (ROOT (SBARQ (WHNP (WP (what)))(SQ (NP (NNP (bob))(NNP (marley)))))) |ET| 
-1  |BT| (ROOT (SBARQ (WHNP (WP (what)))(SQ (NP (NP (DT (the))(NN (alternate)))(PP (NP (NNP (vhs)))))))) |ET| 
-1  |BT| (ROOT (SBARQ (WHNP (WP (what)))(SQ (NP (NP (DT (the))(NN (horsepower)))(PP (NP (DT (the))(NN (shuttle))(NNS (booster)))))))) |ET| 
1  |BT| (ROOT (SBARQ (WHNP (WDT (what))(JJ (facial))(NN (feature)))(SQ (NP (NNP (walt))(NNP (disney)))(NP (NP (NN (sport)))(SBAR (S (NP (NP (NN (none)))(PP (NP (NP (NNP (disney))(POS ('s))))))(VP (VP (PP (TO (to))))))))))) |ET| 
1  |BT| (ROOT (SBARQ (WHADVP (WRB (why)))(SQ (NP (NNS (people)))(VP (NP (NP (NNS (goosebump)))(SBAR (WHADVP (WRB (when)))(S (NP (PRP (they)))(VP (NP (NN (something))(JJ (emotional)))))))(VP (PP (NP (PRP (they))))(SBAR (S (SBAR (WHADVP (WRB (when)))(S (NP (PRP (they)))(VP (VP (NP (NP (DT (a))(JJ (beautiful))(NN (piece)))(PP (NP (NN (music))))))(VP (VP (NP (NN (something))(JJ (beautiful))))(VP (VP (PP (NP (NN (someone))))))))))(NP (PRP (they)))(VP (VBP (love)))))))))) |ET| 
1  |BT| (ROOT (SBARQ (WHADVP (WRB (where)))(SQ (VP (NP (NP (DT (the))(NN (term)))(NP (CD (86))))(PP (PP (IN (from)))))))) |ET| 
0.26866053937447098576285497983918  |BT| (ROOT (SBARQ (WHNP (WP (what)))(SQ (NP (DT (a))(JJ (dangling))(NN (participle)))))) |ET| 
-0.34785438534979595814888853055891  |BT| (ROOT (S (NP (WP (who)))(VP (S (S (SBAR (S (NP (PRP (you)))(VP (VB (don))('' (')))))(NP (NN (t)))(VP (ADJP (JJ (good)))))(S (NP (PRP (we)))(VP (VB (don))('' ('))))(S (NP (NN (t)))(VP (ADJP (JJ (good))))))))) |ET| 
-0.36607981318827598204990181329777  |BT| (ROOT (S (NP (WDT (which)))(VP (NP (NP (DT (a))(JJ (real))(NN (berry)))(NP (NP (NN (blackberry)))(NP (NP (NN (cranberry)))(ADVP (RB (raspberry))))))(ADVP (RB (strawberry)))))) |ET| 
1  |BT| (ROOT (SBARQ (WHNP (WP (what)))(SQ (NP (NP (NNP (eagle))(POS ('s))))))) |ET| 
1  |BT| (ROOT (SBARQ (WHNP (WP (what)))(SQ (NP (NP (NNP (compaq))(POS ('s))))))) |ET| 
1  |BT| (ROOT (SBARQ (WHNP (WP (what)))(SQ (NP (NP (NNP (june))(POS ('s))))))) |ET| 
-1  |BT| (ROOT (SBARQ (WHNP (WP (what)))(SQ (NP (NP (NNP (answers.com))(POS ('s))))))) |ET| 
-0.72673025514596756302410085481824  |BT| (ROOT (SBARQ (WHNP (WP (what)))(SQ (NP (NP (NNP (einstein))(POS ('s))))))) |ET| 
-0.72673025514597455742915599330445  |BT| (ROOT (SBARQ (WHNP (WP (what)))(SQ (NP (NP (NNP (halloween))(POS ('s))))))) |ET| 
1  |BT| (ROOT (S (VP (NP (DT (the))(JJ (long))(NN (march)))))) |ET| 
1  |BT| (ROOT (SBARQ (WHNP (WDT (what))(NNS (effect)))(SQ (NP (NNS (nitrate)))(VP (PP (NP (DT (the))(NN (environment)))))))) |ET| 
1  |BT| (ROOT (S (NP (NNP (hazmat)))(VP (WHPP (WHNP (WP (what))))))) |ET| 
-1  |BT| (ROOT (S (NP (NNP (aspartame)))(VP (ADJP (WHPP (WHNP (WP (what)))))))) |ET| 
0.2107653449744972540269571936733  |BT| (ROOT (SBARQ (WHNP (WP (what)))(SQ (NP (NNS (value)))))) |ET| 
-0.26261939502876135987818884132139  |BT| (ROOT (SBARQ (WHNP (WDT (which))(NNP (rockefeller)))(SQ (VP (ADVP (RB (sometimes)))(NP (`` (``))(NNP (jdr3))('' (''))))))) |ET| 
1  |BT| (ROOT (SBARQ (WHNP (WP (what)))(SQ (NP (NP (NNP (occam))(POS ('s))))))) |ET| 
1  |BT| (ROOT (SBARQ (WHNP (WP (what)))(SQ (NP (NP (NNP (megan))(POS ('s))))))) |ET| 
-0.59844025963302094339724135352299  |BT| (ROOT (SBARQ (WHNP (WP (what)))(SQ (NP (NP (NNP (mao))(POS ('s))))))) |ET| 
-0.72673025514597222596080428047571  |BT| (ROOT (SBARQ (WHNP (WP (what)))(SQ (NP (NP (NNP (grenada))(POS ('s))))))) |ET| 
-0.50320258358011893395911329207593  |BT| (ROOT (SBARQ (WHNP (WP (what)))(SQ (NP (NP (NNP (michelangelo))(POS ('s))))))) |ET| 
1  |BT| (ROOT (SBARQ (WHNP (WP (what)))(SQ (NP (NP (DT (the))(NN (use)))(PP (NP (NP (DT (a))(JJ (24-hour))(NN (clock)))(PP (NP (DT (a))(JJ (12-hour))(NN (clock)))))))))) |ET| 
1  |BT| (ROOT (SBARQ (WHNP (WP (what)))(SQ (NP (NP (DT (the))(NN (setting)))(PP (NP (NP (NNP (john))(NNP (le))(NNP (carre))(POS ('s)))(NP (NP (DT (a))(JJ (small))(NN (town)))(PP (NP (NNP (germany))))))))))) |ET| 
1  |BT| (ROOT (S (NP (NP (WP (what))(NN (clause)))(PP (NP (DT (the))(NNP (u.s.))(NNP (constitution)))))(VP (VP (VP (VBN (change))(, (,))(VBN (alter))(CC (or))(VBN (amend))))))) |ET| 
-1  |BT| (ROOT (SBARQ (WHNP (WP (what)))(SQ (NP (NP (DT (the))(NN (term)))(PP (NP (DT (a))(JJ (limestone))(NN (deposit)))))(VP (PP (NP (NP (DT (the))(NN (floor)))(PP (NP (DT (a))(NN (cave)))))))))) |ET| 
-0.11833737216368621358864032799829  |BT| (ROOT (SBARQ (WHNP (WP (what)))(SQ (NP (DT (the))(NNPS (japanese)))(VP (NP (NNP (japan))))))) |ET| 
0.26134345949034715195224976014288  |BT| (ROOT (SBARQ (WHNP (WP (what)))(SQ (NP (DT (the))(NN (name))(`` (``))(NNP (anthony))('' ('')))(VP (VB (mean)))))) |ET| 
-0.63113207518028591191949772110092  |BT| (ROOT (SBARQ (WHNP (WP (what)))(SQ (NP (JJ (super))(NNS (ball)))(VP (PP (IN (of))))))) |ET| 
-0.10295396701696497843148137008029  |BT| (ROOT (SBARQ (WHNP (WP (what)))(SQ (NP (NP (DT (the))(JJ (geographic))(NN (term)))(PP (NP (NP (DT (the))(JJ (submerged))(NN (fringe)))(PP (NP (DT (a))(NN (continent)))))))))) |ET| 
1  |BT| (ROOT (SBARQ (WHNP (WP (what)))(SQ (NP (NP (NNP (highest))(NNP (roman))))))) |ET| 
-0.032704156443042711743807160473807  |BT| (ROOT (SBARQ (WHNP (WP (what)))(SQ (NP (NNP (englishman))(NNP (john))(NNP (hawkins)))(VP (PP (PP (NP (NNP (new))(NNP (world))(NNS (colonist)))))(PP (NP (CD (1562)))))))) |ET| 
-0.19357202858884570151332127352362  |BT| (ROOT (SBARQ (WHADVP (WRB (where)))(SQ (NP (PRP (i)))(VP (NP (DT (a))(NN (world)))(SBAR (S (NP (NNS (atla)))(VP (ADJP (JJ (online))))))(PP (NP (DT (no))(NN (charge)))))))) |ET| 
-0.11867644039980285164403994713211  |BT| (ROOT (SBARQ (WHNP (WP (what)))(SQ (NP (NP (DT (a))(JJ (easy))(NN (way)))(S (VP (VP (NP (NP (DT (the))(JJ (approximate))(NN (number)))(PP (NP (NN (fish)))))(PP (NP (DT (a))(NN (lake))))))))))) |ET| 
1  |BT| (ROOT (SBARQ (WHNP (WP (what)))(SQ (VP (PP (NP (NNP (canada))))(SBAR (S (NP (NNP (quebec)))(VP (VBN (separate))))))))) |ET| 
1  |BT| (ROOT (SBARQ (SBAR (S (PP (NP (NP (NNP (waugh))(POS ('s)))(NX (NP (DT (a))(NN (handful)))(PP (NP (NN (dust)))))))))(WHNP (WP (what)))(SQ (NP (DT (the))(JJ (mad))(JJ (old))(NN (man)))(VP (S (NP (DT (the))(NN (hero)))(VP (VP (NP (DT (every))(NN (afternoon)))))))))) |ET| 
1  |BT| (ROOT (SBARQ (WHNP (WP (what)))(SQ (VP (NP (NP (NNP (lloyd))(POS ('s))))(VP (VB (announce))))))) |ET| 
-1  |BT| (ROOT (SBARQ (WHNP (WP (what)))(SQ (VP (NP (PRP$ (she))(NN (profession))))))) |ET| 
-1  |BT| (ROOT (SBARQ (WHNP (WP (what)))(SQ (VP (NP (PRP$ (you))(JJ (favorite))(NN (color))))))) |ET| 
-1  |BT| (ROOT (SBARQ (WHNP (WP (what)))(SQ (VP (NP (NP (DT (the))(NN (world))(POS ('s)))))))) |ET| 
1  |BT| (ROOT (SBARQ (WHNP (WDT (what))(NN (category)))(SQ (NP (DT (the))(NN (color))(NN (pink)))(VP (PP (NP (NP (DT (the))(JJ (trivial))(NN (pursuit)))(NP (NNP (baby))(NNP (boomer))(NNP (edition))))))))) |ET| 
1  |BT| (ROOT (SBARQ (WHNP (WDT (what))(JJ (nuclear))(NN (process)))(SQ (NP (NP (NN (place)))(PP (NP (DT (a))(NN (h-bomb)))))))) |ET| 
1  |BT| (ROOT (SBARQ (WHNP (NP (JJ (good))))(SQ (NP (NNS (mosquito)))))) |ET| 
-0.026789830370003684528734666514538  |BT| (ROOT (SBARQ (WHNP (WDT (what))(NN (term)))(SQ (NP (NP (DT (a))(JJ (sexual))(NN (attraction)))(PP (NP (NP (DT (a))(NN (male)))(NP (DT (a))(NN (female))))))))) |ET| 
-0.45871323752256948358407839805295  |BT| (ROOT (SBARQ (WHNP (WDT (what))(JJ (mythical))(NN (figure)))(SQ (NP (NP (DT (a))(NN (hourglass)))(NP (DT (a))(NN (scythe))))))) |ET| 
-0.12600241014845017795131809634768  |BT| (ROOT (SBARQ (WHNP (NP (PP (NP (NN (creature))))))(SQ (NP (DT (a))(NN (coot)))))) |ET| 
1  |BT| (ROOT (SBARQ (WHNP (WP (what)))(SQ (VP (NP (JJ (shooting))(NNS (star))))))) |ET| 
1  |BT| (ROOT (SBARQ (WHNP (WP (what)))(SQ (VP (NP (JJ (amicable))(NNS (number))))))) |ET| 
1  |BT| (ROOT (SBARQ (WHNP (WP (what)))(SQ (VP (NP (JJ (perfect))(NNS (tense))))))) |ET| 
-0.31643662359040009013355643219256  |BT| (ROOT (SBARQ (WHNP (WP (what)))(SQ (NP (NP (NP (NNP (nero))(NNP (wolfe))(POS ('s))))(PP (NP (NN (office))(NNS (hour)))))))) |ET| 
-1  |BT| (ROOT (SBARQ (WHNP (WP (what)))(SQ (VP (NP (QP (CD (7847))(CD (+5943)))))))) |ET| 
-0.022502099349916988846320720085714  |BT| (ROOT (SBARQ (WHNP (WP (what)))(SQ (NP (NP (DT (the))(JJ (first))(NNS (name)))(PP (NP (NP (DT (the))(JJ (famous))(JJ (husband-and-wife))(VBG (act))(NN (team)))(PP (NP (NNP (lunt))(CC (and))(NNP (fontanne)))))))))) |ET| 
1  |BT| (ROOT (SBARQ (WHADVP (WRB (how)))(SQ (NP (DT (the))(NNP (u.s.)))(VP (PP (NP (NP (DT (the))(NN (possession)))(PP (NP (DT (a))(NN (empire))))))(PP (NP (NP (DT (the))(NN (wake)))(PP (NP (DT (the))(JJ (spanish-american))(NN (war)))))))))) |ET| 
1  |BT| (ROOT (SBARQ (WHNP (WP (what)))(SQ (NP (NP (DT (the))(NN (difference)))(PP (NP (NP (DT (a))(NN (board)))(PP (NP (NP (NNS (director)))(NP (DT (a))(JJ (advisory))(NN (board))))))))))) |ET| 
0.28504541254706133868168649314612  |BT| (ROOT (SBARQ (WHNP (WP (what)))(SQ (NP (NP (DT (the))(NN (difference)))(PP (NP (NP (DT (a))(NN (median)))(NP (DT (a))(NN (mean))))))))) |ET| 
-1  |BT| (ROOT (SBARQ (WHNP (WP (what)))(SQ (NP (NP (DT (the))(NN (country)))(PP (NP (NP (NN (origin)))(PP (NP (NP (DT (the))(NN (name)))(NP (NNP (thomas))))))))))) |ET| 
-1  |BT| (ROOT (SBARQ (WHNP (WP (what)))(SQ (NP (NP (DT (the))(NN (term)))(PP (NP (NP (DT (a))(NN (group)))(PP (NP (NNS (goose)))))))))) |ET| 
-0.88801254541402219189194511272945  |BT| (ROOT (SBARQ (WHNP (WP (what)))(SQ (NP (NP (DT (the))(NN (address)))(PP (NP (NP (DT (the))(JJ (main))(NN (government))(NN (office)))(PP (NP (NP (NNP (rome)))(NP (NNP (italy))))))))))) |ET| 
1  |BT| (ROOT (SBARQ (WHNP (WP (what)))(SQ (VP (NP (NN (love))))))) |ET| 
1  |BT| (ROOT (SBARQ (WHNP (WP (what)))(SQ (VP (NP (NNP (fortune))(CD (500))(NNS (company))))))) |ET| 
1  |BT| (ROOT (SBARQ (WHNP (WP (what)))(SQ (VP (NP (NN (remembrance))(NN (day)))(PP (DT (all))(IN (about))))))) |ET| 
-1  |BT| (ROOT (SBARQ (WHNP (WP (what)))(SQ (VP (NP (DT (the))(NN (benelux))(NNS (country))))))) |ET| 
-1  |BT| (ROOT (SBARQ (WHNP (WP (what)))(SQ (NP (DT (the))(NN (word))(NN (laser)))(VP (VB (mean)))))) |ET| 
-1  |BT| (ROOT (SBARQ (WHNP (WP (what)))(SQ (NP (NNP (robin))(NNP (williams)))(VP (VB (do)))))) |ET| 
1  |BT| (ROOT (SBARQ (WHNP (WP (what)))(SQ (NP (NP (DT (the))(NN (reason)))(PP (NP (NP (DT (the))(NN (partition)))(PP (NP (ADJP (JJ (anglican))(CC (and))(JJ (vatican))))))))))) |ET| 
1  |BT| (ROOT (SBARQ (WHNP (WP (what)))(SQ (NP (NP (DT (a))(NN (adjournment)))(PP (NP (NP (DT (the))(JJ (25th))(NN (anniversary))(NN (session)))(PP (NP (DT (the))(NNP (united))(NNPS (nations))(NNP (general))(NNP (assembly)))))))))) |ET| 
1  |BT| (ROOT (SBARQ (WHNP (WP (what)))(SQ (NP (NP (ADJP (RBS (most))(JJ (common))))(PP (NP (NP (NN (death)))(PP (NP (DT (the))(NNP (u.s.)))))))))) |ET| 
-0.93450332846168260303443275915924  |BT| (ROOT (SBARQ (WHNP (NP (PP (NP (NN (science))))))(SQ (NP (NN (cosmology)))))) |ET| 
0.47205161718657362435180857573869  |BT| (ROOT (SBARQ (WHADVP (WRB (how)))(SQ (NP (NNP (super))(NNP (president)))(VP (NP (PRP$ (he))(NNS (power)))(PP (NP (DT (the))(JJ (animated))(NN (series)))))))) |ET| 
-1  |BT| (ROOT (SBARQ (WHNP (WP (what)))(SQ (NP (NP (DT (the))(NN (weight)))(PP (NP (NP (DT (a))(NN (teaspoon)))(PP (NP (NP (NN (matter)))(PP (NP (DT (a))(JJ (black))(NN (hole)))))))))))) |ET| 
0.69215354474274359830587854958139  |BT| (ROOT (SBARQ (WHNP (WP (what)))(SQ (NP (DT (the))(NN (word))(NN (affiant)))(VP (VB (mean)))))) |ET| 
0.69215354474274193297134161184658  |BT| (ROOT (SBARQ (WHNP (WP (what)))(SQ (NP (DT (the))(NN (word))(NN (terrorism)))(VP (VB (mean)))))) |ET| 
0.37336702108359637319878743255686  |BT| (ROOT (SBARQ (WHNP (WP (what)))(SQ (NP (NP (DT (the))(NN (name)))(NP (`` (`))(NNP (alexandra))('' ('))))(VP (VB (mean)))))) |ET| 
-1  |BT| (ROOT (SBARQ (WHNP (WP (what)))(SQ (NP (`` (``))(NNP (b.y.o.b.))('' ('')))(VP (VB (mean)))))) |ET| 
-1  |BT| (ROOT (SBARQ (WHNP (WP (what)))(SQ (NP (DT (the))(NN (acronym))(NNP (cpr)))(VP (VB (mean)))))) |ET| 
-1  |BT| (ROOT (SBARQ (SBAR (S (PP (NP (DT (a))(NN (computer))))))(WHNP (WP (what)))(SQ (NP (NNP (scsi)))(VP (VB (mean)))))) |ET| 
1  |BT| (ROOT (SBARQ (WHNP (WP (what)))(SQ (NP (NP (DT (the))(JJ (daily))(NN (requirement)))(PP (NP (NP (JJ (folic))(NN (acid)))(PP (NP (DT (a))(JJ (expectant))(NN (mother)))))))))) |ET| 
1  |BT| (ROOT (SBARQ (WHNP (WP (what)))(SQ (VP (PP (NP (NP (DT (the))(JJ (female))(NN (body)))(PP (NP (NP (NN (lack)))(PP (NP (NN (sleep))(CC (and))(NN (food)))))))))))) |ET| 
1  |BT| (ROOT (SBARQ (WHNP (WP (what)))(SQ (NP (NP (PRP$ (my))(JJ (legal))(NNS (rights)))(PP (NP (NP (DT (a))(NN (automobile))(NN (repossession)))(PP (NP (NNP (california)))))))))) |ET| 
-0.098944059138923276530697137332027  |BT| (ROOT (SBARQ (WHNP (WP (what)))(SQ (NP (NP (DT (the))(RB (only))(JJ (modern))(NN (language)))(SBAR (WHNP (WDT (that)))(S (VP (NP (PRP$ (its))(NN (singular))(NN (first-person))(NN (pronoun)))))))))) |ET| 
0.060040262332578954451722808016711  |BT| (ROOT (SBARQ (WHNP (WP (what)))(SQ (NP (DT (a))(JJ (jellicle))(NN (cat)))))) |ET| 
-1  |BT| (ROOT (SBARQ (WHNP (WP (what)))(SQ (NP (NP (DT (the))(JJ (medical))(NN (term)))(PP (NP (NP (NN (cancer)))(PP (NP (DT (the))(NN (blood)))))))))) |ET| 
0.84903958919084498990770271120709  |BT| (ROOT (SBARQ (WHNP (WP (what)))(SQ (NP (`` (``))(NNP (janelle))('' ('')))(VP (VB (mean)))))) |ET| 
0.60937902825675571705232869135216  |BT| (ROOT (SBARQ (WHNP (WP (what)))(SQ (NP (DT (the))(NN (name))(NNP (gina)))(VP (VB (mean)))))) |ET| 
0.60937902825675027695950802808511  |BT| (ROOT (SBARQ (WHNP (WP (what)))(SQ (NP (DT (the))(NN (name))(NNP (shawn)))(VP (VB (mean)))))) |ET| 
-1  |BT| (ROOT (SBARQ (WHNP (WP (what)))(SQ (NP (DT (a))(NN (infant))(NN (seal)))(VP (VBN (call)))))) |ET| 
-1  |BT| (ROOT (SBARQ (WHNP (WP (what)))(SQ (NP (NNP (salk))(NN (vaccine)))(VP (VB (prevent)))))) |ET| 
-1  |BT| (ROOT (SBARQ (WHNP (WP (what)))(SQ (NP (NNP (vasco))(NNP (da))(NNP (gama)))(VP (VB (discover)))))) |ET| 
1  |BT| (ROOT (SBARQ (WHNP (WP (what)))(SQ (NP (NP (DT (the))(NN (claim)))(PP (NP (NP (NN (fame)))(PP (NP (NP (NP (NNP (explorer)))(NP (PRP (i))))(VP (NP (NNP (february))(CD (1))(, (,))(CD (1958)))))))))))) |ET| 
1  |BT| (ROOT (SBARQ (WHNP (WP (what)))(SQ (NP (NP (DT (the))(NN (claim)))(PP (NP (NP (NN (fame)))(PP (NP (NP (NNP (agra)))(NP (NNP (india))))))))))) |ET| 
1  |BT| (ROOT (SBARQ (WHNP (WP (what)))(SQ (VP (NP (NP (DT (the))(NN (computer)))(PP (NP (NP (DT (the))(NN (rest)))(PP (NP (PRP (we))))))))))) |ET| 
-1  |BT| (ROOT (SBARQ (WHNP (WP (what)))(SQ (VP (PP (NP (NP (DT (the))(NN (queen)))(PP (NP (NNP (drinks)))))))))) |ET| 
-0.86781151814124057874977324900101  |BT| (ROOT (SBARQ (WHNP (WP (what)))(SQ (NP (NP (DT (the))(NN (name)))(PP (NP (NP (DT (the))(NNP (u.s.))(NNP (navy))(NN (gunboat)))(PP (NP (NP (DT (the))(NN (film)))(NP (DT (the))(NNP (sand))(NNP (pebbles))))))))))) |ET| 
-1  |BT| (ROOT (SBARQ (WHNP (WP (what)))(SQ (VP (ADVP (RB (originally)))(PP (NP (NP (CD (one))(NN (1-millionth)))(PP (NP (NP (DT (the))(NN (distance)))(PP (NP (NP (DT (the))(NN (equator)))(PP (NP (DT (the))(NNP (pole)))))))))))))) |ET| 
1  |BT| (ROOT (SBARQ (WHNP (WP (what)))(SQ (NP (NNP (freddy))(NNP (freeman)))(VP (S (VP (VP (NP (NNP (captain))(NNP (marvel))(NNP (jr.)))))))))) |ET| 
1  |BT| (ROOT (SBARQ (WHNP (WP (what)))(SQ (NP (NNP (spaceball)))(VP (PRT (RP (on))))))) |ET| 
1  |BT| (ROOT (SBARQ (WHNP (WP (what)))(SQ (NP (NNP (choo))(NNP (choo))(NNP (charlie)))(VP (VB (say)))))) |ET| 
-1  |BT| (ROOT (SBARQ (WHNP (WP (what)))(SQ (NP (NNP (visine)))(VP (PRT (RP (out))))))) |ET| 
-1  |BT| (ROOT (SBARQ (WHNP (WP (what)))(SQ (NP (NNS (sailor)))(VP (S (VP (VP (NP (NN (time)))))))))) |ET| 
-1  |BT| (ROOT (SBARQ (WHNP (WP (what)))(SQ (NP (NNPS (italians)))(VP (NP (NNP (florence))))))) |ET| 
1  |BT| (ROOT (SBARQ (WHNP (WP (what)))(SQ (NP (NP (DT (the))(JJ (cultural))(NN (origin)))(PP (NP (NP (DT (the))(NN (ceremony)))(PP (NP (NNP (potlatch)))))))))) |ET| 
1  |BT| (ROOT (SBARQ (WHNP (WP (what)))(SQ (NP (NP (DT (the))(NN (distinction)))(PP (NP (NP (NP (NNP (erle))(NNP (stanley))(NNP (gardner))(POS ('s)))(NX (DT (the))(NN (case))))(PP (NP (DT (the))(NNP (terrified))(NNP (typist)))))))))) |ET| 
1  |BT| (ROOT (SBARQ (WHNP (WP (what)))(SQ (NP (NP (DT (those))(JJ (little))(JJ (blue))(NNS (reflector)))(PP (NP (NP (DT (the))(NN (middle)))(PP (NP (DT (the))(NN (road)))))))(ADJP (IN (for)))))) |ET| 
-1  |BT| (ROOT (SBARQ (WHNP (WP (what)))(SQ (NP (NP (DT (the))(NN (role)))(PP (NP (DT (the))(JJ (medieval))(NN (guild)))))))) |ET| 
-1  |BT| (ROOT (SBARQ (WHNP (WP (what)))(SQ (NP (NP (DT (the))(NN (name)))(PP (NP (NP (DT (the))(NN (star)))(PP (NP (NP (DT (the))(JJ (cooking))(NN (show)))(NP (NNP (galloping))(NNP (gourmet))))))))))) |ET| 
-1  |BT| (ROOT (SBARQ (WHNP (WP (what)))(SQ (NP (NP (DT (the))(NN (name)))(PP (NP (NP (DT (the))(NN (director)))(PP (NP (DT (the))(NN (movie))(`` (``))(NNP (jaws))('' ('')))))))))) |ET| 
1  |BT| (ROOT (SBARQ (WHNP (WP (what)))(SQ (NP (NNS (insect)))(VP (PP (NP (PRP$ (they))(NNS (spiracle)))))))) |ET| 
1  |BT| (ROOT (SBARQ (WHNP (WP (what)))(SQ (NP (PRP (he)))(VP (ADVP (RB (now))))))) |ET| 
1  |BT| (ROOT (SBARQ (WHNP (WP (what)))(SQ (NP (DT (a))(NN (bone))(NN (marrow))(NN (transplant)))(VP (PP (IN (for))))))) |ET| 
-1  |BT| (ROOT (SBARQ (WHNP (WP (what)))(SQ (NP (NNS (camel)))(VP (PP (NP (PRP$ (they))(NNS (hump)))))))) |ET| 
-1  |BT| (ROOT (SBARQ (WHNP (WP (what)))(SQ (NP (`` (`))(NNP (psi))('' (')))(VP (PP (IN (for))))))) |ET| 
-1  |BT| (ROOT (SBARQ (WHNP (WP (what)))(SQ (VP (NP (NNP (baffin))(, (,))(NNP (frobisher))(CC (and))(NNP (franklin)))(PP (PP (IN (for)))))))) |ET| 
1  |BT| (ROOT (SBARQ (WHNP (WP (what)))(SQ (NP (NP (NP (DT (the))(JJ (economic))(NN (impact)))(PP (NP (NN (unemployment)))))(PP (NP (DT (the))(NN (economy)))))))) |ET| 
1  |BT| (ROOT (SBARQ (WHNP (WP (what)))(SQ (NP (NP (DT (the))(NN (origin)))(PP (NP (NP (DT (the))(NN (proverb)))(S (NP (NP (DT (a))(NN (stitch)))(PP (NP (NN (time)))))(VP (NP (CD (nine))))))))))) |ET| 
1  |BT| (ROOT (SBARQ (WHNP (WP (what)))(SQ (NP (NP (DT (the))(NN (origin)))(PP (NP (NP (DT (the))(JJ (typing))(NN (practice)))(SBAR (S (NP (NN (sentence)))(VP (ADVP (RB (now)))(NP (NP (DT (the))(NN (time)))(PP (NP (DT (all))(JJ (good))(NNS (man))))(S (VP (VP (PP (NP (NP (DT (the))(NN (aid)))(PP (NP (PRP$ (they))(NN (country))))))))))))))))))) |ET| 
-1  |BT| (ROOT (SBARQ (WHNP (WP (what)))(SQ (NP (NP (DT (the))(NN (word)))(PP (NP (NP (NP (JJ (broken))(NN (glass)))(NP (JJ (sharp))(NNS (rock))))(VP (PP (NP (NN (cement))))(PP (NP (NP (NN (top)))(PP (NP (DT (a))(NN (wall))))))))))))) |ET| 
0.20263535261751980387501248515036  |BT| (ROOT (SBARQ (WHNP (WP (what)))(SQ (NP (DT (a))(JJ (annotated))(NN (bibliography)))))) |ET| 
1  |BT| (ROOT (SBARQ (WHNP (WP (what)))(SQ (NP (DT (the))(NNP (s&p))(CD (500)))(VP (PP (IN (for))))))) |ET| 
1  |BT| (ROOT (SBARQ (WHNP (WP (what)))(SQ (NP (NP (NN (school))(NNS (uniform))))(VP (PP (IN (like))))))) |ET| 
1  |BT| (ROOT (SBARQ (WHNP (WP (what)))(SQ (VP (PP (NP (NNP (moon))(NNP (maiden)))))))) |ET| 
-1  |BT| (ROOT (SBARQ (WHNP (WP (what)))(SQ (VP (PP (NP (NNP (january))(CD (15))(, (,))(CD (1969)))))))) |ET| 
-1  |BT| (ROOT (SBARQ (WHNP (WP (what)))(SQ (NP (DT (the))(NN (channel))(NNP (espn)))(VP (PP (IN (for))))))) |ET| 
-1  |BT| (ROOT (SBARQ (WHNP (WP (what)))(SQ (VP (PP (NP (DT (the))(NN (spice))(NN (island)))))))) |ET| 
1  |BT| (ROOT (SBARQ (WHNP (WP (what)))(SQ (NP (NNS (people)))(VP (S (VP (VP (VP (NP (NP (DT (the))(NN (extinction)))(PP (NP (NNS (bird))))))))))))) |ET| 
1  |BT| (ROOT (SBARQ (WHNP (WP (what)))(SQ (NP (NP (DT (the))(NN (effect)))(PP (NP (DT (the))(NNP (yalta))(NN (conference)))))))) |ET| 
1  |BT| (ROOT (SBARQ (WHNP (WP (what)))(SQ (NP (NP (DT (the))(NN (filling)))(PP (NP (DT (the))(JJ (first))(NN (golf))(NNS (ball)))))))) |ET| 
-0.65219185798835055400957116944483  |BT| (ROOT (SBARQ (WHNP (WP (what)))(SQ (NP (NP (DT (the))(NNS (chance)))(PP (NP (NP (NN (pregnacy)))(SBAR (S (NP (DT (the))(NN (penis)))(VP (VP (NP (DT (the))(NN (vagina))))))))))))) |ET| 
-1  |BT| (ROOT (SBARQ (WHNP (WP (what)))(SQ (NP (NP (DT (the))(NN (chance)))(PP (S (VP (NP (NNS (quadruplet)))))))))) |ET| 
-1  |BT| (ROOT (SBARQ (WHNP (WP (what)))(SQ (NP (NP (DT (the))(NN (mascot)))(PP (NP (NNP (notre))(NNP (dame))(NNP (university)))))))) |ET| 
-1  |BT| (ROOT (SBARQ (WHNP (WP (what)))(SQ (NP (NP (DT (the))(NN (birthplace)))(PP (NP (NNP (edgar))(NNP (allen))(NNP (poe)))))))) |ET| 
1  |BT| (ROOT (SBARQ (WHNP (WDT (what))(NNS (characteristic)))(SQ (VP (PP (NP (PRP$ (its))(`` (``))(NN (intelligence))('' ('')))))))) |ET| 
1  |BT| (ROOT (SBARQ (WHNP (WP (what)))(SQ (VP (PP (NP (NNP (answers.com)))))))) |ET| 
1  |BT| (ROOT (SBARQ (WHNP (WP (what)))(SQ (VP (PP (NP (NN (blood))(NN (sed))(NN (rate)))))))) |ET| 
-0.071679495291935596545940256874019  |BT| (ROOT (SBARQ (WHNP (WDT (what))(NNS (holiday)))(SQ (VP (PP (NP (NNP (ireland)))))))) |ET| 
-1  |BT| (ROOT (SBARQ (WHNP (WP (what)))(SQ (VP (PP (NP (NNP (genesis))(CD (19))(: (:))(CD (24)))))))) |ET| 
-0.3956256427009949283579715029191  |BT| (ROOT (SBARQ (WHNP (WDT (what))(NNS (chemical)))(SQ (VP (PP (NP (JJ (lethal))(NN (injection)))))))) |ET| 
1  |BT| (ROOT (SBARQ (WHNP (WP (what)))(SQ (NP (NP (DT (the))(NN (design)))(PP (NP (DT (the))(NN (ship))(NNP (titanic)))))))) |ET| 
1  |BT| (ROOT (SBARQ (WHNP (WP (what)))(SQ (NP (NP (DT (the))(NN (verdict)))(PP (NP (NP (DT (the))(CD (1925))(NN (trial)))(PP (NP (NNP (john))(NNP (t.))(NNP (scopes)))))))))) |ET| 
1  |BT| (ROOT (SBARQ (WHNP (WP (what)))(SQ (NP (NP (DT (the))(NNS (requirement)))(PP (S (VP (NP (NP (DT (a))(NN (citizen)))(PP (NP (NNP (australia)))))))))))) |ET| 
-1  |BT| (ROOT (SBARQ (WHNP (WP (what)))(SQ (NP (NP (DT (the))(NN (salary)))(PP (NP (DT (a))(NNP (u.s.))(NNP (representative)))))))) |ET| 
-1  |BT| (ROOT (SBARQ (WHNP (WP (what)))(SQ (NP (NP (DT (the))(NN (home)))(PP (NP (DT (the))(NNPS (rockettes)))))))) |ET| 
-0.2059094284881171632584084818518  |BT| (ROOT (SBARQ (WHNP (WP (what)))(SQ (NP (NP (DT (the))(JJ (correct))(NN (way)))(S (VP (VP (NP (NP (DT (a))(NN (roll)))(PP (NP (NN (toilet))(NN (paper)))))))))))) |ET| 
1  |BT| (ROOT (SBARQ (WHNP (WDT (what))(NNS (qualification)))(SQ (NP (EX (there)))(PP (NP (NP (NNS (individual)))(VP (NP (NN (blood))))))))) |ET| 
1  |BT| (ROOT (SBARQ (WHNP (WDT (what))(NN (effect)))(SQ (NP (DT (a))(NN (prism)))(VP (PP (NP (NN (light)))))))) |ET| 
1  |BT| (ROOT (SBARQ (WHNP (NP (PP (NP (NN (childhood))))))(SQ (NP (NNP (jules))(NNP (verne)))(VP (VB (have)))))) |ET| 
0.37355448272963365230481258549844  |BT| (ROOT (SBARQ (WHNP (WP (what)))(SQ (NP (NN (cache))(NN (memory)))))) |ET| 
0.21669774403552619079782459721173  |BT| (ROOT (SBARQ (WHNP (WP (what)))(SQ (NP (NNS (headache)))))) |ET| 
-0.35597936928572693204841925762594  |BT| (ROOT (SBARQ (WHNP (WP (what)))(SQ (NP (DT (the))(NN (policeman)))(VP (PP (NP (NP (DT (the))(JJ (canadian))(NN (edition)))(PP (NP (NNP (monopoly)))))))))) |ET| 
0.6958967965745602723970364422712  |BT| (ROOT (SBARQ (WHNP (WP (what)))(SQ (NP (DT (the))(NN (internet2)))))) |ET| 
1  |BT| (ROOT (SBARQ (WHNP (WP (what)))(SQ (NP (NP (DT (the))(NN (definition)))(PP (NP (JJ (low))(NN (island)))))))) |ET| 
1  |BT| (ROOT (SBARQ (WHNP (WP (what)))(SQ (NP (NP (DT (a))(NN (person)))(S (VP (VP (NP (ADJP (RB (constantly))(JJ (sweaty))))))))))) |ET| 
-1  |BT| (ROOT (SBARQ (WHNP (WP (what)))(SQ (NP (DT (a))(NN (dipsomaniac)))(VP (VBP (crave)))))) |ET| 
-1  |BT| (ROOT (SBARQ (WHNP (WP (what)))(SQ (NP (DT (the))(NNP (yalta))(NN (conference)))(VP (PP (TO (to))))))) |ET| 
-1  |BT| (ROOT (SBARQ (WHNP (WP (what)))(SQ (NP (NP (DT (the))(NN (formulum)))(S (VP (VP (NP (NNP (pi)))))))))) |ET| 
1  |BT| (ROOT (SBARQ (WHNP (WHNP (WRB (how))(RB (close)))(NP (DT (a))(NN (cousin))))(SQ (VP (NP (NNP (franklin))(NNP (d.)))(PP (NP (NNP (theodore))(NNP (roosevelt)))))))) |ET| 
1  |BT| (ROOT (SBARQ (WHNP (WP (what)))(SQ (VP (ADJP (JJ (new)))(PP (NP (NP (DT (the))(JJ (postal))(NN (world)))(PP (NP (CD (1999)))))))))) |ET| 
1  |BT| (ROOT (SBARQ (WHNP (WP (what)))(SQ (NP (NP (NNP (caroll))(NNP (baker)))(NP (NNP (tammy))(NNP (grimes)))(NP (NNP (debbie))(NNP (reynolds)))(NP (NNP (judy))(NNP (garland))))(ADVP (RB (all)))(VP (PP (ADJP (JJ (common)))))))) |ET| 
-1  |BT| (ROOT (SBARQ (WHNP (WP (what)))(SQ (VP (NP (NNP (nn))(NNP (o)))(VP (SBAR (WHADVP (WRB (when)))(S (VP (PP (NP (NP (DT (a))(NN (prefix)))(PP (NP (JJ (irish))(NNS (surname)))))))))))))) |ET| 
-1  |BT| (ROOT (SBARQ (WHNP (WP (what)))(SQ (NP (NP (NN (bottle))(NNS (cap)))(PP (NP (NP (NNS (president))(POS ('))))))(ADJP (RB (inside))(JJ (worth)))))) |ET| 
-0.77238544051844815196972149351495  |BT| (ROOT (S (NP (NNP (shea))(CC (and))(NNP (gould)))(VP (NP (NP (DT (a))(NN (office)))(PP (NP (NNP (los))(NNP (angeles)))))(WHPP (WHNP (WRB (how))(RB (long))))(PP (S (VP (NP (PRP (it))))))))) |ET| 
1  |BT| (ROOT (SBARQ (WHNP (WP (what)))(SQ (NP (DT (the))(NN (weather)))(VP (NP (NN (today))))))) |ET| 
1  |BT| (ROOT (SBARQ (WHNP (WP (what)))(SQ (NP (NNPS (mormons)))(VP (VB (believe)))))) |ET| 
1  |BT| (ROOT (SBARQ (WHNP (WP (what)))(SQ (NP (DT (the)))(VP (NP (NN (colony))))))) |ET| 
-0.92472546674940503397266411411692  |BT| (ROOT (SBARQ (WHNP (WP (what)))(SQ (NP (NN (communication))(NNS (satellite)))(VP (NP (NNS (yacht))))))) |ET| 
-1  |BT| (ROOT (SBARQ (WHNP (WP (what)))(SQ (NP (DT (the))(NNP (cleveland))(NNPS (indians)))(VP (ADVP (RB (also))))))) |ET| 
-1  |BT| (ROOT (SBARQ (WHNP (WP (what)))(SQ (VP (NP (NP (DT (the))(NN (temperature)))(NP (NN (today)))))))) |ET| 
1  |BT| (ROOT (S (VP (NP (NP (DT (a))(NN (reason)))(PP (S (NP (NNP (american))(NNPS (indians)))(ADVP (RB (oftentimes)))(VP (PRT (RP (out)))(PP (NP (NN (school))))))))))) |ET| 
1  |BT| (ROOT (FRAG (WHNP (WP (what)))(SBAR (S (NP (NP (NNS (feature)))(PP (NP (DT (the))(JJ (african))(NN (elephant)))))(VP (ADJP (ADJP (JJR (larger)))(PP (NP (NP (DT (those)))(PP (NP (DT (the))(JJ (indian))(NN (elephant)))))))))))) |ET| 
1  |BT| (ROOT (SBARQ (WHADVP (WRB (why)))(SQ (NP (NP (JJ (black))(DT (the))(NN (color)))(PP (S (VP (PP (NP (DT (the))(NNP (west))))))))))) |ET| 
-1  |BT| (ROOT (SBARQ (WHADVP (WRB (how)))(SQ (NP (PRP (you)))(VP (NP (CD (2)))(PP (NP (NNP (latin)))))))) |ET| 
-1  |BT| (ROOT (SBARQ (WHADVP (WRB (where)))(SQ (NP (PRP (i)))(VP (NP (NP (DT (the))(NN (history)))(PP (NP (DT (the))(JJ (taiwanese))(NN (language))))))))) |ET| 
-0.5056278730433501067409451934509  |BT| (ROOT (SBARQ (WHADVP (WRB (where)))(SQ (NP (PRP (i)))(VP (NP (NP (DT (the))(NN (history)))(PP (NP (DT (the))(JJ (hungarian))(NN (language))))))))) |ET| 
1  |BT| (ROOT (SBARQ (WHNP (WP (what)))(SQ (VP (NP (PP (NP (NNS (animal))))))))) |ET| 
0.53170986737447867298556047899183  |BT| (ROOT (SBARQ (WHNP (WP (what)))(SQ (NP (NN (lung))(NN (cancer)))))) |ET| 
0.22913122003986524655161360897182  |BT| (ROOT (SBARQ (WHNP (WP (what)))(SQ (NP (NN (thunder)))))) |ET| 
-1  |BT| (ROOT (SBARQ (WHNP (WP (what)))(SQ (NP (DT (a))(NN (collier))(NN (mine)))))) |ET| 
-1  |BT| (ROOT (SBARQ (WHNP (WP (what)))(SQ (ADJP (PP (ADJP (JJ (incompetent)))))))) |ET| 
-1  |BT| (ROOT (SBARQ (WHNP (WP (what)))(SQ (NP (NNP (rcd)))))) |ET| 
1  |BT| (ROOT (SBARQ (WHADVP (WRB (how)))(SQ (NP (PRP (you)))(VP (NP (NP (NP (JJ (panoramic))(NN (sugar))(NNS (egg)))(PP (NP (NNP (easter)))))(NP (NP (DT (the))(NNS (one)))(PP (NP (NP (DT (the))(NN (scene)))(PP (IN (inside))))))))))) |ET| 
1  |BT| (ROOT (SBARQ (WHADVP (WRB (how)))(SQ (NP (PRP (i)))(VP (NP (NP (DT (a))(NN (list)))(PP (NP (NP (NP (NN (fax))(CC (and))(CC (or))(NN (email))))(PP (NP (NP (JJ (human))(NN (resource))(NNS (department)))(PP (NP (NNP (massachusetts))))))))))))) |ET| 
0.6713182717211716443728164449567  |BT| (ROOT (SBARQ (WHADVP (WRB (how)))(SQ (NP (PRP (i)))(VP (NP (NN (info)))(PP (NP (NP (NN (rice))(NNS (importer)))(PP (NP (DT (the))(NN (world)))))))))) |ET| 
-0.663882191963090062536423374695  |BT| (ROOT (FRAG (WHNP (WP (what)))(SBAR (S (NP (NP (NNS (kind)))(PP (NP (NNS (animal)))))(VP (PP (NP (NNP (cambodia))))))))) |ET| 
-0.14047707278727225577164006153907  |BT| (ROOT (S (VP (PP (NP (NP (NN (heroine)))(PP (NP (`` (``))(NNP (scruples))('' (''))))))))) |ET| 
0.88344262982061982913961628582911  |BT| (ROOT (SBARQ (WHNP (WP (what)))(SQ (NP (NNP (gymnophobia)))))) |ET| 
0.88344262982061005917699958445155  |BT| (ROOT (SBARQ (WHNP (WP (what)))(SQ (NP (NNP (paracetamol)))))) |ET| 
0.88346603530772760404232712971861  |BT| (ROOT (SBARQ (WHNP (WP (what)))(SQ (NP (NNP (olestra)))))) |ET| 
-1  |BT| (ROOT (SBARQ (WHNP (WP (what)))(SQ (NP (NNP (html)))))) |ET| 
-1  |BT| (ROOT (SBARQ (WHNP (WP (what)))(SQ (NP (NNP (afs)))))) |ET| 
-1  |BT| (ROOT (SBARQ (WHNP (WP (what)))(SQ (NP (NNP (deet)))))) |ET| 
1  |BT| (ROOT (SBARQ (WHNP (WP (what)))(SQ (NP (NNS (player)))(VP (S (VP (VP (SBAR (WHADVP (WRB (when)))(S (NP (DT (the))(NN (music)))(VP (PP (NP (NP (DT (a))(NN (game)))(PP (NP (JJ (musical))(NNS (chair)))))))))))))))) |ET| 
1  |BT| (ROOT (SBARQ (WHNP (WP (what)))(SQ (VP (PP (NP (NP (NN (baby))(NN (powder)))(NP (NP (NN (baby))(NN (lotion)))(SBAR (WHNP (WDT (that)))(S (VP (SBAR (S (NP (PRP (it)))(VP (NP (NP (DT (the))(NN (way)))(SBAR (S (NP (PRP (it)))(VP (VBZ (do))))))))))))))))))) |ET| 
1  |BT| (ROOT (S (SBAR (WHNP (WP (what)))(S (ADVP (RB (else)))(VP (NP (DT (the))(NN (swastika))))))(VP (PP (IN (for)))))) |ET| 
-0.6156017481872125829411857012019  |BT| (ROOT (SBARQ (WHNP (WP (what)))(SQ (NP (NP (DT (the))(CD (two))(JJS (largest))(NNS (bird)))(PP (NP (NN (earth)))))))) |ET| 
-0.3646420594267529846632669432438  |BT| (ROOT (SBARQ (WHNP (WP (what)))(SQ (NP (DT (a))(NN (person)))(VP (SBAR (S (VP (NP (NN (fire)))))))))) |ET| 
-0.96024031578107227336005280449172  |BT| (ROOT (S (SBAR (WHADVP (WRB (how))(JJ (many)))(S (NP (DT (no)))(VP (VBZ (answer)))))(VP (NP (DT (the)))(SBAR (WHNP (WP (what)))(S (VP (NP (PRP$ (my))(NN (line))))))))(S (NP (NN (panel)))(VP (VBD (allow))))) |ET| 
1  |BT| (ROOT (SBARQ (WHNP (WP (what)))(SQ (NP (NP (NNP (cobol)))(NP (NNP (fortran)))(NP (NNP (pascal))))))) |ET| 
0.88346603530770317913578537627473  |BT| (ROOT (SBARQ (WHNP (WP (what)))(SQ (NP (NNP (plc)))))) |ET| 
0.88346603530770473344801985149388  |BT| (ROOT (SBARQ (WHNP (WP (what)))(SQ (NP (NNP (rust)))))) |ET| 
-1  |BT| (ROOT (SBARQ (WHNP (WP (what)))(SQ (NP (NNP (dtmf)))))) |ET| 
-1  |BT| (ROOT (SBARQ (WHNP (WP (what)))(SQ (NP (NNP (hdlc)))))) |ET| 
-1  |BT| (ROOT (SBARQ (WHNP (WP (what)))(SQ (NP (NNP (svhs)))))) |ET| 
1  |BT| (ROOT (SBARQ (WHADVP (WRB (how)))(SQ (NP (PRP (you)))(VP (NP (NP (NNS (bee)))(SBAR (WHNP (WDT (that)))(S (VP (PP (NP (NP (DT (the))(NNS (wall)))(PP (NP (PRP$ (you))(NN (home)))))))))))))(SQ (NP (NN (bee))(NNS (egg)))(VP (PP (NP (NN (winter))))))) |ET| 
1  |BT| (ROOT (SBARQ (WHADVP (WRB (how)))(SINV (NP (VBG (vend))(NNS (machine)))(VP (SBAR (S (NP (PRP$ (you))(NN (dollar)))(VP (NP (NP (QP (DT (a))(CD (1))))(NP (QP (DT (a))(CD (5)))))))))))) |ET| 
1  |BT| (ROOT (SBARQ (WHADVP (WRB (why)))(SQ (NP (PRP (you))(NNS (guy)))(VP (NP (NP (DT (some))(NN (sort)))(PP (NP (NN (contest)))))(SBAR (WHADVP (WRB (where)))(S (S (NP (PRP (you)))(VP (NP (DT (a))(NN (question)))))(S (SBAR (WHNP (WP (whoever)))(S (VP (NP (DT (the))(NNS (answer))))))(VP (NP (DT (a))(NN (prize))))))))))) |ET| 
-0.45884724633402940163762195879826  |BT| (ROOT (SBARQ (WHADVP (WRB (when)))(SQ (NP (NNS (camcorder)))(VP (PP (NP (NNP (malaysia)))))))) |ET| 
-0.34569847154462995941770486751921  |BT| (ROOT (SBARQ (WHADJP (WRB (how))(JJ (old)))(SQ (NP (NNP (stevie))(NNP (wonder)))(SBAR (WHADVP (WRB (when)))(S (NP (PRP (he)))(VP (PP (NP (NNP (motown))(NNPS (records)))))))))) |ET| 
-1  |BT| (ROOT (SBARQ (WHADVP (WRB (when)))(SQ (NP (NN (cigarette))(NN (advertising)))(VP (PP (NP (NN (television))(CC (and))(NN (radio)))))))) |ET| 
0.63651330849649867538175840309123  |BT| (ROOT (SBARQ (WHNP (WP (what)))(SQ (NP (NNP (god)))))) |ET| 
0.88344262982063126443676992494147  |BT| (ROOT (SBARQ (WHNP (WP (what)))(SQ (NP (NNP (hebephrenia)))))) |ET| 
0.88346603530770673184946417677565  |BT| (ROOT (SBARQ (WHNP (WP (what)))(SQ (NP (NNP (asthma)))))) |ET| 
-1  |BT| (ROOT (SBARQ (WHNP (WP (what)))(SQ (NP (NNP (sap)))))) |ET| 
-1  |BT| (ROOT (SBARQ (WHNP (WP (what)))(SQ (NP (NNP (lmds)))))) |ET| 
-1  |BT| (ROOT (SBARQ (WHNP (WP (what)))(SQ (NP (NNP (dsl)))))) |ET| 
1  |BT| (ROOT (SBARQ (WHADVP (WRB (how)))(SQ (SQ (NP (NP (NNS (people)))(PP (NP (NNP (ireland)))))(VP (PP (NP (NP (DT (the))(NNP (u.s.)))(NP (NN (work)))))))(SQ (VP (PP (NP (NNP (ireland))))))))) |ET| 
1  |BT| (ROOT (SBARQ (WHADVP (WRB (where)))(SQ (VP (NP (NP (DT (the))(NN (term)))(NP (CD (69))))(PP (PP (IN (from)))))))) |ET| 
1  |BT| (ROOT (SBARQ (WHNP (WP (what))(RB (exactly)))(WHADVP (RB (specifically)))(SQ (NP (NN (sleep)))(VP (PP (NP (PRP (you)))))))) |ET| 
-0.78015142331251474683284641287173  |BT| (ROOT (SBARQ (SBAR (S (PP (NP (NN (average))))))(WHNP (WHADJP (WRB (how))(JJ (long))))(SQ (NP (PRP (it)))(VP (PP (NP (NP (NN (type)))(NP (DT (a))(NN (screenplay))))))))) |ET| 
-0.36549223099520089519387511245441  |BT| (ROOT (SBARQ (WHNP (WP (what)))(SQ (NP (NP (DT (the))(JJS (largest))(NN (office))(NN (block)))(PP (NP (DT (the))(NN (world)))))))) |ET| 
-0.06074265592262250573751813931267  |BT| (ROOT (SBARQ (WHNP (WDT (what))(NN (wheel)))(SQ (NP (NNP (blaise))(NNP (pascal)))(VP (PP (NP (NP (DT (a))(NN (search)))(PP (NP (JJ (perpetual))(NN (motion)))))))))) |ET| 
0.28188104413991382779514083267713  |BT| (ROOT (SBARQ (WHNP (WP (what)))(SQ (NP (NNP (thalassemia)))))) |ET| 
0.88346603530770484447032231400954  |BT| (ROOT (SBARQ (WHNP (WP (what)))(SQ (NP (NNP (diabetes)))))) |ET| 
0.88395387685538595601286715464084  |BT| (ROOT (SBARQ (WHNP (WP (what)))(SQ (NP (NNP (tetrinet)))))) |ET| 
1  |BT| (ROOT (SBARQ (WHNP (WP (what)))(SQ (VP (PP (NP (NP (DT (the))(NN (term)))(ADJP (PP (NP (NN (maturity)))))))(PP (NP (NP (NN (reference)))(PP (NP (NNS (bond)))))))))) |ET| 
1  |BT| (ROOT (SBARQ (SBAR (S (PP (NP (PRP$ (my))(NN (antonium))))))(WHADVP (WRB (how)))(SQ (NP (NNP (mr.))(NNP (shimerda)))(PP (PP (NP (NP (NN (place)))(PP (NP (DT (the))(NN (farm)))))))))) |ET| 
1  |BT| (ROOT (SBARQ (WHNP (WP (what)))(SQ (NP (NP (DT (the))(NN (staff)))(PP (NP (NN (life)))))(VP (PP (NP (NP (DT (the))(NNP (lord))(POS ('s))))))))) |ET| 
1  |BT| (ROOT (SBARQ (WHADVP (WRB (how)))(SQ (NP (PRP (i)))(VP (PRT (RP (out)))(NP (NP (DT (the))(JJ (exact))(NN (time)))(PP (NP (NP (DT (a))(NN (sunset)))(PP (NP (DT (a))(JJ (particular))(NN (day))))))))))) |ET| 
1  |BT| (ROOT (SBARQ (WHADVP (WRB (how)))(SQ (NP (PRP (i)))(VP (NP (NP (DT (the))(NN (price)))(PP (NP (NP (JJ (different))(NNS (organ)))(SBAR (WHNP (WDT (that)))(S (VP (VP (VP (VBN (donate)))))))))))))) |ET| 
1  |BT| (ROOT (SBARQ (WHNP (WP (what)))(SQ (NP (NP (DT (a))(NN (diamond))(CC (and))(NN (lump)))(PP (NP (NN (coal)))))(VP (PP (ADJP (JJ (common)))))))) |ET| 
-1  |BT| (ROOT (SBARQ (WHNP (WP (what)))(SQ (NP (NP (NNP (a&w)))(PP (NP (NN (root))(NN (beer))(NN (fame)))))(VP (PP (IN (for))))))) |ET| 
-1  |BT| (ROOT (SBARQ (WHNP (WP (what)))(SQ (VP (NP (NP (DT (the))(NN (number)))(NP (CD (5))))(VP (PRT (IN (for)))(PP (NP (JJ (fubu))(NN (clothing))))))))) |ET| 
-1  |BT| (ROOT (SBARQ (WHNP (WP (what)))(SQ (NP (NNP (ram)))(PP (NP (DT (the))(NN (computer))))))) |ET| 
1  |BT| (ROOT (SBARQ (WHNP (WP (what)))(SQ (ADJP (PP (NP (NP (NP (NNP (alexandra))(POS ('s))))(PP (NP (NP (NNP (josie)))(NP (DT (the))(NNPS (pussycats))))))))))) |ET| 
1  |BT| (ROOT (S (NP (NNP (colin))(NNP (powell)))(VP (ADJP (WHPP (WHNP (WP (what)))))))) |ET| 
-1  |BT| (ROOT (SBARQ (WHNP (WP (what)))(SQ (NP (NP (DT (the))(CD (one))(NN (thing)))(SBAR (S (NP (PRP (you)))(VP (SBAR (S (NP (PRP (you)))(VP (VP (NP (NN (life))(NN (insurance)))))))))))))) |ET| 
-0.80061157095723800569686545713921  |BT| (ROOT (SBARQ (WHNP (WP (what)))(SQ (VP (NP (DT (the))(JJ (only))(NN (country)))(SBAR (S (NP (PRP (you)))(VP (VP (S (VP (VP (PP (NP (NNP (israel))))(PP (PP (NP (CD (1979)))))))))))))))) |ET| 
-0.97097311657788032412952361482894  |BT| (ROOT (S (SBAR (WHNP (WP (what)))(S (NP (NNP (president)))(ADVP (RB (once)))(VP (NP (NNP (gene))(NNP (autry)))(S (INTJ (`` (``))(UH (please)))(VP (NP (PRP$ (my))))))))(VP (PP (NP (NP (PRP$ (you))(NN (wife)))(NP (NNP (dale))('' ('')))))))) |ET| 
1  |BT| (ROOT (SBARQ (WHNP (WP (what)))(SQ (VP (PP (NP (NNP (dogtown))))(PP (NP (CD (1899))))(S (VP (VP (NP (NP (DT (that))(NN (year)))(ADJP (JJ (remembered))))))))))) |ET| 
1  |BT| (ROOT (SBARQ (WHNP (WP (what)))(SQ (NP (NP (DT (the))(NN (meaning)))(PP (NP (`` (``))(NNP (cpr))('' ('')))))))) |ET| 
1  |BT| (ROOT (SBARQ (WHNP (WP (what)))(SQ (NP (NP (DT (the))(NN (rallying))(NN (cry)))(PP (NP (DT (the))(JJ (early))(JJ (american))(NNS (revolutionary)))))))) |ET| 
-1  |BT| (ROOT (SBARQ (WHNP (WP (what)))(SQ (NP (NP (DT (a))(NN (fear)))(PP (NP (NN (water)))))))) |ET| 
-0.26386175796673877469444846610713  |BT| (ROOT (SBARQ (WHNP (WP (what)))(SQ (NP (NP (DT (some)))(PP (NP (NP (NNP (australia))(POS ('s))))))))) |ET| 
-0.56750821925984618054883412696654  |BT| (ROOT (SBARQ (WHNP (WP (what)))(SQ (NP (NP (DT (a))(NN (fear)))(PP (NP (NN (sleep)))))))) |ET| 
1  |BT| (ROOT (SBARQ (WHNP (WP (what)))(SQ (NP (PRP (you)))(VP (SBAR (WHADVP (WRB (when)))(S (NP (PRP$ (you))(NN (mouse)))(VP (ADVP (RB (not)))(VP (ADVP (ADVP (RB (as))(RB (fast)))(SBAR (S (NP (PRP (it)))(VP (VP (PP (TO (to)))))))))))))))) |ET| 
1  |BT| (ROOT (SBARQ (WHNP (WP (what)))(SQ (NP (NNP (richard))(NNP (feynman)))(VP (SBAR (S (VP (SBAR (S (NP (PRP (he)))(VP (VP (NP (NP (DT (the))(NNP (nobel))(NNP (prize)))(PP (NP (NN (physics)))))))))))))))) |ET| 
1  |BT| (ROOT (SBARQ (WHNP (WP (what)))(SQ (NP (NNP (mighty))(NNP (mouse)))(ADVP (RB (always)))(VP (SBAR (S (NP (PRP (he)))(VP (PP (NP (NN (action))))))))))) |ET| 
-1  |BT| (ROOT (SBARQ (WHNP (WP (what)))(SQ (NP (DT (the))(NNS (language)))(VP (PP (NP (NP (DT (the))(NNS (native)))(PP (NP (NNP (afghanistan)))))))))) |ET| 
-0.48974887922924997818441283925495  |BT| (ROOT (SBARQ (WHNP (WP (what)))(SQ (NP (NP (DT (each)))(PP (NP (DT (the))(NNS (utility)))))(VP (PP (NP (NNP (monopoly)))))))) |ET| 
-0.64886453108079555907039548401372  |BT| (ROOT (SBARQ (WHNP (WP (what)))(SQ (NP (DT (the))(JJ (first))(NNS (body)))(VP (PP (NP (NN (spacecraft)))))))) |ET| 
1  |BT| (ROOT (SBARQ (WHNP (WP (what)))(SQ (NP (NP (DT (a))(NN (pig)))(PP (NP (DT (a))(NN (poke)))))))) |ET| 
1  |BT| (ROOT (SBARQ (WHNP (WP (what)))(SQ (NP (NP (DT (a))(NN (specimen)))(PP (NP (NNS (basidiomycete)))))))) |ET| 
1  |BT| (ROOT (SBARQ (WHNP (WP (what)))(SQ (NP (NP (DT (a))(NN (cake)))(PP (NP (NN (soap)))))))) |ET| 
-1  |BT| (ROOT (SBARQ (WHNP (WP (what)))(SQ (NP (NP (DT (a))(NN (film)))(PP (NP (NNP (jude))(NNP (law)))))))) |ET| 
-0.90279053753219040689970142921084  |BT| (ROOT (SBARQ (WHNP (WP (what)))(SQ (NP (NP (DT (some))(NNS (tip)))(PP (S (VP (NP (NP (DT (a))(NN (fire)))(PP (NP (DT (a))(NN (fireplace)))))))))))) |ET| 
-1  |BT| (ROOT (SBARQ (WHNP (WP (what)))(SQ (NP (NP (DT (a))(NN (example)))(PP (NP (DT (a))(JJ (natural))(JJ (acid-base))(NN (indicator)))))))) |ET| 
1  |BT| (ROOT (SBARQ (WHNP (WP (what)))(SQ (NP (DT (the))(NNS (figure)))(VP (PP (NP (DT (the))(NNP (easter))(NNP (island)))))))) |ET| 
1  |BT| (ROOT (SBARQ (WHNP (WP (what)))(SQ (NP (DT (the))(NNS (factor)))(VP (PP (NP (NP (ADJP (JJ (teen))(NN (pregnancy))))(PP (NP (NP (NNP (spartanburg)))(NP (NNP (south))(NNP (carolina))))))))))) |ET| 
1  |BT| (ROOT (SBARQ (WHNP (WP (what)))(SQ (NP (DT (a))(NNS (compass)))(VP (PP (NP (JJ (outer))(NN (space)))))))) |ET| 
-0.98004761841562304525155013834592  |BT| (ROOT (S (VP (PP (NP (NP (NN (heroine)))(PP (NP (`` (``))(NNP (scruples))('' (''))))))))) |ET| 
-1  |BT| (ROOT (SBARQ (WHNP (WP (what)))(SQ (NP (NNS (human)))(VP (NP (JJ (zoonose))(NNS (disease)))(PP (IN (from))))))) |ET| 
-0.84227207942510107230305038683582  |BT| (ROOT (SBARQ (WHNP (WP (what)))(SQ (NP (JJ (west))(JJ (indian))(NN (steel))(NNS (band)))(VP (PP (NP (NNS (instrument)))))))) |ET| 
-1  |BT| (ROOT (SBARQ (WHNP (WP (what)))(SQ (NP (NP (NNPS (jews))))(VP (PP (IN (from)))(SBAR (S (VP (VBG (date))))))))) |ET| 
1  |BT| (ROOT (SBARQ (WHNP (WP (what)))(SQ (NP (NP (DT (a))(NN (example)))(PP (NP (NP (DT (a))(JJ (actual))(NN (case)))(PP (S (VP (NP (DT (the))(JJ (fourteenth))(NN (amendment)))))))))))) |ET| 
1  |BT| (ROOT (SBARQ (WHNP (WP (what)))(SQ (NP (NP (DT (the))(JJ (first))(NNS (word)))(VP (PP (NP (DT (a))(NN (film))))(NP (JJ (sound))(NN (track)))))))) |ET| 
1  |BT| (ROOT (SBARQ (WHNP (WP (what)))(SQ (NP (NP (DT (the))(JJ (last))(NN (line)))(PP (NP (NP (NNP (dickens))(POS ('s))))))))) |ET| 
-0.12743781856898078741480162534572  |BT| (ROOT (SBARQ (WHNP (WP (what)))(SQ (NP (DT (the))(NNS (letter))(NNP (ce)))(VP (PP (IN (for)))(PP (NP (NP (NP (ADJP (RB (so))(JJ (many))))(ADVP (RB (particularly))))(ADJP (JJ (electrical)))(VP (ADVP (RB (now)))))))))) |ET| 
-0.19162855328101541241281324801093  |BT| (ROOT (SBARQ (WHNP (WP (what)))(SQ (NP (NP (DT (the))(JJ (better-known))(NN (identity)))(PP (NP (NP (NNP (john))(NNP (merrick)))(NP (NP (DT (the))(JJ (noble))(NN (ogre)))(PP (NP (JJ (victorian))(NNP (england))))))))))) |ET| 
1  |BT| (ROOT (SBARQ (WHNP (WP (what)))(SQ (NP (NNP (fcc))(NN (chairman))(NNP (newton))(NNP (minow)))(VP (NP (NN (tv)))(S (VP (VP (PP (NP (NNP (may))(CD (9))(, (,))(CD (1961))))))))))) |ET| 
1  |BT| (ROOT (SBARQ (WHNP (WP (what)))(SQ (NP (NNP (archimedes)))(ADJP (PP (IN (for))))))) |ET| 
1  |BT| (ROOT (SBARQ (WHNP (WP (what)))(SQ (NP (JJ (pointed))(NNS (letter)))(VP (PP (NP (DT (a))(NN (handwriting))(NN (analyst)))))))) |ET| 
-0.23063112642047153832969286213483  |BT| (ROOT (SBARQ (WHNP (WP (what)))(SQ (NP (NP (DT (the))(JJ (first))(NN (day)))(PP (NP (DT (the))(NN (week)))))))) |ET| 
-1  |BT| (ROOT (SBARQ (WHNP (WP (what)))(SQ (NP (NP (NNS (man))(POS ('s)))(ADJP (PP (NP (DT (a))(JJ (455-yard))(NN (golf))))))))) |ET| 
-0.61439888053111890720003884780454  |BT| (ROOT (SBARQ (WHNP (WP (what)))(SQ (NP (NP (DT (a))(NN (man)))(VP (PP (NP (JJ (diphallic))(NN (tera))))))(VP (VB (have)))))) |ET| 
1  |BT| (ROOT (SBARQ (WHNP (WP (what)))(SQ (NP (NP (DT (the))(JJ (proud))(NN (claim)))(PP (NP (NP (NN (fame)))(PP (NP (NP (DT (the))(JJ (young))(NNS (woman)))(SBAR (WHNP (WP (who)))(S (VP (NP (NNP (kappa))(NNP (alpha))(NNP (theta)))))))))))))) |ET| 
1  |BT| (ROOT (SBARQ (WHNP (WP (what)))(SQ (NP (NP (DT (the))(NN (proof)))(SBAR (S (NP (NNS (houseplant)))(VP (VBZ (metabolize))(VBD (carcinogen))))))))) |ET| 
1  |BT| (ROOT (SBARQ (WHNP (WP (what)))(SQ (NP (NP (DT (the))(NN (distinction)))(PP (NP (NNP (u.s.))(NNP (supreme))(NNP (court))(NNP (justice))(NNP (thurgood))(NNP (marshall)))))))) |ET| 
-1  |BT| (ROOT (SBARQ (WHNP (WP (what)))(SQ (NP (NP (NNS (man))(POS ('s)))(ADJP (PP (NP (DT (a))(JJ (455-yard))(NN (golf))))))))) |ET| 
-1  |BT| (ROOT (SBARQ (WHNP (WP (what)))(SQ (VP (VP (SBAR (S (S (VP (PP (NP (NN (dimly-lit))))))(S (VP (NP (NN (water)))))))))))) |ET| 
-0.8678614397671470248596392593754  |BT| (ROOT (SBARQ (WHNP (WP (what)))(SQ (NP (NP (NP (NNP (steve))(NNP (rogers))(POS ('s))))(SBAR (WHADVP (WRB (when)))(S (NP (PRP (he)))(VP (NP (NNP (captain))(NNP (america)))))))))) |ET| 
-0.89954565705726052815549564911635  |BT| (ROOT (SBARQ (WHNP (WP (what)))(SQ (NP (NP (DT (the))(NNS (disease)))(SBAR (WHNP (WDT (that)))(S (VP (VP (VP (PP (NP (JJ (black))(NN (cumin))))))))))))) |ET| 
1  |BT| (ROOT (SBARQ (WHNP (WP (what)))(SQ (NP (DT (a))(JJ (red))(NN (flag)))(VP (PP (NP (NN (auto))(NN (racing)))))))) |ET| 
1  |BT| (ROOT (SBARQ (WHNP (WP (what)))(SQ (NP (NP (DT (the))(NN (number)))(NP (CD (1))(, (,))(CD (2))(, (,))(CC (and))(CD (4))))(VP (PP (NP (NNP (dr.))(NNP (pepper))(NNS (bottle)))))))) |ET| 
1  |BT| (ROOT (SBARQ (WHNP (WP (what)))(SQ (NP (NP (DT (the))(JJ (poetic))(NN (meter)))(PP (NP (JJ (blank))(NN (verse)))))))) |ET| 
-1  |BT| (ROOT (SBARQ (WHNP (WP (what)))(SQ (NP (NP (DT (the))(NN (number)))(PP (NP (JJ (american))(NNS (soldier)))))(VP (PP (NP (NNP (south))(NNP (korea)))))))) |ET| 
-0.73961821481066525318937010524678  |BT| (ROOT (SBARQ (WHNP (WP (what)))(SQ (NP (NP (DT (the))(NN (exchange))(NN (rate)))(PP (NP (NP (NNP (england)))(NP (DT (the))(NNP (u.s.))))))))) |ET| 
0.17440283643421919390625873802492  |BT| (ROOT (SBARQ (WHNP (WP (what)))(SQ (NP (DT (the))(NN (name))(NNP (melissa)))(VP (VB (mean)))))) |ET| 
1  |BT| (ROOT (SBARQ (WHNP (WP (what)))(SQ (NP (NP (DT (some))(NN (fun))(NNS (thing)))(S (VP (VP (PP (NP (NNP (cozumel))(, (,))(NNP (mexico))))(PP (NP (NNS (teenager))))))))))) |ET| 
1  |BT| (ROOT (SBARQ (WHNP (WP (what)))(SQ (NP (PRP (i)))(VP (S (VP (VP (S (VP (VP (NP (PRP$ (my))(NN (dog)))(PP (NP (PRP (i))))(S (VP (VP (PP (NP (NP (NNP (dominica)))(NP (NNP (west))(NNP (indies)))))(PP (NP (DT (a))(NN (year))))))))))))))))) |ET| 
1  |BT| (ROOT (SBARQ (WHNP (WP (what)))(SQ (VP (VP (VP (PP (S (VP (VBG (snore))))))))))) |ET| 
-0.47781164811923843016572277520027  |BT| (ROOT (SBARQ (WHNP (WP (what)))(SQ (NP (PRP (you)))(VP (NP (NP (DT (the))(NN (feeling)))(PP (S (VP (VP (NP (NN (something)))(ADVP (RB (before)))))))))))) |ET| 
-0.082916382996965895535446122721623  |BT| (ROOT (SBARQ (WHNP (NP (PP (NP (NN (fish))))))(SQ (NP (DT (a))(NN (coney)))))) |ET| 
-1  |BT| (ROOT (SBARQ (WHNP (WP (what)))(SQ (VP (ADVP (RB (widely)))(S (VP (VP (NP (NN (birth))(NNS (defect)))))))))) |ET| 
1  |BT| (ROOT (SBARQ (WHNP (WP (what)))(SQ (NP (NP (DT (the))(NNS (word)))(PP (NP (NP (DT (the))(NN (song)))(VP (PP (NP (`` (``))(NNP (banana))(IN (in))(NNP (pajamas))('' (''))))))))))) |ET| 
1  |BT| (ROOT (SBARQ (WHNP (WP (what)))(SQ (NP (NP (DT (the))(NNS (power))(CC (and))(NNS (weakness)))(PP (NP (NP (NNP (green))(NNP (lantern))(POS ('s))))))))) |ET| 
1  |BT| (ROOT (SBARQ (WHNP (WP (what)))(SQ (NP (NP (NP (NP (NNP (christopher))(NNP (marlowe))(POS ('s)))(NP (NNP (shakespeare))(POS ('s)))))(PP (NP (JJ (english))(NN (literature)))))))) |ET| 
-0.019371852815382426676871219228815  |BT| (ROOT (SBARQ (WHNP (WP (what)))(SQ (NP (NP (NP (NNP (eduard))(NNP (shevardnadze))(POS ('s))))(PP (NP (DT (the))(NNP (soviet))(NNP (union)))))))) |ET| 
-0.54996280715893042234654330968624  |BT| (ROOT (SBARQ (WHNP (WP (what)))(SQ (NP (NP (NNP (mae))(NNP (west))(POS ('s))))))) |ET| 
-0.48667424081376264854981172902626  |BT| (ROOT (SBARQ (WHNP (WP (what)))(SQ (NP (NP (NNP (alice))(NNP (cooper))(POS ('s))))))) |ET| 
1  |BT| (ROOT (SBARQ (WHNP (WP (what)))(SQ (VP (SBAR (WHADVP (WRB (when)))(S (NP (NN (lightning)))(VP (NP (NP (DT (a))(NN (body)))(PP (NP (NN (water)))))))))))) |ET| 
0.92481372752489432453870676908991  |BT| (ROOT (SBARQ (WHADVP (WRB (why)))(SQ (NP (PRP (they)))(VP (NP (DT (a))(NN (hamburger)))(S (NP (DT (a))(NN (hamburger))))(SBAR (WHADVP (WRB (when)))(S (NP (EX (there)))(VP (NP (DT (no))(NN (ham)))))))))) |ET| 
1  |BT| (ROOT (SBARQ (WHNP (WP (what)))(SQ (NP (NNP (john))(NNP (f.))(NNP (kennedy)))(VP (NP (NP (PRP$ (he))(JJS (greatest))(NN (blunder)))(PP (NP (NN (office))))))))) |ET| 
-1  |BT| (ROOT (SBARQ (WHNP (WP (what)))(SQ (VP (SBAR (WHADVP (WRB (when)))(S (NP (DT (a))(NN (cyclist)))(VP (S (NP (NN (oil))))))))))) |ET| 
-1  |BT| (ROOT (SBARQ (WHADVP (WRB (where)))(SQ (NP (PRP (i)))(VP (NP (NP (DT (a))(NN (test)))(SBAR (WHNP (WDT (that)))(S (VP (VP (NP (PRP (i)))(SBAR (WHNP (WP (what)))(S (NP (PRP (i)))(VP (VP (SBAR (WHADVP (WRB (when)))(S (NP (PRP (i)))(VP (PRT (RP (up))))))))))))))))))) |ET| 
-1  |BT| (ROOT (SBARQ (WHNP (WP (what)))(SQ (NP (DT (the))(JJ (six-footed))(NNP (musca))(NNP (domestica)))(VP (SBAR (WHADVP (WRB (when)))(S (NP (PRP (it)))(VP (NP (DT (a))(NN (house)))))))))) |ET| 
1  |BT| (ROOT (SBARQ (WHNP (WP (what)))(SQ (NP (NP (NNP (harry))(NNP (houdini))(POS ('s))))))) |ET| 
1  |BT| (ROOT (SBARQ (WHNP (WP (what)))(SQ (NP (NP (DT (some))(NNS (child))(POS ('s))))))) |ET| 
1  |BT| (ROOT (SBARQ (WHNP (WP (what)))(SQ (NP (NP (DT (a))(NN (person))(POS ('s))))))) |ET| 
0.095639325287687204646402960861451  |BT| (ROOT (SBARQ (WHADVP (WRB (why)))(SQ (NP (EX (there)))(NP (NP (DT (no))(JJ (white))(NNS (line)))(PP (NP (FW (pro))(NNS (football)))))))) |ET| 
-0.78678830016708334316177797518321  |BT| (ROOT (SBARQ (WHNP (WP (what)))(SQ (NP (NP (NNP (november))(POS ('s))))))) |ET| 
1  |BT| (ROOT (SBARQ (WHNP (WP (what)))(SQ (NP (DT (a))(NNP (las))(NNP (vegas))(NNP (blackjack))(NN (dealer)))(VP (SBAR (WHADVP (WRB (when)))(S (NP (PRP (he)))(VP (NP (CD (16)))))))))) |ET| 
1  |BT| (ROOT (SBARQ (WHADVP (WRB (how)))(SQ (NP (PRP (i)))(VP (NP (NP (DT (a))(NN (friend)))(PP (NP (DT (another))(NN (country)))))(SBAR (WHADVP (WRB (when)))(S (NP (PRP (i)))(VP (VP (NP (DT (the))(NN (telephone))(NN (number))))))))))) |ET| 
1  |BT| (ROOT (SBARQ (WHADVP (WRB (why)))(SQ (NP (DT (the))(NN (universe)))(ADJP (JJ (flat))))(FRAG (SBAR (S (NP (PRP (it)))(VP (PP (NP (NP (DT (a))(NN (explosion)))(NP (NP (NNS (shouldn))(POS ('))))))(SBAR (S (NP (PRP (it)))(VP (NP (DT (a))(NN (sphere)))))))))))) |ET| 
-0.28696811062418686733010986245063  |BT| (ROOT (SBARQ (WHNP (WP (what)))(SQ (NP (NP (DT (a))(NN (fear)))(PP (NP (VBG (touch)))))))) |ET| 
0.0017678311608150610104162048230592  |BT| (ROOT (SBARQ (WHADVP (WRB (why)))(SQ (NP (NP (JJ (native))(JJ (american))(NNS (student))))(ADVP (RB (not)))(VP (NP (NN (college))))))) |ET| 
0.39877419252648593772647700461675  |BT| (ROOT (SBARQ (WHNP (WP (what)))(SQ (NP (DT (a))(`` (``))(JJ (repeating))(NN (voter))('' ('')))))) |ET| 
-0.091107834961319064670526302052167  |BT| (ROOT (SBARQ (WHPP (WHNP (WDT (what))(NN (nation))))(SQ (NP (NNP (edessa)))(VP (ADVP (RB (nowadays))))))) |ET| 
0.3976382452900693587061198286392  |BT| (ROOT (SBARQ (WHADVP (WRB (how)))(SQ (NP (PRP (i)))(VP (PRT (RP (up)))(NP (NP (NP (NN (someone))(POS ('s))))(PP (NP (DT (the))(NN (internet))))))))) |ET| 
-0.017623360893337609855979764006406  |BT| (ROOT (SBARQ (WHNP (WP (what)))(SQ (NP (NP (DT (the))(CD (7))(NNS (principle)))(PP (S (VP (PP (NP (NP (DT (the))(NNP (institute)))(PP (NP (NNP (research))))))(PP (NP (NNP (learning))(, (,))(NNP (irl))))))))))) |ET| 
1  |BT| (ROOT (SBARQ (WHADVP (WRB (how)))(SQ (NP (PRP (i)))(VP (NP (NP (DT (a))(JJ (complete))(NN (list)))(PP (NP (SBAR (WHNP (WDT (that)))(S (VP (VP (PP (NP (NP (DT (the))(JJ (last))(NN (name)))(NP (NNP (kilvington)))))))))))))))) |ET| 
-1  |BT| (ROOT (SBARQ (WHNP (WP (what)))(SQ (ADVP (RB (first)))(VP (PP (NP (NP (NNP (john))(NNP (l.))(NNP (sullivan)))(NP (NNP (james))(NNP (j.))(NNP (corbett)))))(PP (NP (CD (1892)))))))) |ET| 
-0.051297628726057614700906128746283  |BT| (ROOT (SBARQ (WHNP (WP (what)))(SQ (NP (NP (DT (the))(NN (brand))(NN (name)))(PP (NP (DT (a))(NN (chemical)))))(VP (S (VP (VP (NP (NN (ripening)))))))))) |ET| 
-0.64509946785504923560949919192353  |BT| (ROOT (SBARQ (WHADVP (WRB (where)))(SQ (NP (PRP (i)))(VP (NP (NP (DT (a))(JJ (complete))(NN (listing)))(PP (NP (NP (NNS (showtime)))(PP (NP (PRP$ (my))(NN (area))))))))))) |ET| 
1  |BT| (ROOT (SBARQ (WHNP (WP (what)))(SQ (VP (ADVP (RB (ever)))(PP (NP (DT (the))(RB (once))(JJ (popular))(NNP (yale))(NN (lock))(NN (company)))))))) |ET| 
1  |BT| (ROOT (SBARQ (WHNP (WP (what)))(SQ (NP (NP (DT (the))(JJ (infamous))(NN (feat)))(PP (NP (NP (NNP (germany))(POS ('s))))))))) |ET| 
1  |BT| (ROOT (SBARQ (WHNP (WP (what)))(SQ (NP (NP (NNP (first))(NNP (world))))))) |ET| 
-0.49194568106610092605990303127328  |BT| (ROOT (SBARQ (WHNP (WP (what)))(SQ (NP (NP (NNP (california))(POS ('s))))))) |ET| 
-1  |BT| (ROOT (SBARQ (WHNP (WP (what)))(SQ (NP (DT (some))(JJ (mythology))(NNS (website)))))) |ET| 
-1  |BT| (ROOT (SBARQ (WHNP (WP (what)))(SQ (NP (DT (a))(JJ (heliologist))(NN (study)))))) |ET| 
-1  |BT| (ROOT (SBARQ (WHNP (WP (what)))(SQ (NP (DT (the))(JJ (nordic))(NNS (nation)))))) |ET| 
1  |BT| (ROOT (SBARQ (WHNP (WP (what)))(SQ (VP (PP (NP (NP (DT (the))(NNP (blackhawk))(NNP (indian))(NN (war)))(PP (NP (CD (1832)))))))))) |ET| 
1  |BT| (ROOT (SBARQ (SBAR (S (PP (NP (NP (DT (the))(NN (song)))(NP (NNP (yankee))(NNP (doodle)))))))(WHADVP (WRB (why)))(SQ (NP (NNP (yankee))(NNP (doodle)))(VP (VP (VP (NP (DT (a))(NN (feather)))(PP (NP (PRP$ (he))(NN (cap)))))(VP (NP (PRP (it)))))(NP (NNS (macaroni))))))) |ET| 
1  |BT| (ROOT (SBARQ (WHNP (WP (what)))(SQ (NP (NP (DT (the))(NN (theory)))(PP (NP (NN (quantum))(NNS (leap)))))(VP (PP (NP (JJR (simpler))(NNS (term)))))))) |ET| 
-1  |BT| (ROOT (SBARQ (WHNP (WP (what)))(SQ (NP (NNP (walter))(NNP (huston)))(VP (S (VP (VP (PP (NP (NP (DT (the))(NN (movie)))(NP (NP (DT (the))(NN (treasure)))(PP (NP (DT (the))(NNP (sierra))(NNP (madre)))))))))))))) |ET| 
-1  |BT| (ROOT (SBARQ (WHNP (WP (what)))(SQ (VP (PP (NP (DT (the))(NN (tongue))))(PP (NP (DT (the))(NN (palate)))))))) |ET| 
-0.22829140703837633163963971583144  |BT| (ROOT (SBARQ (WHNP (WP (what)))(SQ (NP (PRP (you)))(VP (NP (DT (a))(NNP (poker))(NN (hand)))(PP (NP (NP (CD (five))(NNS (card)))(PP (NP (DT (the))(JJ (same))(NN (suit)))))))))) |ET| 
0.53385498997466629411690064443974  |BT| (ROOT (SBARQ (WHNP (WP (what)))(SQ (NP (NNP (australia))(NN (day)))))) |ET| 
0.73662213666950782098297167976853  |BT| (ROOT (SBARQ (WHNP (WP (what)))(SQ (NP (NNP (candlemas))(NN (day)))))) |ET| 
0.27207687351332127123626491993491  |BT| (ROOT (SBARQ (WHNP (WP (what)))(SQ (NP (DT (a))(JJ (devo))(NN (hat)))))) |ET| 
-1  |BT| (ROOT (SBARQ (WHNP (WP (what)))(SQ (NP (DT (a))(JJ (edentulous))(NN (smile))(NN (lack)))))) |ET| 
-1  |BT| (ROOT (SBARQ (WHNP (WP (what)))(SQ (NP (ADJP (NP (JJ (fractal))(NN (web)))))))) |ET| 
-1  |BT| (ROOT (SBARQ (WHNP (WP (what)))(SQ (NP (DT (a))(JJ (common))(JJ (anti-aids))(NN (drug)))))) |ET| 
1  |BT| (ROOT (SBARQ (WHNP (WP (what)))(SQ (NP (DT (the))(NN (weather)))(PP (PP (NP (DT (the))(NN (moon)))))))) |ET| 
1  |BT| (ROOT (SBARQ (WHNP (WP (what)))(SQ (NP (NP (DT (the))(NN (history)))(PP (NP (DT (the))(NN (hairdryer)))))))) |ET| 
1  |BT| (ROOT (SBARQ (WHNP (WP (what)))(SQ (VP (PP (NP (NP (DT (the))(NN (city)))(PP (NP (NNP (dogtown))))))(PP (NP (CD (1899)))))))) |ET| 
-1  |BT| (ROOT (SBARQ (WHNP (WP (what)))(SQ (VP (ADVP (RB (commercially)))(PP (NP (NP (NNP (bayer))(NNP (a.g.)))(PP (NP (NNP (leverkusen))))))(PP (NP (CD (1899)))))))) |ET| 
-1  |BT| (ROOT (SBARQ (WHNP (WP (what)))(SQ (NP (NP (DT (the))(NN (term)))(PP (NP (NP (DT (the))(NN (sum)))(PP (NP (NP (DT (all))(JJ (genetic))(NN (material)))(PP (NP (DT (a))(VBN (give))(NN (organism)))))))))))) |ET| 
-1  |BT| (ROOT (SBARQ (WHNP (WP (what)))(SQ (VP (NP (NP (DT (the))(NN (airline)))(PP (PP (NP (JJ (professional))(NNS (traveler)))))))))) |ET| 
1  |BT| (ROOT (SBARQ (WHNP (WP (what)))(SQ (NP (NP (DT (a))(NN (baseball))(NN (team))(POS ('s))))))) |ET| 
1  |BT| (ROOT (SBARQ (WHNP (WP (what)))(SQ (NP (DT (a))(JJ (aortic))(JJ (abdominal))(NN (aneurysm)))))) |ET| 
1  |BT| (ROOT (SBARQ (WHNP (WP (what)))(SQ (NP (DT (the))(JJ (greek))(NNS (numeral)))))) |ET| 
-0.60030287752576838578022488945862  |BT| (ROOT (SBARQ (WHNP (WP (what)))(SQ (NP (NP (NNP (william))(NNP (f.))(NNP (cody))(POS ('s))))))) |ET| 
-1  |BT| (ROOT (SBARQ (WHNP (WP (what)))(SQ (NP (DT (the))(JJ (second-lightest))(NN (element)))))) |ET| 
-1  |BT| (ROOT (SBARQ (WHNP (WP (what)))(SQ (NP (DT (the))(JJ (main))(NN (blood))(NNS (vessel)))))) |ET| 
1  |BT| (ROOT (SBARQ (WHNP (WP (what)))(SQ (VP (NP (NP (DT (the))(JJ (only))(NN (cigarette)))(PP (PP (NP (DT (no))(NNS (leftovers)))))))))) |ET| 
1  |BT| (ROOT (SBARQ (WHNP (WP (what)))(SQ (VP (NP (NP (NP (DT (the))(NN (meaning)))(PP (NP (FW (caliente)))))(PP (NP (NNP (english))))))))) |ET| 
1  |BT| (ROOT (SBARQ (WHNP (WP (what)))(SQ (VP (NP (ADJP (FW (coup))(FW (de))))(PP (NP (DT (a))(JJ (french))(NN (boxer)))))))) |ET| 
-1  |BT| (ROOT (SBARQ (WHNP (WP (what)))(SQ (VP (VP (NP (NP (DT (the))(NNS (conjugation)))(PP (NP (NN (wake))))))(VP (VBD (wake))))))) |ET| 
-1  |BT| (ROOT (SBARQ (WHNP (WP (what)))(SQ (NP (NN (volcano))(NNS (shower)))(PP (PP (NP (NNP (sicily)))))))) |ET| 
-1  |BT| (ROOT (SBARQ (WHNP (WP (what)))(SQ (VP (NP (NP (DT (the))(JJ (soft))(NN (drink)))(PP (NP (NNS (adult))))))))) |ET| 
1  |BT| (ROOT (SBARQ (WHNP (WP (what)))(SQ (NP (NP (DT (the))(JJ (first))(NNP (funk))(CC ('n))(NNP (lata)))(NP (JJ (brazilian))(NN (group)))(NP (NN (success))))))) |ET| 
1  |BT| (ROOT (SBARQ (WHNP (WP (what)))(SQ (NP (NP (DT (the))(JJ (short-lived))(NNP (star))(NNPS (hawks))(NN (strip)))(ADJP (RB (so))(JJ (unique))))))) |ET| 
1  |BT| (ROOT (SBARQ (WHNP (WP (what)))(SQ (NP (DT (the))(NNP (kashmir))(NN (issue)))))) |ET| 
-1  |BT| (ROOT (SBARQ (WHNP (WP (what)))(SQ (NP (NP (DT (the))(JJ (average))(NN (time)))(SBAR (S (NP (PRP (it)))(VP (SBAR (S (NP (DT (a))(NN (male)))(VP (VP (VB (ejaculate))))))))))))) |ET| 
-1  |BT| (ROOT (SBARQ (WHNP (WP (what)))(SQ (NP (JJ (blue))(NN (litmus))(NN (paper)))(ADJP (JJ (red)))))) |ET| 
-1  |BT| (ROOT (SBARQ (WHNP (WP (what)))(SQ (NP (DT (the))(JJS (rarest))(NN (coin)))))) |ET| 
1  |BT| (ROOT (SBARQ (WHNP (WP (what)))(SQ (VP (NP (NNP (al))(NNP (capone)))(VP (ADVP (RB (finally)))(PP (IN (for)))(PP (NP (CD (1931))))))))) |ET| 
1  |BT| (ROOT (SBARQ (WHNP (WP (what)))(SQ (NP (NP (DT (the))(NN (purpose)))(PP (NP (NP (DT (the))(JJ (sysrq))(NN (key)))(PP (NP (PRP$ (my))(NN (computer))(NN (keyboard)))))))))) |ET| 
1  |BT| (ROOT (SBARQ (WHNP (WP (what)))(SQ (NP (NP (NNS (vermicillus)))(NP (NNS (rigatus)))(NP (NNS (zitonus)))(NP (NNS (tubettus))))))) |ET| 
-1  |BT| (ROOT (SBARQ (WHNP (WP (what)))(SQ (NP (NP (NP (CD (55))(NNS (time)))(NP (NN (sweeter))))(PP (NP (NN (cane))(NN (sugar)))))))) |ET| 
-1  |BT| (ROOT (SBARQ (WHNP (WP (what)))(SQ (NP (NP (DT (the))(NN (shape)))(PP (NP (NP (DT (a))(NN (camel))(POS ('s))))))))) |ET| 
-1  |BT| (ROOT (SBARQ (WHNP (WP (what)))(SQ (NP (NP (DT (the))(NN (score)))(PP (NP (DT (a))(VBN (forfeit))(NN (baseball))(NN (game)))))))) |ET| 
1  |BT| (ROOT (SBARQ (WHNP (WP (what)))(SQ (NP (NP (JJ (main))(NN (reason)))(PP (SBAR (S (NP (JJ (electric))(NNS (vehicle)))(VP (PRN (ADVP (RB (t))))(VP (ADJP (JJ (popular)))(ADVP (RB (nowadays)))))))))))) |ET| 
0.80801462163587478571002975513693  |BT| (ROOT (SBARQ (WHNP (WP (what)))(SQ (NP (DT (the))(JJ (red))(NN (planet)))))) |ET| 
1  |BT| (ROOT (SBARQ (WHNP (WP (what)))(SQ (NP (NP (NN (bear))(CC (and))(NN (bull))))))) |ET| 
-0.30340534234155736026394833970699  |BT| (ROOT (SBARQ (WHNP (WP (what)))(SQ (NP (DT (the))(NNS (star)))(VP (PP (IN (of))))))) |ET| 
-1  |BT| (ROOT (SBARQ (WHNP (WP (what)))(SQ (NP (NP (ADJP (ADJP (DT (the))(JJS (longest)))))(VP (ADVP (RB (ever)))))))) |ET| 
-0.037056511711424745814102976737558  |BT| (ROOT (SBARQ (WHNP (WP (what)))(SQ (VP (NP (DT (the))(JJ (first))(JJ (minimum))(NN (wage))))))) |ET| 
1  |BT| (ROOT (SBARQ (WHNP (WP (what)))(SQ (NP (NP (DT (the))(NN (cause)))(PP (NP (JJ (endangered))(NNS (species)))))))) |ET| 
1  |BT| (ROOT (SBARQ (WHNP (WP (what)))(SQ (NP (NP (NN (canker))(NNS (sore)))(PP (NP (DT (the))(NN (mouth)))))))) |ET| 
0.28871682169102225179457832382468  |BT| (ROOT (SBARQ (WHNP (WP (what)))(SQ (NP (NP (DT (the))(NN (difference)))(PP (NP (NP (DT (a))(NN (bottle)))(NP (DT (a))(NN (jar))))))))) |ET| 
-1  |BT| (ROOT (SBARQ (WHNP (WP (what)))(SQ (NP (NP (DT (another))(NN (word)))(PP (NP (NN (diet)))))))) |ET| 
-1  |BT| (ROOT (SBARQ (WHNP (WP (what)))(SQ (NP (NP (DT (the))(NN (plural)))(PP (NP (NN (gulf)))))))) |ET| 
-1  |BT| (ROOT (SBARQ (WHNP (WP (what)))(SQ (NP (NP (DT (the))(NN (connection)))(PP (NP (NNP (new))(NNP (krypton))(CC (and))(NNP (daxam)))))))) |ET| 
1  |BT| (ROOT (SBARQ (WHNP (WP (what)))(SQ (NP (NNS (economist)))(VP (VB (do)))))) |ET| 
1  |BT| (ROOT (SBARQ (WHNP (WP (what)))(SQ (NP (DT (a))(NNP (nihilist)))(VP (PRT (RP (in))))))) |ET| 
1  |BT| (ROOT (SBARQ (WHNP (WP (what)))(SQ (NP (JJ (christian))(NNS (scientist)))(VP (PRT (RP (in))))))) |ET| 
-1  |BT| (ROOT (SBARQ (WHNP (WP (what)))(SQ (NP (DT (a))(NN (woman)))(VP (VB (want)))))) |ET| 
-1  |BT| (ROOT (SBARQ (WHNP (WP (what)))(SQ (NP (DT (a))(NN (chiropodist)))(VP (VB (treat)))))) |ET| 
-1  |BT| (ROOT (SBARQ (WHNP (WP (what)))(SQ (NP (DT (a))(NN (resurrectionist)))(VP (VB (steal)))))) |ET| 
1  |BT| (ROOT (SBARQ (WHNP (WP (what)))(SQ (NP (NP (DT (the))(JJS (largest))(NN (variety)))(PP (NP (NN (cactus)))))))) |ET| 
1  |BT| (ROOT (SBARQ (WHNP (WP (what)))(SQ (NP (NP (DT (the))(NNS (cause)))(PP (NP (DT (the))(NNP (civil))(NNP (war)))))))) |ET| 
1  |BT| (ROOT (SBARQ (WHNP (WP (what)))(SQ (NP (NP (NN (fiber)))(PP (NP (NN (food)))))))) |ET| 
-0.0087915477608121080088654508699619  |BT| (ROOT (SBARQ (WHNP (WP (what)))(SQ (NP (NP (NNP (john))(NNP (steinbeck))(POS ('s))))))) |ET| 
-0.77538221654297323492954774337704  |BT| (ROOT (SBARQ (WHNP (WP (what)))(SQ (NP (NP (DT (the))(JJ (highest-ranking))(NN (suit)))(PP (NP (NN (bridge)))))))) |ET| 
