SVM-light Version V5.01-TK-1.5
5 # kernel type
3 # kernel parameter -d 
1 # kernel parameter -g 
1 # kernel parameter -s 
1 # kernel parameter -r 
empty# kernel parameter -u 
0.4 # kernel parameter -L 
1 # kernel parameter -T 
T # kernel parameter -C 
1 # kernel parameter -F 
1 # kernel parameter -S 
0.400000 # kernel parameter -M 
3 # kernel parameter -N 
S # kernel parameter -V 
S # kernel parameter -W 
0 # kernel parameter -U 
10 # highest feature index 
5452 # number of training documents 
2919 # number of support vectors plus 1 
0.40859613 # threshold b, each following line is a SV (starting with alpha*y)
0.90270962628610407207929711148608  |BT| (ROOT (S (NP (NNP (stuart))(NNP (hamblen)))(VP (VP (S (VP (VP (NP (NP (DT (the))(JJ (first))(NN (singing))(NN (cowboy)))(PP (NP (WDT (which))(NN (medium)))))))))))) |ET| 
0.80927755265422141039977077525691  |BT| (ROOT (SBARQ (WHNP (WP (what)))(SQ (NP (DT (a))(NN (golf))(NN (ball)))(VP (PP (IN (of))))))) |ET| 
-1  |BT| (ROOT (SBARQ (WHNP (WP (what)))(SQ (NP (NP (DT (the))(JJ (full))(NN (form)))(PP (IN (of))))))(NP (NN (com))(. (?)))) |ET| 
-0.53308102533163159719720169960056  |BT| (ROOT (SBARQ (WHNP (WDT (what))(JJ (contemptible))(NN (scoundrel)))(SQ (VP (NP (DT (the))(NN (cork)))(PP (NP (PRP$ (my))(NN (lunch)))))))) |ET| 
-0.29967398065018313602081434510183  |BT| (ROOT (SBARQ (WHNP (WDT (what))(NN (team)))(SQ (NP (NP (NN (baseball))(POS ('s))))(VP (VB (become)))))) |ET| 
1  |BT| (ROOT (SBARQ (WHNP (WDT (what))(NNS (film)))(SQ (NP (DT (the))(NN (character))(NNP (popeye))(NNP (doyle)))))) |ET| 
1  |BT| (ROOT (SBARQ (WHNP (WDT (what))(NN (fowl)))(SQ (VP (NP (DT (the))(NN (spotlight)))(PP (NP (NP (DT (the))(JJ (chinese))(NN (year)))(PP (NP (DT (the))(NN (monkey)))))))))) |ET| 
1  |BT| (ROOT (SBARQ (WHNP (WP (what)))(SQ (VP (NP (NP (DT (the))(JJS (costliest))(NN (disaster)))(SBAR (S (NP (DT (the))(NN (insurance))(NN (industry)))(VP (VP (VBN (face))))))))))) |ET| 
1  |BT| (ROOT (SBARQ (WHNP (WHNP (WDT (what))(NNS (article)))(PP (NP (NN (clothing)))))(SQ (NP (NNS (token)))(PP (NP (NNP (monopoly))))))) |ET| 
1  |BT| (ROOT (SBARQ (WHNP (WP (what)))(SQ (NP (NP (DT (the))(JJ (second-most-used))(NN (vowel)))(PP (NP (NNP (english)))))))) |ET| 
-1  |BT| (ROOT (SBARQ (WHNP (WP (what)))(SQ (NP (NP (DT (the))(JJ (first))(NN (day)))(PP (NP (DT (the))(NN (week)))))))) |ET| 
-0.13128807739779294050386226899718  |BT| (ROOT (SBARQ (WHNP (WDT (what))(CD (two))(NNS (country)))(SQ (NP (NNP (sierra))(NNP (nevada))(NNS (mountain)))))) |ET| 
0.632668956919574698716246530239  |BT| (ROOT (SBARQ (WHNP (WDT (what))(NN (drug)))(SQ (VP (ADVP (RB (often)))(S (VP (VP (NP (NNP (aids))(NNS (patient)))))))))) |ET| 
1  |BT| (ROOT (SBARQ (WHADVP (WRB (how)))(SQ (NP (PRP (you)))(VP (SBAR (S (NP (PRP (i)))(VP (NP (PRP (you)))(PP (NP (JJ (other))(NNS (language))))))))))) |ET| 
1  |BT| (ROOT (SBARQ (WHADVP (WRB (how)))(SQ (NP (PRP (you)))(VP (ADJP (PP (NP (NNP (spanish))))))))) |ET| 
1  |BT| (ROOT (SBARQ (WHADVP (WRB (how)))(SQ (NP (PRP (you)))(VP (NP (CD (2)))(PP (NP (NNP (latin)))))))) |ET| 
-0.2503616163263814309303256777639  |BT| (ROOT (SBARQ (WHADVP (WRB (how)))(SQ (NP (PRP (you)))(VP (ADJP (PP (NP (NNS (woodpecker))))))))) |ET| 
0.080274642346069263743046917625179  |BT| (ROOT (S (NP (NNP (madonna)))(VP (SBAR (WHNP (WDT (which)))(S (NP (JJ (soft))(NN (drink)))))))) |ET| 
-1  |BT| (ROOT (SBARQ (WHADVP (WRB (how)))(SQ (NP (PRP (you)))(VP (NP (NNS (foot-pound)))(PP (NP (NNS (foot-inch)))))))) |ET| 
1  |BT| (ROOT (SBARQ (WHNP (WP (what)))(SQ (NP (NP (DT (the))(JJ (softest))(NN (part)))(PP (NP (DT (the))(NN (body)))))))) |ET| 
1  |BT| (ROOT (SBARQ (WHNP (WP (what)))(SQ (NP (NP (DT (the))(NN (value)))(PP (NP (DT (the))(NN (pearl)))))))) |ET| 
1  |BT| (ROOT (SBARQ (WHNP (WP (what)))(SQ (NP (NP (DT (the))(NN (shape)))(PP (NP (NP (DT (a))(NN (camel))(POS ('s))))))))) |ET| 
-0.084378181452553768782109955282067  |BT| (ROOT (SBARQ (WHNP (WP (what)))(SQ (NP (NP (DT (the))(NN (origin)))(PP (NP (DT (the))(NN (peace))(NN (symbol)))))))) |ET| 
-0.10513728976813302429249574743153  |BT| (ROOT (SBARQ (WHNP (WP (who)))(SQ (NP (NP (NNP (shakespeare))(POS ('s))))(VP (NP (NP (NP (CD (3)))(NP (CD (0)))))(PP (IN (from))))))) |ET| 
-0.35935746632242920872712943491933  |BT| (ROOT (SBARQ (WHNP (WDT (what))(NN (writer-journalist)))(SQ (NP (NP (PRP$ (he))(NN (mark)))(PP (NP (NP (ADJP (NN (underworld)))))))))) |ET| 
1  |BT| (ROOT (SBARQ (WHADVP (WRB (where)))(SQ (NP (PRP$ (you))(NN (hair)))(VP (NP (DT (the))(JJS (fastest))))))) |ET| 
1  |BT| (ROOT (SBARQ (WHNP (WDT (what))(NN (fuel)))(SQ (NP (NNS (airplane)))(VP (VB (use)))))) |ET| 
0.080029145691810063545368336690444  |BT| (ROOT (SBARQ (WHNP (WDT (what))(NN (sport)))(SQ (NP (PRP (you)))(VP (NP (NNS (fly)))(PP (IN (in))))))) |ET| 
-0.32781355227237063409972961380845  |BT| (ROOT (SBARQ (WHNP (WDT (what))(NN (county)))(SQ (NP (NNP (chicago)))(PP (IN (in)))))) |ET| 
-1  |BT| (ROOT (SBARQ (WHNP (WDT (what))(NN (room)))(SQ (NP (NNP (w.c.))(NNP (fields)))(VP (NP (PRP$ (he))(NN (library)))(PP (IN (in))))))) |ET| 
-1  |BT| (ROOT (SBARQ (WHNP (WDT (what))(NN (province)))(SQ (NP (NNP (edmonton)))(VP (PP (IN (in))))))) |ET| 
1  |BT| (ROOT (SBARQ (WHNP (WP (what)))(SQ (NP (NP (DT (the))(NN (term)))(PP (NP (NP (DT (a))(NN (group)))(PP (NP (NNS (goose)))))))))) |ET| 
1  |BT| (ROOT (SBARQ (WHNP (WP (what)))(SQ (NP (NP (DT (the))(NN (name)))(PP (NP (NP (DT (the))(NN (vaccine)))(PP (NP (NN (chicken))(NN (pox)))))))))) |ET| 
1  |BT| (ROOT (SBARQ (WHNP (WP (what)))(SQ (NP (NP (DT (the))(NN (fear)))(PP (NP (NNS (frog)))))))) |ET| 
-1  |BT| (ROOT (SBARQ (WHNP (WP (what)))(SQ (NP (NP (DT (the))(NN (name)))(PP (NP (NP (DT (the))(NN (inventor)))(PP (NP (JJ (silly))(NN (putty)))))))))) |ET| 
-0.64896926943467614368188378648483  |BT| (ROOT (SBARQ (WHNP (WP (what)))(SQ (NP (NP (DT (the))(NN (name)))(PP (NP (NP (DT (the))(NN (president)))(PP (NP (NNP (garmat))(NNP (u.s.a)))))))))) |ET| 
-1  |BT| (ROOT (SBARQ (WHNP (WP (what)))(SQ (NP (NP (DT (the))(NN (name)))(PP (NP (NP (DT (the))(NN (gulf)))(PP (NP (NNP (sweden))(CC (and))(NNP (finland)))))))))) |ET| 
1  |BT| (ROOT (SBARQ (WHNP (WDT (what))(NN (book)))(SQ (NP (NNP (holden))(NNP (caulfield)))(VP (PP (IN (in))))))) |ET| 
0.76298947374190251302650267462013  |BT| (ROOT (SBARQ (WHNP (WDT (what))(NN (film)))(SQ (NP (NNP (jude))(NNP (law)))(PP (IN (in)))))) |ET| 
1  |BT| (ROOT (SBARQ (WHNP (WDT (what))(NN (generation)))(SQ (NP (PRP (i)))(PP (IN (in)))))) |ET| 
-0.99587541798697742922996667402913  |BT| (ROOT (SBARQ (WHNP (WP (what)))(SQ (NP (NP (DT (the))(NN (executor)))(PP (NP (DT (a))(NN (will)))))))) |ET| 
-0.31698829950658846676958546595415  |BT| (ROOT (SBARQ (WHNP (WDT (what))(NN (group)))(SQ (NP (NP (NNP (abbey))(NNP (hoffman)))(NP (NNP (jerry))(NNP (rubin)))(NP (NNP (tom))(NNP (hayden))))))) |ET| 
-1  |BT| (ROOT (SBARQ (WHNP (WDT (what))(NN (country)))(SQ (NP (NNS (problem)))(PP (NP (NNS (hooligan))))))) |ET| 
1  |BT| (ROOT (SBARQ (WHNP (WP (what)))(SQ (NP (NP (DT (the))(NN (name)))(PP (NP (NP (DT (the))(NN (art)))(PP (NP (VBG (grow))(NN (miniature))(NNS (tree)))))))))) |ET| 
1  |BT| (ROOT (SBARQ (WHNP (WP (what)))(SQ (NP (NP (DT (the))(NN (name)))(PP (NP (NP (DT (the))(NNP (protestant))(NN (revolt)))(PP (NP (NP (DT (the))(NN (supremacy)))(PP (NP (DT (the))(NNP (pope)))))))))))) |ET| 
1  |BT| (ROOT (SBARQ (WHNP (WP (what)))(SQ (NP (NP (DT (the))(NN (name)))(PP (NP (NP (DT (the))(JJ (famous))(NN (battle)))(PP (NP (NNP (texas))(CC (and))(NNP (mexico)))))))))) |ET| 
-1  |BT| (ROOT (SBARQ (WHNP (WP (what)))(SQ (NP (NP (DT (the))(NN (name)))(PP (NP (NP (DT (the))(NN (director)))(PP (NP (DT (the))(NN (movie))(`` (``))(NNP (jaws))('' ('')))))))))) |ET| 
-1  |BT| (ROOT (SBARQ (WHNP (WP (what)))(SQ (NP (NP (DT (the))(NN (name)))(PP (NP (NP (DT (the))(JJS (tallest))(NN (mountain)))(PP (NP (DT (the))(NN (world)))))))))) |ET| 
-1  |BT| (ROOT (SBARQ (WHNP (WP (what)))(SQ (NP (NP (DT (the))(NN (name)))(PP (NP (NP (DT (the))(NN (cook)))(PP (NP (NNP (rawhide)))))))))) |ET| 
1  |BT| (ROOT (SBARQ (WHNP (WDT (what))(NN (novel)))(SQ (NP (NNP (ian))(NNP (fleming)))(VP (NP (NNP (james))(NNP (bond)))(PP (IN (in))))))) |ET| 
1  |BT| (ROOT (SBARQ (WHNP (WDT (what))(NN (horse)))(SQ (NP (NNP (zorro)))(VP (VB (ride)))))) |ET| 
1  |BT| (ROOT (SBARQ (WHNP (WDT (what))(NN (letter)))(SQ (NP (NP (NNP (gorbachev))(POS ('s))))(VP (PP (IN (with))))))) |ET| 
-1  |BT| (ROOT (SBARQ (WHNP (WDT (what))(NN (information)))(SQ (NP (PRP (you)))(VP (NP (PRP (i)))(PP (NP (NN (actor))(NNP (james))(NNP (cromwell)))))))) |ET| 
-1  |BT| (ROOT (SBARQ (WHNP (WDT (what))(NN (function)))(SQ (NP (NP (DT (a))(NN (community))(POS ('s))))(VP (VB (serve)))))) |ET| 
-0.2503686107147857775601096363971  |BT| (ROOT (SBARQ (WHNP (WDT (what))(NN (year)))(SQ (NP (NNP (charles))(NNP (dicken)))(VP (VB (die)))))) |ET| 
1  |BT| (ROOT (SBARQ (WHNP (WP (what)))(SQ (NP (NP (DT (the))(NN (name)))(PP (NP (NP (DT (the))(NN (dog)))(PP (NP (DT (the))(NNP (cracker))(NNP (jack))(NN (box)))))))))) |ET| 
1  |BT| (ROOT (SBARQ (WHNP (WP (what)))(SQ (NP (NP (DT (the))(NN (name)))(PP (NP (NP (DT (the))(NN (computer)))(PP (NP (NP (`` (`))(CD (2001)))(NP (DT (a))(NN (space))(NN (odyssey))))))))))) |ET| 
1  |BT| (ROOT (SBARQ (WHNP (WP (what)))(SQ (NP (NP (DT (the))(NN (mission)))(PP (NP (NNP (nike)))))))) |ET| 
0.44194771951418032607250552246114  |BT| (ROOT (SBARQ (WHNP (WDT (what))(NN (cocktail)))(SQ (NP (NP (NNP (john))(NNP (doxat)))(S (VP (VP (NP (DT (the))(NN (book))(NN (stirred-not)))))))(VP (VBN (shake)))))) |ET| 
0.61977308542599152119123573356774  |BT| (ROOT (SBARQ (WHNP (WDT (what))(NNS (material)))(SQ (NP (DT (the))(CD (three))(JJ (little))(NNS (pig)))(VP (S (VP (VP (NP (PRP$ (they))(NNS (house)))))))))) |ET| 
-0.32287371696988637070901972947468  |BT| (ROOT (SBARQ (WHNP (WP (what)))(SQ (VP (NP (NNP (al))(NNP (capone)))(VP (ADVP (RB (finally)))(PP (IN (for)))(PP (NP (CD (1931))))))))) |ET| 
1  |BT| (ROOT (SBARQ (WHNP (WDT (what))(NN (instrument)))(SQ (NP (NNP (benny))(NNP (carter)))(VP (VB (play)))))) |ET| 
-0.0082397629134479608015162455103564  |BT| (ROOT (SBARQ (WHNP (WDT (what))(NNP (georgia))(NN (town)))(SQ (NP (NP (NNP (scarlett))(NNP (o))(POS ('))))(VP (PP (S (VP (NP (NP (JJ (full)))(PP (NP (JJ (pushy))(NNS (people)))))))))))) |ET| 
1  |BT| (ROOT (SBARQ (WHNP (WDT (what))(NN (war)))(SQ (NP (NP (NNP (johnny))(NNP (reb)))(NP (NNP (billy))(NNP (yank))))(VP (VB (fight)))))) |ET| 
-1  |BT| (ROOT (SBARQ (WHNP (WDT (what))(NN (planet)))(SQ (NP (NNP (percival))(NNP (lovell)))(VP (VB (discover)))))) |ET| 
-0.34520011391725258231844009060296  |BT| (ROOT (SBARQ (WHNP (WDT (what))(NN (store)))(SQ (NP (NNP (martha))(NNP (stewart)))(VP (PP (IN (for))))))) |ET| 
-1  |BT| (ROOT (SBARQ (WHNP (WDT (what))(NN (tv))(NN (detective)))(SQ (NP (NNP (craig))(NNP (stevens)))(VP (VB (play)))))) |ET| 
1  |BT| (ROOT (SBARQ (WHNP (WP (what)))(SQ (NP (NP (ADJP (RBS (most))(JJ (advanced))))(PP (NP (DT (the))(NN (world)))))))) |ET| 
1  |BT| (ROOT (SBARQ (WHNP (WP (what)))(SQ (NP (NP (ADJP (RBS (most))(JJ (common))))(PP (NP (DT (the))(NN (world)))))))) |ET| 
1  |BT| (ROOT (SBARQ (WHNP (WP (what)))(SQ (NP (NP (ADJP (RBS (most))(JJ (expensive))))(PP (NP (DT (the))(NN (world)))))))) |ET| 
-1  |BT| (ROOT (SBARQ (WHNP (WP (what)))(SQ (NP (NP (ADJP (RBS (most))(JJ (expensive))))(PP (NP (DT (the))(NN (world)))))))) |ET| 
-1  |BT| (ROOT (SBARQ (WHNP (WP (what)))(SQ (NP (NP (ADJP (RBS (most))(JJ (populated))))(PP (NP (DT (the))(NN (world)))))))) |ET| 
1  |BT| (ROOT (SBARQ (WHNP (WDT (what))(NN (tv))(NN (station)))(SQ (NP (NNP (mary))(NNP (richards)))(VP (PP (IN (for))))))) |ET| 
1  |BT| (ROOT (SBARQ (WHNP (WDT (which))(JJ (soft))(NN (drink)))(SQ (NP (NNP (madonna)))(VP (PP (IN (for))))))) |ET| 
1  |BT| (ROOT (SBARQ (WHADVP (WRB (how)))(SQ (NP (PRP (you)))(VP (NP (`` (``))(NNP (grandma))('' ('')))(PP (NP (NNP (irish)))))))) |ET| 
-0.98949151507170207686669982649619  |BT| (ROOT (SBARQ (WHNP (WDT (what))(NN (radio))(NN (station)))(SQ (NP (NNP (paul))(NNP (harvey)))(VP (PP (IN (for))))))) |ET| 
-0.15550353363925775718179522755236  |BT| (ROOT (SBARQ (WHADVP (WRB (how)))(SINV (NP (VBG (vend))(NNS (machine)))(VP (SBAR (S (NP (PRP$ (you))(NN (dollar)))(VP (NP (NP (QP (DT (a))(CD (1))))(NP (QP (DT (a))(CD (5)))))))))))) |ET| 
-0.36705400833274809402340110864316  |BT| (ROOT (SBARQ (WHNP (WDT (what))(NN (corporation)))(SQ (NP (NNP (madonna)))(VP (PP (IN (for))))))) |ET| 
1  |BT| (ROOT (SBARQ (WHNP (WP (what)))(SQ (NP (NP (DT (the))(JJS (largest))(NN (snake)))(PP (NP (DT (the))(NN (world)))))))) |ET| 
1  |BT| (ROOT (SBARQ (WHNP (WP (what)))(SQ (NP (NP (DT (the))(JJS (largest))(NN (sculpture)))(PP (NP (DT (the))(NN (world)))))))) |ET| 
1  |BT| (ROOT (SBARQ (WHNP (WP (what)))(SQ (NP (NP (DT (the))(CD (seven))(NNS (wonder)))(PP (NP (DT (the))(NN (world)))))))) |ET| 
-1  |BT| (ROOT (SBARQ (WHNP (WP (what)))(SQ (NP (NP (ADJP (RBS (most))(JJ (populated))))(PP (NP (DT (the))(NN (world)))))))) |ET| 
-1  |BT| (ROOT (SBARQ (WHNP (WP (what)))(SQ (NP (NP (DT (the))(JJS (largest))(NN (museum)))(PP (NP (DT (the))(NN (world)))))))) |ET| 
-0.58006626882218381702216447592946  |BT| (ROOT (SBARQ (WHNP (WDT (what))(CD (seven))(NNS (digit)))(SQ (NP (NP (DT (the))(NN (area))(NN (code)))(PP (NP (NP (DT (the))(NN (number)))(PP (NP (JJ (long))(NN (distance)))))))(NP (NN (information)))))) |ET| 
-1  |BT| (ROOT (SBARQ (WHNP (WP (what)))(SQ (NP (NP (ADJP (RBS (most))(JJ (common))))(PP (NP (DT (the))(NNP (us)))))))) |ET| 
1  |BT| (ROOT (SBARQ (WHNP (WDT (what))(NN (plant)))(SQ (NP (NN (rum)))(VP (PP (IN (from))))))) |ET| 
1  |BT| (ROOT (SBARQ (WHNP (WDT (what))(NN (basketball))(NN (maneuver)))(SQ (NP (NNP (bert))(NNP (loomis)))(VP (VB (invent)))))) |ET| 
1  |BT| (ROOT (SBARQ (WHNP (WDT (what))(NN (tv))(NN (show)))(SQ (NP (NNP (john))(NNP (sebastian)))(VP (NP (DT (the))(NN (theme)))(PP (IN (for))))))) |ET| 
-1  |BT| (ROOT (SBARQ (WHNP (WP (what)))(SQ (NP (NP (DT (the))(JJS (tallest))(NN (building)))(PP (NP (NNP (japan)))))))) |ET| 
0.88123888026253716088120881977375  |BT| (ROOT (SBARQ (WHNP (WP (what)))(SQ (NP (NP (DT (the))(CD (28))(NNS (tense)))(PP (NP (DT (the))(JJ (english))(NN (language)))))))) |ET| 
-0.2795141723420373480735179327894  |BT| (ROOT (SBARQ (WHADVP (WRB (why)))(SQ (NP (NNS (people)))(VP (NP (NNS (hand)))(S (VP (VP (NP (NN (friendliness)))))))))) |ET| 
1  |BT| (ROOT (SBARQ (WHNP (WP (what)))(SQ (NP (NP (DT (the))(JJS (fastest))(NN (fish)))(PP (NP (DT (the))(NN (world)))))))) |ET| 
1  |BT| (ROOT (SBARQ (WHNP (WP (what)))(SQ (NP (NP (DT (the))(NN (alternate)))(PP (NP (NNP (vhs)))))))) |ET| 
1  |BT| (ROOT (SBARQ (WHNP (NP (PP (NP (NN (puzzle))))))(SQ (ADVP (RB (first)))(VP (PP (NP (DT (the))(NNP (u.s.))))(PP (NP (DT (the))(NNP (new))(NNP (york))(NNP (world))))(PP (NP (NNP (december))(CD (21))(, (,))(CD (1913)))))))) |ET| 
-0.22123705514919536629925289616949  |BT| (ROOT (SBARQ (WHNP (WP (what)))(SQ (NP (DT (a))(NN (multiplexer)))))) |ET| 
-0.77493269510113305109655357227894  |BT| (ROOT (SBARQ (WHNP (WP (what)))(SQ (NP (DT (the))(CD (seven))(NNS (virtue)))))) |ET| 
1  |BT| (ROOT (SBARQ (WHADVP (WRB (where)))(SQ (NP (DT (the))(JJ (human))(NN (skin)))(ADJP (RBS (least))(JJ (sensitive)))))) |ET| 
1  |BT| (ROOT (SBARQ (WHNP (WP (what)))(SQ (NP (NN (glass)))(VP (PP (IN (of))))))) |ET| 
1  |BT| (ROOT (SBARQ (WHNP (WP (what)))(SQ (NP (NN (money)))(VP (PP (IN (of))))))) |ET| 
-0.50280978588560965025777704795473  |BT| (ROOT (SBARQ (WHNP (WP (what)))(SQ (NP (NN (laser)))(VP (PP (IN (for))))))) |ET| 
-0.77013796908884868397393574923626  |BT| (ROOT (SBARQ (WHNP (WP (what)))(SQ (NP (NN (snafu)))(VP (PP (IN (for))))))) |ET| 
-0.77013796908885145953149731212761  |BT| (ROOT (SBARQ (WHNP (WP (what)))(SQ (NP (NN (ph)))(VP (PP (IN (for))))))) |ET| 
1  |BT| (ROOT (SBARQ (WHNP (WP (what)))(SQ (NP (NP (DT (the))(NN (name)))(PP (NP (NP (DT (the))(NNP (u.s.))(POS ('s))))))))) |ET| 
1  |BT| (ROOT (SBARQ (WHNP (WP (what)))(SQ (NP (NP (DT (the))(NN (sequel)))(PP (NP (NP (DT (the))(NNP (moon))(POS ('s))))))))) |ET| 
1  |BT| (ROOT (SBARQ (WHNP (WP (what)))(SQ (NP (NP (DT (the))(NN (name)))(PP (NP (NP (DT (the))(NNP (family))(NNP (circus))(POS ('s))))))))) |ET| 
-1  |BT| (ROOT (SBARQ (WHNP (WP (what)))(SQ (NP (NP (DT (the))(NN (name)))(PP (NP (NP (DT (the))(NNP (titanic))(POS ('s))))))))) |ET| 
-0.67045247877424118954081677657086  |BT| (ROOT (SBARQ (WHNP (WDT (what))(NN (island)))(SQ (NP (NP (DT (the))(NN (target)))(PP (NP (NP (DT (the))(NNP (u.s.))(POS ('s))))))))) |ET| 
-1  |BT| (ROOT (SBARQ (WHNP (WP (what)))(SQ (NP (NP (DT (the))(NN (name)))(PP (NP (NP (NNP (popeye))(POS ('s))))))))) |ET| 
1  |BT| (ROOT (SBARQ (WHNP (WP (what)))(SQ (NP (NNP (jell-o)))(VP (PP (IN (from))))))) |ET| 
1  |BT| (ROOT (SBARQ (WHNP (NP (PP (NP (NN (hunting))))))(SQ (NP (NNS (retriever)))(VP (PP (IN (for))))))) |ET| 
1  |BT| (ROOT (SBARQ (WHNP (WP (what)))(SQ (NP (NN (saliva)))(VP (PP (IN (of))))))) |ET| 
-1  |BT| (ROOT (SBARQ (WHNP (NP (PP (NP (NN (water))))))(SQ (NP (DT (the))(NNP (danube))(NN (river)))(VP (PP (IN (into))))))) |ET| 
-1  |BT| (ROOT (SBARQ (WHNP (NP (PP (NP (NN (childhood))))))(SQ (NP (NNP (jules))(NNP (verne)))(VP (VB (have)))))) |ET| 
-1  |BT| (ROOT (SBARQ (WHNP (NP (PP (NP (NN (water))))))(SQ (NP (DT (the))(NNP (yukon))(NNP (river)))(VP (PP (IN (into))))))) |ET| 
1  |BT| (ROOT (SBARQ (WHNP (WP (what)))(SQ (NP (NP (DT (the))(NN (name)))(PP (NP (NP (NNP (baretta))(POS ('s))))))))) |ET| 
1  |BT| (ROOT (SBARQ (WHNP (WP (what)))(SQ (NP (NP (DT (the))(NN (name)))(PP (NP (NP (NNP (betty))(NNP (boop))(POS ('s))))))))) |ET| 
1  |BT| (ROOT (SBARQ (WHNP (WP (what)))(SQ (NP (NP (DT (the))(NN (name)))(PP (NP (NP (NNP (jacques))(NNP (cousteau))(POS ('s))))))))) |ET| 
-1  |BT| (ROOT (SBARQ (WHNP (WP (what)))(SQ (NP (NP (DT (the))(NN (name)))(PP (NP (NP (NNP (darth))(NNP (vader))(POS ('s))))))))) |ET| 
-1  |BT| (ROOT (SBARQ (WHNP (WP (what)))(SQ (NP (NP (DT (the))(NN (name)))(PP (NP (NP (NNP (joan))(NNP (jett))(POS ('s))))))))) |ET| 
-1  |BT| (ROOT (SBARQ (WHNP (WP (what)))(SQ (NP (NP (DT (the))(NN (name)))(PP (NP (NP (NNP (randy))(NNP (craft))(POS ('s))))))))) |ET| 
1  |BT| (ROOT (SBARQ (WHNP (NP (PP (NP (NN (science))))))(SQ (NP (NN (cosmology)))))) |ET| 
1  |BT| (ROOT (SBARQ (WHNP (NP (PP (NP (NN (poisoning))))))(SQ (VP (PP (NP (NN (plumbism)))))))) |ET| 
0.46947764659082391602851203060709  |BT| (ROOT (SBARQ (WHNP (NP (PP (NP (NN (hat))))))(SQ (NP (NNP (bat))(NNP (masterson)))(VP (VB (wear)))))) |ET| 
-1  |BT| (ROOT (SBARQ (WHNP (NP (PP (NP (NN (organization))))))(SQ (VP (NP (PP (NP (NNS (animal))))))))) |ET| 
-1  |BT| (ROOT (SBARQ (WHNP (NP (PP (NP (NN (year))))))(SQ (NP (JJS (most))(NNS (people)))(VP (VB (fly)))))) |ET| 
-1  |BT| (ROOT (SBARQ (WHNP (WHNP (WDT (what))(NNS (appointment)))(NP (PP (NP (NNP (richard))(NNP (nixon))))))(SQ (VP (PP (NP (NN (jail)))))))) |ET| 
1  |BT| (ROOT (SBARQ (WHNP (WP (what)))(SQ (NP (NP (DT (the))(NN (name)))(PP (NP (NP (NNP (roy))(NNP (rogers))(POS ('s))))))))) |ET| 
1  |BT| (ROOT (SBARQ (WHNP (WP (what)))(SQ (NP (NP (DT (the))(NN (name)))(PP (NP (NP (NNP (aristotle))(NNP (onassis))(POS ('s))))))))) |ET| 
1  |BT| (ROOT (SBARQ (WHNP (WP (what)))(SQ (NP (NP (DT (the))(NN (name)))(PP (NP (NP (NNP (captain))(NNP (bligh))(POS ('s))))))))) |ET| 
-1  |BT| (ROOT (SBARQ (WHNP (WP (what)))(SQ (NP (NP (DT (the))(NN (name)))(PP (NP (NP (NNP (pittsburgh))(POS ('s))))))))) |ET| 
-0.077871775155070044327487721602665  |BT| (ROOT (SBARQ (WHNP (WP (what)))(SQ (NP (NP (DT (the))(NN (origin)))(PP (NP (DT (the))(NN (word))(NN (trigonometry)))))))) |ET| 
1  |BT| (ROOT (SBARQ (WHNP (NP (PP (NP (NNS (creature))))))(SQ (NP (DT (the))(NNP (canary))(NNPS (islands)))(VP (PP (IN (for))))))) |ET| 
0.70321284084732404995321530805086  |BT| (ROOT (SBARQ (WHNP (NP (PP (NP (NNS (animal))))))(SQ (NP (NNS (dorset))(, (,))(NNS (lincoln))(, (,))(NNS (oxford))(CC (and))(NNS (southdown)))))) |ET| 
1  |BT| (ROOT (SBARQ (WHNP (WDT (which))(NN (magazine)))(SQ (VP (NP (PP (NP (NNS (man))))))))) |ET| 
-1  |BT| (ROOT (SBARQ (WHNP (WP (what)))(SQ (NP (NNS (insect)))(VP (PP (NP (PRP$ (they))(NNS (spiracle)))))))) |ET| 
-1  |BT| (ROOT (SBARQ (WHNP (NP (NP (NNS (business)))(NP (NNS (agency)))))(SQ (VP (VP (NP (DT (a))(NN (employment))(NN (verification)))))))) |ET| 
-1  |BT| (ROOT (SBARQ (WHNP (WDT (which))(NN (college)))(SQ (NP (NNP (dikembe))(NNP (mutombo)))(VP (NP (NN (basketball)))(PP (IN (at))))))) |ET| 
1  |BT| (ROOT (SBARQ (WHNP (WDT (what))(NN (color)))(SQ (NP (NP (DT (the))(NN (cross)))(PP (NP (NP (NNP (switzerland))(POS ('s))))))))) |ET| 
1  |BT| (ROOT (SBARQ (WHNP (WP (what)))(SQ (NP (NP (DT (the))(NN (monster)))(PP (NP (NP (NNP (spielberg))(POS ('s))))))))) |ET| 
1  |BT| (ROOT (SBARQ (WHNP (WP (what)))(SQ (NP (NP (DT (the))(NNS (achievement)))(PP (NP (NNP (richard))(NNP (nixon)))))))) |ET| 
-1  |BT| (ROOT (SBARQ (WHNP (WP (what)))(SQ (NP (NP (DT (the))(NNS (name)))(PP (NP (NP (NNP (jacques))(NNP (cousteau))(POS ('s))))))))) |ET| 
-0.20165171581633239972219939772913  |BT| (ROOT (SBARQ (WHNP (WP (what)))(SQ (NP (NP (DT (the))(NN (price)))(PP (NP (NP (NNP (aaa))(POS ('s))))))))) |ET| 
-0.53518835558467847679509077352122  |BT| (ROOT (SBARQ (WHNP (WP (what)))(SQ (NP (NP (DT (the))(NNS (name)))(PP (NP (NP (NNP (richard))(NNP (nixon))(POS ('s))))))))) |ET| 
1  |BT| (ROOT (SBARQ (WHNP (WDT (what))(CD (four))(NNS (form)))(SQ (NP (NN (gold)))(VP (PP (IN (in))))))) |ET| 
1  |BT| (ROOT (S (SBAR (WHNP (WP (what)))(S (NP (NN (tale)))(VP (NP (DT (the))(JJ (moral))))))(NP (NP (PRP (he)))(SBAR (WHNP (WP (who)))(S (VP (NP (NN (everything)))))))(VP (NP (NN (nothing)))))) |ET| 
1  |BT| (ROOT (SBARQ (WHNP (WDT (what))(NN (program)))(SQ (NP (PRP (i)))(VP (S (VP (VP (NP (DT (a)))))))))(S (NP (NNS (tbk)))(VP (VBP (file))))) |ET| 
-1  |BT| (ROOT (S (VP (NP (NN (cosmology)))))) |ET| 
-1  |BT| (ROOT (SBARQ (WHNP (WDT (what))(NN (month)))(SQ (NP (PRP (you)))(VP (PP (SBAR (S (NP (PRP$ (you))(NN (birthstone)))(VP (NP (NN (sardonyx))))))))))) |ET| 
-1  |BT| (ROOT (SBARQ (WHNP (WDT (what))(JJ (famed))(NN (library)))(SQ (NP (PRP (you)))(VP (PP (S (VP (NP (CD (22-287-5)))))))))) |ET| 
1  |BT| (ROOT (SBARQ (WHNP (WP (what)))(SQ (NP (NP (DT (the))(NNS (name)))(PP (NP (DT (the))(JJ (different))(NNS (toe)))))))) |ET| 
1  |BT| (ROOT (SBARQ (WHNP (WP (what)))(SQ (NP (NP (NP (NP (NNP (paul))(NNP (bunyan))(POS ('s))))))))) |ET| 
1  |BT| (ROOT (SBARQ (WHNP (WP (what)))(SQ (NP (NP (DT (the))(NNS (name)))(PP (NP (PDT (all))(DT (the))(NNP (u.s.))(NNP (navy))(NN (aircraft))(NNS (carrier)))))))) |ET| 
-0.37601629458478158518630607431987  |BT| (ROOT (SBARQ (WHNP (WP (what)))(SQ (NP (NP (DT (the))(NN (abbreviation)))(PP (NP (JJ (limited))(NN (partnership)))))))) |ET| 
-0.48239697985184276651793311430083  |BT| (ROOT (SBARQ (WHNP (WDT (what))(NN (lake)))(SQ (NP (NP (DT (the))(NN (source)))(PP (NP (DT (the))(NNP (white))(NNP (nile)))))))) |ET| 
-0.62584470309524020681379852248938  |BT| (ROOT (SBARQ (WHNP (WP (what)))(SQ (NP (NP (DT (the))(JJS (highest))(NN (peak)))(PP (NP (NNP (africa)))))))) |ET| 
1  |BT| (ROOT (SBARQ (WHNP (WDT (what))(NN (explosive)))(SQ (NP (PRP (you)))(VP (PP (S (VP (NP (NN (charcoal))(, (,))(NN (sulfur))(CC (and))(NN (saltpeter)))))))))) |ET| 
0.82967157765831756055519008441479  |BT| (ROOT (S (VP (NP (DT (a))(NNP (sioux))(NN (language)))))) |ET| 
1  |BT| (ROOT (S (VP (NP (DT (a))(VBG (fly))(NN (mammal)))))) |ET| 
-1  |BT| (ROOT (S (VP (NP (NP (DT (a))(NN (country)))(SBAR (WHNP (WDT (that)))(S (VP (VP (NP (DT (a))(JJ (magnetic))(NN (levitation))(NN (railway))(NN (system))))))))))) |ET| 
-1  |BT| (ROOT (S (VP (NP (DT (a))(JJ (civil))(NN (war))(NN (battlefield)))))) |ET| 
-0.27853443142429157308725962138851  |BT| (ROOT (S (VP (NP (NP (NNP (dick))(NNP (tracy))(POS ('s))))))) |ET| 
1  |BT| (ROOT (SBARQ (WHNP (WP (what)))(SQ (NP (NP (DT (the))(JJS (highest))(NN (hand)))(PP (NP (JJ (straight))(NN (poker)))))))) |ET| 
1  |BT| (ROOT (SBARQ (WHNP (WP (what)))(SQ (NP (NP (ADJP (RBS (most))(JJ (common))))(PP (NP (DT (the))(NNP (u.s.)))))))) |ET| 
1  |BT| (ROOT (SBARQ (WHNP (WP (what)))(SQ (NP (NP (ADJP (RBS (most))(JJ (popular))))(PP (NP (NN (bridge)))))))) |ET| 
-1  |BT| (ROOT (SBARQ (WHNP (WP (what)))(SQ (NP (NP (ADJP (RBS (most))(JJ (common))))(PP (NP (NNP (america)))))))) |ET| 
-1  |BT| (ROOT (SBARQ (WHNP (WP (what)))(SQ (NP (NP (ADJP (RBS (most))(JJ (common))))(PP (NP (NP (NN (death)))(PP (NP (DT (the))(NNP (u.s.)))))))))) |ET| 
1  |BT| (ROOT (S (VP (NP (NP (DT (a))(NN (tiger)))(SBAR (WHNP (WDT (that)))(S (VP (ADJP (JJ (extinct)))))))))) |ET| 
1  |BT| (ROOT (S (VP (NP (NP (DT (a))(NN (medicine)))(VP (ADVP (RB (commonly)))(S (VP (VP (NP (NNP (aids))))))))))) |ET| 
-0.42428588252414567438819403832895  |BT| (ROOT (SBARQ (WHNP (WDT (what))(NN (astronomer-architect)))(SQ (NP (NP (NP (NP (NNP (st.))(NNP (paul))(POS ('s))))(PP (NP (NNP (london))))))))) |ET| 
-1  |BT| (ROOT (SBARQ (WHNP (WDT (what))(NN (fool)))(SQ (ADVP (RB (not)))(ADJP (S (VP (VP (NP (S (VP (VP (NP (DT (a))(NN (paradise)))))))))))))) |ET| 
-1  |BT| (ROOT (S (VP (NP (NP (DT (a))(NN (band)))(SBAR (WHNP (WDT (which)))(S (VP (PP (NP (NP (IN (in)))(NP (DT (the))(CD (1960))(POS ('s)))))))))))) |ET| 
-1  |BT| (ROOT (SBARQ (WHNP (WDT (what))(NN (phone))(NN (number)))(SQ (NP (PRP (i)))(VP (S (VP (VP (NP (DT (a))(NN (tree)))(S (VP (VBN (plant))))))))))) |ET| 
1  |BT| (ROOT (SBARQ (WHNP (WP (what)))(SQ (NP (NP (ADJP (RBS (most))(JJ (common))))(PP (NP (NN (seawater)))))))) |ET| 
1  |BT| (ROOT (SBARQ (WHNP (WP (what)))(SQ (NP (NP (ADJP (RBS (most))(JJ (common))))(PP (NP (NP (NN (skin))(NN (cancer)))(PP (NP (DT (the))(NNP (u.s.)))))))))) |ET| 
1  |BT| (ROOT (SBARQ (WHNP (WP (what)))(SQ (NP (NP (ADJP (RBS (most))(JJ (popular))))(PP (NP (NP (NN (gambling)))(PP (NP (NP (NNS (woman)))(PP (NP (NNP (las))(NNP (vegas)))))))))))) |ET| 
-1  |BT| (ROOT (SBARQ (WHNP (WP (what)))(SQ (NP (NP (ADJP (RBS (most))(JJ (common))))(PP (NP (NNP (america)))))))) |ET| 
-1  |BT| (ROOT (SBARQ (WHNP (WP (what)))(SQ (NP (NP (ADJP (RBS (most))(JJ (common))))(PP (NP (NN (nursery))(NNS (rhyme)))))))) |ET| 
-0.85274000790879611599848431069404  |BT| (ROOT (SBARQ (WHNP (WP (what)))(SQ (NP (NP (ADJP (RBS (most))(JJ (common))))(PP (NP (NNP (u.s.))(NN (college))(NN (football))(NNS (team)))))))) |ET| 
-1  |BT| (ROOT (SBARQ (WHNP (WP (what)))(SQ (NP (ADJP (RBS (most))(JJ (popular))))))) |ET| 
1  |BT| (ROOT (SBARQ (WHNP (WDT (what))(NN (meter)))(SQ (NP (NNP (shakespeare)))(VP (PP (S (VP (S (VP (VP (VP (VB (be))))(VP (VP (SBAR (S (VP (NP (DT (the))(NN (question))))))))))))))))(INTJ (UH (.)))(S (VP (VB (.))('' (''))))(INTJ (UH (?)))) |ET| 
1  |BT| (ROOT (SBARQ (S (VP (VP (NP (DT (the))(JJS (most))(NN (caffeine))))))(WHNP (WDT (what))(NN (soda)))(SQ (NP (PRP (i)))(VP (VB (drink)))))) |ET| 
0.81333329267394616213238123236806  |BT| (ROOT (SBARQ (WHPP (WHNP (WDT (what))(NN (medium))))(SQ (NP (NNP (stuart))(NNP (hamblen)))(VP (S (VP (VP (NP (DT (the))(JJ (first))(NN (singing))(NN (cowboy)))))))))) |ET| 
-0.93553805493746156063394892044016  |BT| (ROOT (SBARQ (WHPP (WHNP (WDT (what))(NN (age))))(SQ (NP (NNP (rossini)))(VP (S (VP (NP (NN (opera))))))))) |ET| 
-1  |BT| (ROOT (SBARQ (WHPP (WHNP (WDT (what))(NN (reason))))(SQ (NP (DT (some))(NNP (san))(NNP (diego))(NNS (school)))(VP (S (VP (NP (NNS (apple))))))))) |ET| 
-1  |BT| (ROOT (S (VP (NP (NP (DT (the))(NN (food))(NN (company)))(SBAR (WHNP (WDT (that)))(S (VP (PP (NP (NNP (soviet))(NNP (georgia))))(S (VP (VP (NP (NP (DT (a))(NN (series)))(PP (NP (NNS (ad))))))))))))))) |ET| 
1  |BT| (ROOT (SBARQ (WHNP (WP (what)))(SQ (NP (ADJP (RBS (most))(JJ (common))))))) |ET| 
1  |BT| (ROOT (SBARQ (WHNP (WP (what)))(SQ (NP (ADJP (RBS (most))(JJ (popular))))))) |ET| 
1  |BT| (ROOT (SBARQ (WHNP (WP (what)))(SQ (NP (ADJP (RBS (most))(JJ (radioactive))))))) |ET| 
-1  |BT| (ROOT (SBARQ (WHNP (WP (what)))(SQ (NP (ADJP (RBS (most))(JJ (common))))))) |ET| 
-0.99982071074796297072140305317589  |BT| (ROOT (SBARQ (WHNP (WP (what)))(SQ (NP (NN (lung))(NN (cancer)))))) |ET| 
-1  |BT| (ROOT (SBARQ (WHNP (WP (what)))(SQ (NP (NN (color)))))) |ET| 
1  |BT| (ROOT (S (VP (NP (NP (DT (a))(NN (product)))(SBAR (WHNP (WDT (that)))(S (VP (NP (NP (DT (the))(NN (ripening)))(PP (NP (NNS (apple)))))))))))) |ET| 
0.67792404047661669608260126551613  |BT| (ROOT (S (VP (NP (NP (DT (the))(NN (product)))(SBAR (WHNP (WDT (that)))(S (VP (PP (NP (NX (NNP (grocer))(POS ('s)))))(PP (NP (PRP$ (you))(NNS (fingertip))))))))))) |ET| 
1  |BT| (ROOT (S (VP (PP (NP (NP (NNP (king))(NNP (arthur))(POS ('s)))))))) |ET| 
-1  |BT| (ROOT (S (VP (NP (NP (DT (the))(NN (designer)))(PP (NP (NP (DT (the))(NN (shoe)))(SBAR (WHNP (WDT (that)))(S (VP (NP (NP (NNS (million)))(PP (NP (NP (JJ (plastic))(NNS (imitation)))(VP (PP (NP (`` (`))(NNS (jelly))('' ('))))))))))))))))) |ET| 
-0.068927771343252910996035609514365  |BT| (ROOT (S (VP (NP (NP (DT (the))(NN (person)))(SBAR (WHNP (WP (who)))(S (VP (PP (NP (NP (DT (the))(NN (screen)))(PP (NP (DT (the))(NNP (lite))(NN (beer))(NNS (commercial))))))))))))) |ET| 
-1  |BT| (ROOT (S (VP (NP (NP (DT (the))(NN (child)))(VP (PP (NP (DT (a))(NN (doorstep))))(PP (NP (NP (DT (the))(NN (beginning)))(PP (NP (NN (gasoline))(NNP (alley))))))))))) |ET| 
1  |BT| (ROOT (SBARQ (WHNP (WP (what)))(SQ (NP (NNP (bob))(NNP (marley)))))) |ET| 
1  |BT| (ROOT (SBARQ (WHNP (WP (what)))(SQ (NP (ADJP (ADVP (RBS (most))(RB (heavily)))))))) |ET| 
1  |BT| (ROOT (SBARQ (WHNP (WP (what)))(SQ (NP (DT (a))(NN (collier))(NN (mine)))))) |ET| 
0.64526118586739478200087205550517  |BT| (ROOT (SBARQ (WHNP (WDT (what))(NN (tv))(NN (show)))(SQ (VP (PP (NP (NNP (january))(CD (15))(, (,))(CD (1981)))))))) |ET| 
-0.58356330095980746275330375283374  |BT| (ROOT (SBARQ (WHNP (WP (what)))(SQ (NP (DT (a))(NN (plant))(NN (supplement)))))) |ET| 
0.134250873017726063407550896045  |BT| (ROOT (SBARQ (WHNP (WP (what)))(SQ (NP (DT (a))(JJ (female))(NN (rabbit)))(VP (VBN (call)))))) |ET| 
1  |BT| (ROOT (SBARQ (WHPP (WHNP (WDT (what))(NN (book))))(SQ (NP (PRP (i)))(VP (NP (NP (DT (the))(NN (story)))(PP (NP (NNP (aladdin))))))))) |ET| 
1  |BT| (ROOT (SBARQ (WHNP (WDT (what))(JJ (literary))(NN (classic)))(SQ (VP (PP (NP (NP (DT (the))(NN (search)))(PP (NP (NP (NP (NP (DT (a))(NN (treasure)))(PP (NP (NN (gold)))))(ADJP (NP (CD (7)))))(NP (CD (0))(NNS (pound))))))))))) |ET| 
1  |BT| (ROOT (SBARQ (WHADVP (WRB (how)))(SQ (NP (PRP (you)))(VP (S (VP (NP (DT (the))(NN (day)))(PP (NP (NNP (latin)))))))))) |ET| 
-1  |BT| (ROOT (S (VP (NP (DT (the))(JJ (blind))(NN (sculptress)))(PP (NP (NP (NN (love)))(PP (NP (NP (DT (the))(NNP (fantastic))(NNP (four))(POS ('s)))))))))) |ET| 
0.80362734433852567317302373339771  |BT| (ROOT (SBARQ (WHNP (WDT (what))(NNP (j.r.r.))(NNP (tolkien))(NN (book)))(SQ (NP (NNP (gimli)))(PP (NP (DT (a))(JJ (central))(NN (character))))))) |ET| 
0.57987251374161752348612708374276  |BT| (ROOT (SBARQ (WHNP (WDT (what))(NN (color)))(SQ (ADJP (`` (``))(JJ (ash))('' ('')))))) |ET| 
1  |BT| (ROOT (SBARQ (WHNP (WP (what)))(SQ (NP (NP (NNP (halloween))(POS ('s))))))) |ET| 
1  |BT| (ROOT (SBARQ (WHNP (WP (what)))(SQ (NP (NP (NNP (grenada))(POS ('s))))))) |ET| 
1  |BT| (ROOT (SBARQ (WHNP (WP (what)))(SQ (NP (NP (NNP (mississippi))(POS ('s))))))) |ET| 
-0.53477907549682446308736416540341  |BT| (ROOT (SBARQ (WHNP (WP (what)))(SQ (NP (NP (NNP (eagle))(POS ('s))))))) |ET| 
-0.64583572306838277210516707782517  |BT| (ROOT (SBARQ (WHNP (WP (what)))(SQ (NP (NP (NNP (california))(POS ('s))))))) |ET| 
-0.5205954509136958563431107904762  |BT| (ROOT (SBARQ (WHNP (WP (what)))(SQ (NP (NP (NNP (einstein))(POS ('s))))))) |ET| 
1  |BT| (ROOT (S (VP (NP (NP (DT (the))(NN (vessel)))(VP (PP (NP (DT (the))(NNP (atari))(NNP (force))))(PP (NP (DT (the))(NNP (dc))(NNS (comic))))))))) |ET| 
1  |BT| (ROOT (S (VP (NP (NP (DT (the))(CD (two))(JJ (mystical))(NNS (raven)))(SBAR (S (NP (NNP (odin)))(VP (PP (NP (PRP$ (he))(NN (command))))))))))) |ET| 
1  |BT| (ROOT (S (PP (NP (NP (NN (order)))(PP (NP (DT (the))(NN (top))))))(NP (NP (DT (the))(CD (four))(NNS (stripe)))(PP (NP (NP (DT (a))(NN (can)))(PP (NP (NNP (pepsi)))))))(VP (SBAR (WHNP (WP (what)))(S (VP (NNS (color)))))))) |ET| 
-0.47419034918602070982629470563552  |BT| (ROOT (S (VP (NP (NP (CD (one)))(PP (NP (NP (DT (the))(JJ (major))(NNS (god)))(PP (NP (NNP (hinduism)))))))))) |ET| 
-1  |BT| (ROOT (S (PP (NP (CD (139))))(NP (DT (the))(JJ (papal))(NN (court)))(VP (VP (S (VP (VP (PP (NP (NNP (rome))))(PP (NP (INTJ (WRB (where)))))))))))) |ET| 
-1  |BT| (ROOT (S (PP (NP (DT (the))(NN (movie))))(NP (NP (NNP (groundshog))(NNP (day)))(SBAR (WHNP (WP (what)))(S (VP (NP (NP (DT (the))(NN (name)))(PP (NP (DT (the))(NN (character)))))))))(VP (PP (NP (NNP (andie))(NNP (macdowell))))))) |ET| 
1  |BT| (ROOT (SBARQ (WHNP (WP (what)))(SQ (NP (NP (NNP (california))(POS ('s))))))) |ET| 
1  |BT| (ROOT (SBARQ (WHNP (WP (what)))(SQ (NP (NP (NNP (november))(POS ('s))))))) |ET| 
1  |BT| (ROOT (SBARQ (WHNP (WP (what)))(SQ (NP (NP (NNP (april))(POS ('s))))))) |ET| 
-0.017446820707633370339806333504384  |BT| (ROOT (SBARQ (WHNP (WP (what)))(SQ (NP (NP (NNP (answers.com))(POS ('s))))))) |ET| 
-0.52134060338829035785579435469117  |BT| (ROOT (SBARQ (WHNP (WP (what)))(SQ (NP (NP (NNP (mao))(POS ('s))))))) |ET| 
-1  |BT| (ROOT (SBARQ (WHNP (WP (what)))(SQ (NP (NP (NNP (michelangelo))(POS ('s))))))) |ET| 
1  |BT| (ROOT (S (VP (NP (NP (CD (one)))(PP (NP (NP (DT (the))(CD (seven))(NNS (wonder)))(PP (NP (DT (the))(JJ (ancient))(NN (world)))))))))) |ET| 
1  |BT| (ROOT (S (VP (NP (DT (the))(JJ (french))(JJ (historical))(NN (period)))(PP (NP (NP (DT (the))(NN (reign)))(PP (NP (NNP (napoleon))(NNP (iii))))))))) |ET| 
1  |BT| (ROOT (S (PP (NP (NNP (christmas))(NN (time))))(NP (WP (what)))(VP (NP (S (VP (VP (PP (NP (DT (the))(NN (mistletoe))))))))))) |ET| 
-1  |BT| (ROOT (S (VP (NP (NP (DT (the))(CD (four))(NN (horseman)))(PP (NP (DT (the))(NNP (apocalypse)))))))) |ET| 
-1  |BT| (ROOT (S (VP (NP (NP (DT (the))(CD (two))(NNS (youngster)))(VP (PP (NP (DT (the))(JJ (animated))(NNP (moby))(NNP (dick))))))))) |ET| 
-1  |BT| (ROOT (S (VP (NP (S (VP (VP (PP (NP (NN (space))))))))))) |ET| 
1  |BT| (ROOT (SBARQ (WHNP (WP (what)))(SQ (NP (NP (NNP (hitler))(POS ('s))))))) |ET| 
1  |BT| (ROOT (SBARQ (WHNP (WP (what)))(SQ (NP (NP (`` (``))(NNP (america))(POS ('s))))))) |ET| 
-0.53477907549681413801323515144759  |BT| (ROOT (SBARQ (WHNP (WP (what)))(SQ (NP (NP (NNP (supergirl))(POS ('s))))))) |ET| 
0.079171174190675000503780722738156  |BT| (ROOT (SBARQ (WHNP (NP (PP (NP (DT (the))(NN (face))))))(SQ (NP (JJS (most))(NNS (artist)))(VP (S (VP (VP (ADVP (RBR (more))(IN (of)))(PP (NP (NNS (self-portrait))))))))))) |ET| 
-0.53510728010786945407772918770206  |BT| (ROOT (SBARQ (WHNP (WP (what)))(SQ (NP (NP (NNP (compaq))(POS ('s))))))) |ET| 
1  |BT| (ROOT (S (VP (NP (NP (CD (four))(JJ (comic))(NNS (strip)))(PP (NP (NNS (pilot)))))))) |ET| 
1  |BT| (ROOT (S (VP (NP (NP (DT (a))(NN (movie)))(PP (NP (DT (the))(NNP (sioux))(NNPS (indians))))(VP (NP (NNP (kevin))(NNP (costner)))))))) |ET| 
1  |BT| (ROOT (S (VP (NP (NP (DT (the))(JJ (only))(JJ (extant))(NN (trilogy)))(PP (NP (JJ (classical))(JJ (greek))(NNS (play)))))))) |ET| 
0.54742767163431360621927979082102  |BT| (ROOT (SBARQ (WHNP (WDT (what))(NNP (frederick))(NNP (forsyth))(NN (novel)))(SQ (NP (NP (DT (the))(NN (toppling)))(PP (NP (DT (a))(JJ (african))(NN (government)))))(PP (NP (NNS (mercenary))))))) |ET| 
-0.048177384455792039708033058786896  |BT| (ROOT (SBARQ (WHNP (PP (NP (NP (NNS (child)))(PP (NP (NP (DT (the))(NNS (age)))(PP (NP (NP (CD (two)))(NP (NNS (eleven)))))))))(WHNP (WDT (what))(NN (percentage))))(SQ (VP (NP (`` (``))(DT (the))(NNPS (simpsons))('' (''))))))) |ET| 
-1  |BT| (ROOT (S (PP (NP (NP (NNP (sinclair))(NNP (lewis))(POS (')))))(NP (WP (what)))(VP (NP (NP (DT (the))(NN (name)))(PP (NP (DT (the))(JJ (typical))(JJ (american))(NN (town)))))))) |ET| 
1  |BT| (ROOT (SBARQ (WHNP (WP (what)))(SQ (NP (NP (DT (the))(NN (world))(POS ('s))))))) |ET| 
1  |BT| (ROOT (SBARQ (WHNP (WP (what)))(SQ (NP (NP (NNP (mel))(NNP (gibson))(POS ('s))))))) |ET| 
1  |BT| (ROOT (SBARQ (WHNP (WP (what)))(SQ (NP (NP (NNP (bella))(NNP (abzug))(POS ('s))))))) |ET| 
-0.35531506738733104056038314411126  |BT| (ROOT (SBARQ (WHNP (WDT (what))(NN (time)))(SQ (NP (NNP (wee))(NNP (willie))(NNP (winkie)))(VP (PP (NP (DT (the))(NN (town)))))))) |ET| 
-0.58406516671738595292140416859183  |BT| (ROOT (SBARQ (WHNP (WP (what)))(SQ (NP (NP (NNP (mikhail))(NNP (gorbachev))(POS ('s))))))) |ET| 
1  |BT| (ROOT (S (NP (NP (NNS (name)))(PP (NP (NP (NNS (book)))(PP (NP (NNP (james))(NNP (a.))(NNP (michener)))))))(VP (PP (NP (DT (the))(VBG (follow))(NNS (location))))))) |ET| 
1  |BT| (ROOT (SBARQ (WHNP (WP (what)))(SQ (NP (NP (DT (the))(JJ (forward-thinking))(NNP (simon))(NNPS (brothers))(NNP (bakery)))(PP (NP (NNP (chicago)))))(VP (PP (NP (S (VP (VP (NP (NN (business)))))))))))) |ET| 
1  |BT| (ROOT (S (VP (NP (NP (DT (the))(CD (5))(NNS (word)))(SBAR (WHNP (WDT (that)))(S (VP (NP (NP (DT (all)))(PP (NP (NP (DT (the))(NNS (letter)))(PP (NP (DT (the))(NN (alphabet))))))(PP (NP (NNP (q)))))(PP (NP (DT (no))(NNS (repeat))))))))))) |ET| 
-1  |BT| (ROOT (S (SBAR (WHNP (WDT (what)))(FRAG (NP (NP (CD (two))(JJ (historical))(NNS (figure)))(SBAR (WHNP (WP (who)))(S (VP (NP (DT (each))(JJ (other)))(PP (NP (DT (a))(JJ (famous))(NN (battle))))))))))(NP (DT (each)))(VP (S (NP (DT (a))(NN (food)))(VP (PP (NP (PRP (they))))))))) |ET| 
-1  |BT| (ROOT (S (NP (NNP (mississippi)))(VP (WHNP (WHNP (WDT (what))(NN (name)))(PP (NP (DT (a))(NN (state))(NN (nickname)))))))) |ET| 
-1  |BT| (ROOT (SBARQ (WHNP (WDT (what))(NN (role)))(SQ (NP (NNS (fruit)))(VP (PP (NP (NP (DT (the))(NN (survival)))(PP (NP (NNS (plant)))))))))) |ET| 
1  |BT| (ROOT (SBARQ (WHNP (WP (what)))(SQ (NP (NP (NP (NP (NNP (dudley))(NNP (do-right))(POS ('s))))))))) |ET| 
1  |BT| (ROOT (SBARQ (WHNP (WP (what)))(SQ (NP (NP (NNP (mae))(NNP (west))(POS ('s))))))) |ET| 
1  |BT| (ROOT (SBARQ (WHNP (WP (what)))(SQ (NP (NP (NNP (edward))(NNP (albee))(POS ('s))))))) |ET| 
-0.12433644385288925016119776501  |BT| (ROOT (SBARQ (WHNP (WP (what)))(SQ (NP (NP (NNP (larry))(NNP (king))(POS ('s))))))) |ET| 
-0.57423646106004966327418514993042  |BT| (ROOT (SBARQ (WHADVP (WRB (where)))(SQ (NP (PRP (it)))(VP (S (VP (VP (NP (NP (DT (the))(NN (merchant))(NN (ship)))(NP (NNP (lane))(NNP (victory)))(SBAR (WHNP (WDT (which)))(S (NP (NNP (merchant))(NNP (marine))(NNS (veteran)))(VP (VP (PP (NP (DT (a))(JJ (floating))(NN (museum)))))))))))))))) |ET| 
0.38941515197570159001472234194807  |BT| (ROOT (S (SBAR (WHNP (WDT (what)))(FRAG (NP (NP (NN (color)))(NP (PRP (s))))))(VP (PP (NP (NP (NNS (box)))(PP (NP (NNP (kodak))(NN (film))))))))) |ET| 
1  |BT| (ROOT (SBARQ (WHNP (WDT (what))(NNP (irwin))(NNP (allen))(NN (bomb)))(SQ (VP (S (NP (NNP (richard))(NNP (widmark)))(VP (SBAR (S (NP (PRP (he)))(VP (VP (S (NP (NP (DT (the))(JJ (first))(NN (officer)))(PP (NP (NN (history)))))(VP (VP (S (NP (PRP$ (he))(NN (butt)))(VP (PP (NP (NP (DT (a))(NN (mess)))(PP (NP (NNS (bug))))))))))))))))))))(INTJ (UH (?)))) |ET| 
1  |BT| (ROOT (SBARQ (WHNP (WDT (what))(NN (tragedy)))(SQ (VP (NP (NP (DT (the))(NN (city)))(PP (NP (NNP (dogtown)))))(PP (NP (CD (1899)))))))) |ET| 
-0.90297732986357304163504977623234  |BT| (ROOT (SBARQ (WHNP (WDT (what))(NN (author)))(SQ (VP (NP (NP (NNP (u.s.))(NN (ambassador)))(PP (NP (NNP (spain)))))(PP (NP (CD (1842)))))))) |ET| 
-1  |BT| (ROOT (S (NP (NNP (independent))(NNP (silversmith))(POS ('s)))(VP (PP (NP (NP (WP (what))(NN (percentage)))(PP (NP (NN (silver))(NN (production))))))))) |ET| 
-0.12289145644431399839735519208261  |BT| (ROOT (SBARQ (WHNP (WDT (what))(NN (comedian)))(SQ (VP (NP (NP (DT (the))(NN (tv))(NN (screen)))(PP (NP (CD (1951)))))(PP (NP (NP (NP (DT (the))(NNP (nbc))(NN (afternoon))(NN (show)))(NP (NNP (time))))(PP (NP (NNP (ernie)))))))))) |ET| 
1  |BT| (ROOT (SBARQ (WHNP (WDT (what))(NN (playing))(NN (card)))(SQ (NP (NN (death)))))) |ET| 
1  |BT| (ROOT (SBARQ (WHNP (WP (what)))(SQ (NP (NP (DT (the))(JJ (southern))(NN (dish)))(VP (PP (NP (NP (NNS (pig))(POS (')))))))))) |ET| 
1  |BT| (ROOT (SBARQ (WHNP (WP (what)))(SQ (NP (DT (the))(NN (education))(NN (system)))(NP (NP (IN (in)))(NP (NP (CD (1960))(POS ('s)))))))) |ET| 
-0.18922657002398457493086425529327  |BT| (ROOT (SBARQ (WHNP (WP (what)))(SQ (NP (NP (DT (the))(NN (world))(POS ('s))))))) |ET| 
-0.48460962461290701952520976192318  |BT| (ROOT (SBARQ (WHNP (WP (what)))(SQ (NP (NP (NP (NP (NNP (fred))(NNP (astaire))(POS ('s))))))))) |ET| 
-0.17311151173589880980507871299778  |BT| (ROOT (SBARQ (WHNP (WP (what)))(SQ (NP (NP (DT (the))(JJ (red-and-white))(NNS (stripe)))(PP (NP (DT (a))(NN (barbershop))(NN (pole)))))(VP (PP (IN (for))))))) |ET| 
-0.40474889840495331672087786500924  |BT| (ROOT (SBARQ (WHNP (WP (what)))(SQ (NP (NP (NNP (harry))(NNP (houdini))(POS ('s))))))) |ET| 
1  |BT| (ROOT (SBARQ (WHNP (WDT (what))(NN (album)))(SQ (VP (NP (DT (the))(NNPS (beatles)))(PP (NP (NP (DT (the))(NN (cover)))(PP (NP (NNP (time))))))(PP (NP (CD (1967)))))))) |ET| 
1  |BT| (ROOT (SBARQ (WHNP (WDT (what))(NN (food)))(SQ (NP (NNP (marco))(NNP (polo)))(VP (PP (NP (NNP (italy))))(PP (NP (NP (DT (the))(NN (court)))(PP (NP (NNP (kubla))(NNP (khan)))))))))) |ET| 
1  |BT| (ROOT (SBARQ (WHNP (WDT (what))(NN (letter)))(SQ (VP (PP (NP (NP (DT (the))(NN (cold-water))(NN (tap)))(PP (NP (NNP (spain)))))))))) |ET| 
-1  |BT| (ROOT (SBARQ (WHNP (WDT (what))(NN (baseball))(NN (expression)))(SQ (VP (PP (NP (NP (DT (the))(JJ (nautical))(NN (term)))(PP (NP (NP (NNS (ship)))(VP (PP (NP (DT (the))(NNP (atlantic))(CC (and))(NNP (pacific))))(PP (NP (DT (the))(NNP (panama))(NNP (canal))))))))))))) |ET| 
-1  |BT| (ROOT (SBARQ (WHNP (WDT (what))(NN (group)))(SQ (VP (PP (NP (S (VP (PP (NP (DT (the))(NN (clock)))))))))))) |ET| 
-1  |BT| (ROOT (SBARQ (WHNP (WDT (what))(NNS (attorney)))(SQ (PP (NP (NP (DT (the))(NNP (center)))(PP (NP (NP (DT (the))(NN (defense)))(PP (NP (NNP (free))(NNP (enterprise))))))))))) |ET| 
1  |BT| (ROOT (SBARQ (WHNP (WP (what)))(SQ (NP (NP (NNP (dwight))(NNP (eisenhower))(POS ('s))))))) |ET| 
1  |BT| (ROOT (SBARQ (WHNP (WP (what)))(SQ (NP (NP (NNP (jimmy))(NNP (durante))(POS ('s))))))) |ET| 
1  |BT| (ROOT (SBARQ (WHNP (WP (what)))(SQ (NP (NP (NNP (john))(NNP (steinbeck))(POS ('s))))))) |ET| 
-1  |BT| (ROOT (SBARQ (WHNP (WP (what)))(SQ (NP (NP (NNP (jimmy))(NNP (olsen))(POS ('s))))))) |ET| 
-0.40518400301053381085125693061855  |BT| (ROOT (SBARQ (WHNP (WP (what)))(SQ (NP (NP (NNP (stefan))(NNP (edberg))(POS ('s))))))) |ET| 
-0.0019357396034993504425891774900492  |BT| (ROOT (SBARQ (WHNP (WP (what)))(SQ (NP (NP (NNP (nicholas))(NNP (cage))(POS ('s))))))) |ET| 
1  |BT| (ROOT (S (NP (DT (the))(NN (corpus))(NN (callosum)))(VP (PP (NP (NP (WP (what))(NN (part)))(PP (NP (DT (the))(NN (body))))))))) |ET| 
1  |BT| (ROOT (SBARQ (WHNP (WDT (what))(NN (car)))(SQ (VP (PP (NP (NP (DT (the))(CD (199))(NN (release)))(PP (NP (NP (NNP (smokey)))(NP (DT (the))(NN (bandit))('' (''))))))))))) |ET| 
1  |BT| (ROOT (SBARQ (WHNP (WDT (what))(NN (trophy)))(SQ (VP (PP (NP (NP (DT (the))(NNS (winner)))(PP (NP (DT (the))(NNP (super))(NNP (bowl)))))))))) |ET| 
-0.56348853551962230223892902358784  |BT| (ROOT (SBARQ (WHNP (WDT (what))(NN (part)))(SQ (NP (NNP (john))(NNP (peter))(NNP (zenger)))(VP (PP (NP (NP (DT (the))(NN (deveopment)))(PP (NP (NP (DT (the))(NN (newspaper)))(PP (NP (NNP (america)))))))))))) |ET| 
-0.94857900043742393592083317344077  |BT| (ROOT (SBARQ (WHNP (WDT (what))(NN (actress)))(SQ (VP (PP (NP (NP (`` (``))(DT (the))(NNP (lion)))(PP (NP (NNP (winter))('' ('')))))))))) |ET| 
-0.98717394554319870536573944264092  |BT| (ROOT (SBARQ (WHNP (WDT (what))(NN (actress)))(SQ (NP (NP (DT (the))(NN (record)))(PP (NP (NP (DT (the))(JJS (most))(NNS (appearance)))(PP (NP (NP (DT (the))(NN (cover)))(PP (NP (NNP (life)))))))))))) |ET| 
1  |BT| (ROOT (SBARQ (WHNP (WP (what)))(SQ (NP (NP (NNP (connecticut))(POS ('s))))(VP (VBN (call)))))) |ET| 
-1  |BT| (ROOT (SBARQ (WHNP (WP (what)))(SQ (VP (S (NP (ADJP (RBS (most))(JJ (popular))))))))) |ET| 
-1  |BT| (ROOT (SBARQ (WHNP (WP (what)))(SQ (NP (NNP (john))(NNP (hinckley)))(VP (S (VP (VP (NP (NNP (jodie))(NNP (foster)))))))))) |ET| 
-0.048030180354736211334465423306028  |BT| (ROOT (SBARQ (WHNP (WP (what)))(SQ (NP (NP (DT (the))(NNS (name)))(NP (NP (NNP (neil)))(NP (NNP (mary)))(NP (NNP (anthony)))))(VP (VB (mean)))))) |ET| 
1  |BT| (ROOT (SBARQ (WHNP (WDT (what))(JJ (infectious))(NN (disease)))(SQ (NP (NP (DT (the))(NN (world))(POS ('s))))))) |ET| 
1  |BT| (ROOT (SBARQ (WHNP (NP (PP (NP (NNP (north))(NNP (america))))))(SQ (NP (NP (NP (DT (the))(NN (world))(POS ('s))))(PP (NP (PRP$ (its))(NN (size)))))))) |ET| 
1  |BT| (ROOT (SBARQ (WHNP (WDT (which))(JJ (infectious))(NN (disease)))(SQ (NP (NP (DT (the))(NN (world))(POS ('s))))))) |ET| 
0.016847776720383185466989317546904  |BT| (ROOT (SBARQ (WHNP (WP (what)))(SQ (NP (NP (DT (a))(NN (fear)))(PP (NP (NN (childbirth)))))))) |ET| 
-0.0020664740310839197282022361434883  |BT| (ROOT (SBARQ (WHNP (WP (who)))(SQ (VP (NP (NP (DT (the))(JJ (now-defunct))(JJ (comic))(NN (book))(NN (team)))(VP (PP (NP (DT (the))(NNPS (champions)))))))))) |ET| 
-1  |BT| (ROOT (SBARQ (WHNP (WDT (what))(NN (diamond))(NN (producer)))(SQ (NP (NP (QP (IN (about))(CD (80))))(PP (NP (NP (DT (the))(NN (world))(POS ('s))))))))) |ET| 
1  |BT| (ROOT (SBARQ (WHNP (WP (what)))(SQ (VP (S (VP (VP (NP (NN (coprolite)))))))))) |ET| 
1  |BT| (ROOT (SBARQ (WHNP (WP (what)))(SQ (NP (NNP (abolitionists)))(VP (S (VP (VP (VB (end))))))))) |ET| 
1  |BT| (ROOT (SBARQ (WHNP (WP (what)))(SQ (NP (JJ (common))(NNS (method)))(VP (S (VP (VP (NP (NNS (monopoly)))))))))) |ET| 
-1  |BT| (ROOT (SBARQ (WHNP (WP (what)))(SQ (NP (PRP (i)))(VP (S (VP (VP (S (VP (VP (NP (NN (web))(NNS (page))))))))))))) |ET| 
-1  |BT| (ROOT (SBARQ (WHNP (WP (what)))(SQ (NP (PRP (you)))(VP (S (VP (VP (S (VP (VP (NP (NN (someone)))(PP (NP (NN (jail)))))))))))))) |ET| 
-1  |BT| (ROOT (SBARQ (WHNP (WP (what)))(SQ (NP (PRP (i)))(VP (S (VP (VP (S (VP (VP (NP (JJ (good))(NNS (grade)))(PP (NP (NN (school)))))))))))))) |ET| 
1  |BT| (ROOT (SBARQ (WHNP (WDT (what))(NN (color)))(SQ (NP (NP (DT (the))(NN (lipstick)))(PP (NP (NP (NP (NNP (boy))(NNP (george))(POS ('s))))(PP (NP (NP (NP (NNP (london))(POS ('s))))(NX (NNP (tussaud))(POS ('s))))))))))) |ET| 
1  |BT| (ROOT (SBARQ (WHNP (WDT (what))(NN (video))(NN (format)))(SQ (NP (NP (DT (a))(NN (alternative)))(PP (NP (NNP (vhs)))))))) |ET| 
1  |BT| (ROOT (SBARQ (WHNP (WDT (what))(NN (tv))(NN (series)))(SQ (NP (NP (JJ (many)))(PP (NP (NP (PRP$ (its))(JJ (aquatic))(NNS (scene)))(VP (PP (NP (NP (NNP (silver))(NNP (springs)))(NP (NNP (florida)))))))))))) |ET| 
-1  |BT| (ROOT (SBARQ (WHNP (NP (PP (NP (DT (the))(NN (body))))))(SQ (NP (NN (muscle)))))) |ET| 
-1  |BT| (ROOT (SBARQ (WHNP (NP (PP (NP (NNP (latin))(NNP (america))))))(SQ (NP (DT (the))(JJS (largest))(CD (one)))))) |ET| 
-0.66495097315410534033475187243312  |BT| (ROOT (SBARQ (WHNP (NP (PP (NP (DT (the))(NNP (dutch))(NNP (renaissance))))))(SQ (NP (NNP (aristotle))(NNP (contemplating)))(NP (NP (DT (the))(NN (bust)))(PP (NP (NNP (homer)))))))) |ET| 
1  |BT| (ROOT (SBARQ (WHNP (WP (what)))(SQ (NP (PRP (i)))(VP (S (VP (VP (NP (DT (the))(JJ (stubborn))(JJ (gummed))(NNS (label)))(PP (NP (DT (some))(NNS (diskette))))))))))) |ET| 
1  |BT| (ROOT (SBARQ (WHNP (WP (what)))(SQ (NP (NNS (people)))(VP (S (VP (VP (NP (PRP$ (they))(NN (breath)))(PP (NP (NN (toothpaste))))))))))) |ET| 
1  |BT| (ROOT (SBARQ (WHNP (WP (what)))(SQ (NP (PRP (it)))(VP (S (VP (VP (NP (DT (a))(NN (hero)))))))))) |ET| 
-1  |BT| (ROOT (SBARQ (WHNP (WP (what)))(SQ (NP (PRP (it)))(VP (S (VP (VP (NP (DT (a))(JJ (near))(NN (death))(NN (episode)))))))))) |ET| 
-1  |BT| (ROOT (SBARQ (WHNP (WP (what)))(SQ (NP (NNP (freddy))(NNP (freeman)))(VP (S (VP (VP (NP (NNP (captain))(NNP (marvel))(NNP (jr.)))))))))) |ET| 
-1  |BT| (ROOT (SBARQ (WHNP (WP (what)))(SQ (NP (NNS (economist)))(VP (VB (do)))))) |ET| 
1  |BT| (ROOT (SBARQ (WHNP (NP (PP (NP (DT (the))(NN (atmosphere))))))(SQ (NP (NP (JJS (most)))(PP (NP (DT (the))(NN (ozone))(NN (layer)))))))) |ET| 
0.87225006135174398824716490707942  |BT| (ROOT (SBARQ (WHNP (NP (PP (NP (NN (exercise))))))(SQ (NP (DT (the))(JJS (most))(NNS (calorie)))))) |ET| 
1  |BT| (ROOT (SBARQ (WHNP (NP (PP (NP (NNS (sport))(NN (team))))))(SQ (NP (DT (the))(NNP (buffalo))(NNP (sabres)))))) |ET| 
-1  |BT| (ROOT (SBARQ (WHNP (NP (PP (NP (NN (business))))))(SQ (NP (NNP (7-eleven)))))) |ET| 
-1  |BT| (ROOT (SBARQ (WHNP (NP (PP (NP (DT (the))(NNP (bible))))))(SQ (NP (DT (the))(JJS (most))(NNS (verse)))))) |ET| 
1  |BT| (ROOT (SBARQ (WHNP (WP (what)))(SQ (NP (NNP (jimmy))(NNP (stewart)))(VP (VB (invent)))))) |ET| 
1  |BT| (ROOT (SBARQ (WHNP (WP (what)))(SQ (NP (NNP (aaron))(NNP (hass)))(VP (VB (write)))))) |ET| 
1  |BT| (ROOT (SBARQ (WHNP (WP (what)))(SQ (NP (NNP (thomas))(NNP (paine)))(VP (VB (write)))))) |ET| 
-1  |BT| (ROOT (SBARQ (WHNP (WP (what)))(SQ (NP (NP (NNP (arnold))(NNP (palmer))(POS ('s))))(VP (VBN (call)))))) |ET| 
-1  |BT| (ROOT (SBARQ (WHNP (WP (what)))(SQ (NP (NP (NNP (pittsburgh))(POS ('s))))(VP (VBN (call)))))) |ET| 
-0.55131850084665323663557501276955  |BT| (ROOT (SBARQ (WHNP (WP (what)))(SQ (NP (NNP (las))(NNP (vegas)))(VP (VB (mean)))))) |ET| 
1  |BT| (ROOT (SBARQ (WHNP (NP (PP (NP (NN (education))))))(SQ (NP (PRP (you)))(VP (S (VP (VP (NP (NP (DT (a))(JJ (athletic))(NN (trainer)))(PP (NP (DT (the))(NNP (nfl)))))))))))) |ET| 
0.6813796929587331296929164636822  |BT| (ROOT (SBARQ (WHNP (NP (PP (NP (NN (education))))))(SQ (NP (PRP (i)))(VP (S (VP (VP (NP (DT (a))(NN (flight))(NN (attendant)))))))))) |ET| 
1  |BT| (ROOT (SBARQ (WHNP (NP (PP (NP (NN (car))))))(SQ (NP (NNP (janis))(NNP (joplin)))(VP (NP (DT (the))(NNP (lord)))(S (VP (VP (NP (PRP (she)))))))))) |ET| 
-1  |BT| (ROOT (S (VP (NP (NP (DT (the))(NN (cartoon))(NN (genie)))(VP (PP (NP (NP (DT (the))(JJ (magic))(NN (ring)))(VP (PP (NP (NNP (nancy))(CC (and))(NNP (chuck)))))))))))) |ET| 
-1  |BT| (ROOT (SBARQ (WHNP (NP (PP (NP (DT (the))(NN (silver))(NN (production))))))(SQ (VP (PP (NP (JJ (independent))(NNS (silversmith)))))))) |ET| 
-1  |BT| (ROOT (SBARQ (WHNP (NP (PP (NP (DT (the))(JJ (little))(NNS (rascal))))))(SQ (NP (NP (DT (a))(JJ (on-again))(, (,))(JJ (off-again))(NN (sweetheart)))(PP (NP (NNP (darla))(NNP (hood)))))))) |ET| 
1  |BT| (ROOT (SBARQ (WHNP (WP (what)))(SQ (NP (NP (NNP (beethoven))(POS ('s))))(VP (VBN (call)))))) |ET| 
1  |BT| (ROOT (SBARQ (WHNP (WP (what)))(SQ (VP (NP (NP (DT (the))(NN (world))(POS ('s)))))))) |ET| 
0.25276029705126584756769148043531  |BT| (ROOT (SBARQ (WHNP (WP (what)))(SQ (NP (NN (dinosaur))(NNS (dropping)))(VP (VBN (call)))))) |ET| 
-0.56025817245222397922077561815968  |BT| (ROOT (SBARQ (WHNP (WP (what)))(SQ (VP (NP (PRP$ (she))(NN (profession))))))) |ET| 
-1  |BT| (ROOT (SBARQ (WHNP (WP (what)))(SQ (NP (DT (the)))(VP (NP (NN (colony))))))) |ET| 
-1  |BT| (ROOT (SBARQ (WHNP (WP (what)))(SQ (VP (NP (NN (love))))))) |ET| 
1  |BT| (ROOT (SBARQ (WHPP (WHNP (WDT (what))(NN (movie))))(SQ (NP (NP (DT (the))(NN (number))(CD (nine)))(VP (PP (NP (DT (the))(NN (title))))))))) |ET| 
1  |BT| (ROOT (SBARQ (WHNP (WDT (what))(NNP (cbs))(NN (soap))(NN (opera)))(SQ (VP (PP (NP (NP (DT (the))(NN (bulletin)))(PP (NP (NP (NP (NNP (john))(NNP (f.))(NNP (kennedy)))))))))))) |ET| 
1  |BT| (ROOT (SBARQ (WHNP (WDT (what))(NN (animal)))(SQ (NP (NP (DT (the))(JJ (heat-seeking))(NN (missile)))(VP (S (NP (DT (the))(NNP (sidewinder))))))(VP (PP (IN (for))))))) |ET| 
-1  |BT| (ROOT (SBARQ (WHPP (WHNP (WDT (what))(NN (year))))(SQ (NP (NP (DT (the))(JJ (first))(NN (patent)))(PP (NP (NP (DT (the))(JJ (pull-tab))(NN (opener)))(PP (NP (NNS (can)))))))(VP (VBN (obtain)))))) |ET| 
-1  |BT| (ROOT (SBARQ (WHNP (WDT (what))(NN (task)))(SQ (NP (NP (DT (the))(JJ (bouvier))(NN (breed)))(PP (NP (NN (dog)))))(VP (VB (perform)))))) |ET| 
-0.57915323518592365381607578456169  |BT| (ROOT (SBARQ (WHPP (WHNP (WDT (what))(NN (year))))(SQ (NP (NP (DT (the))(NN (movie)))(NP (DT (the))(CD (ten))(NNS (commandment))))(VP (VBN (release)))))) |ET| 
1  |BT| (ROOT (SBARQ (WHNP (WP (what)))(SQ (VP (NP (ADJP (RBS (most))(JJ (popular)))))))) |ET| 
1  |BT| (ROOT (SBARQ (WHNP (WP (what)))(SQ (VP (VP (SBAR (S (S (VP (PP (NP (NN (dimly-lit))))))(S (VP (NP (NN (water)))))))))))) |ET| 
1  |BT| (ROOT (SBARQ (WHNP (WP (what)))(SQ (VP (NP (PRP$ (you))(JJ (favorite))(NN (color))))))) |ET| 
-1  |BT| (ROOT (SBARQ (WHNP (WP (what)))(SQ (VP (VP (VP (PP (S (VP (VBG (snore))))))))))) |ET| 
-1  |BT| (ROOT (SBARQ (WHNP (WP (what)))(SQ (NP (PRP (you)))(VP (VP (PP (S (VP (NP (DT (a))(NN (dog)))(PP (NP (DT (a))(NN (beach)))))))))))) |ET| 
-1  |BT| (ROOT (SBARQ (WHNP (WP (what)))(SQ (VP (NP (NP (NP (NNP (franz))(NNP (kafka))(POS ('s))))(NP (DT (a))(NNP (country))(NNP (doctor))))(S (VP (S (VP (VP (NP (PRP (we)))))))))))) |ET| 
1  |BT| (ROOT (SBARQ (WHPP (WHNP (WDT (what))(NN (war))))(SQ (NP (DT (the))(JJ (first))(NN (submarine)))(VP (VBN (use)))))) |ET| 
1  |BT| (ROOT (SBARQ (WHNP (WDT (what))(NN (racehorse)))(SQ (NP (NP (NNP (associated))(NNP (press))))(PP (NP (NP (DT (the))(JJS (greatest))(NN (horse)))(PP (NP (DT (the))(JJ (20th))(NN (century))))))))) |ET| 
1  |BT| (ROOT (SBARQ (WHNP (WP (what)))(SQ (NP (NP (DT (the))(JJ (medical))(NN (term)))(PP (NP (NP (NN (cancer)))(PP (NP (DT (the))(NN (blood)))))))))) |ET| 
-1  |BT| (ROOT (SBARQ (WHNP (WDT (what))(NNS (country)))(SQ (NP (NP (DT (the))(JJS (most)))(PP (NP (NN (tourism)))))))) |ET| 
-1  |BT| (ROOT (SBARQ (WHNP (WDT (what))(CD (two))(NNS (commander)))(SQ (NP (NP (DT (the))(NNS (force)))(PP (NP (NP (DT (the))(NN (battle)))(PP (NP (NNP (el))(NNP (alamein)))))))))) |ET| 
-0.11604790681916869743428577521627  |BT| (ROOT (SBARQ (WHNP (WP (what)))(SQ (NP (NN (sperm)))))) |ET| 
1  |BT| (ROOT (SBARQ (WHNP (WP (what)))(SQ (VP (VP (VP (S (VP (VP (NP (DT (a))(JJ (sonic))(NN (boom)))))))))))) |ET| 
1  |BT| (ROOT (SBARQ (WHNP (WP (what)))(SQ (NP (PRP (you)))(VP (PP (S (VP (NP (NN (gin))(CC (and))(NN (vermouth)))))))))) |ET| 
1  |BT| (ROOT (SBARQ (WHNP (WP (what)))(SQ (NP (NP (DT (a))(JJ (good))(NN (book)))(S (VP (VP (PP (NP (NP (NNS (people)))(SBAR (WHNP (WP (who)))(S (VP (S (VP (VP (VB (read))))))))))))))))) |ET| 
-1  |BT| (ROOT (SBARQ (WHNP (WP (what)))(SQ (NP (PRP (you)))(VP (PP (NP (DT (a))(JJ (ankle))(NN (sprain)))))))) |ET| 
-1  |BT| (ROOT (SBARQ (WHNP (WP (what)))(SQ (NP (NP (DT (a))(JJ (reliable))(NN (site)))(SBAR (WHNP (WDT (that)))(S (NP (PRP (i)))(VP (VP (NP (NNP (heretic))(CD (2))))))))))) |ET| 
-0.43104479605395984442850476625608  |BT| (ROOT (SBARQ (WHNP (WP (what)))(SQ (NP (NP (DT (the))(JJS (best))(JJ (online))(NNS (game))))))) |ET| 
1  |BT| (ROOT (SBARQ (WHNP (WDT (what))(NNP (homerian))(NN (epic)))(SQ (NP (NP (NNS (event)))(PP (NP (NP (DT (the))(NN (end)))(PP (NP (DT (the))(NNP (trojan))(NNPS (wars)))))))))) |ET| 
1  |BT| (ROOT (SBARQ (WHNP (WP (what)))(SQ (VP (ADVP (RB (originally)))(PP (NP (NP (CD (one))(NN (1-millionth)))(PP (NP (NP (DT (the))(NN (distance)))(PP (NP (NP (DT (the))(NN (equator)))(PP (NP (DT (the))(NNP (pole)))))))))))))) |ET| 
1  |BT| (ROOT (SBARQ (WHNP (WP (what)))(SQ (NP (NP (DT (the))(JJ (legal))(NN (blood))(NN (alcohol))(NN (limit)))(PP (NP (NP (DT (the))(NN (state)))(PP (NP (NNP (california)))))))))) |ET| 
-0.45182476764627044207855988133815  |BT| (ROOT (SBARQ (WHNP (WP (what)))(SQ (NP (NP (DT (the))(NN (web))(NN (address)))(PP (NP (NP (DT (the))(NN (list)))(PP (NP (NP (JJ (e-mail))(NNS (address)))(PP (NP (NP (NNS (member)))(PP (NP (NP (DT (the))(NNP (house)))(PP (NP (NNPS (representatives)))))))))))))))) |ET| 
-1  |BT| (ROOT (SBARQ (WHNP (WP (what)))(SQ (NP (NP (DT (the))(NN (origin)))(PP (NP (NP (DT (the))(NN (term)))(NP (JJ (buffalo))(NNS (wing)))(SBAR (WHNP (WDT (that)))(S (VP (VP (PP (NP (NP (DT (a))(NN (menu))(NN (item)))(PP (NP (NP (NNS (bar)))(PP (NP (NP (DT (the))(NN (nation)))(PP (NP (NN (chicken))(NNS (wing))))))))))(PP (NP (DT (a))(JJ (spicey))(NN (sauce)))))))))))))) |ET| 
-0.82750585808873777793337467301171  |BT| (ROOT (S (VP (NP (NP (DT (the))(CD (five))(NNS (position)))(SBAR (WHNP (WP (who)))(S (VP (PP (NP (NP (DT (the))(NN (line)))(PP (NP (NP (NN (succession)))(PP (NP (DT (the))(NN (presidency))))))))))))))) |ET| 
1  |BT| (ROOT (SBARQ (WHNP (WDT (what))(NNS (food)))(SQ (NP (NN (vitamin))(NN (b12)))))) |ET| 
1  |BT| (ROOT (SBARQ (WHNP (WDT (what))(NN (toy)))(SQ (NP (PRP (you)))(VP (NP (NN (sleep))))))) |ET| 
1  |BT| (ROOT (SBARQ (WHNP (WP (what)))(SQ (NP (DT (a))(JJ (edentulous))(NN (smile))(NN (lack)))))) |ET| 
-1  |BT| (ROOT (SBARQ (WHNP (WDT (what))(NN (company)))(SQ (NP (ADJP (RBS (most))(JJ (greeting))))))) |ET| 
-1  |BT| (ROOT (SBARQ (WHNP (WDT (what))(NN (age)))(SQ (NP (NNP (benny))(NNP (carter)))))) |ET| 
-0.74422845048917385391007428552257  |BT| (ROOT (SBARQ (WHNP (WDT (what))(NN (state)))(SQ (NP (NNP (john))(NNP (f.))(NNP (kennedy)))(VP (PP (IN (in))))))) |ET| 
1  |BT| (ROOT (SBARQ (WHNP (WP (what)))(SQ (NP (NP (DT (the))(NN (term)))(PP (NP (NP (DT (the))(NN (sum)))(PP (NP (NP (DT (all))(JJ (genetic))(NN (material)))(PP (NP (DT (a))(VBN (give))(NN (organism)))))))))))) |ET| 
1  |BT| (ROOT (SBARQ (WHNP (WP (what)))(SQ (NP (NP (DT (the))(NN (term)))(PP (NP (NP (DT (the))(NN (side)))(PP (NP (NP (DT (the))(NN (mountain)))(SBAR (WHNP (WDT (that)))(S (VP (NP (DT (the))(VBG (prevail))(NNS (wind)))))))))))))) |ET| 
1  |BT| (ROOT (SBARQ (WHNP (WP (what)))(SQ (NP (NP (DT (the))(NN (name)))(PP (NP (NP (DT (the))(`` (`))(JJ (female))('' ('))(NN (counterpart)))(PP (NP (NP (NNP (el))(NNP (nino)))(SBAR (WHNP (WDT (which)))(S (VP (PP (NP (NP (JJ (cooling))(NNS (temperature)))(NP (RB (very))(JJ (dry))(NN (weather)))))))))))))))) |ET| 
-1  |BT| (ROOT (SBARQ (WHNP (WP (what)))(SQ (NP (NP (DT (the))(NN (name)))(PP (NP (NP (DT (the))(NN (firm)))(SBAR (WHNP (WDT (that)))(S (VP (NP (NNP (spumante)))))))))))) |ET| 
-1  |BT| (ROOT (SBARQ (WHNP (WP (what)))(SQ (NP (NP (DT (the))(NN (name)))(PP (NP (NP (DT (a))(NN (hotel)))(PP (NP (NNP (indianapolis)))))))))) |ET| 
-1  |BT| (ROOT (SBARQ (WHNP (WP (what)))(SQ (NP (NP (DT (the))(NN (name)))(PP (NP (NP (DT (the))(JJ (first))(JJ (russian))(NN (astronaut)))(SBAR (S (VP (VP (NP (DT (a))(NN (spacewalk))))))))))))) |ET| 
1  |BT| (ROOT (SBARQ (WHNP (WDT (what))(NN (format)))(SQ (NP (NP (NNP (vhs))(POS ('s))))))) |ET| 
1  |BT| (ROOT (SBARQ (WHNP (WDT (what))(NN (film)))(SQ (NP (NP (NNP (robert))(NNP (redford))(POS ('s))))))) |ET| 
1  |BT| (ROOT (SBARQ (WHNP (WDT (what))(NN (newspaper)))(SQ (NP (NNP (salt))(NNP (lake))(NNP (city)))))) |ET| 
-1  |BT| (ROOT (SBARQ (WHNP (WDT (what))(NN (explorer)))(SQ (VP (NP (NP (NNP (iberia))(POS ('s)))))))) |ET| 
-0.98792935790260860695610745096928  |BT| (ROOT (SBARQ (WHNP (WDT (what))(NN (canal)))(SQ (NP (NP (NNP (thatcher))(NN (ferry))(NNP (bridge))))))) |ET| 
-1  |BT| (ROOT (SBARQ (WHNP (WDT (what))(NN (actor)))(SQ (NP (NP (NP (NNP (john))(NNP (f.))(NNP (kennedy)))))))) |ET| 
1  |BT| (ROOT (SBARQ (WHNP (WP (what)))(SQ (NP (NP (DT (the))(NN (name)))(PP (NP (NP (DT (the))(NN (orca)))(SBAR (WHNP (WDT (that)))(S (VP (PP (NP (DT (a))(JJ (fungal))(NN (infection))))))))))))) |ET| 
1  |BT| (ROOT (SBARQ (WHNP (WP (what)))(SQ (NP (NP (DT (the))(NN (name)))(PP (NP (NP (DT (the))(NN (song)))(SBAR (S (NP (NNP (dracula)))(VP (PP (NP (DT (the))(NN (organ))))))))))))) |ET| 
1  |BT| (ROOT (SBARQ (WHNP (WP (what)))(SQ (NP (NP (DT (the))(NN (name)))(PP (NP (NP (DT (the))(NN (sitcom)))(SBAR (WHNP (WDT (that)))(S (NP (NNP (alyssa))(NNP (milano)))(VP (PRT (RP (in)))(PP (NP (NNP (tony))(NNP (danza))))))))))))) |ET| 
-1  |BT| (ROOT (SBARQ (WHNP (WP (what)))(SQ (NP (NP (DT (the))(NN (name)))(PP (NP (NP (DT (the))(NN (country)))(SBAR (WHNP (WDT (which)))(S (NP (NNP (hitler)))(VP (VBD (rule))))))))))) |ET| 
-0.64480201487155752726465607338469  |BT| (ROOT (SBARQ (WHNP (WP (what)))(SQ (NP (NP (DT (the))(NN (secret)))(PP (NP (DT (the))(NN (universe)))))))) |ET| 
-0.22019041574779216197121911591239  |BT| (ROOT (SBARQ (WHNP (WP (what)))(SQ (NP (NP (DT (the))(NN (habitat)))(PP (NP (DT (the))(NN (chickadee)))))))) |ET| 
1  |BT| (ROOT (SBARQ (WHNP (WP (who)))(SQ (VP (NP (NP (NP (NNP (john))(NNP (f.))(NNP (kennedy))))))))) |ET| 
1  |BT| (ROOT (SBARQ (WHNP (WDT (what))(NN (age)))(SQ (VP (NP (DT (the))(NN (bronze))(NN (age))))))) |ET| 
1  |BT| (ROOT (SBARQ (WHNP (WDT (what))(NN (disease)))(SQ (VP (NP (NP (NNP (europe)))(NP (NNP (africa)))(NP (NNP (asia)))))))) |ET| 
-1  |BT| (ROOT (SBARQ (WHNP (WDT (what))(NN (motto)))(SQ (VP (NP (NNP (merrie))(NNP (melodies))(NNS (cartoon))))))) |ET| 
-0.76997019908736985538411090601585  |BT| (ROOT (SBARQ (WHNP (WP (what)))(SQ (VP (NP (NP (NNP (thatcher))(POS ('s))))(PP (NP (NP (CD (10))(NNS (year)))(PP (NP (NN (power)))))))))) |ET| 
0.5693046611986536387206569997943  |BT| (ROOT (SBARQ (WHNP (NP (PP (NP (NN (dog))))))(SQ (NP (DT (the))(`` (``))(JJ (little))(NNS (rascal))('' (''))(NN (dog)))))) |ET| 
1  |BT| (ROOT (SBARQ (WHNP (WP (what)))(SQ (NP (NP (DT (the))(NN (word)))(PP (NP (NP (NN (love)))(PP (NP (NN (pain))(CC (or))(NN (abuse)))))))))) |ET| 
1  |BT| (ROOT (SBARQ (WHNP (WP (what)))(SQ (NP (NP (DT (the))(NN (plural)))(PP (NP (NN (gulf)))))))) |ET| 
1  |BT| (ROOT (SBARQ (WHNP (WP (what)))(SQ (NP (NP (DT (the))(NN (name)))(PP (NP (DT (the))(`` (``))(JJ (little))(NNS (rascal))('' (''))(NN (dog)))))))) |ET| 
-0.12459678384406430717845637445862  |BT| (ROOT (SBARQ (WHNP (WP (what)))(SQ (NP (NP (DT (the))(NN (abbreviation)))(PP (NP (NN (trinitrotoluene)))))))) |ET| 
-1  |BT| (ROOT (SBARQ (WHNP (WP (what)))(SQ (NP (NP (DT (the))(NN (orgin)))(PP (NP (NN (xoxoxox)))))))) |ET| 
-1  |BT| (ROOT (SBARQ (WHNP (WP (what)))(SQ (NP (NP (DT (the))(NN (weight)))(PP (NP (NN (air)))))))) |ET| 
1  |BT| (ROOT (SBARQ (WHNP (WDT (what))(NN (food)))(SQ (NP (PRP (i)))(VP (S (VP (VP (NP (DT (a))(NN (possum)))))))))) |ET| 
1  |BT| (ROOT (SBARQ (WHNP (WDT (what))(NN (spice)))(SQ (NP (NNS (chef)))(VP (NP (DT (the))(JJS (most)))(PP (IN (for))))))) |ET| 
1  |BT| (ROOT (SBARQ (WHNP (WDT (what))(NN (flower)))(SQ (NP (NNP (vincent))(NNP (van))(NNP (gogh)))(VP (VB (paint)))))) |ET| 
-1  |BT| (ROOT (SBARQ (WHNP (WDT (what))(NN (organization)))(SQ (NP (NNP (mr.))(NNP (waverly)))(VP (NP (NNS (agent)))(PP (IN (for))))))) |ET| 
-1  |BT| (ROOT (SBARQ (WHNP (WDT (what))(NN (count)))(SQ (NP (NNP (alexandre))(NNP (dumas)))(VP (ADVP (RB (about))))))) |ET| 
-1  |BT| (ROOT (SBARQ (WHNP (WDT (what))(NN (planet)))(SQ (NP (PRP (you)))(VP (S (VP (VP (NP (NP (NNP (bebrenia)))(NP (NNP (arcadia)))(NP (NNP (amazonis))))))))))) |ET| 
1  |BT| (ROOT (SBARQ (WHNP (WP (what)))(SQ (NP (NP (DT (the))(NN (treatment)))(PP (NP (NN (depression)))))))) |ET| 
1  |BT| (ROOT (SBARQ (WHNP (WP (what)))(SQ (NP (NP (DT (a))(NN (fear)))(PP (NP (NN (water)))))))) |ET| 
1  |BT| (ROOT (SBARQ (WHNP (WP (what)))(SQ (NP (NP (DT (the))(NN (recipe)))(PP (NP (NNP (eggs))(NNP (benedict)))))))) |ET| 
-1  |BT| (ROOT (SBARQ (WHNP (WP (what)))(SQ (NP (NP (DT (a))(NN (cake)))(PP (NP (NN (soap)))))))) |ET| 
-0.21235270978288450782756058288214  |BT| (ROOT (SBARQ (WHNP (WP (what)))(SQ (NP (NP (DT (the))(NN (definition)))(PP (NP (NN (spamming)))))))) |ET| 
-0.2120450115681598302064259087274  |BT| (ROOT (SBARQ (WHNP (WP (what)))(SQ (NP (NP (DT (the))(NN (definition)))(PP (NP (NN (cecum)))))))) |ET| 
0.79129746050876481611169310781406  |BT| (ROOT (SBARQ (WHNP (WDT (what))(NN (card))(NN (game)))(SQ (NP (NNS (variation)))(VP (NP (NP (NNP (canfield)))(NP (NNP (klondike)))(NP (NNP (spider)))))))) |ET| 
1  |BT| (ROOT (S (NP (NNP (aspartame)))(VP (VP (WHPP (WHNP (WDT (what))(JJ (other))(NN (name)))))))) |ET| 
1  |BT| (ROOT (SBARQ (WHNP (WDT (which))(NN (sex)))(SQ (VP (ADJP (S (VP (VP (NP (NNP (leprosy))))))))))) |ET| 
-1  |BT| (ROOT (SBARQ (WHNP (WDT (what))(NN (frenchman)))(SQ (VP (NP (DT (the))(NN (following))))))(S (SBAR (S (NP (NNP (god)))(VP (VP (VB (exist))))))(NP (PRP (it)))(VP (VP (ADJP (S (VP (VP (NP (PRP (he))))))))))) |ET| 
-1  |BT| (ROOT (S (NP (WDT (which)))(VP (NP (S (VP (VP (NP (CD (three))(NNS (time)))))))))) |ET| 
-0.2448892925172856671611754109108  |BT| (ROOT (SBARQ (WHNP (WP (what)))(SQ (NP (NP (NN (difference)))(PP (NP (NP (DT (a))(NN (poster)))(NP (DT (a))(NN (print))))))))) |ET| 
1  |BT| (ROOT (SBARQ (WHNP (WP (what)))(SQ (NP (NP (DT (another))(NN (name)))(PP (NP (NN (nearsightedness)))))))) |ET| 
1  |BT| (ROOT (SBARQ (WHNP (WP (what)))(SQ (NP (NP (DT (another))(NN (word)))(PP (NP (NN (diet)))))))) |ET| 
1  |BT| (ROOT (SBARQ (WHNP (WP (what)))(SQ (NP (NP (DT (the))(NN (singular)))(PP (NP (NNS (dice)))))))) |ET| 
-1  |BT| (ROOT (SBARQ (WHNP (WP (what)))(SQ (NP (NP (DT (a))(NN (specimen)))(PP (NP (NNS (basidiomycete)))))))) |ET| 
-0.97534919084020454960182178183459  |BT| (ROOT (SBARQ (WHNP (WP (what)))(SQ (NP (NP (NNS (tourist)))(PP (NP (NNP (reims)))))))) |ET| 
-1  |BT| (ROOT (SBARQ (WHNP (WP (what)))(SQ (VP (PP (NP (NNS (curie)))))))) |ET| 
1  |BT| (ROOT (SBARQ (SBAR (WHADVP (WRB (when)))(S (NP (PRP (it)))(VP (NP (S (VP (VP (VB (relax)))))))))(WHNP (WDT (what))(CD (one))(NN (beer)))(SQ (ADJP (JJ (clear)))))) |ET| 
0.30782783155173837341678222401242  |BT| (ROOT (S (NP (NNP (ray))(NNP (charles)))(VP (VP (ADVP (JJS (best)))(PP (S (VP (WHNP (WDT (what))(NN (instrument)))))))))) |ET| 
0.534881450541701664036509100697  |BT| (ROOT (S (NP (NN (musician))(NNP (ray))(NNP (charles)))(VP (WHNP (WDT (what))(NN (instrument)))))) |ET| 
0.086692142005847599994794450140034  |BT| (ROOT (SBARQ (WHNP (WHNP (WDT (what))(NN (color)))(NP (NNP (poker))(NN (chip))))(SQ (ADVP (RB (usually)))(VP (NP (DT (the))(JJS (lowest))(NN (value))))))) |ET| 
-0.38960886619226536842219843492785  |BT| (ROOT (S (NP (NNP (jackson))(NNP (pollock)))(VP (WHPP (WHNP (WDT (what))(NN (nationality))))))) |ET| 
-0.84351232094651151793840426762472  |BT| (ROOT (S (SBAR (WHADVP (WRB (when)))(S (VP (PRT (RP (upon)))(S (VP (VP (VB (surrender))))))))(X (WP (what)))(NP (JJ (american))(NN (general)))(VP (S (ADVP (NNP (sir)))(NP (PRP (i)))(VP (ADVP (RB (yet)))(VP (S (VP (VP (VB (fight))))))))))(INTJ (UH (?)))) |ET| 
1  |BT| (ROOT (SBARQ (WHNP (WP (what)))(SQ (NP (NP (NNS (cloud)))(PP (NP (DT (the))(NN (air)))))))) |ET| 
1  |BT| (ROOT (SBARQ (WHNP (WP (what)))(SQ (NP (NP (NN (state))(NN (tree)))(PP (NP (NNP (nebraska)))))))) |ET| 
1  |BT| (ROOT (SBARQ (WHNP (WP (what)))(SQ (VP (PP (NP (NNS (jeroboam)))))))) |ET| 
-1  |BT| (ROOT (SBARQ (WHNP (WP (what)))(SQ (NP (NP (DT (the))(NN (name)))(PP (NP (DT (a))(JJ (greek))(NN (god)))))))) |ET| 
-1  |BT| (ROOT (SBARQ (WHNP (WP (what)))(SQ (NP (NN (film))(JJ (noir)))))) |ET| 
-0.53251745388893467758606448114733  |BT| (ROOT (SBARQ (WHNP (WP (what)))(SQ (NP (NP (DT (the))(NN (death)))(PP (NP (NNP (bob))(NNP (marley)))))))) |ET| 
1  |BT| (ROOT (S (VP (NP (DT (a))(JJ (american))(VBN (make))(NN (motorcycle)))))) |ET| 
1  |BT| (ROOT (S (VP (NP (NP (DT (a))(NN (movie)))(SBAR (S (NP (NP (DT (the))(NN (actress)))(NP (NNP (sandra))(NNP (bullock))))(VP (NP (DT (a))(NN (role)))(PP (IN (in)))))))))) |ET| 
1  |BT| (ROOT (S (NP (WDT (which)))(VP (NP (DT (the))(JJR (longer))(NN (sperm)))(NP (NP (DT (a))(NN (elephant)))(NP (DT (a))(NN (mouse))))))) |ET| 
-1  |BT| (ROOT (SBARQ (WHNP (WDT (what))(NN (tv))(NN (character)))(SQ (NP (DT (a))(NN (horse)))(VP (NP (NNP (thunder))))))) |ET| 
-0.88372770237102504786719237017678  |BT| (ROOT (S (VP (NP (DT (a))(JJ (french))(JJ (fascist))(NN (party)))))) |ET| 
-1  |BT| (ROOT (S (VP (NP (NP (DT (the))(NN (organization)))(SBAR (WHNP (WDT (that)))(S (VP (VP (PP (NP (DT (a))(NNP (security))(NNP (council)))))))))))) |ET| 
1  |BT| (ROOT (SBARQ (WHNP (WP (what)))(SQ (NP (NP (DT (some))(JJ (good))(NNS (exercise)))(PP (NP (S (VP (VP (VB (do))))))))))) |ET| 
1  |BT| (ROOT (SBARQ (WHNP (WP (what)))(SQ (NP (NP (DT (the))(JJ (second-biggest-selling))(NN (magazine)))(PP (NP (NNP (america)))))))) |ET| 
1  |BT| (ROOT (SBARQ (WHNP (WP (what)))(SQ (NP (NP (DT (some)))(PP (NP (NP (NNP (australia))(POS ('s))))))))) |ET| 
-1  |BT| (ROOT (SBARQ (WHNP (WP (what)))(SQ (NP (NP (DT (the))(NNS (name)))(PP (NP (NP (NP (NNP (jack))(POS ('s))))(PP (NP (NP (CD (three))(POS ('s))))))))))) |ET| 
-1  |BT| (ROOT (SBARQ (WHNP (WP (what)))(SQ (VP (PP (NP (NP (DT (the))(JJ (female))(NN (body)))(PP (NP (NP (NN (lack)))(PP (NP (NN (sleep))(CC (and))(NN (food)))))))))))) |ET| 
-0.3969095157183166189263090473105  |BT| (ROOT (SBARQ (WHNP (WDT (what))(NN (country)))(SQ (NP (NNP (brian))(NNP (boru)))(NP (NP (DT (a))(JJ (11th-century))(NN (king)))(PP (IN (of))))))) |ET| 
1  |BT| (ROOT (S (VP (NP (NP (DT (the))(JJ (disposable))(NN (razor)))(SBAR (WHNP (WDT (that)))(S (VP (NP (QP (IN (about))(CD (19))))))))))) |ET| 
1  |BT| (ROOT (S (VP (NP (DT (a))(JJ (gaelic))(NN (language)))))) |ET| 
0.87957201215213254297253797631129  |BT| (ROOT (SBARQ (WHNP (WDT (what))(NN (product)))(SQ (NP (NP (DT (a))(NN (frog)))(SBAR (WHNP (WDT (that)))(S (VP (S (VP (NP (PRP ('em)))))))))))) |ET| 
-0.20625334263500244569300434704928  |BT| (ROOT (S (VP (NP (DT (the))(JJ (long))(NN (march)))))) |ET| 
-1  |BT| (ROOT (SBARQ (WHNP (WDT (what))(NN (mystery))(NN (writer)))(SQ (VP (S (NP (NP (NP (NP (DT (the))(NN (glory)))(SBAR (WHNP (WDT (that)))(S (VP (NP (NNP (greece)))))))(NP (NX (NN (grandeur)))))(SBAR (WHNP (WDT (that)))(S (VP (NP (NNP (rome))('' ('')))))))))))) |ET| 
-0.53049077557892176937315298346221  |BT| (ROOT (S (VP (NP (ADJP (JJ (south))(JJ (african))))))) |ET| 
1  |BT| (ROOT (SBARQ (WHNP (WP (what)))(SQ (VP (PP (NP (NP (DT (the))(NN (week)))(PP (NP (NNP (february))(CD (21-27)))))))))) |ET| 
1  |BT| (ROOT (SBARQ (WHNP (WP (what)))(SQ (NP (NNP (esquire)))(VP (NP (NP (NNP (ash))(NNP (hole)))(PP (NP (NP (DT (the))(NN (year)))(PP (NP (CD (1980))))))))))) |ET| 
1  |BT| (ROOT (SBARQ (WHNP (WP (what)))(SQ (VP (PP (NP (NP (DT (the))(NN (queen)))(PP (NP (NNP (drinks)))))))))) |ET| 
-1  |BT| (ROOT (SBARQ (WHNP (WP (what)))(SQ (VP (PP (NP (NNP (pompeii)))))))) |ET| 
-1  |BT| (ROOT (SBARQ (WHNP (WP (what)))(SQ (VP (PP (NP (NP (DT (the))(NN (city)))(PP (NP (NNP (dogtown))))))(PP (NP (CD (1899)))))))) |ET| 
-1  |BT| (ROOT (SBARQ (WHNP (WP (what)))(SQ (NP (NP (NNS (snowball)))(PP (NP (DT (a))(NN (hot-rodder)))))))) |ET| 
1  |BT| (ROOT (SQ (VP (VP (S (NP (NNP (li))(POS ('))))(NP (NN (l))))(NP (NP (NNP (abner))(POS ('s))))))) |ET| 
1  |BT| (ROOT (S (VP (NP (CD (four))(JJ (famous))(NN (cartoon))(NNS (cat)))))) |ET| 
1  |BT| (ROOT (SBARQ (WHNP (WDT (what))(NN (auto))(NN (race)))(SQ (NP (NNP (wilbur))(NNP (reed)))(NP (NP (DT (the))(JJ (first)))(S (VP (VP (NP (CD (three))(NNS (time)))))))))) |ET| 
-1  |BT| (ROOT (SBARQ (WHNP (WDT (what))(NNP (u.s.))(NNP (president)))(SQ (NP (NP (DT (the))(JJ (first)))(S (VP (VP (NP (NNS (mule)))))))))) |ET| 
-1  |BT| (ROOT (SBARQ (WHNP (WDT (which))(NN (way)))(SQ (NP (PRP (you)))(VP (NP (PRP$ (you))(NN (bic)))(S (VP (VP (NP (DT (the))(NN (flame))))))))(ADJP (JJ (clockwise))(CC (or))(JJ (counterclockwise))))) |ET| 
-0.16839189669401063986775568537269  |BT| (ROOT (S (VP (NP (CD (11))(JJ (famous))(NNS (martyr)))))) |ET| 
1  |BT| (ROOT (SBARQ (WHNP (WP (what)))(SQ (NP (NP (ADJP (RBS (most))(JJ (powerful))))(PP (NP (NNP (euchre)))))))) |ET| 
1  |BT| (ROOT (SBARQ (WHNP (WP (what)))(SQ (NP (NP (DT (the))(NNS (name)))(PP (NP (NP (DT (the))(CD (three))(NNS (ship)))(VP (PP (NP (NNP (columbus))))))))))) |ET| 
1  |BT| (ROOT (SBARQ (WHNP (WP (what)))(SQ (NP (PRP (one)))(VP (PP (NP (NNP (reims)))))))) |ET| 
-1  |BT| (ROOT (SBARQ (WHNP (WP (what)))(SQ (NP (NP (DT (each)))(PP (NP (DT (the))(NNS (utility)))))(VP (PP (NP (NNP (monopoly)))))))) |ET| 
-1  |BT| (ROOT (SBARQ (WHNP (WP (what)))(SQ (NP (NP (JJ (worth)))(VP (PP (NP (NNP (reims))))))))) |ET| 
-1  |BT| (ROOT (SBARQ (WHNP (WP (what)))(SQ (NP (NNP (delilah)))(VP (PP (NP (NP (NNP (samson))(POS ('s))))))))) |ET| 
1  |BT| (ROOT (SBARQ (WHNP (WDT (what))(NN (tv))(NN (series)))(SQ (VP (NP (DT (the))(NNS (name)))(S (VP (VP (NP (DT (the))(JJ (innocent)))))))))) |ET| 
1  |BT| (ROOT (S (VP (NP (NP (DT (the))(NNS (man))(POS ('s)))(SBAR (WHNP (WDT (that)))(S (VP (VP (PP (NP (DT (the))(NN (sea)))))))))))) |ET| 
1  |BT| (ROOT (SBARQ (WHNP (WDT (what))(NN (therapy)))(SQ (VP (S (VP (VP (NP (DT (the))(`` (``))(JJ (primal))(NN (scream))('' ('')))))))))) |ET| 
-1  |BT| (ROOT (SBARQ (WHNP (NP (PP (NP (DT (the))(NNP (bible))))))(SQ (NP (DT (the))(JJS (most))(NNS (verse)))))) |ET| 
-1  |BT| (ROOT (SBARQ (WHNP (WDT (what))(JJ (classical))(JJ (spanish))(NN (writer)))(SQ (VP (S (NP (NP (DT (all)))(SBAR (WHNP (WDT (that)))(S (VP (VBZ (glitter))))))(VP (PRT (RB (not)))(NP (NN (gold))))))))) |ET| 
-1  |BT| (ROOT (SBARQ (WHNP (WP (what)))(SQ (VP (PP (NP (NP (NN (baby))(NN (powder)))(NP (NP (NN (baby))(NN (lotion)))(SBAR (WHNP (WDT (that)))(S (VP (SBAR (S (NP (PRP (it)))(VP (NP (NP (DT (the))(NN (way)))(SBAR (S (NP (PRP (it)))(VP (VBZ (do))))))))))))))))))) |ET| 
-1  |BT| (ROOT (SBARQ (WHNP (WDT (what))(NNP (green))(NNP (bay))(NNPS (packers))(NN (coach)))(SQ (VP (S (NP (EX (there)))(VP (NP (NP (NN (nothing)))(SBAR (WHNP (WDT (that)))(S (VP (NP (DT (the))(NN (fire)))(PP (NP (NN (hate)))))))))))))) |ET| 
1  |BT| (ROOT (SBARQ (WHNP (WP (what)))(SQ (NP (NNS (camel)))(VP (PP (NP (PRP$ (they))(NNS (hump)))))))) |ET| 
1  |BT| (ROOT (SBARQ (WHNP (WP (what)))(SQ (NP (NNP (shostakovich)))(VP (PP (NP (NNP (rostropovich)))))))) |ET| 
1  |BT| (ROOT (SBARQ (WHNP (WP (what)))(SQ (NP (NP (NNS (million)))(PP (NP (NP (NNS (kid)))(VP (PP (NP (PRP$ (they))(NNS (head))))(PP (NP (CD (1955))))))))))) |ET| 
-1  |BT| (ROOT (SBARQ (WHNP (WP (what)))(SQ (NP (NN (storm))(NN (wave)))(VP (PP (NP (NNP (japanese)))))))) |ET| 
-1  |BT| (ROOT (SBARQ (WHNP (WP (what)))(SQ (NP (DT (the))(JJ (abbreviated))(NN (term)))(VP (PP (NP (NP (DT (the))(NNP (national))(NNP (bureau)))(PP (NP (NNP (investigation)))))))))) |ET| 
-1  |BT| (ROOT (SBARQ (WHNP (WP (what)))(SQ (NP (NNS (player)))(VP (S (VP (VP (SBAR (WHADVP (WRB (when)))(S (NP (DT (the))(NN (music)))(VP (PP (NP (NP (DT (a))(NN (game)))(PP (NP (JJ (musical))(NNS (chair)))))))))))))))) |ET| 
1  |BT| (ROOT (SBARQ (WHNP (NP (PP (NP (NN (tree))))))(SQ (NP (NP (NNP (lebanon))(POS ('s))))))) |ET| 
1  |BT| (ROOT (SBARQ (WHNP (NP (PP (NP (NN (wine))))))(SQ (NP (NNP (spumante)))))) |ET| 
1  |BT| (ROOT (SBARQ (WHNP (WP (what)))(SQ (NP (NP (DT (the))(NN (term)))(PP (NP (NP (NN (someone)))(SBAR (WHNP (WP (who)))(S (VP (NP (NN (mankind)))))))))))) |ET| 
-1  |BT| (ROOT (SBARQ (WHNP (NP (PP (NP (NP (NNP (charlie))(POS ('s)))))))(SQ (NP (NP (NNS (vocal)))(PP (NP (NP (NNP (josie)))(NP (DT (the))(NNPS (pussycats))))))))) |ET| 
-1  |BT| (ROOT (SBARQ (WHNP (NP (PP (PP (NP (CD (18)))))))(SQ (NP (NP (CD (327))(NNS (mile)))(PP (NP (NN (book))(NNS (shelf)))))))) |ET| 
-1  |BT| (ROOT (SBARQ (WHNP (WDT (what))(JJ (english))(NN (queen)))(SQ (NP (NP (CD (six))(NNS (finger)))(PP (NP (CD (one))(NN (hand)))))))) |ET| 
1  |BT| (ROOT (SBARQ (WHNP (WP (what)))(SQ (NP (DT (the))(NN (crocodile)))(VP (PP (NP (NNP (peter))(NNP (pan)))))))) |ET| 
1  |BT| (ROOT (S (NP (NNP (aspartame)))(VP (ADJP (WHPP (WHNP (WP (what)))))))) |ET| 
1  |BT| (ROOT (SBARQ (WHNP (WP (what)))(SQ (NP (NNP (god)))(VP (PP (NP (NP (DT (the))(JJ (first))(NN (sentence)))(PP (NP (DT (the))(NNP (bible)))))))))) |ET| 
-0.11338780641230856993662001741541  |BT| (ROOT (SBARQ (WHNP (WHNP (WDT (what))(NN (month))(POS ('s))))(SQ (NP (DT (the))(NNP (monterey))(NN (jazz))(NNP (festival)))(VP (PRT (RP (on))))))) |ET| 
-0.12551243752578170043143757084181  |BT| (ROOT (SBARQ (WHNP (WP (what)))(SQ (NP (DT (the))(NNP (georgetown))(`` (``))(NNP (hoya))('' ('')))(VP (VB (mean)))))) |ET| 
-0.80643030248242064672581363993231  |BT| (ROOT (SBARQ (WHNP (WP (what)))(SQ (NP (NNP (robert)))(VP (VB (mean)))))) |ET| 
-1  |BT| (ROOT (SBARQ (WHNP (WP (what)))(SQ (NP (NNP (englishmen)))(VP (NP (PRP (themselves)))(PP (IN (in))))))) |ET| 
1  |BT| (ROOT (SBARQ (WHADVP (WRB (how)))(SQ (NP (PRP (you)))(VP (SBAR (S (NP (PRP (i)))(VP (NP (PRP (you)))(PP (NP (NNP (spanish))))))))))) |ET| 
1  |BT| (ROOT (SBARQ (WHNP (NP (NP (NNS (type)))(PP (NP (NN (water))(NN (pollution))))))(SQ (NP (EX (there)))))) |ET| 
1  |BT| (ROOT (SBARQ (WHNP (WDT (what))(NN (baseball))(NN (outcome)))(SQ (VP (NP (NP (NP (CD (nine))(NNS (ball)))(PP (NP (NNS (1879)))))(NP (NP (CD (eight))(NNS (ball)))(PP (NP (NNP (1880)))))(NP (NP (CD (seven))(NNS (ball)))(PP (NP (CD (1881)))))))))) |ET| 
1  |BT| (ROOT (SBARQ (WHNP (WDT (what))(JJ (english))(NN (word)))(SQ (NP (DT (the))(JJS (most))(NNS (letter)))))) |ET| 
-0.92819755685392901778385521538439  |BT| (ROOT (S (VP (PP (NP (NP (DT (the))(JJ (powerful))(JJ (white))(NN (trader)))(PP (NP (NP (NNP (conrad))(POS ('s)))(NX (NP (NNP (heart)))(PP (NP (NN (darkness)))))))))))) |ET| 
1  |BT| (ROOT (SBARQ (WHNP (WP (what)))(SQ (NP (DT (the))(NNP (peugeot))(NN (company)))(VP (VB (manufacture)))))) |ET| 
1  |BT| (ROOT (SBARQ (WHNP (WP (what)))(SQ (NP (NN (river))(NNS (otter)))(VP (VB (eat)))))) |ET| 
1  |BT| (ROOT (SBARQ (WHNP (WP (what)))(SQ (NP (NNP (visine)))(VP (PRT (RP (out))))))) |ET| 
-1  |BT| (ROOT (SBARQ (WHNP (WP (what)))(SQ (NP (NNP (spaceball)))(VP (PRT (RP (on))))))) |ET| 
-1  |BT| (ROOT (SBARQ (WHNP (WP (what)))(SQ (NP (PRP (you)))(ADJP (JJ (fat)))))) |ET| 
-0.073494183424042458518954390456202  |BT| (ROOT (SBARQ (WHNP (WP (what)))(SQ (ADJP (JJ (e-commerce)))))) |ET| 
1  |BT| (ROOT (S (PP (NP (NP (NNP (kafka))(POS ('s)))))(NP (DT (the))(NN (hero)))(VP (NP (CD (one))(NN (morning)))(S (VP (VP (S (NP (PRP (himself)))(VP (PP (WHNP (WP (what)))))))))))) |ET| 
1  |BT| (ROOT (S (VP (NP (NP (DT (the))(VBG (operate))(NN (system)))(SBAR (WHNP (WDT (that)))(S (VP (PP (NP (JJ (ibm-compatible))(NNS (machine))))))))))) |ET| 
1  |BT| (ROOT (S (VP (NP (DT (the))(JJ (islamic))(NN (counterpart)))(PP (NP (DT (the))(NNP (red))(NNP (cross))))))) |ET| 
-1  |BT| (ROOT (S (SBAR (WHNP (WP (what)))(S (NP (NN (architect)))(VP (VP (NP (DT (the))(NN (glass))(NN (house)))(SBAR (S (NP (DT (the))(NNP (chicago))(NNP (federal))(NNP (center)))(VP (NP (DT (a))(NN (philosophy)))(PP (ADJP (RBR (less)))))))))))(VP (VP (ADJP (JJR (more))))(VP (NP (NP (NNS (plan)))(SBAR (WHNP (WDT (that)))(S (VP (NP (NP (DT (the))(NN (forerunner)))(PP (NP (DT (the))(NNP (california))(NN (ranch))(NN (house))))))))))))) |ET| 
-1  |BT| (ROOT (S (VP (NP (NP (DT (the))(NNP (on))(NNP (stage))(NN (character)))(SBAR (WHNP (WP$ (whose))(NN (face)))(S (VP (VP (VBN (see)))))))))) |ET| 
-1  |BT| (ROOT (S (VP (NP (DT (the))(JJ (fast))(NN (food))(NN (chain)))(PP (NP (DT (the))(JJ (golden))(NN (arch))))))) |ET| 
1  |BT| (ROOT (SBARQ (WHNP (WP (what)))(SQ (NP (DT (a))(JJ (common))(JJ (anti-aids))(NN (drug)))))) |ET| 
1  |BT| (ROOT (SBARQ (WHNP (WP (what)))(SQ (ADJP (PP (ADJP (JJ (incompetent)))))))) |ET| 
1  |BT| (ROOT (SBARQ (WHNP (WP (what)))(SQ (NP (DT (a))(NN (adult)))))) |ET| 
-0.22694326682546686613228814621834  |BT| (ROOT (SBARQ (WHNP (WP (what)))(SQ (NP (DT (a))(NN (caldera)))))) |ET| 
-0.22694326682546589468714159920637  |BT| (ROOT (SBARQ (WHNP (WP (what)))(SQ (NP (DT (a))(NN (transistor)))))) |ET| 
-0.22716087130140019678670171288104  |BT| (ROOT (SBARQ (WHNP (WP (what)))(SQ (NP (DT (a))(NN (firewall)))))) |ET| 
1  |BT| (ROOT (SBARQ (WHNP (WDT (what))(NN (invention)))(SQ (NP (NP (DT (the))(NN (principle)))(PP (NP (NP (NN (conservation)))(PP (NP (NN (energy)))))))(VP (ADJP (JJ (impossible))))))) |ET| 
1  |BT| (ROOT (S (VP (NP (NP (DT (the))(JJ (soft))(NN (drink)))(SBAR (WHNP (WDT (that)))(S (VP (NP (NP (`` (``))(NN (number))(CD (one)))(PP (NP (DT (the))(NN (sun)))))))))))) |ET| 
1  |BT| (ROOT (S (VP (NP (NP (DT (a))(NN (film)))(SBAR (WHNP (WDT (that)))(S (VP (VP (NP (DT (the))(JJ (golden))(NN (bear)))(PP (NP (DT (the))(NNP (berlin))(NNP (film))(NNP (festival)))))))))))) |ET| 
-0.4057625530354386778064679219824  |BT| (ROOT (S (VP (PP (NP (NP (NN (heroine)))(PP (NP (`` (``))(NNP (scruples))('' (''))))))))) |ET| 
-1  |BT| (ROOT (SBARQ (WHNP (WDT (what))(NN (excuse)))(SQ (NP (DT (the))(NNP (nato))(NNS (people)))(VP (PP (S (VP (NP (DT (the))(JJ (chinese))(NN (embassy)))))))))) |ET| 
-1  |BT| (ROOT (SBARQ (WHADVP (WRB (how)))(SQ (NP (PRP (you)))(VP (NP (NP (NNS (bee)))(SBAR (WHNP (WDT (that)))(S (VP (PP (NP (NP (DT (the))(NNS (wall)))(PP (NP (PRP$ (you))(NN (home)))))))))))))(SQ (NP (NN (bee))(NNS (egg)))(VP (PP (NP (NN (winter))))))) |ET| 
-1  |BT| (ROOT (SBARQ (WHNP (WDT (what))(NN (bread))(NN (company)))(SQ (VP (S (VP (VP (NP (NP (NNS (sticker)))(PP (NP (DT (the))(NNP (cisco))(NNP (kid)))))(PP (NP (NP (DT (the))(NNS (end)))(PP (NP (PRP$ (they))(NNS (package))))))))))))) |ET| 
1  |BT| (ROOT (SBARQ (WHNP (WP (what)))(SQ (NP (DT (a))(JJ (heliologist))(NN (study)))))) |ET| 
1  |BT| (ROOT (SBARQ (WHNP (WP (what)))(SQ (NP (NP (DT (the))(NN (world))(POS ('s)))(ADJP (RBS (most))(JJ (common))))))) |ET| 
1  |BT| (ROOT (SBARQ (WHNP (WP (what)))(SQ (NP (DT (the))(JJ (wolverine))(NNS (habit)))))) |ET| 
-1  |BT| (ROOT (SBARQ (WHNP (WP (what)))(SQ (NP (DT (a))(JJ (common))(NN (dolphin)))))) |ET| 
-0.33883174418391615034806818584912  |BT| (ROOT (SBARQ (WHNP (WP (what)))(SQ (NP (DT (a))(JJ (devo))(NN (hat)))))) |ET| 
-0.8727122982052859523349752635113  |BT| (ROOT (SBARQ (WHNP (WP (what)))(SQ (NP (DT (some))(JJ (mythology))(NNS (website)))))) |ET| 
1  |BT| (ROOT (SBARQ (WHNP (WDT (what))(NN (anesthetic)))(SQ (NP (NNP (queen))(NNP (victoria)))(VP (S (VP (VP (VP (PP (NP (NP (DT (the))(NN (birth)))(PP (NP (PRP$ (she))(JJ (seventh))(NN (child))))))(PP (NP (CD (1853)))))))))))) |ET| 
1  |BT| (ROOT (SBARQ (WHNP (WDT (what))(NNS (animal)))(SQ (VP (PP (NP (NP (NNS (lapwarmer)))(PP (NP (NP (JJ (american))(NNS (colonist)))(PP (NP (NN (church)))))))))))) |ET| 
1  |BT| (ROOT (SBARQ (WHNP (WDT (what))(JJ (fast))(NN (food)))(SQ (VP (PP (NP (NP (NP (DT (a))(`` (``))(NN (secret)))(NP (VB (blend))))(PP (NP (NP (CD (11))(NNS (herb)))(NP (NNS (spice))))))))))) |ET| 
-0.36381959892036896953015912004048  |BT| (ROOT (SBARQ (WHNP (WP (what)))(SQ (NP (NNP (n))(JJ (est-ce))(NN (pa)))(VP (VB (mean)))))) |ET| 
-0.71435738908815726855294769848115  |BT| (ROOT (SBARQ (WHNP (WDT (what))(NN (day)))(SQ (VP (PP (NP (NP (DT (the))(`` (``))(JJ (national))(NN (day)))(PP (NP (NN (prayer))('' ('')))))))))) |ET| 
-0.050653809534796125080280404517907  |BT| (ROOT (SBARQ (WHNP (WDT (what))(NN (river)))(SQ (VP (PP (NP (NP (DT (the))(NNP (temple)))(PP (NP (NNP (karnak)))))))))) |ET| 
1  |BT| (ROOT (SBARQ (WHNP (WP (what)))(SQ (NP (DT (a))(JJ (phobophobe))(NN (fear)))))) |ET| 
1  |BT| (ROOT (SBARQ (WHNP (WP (what)))(SQ (NP (DT (the))(JJ (second-lightest))(NN (element)))))) |ET| 
1  |BT| (ROOT (SBARQ (WHNP (WP (what)))(SQ (NP (DT (a))(JJ (topophobic))(NN (actor)))(VP (PP (IN (from))))))) |ET| 
-0.24945665554103468863900161522906  |BT| (ROOT (SBARQ (WHNP (WP (what)))(SQ (NP (DT (a))(JJ (annotated))(NN (bibliography)))))) |ET| 
-0.27782451360525267647361147282936  |BT| (ROOT (SBARQ (WHNP (WP (what)))(SQ (NP (DT (a))(JJ (green))(NN (bog)))))) |ET| 
-0.1933290807598859184501804975298  |BT| (ROOT (SBARQ (WHNP (WP (what)))(SQ (NP (DT (a))(JJ (jellicle))(NN (cat)))))) |ET| 
1  |BT| (ROOT (SBARQ (WHNP (WDT (what))(NN (book)))(SQ (VP (NP (NP (DT (the))(NN (preservation)))(PP (NP (NNP (favoured))(NN (race)))))(PP (NP (NP (DT (the))(NN (struggle)))(PP (NP (NNP (life)))))))))) |ET| 
1  |BT| (ROOT (SBARQ (WHNP (WDT (what))(NN (feud)))(SQ (VP (PP (NP (NP (DT (a))(NN (marriage)))(PP (NP (NNP (kentucky))))))(PP (NP (NNP (march))(CD (21))(, (,))(CD (1891)))))))) |ET| 
1  |BT| (ROOT (SBARQ (WHNP (WDT (what))(NN (money)))(SQ (VP (PP (NP (PRP (they)))))))) |ET| 
-1  |BT| (ROOT (SBARQ (WHNP (WDT (what))(NN (title)))(SQ (NP (NNP (suzette))(NNP (charles)))(VP (PP (NP (CD (two))(NNS (month))))(PP (NP (CD (1984)))))))) |ET| 
-1  |BT| (ROOT (SBARQ (WHNP (WDT (what))(NN (gate)))(SQ (VP (PP (NP (NP (NNP (east)))(NP (NNP (west))(NNP (berlin))))))))) |ET| 
-1  |BT| (ROOT (SBARQ (WHNP (WDT (what))(NN (woman)))(SQ (VP (NP (NP (DT (the))(RBS (most))(JJ (multiple))(NNS (birth)))(NP (NP (NNS (twin)))(NP (NNS (triplet))))))))) |ET| 
1  |BT| (ROOT (SBARQ (WHNP (WP (what)))(SQ (NP (DT (the))(NNP (u.s.))(NNP (navy))(NN (hymn)))))) |ET| 
1  |BT| (ROOT (SBARQ (WHNP (WP (what)))(SQ (NP (DT (the))(JJS (rarest))(NN (coin)))))) |ET| 
1  |BT| (ROOT (SBARQ (WHNP (WP (what)))(SQ (NP (DT (the))(JJS (worst))(NN (hurricane)))))) |ET| 
-0.84765290259600367672732090795762  |BT| (ROOT (SBARQ (WHNP (WP (what)))(SQ (NP (DT (the))(JJS (highest))(NN (continent)))))) |ET| 
-0.64001692288566758293200109619647  |BT| (ROOT (SBARQ (WHNP (WP (what)))(SQ (NP (DT (the))(JJS (tallest))(NN (mountain)))))) |ET| 
-1  |BT| (ROOT (SBARQ (WHNP (WP (what)))(SQ (NP (DT (the))(JJS (oldest))(NN (profession)))))) |ET| 
1  |BT| (ROOT (SBARQ (WHNP (WDT (what))(NNP (michelangelo))(NN (sculpture)))(SQ (VP (PP (NP (NP (NP (NNP (saint))(NNP (peter))(POS ('s))))(NP (NN (basilica))))))))) |ET| 
1  |BT| (ROOT (SBARQ (WHNP (WDT (what))(JJ (then-derogatory))(NN (term)))(SQ (VP (PP (NP (NP (DT (the))(NNS (painter)))(NP (NP (NNP (monet)))(NP (NNP (sisley)))(NP (NNP (pissarro)))(NP (NNP (renoir)))(NP (NNP (degas)))))))))) |ET| 
1  |BT| (ROOT (SBARQ (WHNP (WDT (what))(NN (fastener)))(SQ (NP (NNP (whitcomb))(NNP (judson)))(VP (PP (NP (CD (1893)))))))) |ET| 
-1  |BT| (ROOT (SBARQ (WHNP (WDT (what))(NNP (honeymooners))(NN (actress)))(SQ (NP (NNP (television))(NN (magazine)))(VP (PP (NP (NP (CD (1953))(POS ('s)))(ADJP (RBS (most))(JJ (promising))))))))) |ET| 
-1  |BT| (ROOT (SBARQ (WHNP (WDT (what))(JJ (first))(NN (name)))(SQ (NP (NNP (nipsy))(NNP (russell)))(VP (PP (NP (NN (birth)))))))) |ET| 
-1  |BT| (ROOT (SBARQ (WHNP (WDT (what))(NNS (effect)))(SQ (NP (NNS (nitrate)))(VP (PP (NP (DT (the))(NN (environment)))))))) |ET| 
1  |BT| (ROOT (SBARQ (WHNP (WP (what)))(SQ (NP (NP (DT (the))(JJS (tallest))(NN (piece)))(PP (NP (DT (a))(NN (chessboard)))))))) |ET| 
1  |BT| (ROOT (SBARQ (WHNP (WP (what)))(SQ (NP (DT (the))(JJS (fastest))(NN (computer)))))) |ET| 
1  |BT| (ROOT (SBARQ (WHNP (WP (what)))(SQ (NP (DT (the))(JJ (second))(JJS (hardest))(NN (substance)))))) |ET| 
-0.69059323510104553278665662219282  |BT| (ROOT (SBARQ (WHNP (WP (what)))(SQ (NP (NP (DT (the))(NN (acreage)))(PP (NP (DT (the))(NNP (chappellet))(NN (vineyard)))))))) |ET| 
-0.46080734632287845276010784800746  |BT| (ROOT (SBARQ (WHNP (WP (what)))(SQ (NP (NP (DT (the))(NN (website)))(PP (NP (DT (the))(NNP (usa))(NN (journal)))))))) |ET| 
-0.66380586085978221522196918158443  |BT| (ROOT (SBARQ (WHNP (WP (what)))(SQ (NP (NP (DT (the))(NN (effect)))(PP (NP (DT (the))(NNP (yalta))(NN (conference)))))))) |ET| 
1  |BT| (ROOT (SBARQ (WHNP (WDT (what))(NN (cocktail)))(SQ (NP (PRP (you)))(VP (PP (NP (NP (NN (whisky)))(NP (JJ (sweet))(NN (vermouth))))))))) |ET| 
1  |BT| (ROOT (SBARQ (WHNP (WDT (what))(NN (movie)))(SQ (NP (NNP (steven))(NNP (spielberg)))(VP (PP (NP (CD (1975)))))))) |ET| 
1  |BT| (ROOT (SBARQ (WHNP (WDT (what))(NN (wheel)))(SQ (NP (NNP (blaise))(NNP (pascal)))(VP (PP (NP (NP (DT (a))(NN (search)))(PP (NP (JJ (perpetual))(NN (motion)))))))))) |ET| 
-1  |BT| (ROOT (SBARQ (WHNP (WDT (what))(NN (effect)))(SQ (NP (NN (friction)))(VP (PP (NP (JJ (perpetual))(NN (motion)))))))) |ET| 
-0.68977093358925867239150875320775  |BT| (ROOT (SBARQ (WHNP (WDT (what))(NN (prison)))(SQ (VP (PP (NP (NP (NNP (ossining)))(NP (NNP (new))(NNP (york))))))))) |ET| 
-1  |BT| (ROOT (SBARQ (WHNP (WDT (what))(NN (day)))(SQ (NP (NNP (pearl))(NNP (harbor)))(VP (PP (NP (CD (1942)))))))) |ET| 
1  |BT| (ROOT (SBARQ (WHNP (WP (what)))(SQ (NP (NP (DT (the))(NN (name)))(PP (NP (DT (the))(NNP (tampa))(NN (newspaper)))))))) |ET| 
1  |BT| (ROOT (SBARQ (WHNP (WP (what)))(SQ (NP (NP (DT (the))(NN (sequel)))(PP (NP (DT (the))(NNP (pink))(NN (panther)))))))) |ET| 
1  |BT| (ROOT (SBARQ (WHNP (WP (what)))(SQ (NP (NP (DT (the))(NN (species)))(PP (NP (NNP (winnie))(DT (the))(NNP (pooh)))))))) |ET| 
-0.99290847754598343666287973974249  |BT| (ROOT (SBARQ (WHNP (WP (what)))(SQ (NP (NP (DT (the))(NN (name)))(PP (NP (NP (DT (the))(NN (star)))(PP (NP (NP (DT (the))(JJ (cooking))(NN (show)))(NP (NNP (galloping))(NNP (gourmet))))))))))) |ET| 
-1  |BT| (ROOT (SBARQ (WHNP (WP (what)))(SQ (NP (NP (ADJP (JJS (fastest))(VBG (grow))))(PP (NP (NP (DT (the))(NN (u.s.a.)))(PP (NP (CD (1998)))))))))) |ET| 
-1  |BT| (ROOT (SBARQ (WHNP (WP (what)))(SQ (NP (NP (DT (the))(NN (name)))(PP (NP (NP (DT (the))(VBG (manage))(NN (director)))(PP (NP (NNP (apricot))(NNP (computer)))))))))) |ET| 
1  |BT| (ROOT (SBARQ (WHNP (WDT (what))(CD (two))(NNS (vegetable)))(SQ (VP (PP (NP (NN (succotash)))))))) |ET| 
1  |BT| (ROOT (SBARQ (WHNP (WDT (what))(NN (flag)))(SQ (VP (PP (NP (NNP (wake))(NNP (island)))))))) |ET| 
1  |BT| (ROOT (SBARQ (WHNP (WDT (what))(NN (device)))(SQ (VP (NP (S (VP (VP (PP (NP (NN (music))))))))(PP (NP (CD (1963)))))))) |ET| 
-1  |BT| (ROOT (SBARQ (WHNP (WDT (what))(NN (president)))(SQ (VP (PP (NP (NNP (charles))(NNP (j.))(NNP (guiteau)))))))) |ET| 
-1  |BT| (ROOT (SBARQ (WHNP (WDT (what))(NN (river)))(SQ (VP (PP (NP (NNP (liverpool)))))))) |ET| 
1  |BT| (ROOT (SBARQ (WHNP (WP (what)))(SQ (NP (NP (DT (the))(NN (name)))(PP (NP (NP (NNP (sergeant))(NNP (preston)))(PP (NP (NP (DT (the))(NNP (yukon))(POS ('s))))))))))) |ET| 
1  |BT| (ROOT (SBARQ (WHNP (WP (what)))(SQ (NP (NP (DT (the))(NN (name)))(PP (NP (NP (DT (a))(NN (golf))(NN (course)))(PP (NP (NNP (myrtle))(NNP (beach)))))))))) |ET| 
1  |BT| (ROOT (SBARQ (WHNP (WP (what)))(SQ (NP (NP (DT (the))(NN (name)))(PP (NP (NP (DT (the))(JJS (largest))(NN (water))(NN (conservancy))(NN (project)))(PP (NP (NNP (china)))))))))) |ET| 
1  |BT| (ROOT (SBARQ (WHNP (WP (what)))(SQ (NP (DT (a))(NN (pedometer)))(VP (VB (measure)))))) |ET| 
1  |BT| (ROOT (SBARQ (WHNP (WP (what)))(SQ (NP (NP (DT (the))(NN (method)))(VP (S (NP (JJ (cold))(NN (fusion))))))(VP (VB (create)))))) |ET| 
1  |BT| (ROOT (SBARQ (WHNP (WDT (what))(NN (color)))(SQ (ADJP (PP (NP (DT (the))(NN (staff)))))(PP (NP (NP (NNP (belgium))(POS ('s)))))))) |ET| 
-0.18291592997868927339411015964288  |BT| (ROOT (SBARQ (WHNP (WP (who)))(SQ (NP (DT (the)))(VP (PP (NP (NP (DT (the))(NN (trial)))(PP (NP (NP (DT (the))(NNP (century)))(SBAR (WHNP (WDT (which)))(S (VP (NP (NNP (janurary))(CD (1))(, (,))(CD (1935)))))))))))))) |ET| 
-0.12183747644425224621045344974846  |BT| (ROOT (SBARQ (WHNP (WHNP (WDT (what))(NN (continent))(POS ('s)))(NP (JJ (second-highest))(NN (peak))))(SQ (NP (NNP (mont))(NNP (blanc)))))) |ET| 
1  |BT| (ROOT (SBARQ (WHNP (WP (what)))(SQ (NP (ADJP (RBS (most))(RB (widely))(VBN (cultivate))))))) |ET| 
1  |BT| (ROOT (SBARQ (WHNP (WDT (what))(JJ (caribbean))(NN (cult)))(SQ (NP (NNP (marcus))(NNP (garvey)))(VP (VB (originate)))))) |ET| 
1  |BT| (ROOT (SBARQ (WHNP (WP (what)))(SQ (NP (NP (DT (the))(NN (name)))(PP (NP (NP (DT (the))(NN (game)))(SBAR (S (NP (NNP (garry))(NNP (kasparov)))(VP (VBZ (play))))))))))) |ET| 
-1  |BT| (ROOT (SBARQ (WHNP (WP (what)))(SQ (NP (DT (a))(NN (water)))(VP (VB (funnel)))))) |ET| 
-1  |BT| (ROOT (SBARQ (WHNP (WP (what)))(SQ (NP (NP (DT (the))(NN (name)))(PP (NP (NP (DT (the))(JJ (deranged))(NN (super-criminal)))(SBAR (S (NP (NNP (otto))(NNP (octavius)))(VP (VBZ (use))))))))))) |ET| 
-1  |BT| (ROOT (SBARQ (WHNP (WP (what)))(SQ (NP (NP (DT (the))(NN (name)))(PP (NP (NNP (miss))(NNP (india))(CD (1994)))))))) |ET| 
1  |BT| (ROOT (SBARQ (WHADVP (WRB (how)))(SQ (NP (PRP (you)))(VP (NP (CD (2)))(PP (NP (NNP (latin)))))))) |ET| 
1  |BT| (ROOT (SBARQ (WHNP (NP (NP (NNS (holiday)))(NP (NNS (observance)))))(SQ (VP (PP (NP (NNP (italy)))))))) |ET| 
1  |BT| (ROOT (SBARQ (WHNP (WDT (what))(NN (currency)))(SQ (VP (PP (NP (NNP (australia)))))))) |ET| 
-1  |BT| (ROOT (SBARQ (WHNP (WDT (what))(NN (river)))(SQ (VP (PP (NP (NNP (liverpool)))))))) |ET| 
-0.3876354520019513194561966429319  |BT| (ROOT (SBARQ (WHNP (WDT (what))(JJ (famous))(NN (soldier)))(SQ (VP (VP (VP (PP (NP (NNP (europe))))))(VP (PP (NP (NNP (asia)))))(VP (VP (S (VP (VP (PP (NP (NNP (africa))))))))))))) |ET| 
-1  |BT| (ROOT (SBARQ (WHNP (WP (what)))(SQ (VP (PP (NP (DT (the))(NN (spice))(NN (island)))))))) |ET| 
-0.21130700142310560041281064513896  |BT| (ROOT (SBARQ (WHNP (WDT (what))(JJ (mustachioed))(NN (comedian)))(SQ (VP (NP (NNP (frankie)))(PP (NP (NNP (north))))(PP (NP (NNP (alaska)))))))) |ET| 
1  |BT| (ROOT (SBARQ (WHNP (WP (what)))(SQ (NP (NP (DT (some))(NNS (tip)))(PP (S (VP (NP (NP (DT (a))(NN (fire)))(PP (NP (DT (a))(NN (fireplace)))))))))))) |ET| 
1  |BT| (ROOT (SBARQ (WHNP (WP (what)))(SQ (NP (NP (DT (the))(JJ (geographic))(NN (term)))(PP (NP (NP (DT (the))(JJ (submerged))(NN (fringe)))(PP (NP (DT (a))(NN (continent)))))))))) |ET| 
1  |BT| (ROOT (SBARQ (WHNP (WP (what)))(SQ (NP (NP (DT (the))(NN (name)))(PP (NP (DT (the))(JJ (jewish))(NN (alphabet)))))))) |ET| 
-1  |BT| (ROOT (SBARQ (WHNP (WP (what)))(SQ (NP (NP (DT (the))(JJ (medical))(NN (condition)))(PP (NP (NN (hypertension)))))))) |ET| 
-1  |BT| (ROOT (SBARQ (WHNP (WP (what)))(SQ (NP (NP (DT (the))(JJ (starting))(NN (salary)))(PP (NP (DT (a))(NN (radiographer)))))))) |ET| 
-0.067283055568865574036507837263343  |BT| (ROOT (SBARQ (WHNP (WP (what)))(SQ (ADJP (JJ (yohimbine)))))) |ET| 
1  |BT| (ROOT (SBARQ (WHNP (WDT (what))(NN (gender)))(SQ (ADVP (RB (not)))(VP (S (VP (VP (PP (NP (NNP (kuwait))))))))))) |ET| 
1  |BT| (ROOT (SBARQ (WHNP (WDT (what))(JJ (shape-shifting))(NN (menace)))(SQ (NP (NNP (rom)))(VP (PP (NP (NNP (earth))))(S (VP (VP (VB (fight))))))))) |ET| 
1  |BT| (ROOT (SBARQ (WHNP (WDT (what))(NNS (predator)))(SQ (PP (NP (NNP (antarctica))))))) |ET| 
-0.35553668250791964355883578718931  |BT| (ROOT (SBARQ (WHADVP (WRB (how))(RB (long)))(SQ (NP (PRP (you)))(VP (S (VP (VP (PP (NP (DT (a))(NN (community))))(S (VP (VP (VB (vote)))))))))))) |ET| 
-1  |BT| (ROOT (SBARQ (WHNP (WDT (what))(NN (tv))(NN (family)))(SQ (ADVP (RB (sometimes)))(VP (NP (NNS (eclair)))(PP (NP (NP (NNP (nelson))(POS ('s))))))))) |ET| 
-1  |BT| (ROOT (SBARQ (WHNP (WP (what)))(SQ (NP (PRP (you)))(VP (S (VP (VP (NP (DT (a))(NN (taxi)))(PP (NP (NNP (madrid))))))))))) |ET| 
1  |BT| (ROOT (SBARQ (WHNP (WP (what)))(SQ (NP (NP (DT (the))(JJ (sister))(NN (ship)))(PP (NP (DT (the))(NNP (olympic)))))))) |ET| 
1  |BT| (ROOT (SBARQ (WHNP (WP (what)))(SQ (NP (NP (DT (the))(JJ (main))(NN (vegetable)))(PP (NP (NN (vichyssoise)))))))) |ET| 
1  |BT| (ROOT (SBARQ (WHNP (WP (what)))(SQ (NP (NP (DT (the))(JJ (main))(NN (ingredient)))(PP (NP (NN (yogurt)))))))) |ET| 
-1  |BT| (ROOT (SBARQ (WHNP (WP (what)))(SQ (NP (NP (DT (the))(JJ (vdrl))(NN (test)))(PP (NP (NN (blood)))))))) |ET| 
-1  |BT| (ROOT (SBARQ (WHNP (WP (what)))(SQ (NP (NP (DT (the))(JJ (main))(NN (application)))(PP (NP (NN (sodium))(NN (hydrosulfite)))))))) |ET| 
-1  |BT| (ROOT (SBARQ (WHNP (WP (what)))(SQ (NP (NP (DT (the))(JJ (previous))(NN (name)))(PP (NP (DT (the))(NNP (commonwealth)))))))) |ET| 
1  |BT| (ROOT (SBARQ (WHNP (WDT (what))(NNP (leoncavallo))(NN (opera)))(SQ (NP (DT (a))(NN (prologue)))(PP (NP (DT (a))(NN (clown))))))) |ET| 
1  |BT| (ROOT (S (VP (NP (DT (the))(NN (story)))(PP (NP (NP (NNP (chris))(NNP (van))(NNP (allsburg)))(PP (NP (DT (the))))(SBAR (WHNP (WDT (which)))(S (NP (DT (a))(NN (boy)))(VP (S (VP (VP (NP (DT (a))(JJ (great))(NN (sailor)))))))))))))) |ET| 
1  |BT| (ROOT (SBARQ (WHNP (WDT (what))(NN (blood))(NN (sport)))(SQ (NP (DT (a))(NN (movement)))(VP (NP (DT (a))(NN (veronica))))))) |ET| 
-1  |BT| (ROOT (SBARQ (WHNP (NP (ADJP (JJ (wild))(CC (and))(JJ (crazy)))))(SQ (NP (DT (a))(NN (book)))(VP (NP (NNP (cruel))(NNP (shoes))))))) |ET| 
-1  |BT| (ROOT (SBARQ (WHNP (WDT (what))(NN (island))(NN (group)))(SQ (NP (NNP (guadalcanal)))(NP (NP (DT (a))(NN (part)))(PP (IN (of))))))) |ET| 
-1  |BT| (ROOT (SBARQ (WHNP (WDT (what))(NN (party)))(SQ (NP (NNP (winston))(NNP (churchill)))(NP (NP (DT (a))(NN (member)))(PP (IN (of))))))) |ET| 
1  |BT| (ROOT (SBARQ (WHNP (WP (what)))(SQ (NP (NP (DT (the))(JJ (common))(NN (name)))(PP (NP (JJ (acetylsalicylic))(NN (acid)))))))) |ET| 
1  |BT| (ROOT (SBARQ (WHNP (WP (what)))(SQ (NP (NP (DT (the))(JJ (former))(NN (name)))(PP (NP (NNP (zimbabwe)))))))) |ET| 
1  |BT| (ROOT (SBARQ (WHNP (WP (what)))(SQ (NP (NP (DT (the))(JJ (celtic))(NN (symbol)))(PP (NP (`` (``))(NN (life))('' ('')))))))) |ET| 
-0.97490570309350366162703949157731  |BT| (ROOT (SBARQ (WHNP (WP (what)))(SQ (NP (NP (DT (the))(JJ (seafaring))(NN (name)))(PP (NP (NP (DT (the))(JJ (southern))(NN (tip)))(PP (NP (NNP (south))(NNP (america)))))))))) |ET| 
-0.10347456621398717913073994623119  |BT| (ROOT (SBARQ (WHADVP (WRB (where)))(SQ (NP (NP (NNP (hearst))(NN (castle)))(VP (PP (NP (NN (publisher))(NNP (william))(NNP (randolph))(NNP (hearst))))))))) |ET| 
-1  |BT| (ROOT (SBARQ (WHNP (WP (what)))(SQ (NP (NP (DT (the))(JJ (full))(NN (name)))(PP (NP (DT (the))(NNP (plo)))))))) |ET| 
1  |BT| (ROOT (SBARQ (WHNP (WDT (what))(JJ (four-legged))(NN (creature)))(SQ (NP (DT (a))(NNP (cornell))(NNP (university))(NN (study)))(VP (VP (VP (NP (NP (NN (man))(POS ('s))))(PP (NP (NN (space)))))))))) |ET| 
1  |BT| (ROOT (SBARQ (WHPP (WHNP (WDT (what))(NN (t.v.))(NN (show))))(SQ (NP (NNP (tom))(NNP (terrific)))(VP (VP (VBN (find))))))) |ET| 
1  |BT| (ROOT (SBARQ (WHNP (WDT (what))(NNS (sport))(NN (event)))(SQ (NP (NNP (meyer))(NNP (wolfsheim)))(VP (S (VP (VP (VP (PP (NP (DT (the))(NNP (great))(NNP (gatsby)))))))))))) |ET| 
-1  |BT| (ROOT (SBARQ (WHNP (WDT (what))(NNS (step)))(SQ (VP (VP (VP (S (VP (VP (NP (NN (diabetes)))))))))))) |ET| 
-1  |BT| (ROOT (SBARQ (WHNP (WDT (what))(NNS (qualification)))(SQ (NP (EX (there)))(PP (NP (NP (NNS (individual)))(VP (NP (NN (blood))))))))) |ET| 
-0.5012114471542891136479624947242  |BT| (ROOT (SBARQ (WHNP (WDT (what))(NNP (mormon))(NN (leader)))(SQ (VP (S (VP (VP (VP (NP (CD (27))(NNS (wife))))))))))) |ET| 
1  |BT| (ROOT (SBARQ (WHNP (WP (what)))(SQ (NP (NP (DT (the))(JJ (full))(NN (classification)))(PP (NP (DT (a))(NN (lady))(NN (bug)))))))) |ET| 
1  |BT| (ROOT (SBARQ (WHNP (WP (what)))(SQ (NP (NNP (chiricahua)))(NP (NP (DT (the))(NN (name)))(PP (IN (of))))))) |ET| 
1  |BT| (ROOT (SBARQ (WHNP (WP (what)))(SQ (NP (NP (DT (the))(JJ (first))(NN (book)))(PP (NP (DT (the))(JJ (old))(NN (testament)))))))) |ET| 
-0.4143792391204689784522940954048  |BT| (ROOT (SBARQ (WHNP (WP (what)))(SQ (NP (NP (DT (the))(NN (purpose)))(PP (NP (DT (a))(NN (car))(NN (bra)))))))) |ET| 
-1  |BT| (ROOT (SBARQ (WHNP (WP (what)))(SQ (NP (NP (DT (the))(NN (role)))(PP (NP (DT (the))(JJ (medieval))(NN (guild)))))))) |ET| 
-0.38036548792020813403169654520752  |BT| (ROOT (SBARQ (WHNP (WP (what)))(SQ (NP (NP (DT (the))(NN (capital)))(PP (NP (NNP (italy)))))))) |ET| 
1  |BT| (ROOT (SBARQ (WHNP (WDT (what))(NN (handicraft)))(SQ (VP (S (NP (PRP (you)))(VP (VP (NP (PRP$ (you))(NN (warp))(CC (and))(NN (weft)))))))))) |ET| 
1  |BT| (ROOT (SBARQ (WHNP (WDT (what))(NN (bird)))(SQ (VP (VP (VP (VBP (swim))))(VP (S (VP (NP (NN (t))(NN (fly)))))))))) |ET| 
0.60993154637444157994963234159513  |BT| (ROOT (SBARQ (WHNP (WDT (what))(NN (animal)))(SQ (VP (VP (NP (DT (the))(JJS (most))(NNS (people)))))))) |ET| 
-1  |BT| (ROOT (SBARQ (WHNP (WDT (what))(NN (poet)))(SQ (VP (S (NP (PRP (i)))(VP (NP (NP (S (VP (VP (VB (keep))))))(NP (S (VP (VP (SBAR (S (NP (PRP (i)))(VP (VBP (sleep))('' ('')))))))))))))))) |ET| 
-1  |BT| (ROOT (SBARQ (WHNP (WDT (what))(NN (direction)))(SQ (NP (DT (the))(JJS (best))(JJ (surfing))(NNS (beach)))(VP (VB (face)))))) |ET| 
-1  |BT| (ROOT (SBARQ (WHNP (WDT (what))(NN (jockey)))(SQ (VP (NP (CD (17))(JJ (triple))(NN (crown))(NNS (race))))))) |ET| 
1  |BT| (ROOT (SBARQ (WHNP (WP (what)))(SQ (NP (NP (DT (the))(NN (sequel)))(PP (NP (NP (NP (NNP (alice))(POS ('s))))(PP (NP (NNP (wonderland)))))))))) |ET| 
1  |BT| (ROOT (SBARQ (WHNP (WP (what)))(SQ (NP (NP (DT (the))(NN (connection)))(PP (NP (NNP (new))(NNP (krypton))(CC (and))(NNP (daxam)))))))) |ET| 
1  |BT| (ROOT (SBARQ (WHNP (WP (what)))(SQ (NP (NP (DT (the))(NN (mascot)))(PP (NP (NNP (notre))(NNP (dame))(NNP (university)))))))) |ET| 
-1  |BT| (ROOT (SBARQ (WHNP (WP (what)))(SQ (NP (NP (DT (the))(NN (name)))(PP (NP (NP (DT (the))(JJ (brilliant))(JJ (british))(NN (economist)))(PP (NP (PRP$ (its))(NN (creation)))))))))) |ET| 
-1  |BT| (ROOT (SBARQ (WHNP (WP (what)))(SQ (NP (NP (DT (the))(NN (name)))(PP (NP (NP (NP (NNP (randy))(NNP (steven))(NNP (craft)))))))))) |ET| 
-0.054742786620775592265619735599103  |BT| (ROOT (SBARQ (WHNP (WP (what)))(SQ (NP (NP (DT (the))(NN (acronym)))(PP (NP (NP (DT (the))(NN (rating))(NN (system)))(PP (NP (NN (air))(NN (conditioner))(NN (efficiency)))))))))) |ET| 
1  |BT| (ROOT (SBARQ (WHNP (WDT (what))(NN (beer)))(SQ (VP (SBAR (S (NP (PRP (it)))(VP (NP (`` (``))(CD (three))(NNS (ring))('' ('')))))))))) |ET| 
1  |BT| (ROOT (SBARQ (WHNP (WDT (what))(NN (spider)))(SQ (VP (NP (NP (DT (a))(JJ (superb))(NN (pet)))(SBAR (S (ADVP (RB (even)))(VP (S (VP (VP (NP (PRP$ (its))(NN (master)))))))))))))) |ET| 
