SVM-light Version V5.01-TK-1.5
5 # kernel type
3 # kernel parameter -d 
1 # kernel parameter -g 
1 # kernel parameter -s 
1 # kernel parameter -r 
empty# kernel parameter -u 
0.4 # kernel parameter -L 
1 # kernel parameter -T 
T # kernel parameter -C 
1 # kernel parameter -F 
1 # kernel parameter -S 
0.400000 # kernel parameter -M 
3 # kernel parameter -N 
S # kernel parameter -V 
S # kernel parameter -W 
0 # kernel parameter -U 
10 # highest feature index 
5452 # number of training documents 
1951 # number of support vectors plus 1 
0.42883503 # threshold b, each following line is a SV (starting with alpha*y)
-0.57550864076323604567875236170948  |BT| (ROOT (SBARQ (WHNP (WDT (what))(JJ (russian))(NN (seaport)))(SQ (NP (NP (DT (a))(NN (name)))(VP (NP (NP (NN (lord)))(PP (NP (DT (the))(NNP (east)))))))))) |ET| 
-1  |BT| (ROOT (SBARQ (WHNP (WDT (what))(NNS (film)))(SQ (NP (DT (the))(NN (character))(NNP (popeye))(NNP (doyle)))))) |ET| 
1  |BT| (ROOT (SBARQ (WHNP (WDT (what))(JJ (knighted))(NN (actor)))(SQ (NP (NP (NP (NNP (tv))(POS ('s)))(NX (DT (the))(NN (world))))(PP (NP (NNP (war)))))))) |ET| 
-0.96758213810659465803354351010057  |BT| (ROOT (SBARQ (WHNP (WDT (what))(NN (fowl)))(SQ (VP (NP (DT (the))(NN (spotlight)))(PP (NP (NP (DT (the))(JJ (chinese))(NN (year)))(PP (NP (DT (the))(NN (monkey)))))))))) |ET| 
-0.050841166658528273714079404044242  |BT| (ROOT (SBARQ (WHNP (NP (PP (NP (NNS (species))))))(SQ (NP (NP (DT (the))(NN (monster)))(PP (NP (DT (the))(NN (film))(`` (``))(NNP (jaws))('' ('')))))))) |ET| 
1  |BT| (ROOT (SBARQ (WHNP (WDT (what))(JJ (contemptible))(NN (scoundrel)))(SQ (VP (NP (DT (the))(NN (cork)))(PP (NP (PRP$ (my))(NN (lunch)))))))) |ET| 
1  |BT| (ROOT (SBARQ (WHNP (WDT (what))(NN (team)))(SQ (NP (NP (NN (baseball))(POS ('s))))(VP (VB (become)))))) |ET| 
1  |BT| (ROOT (SBARQ (WHNP (WP (what)))(SQ (NP (DT (the))(JJS (oldest))(NN (profession)))))) |ET| 
1  |BT| (ROOT (S (VP (NP (NP (DT (the))(JJ (scar-faced))(NN (bounty))(NN (hunter)))(PP (NP (DT (the))(JJ (old))(NNP (west)))))))) |ET| 
-0.49202932904325652474497587718361  |BT| (ROOT (SBARQ (WHNP (WDT (what))(NNS (shrub)))(SQ (VP (VP (VP (SBAR (S (VP (VP (ADJP (JJ (safe)))(PP (NP (NNS (deer)))))))))))))) |ET| 
0.93834236495325940019540666980902  |BT| (ROOT (S (VP (NP (NP (DT (the))(NN (lawyer)))(PP (NP (NNP (randy))(NNP (craft)))))))) |ET| 
-0.53538515309845036149738461972447  |BT| (ROOT (SBARQ (WHNP (WP (what)))(SQ (VP (NP (ADJP (FW (coup))(FW (de))))(PP (NP (DT (a))(JJ (french))(NN (boxer)))))))) |ET| 
0.30566240227415103491992454110004  |BT| (ROOT (SBARQ (WHNP (WDT (what))(JJ (2th-century))(JJ (fictional))(NN (character)))(SQ (NP (NNP (pencey))(NNP (prep))(NNP (school)))))) |ET| 
1  |BT| (ROOT (SBARQ (WHNP (NP (NN (girl))(POS ('s))))(SQ (NP (`` (``))(NNP (teddy))('' ('')))(NP (NP (DT (a))(JJ (affectionate))(NN (form)))(PP (IN (of))))))) |ET| 
1  |BT| (ROOT (S (SBAR (WHADVP (WRB (when)))(S (VP (PRT (RP (upon)))(S (VP (VP (VB (surrender))))))))(X (WP (what)))(NP (JJ (american))(NN (general)))(VP (S (ADVP (NNP (sir)))(NP (PRP (i)))(VP (ADVP (RB (yet)))(VP (S (VP (VP (VB (fight))))))))))(INTJ (UH (?)))) |ET| 
1  |BT| (ROOT (SBARQ (WHNP (WDT (what))(NN (party)))(SQ (NP (NNP (winston))(NNP (churchill)))(NP (NP (DT (a))(NN (member)))(PP (IN (of))))))) |ET| 
-0.67091840081918430183094415042433  |BT| (ROOT (SBARQ (WHNP (WDT (what))(NN (country)))(SQ (NP (NNP (mikhail))(NNP (gorbachev)))(NP (NP (DT (the))(NN (leader)))(PP (IN (of))))))) |ET| 
-0.73669571130902444799914974282729  |BT| (ROOT (SBARQ (WHNP (WDT (what))(NN (country)))(SQ (NP (NNP (erich))(NNP (honecker)))(NP (NP (DT (the))(NN (leader)))(PP (IN (of))))))) |ET| 
-0.8114737415961275068809754884569  |BT| (ROOT (SBARQ (WHNP (WDT (what))(NN (century)))(SQ (NP (NP (NN (art))(POS ('s))))(VP (PP (IN (in))))))) |ET| 
0.66809388747401055042018924723379  |BT| (ROOT (SBARQ (WHNP (WP (who)))(SQ (VP (PP (NP (NP (DT (the))(NNP (chicago))(NNPS (bears)))(NP (NNP (houston))(NNPS (oilers)))(NP (NNP (oakland))(NNPS (raiders)))))(PP (NP (DT (a))(JJ (26-year))(JJ (pro))(NN (football))(NN (career)))))))) |ET| 
1  |BT| (ROOT (SBARQ (WHNP (WP (what)))(SQ (NP (ADJP (RBS (most))(JJ (common))))))) |ET| 
1  |BT| (ROOT (SBARQ (WHNP (WP (what)))(SQ (NP (ADJP (RBS (most))(JJ (popular))))))) |ET| 
0.0058472375202963050924709342837104  |BT| (ROOT (SBARQ (WHNP (WP (who)))(SQ (NP (NNP (humpty))(NNP (dumpty)))(PP (NP (NP (NP (DT (the))(CD (1933))(NN (film)))(NP (NNP (alice))))(PP (NP (NNP (wonderland))))))))) |ET| 
-1  |BT| (ROOT (SBARQ (WHNP (WP (what)))(SQ (NP (ADJP (RBS (most))(JJ (common))))))) |ET| 
-0.29454442766828919930688357453619  |BT| (ROOT (SBARQ (WHNP (WP (what)))(SQ (NP (ADJP (RBS (most))(JJ (radioactive))))))) |ET| 
1  |BT| (ROOT (SBARQ (WHNP (WDT (what))(NN (corporation)))(SQ (NP (NNP (madonna)))(VP (PP (IN (for))))))) |ET| 
1  |BT| (ROOT (SBARQ (WHNP (WDT (what))(NN (university)))(SQ (NP (NNP (woodrow))(NNP (wilson)))(NP (NP (NNP (president)))(PP (IN (of))))))) |ET| 
-0.4729964070731392244972823846183  |BT| (ROOT (SBARQ (WHNP (WDT (what))(NN (meter)))(SQ (NP (NNP (shakespeare)))(VP (PP (S (VP (S (VP (VP (VP (VB (be))))(VP (VP (SBAR (S (VP (NP (DT (the))(NN (question))))))))))))))))(INTJ (UH (.)))(S (VP (VB (.))('' (''))))(INTJ (UH (?)))) |ET| 
-0.90696858446535444375768975078245  |BT| (ROOT (SBARQ (WHNP (WDT (what))(JJ (shape-shifting))(NN (menace)))(SQ (NP (NNP (rom)))(VP (PP (NP (NNP (earth))))(S (VP (VP (VB (fight))))))))) |ET| 
-1  |BT| (ROOT (S (VP (NP (NNP (spumante)))))) |ET| 
1  |BT| (ROOT (SBARQ (WHNP (WP (what)))(SQ (NP (NP (DT (the))(JJS (best))(NN (college)))(PP (NP (DT (the))(NN (country)))))))) |ET| 
1  |BT| (ROOT (SBARQ (WHNP (WP (what)))(SQ (NP (NP (JJ (first))(JJ (personal))(NN (computer))))))) |ET| 
1  |BT| (ROOT (SBARQ (WHNP (WP (what)))(SQ (NP (NP (ADJP (RBS (most))(JJ (common))))(PP (NP (DT (the))(NNP (us)))))))) |ET| 
1  |BT| (ROOT (SBARQ (WHNP (WDT (what))(NN (corporation)))(SQ (NP (NNP (madonna)))(VP (PP (IN (for))))))) |ET| 
-1  |BT| (ROOT (SBARQ (WHNP (WP (what)))(SQ (NP (NP (ADJP (RBS (most))(JJ (common))))(PP (NP (DT (the))(NNP (u.s.)))))))) |ET| 
-0.35568131246640366516231779314694  |BT| (ROOT (SBARQ (WHNP (NP (NP (JJ (italian))(NN (city)))(PP (NP (CD (155))))))(SQ (VP (NP (NP (NP (NNP (leonardo))(NNP (da))(NNP (vinci)))(NP (NNP (michaelangelo)))(NP (NNP (machiavelli))))(NP (DT (all))))(PP (PP (IN (in)))))))) |ET| 
1  |BT| (ROOT (S (VP (NP (S (VP (VP (PP (NP (NN (space))))))))))) |ET| 
1  |BT| (ROOT (S (VP (NP (CD (11))(JJ (famous))(NNS (martyr)))))) |ET| 
1  |BT| (ROOT (SBARQ (WHNP (WDT (what))(NN (frenchman)))(SQ (VP (NP (DT (the))(NN (following))))))(S (SBAR (S (NP (NNP (god)))(VP (VP (VB (exist))))))(NP (PRP (it)))(VP (VP (ADJP (S (VP (VP (NP (PRP (he))))))))))) |ET| 
-0.050932371433711202957095309784563  |BT| (ROOT (S (NP (NP (WP (what))(NN (clause)))(PP (NP (DT (the))(NNP (u.s.))(NNP (constitution)))))(VP (VP (VP (VBN (change))(, (,))(VBN (alter))(CC (or))(VBN (amend))))))) |ET| 
-1  |BT| (ROOT (SBARQ (WHNP (WDT (what))(NN (device)))(SQ (VP (NP (S (VP (VP (PP (NP (NN (music))))))))(PP (NP (CD (1963)))))))) |ET| 
-0.75327223977312163238906350670732  |BT| (ROOT (SBARQ (WHNP (WDT (what))(NN (movie)))(SQ (VP (PP (NP (NP (NNP (anna))(NNP (anderson))(POS ('s)))(S (VP (VP (NP (NP (DT (a))(JJ (russian))(NN (czar))(POS ('s))))))))))))) |ET| 
-1  |BT| (ROOT (S (NP (NNP (stuart))(NNP (hamblen)))(VP (VP (S (VP (VP (NP (NP (DT (the))(JJ (first))(NN (singing))(NN (cowboy)))(PP (NP (WDT (which))(NN (medium)))))))))))) |ET| 
1  |BT| (ROOT (SBARQ (WHNP (WP (what)))(SQ (NP (NP (ADJP (RBS (most))(JJ (common))))(PP (NP (NNP (america)))))))) |ET| 
1  |BT| (ROOT (SBARQ (WHNP (WP (what)))(SQ (NP (NP (DT (the))(JJ (previous))(NN (name)))(PP (NP (DT (the))(NNP (commonwealth)))))))) |ET| 
1  |BT| (ROOT (SBARQ (WHNP (WP (what)))(SQ (NP (NP (DT (the))(JJ (top))(NN (boy))(NNS (name)))(PP (NP (DT (the))(NNP (u.s.)))))))) |ET| 
-1  |BT| (ROOT (SBARQ (WHNP (WP (what)))(SQ (NP (NP (ADJP (RBS (most))(JJ (common))))(PP (NP (NNP (america)))))))) |ET| 
-0.17037535559790159545023868759017  |BT| (ROOT (SBARQ (WHNP (WP (what)))(SQ (NP (NP (DT (the))(JJ (common))(NN (name)))(PP (NP (JJ (acetylsalicylic))(NN (acid)))))))) |ET| 
-0.11478265998215267384985338594561  |BT| (ROOT (SBARQ (WHNP (WP (what)))(SQ (VP (NP (NP (NP (DT (the))(JJ (only))(NN (vegetable)))(SBAR (WHNP (WDT (that)))(S (VP (PP (IN (with)))))))(NP (SYM (z)))))))) |ET| 
1  |BT| (ROOT (SBARQ (SBARQ (WHNP (WDT (what))(NN (company)))(SQ (VP (VP (VP (PP (NP (NNP (yahoo)))))))))(SBARQ (WHADJP (WRB (how))(JJ (much)))(SQ (NP (DT (the))(NN (deal)))(ADJP (JJ (worth))))))) |ET| 
1  |BT| (ROOT (SBARQ (WHNP (WDT (what))(NN (king)))(SQ (VP (PP (NP (NP (DT (the))(NN (line)))(S (NP (DT (the))(NNP (king)))(VP (PP (NP (DT (the))(NN (countinghouse))))(S (VP (NP (PDT (all))(PRP$ (he))(NN (money))))))))))))) |ET| 
1  |BT| (ROOT (SBARQ (WHNP (WDT (what))(NN (store)))(SQ (VP (S (VP (VP (NP (NP (DT (the))(NN (world))(POS ('s))))))))))) |ET| 
-1  |BT| (ROOT (SBARQ (WHNP (WDT (what))(NN (therapy)))(SQ (VP (S (VP (VP (NP (DT (the))(`` (``))(JJ (primal))(NN (scream))('' ('')))))))))) |ET| 
-1  |BT| (ROOT (S (VP (NP (NP (DT (the))(NNS (man))(POS ('s)))(SBAR (WHNP (WDT (that)))(S (VP (VP (PP (NP (DT (the))(NN (sea)))))))))))) |ET| 
-0.39816588882983433572704257130681  |BT| (ROOT (SBARQ (WHNP (WDT (what))(NN (class)))(SQ (VP (PP (NP (DT (the))(NN (bourgeoisie)))))))) |ET| 
1  |BT| (ROOT (SBARQ (WHNP (WP (what)))(SQ (NP (NP (ADJP (RBS (most))(JJ (common))))(PP (NP (NN (nursery))(NNS (rhyme)))))))) |ET| 
1  |BT| (ROOT (SBARQ (WHNP (WP (what)))(SQ (NP (NP (ADJP (RBS (most))(JJ (successful))))(PP (NP (PRP$ (we))(NN (time)))))))) |ET| 
1  |BT| (ROOT (SBARQ (WHNP (WP (what)))(SQ (NP (NP (ADJP (RBS (most))(JJ (common))))(PP (NP (NNP (u.s.))(NN (college))(NN (football))(NNS (team)))))))) |ET| 
-0.18218232848784662869512374072656  |BT| (ROOT (SBARQ (WHNP (WP (what)))(SQ (NP (NP (ADJP (RBS (most))(JJ (popular))))(PP (NP (DT (all))(NN (time)))))))) |ET| 
-0.51244978331573443064428374782437  |BT| (ROOT (SBARQ (WHNP (WP (what)))(SQ (NP (NP (ADJP (RBS (most))(JJ (powerful))))(PP (NP (NNP (euchre)))))))) |ET| 
-0.25861715397257734050384669899358  |BT| (ROOT (SBARQ (WHNP (WP (what)))(SQ (NP (NP (DT (the))(NN (world))(POS ('s)))(ADJP (RBS (most))(JJ (common))))))) |ET| 
1  |BT| (ROOT (S (VP (NP (NP (DT (the))(NN (organization)))(SBAR (WHNP (WDT (that)))(S (VP (VP (PP (NP (DT (a))(NNP (security))(NNP (council)))))))))))) |ET| 
1  |BT| (ROOT (S (VP (NP (NP (DT (a))(NN (band)))(SBAR (WHNP (WDT (which)))(S (VP (PP (NP (NP (IN (in)))(NP (DT (the))(CD (1960))(POS ('s)))))))))))) |ET| 
1  |BT| (ROOT (S (PP (NP (DT (the))(NN (movie))))(NP (NP (NNP (groundshog))(NNP (day)))(SBAR (WHNP (WP (what)))(S (VP (NP (NP (DT (the))(NN (name)))(PP (NP (DT (the))(NN (character)))))))))(VP (PP (NP (NNP (andie))(NNP (macdowell))))))) |ET| 
-0.68071067628958925599391704963637  |BT| (ROOT (S (VP (NP (NP (DT (a))(NN (tiger)))(SBAR (WHNP (WDT (that)))(S (VP (ADJP (JJ (extinct)))))))))) |ET| 
-1  |BT| (ROOT (S (VP (NP (NP (DT (a))(NN (product)))(SBAR (WHNP (WDT (that)))(S (VP (NP (NP (DT (the))(NN (ripening)))(PP (NP (NNS (apple)))))))))))) |ET| 
-0.96575308235573043003086013413849  |BT| (ROOT (S (VP (NP (NP (DT (a))(NN (novel)))(VP (PP (NP (NNP (john))(NNP (steinbeck))))))))) |ET| 
1  |BT| (ROOT (SBARQ (WHNP (WP (what)))(SQ (VP (S (NP (ADJP (RBS (most))(JJ (popular))))))))) |ET| 
-0.056895466190052160215806509313552  |BT| (ROOT (S (SBAR (WHNP (WDT (what)))(FRAG (NP (NP (NN (color)))(NP (PRP (s))))))(VP (PP (NP (NP (NNS (box)))(PP (NP (NNP (kodak))(NN (film))))))))) |ET| 
1  |BT| (ROOT (SBARQ (WHNP (WP (what)))(SQ (NP (NP (NP (NNP (queen))(NNP (victoria))(POS ('s))))(PP (NP (NNP (india)))))))) |ET| 
-1  |BT| (ROOT (SBARQ (WHNP (WDT (which))(JJ (soft))(NN (drink)))(SQ (NP (NNP (madonna)))(VP (PP (IN (for))))))) |ET| 
0.18274487095227359700899683048192  |BT| (ROOT (SBARQ (WHNP (WP (who)))(SQ (VP (S (S (NP (JJ (old))(NNS (soldier)))(ADVP (RB (never)))(VP (VB (die))))(S (NP (PRP (they)))(ADVP (RB (just)))(VP (ADVP (RB (away))('' ('')))))))))) |ET| 
-0.43875648285843804607964102615369  |BT| (ROOT (SBARQ (WHADJP (WRB (how))(JJ (old)))(SQ (NP (NNP (sir))(NNP (edmund))(NNP (hillary)))(SBAR (WHADVP (WRB (when)))(S (NP (PRP (he)))(VP (NP (NNP (mt.))(NNP (everest))))))))) |ET| 
1  |BT| (ROOT (S (VP (NP (NP (DT (the))(NN (food))(NN (company)))(SBAR (WHNP (WDT (that)))(S (VP (PP (NP (NNP (soviet))(NNP (georgia))))(S (VP (VP (NP (NP (DT (a))(NN (series)))(PP (NP (NNS (ad))))))))))))))) |ET| 
1  |BT| (ROOT (S (VP (NP (NP (DT (the))(NN (designer)))(PP (NP (NP (DT (the))(NN (shoe)))(SBAR (WHNP (WDT (that)))(S (VP (NP (NP (NNS (million)))(PP (NP (NP (JJ (plastic))(NNS (imitation)))(VP (PP (NP (`` (`))(NNS (jelly))('' ('))))))))))))))))) |ET| 
1  |BT| (ROOT (S (VP (NP (DT (the))(JJ (first))(JJ (russian))(NNS (astronaut)))(S (VP (VP (NP (DT (a))(NN (spacewalk))))))))) |ET| 
-1  |BT| (ROOT (S (VP (NP (NP (CD (four))(JJ (comic))(NNS (strip)))(PP (NP (NNS (pilot)))))))) |ET| 
-1  |BT| (ROOT (S (NP (WP (what)))(VP (NP (DT (the))(NNP (scotch)))(PP (NP (NP (NNS (people)))(SBAR (WHNP (WP (who)))(S (VP (NP (DT (the))(NN (difference))))))))))) |ET| 
-1  |BT| (ROOT (S (VP (NP (DT (the))(NNP (pheonix))(NNP (club)))))) |ET| 
1  |BT| (ROOT (SBARQ (WHNP (WDT (what))(JJ (spanish))(NN (artist)))(SQ (NP (NNP (crucifixion)))))) |ET| 
1  |BT| (ROOT (SBARQ (WHNP (WP (what)))(SQ (NP (NP (NNP (mao))(POS ('s))))))) |ET| 
1  |BT| (ROOT (SBARQ (WHNP (WP (what)))(SQ (NP (NP (NNP (michelangelo))(POS ('s))))))) |ET| 
-0.39038299849604152225168718359782  |BT| (ROOT (SBARQ (WHNP (WP (what)))(SQ (NP (NP (NNP (eagle))(POS ('s))))))) |ET| 
-0.055369785013108394067238293700939  |BT| (ROOT (SBARQ (SBAR (S (PP (NP (PRP$ (my))(NN (antonium))))))(WHADVP (WRB (how)))(SQ (NP (NNP (mr.))(NNP (shimerda)))(PP (PP (NP (NP (NN (place)))(PP (NP (DT (the))(NN (farm)))))))))) |ET| 
-0.39031734041970544968336298552458  |BT| (ROOT (SBARQ (WHNP (WP (what)))(SQ (NP (NP (NNP (einstein))(POS ('s))))))) |ET| 
1  |BT| (ROOT (S (VP (NP (NP (DT (the))(CD (four))(NN (horseman)))(PP (NP (DT (the))(NNP (apocalypse)))))))) |ET| 
1  |BT| (ROOT (S (VP (NP (NP (DT (the))(CD (two))(NNS (youngster)))(VP (PP (NP (DT (the))(JJ (animated))(NNP (moby))(NNP (dick))))))))) |ET| 
1  |BT| (ROOT (S (VP (NP (NP (CD (one)))(PP (NP (NP (DT (the))(JJ (major))(NNS (god)))(PP (NP (NNP (hinduism)))))))))) |ET| 
-1  |BT| (ROOT (S (VP (NP (NP (CD (one)))(PP (NP (NP (DT (the))(CD (seven))(NNS (wonder)))(PP (NP (DT (the))(JJ (ancient))(NN (world)))))))))) |ET| 
-1  |BT| (ROOT (S (VP (NP (NP (DT (the))(CD (5))(NNS (word)))(SBAR (WHNP (WDT (that)))(S (VP (NP (NP (DT (all)))(PP (NP (NP (DT (the))(NNS (letter)))(PP (NP (DT (the))(NN (alphabet))))))(PP (NP (NNP (q)))))(PP (NP (DT (no))(NNS (repeat))))))))))) |ET| 
-1  |BT| (ROOT (S (VP (NP (NP (DT (the))(NN (vessel)))(VP (PP (NP (DT (the))(NNP (atari))(NNP (force))))(PP (NP (DT (the))(NNP (dc))(NNS (comic))))))))) |ET| 
1  |BT| (ROOT (SBARQ (WHNP (WP (what)))(SQ (NP (NP (NNP (supergirl))(POS ('s))))))) |ET| 
1  |BT| (ROOT (SBARQ (WHNP (WP (what)))(SQ (NP (NP (NNP (goldfinger))(POS ('s))))))) |ET| 
1  |BT| (ROOT (SBARQ (WHNP (WP (what)))(SQ (NP (NP (NNP (thatcher))(POS ('s))))))) |ET| 
-0.39038299849604196634089703366044  |BT| (ROOT (SBARQ (WHNP (WP (what)))(SQ (NP (NP (NNP (halloween))(POS ('s))))))) |ET| 
-0.39031734041971222204381319897948  |BT| (ROOT (SBARQ (WHNP (WP (what)))(SQ (NP (NP (NNP (answers.com))(POS ('s))))))) |ET| 
-0.39038299849604163327398964611348  |BT| (ROOT (SBARQ (WHNP (WP (what)))(SQ (NP (NP (NNP (grenada))(POS ('s))))))) |ET| 
1  |BT| (ROOT (S (VP (NP (NP (DT (the))(NN (child)))(VP (PP (NP (DT (a))(NN (doorstep))))(PP (NP (NP (DT (the))(NN (beginning)))(PP (NP (NN (gasoline))(NNP (alley))))))))))) |ET| 
1  |BT| (ROOT (S (VP (NP (DT (the))(JJ (fast))(NN (food))(NN (chain)))(PP (NP (DT (the))(JJ (golden))(NN (arch))))))) |ET| 
1  |BT| (ROOT (S (SBAR (WHNP (WP (what)))(S (NP (NN (architect)))(VP (VP (NP (DT (the))(NN (glass))(NN (house)))(SBAR (S (NP (DT (the))(NNP (chicago))(NNP (federal))(NNP (center)))(VP (NP (DT (a))(NN (philosophy)))(PP (ADJP (RBR (less)))))))))))(VP (VP (ADJP (JJR (more))))(VP (NP (NP (NNS (plan)))(SBAR (WHNP (WDT (that)))(S (VP (NP (NP (DT (the))(NN (forerunner)))(PP (NP (DT (the))(NNP (california))(NN (ranch))(NN (house))))))))))))) |ET| 
-1  |BT| (ROOT (S (VP (NP (DT (the))(NN (story)))(PP (NP (NP (NNP (chris))(NNP (van))(NNP (allsburg)))(PP (NP (DT (the))))(SBAR (WHNP (WDT (which)))(S (NP (DT (a))(NN (boy)))(VP (S (VP (VP (NP (DT (a))(JJ (great))(NN (sailor)))))))))))))) |ET| 
1  |BT| (ROOT (SBARQ (WHNP (WP (what)))(SQ (NP (NP (NNP (japan))(POS ('s))))))) |ET| 
-1  |BT| (ROOT (S (VP (NP (DT (the))(JJ (french))(JJ (historical))(NN (period)))(PP (NP (NP (DT (the))(NN (reign)))(PP (NP (NNP (napoleon))(NNP (iii))))))))) |ET| 
-1  |BT| (ROOT (S (VP (NP (NP (DT (a))(NN (film)))(SBAR (WHNP (WDT (that)))(S (VP (VP (NP (DT (the))(JJ (golden))(NN (bear)))(PP (NP (DT (the))(NNP (berlin))(NNP (film))(NNP (festival)))))))))))) |ET| 
-1  |BT| (ROOT (SBARQ (WHNP (WDT (what))(NN (color)))(SQ (NP (NP (DT (the))(NN (lipstick)))(PP (NP (NP (NP (NNP (boy))(NNP (george))(POS ('s))))(PP (NP (NP (NP (NNP (london))(POS ('s))))(NX (NNP (tussaud))(POS ('s))))))))))) |ET| 
-1  |BT| (ROOT (SBARQ (WHNP (WDT (what))(NN (whisky)))(SQ (VP (S (ADJP (PP (NP (NP (DT (the))(NN (company)))(SBAR (S (NP (PRP (it)))(VP (VBZ (keep))))))))))))) |ET| 
-1  |BT| (ROOT (SBARQ (WHNP (NP (PP (NP (NP (NP (DT (the))(NN (world))(POS ('s))))(NP (NN (animal))(NNS (species)))))))(SQ (VP (VP (VP (PP (NP (DT (the))(NNP (amazon))(NNS (forest)))))))))) |ET| 
1  |BT| (ROOT (SBARQ (WHNP (WP (what)))(SQ (NP (DT (a))(NN (person)))(VP (SBAR (S (VP (NP (NN (fire)))))))))) |ET| 
1  |BT| (ROOT (SBARQ (WHNP (WP (what)))(SQ (NP (DT (a))(NN (society)))(VP (PP (NP (NNS (elder)))))))) |ET| 
0.76744732817758676279851215440431  |BT| (ROOT (SBARQ (WHNP (WDT (which))(NN (police))(NN (department)))(SQ (NP (NP (DT (the))(JJS (largest))(NN (cocaine))(NN (seizure))(RB (ever)))(PP (NP (NNP (ventura))(NNP (county)))))))) |ET| 
1  |BT| (ROOT (SBARQ (WHNP (WDT (what))(NNP (cherokee))(NNP (indian)))(SQ (VP (NP (PRP$ (he))(NN (name)))(PP (NP (DT (a))(NN (tree)))))))) |ET| 
1  |BT| (ROOT (SBARQ (WHNP (WDT (what))(NN (baseball))(NN (player)))(SQ (VP (PP (NP (NNP (charley))(NNP (hustle)))))))) |ET| 
1  |BT| (ROOT (S (VP (NP (DT (the))(JJ (blind))(NN (sculptress)))(PP (NP (NP (NN (love)))(PP (NP (NP (DT (the))(NNP (fantastic))(NNP (four))(POS ('s)))))))))) |ET| 
1  |BT| (ROOT (SBARQ (WHNP (WDT (what))(NN (composer)))(SQ (VP (NP (NP (DT (the))(NN (medal)))(PP (NP (NN (honor)))))(PP (NP (NNP (franklin))(NNP (d.))(NNP (roosevelt)))))))) |ET| 
1  |BT| (ROOT (SBARQ (WHNP (WDT (what))(NN (crooner)))(SQ (VP (NP (DT (the))(NNP (andrews))(NNS (sister)))(PP (NP (NN (pistol))(VBG (packin))(NN (mama)))))))) |ET| 
-1  |BT| (ROOT (SBARQ (WHNP (WDT (what))(NN (book)))(SQ (VP (NP (NP (DT (the))(NN (preservation)))(PP (NP (NNP (favoured))(NN (race)))))(PP (NP (NP (DT (the))(NN (struggle)))(PP (NP (NNP (life)))))))))) |ET| 
-1  |BT| (ROOT (SBARQ (WHNP (WDT (what))(CD (two))(JJ (european))(NNS (country)))(SQ (VP (NP (NP (DT (the))(NN (war)))(PP (NP (JJ (american))(NN (independence)))))(PP (NP (DT (the))(NNPS (british)))))))) |ET| 
-1  |BT| (ROOT (S (NP (NP (NNS (name)))(PP (NP (NP (NNS (book)))(PP (NP (NNP (james))(NNP (a.))(NNP (michener)))))))(VP (PP (NP (DT (the))(VBG (follow))(NNS (location))))))) |ET| 
1  |BT| (ROOT (SBARQ (WHNP (WP (what)))(SQ (NP (NNP (robin))(NNP (williams)))(VP (VB (do)))))) |ET| 
1  |BT| (ROOT (SBARQ (WHNP (WP (what)))(SQ (NP (NP (NNP (pittsburgh))(POS ('s))))(VP (VBN (call)))))) |ET| 
1  |BT| (ROOT (SBARQ (WHNP (WP (what)))(SQ (NP (NP (NNP (arnold))(NNP (palmer))(POS ('s))))(VP (VBN (call)))))) |ET| 
-0.65220241836301628968186605561641  |BT| (ROOT (SBARQ (WHNP (WP (what)))(SQ (NP (NP (NNP (connecticut))(POS ('s))))(VP (VBN (call)))))) |ET| 
-0.65220241836301762194949560580426  |BT| (ROOT (SBARQ (WHNP (WP (what)))(SQ (NP (NP (NNP (beethoven))(POS ('s))))(VP (VBN (call)))))) |ET| 
-0.031002316173177717206765890978204  |BT| (ROOT (SBARQ (WHNP (WDT (what))(NN (nationality)))(SQ (NP (DT (a))(NNP (sicilian)))))) |ET| 
1  |BT| (ROOT (SBARQ (WHNP (WDT (what))(NN (actress)))(SQ (NP (NP (DT (the))(NN (record)))(PP (NP (NP (DT (the))(JJS (most))(NNS (appearance)))(PP (NP (NP (DT (the))(NN (cover)))(PP (NP (NNP (life)))))))))))) |ET| 
0.087607820862327101529842821037164  |BT| (ROOT (SBARQ (WHNP (WP (who)))(SQ (NP (NP (DT (the))(NN (song)))(NP (VP (PP (NP (PRP (i))))(PP (NP (PRP$ (thine))(NNS (eye))('' ('')))))(PP (NP (NNP (ben))(NNP (johnson))))))))) |ET| 
0.60639359167094430969058294067509  |BT| (ROOT (SBARQ (WHNP (WP (who)))(SQ (VP (NP (NP (DT (the))(NN (secretary)))(PP (NP (NNP (war))))(PP (NP (DT (the))(NNP (civil))(NNP (war)))))(PP (NP (NP (DT (the))(NN (battle)))(PP (NP (NNP (gettysburg)))))))))) |ET| 
-1  |BT| (ROOT (SBARQ (WHNP (WDT (what))(NN (album)))(SQ (VP (NP (DT (the))(NNPS (beatles)))(PP (NP (NP (DT (the))(NN (cover)))(PP (NP (NNP (time))))))(PP (NP (CD (1967)))))))) |ET| 
-0.58264101919616684277514195855474  |BT| (ROOT (SBARQ (WHNP (WP (what)))(SQ (VP (ADVP (RB (originally)))(PP (NP (NP (CD (one))(NN (1-millionth)))(PP (NP (NP (DT (the))(NN (distance)))(PP (NP (NP (DT (the))(NN (equator)))(PP (NP (DT (the))(NNP (pole)))))))))))))) |ET| 
-0.0320503388757145124543512793025  |BT| (ROOT (SBARQ (WHNP (WP (what)))(SQ (NP (NP (DT (the))(RBS (most))(JJ (abundant))(NN (element)))(PP (NP (DT (the))(NN (sun)))))))) |ET| 
1  |BT| (ROOT (SBARQ (WHNP (WP (what)))(SQ (NP (NP (NNP (william))(NNP (f.))(NNP (cody))(POS ('s))))))) |ET| 
1  |BT| (ROOT (SBARQ (WHNP (WP (what)))(SQ (NP (NP (NNP (nicholas))(NNP (cage))(POS ('s))))))) |ET| 
1  |BT| (ROOT (SBARQ (WHNP (WP (what)))(SQ (NP (NP (NNP (elroy))(NNP (hirsch))(POS ('s))))))) |ET| 
-1  |BT| (ROOT (SBARQ (WHNP (WP (what)))(SQ (NP (NP (NNP (president))(NNP (nixon))(POS ('s))))))) |ET| 
-0.46680140139358378137401928142936  |BT| (ROOT (SBARQ (WHNP (WP (what)))(SQ (NP (NP (NNP (mae))(NNP (west))(POS ('s))))))) |ET| 
-0.80537814453642653234055615030229  |BT| (ROOT (SBARQ (WHNP (WP (what)))(SQ (NP (NP (NNP (dick))(NNP (clark))(POS ('s))))))) |ET| 
1  |BT| (ROOT (SBARQ (WHNP (WDT (what))(NN (part)))(SQ (NP (NNP (john))(NNP (peter))(NNP (zenger)))(VP (PP (NP (NP (DT (the))(NN (deveopment)))(PP (NP (NP (DT (the))(NN (newspaper)))(PP (NP (NNP (america)))))))))))) |ET| 
1  |BT| (ROOT (SBARQ (WHNP (WDT (what))(NNS (attorney)))(SQ (PP (NP (NP (DT (the))(NNP (center)))(PP (NP (NP (DT (the))(NN (defense)))(PP (NP (NNP (free))(NNP (enterprise))))))))))) |ET| 
1  |BT| (ROOT (S (PP (NP (NP (NNP (dana))(POS ('s)))(NP (CD (two))(NNS (year)))))(PP (NP (DT (the))(NN (mast))))(NP (WP (what)))(VP (VP (PP (NP (DT (a))(VBN (abandon))(NN (oven))))(PP (NP (NP (DT (the))(NN (beach)))(PP (NP (NNP (san))(NNP (diego)))))))))) |ET| 
-0.99320444330945789612741236851434  |BT| (ROOT (SBARQ (WHNP (WDT (what))(NN (food)))(SQ (NP (NNP (marco))(NNP (polo)))(VP (PP (NP (NNP (italy))))(PP (NP (NP (DT (the))(NN (court)))(PP (NP (NNP (kubla))(NNP (khan)))))))))) |ET| 
-1  |BT| (ROOT (S (VP (S (NP (NP (DT (the))(NN (country)))(PP (NP (NNS (giant))))(NP (CD (twelve))(NNS (time))))(NP (NP (DT (the))(NN (size)))(PP (NP (NP (NN (man)))(PP (NP (NP (`` (``))(NNP (gulliver))(POS ('s)))))))))))) |ET| 
-0.072106618959389384704294911898614  |BT| (ROOT (SBARQ (WHNP (WP (what)))(SQ (NP (NP (NP (DT (the))(NN (orca))(POS ('s))))(SBAR (WHNP (WDT (that)))(S (VP (PP (NP (DT (a))(JJ (fungal))(NN (infection))))(PP (NP (NNP (sea))(NNP (world))))))))))) |ET| 
1  |BT| (ROOT (SBARQ (WHNP (WP (what)))(SQ (NP (NP (NNP (michael))(NNP (jackson))(POS ('s))))))) |ET| 
1  |BT| (ROOT (SBARQ (WHNP (WP (what)))(SQ (NP (NP (NNP (drew))(NNP (barrymore))(POS ('s))))))) |ET| 
1  |BT| (ROOT (SBARQ (WHNP (WP (what)))(SQ (NP (NP (NNP (marilyn))(NNP (monroe))(POS ('s))))))) |ET| 
-1  |BT| (ROOT (SBARQ (WHNP (WP (what)))(SQ (NP (NP (NNP (drew))(NNP (barrymore))(POS ('s))))))) |ET| 
-0.76970736035878917213892691506771  |BT| (ROOT (SBARQ (WHNP (WP (what)))(SQ (NP (NP (NNP (harry))(NNP (houdini))(POS ('s))))))) |ET| 
-0.61327484313790325831661220945534  |BT| (ROOT (SBARQ (WHNP (WP (what)))(SQ (NP (NP (NNP (mel))(NNP (gibson))(POS ('s))))))) |ET| 
1  |BT| (ROOT (SBARQ (WHNP (NP (PP (NP (NNS (people))))))(SQ (VP (NP (NP (NN (part)))(PP (NP (NP (NP (NNP (shays))(POS ('))))(PP (NP (NNP (massachusetts)))))))(PP (NP (CD (1787)))))))) |ET| 
1  |BT| (ROOT (SBARQ (WHNP (WDT (what))(NN (comedian)))(SQ (VP (NP (NP (DT (the))(NN (tv))(NN (screen)))(PP (NP (CD (1951)))))(PP (NP (NP (NP (DT (the))(NNP (nbc))(NN (afternoon))(NN (show)))(NP (NNP (time))))(PP (NP (NNP (ernie)))))))))) |ET| 
1  |BT| (ROOT (S (VP (PP (NP (NP (DT (the))(JJ (powerful))(JJ (white))(NN (trader)))(PP (NP (NP (NNP (conrad))(POS ('s)))(NX (NP (NNP (heart)))(PP (NP (NN (darkness)))))))))))) |ET| 
-0.19074537961989934675699487343081  |BT| (ROOT (SBARQ (WHNP (WHADJP (WRB (how))(JJ (many)))(NP (NP (NNS (vote)))(PP (NP (NNP (congress))))))(SQ (VP (PP (NP (NP (DT (the))(CD (1941))(NN (declaration)))(PP (NP (NP (NN (war)))(PP (NP (NNP (japan)))))))))))) |ET| 
-0.25850018108370226288528215263796  |BT| (ROOT (SBARQ (WHNP (WP (what)))(SQ (NP (NP (DT (the))(JJ (current))(NN (immigration))(NNS (law)))(PP (NP (NNP (us)))))))) |ET| 
0.54333156321383913045508506911574  |BT| (ROOT (SBARQ (WHNP (WP$ (whose))(NN (kidnaping)))(SQ (VP (NP (NP (DT (the))(NN (crime)))(PP (NP (DT (the))(NNP (century))))))))) |ET| 
1  |BT| (ROOT (SBARQ (WHNP (WP (what)))(SQ (NP (NP (NNP (al))(NNP (capone))(POS ('s))))))) |ET| 
1  |BT| (ROOT (SBARQ (WHNP (WP (what)))(SQ (NP (NP (NNP (rona))(NNP (barrett))(POS ('s))))))) |ET| 
1  |BT| (ROOT (SBARQ (WHNP (WP (what)))(SQ (NP (NP (NNP (jimmy))(NNP (olsen))(POS ('s))))))) |ET| 
-1  |BT| (ROOT (SBARQ (WHNP (WP (what)))(SQ (NP (NP (NNP (jimmy))(NNP (durante))(POS ('s))))))) |ET| 
-0.61313797061375829855478514218703  |BT| (ROOT (SBARQ (WHNP (WP (what)))(SQ (NP (NP (NNP (stefan))(NNP (edberg))(POS ('s))))))) |ET| 
-0.61309537120387669340004777041031  |BT| (ROOT (SBARQ (WHNP (WP (what)))(SQ (NP (NP (NNP (bill))(NNP (gross))(POS ('s))))))) |ET| 
1  |BT| (ROOT (SBARQ (WHNP (WDT (what))(NN (role)))(SQ (NP (NNS (fruit)))(VP (PP (NP (NP (DT (the))(NN (survival)))(PP (NP (NNS (plant)))))))))) |ET| 
1  |BT| (ROOT (SBARQ (WHNP (NP (ADJP (JJ (asian))(JJ (spiritual)))(NP (JJ (political))(NN (leader)))))(SQ (VP (PP (NP (NP (DT (the))(NN (age)))(PP (NP (CD (13)))))))))) |ET| 
1  |BT| (ROOT (SBARQ (WHNP (WP (what)))(SQ (NP (NP (DT (the))(NNS (resident)))(PP (NP (NP (DT (the))(NN (island)))(PP (NP (NNP (lesbos)))))))(VP (VBN (call)))))) |ET| 
-1  |BT| (ROOT (SBARQ (WHNP (WDT (what))(NN (function)))(SQ (NP (RB (homeostasis)))(VP (PP (NP (NP (DT (the))(NN (existence)))(PP (NP (DT (a))(NN (organism)))))))))) |ET| 
-1  |BT| (ROOT (SBARQ (WHNP (WDT (what))(NN (drug)))(SQ (NP (NNP (sigmund))(NNP (freud)))(VP (VP (PP (IN (with)))(SBAR (S (VP (PP (NP (NP (DT (the))(NN (treatment)))(PP (NP (NNP (neurasthenia)))))))))))))) |ET| 
-0.13177043772537933019606271045632  |BT| (ROOT (SBARQ (WHNP (WP (what)))(SQ (NP (NP (DT (the))(NN (term)))(PP (NP (DT (a))(JJ (limestone))(NN (deposit)))))(VP (PP (NP (NP (DT (the))(NN (floor)))(PP (NP (DT (a))(NN (cave)))))))))) |ET| 
1  |BT| (ROOT (SBARQ (WHNP (WP (what)))(SQ (NP (NP (NNP (babe))(NNP (ruth))(POS ('s))))))) |ET| 
1  |BT| (ROOT (SBARQ (WHNP (WP (what)))(SQ (NP (NP (NNP (alice))(NNP (cooper))(POS ('s))))))) |ET| 
1  |BT| (ROOT (SBARQ (WHNP (WP (what)))(SQ (NP (NP (NNP (dr.))(NNP (ruth))(POS ('s))))))) |ET| 
-0.13247247646098875284437212940247  |BT| (ROOT (SBARQ (WHNP (WP (what)))(SQ (NP (NP (NNP (columbia))(NNP (tristar))(POS ('s))))))) |ET| 
-1  |BT| (ROOT (SBARQ (WHNP (WP (what)))(SQ (NP (NP (NNP (new))(NNP (england))(POS ('s))))))) |ET| 
1  |BT| (ROOT (SBARQ (WHNP (WDT (what))(NN (actor)))(SQ (VP (S (VP (VP (VP (NP (DT (the))(NN (saxophone))))(VP (NP (NNP (russian)))(PP (NP (NP (DT (a))(NN (role)))(PP (NP (DT (a))(NN (movie)))))))))))))) |ET| 
1  |BT| (ROOT (SBARQ (WHNP (WDT (what))(NNP (nobel))(NN (laureate)))(SQ (VP (PP (NP (DT (the))(NNPS (philippines))))(PP (NP (NP (DT (the))(NN (conference)))(PP (NP (NNP (east))(NNP (timor)))))))))) |ET| 
1  |BT| (ROOT (S (VP (NP (NP (DT (the))(NN (poet)))(PP (NP (NP (DT (the))(NN (poem)))(SBAR (WHNP (WDT (which)))(S (VP (S (S (NP (PRP (i)))(VP (VP (NP (NP (JJ (much)))(PP (NP (NNS (god))))))))(S (NP (PRP (i)))(VP (SBAR (S (NP (DT (the))(NN (river)))(VP (VP (NP (DT (a))(JJ (strong))(JJ (brown))(NN (god-sullen))))(VP (VBZ (untame)))))))))))))))))) |ET| 
-1  |BT| (ROOT (SBARQ (WHNP (WP (who)))(SQ (VP (NP (DT (the))(JJ (first))(NN (animal)))(PP (NP (NN (space)))))))) |ET| 
-1  |BT| (ROOT (S (PP (NP (DT (the))(NNP (miller))(NNP (lite))(NN (tv))(NN (commercial))))(NP (WP (who)))(VP (NP (DT (the))(NN (creature)))))) |ET| 
-1  |BT| (ROOT (SBARQ (WHNP (WDT (what))(JJ (french))(NN (seaport)))(SQ (VP (S (VP (VP (NP (NP (DT (the))(NN (home)))(PP (NP (NNS (wine)))))))))))) |ET| 
1  |BT| (ROOT (SBARQ (WHNP (WP (what)))(SQ (NP (NP (NNP (larry))(NNP (king))(POS ('s))))))) |ET| 
1  |BT| (ROOT (SBARQ (WHNP (WP (what)))(SQ (NP (NP (DT (the))(NN (world))(POS ('s)))(ADJP (JJS (largest))(VBG (distil))))))) |ET| 
-0.99156860872394347872216258110711  |BT| (ROOT (SBARQ (WHNP (WP (what)))(SQ (NP (NP (NNP (joe))(NNP (namath))(POS ('s))))))) |ET| 
-0.6131379706137574103763654420618  |BT| (ROOT (SBARQ (WHNP (WP (what)))(SQ (NP (NP (NNP (bella))(NNP (abzug))(POS ('s))))))) |ET| 
-0.56420856360171878218778829250368  |BT| (ROOT (SBARQ (WHNP (WP (what)))(SQ (NP (NP (NNP (edward))(NNP (albee))(POS ('s))))))) |ET| 
1  |BT| (ROOT (SBARQ (WHNP (WDT (what))(NN (task)))(SQ (NP (NP (DT (the))(JJ (bouvier))(NN (breed)))(PP (NP (NN (dog)))))(VP (VB (perform)))))) |ET| 
1  |BT| (ROOT (SBARQ (WHNP (WHNP (WDT (what))(NNS (appointment)))(NP (PP (NP (NNP (richard))(NNP (nixon))))))(SQ (VP (PP (NP (NN (jail)))))))) |ET| 
1  |BT| (ROOT (SBARQ (WHNP (WDT (which))(JJ (bourbon))(NN (king)))(SQ (VP (PP (NP (DT (the))(JJ (french))(NN (throne))))(PP (NP (NP (NNP (napoleon))(POS ('s))))))))) |ET| 
-0.32038611368883251895312014312367  |BT| (ROOT (SBARQ (WHNP (WDT (what))(NNP (hollywood))(NN (dog)))(SQ (VP (PP (NP (NP (DT (the))(NNS (arm)))(PP (NP (NNP (jean))(NNP (harlow))))))(PP (NP (CD (1932)))))))) |ET| 
-1  |BT| (ROOT (SBARQ (WHNP (WDT (what))(JJ (after-dinner))(NN (treat)))(SQ (VP (PP (NP (CD (1916))))(PP (NP (NP (DT (the))(NNP (george))(NNP (jung))(JJ (noodle))(NN (factory)))(PP (NP (NNP (los))(NNP (angeles)))))))))) |ET| 
-1  |BT| (ROOT (SBARQ (WHNP (WDT (what))(NN (anesthetic)))(SQ (NP (NNP (queen))(NNP (victoria)))(VP (S (VP (VP (VP (PP (NP (NP (DT (the))(NN (birth)))(PP (NP (PRP$ (she))(JJ (seventh))(NN (child))))))(PP (NP (CD (1853)))))))))))) |ET| 
1  |BT| (ROOT (SBARQ (WHNP (WP (what)))(SQ (NP (NP (NP (NP (NNP (fred))(NNP (astaire))(POS ('s))))))))) |ET| 
1  |BT| (ROOT (SBARQ (WHNP (WP (what)))(SQ (NP (NP (NNP (nicholas))(NNP (cage))(POS ('s))))))) |ET| 
-1  |BT| (ROOT (SBARQ (WHNP (WP (what)))(SQ (NP (NP (NP (NP (NNP (dudley))(NNP (do-right))(POS ('s))))))))) |ET| 
-1  |BT| (ROOT (SBARQ (WHNP (WP (what)))(SQ (NP (NP (NP (NP (NNP (paul))(NNP (bunyan))(POS ('s))))))))) |ET| 
-1  |BT| (ROOT (SBARQ (WHNP (WP (who)))(SQ (VP (NP (NP (NP (NNP (john))(NNP (f.))(NNP (kennedy))))))))) |ET| 
1  |BT| (ROOT (SBARQ (WHNP (WDT (what))(NN (title)))(SQ (NP (NNP (suzette))(NNP (charles)))(VP (PP (NP (CD (two))(NNS (month))))(PP (NP (CD (1984)))))))) |ET| 
1  |BT| (ROOT (SBARQ (WHNP (WDT (what))(NN (bread))(NN (company)))(SQ (VP (S (VP (VP (NP (NP (NNS (sticker)))(PP (NP (DT (the))(NNP (cisco))(NNP (kid)))))(PP (NP (NP (DT (the))(NNS (end)))(PP (NP (PRP$ (they))(NNS (package))))))))))))) |ET| 
0.97747410700475345635140911326744  |BT| (ROOT (SBARQ (WHNP (WP$ (whose))(NN (image)))(SQ (VP (S (VP (VP (PP (NP (NP (DT (the))(NN (shroud)))(PP (NP (NNP (turin))))))))))))) |ET| 
-1  |BT| (ROOT (SBARQ (WHNP (WDT (what))(NN (tennis))(NN (term)))(SQ (VP (S (VP (VP (PP (NP (NP (DT (the))(JJ (french))(NN (word)))(PP (NP (NN (egg))))))))))))) |ET| 
-1  |BT| (ROOT (SBARQ (WHNP (NP (PP (NP (VBG (greet))))))(SQ (ADJP (S (VP (VP (PP (NP (NNP (yom))(NNP (kippur))))))))))) |ET| 
-0.53172096839893179254232791208779  |BT| (ROOT (SBARQ (WHNP (WDT (what))(NN (river)))(SQ (VP (PP (NP (NP (DT (the))(NNP (temple)))(PP (NP (NNP (karnak)))))))))) |ET| 
1  |BT| (ROOT (SBARQ (WHNP (WP (what)))(SQ (NP (NP (NP (PRP$ (she))(NN (husband)))))))) |ET| 
1  |BT| (ROOT (SBARQ (WHNP (WP (what)))(SQ (NP (NP (NP (NP (NNP (michael))(NNP (jackson))(POS ('s))))))))) |ET| 
1  |BT| (ROOT (SBARQ (WHNP (WDT (what))(NN (team)))(SQ (NP (NNP (babe))(NNP (ruth)))(VP (NP (PRP$ (he))(JJ (first))(JJ (major))(NN (league))(NN (game)))(PP (IN (for))))))) |ET| 
-0.66138161613000456817701433465118  |BT| (ROOT (SBARQ (WHNP (WP (what)))(SQ (NP (NP (NP (NNP (martin))(NNP (luther))(NNP (king))(NNP (jr.)))))))) |ET| 
-0.35490048929675377387127355177654  |BT| (ROOT (SBARQ (WHNP (WP (what)))(SQ (NP (NP (NP (NNP (maurizio))(NNP (pellegrin)))))))) |ET| 
-0.85315169546299618463791603062418  |BT| (ROOT (SBARQ (WHNP (WP (what)))(SQ (NP (NP (NNP (dwight))(NNP (eisenhower))(POS ('s))))))) |ET| 
1  |BT| (ROOT (SBARQ (WHNP (WDT (what))(NN (journalist)))(SQ (VP (VP (VP (PP (PP (IN (in)))(PP (NP (NNP (walden))(NNP (puddle))))))))))) |ET| 
1  |BT| (ROOT (SBARQ (WHNP (WDT (what))(NN (spy))(NN (novelist)))(SQ (VP (PP (NP (NP (NNP (moscow))(NN (correspondent)))(PP (NP (NP (NNP (reuter)))(NP (NP (DT (the))(NNP (times)))(PP (NP (NNP (london))))))))))))) |ET| 
1  |BT| (ROOT (SBARQ (WHNP (NP (PP (NP (NN (organization))))))(SQ (VP (NP (PP (NP (NNS (animal))))))))) |ET| 
1  |BT| (ROOT (SBARQ (WHNP (WP (what)))(SQ (NP (NP (NNP (larry))(NNP (king))(POS ('s))))))) |ET| 
-0.15180578620106677245615856008953  |BT| (ROOT (SBARQ (WHNP (WDT (what))(NN (river)))(SQ (NP (NNP (windsor))(NNP (castle)))(PP (IN (on)))))) |ET| 
-0.2449576851863932425157344141553  |BT| (ROOT (SBARQ (WHNP (WDT (what))(NN (ocean)))(SQ (NP (NP (DT (the))(JJS (largest)))(PP (NP (DT (the))(NN (world)))))))) |ET| 
-0.43669485584160161462108362684376  |BT| (ROOT (SBARQ (WHNP (NP (PP (NP (JJ (dry))(NN (wine))))))(SQ (VP (VP (VP (PP (NP (NN (veal))(NNS (roast))(CC (and))(NNS (chop)))))))))) |ET| 
1  |BT| (ROOT (SBARQ (WHNP (WP (what)))(SQ (NP (NP (DT (the))(JJ (viking))(NNP (prince))(POS ('s))))))) |ET| 
1  |BT| (ROOT (SBARQ (WHNP (WP (what)))(SQ (NP (NP (NP (JJ (american))(JJ (folk))(NN (hero)))(NP (NNP (john))(NNP (chapman))(POS ('s)))))))) |ET| 
1  |BT| (ROOT (SBARQ (WHNP (WP (what)))(SQ (NP (NP (NNP (darth))(NNP (vader))(POS ('s))))(VP (VBN (name)))))) |ET| 
-0.76041135344107790849932371202158  |BT| (ROOT (SBARQ (WHNP (WDT (what))(NN (year)))(SQ (NP (NP (NNP (janet))(NNP (jackson))(POS ('s))))(VP (VBN (release)))))) |ET| 
-0.47635901856608675597470892171259  |BT| (ROOT (SBARQ (WHNP (WP (what)))(SQ (NP (DT (the))(NN (education))(NN (system)))(NP (NP (IN (in)))(NP (NP (CD (1960))(POS ('s)))))))) |ET| 
0.13112598057762772651990701433533  |BT| (ROOT (SBARQ (WHNP (WP (who)))(SQ (NP (NNP (bert))(NNP (parks)))(PP (NP (NP (DT (the))(NN (host)))(PP (NP (DT (the))(NNP (miss))(NNP (america))(NN (pageant))))))))) |ET| 
1  |BT| (ROOT (SBARQ (WHNP (NP (PP (NP (NP (NN (government)))(NP (JJ (governmental))(NN (agency)))))))(SQ (ADJP (PP (S (VP (PP (NP (NN (racism))))))))))) |ET| 
1  |BT| (ROOT (SBARQ (WHNP (NP (ADJP (JJ (major)))))(SQ (VP (PP (NP (NNP (south))(NNP (africa)))))))) |ET| 
1  |BT| (ROOT (SBARQ (WHNP (NP (PP (NP (NP (NNP (tv))(POS ('s)))))))(SQ (VP (PP (NP (NP (DT (the))(NN (motto)))(NP (NP (NN (anything)))(PP (NP (DT (a))(NN (laugh))))))))))) |ET| 
-1  |BT| (ROOT (SBARQ (WHNP (WDT (what))(NN (card))(NN (game)))(SQ (VP (NP (PRP$ (its))(NN (name)))(PP (NP (NP (NN (biritch)))(NP (NNP (russian))(NNP (whist))))))))) |ET| 
-1  |BT| (ROOT (SBARQ (WHNP (NP (NP (CD (two))(NNS (country)))(PP (NP (NNP (south))(NNP (america))))))(SQ (ADJP (JJ (landlocked)))))) |ET| 
-1  |BT| (ROOT (S (VP (NP (NP (DT (the))(CD (two))(JJ (mystical))(NNS (raven)))(SBAR (S (NP (NNP (odin)))(VP (PP (NP (PRP$ (he))(NN (command))))))))))) |ET| 
1  |BT| (ROOT (SBARQ (WHNP (WDT (what))(NN (actor)))(SQ (NP (NP (NP (NNP (john))(NNP (f.))(NNP (kennedy)))))))) |ET| 
1  |BT| (ROOT (SBARQ (WHNP (WDT (what))(NN (explorer)))(SQ (VP (NP (NP (NNP (iberia))(POS ('s)))))))) |ET| 
1  |BT| (ROOT (SBARQ (WHNP (WDT (what))(NN (astronomer-architect)))(SQ (NP (NP (NP (NP (NNP (st.))(NNP (paul))(POS ('s))))(PP (NP (NNP (london))))))))) |ET| 
1  |BT| (ROOT (SBARQ (WHNP (WP (what)))(SQ (NP (DT (a))(NN (person)))(VP (SBAR (S (VP (NP (NN (fire)))))))))) |ET| 
-1  |BT| (ROOT (SBARQ (WHNP (WDT (what))(NN (format)))(SQ (NP (NP (NNP (vhs))(POS ('s))))))) |ET| 
-0.58732622925546318359835140654468  |BT| (ROOT (SBARQ (WHNP (WDT (what))(NNP (california))(NN (bridge)))(SQ (NP (NNP (don))(NNP (brown)))(NP (NP (DT (the))(JJ (first)))(S (VP (VP (PP (NP (NNP (may))(CD (27))(, (,))(CD (1937))))))))))) |ET| 
-0.15930077228053604598834169792099  |BT| (ROOT (SBARQ (WHNP (WDT (what))(NN (color)))(SQ (NP (NP (DT (the))(NN (cross)))(PP (NP (NP (NNP (switzerland))(POS ('s))))))))) |ET| 
0.97063739760637668396725530328695  |BT| (ROOT (S (NP (NNP (president))(NNP (bush)))(VP (NP (NNP (saddam))(NNP (hussein)))(PP (NP (WP (whom))))))) |ET| 
1  |BT| (ROOT (S (NP (WP (who)))(VP (ADJP (PP (NP (NN (nothing)))))))) |ET| 
1  |BT| (ROOT (S (VP (NP (NP (DT (a))(JJ (ballet))(NN (company)))(SBAR (S (NP (NNP (mikhail))(NNP (baryshnikov)))(VP (VP (PP (IN (for))))))))))) |ET| 
-1  |BT| (ROOT (S (VP (NP (NN (cosmology)))))) |ET| 
-1  |BT| (ROOT (S (SBAR (WHNP (WP (what)))(S (NP (NN (tale)))(VP (NP (DT (the))(JJ (moral))))))(NP (NP (PRP (he)))(SBAR (WHNP (WP (who)))(S (VP (NP (NN (everything)))))))(VP (NP (NN (nothing)))))) |ET| 
-1  |BT| (ROOT (S (VP (NP (NP (DT (a))(NN (movie)))(SBAR (S (NP (NP (DT (the))(NN (actress)))(NP (NNP (sandra))(NNP (bullock))))(VP (NP (DT (a))(NN (role)))(PP (IN (in)))))))))) |ET| 
1  |BT| (ROOT (SBARQ (WHNP (WDT (what))(NN (woman)))(SQ (NP (NP (NP (NNP (time))(POS ('s))))(PP (NP (NP (DT (the))(NN (year)))(PP (NP (CD (1952)))))))))) |ET| 
1  |BT| (ROOT (SBARQ (WHNP (WDT (what))(NN (business)))(SQ (NP (DT (the))(JJ (sparkling))(NN (wine))(NNP (spumante)))))) |ET| 
1  |BT| (ROOT (SBARQ (WHNP (WP (what)))(SQ (NP (NP (DT (the))(NN (name)))(PP (NP (NP (NNP (popeye))(POS ('s))))))))) |ET| 
-1  |BT| (ROOT (SBARQ (WHNP (WP (what)))(SQ (NP (NP (DT (the))(NN (name)))(PP (NP (NP (NNP (baretta))(POS ('s))))))))) |ET| 
-1  |BT| (ROOT (SBARQ (WHNP (WP (what)))(SQ (NP (NP (DT (the))(NN (sequel)))(PP (NP (NP (NP (NNP (alice))(POS ('s))))(PP (NP (NNP (wonderland)))))))))) |ET| 
-0.98236262792285655720547765668016  |BT| (ROOT (SBARQ (WHNP (WP (what)))(SQ (NP (NP (DT (the))(NN (name)))(PP (NP (NP (NP (NNP (kevin))(NNP (costner))(POS ('s))))(PP (NP (NNP (sioux))(NNPS (indians)))))))))) |ET| 
0.1024150877378074142587394135262  |BT| (ROOT (SBARQ (WHNP (WP (who)))(SQ (NP (NP (DT (the))(JJ (first))(JJ (american))(NN (poet)))(S (VP (VP (NP (NP (DT (the))(NNP (nobel))(NNP (prize)))(PP (NP (NN (literature)))))(PP (NP (CD (1948))))))))))) |ET| 
0.99659095929202112795763923713821  |BT| (ROOT (S (VP (NP (NP (DT (the))(NNP (on))(NNP (stage))(NN (character)))(SBAR (WHNP (WP$ (whose))(NN (face)))(S (VP (VP (VBN (see)))))))))) |ET| 
-1  |BT| (ROOT (SBARQ (WHNP (WDT (what))(NN (disease)))(SQ (NP (NNP (katharine))(NNP (hepburn)))(VP (SBAR (S (VP (NP (PRP$ (she))(NN (voice)))(S (VP (VB (shake))))))))))) |ET| 
-0.27273080134214494618660751257266  |BT| (ROOT (S (NP (NNP (ray))(NNP (charles)))(VP (VP (ADVP (JJS (best)))(PP (S (VP (WHNP (WDT (what))(NN (instrument)))))))))) |ET| 
-0.64021036697375877100313346090843  |BT| (ROOT (S (NP (NNP (boxing))(NNP (day)))(VP (VP (WHPP (WHNP (WDT (what))(NN (date)))))))) |ET| 
1  |BT| (ROOT (SBARQ (WHNP (WP (what)))(SQ (NP (NP (DT (the))(NN (name)))(PP (NP (NP (NNP (pittsburgh))(POS ('s))))))))) |ET| 
1  |BT| (ROOT (SBARQ (WHNP (WP (what)))(SQ (NP (NP (DT (the))(NN (name)))(PP (NP (NP (NNP (joan))(NNP (jett))(POS ('s))))))))) |ET| 
1  |BT| (ROOT (SBARQ (WHNP (WP (what)))(SQ (NP (NP (DT (the))(NN (name)))(PP (NP (NP (DT (the))(NN (firm)))(SBAR (WHNP (WDT (that)))(S (VP (NP (NNP (spumante)))))))))))) |ET| 
-1  |BT| (ROOT (SBARQ (WHNP (WP (what)))(SQ (NP (NP (DT (the))(NN (name)))(PP (NP (NP (DT (the))(NNP (family))(NNP (circus))(POS ('s))))))))) |ET| 
-1  |BT| (ROOT (SBARQ (WHNP (WP (what)))(SQ (NP (NP (DT (the))(NN (name)))(PP (NP (NP (DT (the))(NNP (u.s.))(POS ('s))))))))) |ET| 
-1  |BT| (ROOT (SBARQ (WHNP (WP (what)))(SQ (NP (NP (DT (the))(NN (name)))(PP (NP (NP (NNP (betty))(NNP (boop))(POS ('s))))))))) |ET| 
1  |BT| (ROOT (SBARQ (WHNP (WDT (what))(NN (count)))(SQ (NP (NNP (alexandre))(NNP (dumas)))(VP (ADVP (RB (about))))))) |ET| 
1  |BT| (ROOT (SBARQ (WHNP (WDT (what))(NN (college)))(SQ (NP (NNP (joe))(NNP (namath)))(VP (NP (NN (football)))(PP (IN (for))))))) |ET| 
1  |BT| (ROOT (S (NP (JJ (rotary))(NN (engine))(NNS (car)))(VP (VP (WHPP (WHNP (WDT (what))(NN (company)))))))) |ET| 
-0.34125046164773503720724079357751  |BT| (ROOT (SBARQ (WHNP (WDT (what))(NNS (problem)))(SQ (VP (PP (NP (NP (DT (the))(JJ (high))(NN (failure))(NN (rate)))(PP (NP (NNP (plains))(NNS (farmer))))))(PP (NP (DT (the))(NN (1800)))))))) |ET| 
0.43599494344029121606354237883352  |BT| (ROOT (SBARQ (WHNP (WP (who)))(SQ (NP (NP (DT (the))(NN (deodorant)))(SBAR (WHNP (WDT (that)))(S (VP (SBAR (S (NP (PRP (it)))(VP (ADVP (RB (actually)))(PRT (RP (up)))(NP (NP (NN (resistance)))(PP (NP (NN (odor))))))))))))))) |ET| 
-0.21267557738385800547575854579918  |BT| (ROOT (SBARQ (WHNP (WDT (what))(NN (spice)))(SQ (NP (NNS (chef)))(VP (NP (DT (the))(JJS (most)))(PP (IN (for))))))) |ET| 
1  |BT| (ROOT (SBARQ (WHNP (WP (what)))(SQ (NP (NP (DT (the))(NN (name)))(PP (NP (NP (DT (the))(NNP (titanic))(POS ('s))))))))) |ET| 
1  |BT| (ROOT (SBARQ (WHNP (WP (what)))(SQ (NP (NP (DT (the))(NN (name)))(PP (NP (NP (NNP (randy))(NNP (craft))(POS ('s))))))))) |ET| 
1  |BT| (ROOT (SBARQ (WHNP (WP (what)))(SQ (NP (NP (DT (the))(NN (name)))(PP (NP (NP (DT (the))(NN (cook)))(PP (NP (NNP (rawhide)))))))))) |ET| 
-0.30496541590766568230463917643647  |BT| (ROOT (SBARQ (WHNP (WP (what)))(SQ (NP (NP (DT (the))(NN (name)))(PP (NP (NP (DT (the))(NN (vaccine)))(PP (NP (NN (chicken))(NN (pox)))))))))) |ET| 
-0.94023937652480760185369490500307  |BT| (ROOT (SBARQ (WHNP (WP (what)))(SQ (NP (NP (DT (the))(NN (name)))(PP (NP (NP (DT (the))(NN (dog)))(PP (NP (DT (the))(NNP (cracker))(NNP (jack))(NN (box)))))))))) |ET| 
-1  |BT| (ROOT (SBARQ (WHNP (WP (what)))(SQ (NP (NP (DT (the))(NN (name)))(PP (NP (NP (DT (the))(NN (horse)))(SBAR (WHNP (WDT (that)))(S (VP (PP (NP (NP (NNP (queen))(NNP (elizabeth)))(NP (NP (NNP (prince))(NNP (albert))(POS ('s))))))))))))))) |ET| 
1  |BT| (ROOT (SBARQ (WHNP (WDT (what))(NN (store)))(SQ (NP (NNP (martha))(NNP (stewart)))(VP (PP (IN (for))))))) |ET| 
1  |BT| (ROOT (SBARQ (WHNP (WDT (what))(NN (radio))(NN (station)))(SQ (NP (NNP (paul))(NNP (harvey)))(VP (PP (IN (for))))))) |ET| 
1  |BT| (ROOT (SBARQ (WHNP (WDT (what))(NN (organization)))(SQ (NP (NNP (mr.))(NNP (waverly)))(VP (NP (NNS (agent)))(PP (IN (for))))))) |ET| 
-1  |BT| (ROOT (SBARQ (WHNP (WDT (what))(NN (tv))(NN (station)))(SQ (NP (NNP (mary))(NNP (richards)))(VP (PP (IN (for))))))) |ET| 
-0.24298888760594511415646934437973  |BT| (ROOT (SBARQ (WHNP (WP (what)))(SQ (NP (NNP (margaret))(NNP (thatcher)))(VP (PP (IN (for))))))) |ET| 
-0.40404508092470986513333741640963  |BT| (ROOT (SBARQ (WHNP (WP (what)))(SQ (NP (NNP (d.b.))(NNP (cooper)))(VP (PP (IN (for))))))) |ET| 
1  |BT| (ROOT (SBARQ (WHNP (WP (what)))(SQ (NP (NP (DT (the))(NN (name)))(PP (NP (NP (DT (the))(NN (inventor)))(PP (NP (JJ (silly))(NN (putty)))))))))) |ET| 
1  |BT| (ROOT (SBARQ (WHNP (WP (what)))(SQ (NP (NP (DT (the))(NN (name)))(PP (NP (NP (DT (the))(NN (director)))(PP (NP (DT (the))(NN (movie))(`` (``))(NNP (jaws))('' ('')))))))))) |ET| 
1  |BT| (ROOT (SBARQ (WHNP (WP (what)))(SQ (NP (NP (DT (the))(NN (name)))(PP (NP (NP (DT (the))(NN (president)))(PP (NP (NNP (garmat))(NNP (u.s.a)))))))))) |ET| 
-0.29343272680565440913014185753127  |BT| (ROOT (SBARQ (WHNP (WP (what)))(SQ (NP (NP (DT (the))(NN (name)))(PP (NP (NP (DT (a))(NN (hotel)))(PP (NP (NNP (indianapolis)))))))))) |ET| 
-0.68332096533791220061004878516542  |BT| (ROOT (SBARQ (WHNP (WP (what)))(SQ (NP (NP (DT (the))(NN (name)))(PP (NP (NP (DT (the))(NN (gulf)))(PP (NP (NNP (sweden))(CC (and))(NNP (finland)))))))))) |ET| 
-1  |BT| (ROOT (SBARQ (WHNP (WP (what)))(SQ (NP (NP (DT (the))(NN (name)))(PP (NP (NP (DT (the))(NNP (protestant))(NN (revolt)))(PP (NP (NP (DT (the))(NN (supremacy)))(PP (NP (DT (the))(NNP (pope)))))))))))) |ET| 
1  |BT| (ROOT (SBARQ (WHNP (WDT (what))(NN (hockey))(NN (team)))(SQ (NP (NNP (wayne))(NNP (gretzky)))(VP (PP (IN (for))))))) |ET| 
0.99935221649099437168928261598921  |BT| (ROOT (SBARQ (WHNP (WDT (what))(NN (university))(NN (football))(NN (team)))(SQ (NP (NNP (o.j.))(NNP (simpson)))(VP (PP (NP (DT (the))(NNP (rose))(NNP (bowl)))))))) |ET| 
-0.64864422944519528613227521418594  |BT| (ROOT (SBARQ (WHADVP (PP (NP (DT (the))(NN (web)))))(SQ (NP (NNP (adventours))(NNP (tours)))(PP (NP (NP (NNP (sydney)))(NP (NNP (australia)))))))) |ET| 
-1  |BT| (ROOT (SBARQ (WHNP (WDT (what))(NN (film)))(SQ (NP (NNP (lee))(NNP (marvin)))(VP (NP (DT (the))(CD (1965))(JJS (best))(NN (actor))(NNP (oscar)))(PP (IN (for))))))) |ET| 
-1  |BT| (ROOT (SBARQ (WHNP (WDT (what))(NN (basketball))(NN (maneuver)))(SQ (NP (NNP (bert))(NNP (loomis)))(VP (VB (invent)))))) |ET| 
-0.24973038743985076504117159856833  |BT| (ROOT (SBARQ (WHPP (WHNP (WDT (which))(NN (year))))(SQ (NP (NP (DT (the))(NN (cartoon))(NN (character)))(NP (NNP (chilly))(NNP (willy))))(VP (VBN (create)))))) |ET| 
1  |BT| (ROOT (SBARQ (WHNP (WP (what)))(SQ (NP (NP (DT (the))(JJ (top))(CD (10))(NNS (college)))(PP (NP (NP (DT (the))(NNP (united))(NNPS (states)))(PP (NP (NP (DT (the))(NN (field)))(PP (NP (NN (engineering)))))))))))) |ET| 
1  |BT| (ROOT (SBARQ (WHNP (WP (what)))(SQ (NP (NP (DT (the))(NN (name)))(PP (NP (NP (DT (the))(NN (star)))(PP (NP (NP (DT (the))(JJ (cooking))(NN (show)))(NP (NNP (galloping))(NNP (gourmet))))))))))) |ET| 
1  |BT| (ROOT (SBARQ (WHNP (WP (what)))(SQ (NP (NP (DT (the))(NN (name)))(PP (NP (NP (DT (the))(JJ (brilliant))(JJ (british))(NN (economist)))(PP (NP (PRP$ (its))(NN (creation)))))))))) |ET| 
-0.70313196690401125188429887202801  |BT| (ROOT (SBARQ (WHNP (WP (what)))(SQ (NP (NP (DT (the))(NN (name)))(PP (NP (NP (DT (the))(NN (art)))(PP (NP (VBG (grow))(NN (miniature))(NNS (tree)))))))))) |ET| 
-1  |BT| (ROOT (SBARQ (WHNP (WP (what)))(SQ (NP (NP (DT (the))(NN (verdict)))(PP (NP (NP (DT (the))(NN (trial)))(PP (NP (NNP (lizzie))(NNP (borden)))))))))) |ET| 
0.35608680563199934798745971420431  |BT| (ROOT (SBARQ (WHNP (WDT (what))(JJ (robust))(NNP (u.s.))(NN (president)))(SQ (VP (NP (PRP$ (he))(JJ (own))(NN (instructor)))(PP (S (VP (NP (DT (a))(NN (judo))(NN (match)))))))))) |ET| 
1  |BT| (ROOT (SBARQ (WHNP (WDT (what))(JJ (high))(NN (school)))(SQ (NP (NNP (archie)))(VP (VB (attend)))))) |ET| 
1  |BT| (ROOT (SBARQ (WHNP (WDT (what))(NN (tv))(NN (detective)))(SQ (NP (NNP (craig))(NNP (stevens)))(VP (VB (play)))))) |ET| 
1  |BT| (ROOT (SBARQ (WHNP (WDT (what))(NN (title)))(SQ (NP (NN (comedian))(NNP (henry))(NNP (youngman)))(VP (VB (claim)))))) |ET| 
-0.85436723257171509615659488190431  |BT| (ROOT (SBARQ (WHNP (WDT (what))(JJ (musical))(NN (instrument)))(SQ (NP (NNP (sherlock))(NNP (holmes)))(VP (VB (play)))))) |ET| 
-0.42927448887445318614908273957553  |BT| (ROOT (SBARQ (WHNP (WDT (what))(JJ (caribbean))(NN (cult)))(SQ (NP (NNP (marcus))(NNP (garvey)))(VP (VB (originate)))))) |ET| 
0.76431180711579238540309688687557  |BT| (ROOT (SBARQ (WHNP (WDT (what))(NN (company)))(SQ (NP (DT (the))(JJS (largest))(JJ (japanese))(NN (ship))(NN (builder)))))) |ET| 
1  |BT| (ROOT (S (NP (NP (DT (the))(NN (name)))(PP (NP (NP (DT (the))(NN (actor)))(SBAR (WHNP (WP (who)))(S (VP (NP (DT (the))(NN (detective)))(PP (NP (DT (the))(NN (film))(NNP (kindergarden))(NNP (cop))))))))))(VP (WHNP (WP (what)))))) |ET| 
1  |BT| (ROOT (SBARQ (WHNP (WP (what)))(SQ (NP (NP (DT (the))(NN (role)))(PP (NP (DT (the))(JJ (medieval))(NN (guild)))))))) |ET| 
1  |BT| (ROOT (SBARQ (WHNP (WP (what)))(SQ (NP (NP (DT (the))(NN (name)))(PP (NP (NP (DT (the))(VBG (manage))(NN (director)))(PP (NP (NNP (apricot))(NNP (computer)))))))))) |ET| 
-0.026782343074485806533324705469568  |BT| (ROOT (SBARQ (WHNP (WP (what)))(SQ (NP (NP (DT (the))(NN (name)))(PP (NP (DT (the))(JJ (jewish))(NN (alphabet)))))))) |ET| 
-1  |BT| (ROOT (SBARQ (WHNP (WP (what)))(SQ (NP (NP (DT (the))(JJ (proud))(NN (claim)))(PP (NP (NP (NN (fame)))(PP (NP (NP (DT (the))(JJ (young))(NNS (woman)))(SBAR (WHNP (WP (who)))(S (VP (NP (NNP (kappa))(NNP (alpha))(NNP (theta)))))))))))))) |ET| 
-0.38061798044674877150583824914065  |BT| (ROOT (SBARQ (WHNP (WP (what)))(SQ (NP (NP (DT (the))(NN (name)))(PP (NP (NP (DT (the))(NN (ball))(NN (game)))(VP (PP (NP (DT (the))(NNPS (mayans))))))))))) |ET| 
1  |BT| (ROOT (SBARQ (WHNP (WDT (what))(NN (police))(NN (force)))(SQ (NP (NNP (mack))(NNP (sennett)))(VP (VB (create)))))) |ET| 
1  |BT| (ROOT (SBARQ (WHNP (WDT (what))(NN (court)))(SQ (NP (NNP (bob))(NNP (woodward)))(VP (PP (NP (DT (the))(NNS (brethren)))))))) |ET| 
1  |BT| (ROOT (SBARQ (WHNP (WDT (which))(NN (college)))(SQ (NP (NNP (dikembe))(NNP (mutombo)))(VP (VB (attend)))))) |ET| 
-0.078226318624203927676319381134817  |BT| (ROOT (SBARQ (WHNP (WP (what)))(SQ (NP (NP (DT (the))(NN (motto)))(PP (NP (DT (the))(NN (boy))(NNS (scout)))))))) |ET| 
-0.20366728990077231919997302611591  |BT| (ROOT (SBARQ (WHNP (WDT (what))(NN (movie)))(SQ (NP (NNP (steven))(NNP (spielberg)))(VP (PP (NP (CD (1975)))))))) |ET| 
-0.22345548745495061315757823194872  |BT| (ROOT (SBARQ (WHPP (WHNP (WDT (what))(NN (t.v.))(NN (show))))(SQ (NP (NNP (tom))(NNP (terrific)))(VP (VP (VBN (find))))))) |ET| 
1  |BT| (ROOT (SBARQ (WHNP (WP (what)))(SQ (NP (NP (DT (the))(NN (name)))(PP (NP (DT (a))(JJ (greek))(NN (god)))))))) |ET| 
1  |BT| (ROOT (SBARQ (WHNP (WP (what)))(SQ (NP (NP (NP (DT (the))(JJS (best))(NN (art)))(NP (NN (design))(NN (school))))(PP (NP (DT (the))(NN (world)))))))) |ET| 
1  |BT| (ROOT (SBARQ (WHNP (WP (what)))(SQ (NP (NP (DT (the))(NN (nickname)))(PP (NP (NN (oddsmaker))(NNP (jimmy))(NNP (snyder)))))))) |ET| 
-0.62781567677289784601413202835829  |BT| (ROOT (SBARQ (WHNP (WP (what)))(SQ (NP (NP (DT (the))(NN (difference)))(PP (NP (NP (NN (college)))(NP (JJ (graduate))(NN (school))))))))) |ET| 
-0.018241733206147761614523972184543  |BT| (ROOT (SBARQ (WHNP (WP (what)))(SQ (NP (NP (DT (the))(JJ (top))(NN (vegetable))(NNS (crop)))(PP (NP (DT (the))(NN (world)))))))) |ET| 
-0.19864972463945954062047860588791  |BT| (ROOT (SBARQ (WHNP (WP (what)))(SQ (NP (NP (DT (the))(NN (meaning)))(PP (NP (NP (DT (the))(NN (name)))(NP (NNP (kathryn))))))))) |ET| 
1  |BT| (ROOT (SBARQ (WHNP (WDT (what))(JJ (first))(NN (name)))(SQ (NP (NNP (nipsy))(NNP (russell)))(VP (PP (NP (NN (birth)))))))) |ET| 
1  |BT| (ROOT (SBARQ (WHNP (WDT (what))(NN (name)))(SQ (NP (NP (NN (football))(POS ('s))))(VP (PP (NP (CD (1963)))))))) |ET| 
1  |BT| (ROOT (SBARQ (WHNP (WDT (what))(NN (school)))(SQ (NP (NNP (tom)))(VP (PP (NP (NP (NNP (tom))(NNP (brown))(POS ('s))))))))) |ET| 
-1  |BT| (ROOT (S (VP (PP (NP (NP (NNP (king))(NNP (arthur))(POS ('s)))))))) |ET| 
-0.45070436347972114843329904942948  |BT| (ROOT (SBARQ (WHNP (WDT (what))(NN (day)))(SQ (NP (NNP (pearl))(NNP (harbor)))(VP (PP (NP (CD (1942)))))))) |ET| 
-0.61433386450037041903726731106872  |BT| (ROOT (SBARQ (WHNP (WDT (what))(NN (fastener)))(SQ (NP (NNP (whitcomb))(NNP (judson)))(VP (PP (NP (CD (1893)))))))) |ET| 
1  |BT| (ROOT (SBARQ (WHNP (WP (what)))(SQ (NP (NP (DT (the))(NN (occupation)))(PP (NP (NNP (mandy))(NNP (rice-davies)))))))) |ET| 
1  |BT| (ROOT (SBARQ (WHNP (WP (what)))(SQ (NP (NP (DT (the))(NN (name)))(PP (NP (NP (DT (the))(NN (daughter)))(PP (NP (DT (the))(NNP (virginia))(NN (chief))(NNP (powhatan))))(SBAR (WHNP (WDT (that)))(S (VP (NP (NNP (john))(NNP (rolfe)))))))))))) |ET| 
1  |BT| (ROOT (SBARQ (WHNP (WP (what)))(SQ (NP (NP (DT (the))(NN (business)))(PP (NP (DT (the))(JJ (animated))(NNP (sky))(NNPS (hawks)))))))) |ET| 
-0.1626933157508864136175930070749  |BT| (ROOT (SBARQ (WHNP (WP (what)))(SQ (NP (NP (DT (the))(NN (name)))(PP (NP (DT (the))(JJ (second))(NN (space))(NN (shuttle)))))))) |ET| 
-0.060279281097230859309821227043358  |BT| (ROOT (SBARQ (WHNP (WP (what)))(SQ (NP (NP (DT (the))(NN (distinction)))(PP (NP (NNP (u.s.))(NNP (supreme))(NNP (court))(NNP (justice))(NNP (thurgood))(NNP (marshall)))))))) |ET| 
-1  |BT| (ROOT (SBARQ (WHNP (WP (what)))(SQ (NP (NP (DT (the))(NN (name)))(PP (NP (NP (NNP (david))(NNP (letterman))(POS ('s))))))))) |ET| 
1  |BT| (ROOT (SBARQ (WHNP (WDT (what))(NN (character)))(SQ (NP (NNP (tex))(NNP (avery)))(ADVP (RB (first)))(VP (PP (S (VP (PP (NP (NNP (mgm))))))))))) |ET| 
1  |BT| (ROOT (SBARQ (WHNP (WDT (what))(NN (president)))(SQ (VP (PP (NP (NNP (charles))(NNP (j.))(NNP (guiteau)))))))) |ET| 
1  |BT| (ROOT (SBARQ (WHNP (WHNP (WDT (what))(JJ (british))(NN (monarch))(POS ('s))))(SINV (NP (NP (NNP (p.t.))(NNP (barnum))(POS ('s))))(VP (PP (IN (in))))))) |ET| 
-0.82575202085172583199579321444617  |BT| (ROOT (SBARQ (WHNP (WDT (what))(NN (money)))(SQ (VP (ADVP (RB (here))))))) |ET| 
-1  |BT| (ROOT (SBARQ (WHNP (WDT (what))(NN (island))(NN (group)))(SQ (VP (NP (NP (NNP (jersey)))(NP (NNP (guernsey)))(NP (NNP (sark)))(NP (NNP (herm)))))))) |ET| 
-1  |BT| (ROOT (SBARQ (WHNP (ADJP (JJ (major))(NN (world))))(SQ (VP (PP (NP (NNP (india)))))))) |ET| 
1  |BT| (ROOT (SBARQ (WHNP (WP (what)))(SQ (NP (NP (DT (the))(NN (name)))(PP (NP (NNP (miss))(NNP (india))(CD (1994)))))))) |ET| 
1  |BT| (ROOT (SBARQ (WHNP (WP (what)))(SQ (NP (NP (DT (the))(NN (name)))(PP (NP (`` (``))(DT (the))(NNPS (muppets))('' (''))(NN (creator)))))))) |ET| 
1  |BT| (ROOT (SBARQ (WHNP (WP (what)))(SQ (NP (NP (DT (the))(NN (name)))(PP (NP (NP (DT (the))(JJ (deranged))(NN (super-criminal)))(SBAR (S (NP (NNP (otto))(NNP (octavius)))(VP (VBZ (use))))))))))) |ET| 
-0.19258516417187035441038744920661  |BT| (ROOT (SBARQ (WHNP (WP (what)))(SQ (NP (NP (DT (the))(NN (name)))(PP (NP (NP (DT (the))(NN (orca)))(SBAR (WHNP (WDT (that)))(S (VP (PP (NP (DT (a))(JJ (fungal))(NN (infection))))))))))))) |ET| 
-0.072949070547552341547969945168006  |BT| (ROOT (SBARQ (WHNP (WP (what)))(SQ (NP (NP (DT (the))(NN (name)))(PP (NP (NP (DT (that))(JJ (popular))(NN (song)))(SBAR (S (NP (DT (the))(NNPS (creeps)))(VP (VBD (sing))))))))))) |ET| 
-1  |BT| (ROOT (SBARQ (WHNP (WP (what)))(SQ (NP (NP (DT (the))(NN (name)))(PP (NP (NP (DT (the))(NN (movie)))(SBAR (WHNP (WDT (that)))(S (VP (NP (NP (NNP (sharon))(NNP (stone)))(NP (NNP (arnold))(NNP (schwarzenegger))))))))))))) |ET| 
1  |BT| (ROOT (SBARQ (WHNP (WDT (which))(NNP (u.s.))(NNP (president)))(SQ (VP (PP (NP (NP (NNP (washington)))(NP (NNP (d.c.))))))))) |ET| 
1  |BT| (ROOT (SBARQ (WHNP (WDT (what))(JJ (mustachioed))(NN (comedian)))(SQ (VP (NP (NNP (frankie)))(PP (NP (NNP (north))))(PP (NP (NNP (alaska)))))))) |ET| 
1  |BT| (ROOT (SBARQ (WHNP (WDT (what))(JJ (bottled-up))(NN (tv))(NN (character)))(SQ (VP (PP (NP (NNP (baghdad)))))))) |ET| 
-0.48943343512392034622138226040988  |BT| (ROOT (SBARQ (WHNP (WDT (what))(NNS (predator)))(SQ (PP (NP (NNP (antarctica))))))) |ET| 
-0.86840270804087127398673828793108  |BT| (ROOT (SBARQ (WHNP (WDT (what))(JJ (then-derogatory))(NN (term)))(SQ (VP (PP (NP (NP (DT (the))(NNS (painter)))(NP (NP (NNP (monet)))(NP (NNP (sisley)))(NP (NNP (pissarro)))(NP (NNP (renoir)))(NP (NNP (degas)))))))))) |ET| 
-0.76030596102149083925780814752216  |BT| (ROOT (SBARQ (WHNP (WDT (what))(JJ (famed))(NN (river)))(SQ (VP (PP (NP (NNP (bagdad)))))))) |ET| 
1  |BT| (ROOT (SBARQ (WHNP (WP (what)))(SQ (NP (NP (DT (the))(NN (name)))(PP (NP (NP (DT (the))(NN (company)))(SBAR (WHNP (WDT (that)))(S (VP (NP (DT (the))(`` (``))(NNP (american))(NNP (girl))('' (''))(NN (doll))(NN (collection)))))))))))) |ET| 
1  |BT| (ROOT (SBARQ (WHNP (WP (what)))(SQ (NP (NP (DT (the))(JJ (full))(NN (name)))(PP (NP (NP (DT (the))(NN (man)))(SBAR (WHNP (WP (who)))(S (VP (NP (NP (DT (the))(JJ (multicolored))(NN (game))(NN (cube)))(SBAR (WHNP (WDT (that)))(S (VP (NP (CD (42.3))(CD (quintillion))(JJ (potential))(NNS (combination)))))))))))))))) |ET| 
1  |BT| (ROOT (SBARQ (WHNP (WP (what)))(SQ (NP (NP (DT (the))(NN (name)))(PP (NP (NP (DT (the))(JJ (first))(JJ (russian))(NN (astronaut)))(SBAR (S (VP (VP (NP (DT (a))(NN (spacewalk))))))))))))) |ET| 
-1  |BT| (ROOT (SBARQ (WHNP (WP (what)))(SQ (NP (NP (DT (the))(NN (name)))(PP (NP (NP (DT (the))(JJ (chronic))(JJ (neurological))(JJ (autoimmune))(NN (disease)))(SBAR (WHNP (WDT (which)))(S (VP (NP (NP (DT (the))(NN (protein))(NN (sheath)))(SBAR (WHNP (WDT (that)))(S (VP (NP (NN (nerve))(NNS (cell)))))))(S (VP (NP (NP (DT (a))(JJ (gradual))(NN (loss)))(PP (NP (NP (NN (movement)))(PP (NP (DT (the))(NN (body)))))))))))))))))) |ET| 
-0.66008573358547295573117708045174  |BT| (ROOT (SBARQ (WHNP (WP (what)))(SQ (NP (NP (DT (the))(NN (name)))(PP (NP (NP (DT (the))(JJ (american))(JJ (literary))(NN (era)))(SBAR (WHNP (WDT (that)))(S (VP (NP (CD (1896)))))))))))) |ET| 
-1  |BT| (ROOT (SBARQ (WHNP (WP (what)))(SQ (NP (NP (DT (the))(NN (abbreviation)))(PP (NP (DT (the))(NN (company))(NN (name))(`` (`))(NNP (general))(NNPS (motors))('' (')))))))) |ET| 
1  |BT| (ROOT (SBARQ (WHNP (WDT (what))(JJ (argentine))(NN (revolutionary)))(SQ (VP (VP (PP (NP (NNP (castro)))))(VP (PP (NP (NNP (bolivia))))(PP (NP (NP (NNP (may)))(NP (CD (1979)))))))))) |ET| 
1  |BT| (ROOT (SBARQ (WHNP (WDT (what))(JJ (terrorist))(NN (group)))(SQ (VP (PP (NP (NNP (donald))(NNP (defreeze)))))))) |ET| 
1  |BT| (ROOT (SBARQ (WHNP (WDT (what))(JJ (mexican))(NN (leader)))(SQ (VP (ADJP (JJ (dead)))(PP (NP (CD (1923)))))))) |ET| 
-1  |BT| (ROOT (SBARQ (WHNP (WDT (what))(JJ (ill-fated))(NN (craft)))(SQ (VP (PP (NP (NNP (ernst))(NNP (lehmann)))))))) |ET| 
-0.83565723134218872214518114560633  |BT| (ROOT (SBARQ (WHNP (WDT (what))(JJ (significant))(NN (battle)))(SQ (VP (PP (NP (NNP (belgium))))(PP (NP (CD (1815)))))))) |ET| 
-1  |BT| (ROOT (SBARQ (WHNP (WDT (what))(JJ (african))(NN (capital)))(SQ (VP (PP (NP (DT (a))(NNP (u.s.))(NN (president)))))))) |ET| 
1  |BT| (ROOT (SBARQ (WHNP (WP (what)))(SQ (NP (NP (DT (the))(NN (name)))(PP (NP (NP (DT (the))(NN (pop))(NN (singer)))(SBAR (WHNP (WP$ (whose))(NN (song)))(S (VP (NP (NP (DT (the))(NN (theme))(NN (song)))(PP (NP (NP (DT (a))(NN (brand)))(PP (NP (NN (catsup)))))))))))))))) |ET| 
1  |BT| (ROOT (SBARQ (WHNP (WP (what)))(SQ (NP (NP (DT (the))(NN (name)))(PP (NP (NP (DT (the))(NN (actress)))(SBAR (WHNP (WP (who)))(S (VP (PP (NP (NP (DT (the))(NN (movie)))(NP (NP (NN (silence)))(PP (NP (DT (the))(NN (lamb)))))))))))))))) |ET| 
1  |BT| (ROOT (SBARQ (WHNP (WP (what)))(SQ (NP (NP (DT (the))(NN (name)))(PP (NP (DT (the))(JJ (confederate)))))(VP (NP (NN (guerrilla))(NN (group)))(PP (SBAR (WHNP (WDT (which)))(S (NP (NP (NNP (jesse))(NNP (james)))(NP (NNP (coleman))(NNP (younger))))(VP (NP (NN (ridden))))))))))) |ET| 
-0.57477736246703148292880314329523  |BT| (ROOT (SBARQ (WHNP (WP (what)))(SQ (NP (NP (DT (the))(NN (food)))(PP (NP (DT (the))(JJ (greek))(NNS (god)))))(VP (VBN (call)))))) |ET| 
-1  |BT| (ROOT (SBARQ (WHNP (WP (what)))(SQ (NP (NP (DT (the))(NN (origin)))(NP (NP (DT (the))(NN (meaning)))(PP (NP (NP (DT (the))(NN (name)))(NP (NNP (hajo)))))))))) |ET| 
-0.09372639073824562405690130617586  |BT| (ROOT (SBARQ (WHNP (WP (what)))(SQ (NP (NP (DT (the))(NN (fear)))(PP (NP (DT (the))(NN (computer)))))(VP (VBN (call)))))) |ET| 
1  |BT| (ROOT (SBARQ (WHNP (WDT (what))(JJ (19th-century))(NN (painter)))(SQ (VP (PP (NP (DT (the))(NNP (marquesas))(NNS (island)))))))) |ET| 
1  |BT| (ROOT (SBARQ (WHNP (WDT (what))(JJ (chilean))(NN (president)))(SQ (VP (PP (NP (NAC (NP (CD (1973))(NN (coup)))(NP (SYM (d)))))))))) |ET| 
1  |BT| (ROOT (SBARQ (WHNP (WDT (what))(JJ (english))(NN (explorer)))(SQ (VP (ADVP (CC (and)))(NP (NNP (virginia))))))) |ET| 
-1  |BT| (ROOT (SBARQ (WHNP (WDT (what))(JJ (english))(NN (word)))(SQ (VP (PP (NP (NP (DT (the))(NNP (old))(NNP (french)))(NP (S (VP (NP (NN (cover))(NN (fire)))))))))))) |ET| 
-1  |BT| (ROOT (SBARQ (WHNP (WDT (what))(JJ (facial))(NN (feature)))(SQ (VP (ADVP (RB (typically)))(NP (RB (about))(CD (55))(NNS (hair))))))) |ET| 
-0.83174309573775773163362146078725  |BT| (ROOT (SBARQ (WHNP (WDT (what))(JJ (non-alcoholic))(NN (syrup)))(SQ (VP (PP (NP (NN (pomegranate))(NN (juice)))))))) |ET| 
1  |BT| (ROOT (SBARQ (WHNP (WP (what)))(SQ (NP (DT (the))(CD (seven))(NNS (dwarf)))(VP (PP (NP (DT (a))(NN (living)))))))) |ET| 
1  |BT| (ROOT (SBARQ (WHNP (WP (what)))(SQ (NP (NP (DT (the))(JJ (real))(NN (name)))(PP (NP (NP (DT (the))(NN (singer)))(NP (NNP (madonna))))))))) |ET| 
1  |BT| (ROOT (SBARQ (WHNP (WP (what)))(SQ (NP (NP (NP (DT (the))(NNS (character))(POS ('))))(PP (NP (DT (the))(NNP (scooby-doo))(NN (cartoon)))))))) |ET| 
-1  |BT| (ROOT (SBARQ (WHNP (WP (what)))(SQ (NP (NP (DT (the))(JJ (full))(NN (name)))(PP (NP (DT (the))(NNP (plo)))))))) |ET| 
-0.17798621112505000341208472036669  |BT| (ROOT (SBARQ (WHNP (WDT (what))(NN (stadium)))(SQ (NP (DT (the))(NNP (miami))(NNPS (dolphins)))(VP (NP (PRP$ (they))(NN (home))(NNS (game)))(PP (IN (in))))))) |ET| 
-0.021216626155321962471367314151394  |BT| (ROOT (SBARQ (WHNP (WP (what)))(SQ (NP (`` (``))(NNP (nine))(NNP (inch))(NNPS (nails))('' ('')))))) |ET| 
1  |BT| (ROOT (SBARQ (WHNP (WDT (what))(JJ (english))(NN (queen)))(SQ (VP (NP (CD (seventeen))(NNS (child))))))) |ET| 
1  |BT| (ROOT (SBARQ (WHNP (WDT (what))(NN (basketball))(NN (player)))(SQ (VP (PP (NP (NP (CD (23)))(NP (CD (924))(NNS (rebound))))))))) |ET| 
1  |BT| (ROOT (SBARQ (WHNP (WDT (what))(JJ (presidential))(NN (administration)))(SQ (VP (NP (NNPS (americans)))(S (VP (VP (NP (DT (the))(NNP (new))(NNP (frontier)))))))))) |ET| 
-1  |BT| (ROOT (SBARQ (WHNP (WDT (what))(NN (card))(NN (game)))(SQ (VP (VP (NP (NP (NN (dealer))(POS ('s))))))))) |ET| 
-0.9243143576211156897670662146993  |BT| (ROOT (SBARQ (WHNP (WDT (what))(JJ (russian))(NN (city)))(SQ (VP (S (VP (VP (VP (NP (NNP (st.))(NNP (petersburg))(CC (and))(NNP (petrograd))))))))))) |ET| 
-1  |BT| (ROOT (SBARQ (WHNP (WDT (what))(NN (soap)))(SQ (VP (PP (S (VP (PP (NP (NP (NNS (people)))(SBAR (WHNP (WP (who)))(S (VP (NP (NNS (people))('' (''))))))))))))))) |ET| 
1  |BT| (ROOT (SBARQ (WHNP (WP (what)))(SQ (NP (NP (DT (the))(JJ (infamous))(NN (pseudonym)))(PP (NP (NNP (peter))(NNP (sutcliffe)))))))) |ET| 
1  |BT| (ROOT (SBARQ (WHNP (WP (what)))(SQ (NP (NP (DT (the))(JJ (better-known))(NN (identity)))(PP (NP (NP (NNP (john))(NNP (merrick)))(NP (NP (DT (the))(JJ (noble))(NN (ogre)))(PP (NP (JJ (victorian))(NNP (england))))))))))) |ET| 
1  |BT| (ROOT (SBARQ (WHNP (WP (what)))(SQ (NP (NP (DT (the))(JJ (christian))(NN (name)))(PP (NP (NP (DT (the))(JJ (title))(NN (character)))(PP (NP (PRP$ (we))(NNP (miss))(NNP (brooks)))))))))) |ET| 
-0.49770749312161555177880245537381  |BT| (ROOT (SBARQ (WHNP (WP (what)))(SQ (NP (NP (DT (the))(JJ (seafaring))(NN (name)))(PP (NP (NP (DT (the))(JJ (southern))(NN (tip)))(PP (NP (NNP (south))(NNP (america)))))))))) |ET| 
-1  |BT| (ROOT (SBARQ (WHNP (WP (what)))(SQ (NP (NP (DT (the))(JJ (former))(NN (name)))(PP (NP (NNP (zimbabwe)))))))) |ET| 
0.27987781629477137546047060823184  |BT| (ROOT (SBARQ (WHNP (WDT (what))(JJ (famous))(JJ (husband-and-wife))(NN (team)))(SQ (NP (NP (NN (radio))(NNS (ad)))(PP (NP (JJ (blue))(NN (nun))(NN (wine)))))))) |ET| 
1  |BT| (ROOT (SBARQ (WHNP (WDT (what))(NN (golfer)))(SQ (VP (VP (NP (NNP (ohio))(NNP (fats))(CC (and))(NNP (blobbo)))))))) |ET| 
1  |BT| (ROOT (S (VP (NP (NP (NNP (alvin))(POS ('s))))))) |ET| 
1  |BT| (ROOT (S (VP (NP (NP (NNP (dondi))(POS ('s))))))) |ET| 
-1  |BT| (ROOT (SQ (SBAR (S (PP (NP (NNP (beetle))(NNP (bailey))))))(NP (PRP (you)))(VP (NP (NP (NNP (sarge))(POS ('s))))))) |ET| 
-1  |BT| (ROOT (SQ (VP (VP (S (NP (NNP (li))(POS ('))))(NP (NN (l))))(NP (NP (NNP (abner))(POS ('s))))))) |ET| 
-1  |BT| (ROOT (S (VP (NP (NNP (sinn))(NNP (fein)))))) |ET| 
1  |BT| (ROOT (SBARQ (WHNP (NP (NP (CD (two))(NNS (president)))(PP (NP (DT (the))(NNP (u.s.))))))(SQ (NP (NP (NNS (book)))(PP (NP (NN (poetry)))))))) |ET| 
1  |BT| (ROOT (SBARQ (WHNP (WDT (what))(NN (culture)))(SQ (NP (NP (DT (the))(NN (idea)))(PP (NP (NNP (potlatch)))))))) |ET| 
1  |BT| (ROOT (SBARQ (WHNP (WDT (what))(NN (attorney-general)))(SQ (NP (NP (DT (the))(NN (closing)))(PP (NP (NNP (alcatraz)))))))) |ET| 
-0.45966680316056524047141351729806  |BT| (ROOT (SBARQ (WHNP (WDT (what))(NN (organ)))(SQ (NP (NP (DT (the))(NNS (island)))(PP (NP (NNP (langerhans)))))))) |ET| 
-0.49410410173447505410848634710419  |BT| (ROOT (SBARQ (WHNP (WDT (what))(NN (letter)))(SQ (NP (NP (DT (the))(NN (flag)))(PP (NP (NNP (rwanda)))))))) |ET| 
-1  |BT| (ROOT (SBARQ (WHNP (WDT (what))(NN (lake)))(SQ (NP (NP (DT (the))(NN (source)))(PP (NP (DT (the))(NNP (white))(NNP (nile)))))))) |ET| 
1  |BT| (ROOT (SBARQ (WHNP (WP (what)))(SQ (VP (S (NP (NP (NNP (li))('' (')))(NP (NN (l))))(NP (NP (NNP (abner))(POS ('s))))))))) |ET| 
1  |BT| (ROOT (S (VP (NP (NP (NNP (dick))(NNP (tracy))(POS ('s))))))) |ET| 
1  |BT| (ROOT (SBARQ (WHNP (WP (what)))(SQ (VP (NP (NP (DT (the))(NN (world))(POS ('s)))))))) |ET| 
-1  |BT| (ROOT (SBARQ (WHNP (WP (what)))(SQ (VP (NP (NP (NP (NNP (dead))(NNP (man))(POS ('s))))))))) |ET| 
-0.32362648827116224925504184284364  |BT| (ROOT (SBARQ (WHNP (WP (what)))(SQ (VP (NP (NP (DT (the))(NN (world))(POS ('s)))))))) |ET| 
-0.56535989577157463870094034064095  |BT| (ROOT (SBARQ (WHNP (WP (what)))(SQ (VP (NP (NP (NNP (john))(NNP (f.))(NNP (kennedy))(POS ('s)))))))) |ET| 
1  |BT| (ROOT (SBARQ (WHNP (WDT (what))(NN (part)))(SQ (NP (NNP (benjamin))(NNP (franklin)))(VP (PP (NP (NP (DT (the))(NN (development)))(PP (NP (NP (DT (the))(NN (newspaper)))(PP (NP (NNP (america)))))))))))) |ET| 
1  |BT| (ROOT (SBARQ (WHNP (WDT (what))(CD (two))(NNS (commander)))(SQ (NP (NP (DT (the))(NNS (force)))(PP (NP (NP (DT (the))(NN (battle)))(PP (NP (NNP (el))(NNP (alamein)))))))))) |ET| 
1  |BT| (ROOT (SBARQ (WHNP (WHNP (WDT (what))(JJ (female))(NN (suspect)))(PP (NP (NP (DT (the))(NN (game)))(PP (NP (NNP (clue)))))))(SQ (ADJP (JJ (single)))))) |ET| 
-1  |BT| (ROOT (SBARQ (WHNP (WDT (what))(JJ (literary))(NN (classic)))(SQ (VP (PP (NP (NP (DT (the))(NN (search)))(PP (NP (NP (NP (NP (DT (a))(NN (treasure)))(PP (NP (NN (gold)))))(ADJP (NP (CD (7)))))(NP (CD (0))(NNS (pound))))))))))) |ET| 
-0.33754988957443138319902686816931  |BT| (ROOT (SBARQ (WHNP (WP (what)))(SQ (NP (NP (DT (the))(NN (name)))(PP (NP (NP (DT (the))(NN (game)))(SBAR (S (NP (NNP (garry))(NNP (kasparov)))(VP (VBZ (play))))))))))) |ET| 
1  |BT| (ROOT (SBARQ (WHNP (WP (what)))(SQ (VP (NP (PRP$ (she))(JJ (real))(NN (name))))))) |ET| 
1  |BT| (ROOT (SBARQ (WHNP (WP (what)))(SQ (VP (NP (PRP$ (she))(NN (profession))))))) |ET| 
1  |BT| (ROOT (SBARQ (WHNP (WP (what)))(SQ (NP (NP (NP (NNP (steve))(NNP (rogers))(POS ('s))))(SBAR (WHADVP (WRB (when)))(S (NP (PRP (he)))(VP (NP (NNP (captain))(NNP (america)))))))))) |ET| 
-1  |BT| (ROOT (SBARQ (WHNP (WDT (what))(JJ (british))(NN (tv))(NN (series)))(SQ (NP (NNP (emma))(NNP (peel)))))) |ET| 
-0.64770199266496020218397688950063  |BT| (ROOT (SBARQ (WHNP (WDT (what))(NN (tv))(NN (series)))(SQ (NP (NP (NNP (neal)))(NP (DT (a))(JJ (martini-drinking))(NNP (st.))(NNP (bernard))))))) |ET| 
-1  |BT| (ROOT (SBARQ (WHNP (WDT (which))(CD (two))(NNS (state)))(SQ (VP (NP (NNP (chesapeake))(NNP (bay))))))) |ET| 
1  |BT| (ROOT (SBARQ (WHNP (NP (JJ (heavyweight))(NN (boxer))))(SQ (VP (PP (NP (NP (DT (the))(NNP (wild))(NNP (bull)))(PP (NP (DT (the))(NNPS (pampas)))))))))) |ET| 
1  |BT| (ROOT (SBARQ (WHNP (WDT (what))(NN (group)))(SQ (VP (PP (NP (S (VP (PP (NP (DT (the))(NN (clock)))))))))))) |ET| 
1  |BT| (ROOT (SBARQ (WHNP (WDT (what))(NNS (isp)))(SQ (PP (NP (DT (the))(NNP (caribbean))))))) |ET| 
-0.29899575689819429813454121358518  |BT| (ROOT (SBARQ (WHNP (WDT (what))(NN (sport)))(SQ (NP (DT (the))(JJ (first)))(VP (PP (NP (DT (the))(NNP (u.s.)))))))) |ET| 
-0.29618365149993636231684490667249  |BT| (ROOT (SBARQ (WHNP (WP (what)))(SQ (NP (NNP (lenny))(NNP (bruce)))(VP (SBAR (SINV (NP (PRP (he)))(VP (VBN (arrest))))))))) |ET| 
-0.6138101521581423858364701118262  |BT| (ROOT (SBARQ (WHNP (NP (NP (JJ (russian))(NN (novel)))(PP (NP (NP (JJR (more)))(NP (DT (the))(CD (5))(NNS (character)))))))(SQ (VP (PP (NP (DT (the))(NNP (napoleonic))(NNPS (wars)))))))) |ET| 
1  |BT| (ROOT (SBARQ (WHNP (WDT (what))(JJ (polynesian))(NNS (people)))(SQ (NP (NNP (new))(NNP (zealand)))))) |ET| 
1  |BT| (ROOT (SBARQ (WHNP (ADJP (JJ (hard-of))(NN (hearing))))(SQ (NP (NNP (sunflowers)))))) |ET| 
1  |BT| (ROOT (SBARQ (WHNP (WDT (which))(JJ (classical))(JJ (spanish))(NN (writer)))(SQ (NP (S (NP (NP (DT (all)))(SBAR (WHNP (WDT (that)))(S (VP (VBZ (glitter))))))(VP (PRT (RB (not)))(NP (NN (gold))))))))) |ET| 
-1  |BT| (ROOT (SBARQ (WHNP (WDT (what))(JJ (shakespearean))(NN (play)))(SQ (NP (NNP (shylock)))))) |ET| 
-1  |BT| (ROOT (SBARQ (WHNP (ADJP (JJ (south))(JJ (american))))(SQ (NP (NP (NP (NNP (copacabana))(NNP (beach)))(NP (NNP (ipanema)))))))) |ET| 
-1  |BT| (ROOT (SBARQ (SBARQ (WHADVP (WRB (how))(JJ (many)))(S (NP (CD (four))(NN (star))(NNS (general)))(VP (S (NP (EX (there)))))))(SBARQ (WHNP (WP (who)))(SQ (NP (PRP (they))))))) |ET| 
1  |BT| (ROOT (SBARQ (WHNP (WDT (what))(NN (labor))(NN (leader)))(SQ (VP (ADVP (RB (last)))(PP (NP (NP (DT (the))(NN (parking))(NN (lot)))(PP (NP (DT (a))(NNP (michigan))(NN (restaurant)))))))))) |ET| 
1  |BT| (ROOT (SBARQ (WHNP (WHNP (WDT (what))(NN (buxom)))(ADJP (JJ (blonde))))(SQ (VP (PP (NP (NP (DT (the))(NN (cover)))(PP (NP (QP (XS (JJR (more))(IN (than)))))))))))) |ET| 
1  |BT| (ROOT (SBARQ (WHNP (WP (what)))(SQ (NP (NP (DT (the))(NN (name)))(PP (NP (NP (DT (the))(JJ (first))(NNP (watergate))(JJ (special))(NN (prosecutor)))(ADVP (RB (later))))))(VP (PP (NP (NNP (nixon)))))))) |ET| 
-1  |BT| (ROOT (SBARQ (WHNP (WP (what)))(SQ (NP (NP (DT (the))(NN (name)))(PP (NP (NP (NP (DT (the))(NNS (kid))(POS ('))))(PP (NP (NNP (canadian))(NNP (public))(NNP (tv)))))))(PP (NP (DT (the))(NN (singing))(NN (pineapple))))))) |ET| 
-1  |BT| (ROOT (SBARQ (WHNP (NP (NNS (child))(POS ('s))))(SQ (VP (NP (NP (DT (the))(NN (line)))(VP (VP (NP (NN (cinderslut))))(VP (NP (NP (DT (this))(NN (skein)))(PP (NP (NN (wool)))))(PP (NP (PRP (i))('' (''))))))))))) |ET| 
-0.62001697864277427463264302787138  |BT| (ROOT (SBARQ (WHNP (WDT (what))(NNP (metropolis))(NN (landmark)))(SQ (VP (ADVP (RB (first)))(PP (NP (NP (DT (the))(NNP (superman))(NNS (cartoon)))(PP (NP (DT (the))(NNP (1940))(POS ('s)))))))))) |ET| 
1  |BT| (ROOT (SBARQ (WHNP (WDT (what))(NN (feminist)))(SQ (NP (NP (NNP (sexual))(NNPS (politics)))(NP (NNP (flying))))))) |ET| 
1  |BT| (ROOT (SBARQ (WHNP (ADJP (ADJP (NN (radio)))(ADJP (NN (tv)))(ADJP (NN (movie)))))(SQ (NP (NP (NNP (jackie))(NNP (gleason)))(NP (NNP (william))(NNP (bendix))))(VP (VB (play)))))) |ET| 
1  |BT| (ROOT (SBARQ (WHNP (WP (what)))(SQ (NP (NP (NP (NN (university)))(NP (NN (college)))))))) |ET| 
-0.5338453481863533189866188877204  |BT| (ROOT (SBARQ (WHNP (WDT (what))(NN (sound)))(SQ (NP (NP (NNP (olympia)))(NP (NNP (washington))))(VP (VB (overlook)))))) |ET| 
-0.76955415342339861251019783594529  |BT| (ROOT (SBARQ (WHNP (WDT (what))(NN (nation)))(SQ (NP (NNP (mozambique)))))) |ET| 
-0.82445843045329214593408551081666  |BT| (ROOT (SBARQ (WHNP (WDT (what))(NN (nationality)))(SQ (NP (NNP (jackson))(NNP (pollock)))))) |ET| 
1  |BT| (ROOT (SBARQ (WHNP (WP (what)))(SQ (NP (NP (DT (the))(NNS (name)))(PP (NP (NP (NP (NNP (jack))(POS ('s))))(PP (NP (NP (CD (three))(POS ('s))))))))))) |ET| 
1  |BT| (ROOT (SBARQ (WHNP (WP (what)))(SQ (NP (NP (DT (the))(JJ (last))(NN (name)))(PP (NP (NP (NNP (lucy))(CC (and))(NNP (linus)))(PP (NP (NP (DT (the))(NNP (peanut))(POS ('s))))))))))) |ET| 
1  |BT| (ROOT (SBARQ (WHNP (NP (NP (JJ (onetime))(NN (member)))(PP (NP (NP (NNP (ronald))(NNP (reagan))(POS ('s)))))))(SQ (VP (NP (NP (NP (JJ (federal))(NN (policy)))(PP (NP (NNPS (indians)))))(NP (NP (DT (a))(NN (example)))(PP (NP (NP (DT (the))(NN (failure)))(PP (NP (NN (socialism)))))))))))) |ET| 
-0.21107391061559524492174944043654  |BT| (ROOT (SBARQ (WHNP (WP (what)))(SQ (NP (NP (DT (the))(JJ (first))(CD (six))(NNS (word)))(PP (NP (NP (NNP (dickens))(POS ('s)))(NP (NP (DT (a))(NN (tale)))(PP (NP (CD (two))(NNS (city))))))))))) |ET| 
-0.45324570241956285698847750609275  |BT| (ROOT (SBARQ (WHNP (WDT (what))(NN (city)))(SQ (VP (NP (DT (the))(NN (kickoff))(NN (point)))(PP (NP (NP (VBZ (climb)))(PP (NP (NNP (mount))(NNP (everest)))))))))) |ET| 
-1  |BT| (ROOT (SBARQ (WHNP (WP (what)))(SQ (NP (NP (DT (the))(NN (name)))(PP (NP (NP (NNP (roy))(NNP (rogers))(POS ('s))))))))) |ET| 
1  |BT| (ROOT (SBARQ (WHNP (WDT (what))(NN (group)))(SQ (NP (NNP (patricia))(NNP (hearst)))))) |ET| 
1  |BT| (ROOT (SBARQ (WHNP (WDT (what))(NN (university)))(SQ (NP (NNP (angela))(NNP (davis)))))) |ET| 
1  |BT| (ROOT (SBARQ (WHNP (WDT (what))(NN (character)))(SQ (NP (NNP (treasure))(NNP (island)))))) |ET| 
-0.74684066606598920046167222608346  |BT| (ROOT (SBARQ (WHNP (WDT (what))(NN (age)))(SQ (NP (NNP (benny))(NNP (carter)))))) |ET| 
-1  |BT| (ROOT (SBARQ (WHNP (WDT (what))(NN (park)))(SQ (NP (NP (NNP (firehole))(NNP (river)))(NP (NNP (fairy))(NNP (falls))))))) |ET| 
-1  |BT| (ROOT (SBARQ (WHNP (WDT (what))(NN (flag)))(SQ (VP (PP (NP (NNP (wake))(NNP (island)))))))) |ET| 
1  |BT| (ROOT (SBARQ (WHNP (WP (what)))(SQ (NP (DT (the))(CD (four))(NNS (railway)))(PP (NP (NNP (monopoly))))))) |ET| 
1  |BT| (ROOT (SBARQ (WHNP (WP (what)))(SQ (VP (NP (NP (DT (the))(NN (airline)))(PP (PP (NP (JJ (professional))(NNS (traveler)))))))))) |ET| 
1  |BT| (ROOT (SBARQ (WHNP (WDT (what))(JJ (19th-century))(NN (writer)))(SQ (NP (NP (DT (a))(NN (country))(NN (estate)))(PP (NP (DT (the))(NN (hudson)))))(VP (NP (NNP (sunnyside))))))) |ET| 
-0.83640966230579094631281122929067  |BT| (ROOT (SBARQ (WHNP (WP (what)))(SQ (NP (DT (the))(NN (web))(NN (address)))(PP (SBAR (WHNP (WDT (which)))(S (NP (PRP (i)))(VP (VP (NP (NP (DT (the))(JJ (e-mail))(NN (address)))(PP (NP (NP (DT (a))(NN (member)))(PP (NP (NP (DT (the))(NNP (us))(NNP (house)))(PP (NP (NNPS (representatives))))))))))))))))) |ET| 
-0.70803417484863739872480437043123  |BT| (ROOT (SBARQ (WHNP (WP (what)))(SQ (NP (NP (DT (the))(JJ (forward-thinking))(NNP (simon))(NNPS (brothers))(NNP (bakery)))(PP (NP (NNP (chicago)))))(VP (PP (NP (S (VP (VP (NP (NN (business)))))))))))) |ET| 
-0.17754094350658553014277174497693  |BT| (ROOT (S (PP (NP (NP (NN (order)))(PP (NP (DT (the))(NN (top))))))(NP (NP (DT (the))(CD (four))(NNS (stripe)))(PP (NP (NP (DT (a))(NN (can)))(PP (NP (NNP (pepsi)))))))(VP (SBAR (WHNP (WP (what)))(S (VP (NNS (color)))))))) |ET| 
1  |BT| (ROOT (SBARQ (WHNP (WDT (what))(NN (occupation)))(SQ (NP (DT (the))(JJS (highest))(NN (divorce))(NN (rate)))))) |ET| 
0.85905881016707485997585536097176  |BT| (ROOT (SBARQ (WHNP (WDT (what))(NN (company)))(SQ (NP (NNP (spumante)))))) |ET| 
1  |BT| (ROOT (SBARQ (WHNP (WDT (what))(NN (comedian)))(SQ (NP (DT (the))(NNP (perfect))(NNP (fool)))))) |ET| 
-0.46617086568849624983457147209265  |BT| (ROOT (SBARQ (WHNP (WDT (what))(NN (country)))(SQ (VP (VP (NP (NP (DT (the))(NN (queen)))(PP (NP (DT (the))(NNPS (antilles)))))))))) |ET| 
-0.30235547580296895375795429572463  |BT| (ROOT (SBARQ (WHNP (WDT (what))(NN (newspaper)))(SQ (NP (NNP (salt))(NNP (lake))(NNP (city)))))) |ET| 
-0.26225472805561511613348102400778  |BT| (ROOT (SBARQ (WHNP (WDT (what))(NN (sea)))(SQ (NP (NNP (naples))(CC (and))(NNP (algiers)))))) |ET| 
1  |BT| (ROOT (FRAG (WHNP (WP (what)))(SBAR (S (NP (NP (NNS (business)))(PP (NP (NNP (alaska)))))(VP (VP (PP (NP (DT (the))(NNP (exxon))(NNP (valdez))(NN (oil))(NN (spill)))))))))) |ET| 
1  |BT| (ROOT (SBARQ (WHNP (WP (what)))(SQ (NP (NP (DT (a))(NN (example)))(PP (NP (NP (DT (a))(JJ (famous))(NN (rock))(NN (band)))(PP (NP (DT (the))(NNS (sixty)))))))))) |ET| 
1  |BT| (ROOT (S (VP (PP (NP (NP (NN (scholar)))(PP (SBAR (WHNP (NP (NP (JJ (literal))(NNS (translation)))(PP (NP (DT (the))(NNPS (chinese))(CC (and))(NNPS (japanese))))))(S (NP (NNP (ezra))(NNP (pound)))(VP (VBD (depend))))))))))) |ET| 
-1  |BT| (ROOT (S (VP (NP (NP (DT (the))(JJ (only))(JJ (extant))(NN (trilogy)))(PP (NP (JJ (classical))(JJ (greek))(NNS (play)))))))) |ET| 
-0.36827993436973394114630764306639  |BT| (ROOT (SBARQ (WHNP (WDT (what))(JJ (populous))(NN (state)))(SQ (NP (NP (CD (49)))(NP (CD (576))(JJ (square))(NNS (mile))))))) |ET| 
-0.31344888376840401855716322643275  |BT| (ROOT (FRAG (WHNP (WP (what)))(SBAR (S (NP (VBG (eat))(NNS (utensil)))(VP (VP (PP (NP (JJ (handicapped))(NNS (kid)))))))))) |ET| 
1  |BT| (ROOT (SBARQ (WHNP (WDT (what))(NN (engineer)))(SQ (VP (NP (DT (the))(JJ (pull-tab))(NN (can))))))) |ET| 
1  |BT| (ROOT (SBARQ (WHNP (WDT (what))(NN (monarch)))(SQ (VP (NP (DT (the))(JJ (magna))(NN (carta))))))) |ET| 
1  |BT| (ROOT (SBARQ (WHNP (WDT (what))(NN (painter)))(SQ (NP (NP (NN (soup))(NNS (can)))(NP (NNP (brillo))(NN (soap))(NN (pad))(NNS (box))))))) |ET| 
-1  |BT| (ROOT (SBARQ (WHNP (WDT (what))(NN (crop))(NN (failure)))(SQ (VP (NP (DT (the))(JJ (irish))(NN (famine))))))) |ET| 
-0.73066940112435707632698722591158  |BT| (ROOT (SBARQ (WHNP (WDT (what))(NN (dog)))(SQ (VP (NP (DT (the))(NN (mortgage))(NN (lifter))))))) |ET| 
-1  |BT| (ROOT (SBARQ (WHNP (WDT (which))(NN (gender)))(SQ (VP (NP (JJR (bigger))(NNS (thigh))))))) |ET| 
1  |BT| (ROOT (FRAG (WHNP (WP (what)))(SBAR (S (NP (NP (NN (president))(POS ('s))))(VP (VP (S (VP (VP (NP (DT (the))(NNP (white))(NNP (house)))))))))))) |ET| 
1  |BT| (ROOT (S (NP (JJ (rotary))(NNS (engine)))(VP (S (VP (VP (VP (WHPP (WHNP (WP (whom))))))))))) |ET| 
0.88290256011586021323012118955376  |BT| (ROOT (S (NP (NNP (cnn)))(VP (VP (WHPP (WHNP (WP (whom)))))))) |ET| 
-1  |BT| (ROOT (S (NP (NNP (aspartame)))(VP (VP (WHPP (WHNP (WDT (what))(JJ (other))(NN (name)))))))) |ET| 
-0.66694371212053271680275656763115  |BT| (ROOT (FRAG (WHNP (WP (what)))(SBAR (S (NP (NP (NN (city))(POS ('s))))(VP (VP (VP (NP (DT (the))(NNP (roaring))(NNP (forties)))))))))) |ET| 
-0.30576073138970005782510952485609  |BT| (ROOT (SBARQ (WHNP (WDT (what))(NNP (muhammad))(NNP (ali))(NN (maneuver)))(SQ (NP (NNP (george))(NNP (foreman)))(NP (NP (DT (the))(JJ (first))(NN (victim)))(PP (IN (of))))))) |ET| 
1  |BT| (ROOT (SBARQ (WHNP (WDT (what))(NN (athlete)))(SQ (NP (NP (DT (the))(JJS (most))(NN (money)))(PP (NP (NNS (sport))(NN (merchandise))(NNS (sale)))))))) |ET| 
1  |BT| (ROOT (SBARQ (WHNP (WDT (what))(NN (cable))(NN (network)))(SQ (VP (NP (PRP (itself)))(PP (NP (DT (the))(NN (family))(NN (entertainer)))))))) |ET| 
1  |BT| (ROOT (SBARQ (WHNP (WDT (what))(NNP (u.s.))(NN (general)))(SQ (VP (PP (S (VP (NP (JJ (american))(NN (air))(NN (power)))))))))) |ET| 
-0.58883926485701509889736371405888  |BT| (ROOT (SBARQ (WHNP (WDT (what))(NNP (u.s.))(NN (state)))(SQ (VP (ADJP (JJ (last)))(PP (NP (DT (a))(JJ (alphabetical))(NN (list)))))))) |ET| 
-1  |BT| (ROOT (SBARQ (WHNP (NP (PP (NP (NNS (sport))(NN (team))))))(SQ (NP (DT (the))(NNP (buffalo))(NNP (sabres)))))) |ET| 
-1  |BT| (ROOT (SBARQ (WHNP (WDT (what))(NN (line)))(SQ (VP (NP (DT (the))(NNP (north))(CC (and))(NNP (south)))(PP (NP (DT (the))(NNP (u.s.))(NNP (civil))(NNP (war)))))))) |ET| 
1  |BT| (ROOT (S (NP (NP (DT (the))(JJ (major))(NN (league))(NN (baseball))(NN (team)))(PP (NP (NNP (pittsburgh)))))(VP (VP (WHNP (WP (what))))))) |ET| 
1  |BT| (ROOT (SBARQ (WHNP (WDT (what))(JJ (french))(NN (designer)))(SQ (VP (S (NP (DT (the))(NN (jean)))(VP (NP (DT (the))(NN (destructor))))))))(S (NP (PRP (it)))(VP (NP (DT (a))(NN (dictator)))))(S (NP (PRP (it)))(VP (VP (NP (NN (creativity))))))(S (NP (DT (the))(NN (jean)))(VP (VP (VP (VBN (stop))))))(INTJ (UH (?)))) |ET| 
1  |BT| (ROOT (S (SBAR (WHNP (WP (what)))(S (NP (NNP (new))(NNP (orleans))(NNP (d.a.)))(VP (VBD (claim)))))(NP (NP (PRP$ (my))(NN (staff)))(NP (PRP (i))))(VP (S (NP (DT (the))(NN (assassination))(NNS (week)))(ADJP (RB (ago))))))) |ET| 
-0.026606593422415465016728219893594  |BT| (ROOT (SBARQ (WHNP (WDT (which))(JJ (infectious))(NN (disease)))(SQ (NP (DT (the))(JJS (most))(NNS (people)))(ADJP (JJ (worldwide)))))) |ET| 
-0.64429220848801360688185013714246  |BT| (ROOT (S (SBAR (WHNP (WP (what)))(S (NP (NP (NNP (aesop))(POS ('s))))(VP (NP (DT (the))(JJ (moral))))))(NP (DT (the))(NN (race)))(VP (ADVP (RB (not))(RB (always)))(PP (NP (DT (the))(NN (swift))))))(S (NP (NP (NNP (slow)))(NP (JJ (steady))))(VP (VP (S (VP (VP (VB (win))))))))) |ET| 
-1  |BT| (ROOT (SBARQ (WHNP (WDT (what))(NNP (irwin))(NNP (allen))(NN (bomb)))(SQ (VP (S (NP (NNP (richard))(NNP (widmark)))(VP (SBAR (S (NP (PRP (he)))(VP (VP (S (NP (NP (DT (the))(JJ (first))(NN (officer)))(PP (NP (NN (history)))))(VP (VP (S (NP (PRP$ (he))(NN (butt)))(VP (PP (NP (NP (DT (a))(NN (mess)))(PP (NP (NNS (bug))))))))))))))))))))(INTJ (UH (?)))) |ET| 
1  |BT| (ROOT (SBARQ (WHNP (NP (PP (NP (NNS (woman))))))(SQ (NP (NNP (sigmund))(NNP (freud)))(NP (JJ (erotic))(NNS (dream)))))) |ET| 
1  |BT| (ROOT (SBARQ (WHNP (WDT (what))(JJ (fruit-topped))(NN (actress)))(SQ (VP (PP (NP (DT (the))(JJ (brazilian))(NN (bombshell)))))))) |ET| 
1  |BT| (ROOT (SBARQ (WHNP (WDT (what))(JJ (british))(NN (commander)))(SQ (VP (PP (NP (NNP (george))(NNP (washington))))(PP (NP (NNP (yorktown))))(PP (NP (CD (1781)))))))) |ET| 
-1  |BT| (ROOT (SBARQ (WHNP (WDT (what))(JJ (famous))(NNS (event)))(SQ (VP (PP (NP (NNP (march))(CD (27)))))))) |ET| 
-1  |BT| (ROOT (SBARQ (WHNP (WDT (what))(JJ (fast))(NN (food)))(SQ (VP (PP (NP (NP (NP (DT (a))(`` (``))(NN (secret)))(NP (VB (blend))))(PP (NP (NP (CD (11))(NNS (herb)))(NP (NNS (spice))))))))))) |ET| 
-1  |BT| (ROOT (SBARQ (WHNP (NP (PP (NP (NNPS (americans))))))(SQ (VP (NP (PRP$ (they))(NNS (home))))))) |ET| 
1  |BT| (ROOT (SBARQ (WHNP (WDT (what))(NNP (u.s.))(NN (vice-president)))(SQ (ADVP (RB (once)))(VP (S (S (SBAR (S (NP (PRP (you)))(VP (VP (NP (CD (one))(NN (slum)))))))(NP (PRP (you)))(VP (VP (NP (PRP (they))(DT (all))))))))))) |ET| 
1  |BT| (ROOT (SBARQ (WHPP (WHNP (WDT (what))(JJ (high-risk))(NN (business))(NN (venture))))(SQ (NP (NP (DT (the))(JJ (greek))))(VP (VB (bet))(CC (and))(VB (lose)))))) |ET| 
1  |BT| (ROOT (S (VP (NP (DT (the))(JJ (various))(NNS (super-team)))(PP (SBAR (WHNP (WDT (which)))(S (NP (DT (the))(NNP (angel)))(VP (VP (VBD (belong)))))))))) |ET| 
-1  |BT| (ROOT (S (VP (NP (DT (the))(JJ (long))(NN (march)))))) |ET| 
-1  |BT| (ROOT (S (VP (NP (NP (DT (the))(JJ (disposable))(NN (razor)))(SBAR (WHNP (WDT (that)))(S (VP (NP (QP (IN (about))(CD (19))))))))))) |ET| 
-0.99278794765135869315741956597776  |BT| (ROOT (SBARQ (WHNP (WP (what)))(SQ (NP (NNP (mark))(NNP (johnson)))(PP (PP (SBAR (WHADVP (WRB (when)))(S (S (NP (PRP (he)))(VP (VBD (say))))(S (S (NP (PRP (i)))(ADVP (RB (still)))(VP (MD (can))))(VP (ADVP (RB (t)))(NP (NP (PRP (it)))(S (NP (PRP (we)))(VP (NP (DT (the))(NNPS (russians))))))))))))))) |ET| 
1  |BT| (ROOT (SBARQ (WHNP (WDT (what))(NN (tv))(NN (talk-show))(NN (host)))(SQ (NP (NP (PRP$ (he))(NN (name)))(PP (NP (NP (DT (a))(NN (line)))(PP (NP (NP (NNS (man))(POS ('s))))))))))) |ET| 
1  |BT| (ROOT (SBARQ (WHNP (WDT (what))(NN (player)))(SQ (NP (NP (DT (a))(NN (average)))(PP (NP (CD (3))(NNS (time)))))(PP (NP (DT (a))(NN (baseball))(NN (doubleheader))))))) |ET| 
0.74826053006091464148141767509514  |BT| (ROOT (SBARQ (WHNP (WDT (what))(JJ (south))(JJ (vietnamese))(NN (president)))(SQ (VP (PP (NP (PRP$ (he))(NNS (general))))(PP (NP (CD (1963)))))))) |ET| 
-0.76835388792626835297028264903929  |BT| (ROOT (SBARQ (WHNP (WDT (what))(NNP (london))(NN (museum)))(SQ (NP (NP (DT (a))(NNP (chamber)))(PP (NP (NNP (horrors)))))))) |ET| 
-1  |BT| (ROOT (SBARQ (WHNP (WDT (what))(JJ (nuclear))(NN (process)))(SQ (NP (NP (NN (place)))(PP (NP (DT (a))(NN (h-bomb)))))))) |ET| 
-0.75176271422682705569684458168922  |BT| (ROOT (SBARQ (WHNP (WDT (what))(NN (credit))(NN (card)))(SQ (NP (NP (DT (a))(NN (centurion)))(PP (NP (PRP$ (its))(NN (face)))))))) |ET| 
1  |BT| (ROOT (S (VP (NP (ADJP (JJ (south))(JJ (african))))))) |ET| 
1  |BT| (ROOT (S (VP (NP (NP (DT (the))(NN (cartoon))(NN (genie)))(VP (PP (NP (NP (DT (the))(JJ (magic))(NN (ring)))(VP (PP (NP (NNP (nancy))(CC (and))(NNP (chuck)))))))))))) |ET| 
1  |BT| (ROOT (S (VP (NP (DT (a))(JJ (french))(JJ (fascist))(NN (party)))))) |ET| 
-1  |BT| (ROOT (S (VP (NP (NP (DT (the))(CD (four))(NNS (story)))(VP (PP (NP (NP (NNP (edith))(NNP (wharton))(POS ('s)))))))))) |ET| 
-1  |BT| (ROOT (S (VP (NP (NP (DT (the))(JJ (finnish))(NN (music))(NN (personality))(NN (salonen))(POS ('s))))))) |ET| 
-1  |BT| (ROOT (S (VP (NP (CD (four))(JJ (famous))(NN (cartoon))(NNS (cat)))))) |ET| 
1  |BT| (ROOT (SBARQ (WHNP (WDT (what))(NN (dummy)))(SQ (NP (NP (DT (a))(JJ (honorary))(NN (degree)))(PP (NP (NNP (northwestern))(NNP (university)))))))) |ET| 
1  |BT| (ROOT (SBARQ (WHNP (WDT (what))(JJ (italian))(NN (leader)))(SQ (NP (NP (DT (a))(JJ (lifelong))(NN (fear)))(PP (NP (DT (the))(JJ (evil))(NN (eye)))))))) |ET| 
1  |BT| (ROOT (SBARQ (WHNP (NP (PP (NP (NN (business))))))(SQ (NP (NNP (7-eleven)))))) |ET| 
-0.81086303431867368107788252018509  |BT| (ROOT (SBARQ (WHNP (NP (PP (NP (NN (wine))))))(SQ (NP (NNP (spumante)))))) |ET| 
-0.073812756237632615174959482828854  |BT| (ROOT (SBARQ (WHNP (WDT (what))(NNP (j.r.r.))(NNP (tolkien))(NN (book)))(SQ (NP (NNP (gimli)))(PP (NP (DT (a))(JJ (central))(NN (character))))))) |ET| 
-1  |BT| (ROOT (SBARQ (WHNP (WHNP (WDT (what))(NNS (article)))(PP (NP (NN (clothing)))))(SQ (NP (NNS (token)))(PP (NP (NNP (monopoly))))))) |ET| 
1  |BT| (ROOT (SBARQ (WHNP (WDT (what))(NN (mystery))(NN (writer)))(SQ (VP (S (NP (NP (NP (NP (DT (the))(NN (glory)))(SBAR (WHNP (WDT (that)))(S (VP (NP (NNP (greece)))))))(NP (NX (NN (grandeur)))))(SBAR (WHNP (WDT (that)))(S (VP (NP (NNP (rome))('' ('')))))))))))) |ET| 
1  |BT| (ROOT (S (NP (WDT (which)))(VP (NP (S (VP (VP (NP (CD (three))(NNS (time)))))))))) |ET| 
1  |BT| (ROOT (S (VP (NP (NP (DT (the))(NN (company)))(SBAR (WHNP (WDT (that)))(S (VP (NP (DT (the))(NN (line)))(S (ADVP (RB (even)))(NP (PRP$ (you))(JJS (best))(NN (friend)))(VP (S (VP (NP (NN (t)))))))))))(S (VP (NP (PRP (you)))(PP (NP (PRP$ (its))(NN (ad))))))))) |ET| 
-1  |BT| (ROOT (S (VP (NP (NP (DT (a))(NN (art))(NN (gallery)))(PP (NP (NNP (new))(NNP (york)))))))) |ET| 
-1  |BT| (ROOT (S (VP (NP (DT (a))(NN (film)))(PP (SBAR (WHNP (WDT (which)))(S (NP (NNP (jude))(NNP (law)))(VP (VBD (act))))))))) |ET| 
-0.67985239531544705560150987366796  |BT| (ROOT (S (VP (NP (NP (DT (the))(VBG (operate))(NN (system)))(SBAR (WHNP (WDT (that)))(S (VP (PP (NP (JJ (ibm-compatible))(NNS (machine))))))))))) |ET| 
1  |BT| (ROOT (SBARQ (WHNP (WDT (what))(NNS (manufacturer)))(SQ (NP (EX (there)))(PP (NP (NNP (texas))))))) |ET| 
1  |BT| (ROOT (SBARQ (WHNP (NP (PP (NP (NP (NNP (charlie))(POS ('s)))))))(SQ (NP (NP (NNS (vocal)))(PP (NP (NP (NNP (josie)))(NP (DT (the))(NNPS (pussycats))))))))) |ET| 
1  |BT| (ROOT (SBARQ (WHNP (WP (what)))(SQ (NP (NP (NAC (PP (NP (NNP (nfl)))))))))) |ET| 
-0.62680398188529840020066785655217  |BT| (ROOT (SBARQ (WHNP (WDT (what))(NNS (mountain)))(SQ (PP (NP (NP (NNP (arkansas))(CC (and))(NNP (missouri)))))))) |ET| 
-0.69723297650397919600351315239095  |BT| (ROOT (SBARQ (WHNP (WDT (what))(NN (canal)))(SQ (NP (NP (NNP (thatcher))(NN (ferry))(NNP (bridge))))))) |ET| 
-1  |BT| (ROOT (SBARQ (WHNP (WP (what)))(SQ (NP (NP (DT (the))(JJ (major))(NNS (difference)))(PP (NP (ADJP (JJ (catholic))(CC (and))(JJ (methodist))))))))) |ET| 
1  |BT| (ROOT (S (VP (NP (NP (DT (the))(CD (two))(NN (actress))(NNS (daughter)))(PP (NP (NNP (john))(NNP (mills)))))))) |ET| 
1  |BT| (ROOT (S (VP (NP (DT (a))(JJ (female))(JJ (figure))(NN (skater)))))) |ET| 
1  |BT| (ROOT (S (VP (PP (NP (DT (the))(NN (lady))))(SBAR (S (NP (DT (the))(NNP (great))(NNP (gatsby)))(VP (PP (IN (for))))))))) |ET| 
-1  |BT| (ROOT (S (VP (NP (DT (the))(JJ (islamic))(NN (counterpart)))(PP (NP (DT (the))(NNP (red))(NNP (cross))))))) |ET| 
-0.5967174890856806745986773421464  |BT| (ROOT (S (PP (NP (CD (139))))(NP (DT (the))(JJ (papal))(NN (court)))(VP (VP (S (VP (VP (PP (NP (NNP (rome))))(PP (NP (INTJ (WRB (where)))))))))))) |ET| 
-1  |BT| (ROOT (S (NP (WDT (which)))(VP (NP (NP (ADJP (NN (diameter))(JJ (wise))))(PP (NP (NNP (europe)))))))) |ET| 
1  |BT| (ROOT (SBARQ (WHNP (WDT (what))(NNP (u.s.))(NNP (government))(NN (agency)))(SQ (NP (NNS (trademark)))))) |ET| 
1  |BT| (ROOT (SBARQ (WHNP (WDT (what))(NN (jockey)))(SQ (VP (NP (CD (17))(JJ (triple))(NN (crown))(NNS (race))))))) |ET| 
1  |BT| (ROOT (SBARQ (WHNP (WDT (which))(CD (two))(NNS (inventor)))(SQ (NP (NNPS (post-its)))))) |ET| 
-1  |BT| (ROOT (SBARQ (WHNP (NP (JJ (good))))(SQ (NP (NNS (mosquito)))))) |ET| 
-0.12827673682055021342485190416483  |BT| (ROOT (SBARQ (WHNP (WDT (which))(NN (continent)))(SQ (NP (DT (the))(JJS (most))(NNS (rose)))))) |ET| 
-1  |BT| (ROOT (SBARQ (WHNP (WDT (what))(NN (weapon)))(SQ (NP (DT (the))(JJ (mythological))(NN (character))(NNP (apollo)))(ADJP (PP (IN (with))))))) |ET| 
1  |BT| (ROOT (S (VP (PP (NP (NP (NN (heroine)))(PP (NP (`` (``))(NNP (scruples))('' (''))))))))) |ET| 
1  |BT| (ROOT (SBARQ (WHNP (WP (what)))(SQ (NP (NNP (pulitzer))(JJ (prize-winning))(NN (novelist)))(VP (PP (NP (NP (NN (mayor)))(PP (NP (NNP (new))(NNP (york))(NNP (city)))))))))) |ET| 
-1  |BT| (ROOT (SBARQ (WHNP (WP (what)))(SQ (NP (PRP (you)))(VP (PP (NP (NP (DT (a))(NN (friend)))(SBAR (WHNP (WP (who)))(S (VP (NP (PRP (you)))(PP (NP (JJ (other))(NNS (friend))))))))))))) |ET| 
-0.16422977213733533363715366704128  |BT| (ROOT (SBARQ (WHNP (WP (what)))(SQ (NP (DT (the))(JJS (most))(NNS (album)))(VP (PP (NP (NP (CD (one))(NN (artist)))(NP (NN (band))))))))) |ET| 
-0.72691867265739218417763822799316  |BT| (ROOT (SBARQ (WHNP (WP (what)))(SQ (NP (DT (the))(NN (procedure)))(VP (PP (S (VP (NP (DT (a))(NN (hole)))(PP (NP (S (VP (VP (NP (DT (a))(JJR (higher))(NN (consciousness))))))))))))))) |ET| 
1  |BT| (ROOT (SBARQ (WHNP (WDT (what))(NN (diamond))(NN (producer)))(SQ (NP (NP (QP (IN (about))(CD (80))))(PP (NP (NP (DT (the))(NN (world))(POS ('s))))))))) |ET| 
1  |BT| (ROOT (SBARQ (WHNP (NP (JJ (american))))(SQ (NP (NP (DT (the))(NN (world))(NNP (grand))(NNP (prix))(VBG (drive))(NN (championship)))(PP (NP (CD (1978)))))))) |ET| 
1  |BT| (ROOT (SBARQ (WHNP (WDT (what))(NN (doctor)))(SQ (ADJP (PP (NP (NP (NN (footwear)))(NP (NN (foot))(NN (care))))))))) |ET| 
-1  |BT| (ROOT (SBARQ (WHNP (NP (PP (NP (NNP (north))(NNP (america))))))(SQ (NP (NP (NP (DT (the))(NN (world))(POS ('s))))(PP (NP (PRP$ (its))(NN (size)))))))) |ET| 
-1  |BT| (ROOT (SBARQ (WHNP (WDT (what))(NN (cooking))(NN (oil)))(SQ (NP (`` (``))(NN (corn))(NN (goodness))('' ('')))))) |ET| 
-1  |BT| (ROOT (SBARQ (WHNP (WDT (what))(NNP (new))(NNP (york))(NNP (city))(NN (landmark)))(SQ (NP (NP (CD (168))(NNS (step)))(PP (NP (PRP$ (its))(NN (crown)))))))) |ET| 
1  |BT| (ROOT (SBARQ (WHNP (WP (what)))(SQ (NP (NNP (larry))(NNP (king)))(VP (PP (NP (DT (a))(NN (living)))))))) |ET| 
1  |BT| (ROOT (SBARQ (WHNP (WHNP (WP (what)))(SBAR (S (NP (NN (group)))(VP (NP (DT (the))(JJ (musical))(NN (question)))))))(SQ (NP (PRP (you)))(VP (PP (NP (NNP (magic)))))))) |ET| 
1  |BT| (ROOT (SBARQ (WHNP (WP (what)))(SQ (NP (NP (NNP (andy))(NNP (hardy))(POS ('s))))(VP (PP (NP (DT (a))(NN (living)))))))) |ET| 
-0.085161134213356484701229476286244  |BT| (ROOT (SBARQ (WHNP (WP (what)))(SQ (NP (NP (NNP (april))(POS ('s))))))) |ET| 
0.09597183066738365631032081637386  |BT| (ROOT (SBARQ (WHNP (WP (who)))(SQ (NP (NP (DT (the))(JJ (brief))(NN (message)))(S (NP (PRP (i)))(VP (SBAR (S (S (NP (PRP (i)))(VP (VBD (see))))(NP (PRP (i)))(VP (VBD (conquer))))))))))) |ET| 
-0.2325901262724049400887338379107  |BT| (ROOT (SBARQ (WHNP (WHADJP (WRB (how))(JJ (much))))(SQ (NP (NP (NNP (dumbo))(POS ('s))))(VP (PP (IN (for))))))) |ET| 
-0.47744216365554603687115786669892  |BT| (ROOT (SBARQ (WHNP (WP (what)))(SQ (NP (DT (the))(JJ (various))(NNS (way)))(PP (SBAR (WHNP (WDT (which)))(S (NP (PRP (one)))(VP (VP (NP (NNP (it))(NN (user))(NN (satisfaction))(NN (level))))))))))) |ET| 
1  |BT| (ROOT (SBARQ (WHNP (WHNP (WDT (which)))(PP (NP (DT (these)))))(SQ (NP (NNS (author)))))) |ET| 
1  |BT| (ROOT (SBARQ (WHNP (NP (PP (NP (DT (the))(NNP (beverly))(NNPS (hillbillies))))))(SQ (NP (NP (DT (the))(VBN (give))(NNS (name)))(NP (NNP (daisy))(NNP (moses))))))) |ET| 
1  |BT| (ROOT (SBARQ (WHNP (WDT (what))(JJ (mythical))(NN (figure)))(SQ (NP (NP (DT (a))(NN (hourglass)))(NP (DT (a))(NN (scythe))))))) |ET| 
-0.11128437390446105359487205532787  |BT| (ROOT (SBARQ (WHNP (WDT (what))(CD (seven))(NNS (digit)))(SQ (NP (NP (DT (the))(NN (area))(NN (code)))(PP (NP (NP (DT (the))(NN (number)))(PP (NP (JJ (long))(NN (distance)))))))(NP (NN (information)))))) |ET| 
-1  |BT| (ROOT (SBARQ (WHNP (WHNP (WDT (which)))(PP (NP (DT (the))(CD (five))(NNS (sens)))))(SQ (ADJP (JJ (first)))))) |ET| 
-1  |BT| (ROOT (SBARQ (WHNP (NP (NN (commodity))(POS ('s))))(SQ (NP (NP (DT (the))(JJS (largest))(JJ (single))(NN (factor)))(PP (S (VP (NP (ADJP (JJ (north))(JJ (american))))(PP (NP (DT (the))(NNS (road))))(PP (NP (NNP (world))(NNP (war))(NNP (ii))))))))))) |ET| 
-1  |BT| (ROOT (SBARQ (WHNP (WDT (what))(NN (tv))(NN (quiz))(NN (show)))(SQ (VP (NP (DT (the))(NN (air)))(PP (NP (CD (1975))))(PP (NP (NP (DT (the))(NN (tune)))(PP (NP (NP (NNP (vera))(NNP (lynn))(POS ('s)))(SBAR (S (NP (PRP (we)))(VP (VP (ADVP (RB (again))))))))))))))) |ET| 
1  |BT| (ROOT (SBARQ (WHNP (NP (NNP (cruise))(NNP (line))))(SQ (NP (NNP (kathie))(NNP (lee))(NNP (gifford)))(VP (PP (IN (for))))))) |ET| 
1  |BT| (ROOT (SBARQ (WHNP (WP (what)))(SQ (NP (DT (the))(JJ (present))(NNP (pope)))(VP (VBN (name)))))) |ET| 
1  |BT| (ROOT (SBARQ (WHNP (WDT (what))(NN (government))(NN (department)))(SQ (NP (DT (the))(NNPS (untouchables)))(VP (PP (IN (for))))))) |ET| 
1  |BT| (ROOT (SBARQ (WHNP (WDT (what))(JJ (indian))(NN (tribe)))(SQ (NP (NN (f))(NN (troop)))(VP (ADVP (RB (perpetually)))(NP (NN (battle)))(PP (IN (with))))))) |ET| 
-1  |BT| (ROOT (SBARQ (WHNP (WDT (what))(NN (tv))(NN (show)))(SQ (NP (NNP (john))(NNP (sebastian)))(VP (NP (DT (the))(NN (theme)))(PP (IN (for))))))) |ET| 
-0.51288440977489946348555349686649  |BT| (ROOT (SBARQ (WHNP (WP (what)))(SQ (NP (NP (NNP (hank))(NNP (aaron)))(NP (NNP (jimmy))(NNP (stewart)))(NP (NNP (howard))(NNP (k.))(NNP (smith))))(VP (PP (ADJP (JJ (common)))))))) |ET| 
-0.077161280458212605504186853977444  |BT| (ROOT (SBARQ (WHNP (WP (what)))(SQ (NP (NP (NNP (dan))(NNP (aykroyd)))(NP (NNP (john))(NNP (belushi))))(VP (NP (NNP (saturday))(NNP (night))(NNP (live)))(S (VP (VP (VB (become))))))))) |ET| 
1  |BT| (ROOT (SBARQ (WHNP (WP (what)))(SQ (NP (NP (DT (the))(JJ (first))(NNS (name)))(PP (NP (NP (NNP (rowan))(CC (and))(NNP (martin)))(NP (NP (DT (the))(NNS (star)))(PP (NP (NP (NNP (tv))(POS ('s)))))))))))) |ET| 
1  |BT| (ROOT (SBARQ (WHNP (WP (what)))(SQ (NP (NP (DT (the))(NN (name)))(PP (NP (NP (NNP (dolly))(NNP (parton))(POS ('s)))(ADJP (RB (rarely))(VBN (see))))))))) |ET| 
1  |BT| (ROOT (SBARQ (WHNP (WP (what)))(SQ (NP (NP (NP (DT (the))(NN (protagonist))(POS ('s))))(PP (NP (NP (NNP (dostoevski))(POS ('s)))(NX (DT (the))(NN (idiot))))))))) |ET| 
-1  |BT| (ROOT (SBARQ (WHNP (WP (what)))(SQ (ADJP (PP (NP (NP (NP (NNP (alexandra))(POS ('s))))(PP (NP (NP (NNP (josie)))(NP (DT (the))(NNPS (pussycats))))))))))) |ET| 
-0.25616838686323667451105734471639  |BT| (ROOT (SBARQ (WHNP (WP (what)))(SQ (NP (NP (DT (the))(NNS (name)))(PP (NP (NP (DT (the))(NN (tourist))(NNS (attraction)))(PP (NP (NNP (reims)))))))))) |ET| 
-0.72057657409334885389995406512753  |BT| (ROOT (SBARQ (WHNP (WP (what)))(SQ (NP (NP (DT (the))(NN (name)))(PP (NP (NP (NNP (sergeant))(NNP (preston)))(PP (NP (NP (DT (the))(NNP (yukon))(POS ('s))))))))))) |ET| 
1  |BT| (ROOT (SBARQ (WHNP (WDT (what))(NN (mayor)))(SQ (NP (ADJP (RB (so))(JJ (many))))(SBAR (S (NP (PRP (he)))(VP (VP (S (VP (VP (NP (NNP (aftra)))(PP (NP (CD (1984)))))))))))))) |ET| 
1  |BT| (ROOT (SBARQ (WHNP (NP (NNP (nfl))(NN (team))))(SQ (NP (NNP (vince))(NNP (lombardi)))(VP (NP (PRP$ (he))(NN (coaching))(NN (career)))(PP (IN (with))))))) |ET| 
1  |BT| (ROOT (SBARQ (WHNP (WDT (what))(NN (information)))(SQ (NP (PRP (you)))(VP (NP (PRP (i)))(PP (NP (NN (actor))(NNP (james))(NNP (cromwell)))))))) |ET| 
0.086826613101403882222228958198684  |BT| (ROOT (SBARQ (WHNP (WP (who)))(SQ (VP (PP (NP (NP (DT (the))(JJ (great))(NN (pyramid)))(PP (NP (NNP (giza)))))))))) |ET| 
-1  |BT| (ROOT (SBARQ (WHNP (WDT (what))(NN (beer)))(SQ (VP (SBAR (S (NP (PRP (it)))(VP (NP (`` (``))(CD (three))(NNS (ring))('' ('')))))))))) |ET| 
-0.1182017180753792140457392179087  |BT| (ROOT (SBARQ (WHADVP (WRB (how)))(SQ (NP (PRP (i)))(VP (NP (NP (NN (someone))(POS ('s))))(SBAR (S (NP (PRP (i)))(ADVP (RB (only)))(VP (NP (PRP$ (they))(NN (screen))(NN (name)))))))))) |ET| 
1  |BT| (ROOT (SBARQ (WHNP (WP (what)))(SQ (NP (NP (DT (the))(NNS (name)))(PP (NP (NP (NNP (richard))(NNP (nixon))(POS ('s))))))))) |ET| 
1  |BT| (ROOT (SBARQ (WHNP (WP (what)))(SQ (NP (NP (DT (the))(NNS (name)))(PP (NP (NP (NNP (jacques))(NNP (cousteau))(POS ('s))))))))) |ET| 
1  |BT| (ROOT (SBARQ (WHNP (WP (what)))(SQ (NP (NP (DT (the))(NN (name)))(PP (NP (NP (DT (the))(JJ (187s))(JJ (irish))(JJ (terrorist))(NN (group)))(PP (NP (NNP (pennsylvania))(NN (mining))(NNS (area)))))))))) |ET| 
-1  |BT| (ROOT (SBARQ (WHNP (WP (what)))(SQ (NP (NP (DT (the))(NN (name)))(PP (NP (NP (NNP (jacques))(NNP (cousteau))(POS ('s))))))))) |ET| 
-0.76406338144817398383423778795986  |BT| (ROOT (SBARQ (WHNP (WP (what)))(SQ (NP (NP (NP (NNP (nero))(NNP (wolfe))(POS ('s))))(PP (NP (NN (office))(NNS (hour)))))))) |ET| 
-0.20967480825810469458048146407236  |BT| (ROOT (SBARQ (WHNP (WP (what)))(SQ (NP (NP (DT (the))(NNS (name)))(PP (NP (DT (the))(JJ (different))(NNS (toe)))))))) |ET| 
1  |BT| (ROOT (SBARQ (WHNP (WDT (what))(NN (poet)))(SQ (VP (S (NP (PRP (i)))(VP (NP (NP (S (VP (VP (VB (keep))))))(NP (S (VP (VP (SBAR (S (NP (PRP (i)))(VP (VBP (sleep))('' ('')))))))))))))))) |ET| 
1  |BT| (ROOT (SBARQ (WHNP (WDT (what))(NN (tv))(NN (character)))(SQ (NP (DT (a))(NN (horse)))(VP (NP (NNP (thunder))))))) |ET| 
1  |BT| (ROOT (SBARQ (WHNP (WDT (what))(NNP (california))(NN (governor)))(SQ (VP (S (NP (NNP (inaction)))(VP (VP (NP (NP (DT (the))(JJS (highest))(NN (form)))(PP (NP (NN (action)))))))))))) |ET| 
1  |BT| (ROOT (SBARQ (WHNP (WP (who)))(SQ (NP (NP (DT (the))(NN (author)))(PP (NP (NP (DT (the))(NN (novel)))(NP (NP (JJ (far)))(PP (NP (DT (the))(JJ (madding))(NN (crowd))))))))))) |ET| 
-1  |BT| (ROOT (SBARQ (WHNP (NP (PP (NP (NNP (scotland))))))(SQ (VP (S (VP (VP (NP (QP (NP (CD (one)))(NP (JJR (more)))))))))))) |ET| 
0.4791459456225601876155906211352  |BT| (ROOT (SBARQ (WHNP (WP (who)))(SQ (VP (VP (NP (NP (DT (the))(NNS (toy)))(VP (PP (NP (NP (DT (the))(NNP (doodyville))(NNS (orphan))(POS ('))))))))(VP (NP (PRP (they)))(PP (NP (PRP (himself))))))))) |ET| 
1  |BT| (ROOT (SBARQ (WHNP (WDT (what))(JJ (famous))(NN (comedian)))(SQ (VP (ADVP (RB (recently)))(PP (NP (NN (success))))(S (VP (VP (NP (DT (the))(NN (play)))))))))) |ET| 
-0.53851923927512479473023176979041  |BT| (ROOT (SBARQ (WHNP (WDT (what))(JJ (peruvian))(NN (city)))(SQ (NP (NP (NN (home)))(PP (NP (NP (DT (the))(JJ (mummified))(NN (body)))(PP (NP (NNP (francisco))(NNP (pizarro)))))))))) |ET| 
0.60063345674863632961404391608085  |BT| (ROOT (SBARQ (WHNP (WP (who)))(SQ (NP (NNP (willy))(NNP (brandt)))(PP (NP (NP (NN (chancellor)))(PP (NP (NP (DT (the))(NNP (federal))(NNP (republic)))(PP (NP (NNP (germany))))))))))) |ET| 
-0.30104638817728235355986043941812  |BT| (ROOT (SBARQ (WHNP (NP (PP (NP (NN (submarine))))))(SQ (VP (ADVP (RB (recently)))(PP (NP (NNP (south))(NNP (korea)))))))) |ET| 
1  |BT| (ROOT (SBARQ (WHNP (WP (what)))(SQ (NP (NP (DT (the))(JJ (middle))(NN (name)))(PP (NP (NN (movie))(NN (producer))(NNP (joseph))(NNP (e.))(NNP (levine)))))))) |ET| 
0.12429874769971341330609959641151  |BT| (ROOT (SBARQ (WHNP (WP (who)))(SQ (VP (PP (NP (NP (NP (NP (NNP (death)))(PP (NP (DT (a))(NN (salesman)))))(NP (JJ (original))(NN (movie))))(NP (QP (RB (not))(CD (1985)))))))))) |ET| 
-1  |BT| (ROOT (SBARQ (WHNP (WDT (what))(NN (gender)))(SQ (ADVP (RB (not)))(VP (S (VP (VP (PP (NP (NNP (kuwait))))))))))) |ET| 
