SVM-light Version V5.01-TK-1.5
5 # kernel type
3 # kernel parameter -d 
1 # kernel parameter -g 
1 # kernel parameter -s 
1 # kernel parameter -r 
empty# kernel parameter -u 
0.4 # kernel parameter -L 
1 # kernel parameter -T 
T # kernel parameter -C 
1 # kernel parameter -F 
1 # kernel parameter -S 
0.400000 # kernel parameter -M 
3 # kernel parameter -N 
S # kernel parameter -V 
S # kernel parameter -W 
0 # kernel parameter -U 
10 # highest feature index 
5452 # number of training documents 
1912 # number of support vectors plus 1 
0.80200429 # threshold b, each following line is a SV (starting with alpha*y)
0.10737346404536805832830026474767  |BT| (ROOT (SBARQ (WHPP (WHNP (WDT (what))(NN (city))))(SQ (NP (NNP (maurizio))(NNP (pellegrin)))(ADVP (RB (now)))(VP (VB (live)))))) |ET| 
-0.40828430045677877036069958194275  |BT| (ROOT (SBARQ (WHNP (WDT (what))(NNS (film)))(SQ (NP (DT (the))(NN (character))(NNP (popeye))(NNP (doyle)))))) |ET| 
-0.46061133550037131056953398910991  |BT| (ROOT (SBARQ (WHADVP (WRB (how)))(SQ (NP (PRP (i)))(VP (NP (NP (DT (a))(NN (list)))(PP (NP (NP (NNS (celebrity))(POS (')))))))))) |ET| 
-0.0062030429144723266132732675259831  |BT| (ROOT (SBARQ (WHNP (WP (what)))(SQ (NP (NP (DT (the))(NN (frequency)))(PP (NP (NNP (vhf)))))))) |ET| 
-0.0054903995317998289735217376517085  |BT| (ROOT (SBARQ (WHNP (WP (what)))(SQ (NP (NP (NNP (edward))(NNP (albee))(POS ('s))))))) |ET| 
1  |BT| (ROOT (SBARQ (WHNP (WDT (what))(JJ (sprawling))(NNP (u.s.))(NN (state)))(SQ (NP (DT (the))(JJS (most))(NNS (airport)))))) |ET| 
1  |BT| (ROOT (SBARQ (WHNP (WP (what)))(SQ (NP (NP (DT (the))(JJS (highest))(NN (waterfall)))(PP (NP (DT (the))(NNP (united))(NNPS (states)))))))) |ET| 
1  |BT| (ROOT (SBARQ (WHNP (WDT (which))(CD (two))(NNS (state)))(SQ (VP (NP (NNP (chesapeake))(NNP (bay))))))) |ET| 
1  |BT| (ROOT (SBARQ (WHADVP (WRB (where)))(SQ (NP (NP (DT (the))(NNS (adventure)))(PP (NP (`` (``))(DT (the))(JJ (swiss))(NN (family))(NNP (robinson))('' ('')))))(VP (NP (NN (place))))))) |ET| 
-0.098855059133086703448967114127299  |BT| (ROOT (SBARQ (WHNP (WDT (what))(NN (color)))(SQ (NP (DT (the))(CD (hundred))(JJ (billionth))(NNS (crayon)))(VP (PP (NP (NNP (crayola)))))))) |ET| 
-0.8044319082956979949372566807142  |BT| (ROOT (SBARQ (WHNP (WDT (which))(NN (language)))(SQ (NP (DT (the))(JJS (most))(NNS (word)))))) |ET| 
-0.26944865536972678610183606906503  |BT| (ROOT (SBARQ (WHNP (WDT (what))(NN (day)))(SQ (NP (NNP (pearl))(NNP (harbor)))(VP (PP (NP (CD (1942)))))))) |ET| 
-1  |BT| (ROOT (SBARQ (WHNP (WDT (what))(NN (religion)))(SQ (NP (DT (the))(JJS (most))(NNS (member)))))) |ET| 
-0.23513075794997523315643661590002  |BT| (ROOT (SBARQ (WHNP (WDT (what))(JJ (stringed))(NN (weapon)))(SQ (NP (DT (a))(NN (bolt)))))) |ET| 
0.095655450669388145112925769808498  |BT| (ROOT (SBARQ (WHADVP (WRB (where)))(SQ (NP (PRP (i)))(VP (NP (NP (DT (a))(NN (map)))(PP (NP (NNP (prussia)))))(PP (NP (DT (the))(NN (internet)))))))) |ET| 
0.48118380877646865778629603482841  |BT| (ROOT (SBARQ (WHADVP (WRB (where)))(SQ (NP (NP (DT (the))(NN (battle)))(PP (NP (DT (the))(NNP (bulge)))))(VP (NP (NN (place))))))) |ET| 
-0.029315751416685013885921051723926  |BT| (ROOT (SBARQ (WHNP (WP (what)))(SQ (NP (DT (the))(CD (three))(JJ (secondary))(NNS (color)))))) |ET| 
-0.31549664659674447886317238953779  |BT| (ROOT (SBARQ (WHADVP (WRB (how)))(SQ (NP (PRP (i)))(VP (NP (NP (DT (a))(NN (web))(NN (address)))(PP (NP (DT (a))(NN (company))))))))) |ET| 
0.29564401679958118851487824940705  |BT| (ROOT (SBARQ (WHNP (WDT (what))(NN (city)))(SQ (NP (NP (NN (renown)))(PP (NP (PRP$ (its))(JJ (pea-soup))(NNS (fog)))))))) |ET| 
1  |BT| (ROOT (SBARQ (WHNP (WDT (which))(NN (continent)))(SQ (NP (DT (the))(JJS (most))(NNS (rose)))))) |ET| 
0.6670094376192204910225314051786  |BT| (ROOT (SBARQ (WHNP (ADJP (JJ (south))(JJ (american))))(SQ (NP (NP (DT (the))(NN (world))(POS ('s))))))) |ET| 
-0.29618493937873080490419397392543  |BT| (ROOT (S (VP (NP (NP (DT (the))(JJ (various))(JJ (costumed))(NNS (persona)))(PP (NP (NNP (dr.))(NNP (henry))(NNP (pym)))))))) |ET| 
-0.13281615295867010839714339454076  |BT| (ROOT (SBARQ (WHNP (WDT (what))(NN (animal)))(SQ (NP (DT (the))(JJS (biggest))(NNS (eye)))))) |ET| 
0.44179144594164582171558208756323  |BT| (ROOT (SBARQ (WHADVP (WRB (where)))(SQ (NP (NP (DT (the))(VBG (lead))(JJ (medical))(NNS (group)))(VP (PP (NP (NN (lung))(NNS (disease))))))))) |ET| 
1  |BT| (ROOT (SBARQ (WHADVP (PP (NP (DT (a))(NN (tree)))))(SQ (NP (NN (photosynthesis)))(VP (VB (occur)))))) |ET| 
1  |BT| (ROOT (SBARQ (WHADVP (WRB (where)))(SQ (NP (PRP (i)))(VP (NP (NP (JJ (pictorial))(NNS (direction)))(PP (SBAR (WHADVP (WRB (how)))(S (VP (VP (NP (ADJP (RB (very))(JJ (simple)))))))))))))) |ET| 
0.14061579682776759181450643154676  |BT| (ROOT (SBARQ (WHADVP (WRB (where)))(SQ (NP (PRP (i)))(VP (PRT (RP (out)))(NP (DT (the))(JJ (top))(CD (1))(NN (singles))))))) |ET| 
-0.33094975967395623417388605957967  |BT| (ROOT (SBARQ (WHNP (WDT (what))(JJ (english))(NN (word)))(SQ (NP (DT (the))(JJS (most))(NNS (letter)))))) |ET| 
-1  |BT| (ROOT (SBARQ (WHADVP (WRB (where)))(SQ (NP (NN (marijuana)))(VP (PP (IN (from))))))) |ET| 
-1  |BT| (ROOT (SBARQ (WHADVP (WRB (where)))(SQ (NP (PRP$ (you))(NN (hair)))(VP (NP (DT (the))(JJS (fastest))))))) |ET| 
-1  |BT| (ROOT (SBARQ (WHADVP (WRB (where)))(SQ (NP (DT (the))(NNP (u.s.)))(VP (PP (NP (NP (NN (world))(NNS (country)))(PP (NP (NN (area)))))))))) |ET| 
-0.04006212216944522730432964863212  |BT| (ROOT (SBARQ (WHNP (WP (what)))(SQ (NP (NP (DT (the))(JJ (top))(NN (box))(NN (office))(NN (movie)))(PP (NP (NNP (april))(CD (1998)))))))) |ET| 
0.20910407714323780981047207205847  |BT| (ROOT (SBARQ (WHNP (WDT (what))(JJ (russian))(NN (city)))(SQ (NP (DT (the))(NNP (hermitage))(NNP (museum)))))) |ET| 
1  |BT| (ROOT (SBARQ (WHNP (WDT (what))(JJ (famed))(NN (wall)))(SQ (NP (DT (the))(NNP (badaling))(NN (turret)))))) |ET| 
-1  |BT| (ROOT (SBARQ (WHNP (WDT (what))(JJ (infectious))(NN (disease)))(SQ (NP (NP (DT (the))(NN (world))(POS ('s))))))) |ET| 
-0.65941321134874886222831946724909  |BT| (ROOT (SBARQ (WHNP (WDT (which))(JJ (infectious))(NN (disease)))(SQ (NP (NP (DT (the))(NN (world))(POS ('s))))))) |ET| 
-1  |BT| (ROOT (SBARQ (WHNP (WDT (what))(NN (store)))(SQ (VP (S (VP (VP (NP (NP (DT (the))(NN (world))(POS ('s))))))))))) |ET| 
1  |BT| (ROOT (SBARQ (WHADVP (WRB (where)))(SQ (NP (NN (chocolate)))(VP (PP (IN (from))))))) |ET| 
1  |BT| (ROOT (SBARQ (WHADVP (WRB (where)))(SQ (NP (NN (dew)))(VP (PP (IN (from))))))) |ET| 
1  |BT| (ROOT (SBARQ (WHADVP (WRB (where)))(SQ (NP (NNP (tuberculosis)))(VP (PP (IN (from))))))) |ET| 
-1  |BT| (ROOT (SBARQ (WHADVP (WRB (where)))(SQ (NP (NNS (chihuahua)))(VP (PP (IN (from))))))) |ET| 
-1  |BT| (ROOT (SBARQ (WHADVP (WRB (where)))(SQ (NP (NNS (rock)))(VP (PP (IN (from))))))) |ET| 
-1  |BT| (ROOT (SBARQ (WHADVP (WRB (where)))(SQ (NP (JJ (indian))(NN (pudding)))(VP (PP (IN (from))))))) |ET| 
1  |BT| (ROOT (SBARQ (WHNP (WP (what)))(SQ (NP (NP (DT (the))(NN (world))(POS ('s))))))) |ET| 
-0.067292846871548475662372368333308  |BT| (ROOT (SBARQ (WHNP (WP (what)))(SQ (NP (NNP (tuberculosis)))))) |ET| 
-1  |BT| (ROOT (SBARQ (WHNP (WP (what)))(SQ (NP (NP (DT (the))(NN (population)))(PP (NP (DT (the))(NNP (united))(NNPS (states)))))))) |ET| 
-1  |BT| (ROOT (SBARQ (WHNP (WP (what)))(SQ (NP (NP (NN (state))(NN (tree)))(PP (NP (NNP (nebraska)))))))) |ET| 
1  |BT| (ROOT (SBARQ (WHNP (WDT (what))(NNP (london))(NN (street)))(SQ (VP (S (VP (VP (NP (NP (DT (the))(NN (world))(NN (center)))(PP (NP (NP (NNS (man))(POS ('s))))))))))))) |ET| 
1  |BT| (ROOT (SBARQ (WHNP (WDT (what))(NN (ocean)))(SQ (NP (DT (the))(NNP (titanic)))(VP (PRT (RP (in))))))) |ET| 
0.27577216287643352421454778777843  |BT| (ROOT (SBARQ (WHADVP (WRB (where)))(SQ (NP (DT (the))(NN (world)))(VP (PP (IN (from))))))) |ET| 
1  |BT| (ROOT (SBARQ (WHNP (WP (what)))(SQ (NP (NP (DT (the))(NN (world))(POS ('s))))))) |ET| 
-1  |BT| (ROOT (SBARQ (WHADVP (WRB (where)))(SQ (NP (DT (the))(NN (term))(NN (fireplug)))(VP (PP (IN (from))))))) |ET| 
-1  |BT| (ROOT (SBARQ (WHADVP (WRB (where)))(SQ (NP (DT (the))(NN (marriage))(NN (ceremony)))(VP (PP (IN (from))))))) |ET| 
-1  |BT| (ROOT (SBARQ (WHADVP (WRB (where)))(SQ (NP (DT (the))(NN (term))(`` (``))(VBD (86e))('' ('')))(VP (PP (IN (from))))))) |ET| 
1  |BT| (ROOT (SBARQ (WHNP (WP (what)))(SQ (NP (NP (NNS (tourist)))(PP (NP (NNP (reims)))))))) |ET| 
1  |BT| (ROOT (SBARQ (WHNP (WP (what)))(SQ (NP (NP (NN (tourist))(NNS (attraction)))(PP (NP (NNP (reims)))))))) |ET| 
1  |BT| (ROOT (SBARQ (WHNP (WP (what)))(SQ (NP (NP (DT (the))(JJ (sacred))(NN (river)))(PP (NP (NNP (india)))))))) |ET| 
-1  |BT| (ROOT (SBARQ (WHNP (WP (what)))(SQ (NP (NP (DT (the))(NN (world))(POS ('s))))))) |ET| 
-0.027604511186876283523883301995738  |BT| (ROOT (SBARQ (WHNP (WDT (what))(JJ (future))(NN (movie))(NN (treat)))(SQ (VP (PP (NP (NP (JJ (american))(NNS (colonist)))(PP (NP (CD (1603))))))(PP (NP (JJ (native))(NNPS (americans)))))))) |ET| 
-0.22539014977972901543346040398319  |BT| (ROOT (SBARQ (WHNP (WP (what)))(SQ (NP (NP (DT (a))(NN (person))(POS ('s))))))) |ET| 
0.99154994460804812828058629747829  |BT| (ROOT (SBARQ (WHADVP (WRB (where)))(SQ (NP (DT (the))(NN (opera))(NN (singer))(NNP (ileana))(NNP (cotrubas)))(VP (PP (IN (from))))))) |ET| 
0.7194204635556420424080670272815  |BT| (ROOT (SBARQ (WHADVP (WRB (where)))(SQ (NP (DT (the))(NN (tennis))(NN (star))(NNP (stefan))(NNP (edberg)))(VP (PP (IN (from))))))) |ET| 
0.5766103239342513786525046270981  |BT| (ROOT (SBARQ (WHADVP (WRB (where)))(SQ (NP (NNS (people)))(VP (PP (NP (NNP (nepal)))))))) |ET| 
-1  |BT| (ROOT (SBARQ (WHADVP (WRB (where)))(SQ (NP (NP (DT (the)))(VP (NP (NP (NN (rule)))(PP (NP (NN (thumb)))))))(VP (PP (IN (from))))))) |ET| 
-1  |BT| (ROOT (SBARQ (S (VP (VP (NP (DT (the))(JJS (most))(NN (caffeine))))))(WHNP (WDT (what))(NN (soda)))(SQ (NP (PRP (i)))(VP (VB (drink)))))) |ET| 
-0.24817792920131420686402634601109  |BT| (ROOT (SBARQ (WHNP (WDT (what))(JJ (diminutive))(JJ (american))(JJ (female))(NN (gymnast)))(SQ (VP (NP (DT (the))(NN (show)))(PP (NP (DT (the))(CD (1984))(NNPS (olympics)))))))) |ET| 
1  |BT| (ROOT (SBARQ (WHNP (WP (what)))(SQ (NP (NP (NNP (bill))(NNP (gross))(POS ('s))))))) |ET| 
1  |BT| (ROOT (SBARQ (WHNP (WP (what)))(SQ (NP (NP (NNP (george))(NNP (lucas))(POS ('s))))))) |ET| 
1  |BT| (ROOT (SBARQ (WHNP (WP (what)))(SQ (NP (NP (DT (the))(NN (world))(POS ('s))))))) |ET| 
-0.051077259099658246788155935291798  |BT| (ROOT (SBARQ (WHNP (WP (what)))(SQ (NP (NP (NNP (harry))(NNP (houdini))(POS ('s))))))) |ET| 
-0.069546785578762801427465944925643  |BT| (ROOT (SBARQ (WHNP (WP (what)))(SQ (NP (NP (NNP (mel))(NNP (gibson))(POS ('s))))))) |ET| 
-0.069546785578767617019835256542137  |BT| (ROOT (SBARQ (WHNP (WP (what)))(SQ (NP (NP (NNP (nicholas))(NNP (cage))(POS ('s))))))) |ET| 
1  |BT| (ROOT (SBARQ (WHADVP (WRB (where)))(SQ (NP (NP (JJS (most)))(PP (NP (NP (DT (the))(NN (marijuana)))(VP (NP (DT (the))(NNP (united))(NNP (states)))))))(VP (PP (IN (from))))))) |ET| 
1  |BT| (ROOT (SBARQ (WHNP (WP (what)))(SQ (NP (NP (DT (the))(NN (web))(NN (address)))(PP (NP (NP (DT (the))(NN (list)))(PP (NP (NP (JJ (e-mail))(NNS (address)))(PP (NP (NP (NNS (member)))(PP (NP (NP (DT (the))(NNP (house)))(PP (NP (NNPS (representatives)))))))))))))))) |ET| 
1  |BT| (ROOT (SBARQ (WHNP (WDT (what))(NNS (country)))(SQ (NP (NP (DT (the))(JJS (most)))(PP (NP (NN (tourism)))))))) |ET| 
1  |BT| (ROOT (SBARQ (WHNP (WP (what)))(SQ (NP (NP (DT (the))(NN (world))(POS ('s))))))) |ET| 
-0.60207499816553944338437531769159  |BT| (ROOT (SBARQ (WHNP (WDT (what))(NNS (attorney)))(SQ (PP (NP (NP (DT (the))(NNP (center)))(PP (NP (NP (DT (the))(NN (defense)))(PP (NP (NNP (free))(NNP (enterprise))))))))))) |ET| 
-1  |BT| (ROOT (SBARQ (WHNP (WDT (what))(NN (actress)))(SQ (NP (NP (DT (the))(NN (record)))(PP (NP (NP (DT (the))(JJS (most))(NNS (appearance)))(PP (NP (NP (DT (the))(NN (cover)))(PP (NP (NNP (life)))))))))))) |ET| 
-1  |BT| (ROOT (SBARQ (WHNP (WDT (what))(CD (two))(NNS (commander)))(SQ (NP (NP (DT (the))(NNS (force)))(PP (NP (NP (DT (the))(NN (battle)))(PP (NP (NNP (el))(NNP (alamein)))))))))) |ET| 
1  |BT| (ROOT (SBARQ (WHNP (WP (what)))(SQ (NP (NP (NNP (drew))(NNP (barrymore))(POS ('s))))))) |ET| 
1  |BT| (ROOT (SBARQ (WHNP (WP (what)))(SQ (NP (NP (NNP (new))(NNP (england))(POS ('s))))))) |ET| 
1  |BT| (ROOT (SBARQ (WHNP (WP (what)))(SQ (NP (NP (NNP (mark))(NNP (mcgwire))(POS ('s))))))) |ET| 
-1  |BT| (ROOT (SBARQ (WHNP (WP (what)))(SQ (NP (NP (NNP (drew))(NNP (barrymore))(POS ('s))))))) |ET| 
-0.29517828192322104197131693581468  |BT| (ROOT (SBARQ (WHNP (WP (what)))(SQ (NP (NP (NNP (larry))(NNP (king))(POS ('s))))))) |ET| 
-0.012857238623523281617622160410974  |BT| (ROOT (SBARQ (WHNP (WP (what)))(SQ (NP (NP (DT (the))(NN (difference)))(PP (NP (NN (fatalism))(CC (and))(NN (determinism)))))))) |ET| 
1  |BT| (ROOT (SBARQ (WHNP (WDT (what))(JJ (general))(NN (direction)))(SQ (NP (NP (DT (the))(NN (journey)))(PP (PP (NP (NP (DT (the))(NNP (world)))(PP (NP (CD (80))(NNS (day))))))))(VP (PP (IN (in))))))) |ET| 
1  |BT| (ROOT (SBARQ (WHNP (WDT (what))(NN (building)))(SQ (VP (ADVP (RB (appropriately))(RB (enough)))(VP (PP (NP (NP (DT (the))(NN (back)))(PP (NP (DT (the))(JJ (1-dollar))(NN (bill))))))))))) |ET| 
1  |BT| (ROOT (SBARQ (WHADVP (PP (NP (DT (the))(NN (internet)))))(SQ (NP (PRP (i)))(VP (NP (NP (NN (information)))(PP (NP (NP (DT (the))(JJ (fifth))(NN (amendment)))(PP (NP (NP (DT (the))(JJ (american))(NN (bill)))(PP (NP (NNPS (rights))))))))))))) |ET| 
-0.054143099470822152186055831180056  |BT| (ROOT (SBARQ (WHNP (WDT (what))(NNP (world))(NNP (war))(NNP (i))(NN (battle)))(SQ (NP (NP (CD (6))(, (,))(CD (0))(NNS (troops)))(VP (PP (NP (CD (one))(NN (day))))))))) |ET| 
-1  |BT| (ROOT (SBARQ (WHADVP (WRB (where)))(SQ (NP (NP (DT (the))(NN (energy)))(PP (NP (DT (the))(NNP (big))(NNP (bang)))))(VP (PP (IN (from))))))) |ET| 
-0.13245997248746738117475274520984  |BT| (ROOT (SBARQ (WHNP (WDT (what))(JJ (english))(NN (queen)))(SQ (NP (NP (CD (six))(NNS (finger)))(PP (NP (CD (one))(NN (hand)))))))) |ET| 
1  |BT| (ROOT (SBARQ (WHNP (WP (what)))(SQ (NP (NP (NNP (stefan))(NNP (edberg))(POS ('s))))))) |ET| 
1  |BT| (ROOT (SBARQ (WHNP (WP (what)))(SQ (NP (NP (NNP (california))(POS ('s))))))) |ET| 
-1  |BT| (ROOT (SBARQ (WHNP (WP (what)))(SQ (NP (NP (NNP (california))(POS ('s))))))) |ET| 
-0.0030977438682127747017480690061575  |BT| (ROOT (SBARQ (WHNP (WP (what)))(SQ (NP (JJ (thermal))(NN (equilibrium)))))) |ET| 
-0.16650770331528594314640656648407  |BT| (ROOT (SBARQ (WHNP (WP (what)))(SQ (NP (NP (NNP (einstein))(POS ('s))))))) |ET| 
1  |BT| (ROOT (S (VP (NP (NP (DT (a))(NN (art))(NN (gallery)))(PP (NP (NNP (new))(NNP (york)))))))) |ET| 
0.35562171128840536216131340552238  |BT| (ROOT (SBARQ (WHADVP (WRB (where)))(SQ (NP (NP (DT (the))(NN (myth)))(PP (NP (NNP (santa))(NNP (claus)))))(VP (VB (originate)))))) |ET| 
1  |BT| (ROOT (SBARQ (WHADVP (WRB (where)))(SQ (NP (NP (DT (the))(JJ (weird))(NN (shape)))(PP (NP (DT (the))(NN (dinner))(NN (fish))(NN (knife)))))(VP (PP (IN (from))))))) |ET| 
-0.38805057952461718961956194107188  |BT| (ROOT (SBARQ (WHADVP (WRB (when)))(SQ (NP (NP (DT (the))(JJ (royal))(NN (wedding)))(PP (NP (NNP (prince))(NNP (andrew))(CC (and))(NNP (fergie)))))(VP (NP (NN (place))))))) |ET| 
-1  |BT| (ROOT (SBARQ (WHNP (WDT (what))(JJ (19th-century))(NN (writer)))(SQ (NP (NP (DT (a))(NN (country))(NN (estate)))(PP (NP (DT (the))(NN (hudson)))))(VP (NP (NNP (sunnyside))))))) |ET| 
-0.43033972506249562606228664662922  |BT| (ROOT (SBARQ (WHNP (WDT (what))(NN (task)))(SQ (NP (NP (DT (the))(JJ (bouvier))(NN (breed)))(PP (NP (NN (dog)))))(VP (VB (perform)))))) |ET| 
1  |BT| (ROOT (SBARQ (WHNP (WP (what)))(SQ (NP (NP (NNP (einstein))(POS ('s))))))) |ET| 
1  |BT| (ROOT (SBARQ (WHNP (WP (what)))(SQ (NP (NP (NNP (answers.com))(POS ('s))))))) |ET| 
1  |BT| (ROOT (SBARQ (WHNP (WP (what)))(SQ (NP (NP (NNP (britain))(POS ('s))))))) |ET| 
-0.003097743868212760390279392197499  |BT| (ROOT (SBARQ (WHNP (WP (what)))(SQ (NP (JJ (false))(NN (consciousness)))))) |ET| 
-0.0045691060223674220125422706928475  |BT| (ROOT (SBARQ (WHNP (WDT (what))(NNP (louisiana))(NNP (senator)))(SQ (NP (NP (DT (a))(NN (seat)))(SBAR (WHNP (WDT (that)))(S (VP (VP (VP (PP (NP (PRP$ (he))(NN (father))(CC (and))(NN (mother))))))))))))) |ET| 
1  |BT| (ROOT (SBARQ (WHNP (WDT (what))(NN (island)))(SQ (NP (NP (NN (home)))(PP (NP (NNS (statue)))))(VP (NP (NNP (mauis))))))) |ET| 
1  |BT| (ROOT (SBARQ (WHNP (NP (NP (NN (state)))(ADJP (PP (NP (NN (milk))(CC (and))(NN (honey)))))))(SQ (NP (NP (DT (the))(NN (destination)))(PP (NP (NP (DT (the))(NNS (grape)))(PP (NP (NN (wrath)))))))))) |ET| 
1  |BT| (ROOT (SBARQ (WHNP (WDT (what))(NN (city)))(SQ (VP (PP (NP (NP (DT (the))(NN (mouth)))(PP (NP (DT (the))(NNP (amazon)))))))))) |ET| 
-1  |BT| (ROOT (SBARQ (WHNP (NP (NP (CD (two))(NNS (president)))(PP (NP (DT (the))(NNP (u.s.))))))(SQ (NP (NP (NNS (book)))(PP (NP (NN (poetry)))))))) |ET| 
-0.2129643828019999463041500575855  |BT| (ROOT (SBARQ (WHNP (WDT (what))(NNS (animal)))(SQ (VP (PP (NP (NP (NNS (lapwarmer)))(PP (NP (NP (JJ (american))(NNS (colonist)))(PP (NP (NN (church)))))))))))) |ET| 
-0.43687158456478292212210590150789  |BT| (ROOT (SBARQ (WHNP (WDT (what))(JJ (japanese))(NN (manufacturer)))(SQ (VP (PP (NP (NP (PRP$ (its))(NNS (piano)))(NP (PRP$ (its))(NNS (motorcycle))))))))) |ET| 
1  |BT| (ROOT (SBARQ (WHNP (WP (what)))(SQ (NP (DT (the))(CD (seven))(NNS (sea)))))) |ET| 
1  |BT| (ROOT (SBARQ (WHNP (ADJP (JJ (north))(JJ (american))))(SQ (NP (PRP (you)))(VP (S (VP (VP (NP (NP (NNP (cleopatra))(POS ('s))))))))))) |ET| 
1  |BT| (ROOT (SBARQ (WHNP (WP (what)))(SQ (NP (NP (DT (the))(JJS (best))(JJ (online))(NNS (game))))))) |ET| 
-1  |BT| (ROOT (SBARQ (WHNP (WP (what)))(SQ (NP (NP (NNP (einstein))(POS ('s))))))) |ET| 
-0.066942291705882339680755421795766  |BT| (ROOT (SBARQ (WHNP (WP (what)))(SQ (NP (NP (NNP (babe))(NNP (ruth))(POS ('s))))))) |ET| 
-0.86919340270907285983525980554987  |BT| (ROOT (SBARQ (WHNP (WP (what)))(SQ (NP (PRP (i)))(VP (S (VP (VP (S (VP (VP (NP (NN (web))(NNS (page))))))))))))) |ET| 
1  |BT| (ROOT (SBARQ (WHNP (NP (NP (JJ (famed))(NN (strip)))(PP (NP (NN (land))))))(SQ (NP (NP (DT (a))(JJ (15-minute))(NN (boat))(NN (trip)))(PP (NP (NP (DT (the))(NNP (venetian))(NN (lagoon)))(PP (NP (NNP (venice)))))))))) |ET| 
1  |BT| (ROOT (SBARQ (WHADVP (WRB (where)))(SQ (NP (PRP (i)))(VP (NP (NP (DT (a))(NN (case)))(PP (NP (NP (NNS (individual)))(PP (NP (NP (NNPS (disabilities))(NNP (education))(NNP (act)))(PP (NP (CD (1991))))))))))))) |ET| 
1  |BT| (ROOT (SBARQ (WHNP (WDT (what))(NNP (las))(NNP (vegas))(NN (hotel)))(SQ (VP (PP (NP (NP (NNP (november)))(NP (CD (1980)))))(PP (NP (NP (DT (the))(NN (loss)))(PP (NP (CD (84))(NNS (life)))))))))) |ET| 
-1  |BT| (ROOT (SBARQ (WHNP (WDT (what))(NN (tragedy)))(SQ (VP (NP (NP (DT (the))(NN (city)))(PP (NP (NNP (dogtown)))))(PP (NP (CD (1899)))))))) |ET| 
-0.43134042874534500588978858104383  |BT| (ROOT (SBARQ (WHNP (WDT (what))(NN (part)))(SQ (NP (NNP (john))(NNP (peter))(NNP (zenger)))(VP (PP (NP (NP (DT (the))(NN (deveopment)))(PP (NP (NP (DT (the))(NN (newspaper)))(PP (NP (NNP (america)))))))))))) |ET| 
-0.31649025722192170029245517071104  |BT| (ROOT (SBARQ (WHNP (WDT (what))(NN (part)))(SQ (NP (NNP (benjamin))(NNP (franklin)))(VP (PP (NP (NP (DT (the))(NN (development)))(PP (NP (NP (DT (the))(NN (newspaper)))(PP (NP (NNP (america)))))))))))) |ET| 
1  |BT| (ROOT (SBARQ (WHNP (WP (what)))(SQ (NP (ADJP (NP (JJ (fractal))(NN (web)))))))) |ET| 
1  |BT| (ROOT (SBARQ (WHNP (WP (what)))(SQ (VP (NP (DT (the))(NN (benelux))(NNS (country))))))) |ET| 
1  |BT| (ROOT (SBARQ (WHNP (WP (what)))(SQ (NP (DT (some))(JJ (mythology))(NNS (website)))))) |ET| 
-0.72324165064072054587285265370156  |BT| (ROOT (SBARQ (WHNP (WP (what)))(SQ (VP (NP (NP (DT (the))(NN (world))(POS ('s)))))))) |ET| 
-0.38273917691214098812935162641224  |BT| (ROOT (SBARQ (WHNP (WDT (what))(NNS (overalls)))(SQ (VP (PP (NP (NP (NNP (dungri)))(NP (NP (DT (a))(NN (suburb)))(PP (NP (NNP (bombay))))))))))) |ET| 
-0.36755111123253053628801012564509  |BT| (ROOT (SBARQ (WHNP (WP (what)))(SQ (NP (DT (the))(NNP (kashmir))(NN (issue)))))) |ET| 
-0.36755111123253209060024460086424  |BT| (ROOT (SBARQ (WHNP (WP (what)))(SQ (NP (DT (the))(NNP (chivington))(NN (massacre)))))) |ET| 
0.41619872712594735419955327415664  |BT| (ROOT (SBARQ (WHNP (WDT (what))(NN (city)))(SQ (NP (NP (DT (the))(JJ (first))(NNPS (winter))(NNPS (olympics)))(PP (NP (NNP (asia)))))))) |ET| 
1  |BT| (ROOT (SBARQ (WHNP (WDT (what))(NN (river)))(SQ (VP (PP (NP (NP (DT (the))(NNP (temple)))(PP (NP (NNP (karnak)))))))))) |ET| 
1  |BT| (ROOT (S (VP (S (NP (NP (DT (the))(NN (country)))(PP (NP (NNS (giant))))(NP (CD (twelve))(NNS (time))))(NP (NP (DT (the))(NN (size)))(PP (NP (NP (NN (man)))(PP (NP (NP (`` (``))(NNP (gulliver))(POS ('s)))))))))))) |ET| 
-0.68564217238046487601366152375704  |BT| (ROOT (SBARQ (WHNP (WDT (what))(NN (spy))(NN (novelist)))(SQ (VP (PP (NP (NP (NNP (moscow))(NN (correspondent)))(PP (NP (NP (NNP (reuter)))(NP (NP (DT (the))(NNP (times)))(PP (NP (NNP (london))))))))))))) |ET| 
-0.010400277530785645777045012039252  |BT| (ROOT (SBARQ (WHNP (WDT (what))(NN (operating))(NN (system)))(SQ (NP (JJ (ibm-compatible))(NNS (machine)))(VP (VB (use)))))) |ET| 
-0.18324885243608948770521749338513  |BT| (ROOT (SBARQ (WHNP (WDT (what))(NN (feud)))(SQ (VP (PP (NP (NP (DT (a))(NN (marriage)))(PP (NP (NNP (kentucky))))))(PP (NP (NNP (march))(CD (21))(, (,))(CD (1891)))))))) |ET| 
1  |BT| (ROOT (SBARQ (WHNP (WP (what)))(SQ (NP (DT (the))(JJS (tallest))(NN (mountain)))))) |ET| 
1  |BT| (ROOT (SBARQ (WHNP (WP (what)))(SQ (NP (DT (the))(JJS (biggest))(JJ (indian))(NNS (airport)))))) |ET| 
1  |BT| (ROOT (SBARQ (WHNP (WP (what)))(SQ (NP (DT (the))(JJ (nordic))(NNS (nation)))))) |ET| 
-0.075026674552883254598611983965384  |BT| (ROOT (SBARQ (WHNP (WP (what)))(SQ (NP (DT (the))(JJ (greek))(NNS (numeral)))))) |ET| 
-1  |BT| (ROOT (SBARQ (WHNP (WP (what)))(SQ (NP (DT (the))(JJ (twin))(NNS (city)))))) |ET| 
-0.086260842399582329798057855896332  |BT| (ROOT (SBARQ (WHNP (WP (what)))(SQ (NP (DT (the))(JJ (wolverine))(NNS (habit)))))) |ET| 
1  |BT| (ROOT (SBARQ (WHNP (WDT (what))(NNS (mountain)))(SQ (PP (NP (NP (NNP (arkansas))(CC (and))(NNP (missouri)))))))) |ET| 
1  |BT| (ROOT (SBARQ (WHNP (WDT (what))(NN (island))(NN (group)))(SQ (NP (NNP (guadalcanal)))(NP (NP (DT (a))(NN (part)))(PP (IN (of))))))) |ET| 
1  |BT| (ROOT (SBARQ (WHNP (WDT (what))(NN (mountain))(NN (range)))(SQ (VP (PP (NP (NP (DT (the))(NNP (gulf)))(PP (NP (NNP (st.))(NNP (lawrence))))))(PP (NP (NNP (alabama)))))))) |ET| 
-1  |BT| (ROOT (SBARQ (WHNP (WDT (what))(NN (information)))(SQ (NP (PRP (you)))(VP (NP (PRP (i)))(PP (NP (NP (NNP (fairground))(NNP (park)))(PP (NP (NNP (st.))(NNP (louis)))))))))) |ET| 
-0.090976604220795648236830288624333  |BT| (ROOT (SBARQ (WHNP (WP (what)))(SQ (NP (DT (the))(JJ (second))(JJS (hardest))(NN (substance)))))) |ET| 
-0.06220535846875311497550242734178  |BT| (ROOT (SBARQ (WHNP (WP (what)))(SQ (NP (NP (DT (the))(NN (name)))(PP (NP (NP (DT (the))(NN (movie)))(SBAR (WHNP (WDT (that)))(S (VP (NP (NP (NNP (sharon))(NNP (stone)))(NP (NNP (arnold))(NNP (schwarzenegger))))))))))))) |ET| 
1  |BT| (ROOT (SBARQ (WHNP (WP (what)))(SQ (NP (ADVP (NP (DT (the))(JJ (great))(NNS (lake)))))))) |ET| 
1  |BT| (ROOT (SBARQ (WHNP (WP (what)))(SQ (NP (NP (NP (NNP (britain))(POS ('s))))(PP (NP (DT (the))(JJ (chinese))(NN (mainland)))))))) |ET| 
1  |BT| (ROOT (SBARQ (WHNP (WP (what)))(SQ (NP (DT (the))(JJ (first))(NNS (body)))(VP (PP (NP (NN (spacecraft)))))))) |ET| 
-1  |BT| (ROOT (SBARQ (WHNP (WP (what)))(SQ (NP (NP (DT (the))(JJS (best))(NN (college)))(PP (NP (DT (the))(NN (country)))))))) |ET| 
-0.054122478523199346600591752576292  |BT| (ROOT (SBARQ (WHNP (WP (what)))(SQ (NP (NP (DT (the))(NN (population)))(PP (NP (NP (NNP (biloxi)))(NP (NNP (mississippi))))))))) |ET| 
-1  |BT| (ROOT (SBARQ (WHNP (WP (what)))(SQ (NP (DT (the))(JJS (oldest))(NN (profession)))))) |ET| 
1  |BT| (ROOT (SBARQ (WHNP (WDT (what))(NN (room)))(SQ (NP (NNP (w.c.))(NNP (fields)))(VP (NP (PRP$ (he))(NN (library)))(PP (IN (in))))))) |ET| 
1  |BT| (ROOT (SBARQ (WHNP (WDT (what))(NN (planet)))(SQ (VP (NP (NN (bith)))(PP (NP (NNP (superman)))))))) |ET| 
1  |BT| (ROOT (SBARQ (WHNP (WDT (what))(NN (planet)))(SQ (NP (NNP (percival))(NNP (lovell)))(VP (VB (discover)))))) |ET| 
-0.3208684223978423566414619472198  |BT| (ROOT (SBARQ (WHNP (NP (WDT (which))(NNS (president)))(PP (NP (DT (the))(NNP (usa)))))(SQ (NP (NNPS (masons)))))) |ET| 
-0.71948168148924118714404585261946  |BT| (ROOT (SBARQ (WHNP (WDT (what))(NN (horse)))(SQ (NP (NNP (zorro)))(VP (VB (ride)))))) |ET| 
-0.62960798756055569302958474509069  |BT| (ROOT (SBARQ (WHNP (WP (what)))(SQ (NP (NP (DT (the))(NN (division)))(PP (NP (NP (DT (the))(NNPS (anglicans)))(NP (DT (the))(NNP (vatican))))))))) |ET| 
1  |BT| (ROOT (SBARQ (WHNP (WP (what)))(SQ (NP (NP (DT (the))(JJS (largest))(NNS (brewery)))(PP (NP (DT (the))(NN (world)))))))) |ET| 
1  |BT| (ROOT (SBARQ (WHNP (WP (what)))(SQ (NP (NP (DT (the))(JJS (largest))(NNS (desert)))(PP (NP (DT (the))(NN (world)))))))) |ET| 
1  |BT| (ROOT (SBARQ (WHNP (WP (what)))(SQ (NP (NP (DT (the))(NN (website)))(PP (NP (DT (the))(NNP (usa))(NN (journal)))))))) |ET| 
-1  |BT| (ROOT (SBARQ (WHNP (WP (what)))(SQ (NP (NP (DT (the))(JJS (largest))(NN (snake)))(PP (NP (DT (the))(NN (world)))))))) |ET| 
-1  |BT| (ROOT (SBARQ (WHNP (WP (what)))(SQ (NP (NP (DT (the))(JJS (largest))(NN (sculpture)))(PP (NP (DT (the))(NN (world)))))))) |ET| 
-1  |BT| (ROOT (SBARQ (WHNP (WP (what)))(SQ (NP (NP (ADJP (RBS (most))(JJ (advanced))))(PP (NP (DT (the))(NN (world)))))))) |ET| 
1  |BT| (ROOT (SBARQ (WHNP (WDT (what))(NN (state)))(SQ (NP (NNP (charles))(NNP (robb)))(VP (VB (represent)))))) |ET| 
1  |BT| (ROOT (SBARQ (WHNP (WDT (what))(NN (state)))(SQ (NP (NNP (john))(NNP (f.))(NNP (kennedy)))(VP (PP (IN (in))))))) |ET| 
1  |BT| (ROOT (SBARQ (WHNP (WDT (what))(NN (province)))(SQ (NP (NNP (edmonton)))(VP (PP (IN (in))))))) |ET| 
-1  |BT| (ROOT (SBARQ (WHNP (WDT (what))(NN (book)))(SQ (NP (NNP (holden))(NNP (caulfield)))(VP (PP (IN (in))))))) |ET| 
-0.38090781161776265939522545522777  |BT| (ROOT (SBARQ (WHNP (WDT (what))(NN (novel)))(SQ (NP (NNP (ian))(NNP (fleming)))(VP (NP (NNP (james))(NNP (bond)))(PP (IN (in))))))) |ET| 
-0.38265175721704403066780741937691  |BT| (ROOT (SBARQ (WHNP (WDT (what))(NN (sport)))(SQ (NP (DT (a))(JJ (free-legged))(NN (pacer)))(VP (PP (IN (in))))))) |ET| 
1  |BT| (ROOT (SBARQ (WHNP (WP (what)))(SQ (NP (NP (DT (the))(JJS (largest))(NN (museum)))(PP (NP (DT (the))(NN (world)))))))) |ET| 
1  |BT| (ROOT (SBARQ (WHNP (WP (what)))(SQ (NP (NP (ADJP (RBS (most))(JJ (expensive))))(PP (NP (DT (the))(NN (world)))))))) |ET| 
1  |BT| (ROOT (SBARQ (WHNP (WP (what)))(SQ (NP (NP (ADJP (RBS (most))(JJ (populated))))(PP (NP (DT (the))(NN (world)))))))) |ET| 
-1  |BT| (ROOT (SBARQ (WHNP (WP (what)))(SQ (NP (NP (ADJP (RBS (most))(JJ (expensive))))(PP (NP (DT (the))(NN (world)))))))) |ET| 
-1  |BT| (ROOT (SBARQ (WHNP (WP (what)))(SQ (NP (NP (ADJP (RBS (most))(JJ (common))))(PP (NP (DT (the))(NN (world)))))))) |ET| 
-1  |BT| (ROOT (SBARQ (WHNP (WP (what)))(SQ (NP (NP (NN (usenet)))(PP (NP (DT (the))(NN (internet)))))))) |ET| 
0.36396922191454905703977829034557  |BT| (ROOT (SBARQ (WHNP (WDT (what))(NN (country)))(SQ (NP (NNP (ileana))(NNP (cotrubas)))(VP (PP (IN (from))))))) |ET| 
0.47320890833678475040358080150327  |BT| (ROOT (SBARQ (WHNP (WDT (what))(NN (state)))(SQ (NP (NNP (herbert))(NNP (hoover)))(VP (PP (IN (in))))))) |ET| 
0.13215300655348638514396952814423  |BT| (ROOT (SBARQ (WHNP (WDT (what))(NN (state)))(SQ (NP (NNP (niagara))(NNP (falls)))(VP (PP (IN (in))))))) |ET| 
-0.076128595036966312248338795143354  |BT| (ROOT (SBARQ (WHNP (WDT (what))(NN (frenchman)))(SQ (VP (NP (DT (the))(NN (following))))))(S (SBAR (S (NP (NNP (god)))(VP (VP (VB (exist))))))(NP (PRP (it)))(VP (VP (ADJP (S (VP (VP (NP (PRP (he))))))))))) |ET| 
-0.6034591250402754347703648818424  |BT| (ROOT (SBARQ (WHNP (WDT (what))(NN (century)))(SQ (NP (NP (NN (art))(POS ('s))))(VP (PP (IN (in))))))) |ET| 
1  |BT| (ROOT (SBARQ (WHNP (WP (what)))(SQ (NP (NP (ADJP (RBS (most))(JJ (powerful))))(PP (NP (DT (the))(NN (world)))))))) |ET| 
1  |BT| (ROOT (SBARQ (WHNP (WP (what)))(SQ (NP (NP (DT (the))(JJS (best))(NN (hospital)))(PP (NP (NP (NNS (orthopedic)))(PP (NP (DT (the))(NN (country)))))))))) |ET| 
1  |BT| (ROOT (SBARQ (WHNP (WP (what)))(SQ (NP (NP (ADJP (RBS (most))(JJ (common))))(PP (NP (NNP (america)))))))) |ET| 
-0.94133736054542560545144169736886  |BT| (ROOT (SBARQ (WHNP (WP (what)))(SQ (NP (NP (ADJP (RBS (most))(JJ (powerful))))(PP (NP (NNP (euchre)))))))) |ET| 
-1  |BT| (ROOT (SBARQ (WHNP (WP (what)))(SQ (NP (NP (ADJP (RBS (most))(JJ (common))))(PP (NP (NNP (america)))))))) |ET| 
-0.7415769664058067256462436489528  |BT| (ROOT (SBARQ (WHNP (WP (what)))(SQ (NP (NP (ADJP (RBS (most))(JJ (common))))(PP (NP (DT (the))(NNP (us)))))))) |ET| 
1  |BT| (ROOT (SBARQ (WHADVP (WRB (where)))(SQ (NP (PRP (i)))(VP (NP (NP (DT (a))(NN (person))(POS ('s))))(PP (NP (DT (a))(NN (telephone))(NN (number)))))))) |ET| 
-0.052936978566117141864477702029035  |BT| (ROOT (SBARQ (WHNP (NP (PP (NP (VBG (greet))))))(SQ (ADJP (S (VP (VP (PP (NP (NNP (yom))(NNP (kippur))))))))))) |ET| 
1  |BT| (ROOT (SBARQ (WHNP (WDT (what))(NN (river)))(SQ (NP (NNP (pocahontas)))(VP (PP (IN (along))))))) |ET| 
-1  |BT| (ROOT (SBARQ (WHADVP (WRB (where)))(SQ (NP (DT (the))(NN (name))(NN (root))(NN (beer)))(VP (PP (IN (from))))))) |ET| 
-1  |BT| (ROOT (SBARQ (WHADVP (PP (NP (`` (``))(NNS (eye))('' ('')))))(SQ (NP (DT (a))(NN (coconut)))(VP (VB (have)))))) |ET| 
-1  |BT| (ROOT (SBARQ (WHADVP (WRB (where)))(SQ (NP (DT (the))(JJ (human))(NN (skin)))(ADJP (RBS (least))(JJ (sensitive)))))) |ET| 
1  |BT| (ROOT (SBARQ (WHNP (WP (what)))(SQ (NP (NP (ADJP (RBS (most))(JJ (important))))(PP (NP (NP (DT (the))(NN (world)))(ADVP (RB (historically))))))))) |ET| 
1  |BT| (ROOT (SBARQ (WHNP (WP (what)))(SQ (NP (NP (ADJP (ADJP (RBS (most))(JJ (expensive)))))(PP (NP (NP (DT (the))(NNP (u.s.)))(ADVP (RB (right))(RB (now))))))))) |ET| 
-0.33469492192664834773196957939945  |BT| (ROOT (SBARQ (WHNP (NP (PP (NP (DT (the))(NN (atmosphere))))))(SQ (NP (NP (JJS (most)))(PP (NP (DT (the))(NN (ozone))(NN (layer)))))))) |ET| 
-1  |BT| (ROOT (SBARQ (WHNP (WDT (what))(NN (letter)))(SQ (NP (NP (DT (the))(NN (flag)))(PP (NP (NNP (rwanda)))))))) |ET| 
-0.91890163735748331408359490524163  |BT| (ROOT (SBARQ (WHNP (WDT (what))(NN (culture)))(SQ (NP (NP (DT (the))(NN (idea)))(PP (NP (NNP (potlatch)))))))) |ET| 
0.10870066583256669801027527455517  |BT| (ROOT (SBARQ (WHADVP (WRB (where)))(SQ (NP (NNS (lobster)))(VP (S (VP (VP (VB (live))))))))) |ET| 
0.4075356861195063018499240570236  |BT| (ROOT (SBARQ (WHADVP (WRB (where)))(SQ (NP (DT (the))(JJ (abominable))(NN (snowman)))(VP (S (VP (VP (VB (wander))))))))) |ET| 
0.54118049944742585566359593940433  |BT| (ROOT (SBARQ (WHADVP (WRB (where)))(SQ (NP (NN (cable))(NNS (car)))(VP (ADJP (JJ (first)))(PP (NP (NNP (clay))(NNP (street))))(PP (NP (NNP (1873)))))))) |ET| 
1  |BT| (ROOT (SBARQ (WHNP (WP (what)))(SQ (NP (NP (ADJP (RBS (most))(JJ (populated))))(PP (NP (DT (the))(NN (world)))))))) |ET| 
-0.19913592677876931769098689528619  |BT| (ROOT (SBARQ (WHNP (WDT (what))(NN (president)))(SQ (NP (DT (the))(NNP (queen))(NNP (mother)))(PP (NP (DT (the))(NNS (lip))))))) |ET| 
-0.032745126188700325597924489784418  |BT| (ROOT (SBARQ (WHADVP (WRB (why)))(SQ (NP (PRP (we)))(VP (S (NP (NN (someone)))(NP (NN (honey)))))))) |ET| 
-0.23964576787530317281138536600338  |BT| (ROOT (SBARQ (WHNP (WP (what)))(SQ (NP (NP (DT (the))(NN (distinction)))(PP (NP (NP (NP (NNP (erle))(NNP (stanley))(NNP (gardner))(POS ('s)))(NX (DT (the))(NN (case))))(PP (NP (DT (the))(NNP (terrified))(NNP (typist)))))))))) |ET| 
1  |BT| (ROOT (SBARQ (WHNP (WP (what)))(SQ (NP (NP (DT (the))(NN (habitat)))(PP (NP (DT (the))(NN (chickadee)))))))) |ET| 
1  |BT| (ROOT (SBARQ (WHNP (WP (what)))(SQ (NP (NP (DT (the))(NN (name)))(PP (NP (NP (DT (a))(NN (hotel)))(PP (NP (NNP (indianapolis)))))))))) |ET| 
1  |BT| (ROOT (SBARQ (WHNP (WP (what)))(SQ (NP (NP (DT (the))(NN (capital)))(PP (NP (NNP (iowa)))))))) |ET| 
-1  |BT| (ROOT (SBARQ (WHNP (WP (what)))(SQ (NP (NP (DT (the))(NN (motto)))(PP (NP (NP (DT (the))(NN (state)))(PP (NP (NNP (maryland)))))))))) |ET| 
-0.069192407547957412994321657606633  |BT| (ROOT (SBARQ (WHNP (WDT (what))(JJ (soft))(NN (drink)))(SQ (ADJP (ADVP (RBS (most))(RB (heavily))))))) |ET| 
-0.3584841309898361694230572993547  |BT| (ROOT (SBARQ (WHNP (WP (what)))(SQ (NP (NP (DT (the))(NN (size)))(PP (NP (NNP (argentina)))))))) |ET| 
1  |BT| (ROOT (SBARQ (WHNP (NP (PP (NP (NN (water))))))(SQ (NP (DT (the))(NNP (yukon))(NNP (river)))(VP (PP (IN (into))))))) |ET| 
1  |BT| (ROOT (SBARQ (WHNP (WDT (what))(NN (direction)))(SQ (VP (SBAR (S (NP (JJS (most))(NN (baseball))(NNS (pitcher)))(VP (PP (IN (toward)))))))))) |ET| 
0.71548851012448000386001467632013  |BT| (ROOT (SBARQ (WHADVP (WRB (where)))(SQ (NP (NNP (dikembe))(NNP (mutombo)))(VP (PP (NP (NN (college)))))))) |ET| 
-1  |BT| (ROOT (SBARQ (WHNP (WP (who)))(SQ (VP (NP (CD (1))(NNS (foot)))(PP (SBAR (WHADVP (WRB (where)))(S (NP (NNP (john))(NNP (f.))(NNP (kennedy)))(VP (VBD (do)))))))))) |ET| 
-1  |BT| (ROOT (SBARQ (WHNP (WDT (what))(NN (year)))(SQ (NP (DT (the))(NNP (olympic))(NNPS (games)))(VP (PP (SBAR (WHADVP (WRB (where)))(S (NP (NNP (nadia))(NNP (comaneci)))(VP (ADJP (JJ (popular))))))))))) |ET| 
-0.069029191022175862002541180117987  |BT| (ROOT (S (NP (NNP (ray))(NNP (charles)))(VP (WHNP (WDT (which))(NN (instrument)))))) |ET| 
1  |BT| (ROOT (SBARQ (WHNP (WP (what)))(SQ (NP (NP (DT (the))(NN (nickname)))(PP (NP (NNP (pennsylvania)))))))) |ET| 
1  |BT| (ROOT (SBARQ (WHNP (WP (what)))(SQ (NP (NP (DT (the))(NN (nickname)))(PP (NP (NP (DT (the))(NN (state)))(PP (NP (NNP (mississippi)))))))))) |ET| 
1  |BT| (ROOT (SBARQ (WHNP (WP (what)))(SQ (NP (NP (DT (the))(NN (capital)))(PP (NP (NNP (seattle)))))))) |ET| 
-0.12817752355081304949102616319578  |BT| (ROOT (SBARQ (WHNP (WDT (what))(NN (college)))(SQ (VP (NP (DT (the))(RBS (most))(JJ (winning))(NNP (super))(NNP (bowl))(NNS (quarterback))))))) |ET| 
-0.060797460164553486505756296764957  |BT| (ROOT (SBARQ (WHNP (WP (what)))(SQ (NP (NP (DT (the))(NN (nickname)))(PP (NP (NN (oddsmaker))(NNP (jimmy))(NNP (snyder)))))))) |ET| 
-0.049946926908348926454905836180842  |BT| (ROOT (SBARQ (WHNP (WP (what)))(SQ (NP (NP (DT (the))(NN (nickname)))(PP (NP (NN (model))(NNP (leslie))(NNP (hornby)))))))) |ET| 
1  |BT| (ROOT (SBARQ (WHNP (WDT (what))(NN (ocean)))(SQ (NP (NNP (amelia))(NNP (earhart)))(VP (PP (SBAR (WHADVP (WRB (when)))(S (NP (PRP (she)))(VP (VBD (disappear)))))))))) |ET| 
1  |BT| (ROOT (SBARQ (WHNP (WDT (what))(NN (bay)))(SQ (NP (NP (NP (NNP (maryland))(POS ('s))))(NP (NNP (western))(NNP (shores))))))) |ET| 
1  |BT| (ROOT (SBARQ (WHNP (WDT (what))(NN (nationality)))(SQ (NP (NNP (jackson))(NNP (pollock)))))) |ET| 
-0.87829633612320490154701246865443  |BT| (ROOT (SBARQ (WHNP (WDT (what))(NN (corporation)))(SQ (NP (NNP (madonna)))(VP (PP (IN (for))))))) |ET| 
-0.91957202047884101236974174753414  |BT| (ROOT (SBARQ (WHNP (WDT (what))(NN (group)))(SQ (NP (NNP (patricia))(NNP (hearst)))))) |ET| 
-1  |BT| (ROOT (SBARQ (WHNP (WDT (what))(NN (college)))(SQ (NP (NP (NNP (hanover)))(NP (NNP (new))(NNP (hampshire))))))) |ET| 
-0.3547736360268400890305429129512  |BT| (ROOT (SBARQ (WHNP (WDT (what))(NN (product)))(SQ (NP (NNP (william))(NNP (horlick)))(VP (VB (discover))(CC (and))(VB (produce)))))) |ET| 
1  |BT| (ROOT (SBARQ (WHNP (WP (what)))(SQ (NP (PRP (we)))(VP (NP (NP (DT (the))(JJ (imaginary))(NN (line)))(PP (NP (NP (DT (the))(NN (top)))(PP (NP (DT (the))(NNP (rocky))(NNPS (mountains))))))))))) |ET| 
1  |BT| (ROOT (SBARQ (WHNP (WP (what)))(SQ (NP (NP (DT (the))(NN (name)))(PP (NP (NP (DT (the))(NN (gulf)))(PP (NP (NNP (sweden))(CC (and))(NNP (finland)))))))))) |ET| 
1  |BT| (ROOT (SBARQ (WHNP (WP (what)))(SQ (NP (NP (ADJP (JJS (fastest))(VBG (grow))))(PP (NP (NP (DT (the))(NN (u.s.a.)))(PP (NP (CD (1998)))))))))) |ET| 
-0.73844193667229984789912577980431  |BT| (ROOT (SBARQ (WHNP (WP (what)))(SQ (NP (NP (DT (the))(NN (name)))(PP (NP (NP (DT (the))(NNP (protestant))(NN (revolt)))(PP (NP (NP (DT (the))(NN (supremacy)))(PP (NP (DT (the))(NNP (pope)))))))))))) |ET| 
-0.18675262088364039114729564516892  |BT| (ROOT (SBARQ (WHNP (WP (what)))(SQ (NP (NP (DT (the))(JJ (better-known))(NN (identity)))(PP (NP (NP (NNP (john))(NNP (merrick)))(NP (NP (DT (the))(JJ (noble))(NN (ogre)))(PP (NP (JJ (victorian))(NNP (england))))))))))) |ET| 
-0.079171110343283154775484433685051  |BT| (ROOT (SBARQ (WHNP (NP (NNP (cruise))(NNP (line))))(SQ (NP (NNP (kathie))(NNP (lee))(NNP (gifford)))(VP (PP (IN (for))))))) |ET| 
1  |BT| (ROOT (SBARQ (WHNP (WDT (what))(NN (nation)))(SQ (NP (NNP (mozambique)))))) |ET| 
1  |BT| (ROOT (SBARQ (WHNP (WDT (what))(NN (sound)))(SQ (NP (NP (NNP (olympia)))(NP (NNP (washington))))(VP (VB (overlook)))))) |ET| 
1  |BT| (ROOT (SBARQ (WHNP (WDT (what))(NN (nationality)))(SQ (NP (NNP (gorbachev)))))) |ET| 
-1  |BT| (ROOT (SBARQ (WHNP (WDT (what))(NN (currency)))(SQ (VP (PP (NP (NNP (australia)))))))) |ET| 
-0.5105009241336079250928037254198  |BT| (ROOT (SBARQ (WHNP (WDT (what))(NN (color)))(SQ (NP (NNP (chablis)))))) |ET| 
-0.56779283433342397913179411261808  |BT| (ROOT (SBARQ (WHNP (WDT (what))(NN (president)))(SQ (VP (PP (NP (NP (CD (219))(JJ (north))(NNP (delaware))(NN (street)))(NP (NP (NNP (independence)))(NP (NNP (missouri)))))))))) |ET| 
1  |BT| (ROOT (SBARQ (WHNP (WP (what)))(SQ (NP (NP (DT (the))(NN (name)))(PP (NP (NP (DT (the))(NNP (wilkes))(NN (plantation)))(PP (IN (in)))(PP (NP (DT (the))(NN (wind)))))))))) |ET| 
1  |BT| (ROOT (SBARQ (WHNP (WP (what)))(SQ (NP (NP (DT (the))(NN (location)))(PP (NP (NNP (mccarren))(NNP (airport)))))))) |ET| 
1  |BT| (ROOT (SBARQ (WHNP (WP (what)))(SQ (NP (NP (DT (the))(NN (home)))(PP (NP (DT (the))(NNPS (rockettes)))))))) |ET| 
-0.12266175564054634938848664660327  |BT| (ROOT (SBARQ (WHNP (WP (what)))(SQ (NP (NP (DT (the))(NN (speed)))(PP (NP (DT (the))(NNP (mississippi))(NNP (river)))))))) |ET| 
1  |BT| (ROOT (SBARQ (WHNP (WDT (what))(NN (gate)))(SQ (VP (PP (NP (NP (NNP (east)))(NP (NNP (west))(NNP (berlin))))))))) |ET| 
1  |BT| (ROOT (SBARQ (WHNP (WDT (what))(NN (prison)))(SQ (VP (PP (NP (NP (NNP (ossining)))(NP (NNP (new))(NNP (york))))))))) |ET| 
1  |BT| (ROOT (SBARQ (WHNP (WDT (what))(NN (lake)))(SQ (NP (NNP (sheboygan)))(PP (IN (on)))))) |ET| 
-1  |BT| (ROOT (SBARQ (WHNP (WP (what)))(SQ (NP (NP (DT (the))(NN (speed)))(PP (NP (DT (the))(NNP (mississippi))(NNP (river)))))))) |ET| 
-1  |BT| (ROOT (SBARQ (SBARQ (WHNP (WP (what)))(SQ (NP (NP (DT (the))(JJ (all-time))(NN (stock))(NN (high)))(PP (NP (NNP (apple))(NNP (computer)))))))(SBARQ (WHADVP (WRB (where)))(SQ (NP (PRP (i)))(VP (NP (DT (this))(NN (information)))))))) |ET| 
-1  |BT| (ROOT (SBARQ (WHNP (ADJP (JJ (former))(JJ (african))))(SQ (NP (NP (PRP$ (he))(NN (country))(POS ('s))))(PP (NP (CD (nine))(NNS (year))))))) |ET| 
-1  |BT| (ROOT (SBARQ (WHNP (WDT (what))(NN (generation)))(SQ (NP (PRP (i)))(PP (IN (in)))))) |ET| 
1  |BT| (ROOT (SBARQ (WHNP (WDT (which))(NN (area)))(SQ (NP (DT (the))(JJS (least))(JJ (acidic))(NN (coffee)))))) |ET| 
1  |BT| (ROOT (SBARQ (WHNP (WDT (what))(CD (two))(JJ (japanese))(NNS (city)))(SQ (VP (PP (NP (NP (DT (the))(NNS (letter)))(NP (NNP (k))(, (,))(NNP (o))(, (,))(NNP (o))(, (,))(NNP (t))(CC (and))(NNP (y))))))))) |ET| 
1  |BT| (ROOT (SBARQ (WHNP (WP (what)))(SQ (VP (NP (NP (DT (the))(JJS (tallest))(NN (building)))(PP (NP (NNP (america)))))(PP (NP (CD (1922)))))))) |ET| 
0.39981726891503444054620786118903  |BT| (ROOT (SBARQ (WHADVP (WRB (where)))(SQ (NP (PRP (i)))(VP (NP (NP (NN (information)))(PP (NP (NP (DT (the))(NNP (narragansett))(NNPS (indians)))(NP (NP (JJ (other))(NNS (tribe)))(PP (NP (NNP (rhode))(NNP (island)))))))))))) |ET| 
-0.54723075934677567477848469934543  |BT| (ROOT (SBARQ (WHNP (WDT (which))(NNP (u.s.))(NNP (president)))(SQ (VP (PP (NP (NP (NNP (washington)))(NP (NNP (d.c.))))))))) |ET| 
-0.45147934411246903874115332655492  |BT| (ROOT (SBARQ (WHNP (WDT (what))(NNP (new))(NNP (york))(NN (yankee)))(SQ (VP (PP (NP (DT (the))(JJ (iron))(NN (horse)))))))) |ET| 
1  |BT| (ROOT (SBARQ (WHNP (WDT (which))(NN (way)))(SQ (NP (PRP (you)))(VP (NP (PRP$ (you))(NN (bic)))(S (VP (VP (NP (DT (the))(NN (flame))))))))(ADJP (JJ (clockwise))(CC (or))(JJ (counterclockwise))))) |ET| 
1  |BT| (ROOT (SBARQ (WHNP (WDT (what))(NN (town)))(SQ (NP (NP (DT (the))(NN (setting)))(PP (NP (DT (the))(NNP (music))(NNP (man)))))))) |ET| 
0.54682845121483902861569958986365  |BT| (ROOT (SBARQ (WHADVP (WRB (where)))(SQ (NP (DT (the))(NN (group))(NNP (m))(NNP (people)))(PP (IN (from)))))) |ET| 
-0.0030977438682128002889193396640621  |BT| (ROOT (SBARQ (WHNP (WP (what)))(SQ (NP (JJ (tumbled))(NN (marble)))))) |ET| 
-0.74886244472074037226150267088087  |BT| (ROOT (SBARQ (WHNP (WDT (what))(NN (organization)))(SQ (NP (DT (the))(NNP (security))(NNP (council)))(NP (NP (DT (a))(NN (part)))(PP (IN (of))))))) |ET| 
-0.32992289042281491839858631465177  |BT| (ROOT (S (VP (NP (DT (the))(NNP (pheonix))(NNP (club)))))) |ET| 
1  |BT| (ROOT (SBARQ (WHNP (WP (what)))(SQ (VP (PP (NP (DT (the))(NN (spice))(NN (island)))))))) |ET| 
1  |BT| (ROOT (SBARQ (WHNP (WDT (what))(JJ (african))(NN (capital)))(SQ (VP (PP (NP (DT (a))(NNP (u.s.))(NN (president)))))))) |ET| 
1  |BT| (ROOT (SBARQ (WHNP (ADJP (JJ (south))(JJ (korean))))(SQ (VP (PP (NP (NNP (kimpo))(NNP (international))(NN (airport)))))))) |ET| 
-0.56574824700058168325256247044308  |BT| (ROOT (SBARQ (WHNP (WDT (what))(JJ (italian))(NN (liner)))(SQ (VP (PP (NP (CD (1985)))))))) |ET| 
-1  |BT| (ROOT (SBARQ (WHNP (ADJP (JJ (major))(NN (world))))(SQ (VP (PP (NP (NNP (india)))))))) |ET| 
-0.25972200275731077701024673842767  |BT| (ROOT (SBARQ (WHNP (WDT (what))(NN (money)))(SQ (VP (PP (NP (PRP (they)))))))) |ET| 
1  |BT| (ROOT (S (VP (NP (DT (a))(JJ (civil))(NN (war))(NN (battlefield)))))) |ET| 
1  |BT| (ROOT (S (VP (NP (NP (DT (a))(NN (country)))(SBAR (WHNP (WDT (that)))(S (VP (VP (NP (DT (a))(JJ (magnetic))(NN (levitation))(NN (railway))(NN (system))))))))))) |ET| 
0.99456690913896339534261414883076  |BT| (ROOT (S (VP (NP (NP (DT (the))(NN (country)))(SBAR (WHNP (WDT (which)))(S (NP (NNP (honecker)))(VP (PRT (RP (in)))))))))) |ET| 
-0.15247264649855610252338067311939  |BT| (ROOT (S (VP (NP (NP (DT (a))(NN (tiger)))(SBAR (WHNP (WDT (that)))(S (VP (ADJP (JJ (extinct)))))))))) |ET| 
-1  |BT| (ROOT (S (VP (NP (ADJP (JJ (south))(JJ (african))))))) |ET| 
-0.072941205872559339296046232448134  |BT| (ROOT (SINV (PP (WHNP (WDT (what))(NN (year))))(NP (DT (the))(NNP (berlin))(NNP (wall)))(VP (VBD (erect))))) |ET| 
1  |BT| (ROOT (SBARQ (WHNP (WDT (what))(NN (constellation)))(SQ (VP (PP (NP (DT (the))(NNP (water))(NNP (bearer)))))))) |ET| 
1  |BT| (ROOT (SBARQ (WHNP (WDT (what))(CD (two))(NNS (country)))(SQ (VP (PP (NP (DT (the))(NNP (bering))(NNP (strait)))))))) |ET| 
1  |BT| (ROOT (SBARQ (WHNP (WDT (what))(NN (river)))(SQ (VP (PP (NP (NNP (liverpool)))))))) |ET| 
-0.53818317697079931516412898417911  |BT| (ROOT (SBARQ (WHNP (WDT (what))(NN (class)))(SQ (VP (PP (NP (DT (the))(NN (bourgeoisie)))))))) |ET| 
-0.35233377581023411773131215340982  |BT| (ROOT (SBARQ (WHNP (WDT (what))(NN (season)))(SQ (VP (PP (NP (DT (the))(JJ (vernal))(NNS (equinox)))))))) |ET| 
-1  |BT| (ROOT (SBARQ (WHNP (WDT (what))(CD (two))(NNS (vegetable)))(SQ (VP (PP (NP (NN (succotash)))))))) |ET| 
1  |BT| (ROOT (SBARQ (WHNP (WP (what)))(SQ (NP (NP (DT (a))(JJ (reliable))(NN (site)))(SBAR (WHNP (WDT (that)))(S (NP (PRP (i)))(VP (VP (NP (NNP (heretic))(CD (2))))))))))) |ET| 
1  |BT| (ROOT (S (VP (NP (DT (the))(JJS (highest))(NN (mountain)))))) |ET| 
1  |BT| (ROOT (SBARQ (WHADVP (WRB (where)))(SQ (NP (PRP (i)))(VP (NP (NP (DT (a))(NN (test)))(SBAR (WHNP (WDT (that)))(S (VP (VP (NP (PRP (i)))(SBAR (WHNP (WP (what)))(S (NP (PRP (i)))(VP (VP (SBAR (WHADVP (WRB (when)))(S (NP (PRP (i)))(VP (PRT (RP (up))))))))))))))))))) |ET| 
-0.46412614650653316594741681910818  |BT| (ROOT (SBARQ (WHNP (WP (what)))(SQ (NP (DT (a))(NNP (nihilist)))(VP (PRT (RP (in))))))) |ET| 
-0.052718858143730062959519955256837  |BT| (ROOT (SBARQ (WHNP (WDT (what))(NN (cocktail)))(SQ (NP (NP (NNP (john))(NNP (doxat)))(S (VP (VP (NP (DT (the))(NN (book))(NN (stirred-not)))))))(VP (VBN (shake)))))) |ET| 
-0.65752842497215113759523319458822  |BT| (ROOT (SBARQ (WHNP (WP (what)))(SQ (NP (DT (the))(JJ (various))(NNS (way)))(PP (SBAR (WHNP (WDT (which)))(S (NP (PRP (one)))(VP (VP (NP (NNP (it))(NN (user))(NN (satisfaction))(NN (level))))))))))) |ET| 
1  |BT| (ROOT (SBARQ (WHNP (WDT (what))(NNP (southern))(NNP (california))(NN (town)))(SQ (VP (PP (NP (NP (DT (a))(NN (character)))(VP (ADJP (JJ (famous)))(PP (NP (NNP (edgar))(NNP (rice))(NNP (burroughs))))))))))) |ET| 
1  |BT| (ROOT (SBARQ (WHNP (WHNP (WDT (what))(JJ (asian))(NN (country)))(ADJP (RB (once))))(SQ (VP (PP (NP (NP (DT (the))(NN (sport)))(PP (NP (NN (cricket))(NN (fighting)))))))))) |ET| 
1  |BT| (ROOT (SBARQ (WHNP (WDT (what))(NN (airport)))(SQ (VP (PP (NP (DT (the))(NNP (piccadilly))(NN (subway))(NN (line)))))))) |ET| 
-0.81941667539730167479916644879268  |BT| (ROOT (SBARQ (WHNP (WDT (what))(NN (president)))(SQ (VP (PP (NP (NP (PRP$ (he))(JJ (ancestral))(NN (home)))(VP (NP (DT (the))(NNP (hudson))(NNP (river)))(PP (NP (NP (NNP (hyde))(NNP (park)))(NP (NNP (new))(NNP (york)))))))))))) |ET| 
-0.0057544053558037560128224363609206  |BT| (ROOT (SBARQ (WHNP (NP (PP (NP (NN (luggage))))))(SQ (VP (PP (NP (DT (a))(JJ (famous))(JJ (american))(NN (flier)))))))) |ET| 
-0.79071047572023767102677993534598  |BT| (ROOT (SBARQ (WHNP (WDT (what))(NN (trophy)))(SQ (VP (PP (NP (NP (DT (the))(NNS (winner)))(PP (NP (DT (the))(NNP (super))(NNP (bowl)))))))))) |ET| 
1  |BT| (ROOT (SBARQ (WHNP (WP (what)))(SQ (NP (DT (every))(NN (hour)))(PP (NP (NNP (yellowstone))(NNP (national))(NN (park))))))) |ET| 
1  |BT| (ROOT (SBARQ (WHNP (WP (what)))(SQ (NP (NN (volcano))(NNS (shower)))(PP (PP (NP (NNP (sicily)))))))) |ET| 
1  |BT| (ROOT (FRAG (WHNP (WP (what)))(SBAR (S (NP (NP (NN (country))(POS ('s))))(VP (ADJP (JJ (bourbon-parma)))))))) |ET| 
-1  |BT| (ROOT (SBARQ (WHNP (WP (what)))(SQ (NP (NP (DT (the))(NN (state))(NN (motto)))(PP (NP (NNP (california)))))))) |ET| 
-1  |BT| (ROOT (SBARQ (WHNP (WP (what)))(SQ (NP (NP (DT (the))(JJS (highest))(NN (hand)))(PP (NP (JJ (straight))(NN (poker)))))))) |ET| 
-1  |BT| (ROOT (SBARQ (WHNP (WP (what)))(SQ (NP (NP (DT (the))(JJS (fastest))(NN (fish)))(PP (NP (DT (the))(NN (world)))))))) |ET| 
1  |BT| (ROOT (SBARQ (WHNP (WHNP (WDT (what))(NN (southeast))))(SQ (NP (DT (the))(NNP (wang))(NNP (river)))(VP (NP (DT (the))(NNP (ping))(NNP (river)))(PP (NP (NNP (tak)))))))) |ET| 
1  |BT| (ROOT (SBARQ (WHNP (WDT (what))(NN (strait)))(SQ (NP (NP (DT (the))(NNP (mediterranean))(NNP (sea)))(NP (DT (the))(NNP (atlantic))(NNP (ocean))))))) |ET| 
1  |BT| (ROOT (SBARQ (WHNP (WDT (what))(NN (desert)))(SQ (VP (VP (NP (NP (DT (the))(NN (garden)))(PP (NP (NNP (allah)))))))))) |ET| 
-1  |BT| (ROOT (S (S (NP (SBAR (WHNP (WDT (what))(JJ (english))(NN (playwright)))))(VP (VBN (pen))))(S (SBAR (WHADVP (WRB (where)))(S (NP (DT (the))(NN (bee)))(VP (VBZ (suck)))))(NP (RB (so)))(VP (S (NP (PRP (i)))))))) |ET| 
-0.54245564888249664381447701089201  |BT| (ROOT (S (NP (NNP (aspartame)))(VP (VP (WHPP (WHNP (WDT (what))(JJ (other))(NN (name)))))))) |ET| 
-1  |BT| (ROOT (SBARQ (WHADVP (WRB (where)))(SQ (VP (NP (NP (DT (the))(NN (term)))(NP (CD (86))))(PP (PP (IN (from)))))))) |ET| 
1  |BT| (ROOT (SBARQ (WHNP (WP (what)))(SQ (NP (NP (DT (the))(JJS (oldest))(NN (website)))(PP (NP (DT (the))(NNP (internet)))))))) |ET| 
1  |BT| (ROOT (SBARQ (WHNP (WP (what)))(SQ (NP (NP (DT (the))(JJS (oldest))(NN (website)))(PP (NP (DT (the))(NNP (internet)))))))) |ET| 
-0.65482358590497946604358503464027  |BT| (ROOT (SBARQ (WHNP (WDT (what))(NN (month)))(SQ (NP (DT (the))(NNP (edmund))(NNP (fitzgerald)))(VP (VB (sink)))))) |ET| 
-0.63759595335814411853903038718272  |BT| (ROOT (SBARQ (WHNP (WDT (what))(NN (war)))(SQ (VP (VP (PP (NP (DT (the))(NNP (spanish))))(ADVP (ADVP (RB (as))(RB (far)))(PP (NP (DT (the))(NNPS (philippines)))))))))) |ET| 
-0.78566724316922065263213426078437  |BT| (ROOT (FRAG (WHNP (WP (what)))(SBAR (S (NP (NP (NN (president))(POS ('s))))(VP (VP (S (VP (VP (NP (DT (the))(NNP (white))(NNP (house)))))))))))) |ET| 
1  |BT| (ROOT (SBARQ (WHNP (WP (what)))(SQ (NP (NP (NP (DT (the))(NN (world))(POS ('s))))(PP (NP (NP (NN (order)))(PP (NP (NN (size)))))))))) |ET| 
1  |BT| (ROOT (SBARQ (WHNP (WP (what)))(SQ (NP (NP (DT (the))(NNS (city)))(PP (NP (NP (NNP (dickens))(POS ('s)))(NP (NP (DT (a))(NN (tale)))(PP (NP (CD (two))(NNS (city))))))))))) |ET| 
1  |BT| (ROOT (SBARQ (WHNP (WP (what)))(SQ (NP (NP (DT (some))(JJ (good))(JJ (medical))(NNS (site)))(PP (NP (NN (information)))))))) |ET| 
-0.3182486408058001203791320676828  |BT| (ROOT (SBARQ (WHNP (WP (what)))(SQ (NP (NP (DT (the))(NN (speed)))(PP (NP (DT (the))(NNP (mississippi))(NNP (river)))))))) |ET| 
-1  |BT| (ROOT (SBARQ (WHNP (WP (what)))(SQ (NP (NP (DT (the))(JJ (first))(CD (six))(NNS (word)))(PP (NP (NP (NNP (dickens))(POS ('s)))(NP (NP (DT (a))(NN (tale)))(PP (NP (CD (two))(NNS (city))))))))))) |ET| 
-0.3450446706847120070804635361128  |BT| (ROOT (SBARQ (WHNP (WP (what)))(SQ (NP (NP (DT (the))(NN (frequency)))(PP (NP (NNP (vhf)))))))) |ET| 
-0.026145429025196675887343644717475  |BT| (ROOT (SBARQ (WHNP (WP (what)))(SQ (NP (NP (NNP (jimmy))(NNP (durante))(POS ('s))))))) |ET| 
-0.040468998828200833384194368136377  |BT| (ROOT (SBARQ (WHNP (WDT (what))(NN (baseball))(NN (team)))(SQ (VP (NP (DT (the))(NNP (minnesota))(NNS (twin))))))) |ET| 
0.52845540986688621654110420422512  |BT| (ROOT (S (NP (DT (the))(NNP (orange))(NNP (bowl)))(VP (VP (WHPP (WHNP (WDT (what))(NN (city)))))))) |ET| 
1  |BT| (ROOT (SBARQ (WHADVP (WRB (where)))(SQ (NP (DT (a))(NN (soccer))(NN (goalie)))(VP (S (VP (VP (VP (S (VP (VP (NP (DT (the))(NN (ball)))))))))))))) |ET| 
-0.2457503156671734800831075062888  |BT| (ROOT (S (NP (NNP (boxing))(NNP (day)))(VP (VP (WHPP (WHNP (WDT (what))(NN (date)))))))) |ET| 
-0.03924669286327582551354709039515  |BT| (ROOT (S (NP (JJ (rotary))(NN (engine))(NNS (car)))(VP (VP (WHPP (WHNP (WDT (what))(NN (company)))))))) |ET| 
-0.29450428213272428212832210192573  |BT| (ROOT (SBARQ (WHNP (WP (what)))(SQ (NP (NP (DT (the))(NN (song)))(VP (PP (NP (NNP (heaven))))(PP (NP (NNP (led))(NNP (zeppelin))))(PP (IN (about)))))))) |ET| 
1  |BT| (ROOT (SBARQ (WHNP (WP (what)))(SQ (NP (NP (DT (the))(NN (address)))(PP (NP (NP (DT (the))(JJ (main))(NN (government))(NN (office)))(PP (NP (NP (NNP (rome)))(NP (NNP (italy))))))))))) |ET| 
1  |BT| (ROOT (SBARQ (WHNP (WP (what)))(SQ (NP (NP (DT (the))(CD (two))(NNS (city)))(PP (NP (NP (NNP (dicken))(POS ('s)))(NX (NP (DT (a))(NN (tale)))(PP (NP (CD (two))(NNS (city))))))))))) |ET| 
1  |BT| (ROOT (SBARQ (WHNP (WP (what)))(SQ (NP (NP (DT (the))(JJ (former))(NN (residence)))(PP (NP (NP (JJ (scottish))(NNS (king)))(PP (NP (NNP (edinburgh)))))))))) |ET| 
-0.63499180984571146346695513784653  |BT| (ROOT (SBARQ (WHNP (WP (what)))(SQ (NP (NP (DT (the))(CD (two))(NNS (language)))(PP (NP (NNP (malta)))))))) |ET| 
-0.1296216688789860460584435486453  |BT| (ROOT (SBARQ (WHNP (WP (what)))(SQ (NP (NP (DT (the))(JJ (medical))(NN (condition)))(PP (NP (NN (hypertension)))))))) |ET| 
-0.93097541465625688328344722322072  |BT| (ROOT (SBARQ (WHNP (WP (what)))(SQ (NP (NP (DT (the))(NN (telephone))(NN (number)))(PP (NP (NP (DT (the))(NNP (university)))(PP (NP (NNP (kentucky)))))))))) |ET| 
1  |BT| (ROOT (S (NP (NNP (jackson))(NNP (pollock)))(VP (WHPP (WHNP (WDT (what))(NN (nationality))))))) |ET| 
0.041534427811820352760552310655839  |BT| (ROOT (S (NP (NNP (mccarren))(NN (airport)))(VP (VP (WHPP (WHNP (WDT (what))(NN (city)))))))) |ET| 
1  |BT| (ROOT (S (NP (NNP (mississippi)))(VP (WHNP (WHNP (WDT (what))(NN (name)))(PP (NP (DT (a))(NN (state))(NN (nickname)))))))) |ET| 
-0.01550891515003546133888434610526  |BT| (ROOT (S (NP (NNP (garry))(NNP (kasparov)))(VP (WHNP (WDT (what))(NN (game)))))) |ET| 
-0.18984292768059096712107702842331  |BT| (ROOT (S (NP (NN (musician))(NNP (ray))(NNP (charles)))(VP (WHNP (WDT (what))(NN (instrument)))))) |ET| 
-0.30449970991796637687087923040963  |BT| (ROOT (SBARQ (WHPP (WHNP (WDT (what))(NN (medium))))(SQ (NP (NNP (stuart))(NNP (hamblen)))(VP (S (VP (VP (NP (DT (the))(JJ (first))(NN (singing))(NN (cowboy)))))))))) |ET| 
1  |BT| (ROOT (SBARQ (WHNP (WP (what)))(SQ (NP (NP (DT (the))(JJ (seafaring))(NN (name)))(PP (NP (NP (DT (the))(JJ (southern))(NN (tip)))(PP (NP (NNP (south))(NNP (america)))))))))) |ET| 
1  |BT| (ROOT (SBARQ (WHNP (WP (what)))(SQ (NP (NP (PDT (all))(DT (the))(NNS (river)))(PP (NP (NNP (europe)))))))) |ET| 
1  |BT| (ROOT (SBARQ (WHNP (WP (what)))(SQ (NP (NP (DT (the))(NN (birthplace)))(PP (NP (NNP (edgar))(NNP (allen))(NNP (poe)))))))) |ET| 
-1  |BT| (ROOT (SBARQ (WHNP (WP (what)))(SQ (NP (NP (DT (the))(NN (population)))(PP (NP (DT (the))(JJS (largest))(JJ (chilean))(NN (city)))))))) |ET| 
-0.38194865206812633751098928769352  |BT| (ROOT (SBARQ (WHNP (WP (what)))(SQ (NP (NP (DT (the))(JJ (former))(NN (name)))(PP (NP (NNP (zimbabwe)))))))) |ET| 
-1  |BT| (ROOT (SBARQ (WHNP (WP (what)))(SQ (NP (NP (DT (the))(JJ (per-capita))(NN (income)))(PP (NP (NP (NNP (colombia)))(NP (NNP (south))(NNP (america))))))))) |ET| 
1  |BT| (ROOT (SBARQ (WHPP (WHNP (WDT (what))(NN (avenue))))(SQ (VP (NP (DT (the))(JJ (original))(NNP (saks))(NN (department))(NN (store)))(VP (VBN (locate))))))) |ET| 
1  |BT| (ROOT (SBARQ (WHPP (WHNP (WDT (what))(NN (county))))(SQ (NP (NNP (eckley))(NNP (colorado)))))) |ET| 
1  |BT| (ROOT (SBARQ (WHADVP (WRB (where)))(SQ (VP (SBAR (S (NP (SBAR (S (S (NP (PRP (i)))(VP (VP (VBN (fall)))))(S (NP (PRP (i)))(VP (S (VP (NP (NN (t))))))(VP (PRT (RP (up))))))))(VP (ADJP (JJ (first)))))))))) |ET| 
-0.89770271793889000466748484541313  |BT| (ROOT (SBARQ (WHPP (WHNP (WDT (what))(NN (age))))(SQ (NP (NNP (rossini)))(VP (S (VP (NP (NN (opera))))))))) |ET| 
-0.45967567681182008865192756275064  |BT| (ROOT (SBARQ (WHPP (WHNP (WDT (what))(NN (reason))))(SQ (NP (NP (NP (NNP (shea))(CC (&))(NNP (gould)))))(VP (NP (PRP$ (they))(NNP (l.a.))(NN (office))))))) |ET| 
-0.7022666901288572294248524485738  |BT| (ROOT (SBARQ (WHPP (WHNP (WDT (what))(NN (day))))(SQ (NP (NP (NNP (john))(NNP (f)))(NP (NNP (jackie))(NNP (kennedy))))(VP (VBN (marry)))))) |ET| 
1  |BT| (ROOT (SBARQ (WHNP (WP (what)))(SQ (NP (NP (DT (the))(NN (capital)))(PP (NP (NNP (california)))))))) |ET| 
1  |BT| (ROOT (SBARQ (WHNP (WP (what)))(SQ (NP (NP (DT (the))(NN (capital)))(PP (NP (NNP (taiwan)))))))) |ET| 
1  |BT| (ROOT (SBARQ (WHNP (WP (what)))(SQ (NP (NP (DT (the))(NN (capital)))(PP (NP (NNP (uruguay)))))))) |ET| 
-0.16679674904283328662479846116184  |BT| (ROOT (SBARQ (WHNP (WP (what)))(SQ (NP (NP (DT (the))(NN (history)))(PP (NP (NNP (skateboarding)))))))) |ET| 
-0.43267486778771269140264621455572  |BT| (ROOT (SBARQ (WHNP (WP (what)))(SQ (NP (NP (DT (the))(NN (meaning)))(PP (NP (NNP (jesus)))))))) |ET| 
-0.28288292301994732991232694985229  |BT| (ROOT (SBARQ (WHNP (WP (what)))(SQ (NP (NP (DT (the))(NN (function)))(PP (NP (NNP (ram)))))))) |ET| 
1  |BT| (ROOT (SBARQ (WHNP (WDT (what))(NN (sea)))(SQ (NP (DT (the))(NNPS (romans)))(VP (NP (NN (mare))(NN (nostrum))))))) |ET| 
1  |BT| (ROOT (SBARQ (WHNP (WDT (what))(JJ (famed))(NN (library)))(SQ (NP (PRP (you)))(VP (PP (S (VP (NP (CD (22-287-5)))))))))) |ET| 
1  |BT| (ROOT (SBARQ (WHNP (WDT (what))(NN (cathedral)))(SQ (NP (NNP (thomas))(NNP (becket)))(VP (PRT (RP (in))))))) |ET| 
-1  |BT| (ROOT (SBARQ (WHNP (WDT (what))(NN (toy)))(SQ (NP (PRP (you)))(VP (NP (NN (sleep))))))) |ET| 
-1  |BT| (ROOT (SBARQ (WHNP (WDT (what))(NN (century)))(SQ (NP (NNP (captain))(NNP (video)))(VP (PRT (RP (in))))))) |ET| 
-0.76825834231761425119344721679226  |BT| (ROOT (SBARQ (WHNP (WDT (what))(NN (vowel)))(SQ (NP (DT (all))(JJ (esperanto))(NNS (noun)))(VP (PRT (RP (in))))))) |ET| 
1  |BT| (ROOT (SBARQ (WHNP (WP (what)))(SQ (NP (NP (DT (the))(NN (location)))(PP (NP (NP (NNP (edinburgh)))(NP (NNP (scotland))))))))) |ET| 
1  |BT| (ROOT (SBARQ (WHNP (WP (what)))(SQ (NP (NP (DT (the))(NN (name)))(PP (NP (NP (DT (the))(JJS (largest))(NN (city)))(PP (NP (NP (NNP (chile)))(NP (NNP (south))(NNP (america))))))))))) |ET| 
1  |BT| (ROOT (SBARQ (WHNP (WP (what)))(SQ (NP (NP (DT (the))(NN (address)))(PP (NP (NP (DT (the))(JJ (famous))(JJ (mexican))(NN (star)))(NP (NNP (thalia))))))))) |ET| 
-0.51124947101140927330220620206092  |BT| (ROOT (SBARQ (WHNP (WP (what)))(SQ (NP (NP (DT (the))(NN (claim)))(PP (NP (NP (NN (fame)))(PP (NP (NP (NNP (agra)))(NP (NNP (india))))))))))) |ET| 
-1  |BT| (ROOT (SBARQ (WHNP (WP (what)))(SQ (NP (NP (DT (the))(JJ (legal))(NN (blood))(NN (alcohol))(NN (limit)))(PP (NP (NP (DT (the))(NN (state)))(PP (NP (NNP (california)))))))))) |ET| 
-0.12738690648422257289951176062459  |BT| (ROOT (SBARQ (WHPP (WHNP (WDT (what))(NN (year))))(SQ (NP (NNP (de))(NNP (gaulle)))(VP (NP (NP (NN (president)))(PP (NP (NNP (france))))))))) |ET| 
1  |BT| (ROOT (SBARQ (WHNP (WDT (what))(NN (building)))(SQ (NP (JJ (british))(NNS (monarch)))(VP (PRT (RP (in))))))) |ET| 
1  |BT| (ROOT (SBARQ (WHNP (WDT (what))(NN (stadium)))(SQ (NP (DT (the))(NNP (miami))(NNPS (dolphins)))(VP (NP (PRP$ (they))(NN (home))(NNS (game)))(PP (IN (in))))))) |ET| 
1  |BT| (ROOT (SBARQ (WHNP (WDT (what))(NN (canal)))(SQ (NP (NP (NNP (thatcher))(NN (ferry))(NNP (bridge))))))) |ET| 
-0.94778552310188590723782908753492  |BT| (ROOT (SBARQ (WHNP (WDT (what))(NN (condiment)))(SQ (NP (DT (the))(NNPS (dutch)))(VP (NP (PRP$ (they))(JJ (french))(NNS (fries)))(PP (IN (in))))))) |ET| 
-0.73702599057699558215972501784563  |BT| (ROOT (SBARQ (WHNP (WDT (what))(NN (comedian)))(SQ (NP (DT (the))(NNP (perfect))(NNP (fool)))))) |ET| 
-1  |BT| (ROOT (SBARQ (WHNP (WDT (what))(NNP (u.s.))(NN (university)))(SQ (NP (DT (the))(JJS (largest))(NN (library)))))) |ET| 
1  |BT| (ROOT (SBARQ (WHNP (WP (what)))(SQ (NP (NP (DT (the))(JJS (largest))(NN (county)))(PP (NP (NP (NN (size)))(PP (NP (NNP (massachusetts)))))))))) |ET| 
1  |BT| (ROOT (SBARQ (WHNP (WP (what)))(SQ (NP (NP (NN (website)))(PP (NP (NP (DT (the))(NNP (international))(NNP (court)))(PP (NP (NNP (justice)))))))))) |ET| 
1  |BT| (ROOT (SBARQ (WHNP (WP (what)))(SQ (NP (NP (DT (the))(NN (country)))(PP (NP (NP (NN (origin)))(PP (NP (NP (DT (the))(NN (name)))(NP (NNP (thomas))))))))))) |ET| 
-0.17143419971790324618510226173385  |BT| (ROOT (SBARQ (WHNP (WP (what)))(SQ (NP (NP (ADJP (RBS (most))(JJ (popular))))(PP (NP (NP (NN (gambling)))(PP (NP (NP (NNS (woman)))(PP (NP (NNP (las))(NNP (vegas)))))))))))) |ET| 
-1  |BT| (ROOT (SBARQ (WHNP (WP (what)))(SQ (NP (NP (DT (the))(JJS (highest))(NN (number)))(PP (NP (NP (NN (home))(NNS (run)))(PP (NP (NP (NN (record)))(PP (NP (DT (any))(CD (one))(NN (game)))))))))))) |ET| 
-0.053532513667874384588607483692613  |BT| (ROOT (SBARQ (WHNP (NP (NN (film))(CC (or))(NNS (film))))(SQ (NP (NNP (jude))(NNP (law)))(VP (PP (IN (in))))))) |ET| 
1  |BT| (ROOT (SBARQ (WHNP (WDT (what))(NNP (california))(NN (desert)))(SQ (VP (NP (JJ (high))(NN (desert))))))) |ET| 
1  |BT| (ROOT (SBARQ (WHNP (ADJP (JJ (south))(JJ (american))))(SQ (VP (NP (NP (DT (the))(NN (world))(POS ('s)))))))) |ET| 
1  |BT| (ROOT (SBARQ (WHPP (WHNP (WDT (what))(NNP (u.s.))(NN (state))))(SQ (NP (DT (the))(JJ (first))(NN (woman))(NN (governor)))(VP (VBN (elect)))))) |ET| 
-0.55883549186816505738306659623049  |BT| (ROOT (SBARQ (WHNP (WDT (what))(NNP (broadway))(NN (musical)))(SQ (VP (NP (NP (DT (the))(NN (song)))(SBAR (S (NP (PRP (i)))(VP (NP (DT (a))(JJ (rich))(NN (man))))))))))) |ET| 
-0.065295260974146479560076272719016  |BT| (ROOT (SBARQ (WHNP (WDT (what))(JJ (future))(NNS (deer))(NN (hunter)))(SQ (VP (NP (NP (NP (NNP (annie))(NNP (hall))(POS ('s))))(NP (NNP (duane)))))))) |ET| 
-0.45891430486431789015355775518401  |BT| (ROOT (SBARQ (WHNP (WDT (what))(NNP (pope)))(SQ (VP (NP (NNP (vatican))(NNP (international))(NNP (radio))))))) |ET| 
1  |BT| (ROOT (SBARQ (WHNP (WP (what)))(SQ (NP (NP (NP (DT (the))(JJ (geographical))(NN (center)))(PP (NP (DT (the))(NNP (us)))))(PP (NP (NNP (alaska))(CC (and))(NNP (hawaii)))))))) |ET| 
1  |BT| (ROOT (SBARQ (WHNP (WP (what)))(SQ (NP (NP (CD (one)))(PP (NP (NP (DT (the))(NNS (city)))(SBAR (S (NP (NP (DT (the))(NNP (university)))(PP (NP (NNP (minnesota)))))(VP (VP (PP (IN (in))))))))))))) |ET| 
1  |BT| (ROOT (SBARQ (WHNP (WP (what)))(SQ (NP (NP (NNP (bill))(NNP (gates)))(PP (NP (NNP (microsoft))(NN (e-mail))(NN (address)))))))) |ET| 
-0.3273711963279574144181083283911  |BT| (ROOT (SBARQ (WHNP (WP (what)))(SQ (NP (NP (DT (the))(NN (difference)))(PP (NP (NP (DT (the))(NNP (koran)))(NP (DT (the))(NNP (bible))))))))) |ET| 
-0.80254901423569868779139824255253  |BT| (ROOT (SBARQ (WHNP (WP (what)))(SQ (NP (NP (DT (the))(NN (living))(NNS (condition)))(PP (NP (NNP (cuba)))))))) |ET| 
-0.13198837031690013876783496016287  |BT| (ROOT (SBARQ (WHNP (WP (what)))(SQ (NP (NP (DT (the))(NN (exchange))(NN (rate)))(PP (NP (NP (NNP (england)))(NP (DT (the))(NNP (u.s.))))))))) |ET| 
1  |BT| (ROOT (SBARQ (WHNP (WDT (what))(CD (four))(NNP (u.s.))(NNS (state)))(SQ (VP (NP (JJ (active))(NNS (volcano))))))) |ET| 
1  |BT| (ROOT (SBARQ (WHNP (WDT (what))(NNP (rocky))(NNP (mountain))(NN (ridge)))(SQ (VP (NP (NP (NNP (north))(NNP (america))(POS ('s)))(UCP (ADVP (RB (eastward)))(ADJP (JJ (westward-flowing))))))))) |ET| 
1  |BT| (ROOT (SBARQ (WHNP (WDT (what))(JJ (former))(JJ (royal))(NN (palace)))(SQ (VP (PP (NP (NP (DT (a))(NN (granary)))(NP (NN (prison)))(NP (NN (arsenal)))(NP (NN (leper))(NN (colony)))(NP (NN (mint)))(NP (NN (telegraph))(NN (station)))(NP (NN (whorehouse)))))(PP (S (VP (NP (DT (a))(NN (art))(NN (museum)))))))))) |ET| 
-0.27959051874499979417620920685295  |BT| (ROOT (SBARQ (WHADVP (WRB (when)))(SQ (NP (NNP (spain))(CC (and))(NNP (korea)))(VP (NP (JJ (ambassadorial))(NNS (relation))))))) |ET| 
-1  |BT| (ROOT (SBARQ (WHNP (WDT (what))(NNP (u.s.))(NN (general)))(SQ (VP (PP (S (VP (NP (JJ (american))(NN (air))(NN (power)))))))))) |ET| 
-1  |BT| (ROOT (SBARQ (WHADVP (WRB (where)))(SQ (ADJP (`` (``))(JJ (bovine))('' ('')))(VP (PP (IN (from))))))) |ET| 
1  |BT| (ROOT (SBARQ (WHNP (WP (what)))(SQ (NP (NP (DT (the))(JJS (farthest))(NN (planet)))(PP (NP (DT (the))(NN (sun)))))))) |ET| 
1  |BT| (ROOT (SBARQ (WHNP (WP (what)))(SQ (NP (NP (DT (the))(RBS (most))(JJ (useful))(NN (site)))(PP (NP (DT (the))(NN (internet)))))))) |ET| 
1  |BT| (ROOT (SBARQ (WHNP (WP (what)))(SQ (NP (NP (DT (the))(JJS (longest))(NN (place))(NN (name)))(PP (NP (DT (the))(NNP (u.s.)))))))) |ET| 
-0.78615900300465013650352830154588  |BT| (ROOT (SBARQ (WHNP (WP (what)))(SQ (NP (NP (DT (the))(RBS (most))(JJ (abundant))(NN (element)))(PP (NP (DT (the))(NN (sun)))))))) |ET| 
-1  |BT| (ROOT (SBARQ (WHNP (WP (what)))(SQ (NP (NP (DT (the))(JJS (tallest))(NN (piece)))(PP (NP (DT (a))(NN (chessboard)))))))) |ET| 
-1  |BT| (ROOT (SBARQ (WHNP (WP (what)))(SQ (NP (NP (DT (the))(JJS (weakest))(NN (bone)))(PP (NP (DT (the))(NN (body)))))))) |ET| 
1  |BT| (ROOT (SBARQ (WHADVP (WRB (where)))(SQ (NP (NNP (king))(NNP (francis))(NNP (i)))(VP (NP (NP (DT (the))(`` (``))(NNP (mona))(NNP (lisa))('' ('')))(SBAR (WHADVP (WRB (when)))(S (NP (PRP (he)))(VP (NP (PRP (it))))))))))) |ET| 
1  |BT| (ROOT (SBARQ (WHADVP (WRB (where)))(SQ (NP (NNP (richard))(NNP (nixon)))(SBAR (WHADVP (WRB (when)))(S (NP (NNP (gerald))(NNP (ford)))(VP (NP (NN (president))))))))) |ET| 
0.609444739304695115578169861692  |BT| (ROOT (SBARQ (WHADVP (WRB (where)))(SQ (NP (NNP (luther)))(VP (NP (PRP$ (he))(`` (``))(CD (ninety-five))(NNS (thesis))('' (''))))))) |ET| 
-0.063501673720861545602289766065951  |BT| (ROOT (SBARQ (WHNP (WP (what)))(SQ (ADJP (PP (NP (NP (NP (NNP (alexandra))(POS ('s))))(PP (NP (NP (NNP (josie)))(NP (DT (the))(NNPS (pussycats))))))))))) |ET| 
-1  |BT| (ROOT (SBARQ (WHADVP (WRB (how))(RB (much)))(SQ (NP (NNP (clara))(NNP (peller)))(VP (VP (PP (NP (NNP (wendy))(POS ('s))))(S (VP (VP (SBARQ (WHADVP (WRB (where)))(SQ (VP (NP (DT (the))(NN (beef))('' ('')))))))))))))) |ET| 
-0.30172849881770080759935126479832  |BT| (ROOT (SBARQ (WHADVP (WRB (when)))(SQ (NP (NNP (microsoft)))(VP (VBN (establish)))))) |ET| 
1  |BT| (ROOT (SBARQ (WHNP (WDT (what))(NN (lake)))(SQ (NP (NP (DT (the))(NN (source)))(PP (NP (DT (the))(NNP (white))(NNP (nile)))))))) |ET| 
1  |BT| (ROOT (SBARQ (WHNP (WP (what)))(SQ (NP (NP (DT (the))(JJS (highest))(NN (peak)))(PP (NP (NNP (africa)))))))) |ET| 
1  |BT| (ROOT (SBARQ (WHNP (WP (what)))(SQ (NP (NP (DT (the))(JJS (nearest))(NN (star)))(PP (NP (NNP (earth)))))))) |ET| 
-1  |BT| (ROOT (SBARQ (WHNP (WP (what)))(SQ (NP (NP (DT (the))(JJS (largest))(NN (variety)))(PP (NP (NN (cactus)))))))) |ET| 
-1  |BT| (ROOT (SBARQ (WHNP (NP (PP (NP (NNP (north))(NNP (america))))))(SQ (NP (NP (NP (DT (the))(NN (world))(POS ('s))))(PP (NP (PRP$ (its))(NN (size)))))))) |ET| 
-0.29406343627690662012597044849826  |BT| (ROOT (SBARQ (WHNP (WP (what)))(SQ (NP (NP (DT (the))(NN (name)))(PP (NP (DT (the))(NNP (tampa))(NN (newspaper)))))))) |ET| 
1  |BT| (ROOT (SBARQ (WHADVP (PP (NP (DT (the))(NNP (bible)))))(SQ (NP (PRP (it)))(VP (PP (NP (NP (NNP (jesus))(NNP (christ))(POS ('s))))))))) |ET| 
0.56972356531856638284239124914166  |BT| (ROOT (SBARQ (WHADVP (WRB (where)))(SQ (NP (NP (DT (the))(NN (actress)))(NP (NNP (marion))(NNP (davies))))(VP (VBN (bury)))))) |ET| 
-1  |BT| (ROOT (SBARQ (WHADVP (WRB (where)))(SQ (NP (DT (the))(NNP (u.s.)))(VP (PP (NP (NP (NN (world))(NNS (country)))(PP (NP (NN (area)))))))))) |ET| 
-1  |BT| (ROOT (SBARQ (SBARQ (WHADVP (WRB (how))(RB (far)))(SQ (NP (NP (DT (the))(JJS (longest))(NN (hole)))(PP (NP (CD (1)))))(PP (NP (DT (any))(NN (golf))(NN (course))))))(SBARQ (WHADVP (WRB (where)))(SQ (NP (PRP (it)))(VP (VB (happen))))))) |ET| 
-0.63117775463647207701001207169611  |BT| (ROOT (SBARQ (WHNP (WDT (what))(NNP (george))(NNP (harrison))(NN (tune)))(SQ (ADJP (SBAR (S (NP (PRP (he)))(VP (ADJP (PP (NP (DT (the))(NNPS (chiffons)))))))))))) |ET| 
1  |BT| (ROOT (SBARQ (WHNP (WP (what)))(SQ (NP (NP (DT (the))(JJ (first))(CD (three))(NNS (city)))(S (VP (VP (NP (NP (DT (a))(NN (population)))(PP (NP (QP (XS (JJR (more))(IN (than)))))))))))))) |ET| 
1  |BT| (ROOT (SBARQ (WHNP (NP (PP (NP (NNP (latin))(NNP (america))))))(SQ (NP (DT (the))(JJS (largest))(CD (one)))))) |ET| 
-0.93164045413979157395090169302421  |BT| (ROOT (SBARQ (WHNP (NP (PP (NP (NN (performer))))))(SQ (NP (NNP (ileana))(NNP (cotrubas)))))) |ET| 
-1  |BT| (ROOT (SBARQ (WHNP (WP (what)))(SQ (NP (DT (the))(NNP (west))(NNP (virginia))(NN (state))(NN (animal)))))) |ET| 
-1  |BT| (ROOT (SBARQ (WHNP (WP (what)))(SQ (NP (DT (the))(NNP (finger))(NNPS (lakes)))(PP (NP (JJ (western))(NNP (new))(NNP (york))(NN (state))))))) |ET| 
1  |BT| (ROOT (SBARQ (WHNP (WHNP (WDT (what))(NN (continent))(POS ('s))))(SQ (VP (PP (NP (NP (DT (the))(JJ (upper))(JJ (left))(NN (corner)))(PP (NP (DT (a))(NNP (budweiser))(NN (label)))))))))) |ET| 
1  |BT| (ROOT (SBARQ (WHNP (WDT (what))(NNP (texas))(NN (city)))(SQ (VP (NP (PRP$ (its))(NN (name)))(PP (NP (NP (DT (the))(NNP (spanish)))(PP (NP (`` (``))(JJ (yellow))('' ('')))))))))) |ET| 
0.86671489192205031226734490701347  |BT| (ROOT (SBARQ (WHNP (WDT (what))(NNP (u.s.))(NN (city)))(SQ (VP (PP (NP (NP (NNP (st.))(NNP (francis)))(PP (NP (NNP (assisi)))))))))) |ET| 
-0.49858883470748716071341277711326  |BT| (ROOT (SBARQ (WHNP (WHNP (WDT (what))(NN (organization))(POS ('s))))(SQ (VP (PRT (RP (into)))(PP (NP (NNP (watergate))))(PP (NP (CD (1972)))))))) |ET| 
-0.70415822614432133086381782050012  |BT| (ROOT (SBARQ (WHNP (WDT (what))(JJ (famous))(NN (soldier)))(SQ (VP (VP (VP (PP (NP (NNP (europe))))))(VP (PP (NP (NNP (asia)))))(VP (VP (S (VP (VP (PP (NP (NNP (africa))))))))))))) |ET| 
-1  |BT| (ROOT (SBARQ (WHNP (WDT (what))(NNP (california))(NN (governor)))(SQ (VP (S (NP (NNP (inaction)))(VP (VP (NP (NP (DT (the))(JJS (highest))(NN (form)))(PP (NP (NN (action)))))))))))) |ET| 
1  |BT| (ROOT (SBARQ (WHNP (WP (what)))(SQ (NP (DT (the))(NNP (homelite))(NNP (inc.))(NN (home))(NN (page)))))) |ET| 
-0.58142777292363856389556531212293  |BT| (ROOT (SBARQ (WHNP (WHNP (WDT (what))(NN (buxom)))(ADJP (JJ (blonde))))(SQ (VP (PP (NP (NP (DT (the))(NN (cover)))(PP (NP (QP (XS (JJR (more))(IN (than)))))))))))) |ET| 
-0.47303338341151374146775765439088  |BT| (ROOT (SBARQ (WHNP (WP$ (whose))(NN (kidnaping)))(SQ (VP (NP (NP (DT (the))(NN (crime)))(PP (NP (DT (the))(NNP (century))))))))) |ET| 
-0.25895953673196753230811850698956  |BT| (ROOT (SBARQ (WHNP (WDT (what))(JJ (non-conformist))(JJ (abstract))(NN (painter)))(SQ (VP (NP (NP (NNP (jack))(DT (the))(NNP (dripper)))(PP (NP (NNP (time))))))))) |ET| 
1  |BT| (ROOT (SBARQ (WHNP (WP (what)))(SQ (NP (NP (DT (the))(JJS (best))(NN (place)))(S (VP (VP (PP (NP (DT (the))(NN (world))))))))(PP (NP (NP (NN (climate)))(NP (NN (civilization)))))))) |ET| 
1  |BT| (ROOT (SBARQ (WHNP (NP (PP (PP (NP (CD (18)))))))(SQ (NP (NP (CD (327))(NNS (mile)))(PP (NP (NN (book))(NNS (shelf)))))))) |ET| 
1  |BT| (ROOT (SBARQ (WHNP (WP (what)))(SQ (NP (ADJP (NN (pecan))(CC (and))(NN (peanut))(VBG (grow))))))) |ET| 
-0.79364839701757505796564373667934  |BT| (ROOT (SBARQ (WHNP (WP (what)))(SQ (NP (NN (home))(NN (banking)))))) |ET| 
-0.081171226316253342059070519098896  |BT| (ROOT (SBARQ (WHNP (WP (what)))(SQ (NP (NN (dew))(NN (point)))))) |ET| 
-0.15098882535346067057524521715095  |BT| (ROOT (SBARQ (WHNP (WP (what)))(SQ (NP (ADJP (ADVP (RBS (most))(RB (heavily)))))))) |ET| 
1  |BT| (ROOT (SBARQ (WHNP (WDT (what))(JJ (french))(NN (seaport)))(SQ (VP (S (VP (VP (NP (NP (DT (the))(NN (home)))(PP (NP (NNS (wine)))))))))))) |ET| 
1  |BT| (ROOT (SBARQ (WHNP (WDT (what))(NN (country)))(SQ (ADJP (S (VP (VP (NP (DT (the))(NN (airplane)))(PP (NP (NP (DT (a))(NN (weapon)))(PP (NP (NN (war))))))(PP (NP (NP (DT (the))(NNPS (turks)))(PP (NP (NNP (libya))))))))))))) |ET| 
1  |BT| (ROOT (SBARQ (WHNP (NP (PP (NP (NNP (scotland))))))(SQ (VP (S (VP (VP (NP (QP (NP (CD (one)))(NP (JJR (more)))))))))))) |ET| 
1  |BT| (ROOT (SBARQ (WHNP (WP (what)))(SQ (NP (DT (the))(NNP (homelite))(NNP (inc.))(NN (home))(NN (page)))))) |ET| 
-1  |BT| (ROOT (S (VP (NP (NP (DT (the))(NN (poet)))(PP (NP (NP (DT (the))(NN (poem)))(SBAR (WHNP (WDT (which)))(S (VP (S (S (NP (PRP (i)))(VP (VP (NP (NP (JJ (much)))(PP (NP (NNS (god))))))))(S (NP (PRP (i)))(VP (SBAR (S (NP (DT (the))(NN (river)))(VP (VP (NP (DT (a))(JJ (strong))(JJ (brown))(NN (god-sullen))))(VP (VBZ (untame)))))))))))))))))) |ET| 
-0.28028308657171502327187795344798  |BT| (ROOT (S (VP (NP (NP (DT (a))(JJ (canine))(NN (cartoon))(NN (character)))(ADJP (PP (NP (NNP (huckleberry))(NNP (hound))))))(S (VP (VP (NP (NP (DT (a))(NN (voice)))(PP (NP (NNP (daws))(NNP (butler))))))))))) |ET| 
-0.46986672121158618020686503768957  |BT| (ROOT (SBARQ (WHNP (WDT (what))(JJ (civil))(NNP (war))(NN (general)))(SQ (VP (NP (NP (NN (havoc)))(PP (NP (DT (the))(NN (south)))))(PP (S (VP (PP (NP (NNP (georgia))))(PP (NP (NP (PRP$ (he))(NN (way)))(PP (NP (DT (the))(NN (sea))))))))))))) |ET| 
1  |BT| (ROOT (SBARQ (WHNP (WP (what)))(SQ (NP (DT (the))(JJS (highest))(NN (continent)))))) |ET| 
1  |BT| (ROOT (SBARQ (WHNP (WP (what)))(SQ (NP (DT (the))(JJS (greatest))(NN (hiking))(NN (web))(NN (site)))))) |ET| 
1  |BT| (ROOT (SBARQ (WHNP (WP (what)))(SQ (NP (NP (JJ (worth)))(VP (PP (NP (NNP (reims))))))))) |ET| 
-0.7164442017216499092313597429893  |BT| (ROOT (SBARQ (WHNP (WP (what)))(SQ (NP (NP (DT (the))(JJS (best))(NN (internet))(NN (business)))(S (VP (VP (PP (IN (into)))))))))) |ET| 
-0.10877167601839958510634431831932  |BT| (ROOT (SBARQ (WHNP (WP (what)))(SQ (VP (NP (DT (the))(NNP (titanic)))(S (VP (VP (VB (sink))))))))) |ET| 
-0.17579769588322141649072705149592  |BT| (ROOT (SBARQ (WHNP (WP (what)))(SQ (NP (NP (NN (someone)))(S (VP (VP (ADJP (JJ (ticklish)))))))))) |ET| 
1  |BT| (ROOT (SBARQ (WHPP (SBAR (WHNP (WDT (what)))(S (NP (NP (NN (area)))(PP (NP (DT (the))(NN (world))))))))(SQ (NP (DT (the))(CD (six))(NNP (day))(NNP (war)))(VP (VBN (fight)))))) |ET| 
1  |BT| (ROOT (SBARQ (WHADVP (WRB (where)))(SQ (NP (DT (a))(NN (individual)))(VP (NP (NP (DT (a))(NN (contact))(NN (lens)))(VP (VBN (test)))(SBAR (WHNP (WDT (that)))(S (VP (NP (NP (DT (the))(JJ (entire))(NN (surface)))(PP (NP (NN (eye)))))))))))(FRAG (WHADJP (WRB (when))(JJ (new)))))) |ET| 
1  |BT| (ROOT (SBARQ (WHNP (WP (what)))(SQ (NP (DT (the))(NN (web))(NN (address)))(PP (SBAR (WHNP (WDT (which)))(S (NP (PRP (i)))(VP (VP (NP (NP (DT (the))(JJ (e-mail))(NN (address)))(PP (NP (NP (DT (a))(NN (member)))(PP (NP (NP (DT (the))(NNP (us))(NNP (house)))(PP (NP (NNPS (representatives))))))))))))))))) |ET| 
-0.32416372557526829112362065643538  |BT| (ROOT (SBARQ (WHNP (NP (PP (NP (DT (the))(NNP (dutch))(NNP (renaissance))))))(SQ (NP (NNP (aristotle))(NNP (contemplating)))(NP (NP (DT (the))(NN (bust)))(PP (NP (NNP (homer)))))))) |ET| 
-0.63746095004438874109808921275544  |BT| (ROOT (SBARQ (WHNP (NP (JJ (heavyweight))(NN (boxer))))(SQ (VP (PP (NP (NP (DT (the))(NNP (wild))(NNP (bull)))(PP (NP (DT (the))(NNPS (pampas)))))))))) |ET| 
-0.37499526050260945098102638439741  |BT| (ROOT (SBARQ (WHNP (NP (PP (NP (NP (DT (a))(JJ (15-year-old))(JJ (mexican))(NN (girl)))(NP (DT (a))(JJ (half-irish))(NN (father)))))))(SQ (NP (DT (the))(NN (world)))(VP (NP (RBS (most))(JJ (famous)))(ADJP (JJ (greek))))))) |ET| 
1  |BT| (ROOT (SBARQ (WHNP (WP (what)))(SQ (NP (ADVP (PP (NP (DT (the))(NNP (mississippi))))))))) |ET| 
1  |BT| (ROOT (SBARQ (WHNP (WP (what)))(SQ (NP (NP (DT (the))(JJ (first))(NN (town)))(S (VP (VP (VP (PP (NP (NNP (vermont)))))))))))) |ET| 
1  |BT| (ROOT (SBARQ (WHNP (WHNP (WDT (what))(NNP (california))(NN (bay))(POS ('s))))(SQ (NP (NNP (angel))(NNP (island)))))) |ET| 
-0.76972174120970149324705289473059  |BT| (ROOT (SBARQ (WHNP (WP (what)))(SQ (NP (NP (DT (the))(JJS (fastest))(JJ (commercial))(NN (automobile)))(SBAR (WHNP (WDT (that)))(S (VP (VP (VP (PP (NP (DT (the))(NNP (us))))))))))))) |ET| 
-0.76460023602409177279071172961267  |BT| (ROOT (SBARQ (WHNP (WP (what)))(SQ (NP (NP (DT (the))(JJS (best))(NN (way)))(S (VP (VP (PP (NP (NNP (japan))))))))))) |ET| 
-0.20217333259072250983834351245605  |BT| (ROOT (SBARQ (WHNP (WDT (what))(NNP (honeymooners))(NN (actress)))(SQ (NP (NNP (television))(NN (magazine)))(VP (PP (NP (NP (CD (1953))(POS ('s)))(ADJP (RBS (most))(JJ (promising))))))))) |ET| 
1  |BT| (ROOT (SBARQ (WHNP (NP (PP (NP (NN (habitat))))))(SQ (NP (DT (the))(NN (scorpion)))(VP (PP (IN (in))))))) |ET| 
1  |BT| (ROOT (SBARQ (WHNP (WDT (what))(CD (two))(JJ (european))(NNS (country)))(SQ (VP (NP (NP (DT (the))(NN (war)))(PP (NP (JJ (american))(NN (independence)))))(PP (NP (DT (the))(NNPS (british)))))))) |ET| 
1  |BT| (ROOT (SBARQ (WHNP (NP (NP (JJ (mountainous))(NN (region)))(PP (NP (DT (the))(NN (world))))))(SQ (NP (DT (the))(NNP (lhasa))(NNP (apso))(NN (dog)))(ADJP (JJ (native))(TO (to)))))) |ET| 
1  |BT| (ROOT (SBARQ (WHNP (WP (what)))(SQ (NP (NP (DT (the))(JJ (first))(CD (three))(NNS (city)))(S (VP (VP (NP (NP (DT (a))(NN (population)))(PP (NP (QP (XS (JJR (more))(IN (than)))))))))))))) |ET| 
-1  |BT| (ROOT (SBARQ (WHNP (WDT (what))(CD (four))(NNS (form)))(SQ (NP (NN (gold)))(VP (PP (IN (in))))))) |ET| 
-0.9376337454820635741725709522143  |BT| (ROOT (SBARQ (WHNP (WDT (what))(JJ (geological))(NN (time)))(SQ (NP (PRP (we)))(VP (PP (IN (in))))))) |ET| 
-0.5337506143488420784493087012379  |BT| (ROOT (SBARQ (WHNP (WHNP (WDT (what))(JJ (professional))(NN (cricketer))(POS ('s))))(SQ (VP (NP (NP (DT (the))(NN (war)))(PP (NP (DT (the))(NNPS (worlds)))))(PP (NP (CD (1898)))))))) |ET| 
1  |BT| (ROOT (SBARQ (WHNP (WP (what)))(SQ (NP (NP (QP (RB (only))(CD (two))))(SBAR (WHNP (WDT (that)))(S (VP (NP (DT (the))(JJ (confederate))(NN (battle))(NN (flag)))(PP (NP (PRP$ (they))(NNS (flag))))))))))) |ET| 
1  |BT| (ROOT (FRAG (WHNP (WP (what)))(SBAR (S (NP (NN (web))(NNS (site)))(VP (VP (PP (NP (DT (the))(NNP (report))))(PP (NP (NNP (genesis))(NNP (eldercare)))))))))) |ET| 
1  |BT| (ROOT (SBARQ (WHNP (WP (what)))(SQ (NP (NP (DT (the))(JJS (largest))(NN (lake)))(PP (NP (NNP (north))(NNP (america)))))))) |ET| 
-0.6199444343981371785545775310311  |BT| (ROOT (SBARQ (WHNP (WP (what)))(SQ (NP (NP (DT (the))(JJ (first))(JJ (u.s.-based))(NN (team)))(PP (NP (DT (the))(NNP (nhl)))))))) |ET| 
-1  |BT| (ROOT (SBARQ (WHNP (WP (what)))(SQ (NP (NP (DT (the))(JJ (top))(NN (vegetable))(NNS (crop)))(PP (NP (DT (the))(NN (world)))))))) |ET| 
-0.53348111870802306100358691764995  |BT| (ROOT (SBARQ (WHNP (WP (what)))(SQ (NP (NP (DT (the))(JJ (american))(NN (dollar))(NN (equivalent)))(PP (NP (NP (CD (8))(NNS (pound)))(PP (NP (DT (the))(NNP (u.k.)))))))))) |ET| 
1  |BT| (ROOT (SBARQ (WHNP (WDT (what))(CD (two))(NNS (country)))(SQ (NP (NNP (andorra)))(VP (PP (IN (between))))))) |ET| 
1  |BT| (ROOT (SBARQ (WHNP (WHNP (WDT (what))(NN (landmark))))(SQ (VP (VP (VP (PP (NP (NP (NNP (239))(NNP (west))(NNP (48th))(NNP (street)))(NP (NNP (new))(NNP (york))(NNP (city))))))))))) |ET| 
0.30633641033689368304848699153808  |BT| (ROOT (SBARQ (WHNP (WDT (what))(NNP (u.s.))(NN (state)))(SQ (VP (PP (NP (DT (a))(NNP (g)))))))) |ET| 
-1  |BT| (ROOT (SBARQ (WHNP (WDT (what))(CD (2))(NNS (statue)))(SQ (NP (NNP (france)))(VP (PP (NP (JJ (other))(NNS (country)))))))) |ET| 
-1  |BT| (ROOT (SBARQ (WHNP (WDT (what))(NNP (mormon))(NN (leader)))(SQ (VP (S (VP (VP (VP (NP (CD (27))(NNS (wife))))))))))) |ET| 
0.33800384272296685184144848790311  |BT| (ROOT (S (VP (NP (PRP (i)))(SBAR (WHNP (WDT (what))(NN (city)))(S (NP (DT (the))(NNP (kentucky))(NNP (horse))(NNP (park)))(VP (ADJP (JJ (near))))))))) |ET| 
1  |BT| (ROOT (SBARQ (SBARQ (WHNP (WP (what)))(SQ (NP (NP (DT (the))(NNS (name)))(PP (NP (NP (PDT (all))(DT (the))(NNS (sea)))(PP (NP (DT (the))(NN (world)))))))))(SBARQ (WHNP (WDT (what))(NN (ocean)))(SQ (NP (PRP (they)))(VP (PP (IN (into)))))))) |ET| 
1  |BT| (ROOT (SBARQ (WHNP (WP (what)))(SQ (NP (NP (DT (the))(NN (name)))(PP (NP (NP (DT (the))(NN (planet)))(SBAR (S (NP (DT (the))(NNPS (ewoks)))(VP (PRT (RP (on)))))))))))) |ET| 
-0.94342834127686348022479023711639  |BT| (ROOT (SBARQ (WHNP (WP (what)))(SQ (NP (NP (DT (the))(NN (name)))(PP (NP (NP (DT (the))(NN (sitcom)))(SBAR (WHNP (WDT (that)))(S (NP (NNP (alyssa))(NNP (milano)))(VP (PRT (RP (in)))(PP (NP (NNP (tony))(NNP (danza))))))))))))) |ET| 
-1  |BT| (ROOT (SBARQ (WHNP (WP (what)))(SQ (NP (NP (DT (the))(NN (tragedy)))(SBAR (WHNP (WDT (that)))(S (VP (NP (NP (DT (the))(NN (city)))(PP (NP (NNP (dogtown)))))(PP (NP (CD (1899))))))))))) |ET| 
-0.61548462182425800470753074478125  |BT| (ROOT (SBARQ (WHNP (WP (what)))(SQ (NP (DT (the))(NN (weather)))(PP (PP (NP (DT (the))(NN (moon)))))))) |ET| 
1  |BT| (ROOT (SBARQ (WHNP (WDT (what))(JJ (man-made))(NN (waterway)))(SQ (ADJP (NP (CD (1.76))(NNS (mile))))))) |ET| 
1  |BT| (ROOT (SBARQ (WHNP (WDT (what))(JJ (southwestern))(NN (state)))(SQ (VP (NP (DT (the))(NNP (silver))(NNP (state))))))) |ET| 
1  |BT| (ROOT (SBARQ (WHNP (WHNP (WDT (what)))(PP (NP (VB (marvel)))))(SQ (NP (NNP (nebuchadnezzar)))(VP (VB (build)))))) |ET| 
1  |BT| (ROOT (SBARQ (WHNP (WP (what)))(SQ (NP (NP (DT (the))(NN (name)))(PP (NP (NP (DT (the))(NN (planet)))(SBAR (S (NP (DT (the))(NNPS (ewoks)))(VP (PRT (RP (on)))))))))))) |ET| 
-0.72255323410787453131121083060862  |BT| (ROOT (SBARQ (WHNP (WDT (what))(JJ (caribbean))(NN (cult)))(SQ (NP (NNP (marcus))(NNP (garvey)))(VP (VB (originate)))))) |ET| 
-0.16905747917293204030109166069451  |BT| (ROOT (SBARQ (WHNP (WDT (what))(JJ (high))(NN (school)))(SQ (NP (NNP (archie)))(VP (VB (attend)))))) |ET| 
-0.54858153231755468759445193427382  |BT| (ROOT (SBARQ (WHNP (WDT (what))(NN (flower)))(SQ (NP (NNP (vincent))(NNP (van))(NNP (gogh)))(VP (VB (paint)))))) |ET| 
1  |BT| (ROOT (SBARQ (WHNP (WP (what)))(SQ (NP (NP (DT (the))(NN (name)))(PP (NP (NP (DT (the))(NN (temple)))(SBAR (WHNP (WDT (that)))(S (VP (VP (PP (NP (NP (DT (the))(NN (capital))(NN (city)))(PP (NP (NNP (laos)))))))))))))))) |ET| 
1  |BT| (ROOT (SBARQ (WHNP (WP (what)))(SQ (NP (NP (DT (the))(NN (name)))(PP (NP (NP (DT (the))(JJS (tallest))(NN (mountain)))(PP (NP (DT (the))(NN (world)))))))))) |ET| 
1  |BT| (ROOT (SBARQ (WHNP (WP (what)))(SQ (NP (NP (DT (the))(JJS (oldest))(JJ (ethnological))(NN (museum)))(PP (NP (DT (the))(NN (world)))))))) |ET| 
-0.52202783199037605665893124751165  |BT| (ROOT (SBARQ (WHNP (WP (what)))(SQ (NP (NP (DT (the))(NN (name)))(PP (NP (NP (DT (the))(NNP (u.s.))(NNP (navy))(NN (gunboat)))(PP (NP (NP (DT (the))(NN (film)))(NP (DT (the))(NNP (sand))(NNP (pebbles))))))))))) |ET| 
-0.54892755358595890502471092986525  |BT| (ROOT (SBARQ (WHNP (WP (what)))(SQ (NP (NP (DT (the))(NN (name)))(PP (NP (NP (DT (the))(JJ (famous))(NN (battle)))(PP (NP (NNP (texas))(CC (and))(NNP (mexico)))))))))) |ET| 
-1  |BT| (ROOT (SBARQ (WHNP (WP (what)))(SQ (NP (NP (DT (the))(NN (name)))(PP (NP (NP (DT (the))(JJS (largest))(NN (water))(NN (conservancy))(NN (project)))(PP (NP (NNP (china)))))))))) |ET| 
1  |BT| (ROOT (SBARQ (WHPP (WHNP (WDT (what))(NN (nation))))(SQ (NP (NNP (edessa)))(VP (ADVP (RB (nowadays))))))) |ET| 
1  |BT| (ROOT (SBARQ (WHNP (WDT (what))(NN (planet)))(SQ (NP (PRP (you)))(VP (S (VP (VP (NP (NP (NNP (bebrenia)))(NP (NNP (arcadia)))(NP (NNP (amazonis))))))))))) |ET| 
1  |BT| (ROOT (SBARQ (WHNP (WDT (what))(NN (ocean)))(SQ (NP (NNP (mauritania)))(VP (VBG (border)))))) |ET| 
-1  |BT| (ROOT (SBARQ (WHNP (WDT (what))(NN (disease)))(SQ (VP (NP (NP (NNP (europe)))(NP (NNP (africa)))(NP (NNP (asia)))))))) |ET| 
-0.0092388935238354903678459351112906  |BT| (ROOT (SBARQ (WHNP (WDT (what))(CD (1981))(NNP (candice))(NNP (bergen-jacqueline))(NNP (bisset))(NN (movie)))(SQ (NP (NP (DT (a))(NN (remake)))(PP (NP (NP (CD (1943))(POS ('s))))))))) |ET| 
-0.39832367486448222448913725202146  |BT| (ROOT (SBARQ (WHPP (WHNP (WDT (what))(NN (year))))(SQ (NP (NNP (gandhi)))(VP (VBN (assassinate)))))) |ET| 
1  |BT| (ROOT (SBARQ (WHNP (WP (what)))(SQ (NP (NP (DT (the))(CD (10))(JJS (largest))(NNS (city)))(PP (NP (DT (the))(NNP (us)))))))) |ET| 
1  |BT| (ROOT (SBARQ (WHNP (WP (what)))(SQ (NP (NP (DT (the))(NNP (u.s.))(NN (location)))(PP (NP (NP (NNP (procter))(CC (&))(NNP (gamble)))(ADJP (JJ (corporate))))))))) |ET| 
1  |BT| (ROOT (SBARQ (WHNP (WP (what)))(SQ (NP (NP (DT (the))(NN (name)))(PP (NP (NP (DT (the))(NN (city)))(SBAR (WHNP (WDT (that)))(S (NP (NNP (maurizio))(NNP (pellegrin)))(VP (PP (IN (in)))))))))))) |ET| 
-0.93391404864506144534175291482825  |BT| (ROOT (SBARQ (WHNP (WP (what)))(SQ (NP (NP (DT (the))(NN (goat))(NN (population)))(PP (NP (DT (the))(NN (world)))))))) |ET| 
-0.93391404864506599725615387797006  |BT| (ROOT (SBARQ (WHNP (WP (what)))(SQ (NP (NP (DT (the))(NN (pig))(NN (population)))(PP (NP (DT (the))(NN (world)))))))) |ET| 
-0.54606896404142146739246754805208  |BT| (ROOT (SBARQ (WHNP (WP (what)))(SQ (NP (NP (DT (the))(NNS (lyric)))(PP (NP (DT (the))(NN (star))(JJ (spangled))(NN (banner)))))))) |ET| 
1  |BT| (ROOT (SBARQ (WHPP (WHNP (WDT (what))(NN (river))))(SQ (NP (NNP (strasbourg)))(VP (VBN (build)))))) |ET| 
1  |BT| (ROOT (SBARQ (WHPP (WHNP (WDT (what))(NN (river))))(SQ (NP (NNP (rome)))(VP (VBN (build)))))) |ET| 
1  |BT| (ROOT (SBARQ (WHNP (WDT (what))(NN (island))(NN (group)))(SQ (VP (NP (NP (NNP (jersey)))(NP (NNP (guernsey)))(NP (NNP (sark)))(NP (NNP (herm)))))))) |ET| 
-0.51029793616627261432228124249377  |BT| (ROOT (SBARQ (WHNP (WDT (what))(JJ (mustachioed))(NN (comedian)))(SQ (VP (NP (NNP (frankie)))(PP (NP (NNP (north))))(PP (NP (NNP (alaska)))))))) |ET| 
-0.013491821706053452878393272840185  |BT| (ROOT (SBARQ (WHADVP (WRB (how))(RB (long))(RB (ago)))(SQ (NP (NP (NP (NNP (roe))(FW (vs.))(NNP (wade))))(PP (NP (DT (the))(NNP (supreme))(NNP (court)))))))) |ET| 
-0.93711596779191097539296606555581  |BT| (ROOT (SBARQ (WHNP (WDT (what))(CD (two))(NNS (color)))(SQ (NP (PRP (you)))(ADJP (JJ (blind))(TO (to)))(SBAR (S (NP (PRP (you)))(VP (PP (NP (NNP (protanopia)))))))))) |ET| 
1  |BT| (ROOT (SBARQ (WHNP (WP (what)))(SQ (NP (NP (DT (the))(JJ (second-largest))(NN (island)))(PP (NP (DT (the))(NN (world)))))))) |ET| 
1  |BT| (ROOT (SBARQ (WHNP (WP (what)))(SQ (NP (NP (DT (the))(JJ (second-highest))(NN (mountain)))(PP (NP (DT (the))(NN (world)))))))) |ET| 
1  |BT| (ROOT (SBARQ (WHNP (WP (what)))(SQ (NP (NP (DT (the))(JJ (top))(CD (five))(JJ (oil-producing))(NNS (country)))(PP (NP (DT (the))(NN (world)))))))) |ET| 
-1  |BT| (ROOT (SBARQ (WHNP (WP (what)))(SQ (NP (NP (NP (DT (the))(JJS (best))(NN (art)))(NP (NN (design))(NN (school))))(PP (NP (DT (the))(NN (world)))))))) |ET| 
-1  |BT| (ROOT (SBARQ (WHNP (WP (what)))(SQ (NP (NP (DT (the))(CD (seven))(NNS (wonder)))(PP (NP (DT (the))(NN (world)))))))) |ET| 
-1  |BT| (ROOT (SBARQ (WHNP (WP (who)))(SQ (NP (NP (DT (the))(JJS (richest))(NN (woman)))(PP (NP (DT (the))(NN (world)))))))) |ET| 
1  |BT| (ROOT (SBARQ (WHNP (WDT (what))(NNP (georgia))(NN (town)))(SQ (NP (NP (NNP (scarlett))(NNP (o))(POS ('))))(VP (PP (S (VP (NP (NP (JJ (full)))(PP (NP (JJ (pushy))(NNS (people)))))))))))) |ET| 
0.58315125167381831605695197140449  |BT| (ROOT (SBARQ (WHNP (WDT (what))(JJ (african))(NN (country)))(SQ (VP (PP (NP (NNP (ouagadougou)))))))) |ET| 
1  |BT| (ROOT (SBARQ (WHNP (WDT (what))(NNP (california))(NN (bridge)))(SQ (NP (NNP (don))(NNP (brown)))(NP (NP (DT (the))(JJ (first)))(S (VP (VP (PP (NP (NNP (may))(CD (27))(, (,))(CD (1937))))))))))) |ET| 
-0.62790170216092100474725157255307  |BT| (ROOT (SBARQ (WHNP (WDT (what))(NN (auto))(NN (race)))(SQ (NP (NNP (wilbur))(NNP (reed)))(NP (NP (DT (the))(JJ (first)))(S (VP (VP (NP (CD (three))(NNS (time)))))))))) |ET| 
-0.43009389853182028451428209336882  |BT| (ROOT (SBARQ (WHNP (WDT (what))(NN (count)))(SQ (NP (NNP (alexandre))(NNP (dumas)))(VP (ADVP (RB (about))))))) |ET| 
-0.21440059033100322682940941376728  |BT| (ROOT (SBARQ (WHNP (WDT (what))(NN (cancer)))(SQ (ADVP (RB (commonly)))(VP (PP (NP (NNP (aids)))))))) |ET| 
1  |BT| (ROOT (SBARQ (WHNP (WP (what)))(SQ (NP (NP (DT (the))(JJS (longest))(NN (river)))(PP (NP (DT (the))(NN (world)))))))) |ET| 
1  |BT| (ROOT (SBARQ (WHNP (WP (what)))(SQ (NP (NP (DT (the))(JJS (deepest))(NN (area)))(PP (NP (DT (the))(NNP (arctic))(NNP (ocean)))))))) |ET| 
1  |BT| (ROOT (SBARQ (WHNP (WP (what)))(SQ (NP (NP (DT (the))(JJS (largest))(NN (office))(NN (block)))(PP (NP (DT (the))(NN (world)))))))) |ET| 
-0.64793838097311529100608140652184  |BT| (ROOT (SBARQ (WHNP (WP (what)))(SQ (NP (NP (DT (the))(JJ (previous))(NN (name)))(PP (NP (DT (the))(NNP (commonwealth)))))))) |ET| 
-0.69428922328742903591347612746176  |BT| (ROOT (SBARQ (WHNP (WP (what)))(SQ (NP (NP (DT (the))(JJ (full))(NN (name)))(PP (NP (DT (the))(NNP (plo)))))))) |ET| 
-1  |BT| (ROOT (SBARQ (WHNP (WP (what)))(SQ (NP (NP (DT (the))(JJS (lowest))(NN (level)))(PP (NP (DT (the))(JJ (american))(NN (judiciary)))))))) |ET| 
1  |BT| (ROOT (SBARQ (WHNP (WDT (what))(NN (park)))(SQ (NP (NP (NNP (firehole))(NNP (river)))(NP (NNP (fairy))(NNP (falls))))))) |ET| 
1  |BT| (ROOT (SBARQ (WHNP (WDT (what))(NN (direction)))(SQ (NP (DT (the))(JJS (best))(JJ (surfing))(NNS (beach)))(VP (VB (face)))))) |ET| 
1  |BT| (ROOT (SBARQ (WHNP (WDT (what))(JJ (caribbean))(NN (island)))(SQ (ADVP (RB (sometimes)))(VP (NP (JJ (little))(NNP (england))))))) |ET| 
-0.81854183039768191321172707830556  |BT| (ROOT (SBARQ (WHNP (WDT (what))(NN (character)))(SQ (NP (NNP (treasure))(NNP (island)))))) |ET| 
-0.58751752616399677275893509431626  |BT| (ROOT (SBARQ (WHNP (WDT (what))(NN (feminist)))(SQ (NP (NP (NNP (sexual))(NNPS (politics)))(NP (NNP (flying))))))) |ET| 
-0.19747768289140668618308893655922  |BT| (ROOT (SBARQ (WHNP (WDT (what))(NN (cigarette)))(SQ (VP (NP (`` (``))(DT (a))(JJ (whole))(JJ (new))(NN (world))('' (''))))))) |ET| 
1  |BT| (ROOT (SBARQ (WHNP (WP (what)))(SQ (NP (NP (DT (the))(NN (state))(NN (nickname)))(PP (NP (NNP (mississippi)))))))) |ET| 
1  |BT| (ROOT (SBARQ (WHNP (WP (what)))(SQ (NP (NP (DT (the))(NNS (name)))(PP (NP (NP (DT (the))(NN (tourist))(NNS (attraction)))(PP (NP (NNP (reims)))))))))) |ET| 
1  |BT| (ROOT (SBARQ (WHNP (WP (what)))(SQ (NP (NP (DT (the))(JJ (snowiest))(NN (city)))(PP (NP (DT (the))(NNP (u.s.)))))))) |ET| 
-1  |BT| (ROOT (SBARQ (WHNP (WP (what)))(SQ (NP (NP (DT (the))(CD (two))(JJS (largest))(NNS (bird)))(PP (NP (NN (earth)))))))) |ET| 
-0.25919704036697738258610002048954  |BT| (ROOT (SBARQ (WHNP (WP (what)))(SQ (NP (NP (DT (the))(JJ (abbreviated))(NN (expression)))(PP (NP (NP (DT (the))(NNP (national))(NNP (bureau)))(PP (NP (NNP (investigation)))))))))) |ET| 
-0.39674883286844203622578675094701  |BT| (ROOT (SBARQ (WHNP (WP (what)))(SQ (NP (NP (DT (the))(NNS (name)))(PP (NP (PDT (all))(DT (the))(NNP (u.s.))(NNP (navy))(NN (aircraft))(NNS (carrier)))))))) |ET| 
1  |BT| (ROOT (SBARQ (WHNP (WDT (what))(NN (sea)))(SQ (NP (NNP (naples))(CC (and))(NNP (algiers)))))) |ET| 
1  |BT| (ROOT (SBARQ (WHNP (WDT (what))(NN (sea)))(SQ (NP (NNP (bombay)))(PP (IN (on)))))) |ET| 
1  |BT| (ROOT (SBARQ (WHNP (WDT (what))(NN (sea)))(SQ (NP (DT (the))(NNP (cayman))(NNPS (islands)))))) |ET| 
-1  |BT| (ROOT (SBARQ (WHNP (WDT (what))(NN (occupation)))(SQ (NP (DT (the))(JJS (highest))(NN (divorce))(NN (rate)))))) |ET| 
-1  |BT| (ROOT (SBARQ (WHNP (WDT (what))(NN (film)))(SQ (NP (NNP (jude))(NNP (law)))(PP (IN (in)))))) |ET| 
-0.90874668161370164565227014463744  |BT| (ROOT (SBARQ (WHPP (WHNP (WDT (what))(NN (religion))))(SQ (NP (NNP (isis)))(NP (DT (the))(NN (nature))(NN (goddess)))))) |ET| 
1  |BT| (ROOT (SBARQ (WHNP (WP (what)))(SQ (VP (NP (DT (the))(JJ (first))(NN (country)))(S (VP (VP (NP (NP (DT (a))(JJ (second))(NN (woman)))(PP (NP (NN (space)))))))))))) |ET| 
1  |BT| (ROOT (SBARQ (WHNP (WP (what)))(SQ (VP (NP (DT (the))(JJ (only))(NN (country)))(SBAR (S (NP (PRP (you)))(VP (VP (S (VP (VP (PP (NP (NNP (israel))))(PP (PP (NP (CD (1979)))))))))))))))) |ET| 
1  |BT| (ROOT (SBARQ (WHNP (WP (what)))(SQ (NP (NP (DT (the))(CD (ten))(JJS (safest))(JJ (american))(NNS (city)))(PP (NP (NNS (pedestrian)))))))) |ET| 
-0.99999986021053099971567235115799  |BT| (ROOT (FRAG (WHNP (WP (what)))(SBAR (S (NP (NP (NNS (business)))(PP (NP (NNP (alaska)))))(VP (VP (PP (NP (DT (the))(NNP (exxon))(NNP (valdez))(NN (oil))(NN (spill)))))))))) |ET| 
-0.26330893260597121319221969315549  |BT| (ROOT (SBARQ (WHNP (WP (what)))(SQ (NP (NP (DT (the))(JJ (only))(NN (gland)))(PP (NP (NP (NNS (human)))(SBAR (WHNP (WDT (that)))(S (VP (VP (NP (PRP (itself))))))))))))) |ET| 
-0.24319805720320586406302254545153  |BT| (ROOT (FRAG (WHNP (WP (what)))(SBAR (S (NP (VBG (eat))(NNS (utensil)))(VP (VP (PP (NP (JJ (handicapped))(NNS (kid)))))))))) |ET| 
1  |BT| (ROOT (SBARQ (WHNP (WDT (what))(CD (two))(NNS (state)))(SQ (NP (NNP (washington))(NNP (d.c.)))(PP (IN (between)))))) |ET| 
1  |BT| (ROOT (SBARQ (WHNP (NP (PP (NP (NNP (florida))))))(SQ (NP (NNP (sea))(NNP (world)))(PP (IN (in)))))) |ET| 
1  |BT| (ROOT (SBARQ (WHNP (WDT (what))(NNS (country)))(SQ (NP (DT (the))(NNP (mont))(NNP (blanc))(NN (tunnel)))(VP (VB (join)))))) |ET| 
-0.93134392235058238718181655713124  |BT| (ROOT (SBARQ (WHNP (WDT (what))(NNP (u.s.))(NN (vice-president)))(SQ (NP (NNP (alexander))(NNP (hamilton)))(PP (NP (DT (a))(NN (duel))))))) |ET| 
-0.47534537855313185872319081681781  |BT| (ROOT (SBARQ (WHNP (WDT (what))(NNS (manufacturer)))(SQ (NP (EX (there)))(PP (NP (NNP (texas))))))) |ET| 
-0.38400100814609783306252666079672  |BT| (ROOT (SBARQ (WHNP (WDT (what))(NNS (predator)))(SQ (PP (NP (NNP (antarctica))))))) |ET| 
1  |BT| (ROOT (SBARQ (WHNP (WDT (what))(NN (nationality)))(SQ (NP (NP (DT (the))(CD (123))(NNS (people)))(SBAR (WHNP (WP (who)))(S (VP (PP (NP (NP (DT (the))(JJ (black))(NN (hole)))(PP (NP (NNP (calcutta))))))))))))) |ET| 
1  |BT| (ROOT (FRAG (WHNP (WP (what)))(SBAR (S (NP (NP (NN (city))(POS ('s))))(VP (VP (VP (NP (DT (the))(NNP (roaring))(NNP (forties)))))))))) |ET| 
1  |BT| (ROOT (S (PP (NP (NP (NNP (sinclair))(NNP (lewis))(POS (')))))(NP (WP (what)))(VP (NP (NP (DT (the))(NN (name)))(PP (NP (DT (the))(JJ (typical))(JJ (american))(NN (town)))))))) |ET| 
-1  |BT| (ROOT (S (NP (NNP (italy)))(VP (NP (NP (DT (the))(JJS (largest))(NN (producer)))(PP (NP (WP (what)))))))) |ET| 
-0.21815472849992484372094736500003  |BT| (ROOT (SBARQ (WHNP (WP (what)))(SQ (NP (NP (DT (the))(NN (probability)))(SBAR (S (NP (NP (QP (XS (IN (at))(JJS (least)))))(PP (PP (NP (CD (25))(NNS (people))))))(VP (VP (NP (DT (the))(JJ (same))(NN (birthday))))))))))) |ET| 
1  |BT| (ROOT (SBARQ (WHNP (WDT (what))(JJ (celestial))(NN (body)))(SQ (NP (NP (DT (a))(NN (diameter)))(PP (NP (CD (864))))(NP (CD (000))(NNS (mile))))))) |ET| 
1  |BT| (ROOT (SBARQ (WHNP (WDT (what))(NN (constellation)))(SQ (NP (NP (DT (a))(NN (hunter)))(PP (NP (NN (club))(CC (and))(NN (shield)))))))) |ET| 
1  |BT| (ROOT (SBARQ (WHNP (WDT (what))(NNS (island)))(SQ (VP (NP (PRP$ (they))(NN (name)))(PP (NP (NP (DT (the))(JJ (spanish))(FW (baja))(FW (mar)))(VP (NP (JJ (shallow))(NN (water)))))))))) |ET| 
-1  |BT| (ROOT (SBARQ (WHNP (WDT (what))(JJ (hungarian))(NN (cardinal)))(SQ (NP (NP (NP (DT (a))(NN (state))(NN (prisoner)))(NP (NP (RB (then))(DT (a))(NN (refugee)))(PP (NP (DT (the))(NNP (u.s.))(NN (embassy))(NN (1956-1971)))))))))) |ET| 
-1  |BT| (ROOT (SBARQ (WHNP (WDT (what))(JJ (major))(NN (airline)))(SQ (NP (NP (DT (the))(JJS (best))(NN (safety))(NN (record)))(PP (NP (DT (the))(NN (world)))))))) |ET| 
-0.7011304612142322811862982234743  |BT| (ROOT (SBARQ (WHNP (WHNP (WDT (what))(NN (month))(POS ('s))))(SQ (NP (DT (the))(NNP (monterey))(NN (jazz))(NNP (festival)))(VP (PRT (RP (on))))))) |ET| 
1  |BT| (ROOT (SBARQ (WHADVP (PP (NP (DT (the))(NN (web)))))(SQ (NP (NNP (adventours))(NNP (tours)))(PP (NP (NP (NNP (sydney)))(NP (NNP (australia)))))))) |ET| 
1  |BT| (ROOT (SBARQ (WHNP (WP (what)))(SQ (NP (NP (DT (the))(JJS (brightest))(NN (star)))(ADJP (PP (NP (NNP (earth))))))))) |ET| 
1  |BT| (ROOT (SBARQ (WHNP (WP (what)))(SQ (NP (NP (DT (the))(JJS (closest))(JJ (g2))(NN (spectrum))(JJ (yellow))(NN (dwarf)))(PP (NP (NNP (earth)))))))) |ET| 
-0.70047108363471355385598826615023  |BT| (ROOT (SBARQ (WHNP (WP (what)))(SQ (NP (DT (the))(JJ (red))(NN (planet)))))) |ET| 
-1  |BT| (ROOT (SBARQ (WHNP (WP (what)))(SQ (NP (NP (DT (the))(NN (origin)))(PP (NP (DT (the))(NN (city))(`` (``))(NNP (corpus))(NNP (christi))('' ('')))))))) |ET| 
-0.89261644897842085111250298723462  |BT| (ROOT (SBARQ (WHNP (WP (what)))(SQ (NP (NP (DT (the))(CD (four))(JJS (most))(JJ (widely-used))(NNS (language)))(PP (NP (NNP (north))(NNP (america)))))))) |ET| 
1  |BT| (ROOT (SBARQ (WHNP (WHNP (WDT (what))(JJ (colorful))(NN (sea))(POS ('s))))(SQ (NP (JJ (greek))(NN (legend)))(VP (SBAR (S (NP (DT (the))(NNPS (amazons)))(VP (ADJP (JJ (near)))))))))) |ET| 
0.74173002306137025829713138591615  |BT| (ROOT (SBARQ (WHPP (WHNP (WDT (what))(NN (state))))(SQ (NP (EX (there)))(NP (ADJP (QP (CD (11))(CD (million)))))))) |ET| 
1  |BT| (ROOT (SBARQ (WHNP (WDT (what))(NN (arch)))(SQ (NP (PRP (you)))(VP (PP (NP (DT (the))(NN (place))(FW (de))(FW (la))(NNP (concorde)))))))) |ET| 
-0.23106794402639188601433772873861  |BT| (ROOT (SBARQ (WHNP (WDT (what))(NN (explosive)))(SQ (NP (PRP (you)))(VP (PP (S (VP (NP (NN (charcoal))(, (,))(NN (sulfur))(CC (and))(NN (saltpeter)))))))))) |ET| 
-0.093442178344545420709543748216674  |BT| (ROOT (SBARQ (WHNP (WDT (what))(NN (school)))(SQ (NP (NNP (tom)))(VP (PP (NP (NP (NNP (tom))(NNP (brown))(POS ('s))))))))) |ET| 
-0.61995169980614139859653732855804  |BT| (ROOT (SBARQ (WHNP (WDT (what))(NN (cocktail)))(SQ (NP (PRP (you)))(VP (PP (NP (NP (NN (whisky)))(NP (JJ (sweet))(NN (vermouth))))))))) |ET| 
1  |BT| (ROOT (SBARQ (WHNP (WP (what)))(SQ (NP (NP (DT (the))(JJS (largest))(NN (shopping))(NN (mall)))(PP (NP (DT (the))(NN (world)))))))) |ET| 
1  |BT| (ROOT (SBARQ (WHNP (WP (what)))(SQ (NP (NP (PDT (all))(DT (the))(JJ (southern))(NNS (state)))(PP (NP (DT (the))(NNP (u.s.)))))))) |ET| 
1  |BT| (ROOT (SBARQ (WHNP (WP (what)))(SQ (NP (NP (DT (the))(JJ (top))(CD (5))(JJS (tallest))(NNS (building)))(PP (NP (DT (the))(NN (world)))))))) |ET| 
0.53285975618528746977631271874998  |BT| (ROOT (SBARQ (WHNP (WDT (what))(NN (country)))(SQ (VP (PP (NP (NP (CD (13))(NNS (degree)))(ADJP (ADJP (JJ (north))(NN (latitude)))(ADJP (QP (CD (10))(NNS (degree))))))))))) |ET| 
-0.20293956800787715799572197283851  |BT| (ROOT (SBARQ (WHADVP (WRB (why)))(SQ (NP (NP (DT (the))(JJ (american))(NNS (soldier)))(PP (NP (NNP (wwi)))))(VP (NP (`` (``))(NNPS (doughboys))('' (''))))))) |ET| 
-0.0032621741357516569406738149439207  |BT| (ROOT (SBARQ (WHNP (WP (what)))(SQ (NP (JJ (toulmin))(NN (logic)))))) |ET| 
-0.18833148950721931291774069450184  |BT| (ROOT (SBARQ (WHNP (WHNP (WDT (which))(NN (mosquito))(POS ('s))))(SQ (NP (NP (NN (blood)))(NP (NNP (dt))(NNP (nn))(NNP (cc))(NNP (dt))(NNP (nn))))))) |ET| 
1  |BT| (ROOT (SBARQ (WHNP (WDT (what))(JJ (peruvian))(NN (city)))(SQ (NP (NP (NN (home)))(PP (NP (NP (DT (the))(JJ (mummified))(NN (body)))(PP (NP (NNP (francisco))(NNP (pizarro)))))))))) |ET| 
1  |BT| (ROOT (SBARQ (WHNP (WHNP (WDT (what))(NN (continent))(POS ('s)))(NP (JJ (second-highest))(NN (peak))))(SQ (NP (NNP (mont))(NNP (blanc)))))) |ET| 
1  |BT| (ROOT (SBARQ (WHNP (WDT (what))(CD (two))(NNP (caribbean))(NNS (country)))(SQ (NP (NP (DT (the))(NN (island)))(PP (NP (NNP (hispaniola)))))))) |ET| 
0.11837801607129169734200502261956  |BT| (ROOT (SBARQ (WHADVP (WRB (where)))(SQ (NP (DT (the))(NNPS (bulls))(NN (basketball))(NN (team)))(VP (VBN (base)))))) |ET| 
-1  |BT| (ROOT (SBARQ (WHNP (WP (what)))(SQ (NP (NP (DT (the))(NN (definition)))(PP (NP (JJ (low))(NN (island)))))))) |ET| 
-0.65804938453600303471802135391044  |BT| (ROOT (SBARQ (WHNP (WP (what)))(SQ (NP (NP (DT (the))(NN (name)))(PP (NP (NP (DT (the))(NN (flight)))(SBAR (S (NP (NNP (fawaz))(NNP (younis)))(VP (VBN (hijack))))))))))) |ET| 
-1  |BT| (ROOT (SBARQ (WHNP (WP (what)))(SQ (NP (NP (DT (the))(NN (nickname)))(PP (NP (DT (the))(NNP (cleveland))(NNPS (indians)))))))) |ET| 
0.12807684573269936811890090666566  |BT| (ROOT (SBARQ (WHADVP (WRB (where)))(SQ (NP (PRP (i)))(VP (VP (NP (NP (NNS (movie)))(PP (NP (NN (videotape))))))(NP (NN (online))))))) |ET| 
1  |BT| (ROOT (SBARQ (WHADVP (WRB (where)))(SQ (NP (PRP (one)))(VP (NP (NP (NN (information)))(PP (NP (NP (NN (religion)))(NP (NP (NN (health)))(NP (DT (the))(NN (brain)))(NP (NN (nutrition))))))))))) |ET| 
0.96720584544122967241008836936089  |BT| (ROOT (SBARQ (WHADVP (WRB (where)))(SQ (NP (NP (NNP (freidreich))(NNP (wilhelm))(NNP (ludwig))(NNP (leichhardt)))(NP (JJ (prussian))(VBN (bear))(NN (explorer))))(VP (PP (NP (NN (school)))))))) |ET| 
-0.44614190828421124157543431465456  |BT| (ROOT (SBARQ (WHADVP (WRB (when)))(SQ (NP (NP (DT (the))(NNP (brandenburg))(NN (gate)))(PP (NP (NNP (berlin)))))(VP (VBN (build)))))) |ET| 
-0.20248422898331147612438485339226  |BT| (ROOT (SBARQ (WHADVP (WRB (why)))(SQ (NP (NN (sound)))(VP (NP (JJR (quicker)))(PP (NP (NN (water))))(PP (NP (NN (air)))))))) |ET| 
-1  |BT| (ROOT (SBARQ (WHADVP (WRB (where)))(SQ (VP (NP (NP (DT (the))(NN (expression)))(NP (NN (cloud))(CD (nine))))(VP (PP (IN (from)))))))) |ET| 
1  |BT| (ROOT (SBARQ (WHNP (WP (what)))(SQ (NP (NP (DT (the))(NN (name)))(PP (NP (NP (DT (the))(JJS (highest))(NN (mountain)))(PP (NP (NNP (africa)))))))))) |ET| 
1  |BT| (ROOT (SBARQ (WHNP (WP (what)))(SQ (NP (NP (DT (the))(NN (nationality)))(PP (NP (NNP (jackson))(NNP (pollock)))))))) |ET| 
1  |BT| (ROOT (SBARQ (WHNP (WP (what)))(SQ (NP (JJS (most))(NNS (tourist)))(VP (PP (NP (NNP (reims)))))))) |ET| 
-1  |BT| (ROOT (SBARQ (WHNP (WP (what)))(SQ (NP (NP (DT (the))(JJS (highest))(JJ (possible))(NN (bid)))(PP (NP (NNP (contract))(NNP (bridge)))))))) |ET| 
-0.44647353919512750008991019967652  |BT| (ROOT (SBARQ (WHNP (WP (what)))(SQ (NP (NP (PDT (all))(DT (the))(JJ (different))(NNS (kind)))(PP (NP (NNS (contraceptive)))))))) |ET| 
-1  |BT| (ROOT (SBARQ (WHNP (WP (what)))(SQ (NP (NP (DT (the))(JJS (longest))(NN (war)))(PP (NP (NNP (u.s.))(NN (history)))))))) |ET| 
0.39805107254314364695346739608794  |BT| (ROOT (SBARQ (WHADVP (WRB (where)))(SQ (NP (NNS (zebra)))(ADJP (ADVP (RBS (most))(RB (likely))))))) |ET| 
0.54676454594077184001577052185894  |BT| (ROOT (SBARQ (WHADVP (WRB (where)))(SQ (VP (NP (NP (DT (the))(NNP (austerlitz)))(NP (NNP (victor))(NNP (hugo))(NN (subway))(NNS (stop)))))))) |ET| 
