SVM-light Version V5.01-TK-1.5
5 # kernel type
3 # kernel parameter -d 
1 # kernel parameter -g 
1 # kernel parameter -s 
1 # kernel parameter -r 
empty# kernel parameter -u 
0.4 # kernel parameter -L 
1 # kernel parameter -T 
T # kernel parameter -C 
1 # kernel parameter -F 
1 # kernel parameter -S 
0.400000 # kernel parameter -M 
3 # kernel parameter -N 
S # kernel parameter -V 
S # kernel parameter -W 
0 # kernel parameter -U 
10 # highest feature index 
5452 # number of training documents 
1743 # number of support vectors plus 1 
0.76826402 # threshold b, each following line is a SV (starting with alpha*y)
-0.1239676837948214677131986150016  |BT| (ROOT (SBARQ (WHADVP (WRB (how)))(SQ (NP (NN (serfdom)))(VP (VP (VP (PRT (RP (in))))(ADVP (RB (then)))(VP (VB (leave))))(NP (NNP (russia))))))) |ET| 
-0.39098567711386317258259737172921  |BT| (ROOT (SBARQ (WHNP (WP (what)))(SQ (NP (NP (DT (the))(NN (verdict)))(PP (NP (NP (DT (the))(CD (1925))(NN (trial)))(PP (NP (NNP (john))(NNP (t.))(NNP (scopes)))))))))) |ET| 
-0.22256479622985236854759705238394  |BT| (ROOT (SBARQ (WHADVP (WRB (how)))(SQ (NP (NN (carbon))(NN (dioxide)))(VP (PP (NP (JJ (natural))(NN (gas)))))))) |ET| 
-1  |BT| (ROOT (SBARQ (WHNP (WDT (what))(NN (fowl)))(SQ (VP (NP (DT (the))(NN (spotlight)))(PP (NP (NP (DT (the))(JJ (chinese))(NN (year)))(PP (NP (DT (the))(NN (monkey)))))))))) |ET| 
-0.10417860474755986921469030903609  |BT| (ROOT (SBARQ (WHNP (WDT (what))(NN (journalist)))(SQ (VP (VP (VP (PP (PP (IN (in)))(PP (NP (NNP (walden))(NNP (puddle))))))))))) |ET| 
0.4530290622759534091557043211651  |BT| (ROOT (SBARQ (WHADJP (WRB (how))(JJ (old)))(SQ (NP (NNP (stevie))(NNP (wonder)))(SBAR (WHADVP (WRB (when)))(S (NP (PRP (he)))(VP (PP (NP (NNP (motown))(NNPS (records)))))))))) |ET| 
-0.26882781022090224132270463996974  |BT| (ROOT (SBARQ (WHADVP (WRB (where)))(SQ (NP (DT (the))(NNP (santa))(NNP (fe))(NN (trail)))(VP (VB (begin))(CC (and))(VB (end)))))) |ET| 
1  |BT| (ROOT (SBARQ (WHNP (WP (what)))(SQ (NP (NP (DT (the))(NN (date)))(PP (NP (NNP (boxing))(NNP (day)))))))) |ET| 
0.55836869662829990978991645533824  |BT| (ROOT (SBARQ (WHNP (WHADJP (WRB (how))(JJ (many))))(SQ (NP (PRP (it)))(PP (PP (NP (NP (NNP (london)))(NP (NNP (england)))))(PP (NP (NP (NNP (plymouth)))(NP (NNP (england))))))))) |ET| 
1  |BT| (ROOT (SBARQ (WHADJP (WRB (how))(JJ (tall)))(SQ (NP (NP (NP (DT (the))(NN (replica)))(PP (NP (DT (the))(NNP (matterhorn)))))(PP (NP (NNP (disneyland)))))))) |ET| 
-0.38576820506203601812700298978598  |BT| (ROOT (SBARQ (WHNP (WP (what)))(SQ (NP (NP (NN (website)))(PP (NP (NP (DT (the))(NNP (international))(NNP (court)))(PP (NP (NNP (justice)))))))))) |ET| 
-0.053529164901551323785255931397842  |BT| (ROOT (SBARQ (WHNP (WDT (what))(NN (airport)))(SQ (VP (PP (NP (DT (the))(NNP (piccadilly))(NN (subway))(NN (line)))))))) |ET| 
-0.27655746606843767398942190993694  |BT| (ROOT (SBARQ (WHNP (WP (what)))(SQ (NP (NP (DT (a))(NNP (california))(NN (prayer))(NN (book)))(PP (NP (DT (a))(JJ (old))(NNP (west))(NN (gambler)))))))) |ET| 
1  |BT| (ROOT (SBARQ (WHPP (WHNP (WDT (what))(NN (year))))(SQ (NP (NP (DT (the))(JJ (first))(NN (patent)))(PP (NP (NP (DT (the))(JJ (pull-tab))(NN (opener)))(PP (NP (NNS (can)))))))(VP (VBN (obtain)))))) |ET| 
0.53206697732765850794578454951989  |BT| (ROOT (SBARQ (WHPP (WHNP (WDT (what))(NN (year))))(SQ (NP (PRP (they)))(VP (NP (DT (the))(NNP (berlin))(NNP (wall))))))) |ET| 
0.66369082913882559981999520459794  |BT| (ROOT (SBARQ (WHNP (WDT (what))(NN (year)))(SQ (NP (DT (the))(NNP (united))(NNPS (states)))(VP (NP (DT (the))(NN (copyright))(NN (law))))))) |ET| 
-1  |BT| (ROOT (SBARQ (WHPP (WHNP (WDT (what))(NN (war))))(SQ (NP (DT (the))(JJ (first))(NN (submarine)))(VP (VBN (use)))))) |ET| 
-0.71115038772480765327799190345104  |BT| (ROOT (SBARQ (WHPP (WHNP (WDT (what))(NN (river))))(SQ (NP (NNP (strasbourg)))(VP (VBN (build)))))) |ET| 
-0.42364658209399291832752965092368  |BT| (ROOT (SBARQ (WHPP (WHNP (WDT (what))(NN (river))))(SQ (NP (NNP (rome)))(VP (VBN (build)))))) |ET| 
1  |BT| (ROOT (SBARQ (WHNP (WP (what)))(SQ (NP (NP (NP (NNP (maurizio))(NNP (pellegrin)))))))) |ET| 
1  |BT| (ROOT (SBARQ (WHNP (WP (what)))(SQ (NP (NP (NNP (dick))(NNP (clark))(POS ('s))))))) |ET| 
1  |BT| (ROOT (SBARQ (WHNP (WP (what)))(SQ (NP (NP (NNP (einstein))(POS ('s))))))) |ET| 
-1  |BT| (ROOT (SBARQ (WHNP (WP (what)))(SQ (NP (NP (NNP (einstein))(POS ('s))))))) |ET| 
-0.05604860465872352204286244159448  |BT| (ROOT (SBARQ (WHNP (WP (what)))(SQ (NP (DT (the))(NNS (gay))(NN (science)))))) |ET| 
-0.050373712751852262048402053551399  |BT| (ROOT (SBARQ (WHADVP (WRB (how)))(SQ (NP (PRP (i)))(VP (NP (NP (DT (a))(NN (phone))(NN (number)))(PP (NP (NN (someone)))))(SBAR (S (NP (PRP (i)))(ADVP (RB (only)))(VP (NP (PRP$ (they))(JJ (email))(NN (address)))))))))) |ET| 
1  |BT| (ROOT (SBARQ (WHPP (WHNP (WDT (what))(NN (age))))(SQ (NP (NNP (rossini)))(VP (S (VP (NP (NN (opera))))))))) |ET| 
-0.032347180611618286949493494830676  |BT| (ROOT (SBARQ (WHNP (WDT (what))(NN (shampoo)))(SQ (NP (NP (NN (eczema)))(NP (NN (seborrhea)))(NP (NNS (psoriasis))))))) |ET| 
1  |BT| (ROOT (SBARQ (WHPP (WHNP (WDT (which))(NNS (date))))(SQ (NP (NP (DT (the))(NN (running)))(PP (NP (DT (the))(NNS (bull)))))(VP (PP (NP (NP (NNP (pamplona)))(NP (NNP (spain))))))))) |ET| 
-0.29250743128661860215089518533205  |BT| (ROOT (SBARQ (WHPP (WHNP (WDT (what))(NN (reason))))(SQ (NP (DT (some))(NNP (san))(NNP (diego))(NNS (school)))(VP (S (VP (NP (NNS (apple))))))))) |ET| 
-0.028613168988567021233659914969394  |BT| (ROOT (SBARQ (WHNP (WDT (what))(NNP (u.s.))(NN (general)))(SQ (NP (NP (NNP (december))(CD (1))(, (,))(CD (1945))(, (,)))(SBAR (WHADVP (WRB (when)))(S (NP (PRP$ (he))(NN (jeep)))(VP (PP (NP (DT (a))(NN (truck))))))))))) |ET| 
-0.7275146026464821558121798261709  |BT| (ROOT (SBARQ (WHPP (WHNP (WDT (what))(NN (medium))))(SQ (NP (NNP (stuart))(NNP (hamblen)))(VP (S (VP (VP (NP (DT (the))(JJ (first))(NN (singing))(NN (cowboy)))))))))) |ET| 
1  |BT| (ROOT (SBARQ (WHNP (WP (what)))(SQ (NP (DT (the))(JJ (regular))(NN (price)))))) |ET| 
1  |BT| (ROOT (SBARQ (WHNP (WP (what)))(SQ (NP (NP (NNS (man))(POS ('s)))(ADJP (PP (NP (DT (a))(JJ (455-yard))(NN (golf))))))))) |ET| 
-0.68535777646837858778638974399655  |BT| (ROOT (SBARQ (WHNP (WP (what)))(SQ (NP (NP (DT (the))(JJS (brightest))(NN (star)))(ADJP (PP (NP (NNP (earth))))))))) |ET| 
-0.22116906950099837758649812258227  |BT| (ROOT (SBARQ (WHNP (WP (what)))(SQ (NP (NP (NNP (harry))(NNP (houdini))(POS ('s))))))) |ET| 
-0.22097119025565073457961773328861  |BT| (ROOT (SBARQ (WHNP (WP (what)))(SQ (NP (NP (NNP (mel))(NNP (gibson))(POS ('s))))))) |ET| 
1  |BT| (ROOT (SBARQ (WHPP (WHNP (WDT (what))(NN (day))))(SQ (NP (NP (NNP (john))(NNP (f)))(NP (NNP (jackie))(NNP (kennedy))))(VP (VBN (marry)))))) |ET| 
1  |BT| (ROOT (S (NP (NP (NNP (cnn))(POS ('s))))(VP (PP (WHNP (WDT (what))(NN (date))))))) |ET| 
1  |BT| (ROOT (SBARQ (WHNP (WDT (what))(NN (number)))(SQ (VP (PP (NP (NP (NP (CD (12))(NNS (o))(POS ('))))(PP (NP (DT (a))(NN (dartboard)))))))))) |ET| 
1  |BT| (ROOT (SBARQ (WHNP (WP (what)))(SQ (NP (NP (NNP (einstein))(POS ('s))))))) |ET| 
1  |BT| (ROOT (SBARQ (WHADVP (WRB (when)))(SQ (NP (NP (DT (the))(JJ (first))(NN (railroad)))(PP (PP (NP (DT (the))(JJ (east))(NN (coast))))(PP (NP (DT (the))(JJ (west))(NN (coast))))))(VP (VBN (complete)))))) |ET| 
-0.2274570089270687989202457401916  |BT| (ROOT (S (NP (NNP (jude))(NNP (law)))(VP (PP (WHNP (WDT (which))(NN (film))))))) |ET| 
-0.28771939692994269455184053185803  |BT| (ROOT (S (NP (NNP (woodrow))(NNP (wilson)))(VP (PP (NP (NN (president))))(PP (WHNP (WDT (what))(NN (university))))))) |ET| 
1  |BT| (ROOT (SBARQ (WHNP (WP (what)))(SQ (NP (NP (NNP (columbia))(NNP (tristar))(POS ('s))))))) |ET| 
1  |BT| (ROOT (SBARQ (WHNP (WP (what)))(SQ (NP (NP (NNP (joe))(NNP (namath))(POS ('s))))))) |ET| 
-0.31919042272240216728818040792248  |BT| (ROOT (SBARQ (WHNP (WP (what)))(SQ (NP (NP (NP (NP (NNP (dudley))(NNP (do-right))(POS ('s))))))))) |ET| 
-0.2780188626154463382711412577919  |BT| (ROOT (SBARQ (WHNP (WP (what)))(SQ (NP (NP (NP (NP (NNP (paul))(NNP (bunyan))(POS ('s))))))))) |ET| 
-0.30849833712001195618057636238518  |BT| (ROOT (SBARQ (WHNP (WP (what)))(SQ (NP (NP (NP (NP (NNP (fred))(NNP (astaire))(POS ('s))))))))) |ET| 
1  |BT| (ROOT (S (NP (NNP (boxing))(NNP (day)))(VP (VP (WHPP (WHNP (WDT (what))(NN (date)))))))) |ET| 
1  |BT| (ROOT (S (NP (NNP (hitler)))(VP (PP (NP (NP (NN (power)))(PP (NP (NNP (germany))))))(PP (WHNP (WDT (what))(NN (year))))))) |ET| 
1  |BT| (ROOT (S (NP (DT (the))(NNPS (iraqis)))(VP (NP (NP (PRP$ (they))(NN (attack)))(PP (NP (NNP (kuwait)))))(WHPP (WHNP (WDT (what))(NN (day))))))) |ET| 
-0.26462210082176246261909113854927  |BT| (ROOT (SBARQ (WHNP (WDT (what))(NN (wheel)))(SQ (NP (NNP (blaise))(NNP (pascal)))(VP (PP (NP (NP (DT (a))(NN (search)))(PP (NP (JJ (perpetual))(NN (motion)))))))))) |ET| 
-0.52723659897098640314538897655439  |BT| (ROOT (SBARQ (WHNP (WDT (what))(NN (actress)))(SQ (NP (NP (DT (the))(NN (record)))(PP (NP (NP (DT (the))(JJS (most))(NNS (appearance)))(PP (NP (NP (DT (the))(NN (cover)))(PP (NP (NNP (life)))))))))))) |ET| 
-0.10402177328493179830903869742542  |BT| (ROOT (SBARQ (WHADVP (WRB (where)))(SQ (NP (DT (the))(NNP (rose))(NNP (bowl)))(VP (VBN (play)))))) |ET| 
1  |BT| (ROOT (SBARQ (WHNP (WP (what)))(SQ (NP (NP (NNP (president))(NNP (nixon))(POS ('s))))))) |ET| 
1  |BT| (ROOT (SBARQ (WHNP (WP (what)))(SQ (NP (NP (NP (NNP (martin))(NNP (luther))(NNP (king))(NNP (jr.)))))))) |ET| 
1  |BT| (ROOT (SBARQ (WHNP (WP (what)))(SQ (NP (NP (JJ (estimated))(JJ (total))(NNP (u.s.))(NN (whitetail))(NNS (deer))))))) |ET| 
-0.21800986827242269106008620838111  |BT| (ROOT (SBARQ (WHNP (WP (what)))(SQ (NP (NP (NNP (bella))(NNP (abzug))(POS ('s))))))) |ET| 
-0.081204343778719614843630836276134  |BT| (ROOT (SBARQ (WHNP (WP (what)))(SQ (NP (NP (NNP (john))(NNP (steinbeck))(POS ('s))))))) |ET| 
1  |BT| (ROOT (SBARQ (WHADVP (WRB (when)))(SQ (NP (NNP (general))(NNP (manuel))(NNP (noriega)))(VP (VP (PP (NP (NP (DT (the))(NN (leader)))(PP (NP (NNP (panama)))))))(VP (PRT (RP (over)))(PP (NP (NNP (u.s.))(NNS (authority))))))))) |ET| 
0.67113036025626293668011612680857  |BT| (ROOT (SBARQ (WHADVP (WRB (how))(RB (long)))(SQ (NP (DT (the))(NNP (paris))(NN (commune)))(VP (PRT (RP (out)))(PRT (IN (for)))(PP (NP (NP (DT (the))(NN (rest)))(PP (NP (NNP (france)))))))))) |ET| 
1  |BT| (ROOT (SBARQ (WHADVP (WRB (when)))(SQ (NP (NP (DT (the))(NN (use)))(PP (NP (`` (``))(DT (the))(NN (syringe))('' ('')))))(ADVP (RB (first)))(VP (PP (NP (JJ (medicinal))(NN (history)))))))) |ET| 
-1  |BT| (ROOT (SBARQ (WHADVP (WRB (how)))(SQ (NP (NP (DT (the))(NNS (month)))(PP (NP (DT (the))(NN (year)))))(VP (PRT (RB (there)))(NP (NN (name))))))) |ET| 
-0.67842348525085405253065573560889  |BT| (ROOT (S (NP (NNP (cnn)))(VP (VP (WHPP (WHNP (WP (whom)))))))) |ET| 
-0.22906947222386073170774523077853  |BT| (ROOT (SBARQ (WHNP (WP (what)))(SQ (NP (NP (DT (the))(JJ (collective))(NN (noun)))(PP (NP (NNS (goose)))))))) |ET| 
1  |BT| (ROOT (SBARQ (WHNP (WP (what)))(SQ (VP (NP (QP (CD (7847))(CD (+5943)))))))) |ET| 
1  |BT| (ROOT (SBARQ (WHNP (WP (what)))(SQ (NP (NP (NP (NNP (judy))(NNP (garland))(POS ('s))))(PP (NP (NN (birth)))))))) |ET| 
1  |BT| (ROOT (SBARQ (WHNP (WP (what)))(SQ (VP (NP (DT (the))(JJ (first))(JJ (minimum))(NN (wage))))))) |ET| 
-0.27163336972023016668842387844052  |BT| (ROOT (SBARQ (WHNP (WP (what)))(SQ (NP (NP (NNP (larry))(NNP (king))(POS ('s))))))) |ET| 
-0.21781023056799658776938599658024  |BT| (ROOT (SBARQ (WHNP (WP (what)))(SQ (NP (NP (NNP (al))(NNP (capone))(POS ('s))))))) |ET| 
-0.44594462127843026433282602738473  |BT| (ROOT (SBARQ (WHNP (WP (what)))(SQ (VP (NP (DT (the))(JJ (first))(JJ (domesticated))(NN (bird))))))) |ET| 
-0.21793084594688982846832914219704  |BT| (ROOT (SBARQ (WHNP (WP (what)))(SQ (NP (NP (NNP (stefan))(NNP (edberg))(POS ('s))))))) |ET| 
-0.017966039425081282293605866584585  |BT| (ROOT (SBARQ (WHNP (NP (PP (NP (NN (dog))))))(SQ (NP (DT (the))(`` (``))(JJ (little))(NNS (rascal))('' (''))(NN (dog)))))) |ET| 
0.50583652267125733814623345097061  |BT| (ROOT (SBARQ (WHADVP (WRB (how))(RB (long)))(SQ (NP (PRP (you)))(VP (S (VP (VP (PP (NP (DT (a))(NN (community))))(S (VP (VP (VB (vote)))))))))))) |ET| 
-0.15394639985182406727304282867408  |BT| (ROOT (SBARQ (WHNP (WP (what)))(SQ (NP (NP (DT (the))(NNP (us))(NNP (federal))(NN (government))(NN (website)))(PP (NP (NP (JJ (standard))(JJ (industrial))(NN (classification))(NNS (code)))(NP (NNP (sic))))))))) |ET| 
-1  |BT| (ROOT (SBARQ (WHADVP (WRB (how)))(SQ (NP (PRP (i)))(VP (SBAR (WHNP (WHADJP (WRB (how))(JJ (much))))(S (VP (VP (PP (NP (NN (retirement)))))))))))) |ET| 
-0.11604757456398395731866912683472  |BT| (ROOT (SBARQ (WHADVP (WRB (how)))(SQ (NP (DT (a))(JJ (abacus))(NN (work)))))) |ET| 
-0.20975016047103559047037890650245  |BT| (ROOT (SBARQ (WHADVP (WRB (how)))(SQ (NP (NNP (abigail))(NNP (arcane)))(VP (PP (NP (NP (DT (the))(JJ (villainous))(NN (opponent)))(PP (NP (DT (the))(NNP (swamp))(NNP (thing)))))))))) |ET| 
1  |BT| (ROOT (SBARQ (WHNP (WP (what)))(SQ (VP (NP (NP (DT (the))(NN (temperature)))(NP (NN (today)))))))) |ET| 
1  |BT| (ROOT (SBARQ (WHNP (WP (what)))(SQ (NP (NP (NNP (columbia))(NNP (tristar))(POS ('s))))))) |ET| 
-1  |BT| (ROOT (SBARQ (WHNP (WP (what)))(SQ (NP (NP (DT (the))(NN (origin)))(PP (NP (NNP (boxing))(NNP (day)))))))) |ET| 
-0.19210226857256701427090206379944  |BT| (ROOT (SBARQ (WHNP (WP (what)))(SQ (NP (NP (NP (NNP (nero))(NNP (wolfe))(POS ('s))))(PP (NP (NN (office))(NNS (hour)))))))) |ET| 
-0.30973942067386750487401059217518  |BT| (ROOT (SBARQ (WHNP (WP (what)))(SQ (NP (NNP (australia))(NN (day)))))) |ET| 
1  |BT| (ROOT (SBARQ (WHNP (WDT (what))(NN (season)))(SQ (VP (PP (NP (DT (the))(JJ (vernal))(NNS (equinox)))))))) |ET| 
1  |BT| (ROOT (SBARQ (SBARQ (WHNP (WP (what)))(SQ (NP (NP (DT (the))(JJ (all-time))(NN (stock))(NN (high)))(PP (NP (NNP (apple))(NNP (computer)))))))(SBARQ (WHADVP (WRB (where)))(SQ (NP (PRP (i)))(VP (NP (DT (this))(NN (information)))))))) |ET| 
1  |BT| (ROOT (SBARQ (WHNP (WDT (what))(NN (season)))(SQ (NP (DT (a))(JJ (hiemal))(NN (activity)))(ADVP (RB (normally)))(VP (NP (NN (place)))(PP (IN (in))))))) |ET| 
1  |BT| (ROOT (SBARQ (WHNP (WP (what)))(SQ (NP (NP (NNP (columbia))(NNP (tristar))(POS ('s))))))) |ET| 
-0.44894816881508670114442338672234  |BT| (ROOT (SBARQ (WHNP (WDT (what))(NN (city)))(SQ (NP (NNP (martin))(NNP (luther))(NNP (king))(NNP (jr.)))(VP (PRT (RP (in))))))) |ET| 
-1  |BT| (ROOT (SBARQ (WHNP (WDT (what))(NN (age)))(SQ (VP (NP (DT (the))(NN (bronze))(NN (age))))))) |ET| 
-0.49720555226717283447968043219589  |BT| (ROOT (SBARQ (WHNP (WP (what)))(SQ (NP (NP (DT (the))(NN (sequel)))(PP (NP (DT (the))(NNP (pink))(NN (panther)))))))) |ET| 
1  |BT| (ROOT (SBARQ (WHNP (WP (what)))(SQ (NP (NP (DT (the))(NN (price)))(PP (NP (NP (NNP (aaa))(POS ('s))))))))) |ET| 
1  |BT| (ROOT (SBARQ (WHNP (WP (what)))(SQ (NP (NP (DT (the))(NN (population)))(PP (NP (NNP (ohio)))))))) |ET| 
1  |BT| (ROOT (SBARQ (WHNP (WP (what)))(SQ (NP (NP (DT (the))(NN (population)))(PP (NP (NNP (mississippi)))))))) |ET| 
-0.23803078422886489451393288163672  |BT| (ROOT (SBARQ (WHNP (WP (what)))(SQ (NP (NP (DT (the))(NN (history)))(PP (NP (NNP (skateboarding)))))))) |ET| 
-0.39294965920287300287228049455734  |BT| (ROOT (SBARQ (WHNP (WP (what)))(SQ (NP (NP (DT (the))(NN (sequel)))(PP (NP (NP (NP (NNP (alice))(POS ('s))))(PP (NP (NNP (wonderland)))))))))) |ET| 
-0.24656363917142046227048979289975  |BT| (ROOT (SBARQ (WHNP (WP (what)))(SQ (NP (NP (DT (the))(NN (history)))(PP (NP (NP (NNP (valentine))(POS ('s))))))))) |ET| 
1  |BT| (ROOT (SBARQ (WHNP (WDT (what))(NN (century)))(SQ (NP (NNP (captain))(NNP (video)))(VP (PRT (RP (in))))))) |ET| 
1  |BT| (ROOT (SBARQ (WHNP (WDT (what))(NN (day)))(SQ (VP (NP (NNP (august))(CD (13))(, (,))(CD (1971))))))) |ET| 
1  |BT| (ROOT (SBARQ (WHNP (WDT (what))(NNS (debt)))(SQ (NP (NNP (qintex))(NN (group)))(VP (VB (leave)))))) |ET| 
-0.08475842905103320168436198400741  |BT| (ROOT (SBARQ (WHNP (WP (what)))(SQ (NP (NP (DT (the))(NN (name)))(PP (NP (NP (DT (the))(NN (dog)))(PP (NP (DT (the))(NNP (cracker))(NNP (jack))(NN (box)))))))))) |ET| 
-0.11473528606118726935747531570087  |BT| (ROOT (SBARQ (WHNP (WDT (what))(NN (college)))(SQ (NP (NNP (joe))(NNP (namath)))(VP (NP (NN (football)))(PP (IN (for))))))) |ET| 
-0.25192817531630601335379537886183  |BT| (ROOT (SBARQ (WHNP (WP (what)))(SQ (NP (NP (DT (the))(JJ (cultural))(NN (origin)))(PP (NP (NP (DT (the))(NN (ceremony)))(PP (NP (NNP (potlatch)))))))))) |ET| 
1  |BT| (ROOT (SBARQ (WHNP (WP (what)))(SQ (NP (NP (DT (the))(NN (frequency)))(PP (NP (NNP (vhf)))))))) |ET| 
1  |BT| (ROOT (SBARQ (WHNP (WP (what)))(SQ (NP (NP (DT (the))(NN (size)))(PP (NP (NNP (argentina)))))))) |ET| 
-0.046956061692182124445160695813684  |BT| (ROOT (SBARQ (WHNP (WDT (what))(NN (country)))(SQ (NP (NNP (king))(NNP (gustav))(NNP (v)))(VP (PRT (RP (over)))(PP (NP (CD (197))))(PP (NP (CD (195)))))))) |ET| 
-0.51692551935800046258862039394444  |BT| (ROOT (SBARQ (WHNP (WP (what)))(SQ (NP (NP (DT (the))(NN (function)))(PP (NP (NNP (ram)))))))) |ET| 
-0.67393094949078125033281594369328  |BT| (ROOT (SBARQ (WHNP (WP (what)))(SQ (NP (NP (DT (the))(NN (hub)))(PP (NP (NNP (london)))))))) |ET| 
1  |BT| (ROOT (SBARQ (WHNP (WDT (what))(NN (month)))(SQ (NP (PRP (you)))(VP (PP (SBAR (S (NP (PRP$ (you))(NN (birthstone)))(VP (NP (NN (sardonyx))))))))))) |ET| 
1  |BT| (ROOT (SBARQ (WHNP (WP (what)))(SQ (VP (NP (NP (NNP (thatcher))(POS ('s))))(PP (NP (NP (CD (10))(NNS (year)))(PP (NP (NN (power)))))))))) |ET| 
1  |BT| (ROOT (SBARQ (WHNP (WDT (what))(NN (age)))(SQ (NP (NNP (benny))(NNP (carter)))))) |ET| 
1  |BT| (ROOT (SBARQ (WHNP (WP (what)))(SQ (NP (NP (DT (the))(NN (frequency)))(PP (NP (NNP (vhf)))))))) |ET| 
-0.39188837617932625878580665812478  |BT| (ROOT (SBARQ (WHNP (WDT (what))(NN (instrument)))(SQ (NP (NNP (benny))(NNP (carter)))(VP (VB (play)))))) |ET| 
-0.67552944602484243930007323797327  |BT| (ROOT (SBARQ (WHNP (WDT (what))(NN (ocean)))(SQ (NP (NNP (amelia))(NNP (earhart)))(VP (PP (SBAR (WHADVP (WRB (when)))(S (NP (PRP (she)))(VP (VBD (disappear)))))))))) |ET| 
-0.014237144688343557688559037899267  |BT| (ROOT (SBARQ (WHNP (WP (what)))(SQ (NP (NP (NN (difference)))(PP (NP (NP (DT (a))(NN (poster)))(NP (DT (a))(NN (print))))))))) |ET| 
1  |BT| (ROOT (SBARQ (WHNP (WP (what)))(SQ (NP (NP (DT (the))(NN (speed)))(PP (NP (DT (the))(NNP (mississippi))(NNP (river)))))))) |ET| 
-0.59561962834799497823468072965625  |BT| (ROOT (SBARQ (WHNP (WP (what)))(SQ (NP (NP (NNS (cloud)))(PP (NP (DT (the))(NN (air)))))))) |ET| 
-0.48021068487025758697583910361573  |BT| (ROOT (SBARQ (WHNP (WP (what)))(SQ (NP (NP (PDT (all))(DT (the))(JJ (southern))(NNS (state)))(PP (NP (DT (the))(NNP (united))(NNPS (states)))))))) |ET| 
-0.0024424175795278845607638729120481  |BT| (ROOT (SBARQ (WHNP (WP (what)))(SQ (NP (NP (DT (the))(NN (term)))(PP (NP (DT (a))(JJ (young))(NN (fox)))))))) |ET| 
1  |BT| (ROOT (SBARQ (WHNP (WDT (what))(JJ (geological))(NN (time)))(SQ (NP (PRP (we)))(VP (PP (IN (in))))))) |ET| 
1  |BT| (ROOT (SBARQ (WHNP (WDT (what))(NN (phone))(NN (number)))(SQ (NP (PRP (i)))(VP (S (VP (VP (NP (DT (a))(NN (tree)))(S (VP (VBN (plant))))))))))) |ET| 
1  |BT| (ROOT (SBARQ (WHNP (WDT (what))(NN (century)))(SQ (NP (NP (NN (art))(POS ('s))))(VP (PP (IN (in))))))) |ET| 
1  |BT| (ROOT (SBARQ (WHNP (WP (what)))(SQ (NP (NP (DT (the))(NN (speed)))(PP (NP (DT (the))(NNP (mississippi))(NNP (river)))))))) |ET| 
-0.23408423546750389832027394731995  |BT| (ROOT (SBARQ (WHNP (WDT (what))(NN (province)))(SQ (NP (NNP (edmonton)))(VP (PP (IN (in))))))) |ET| 
-0.022601202289264533257240330499371  |BT| (ROOT (SBARQ (WHNP (WHNP (WDT (what))(JJ (famed))(NN (tennis))(NN (tournament))(POS ('s)))(NP (NNS (man))(POS ('s))))(SQ (NP (NNP (fred))(NNP (perry)))(NP (NP (DT (the))(JJ (last))(NNP (englishman)))(S (VP (VP (VB (win))))))))) |ET| 
-0.051432633457129957321729563091139  |BT| (ROOT (SBARQ (WHNP (WDT (what))(NN (sport)))(SQ (NP (DT (a))(JJ (free-legged))(NN (pacer)))(VP (PP (IN (in))))))) |ET| 
1  |BT| (ROOT (SBARQ (WHNP (WP (what)))(SQ (NP (NP (DT (the))(NN (death))(NN (toll)))(PP (NP (NP (DT (the))(NN (eruption)))(PP (NP (NNP (mount))(NNP (pinatubo)))))))))) |ET| 
1  |BT| (ROOT (SBARQ (WHNP (WP (what)))(SQ (NP (NP (DT (the))(NN (horsepower)))(PP (NP (DT (the))(NN (shuttle))(NNS (booster)))))))) |ET| 
-0.53999406468492539001857721814304  |BT| (ROOT (SBARQ (WHNP (WP (what)))(SQ (NP (NP (DT (the))(NN (nickname)))(PP (NP (NP (DT (the))(NN (state)))(PP (NP (NNP (mississippi)))))))))) |ET| 
-0.48561012841777950743704650449217  |BT| (ROOT (SBARQ (WHNP (WP (what)))(SQ (NP (NP (DT (the))(NN (text)))(PP (NP (DT (the))(NNP (fifth))(NNP (amendment)))))))) |ET| 
-0.0084883739143561242473934314034523  |BT| (ROOT (S (VP (NP (NP (DT (a))(NN (film)))(SBAR (WHNP (WDT (that)))(S (VP (VP (NP (DT (the))(JJ (golden))(NN (bear)))(PP (NP (DT (the))(NNP (berlin))(NNP (film))(NNP (festival)))))))))))) |ET| 
1  |BT| (ROOT (SBARQ (WHNP (WDT (what))(NN (day)))(SQ (NP (NNP (pearl))(NNP (harbor)))(VP (PP (NP (CD (1942)))))))) |ET| 
1  |BT| (ROOT (SBARQ (WHNP (WP (what)))(SQ (NP (NNP (englishmen)))(VP (NP (PRP (themselves)))(PP (IN (in))))))) |ET| 
0.1186308869952231170863399256632  |BT| (ROOT (SBARQ (WHADJP (WRB (how))(JJ (much)))(SQ (NP (PRP (it)))(VP (S (VP (VP (NP (DT (a))(NN (tree)))(PP (PP (NP (NP (VBG (dial)))(NP (NP (CD (900)))(NP (CD (740-tree)))))))))))))) |ET| 
1  |BT| (ROOT (SBARQ (WHNP (WP (what)))(SQ (NP (NP (DT (the))(NN (horsepower)))(PP (NP (DT (the))(NN (shuttle))(NNS (booster)))))))) |ET| 
-0.047249086263547519781713646125354  |BT| (ROOT (SBARQ (WHNP (WP (what)))(SQ (NP (DT (a))(NN (camel))(NN (hair))(NN (brush)))(ADVP (RB (actually)))(VP (PRT (RP (out)))(PP (IN (of))))))) |ET| 
-0.25515512573363474668752814977779  |BT| (ROOT (SBARQ (WHADVP (WRB (where)))(SQ (NP (NP (DT (the))(JJ (official))(`` (``))(NN (zero))('' ('')))(PP (NP (DT (the))(NN (sea))(NN (level)))))))) |ET| 
-0.029104531225203615629748554738399  |BT| (ROOT (SBARQ (WHNP (WDT (what))(NN (canal)))(SQ (NP (NP (NNP (thatcher))(NN (ferry))(NNP (bridge))))))) |ET| 
1  |BT| (ROOT (SBARQ (WHNP (WP (what)))(SQ (NP (NP (DT (the))(NN (weight)))(PP (NP (NP (DT (a))(NN (teaspoon)))(PP (NP (NP (NN (matter)))(PP (NP (DT (a))(JJ (black))(NN (hole)))))))))))) |ET| 
1  |BT| (ROOT (SBARQ (WHNP (WP (what)))(SQ (NP (NP (DT (the))(NN (wingspan)))(PP (NP (DT (a))(NN (condor)))))))) |ET| 
1  |BT| (ROOT (SBARQ (WHNP (WP (what)))(SQ (NP (NP (DT (the))(NN (length)))(PP (NP (NP (NN (border)))(PP (NP (DT (the))(NNP (ukraine))(CC (and))(NNP (russia)))))))))) |ET| 
-0.18376303019651132886203015459614  |BT| (ROOT (SBARQ (WHNP (WP (what)))(SQ (NP (NP (DT (the))(NN (word)))(PP (NP (NP (NP (JJ (broken))(NN (glass)))(NP (JJ (sharp))(NNS (rock))))(VP (PP (NP (NN (cement))))(PP (NP (NP (NN (top)))(PP (NP (DT (a))(NN (wall))))))))))))) |ET| 
-0.36551478826558492229992225475144  |BT| (ROOT (SBARQ (WHNP (WP (what)))(SQ (NP (NP (DT (the))(NN (definition)))(PP (NP (DT (a))(NN (cascade)))))))) |ET| 
-0.77323443157785187729302833758993  |BT| (ROOT (SBARQ (WHNP (WP (what)))(SQ (NP (NP (DT (the))(NN (executor)))(PP (NP (DT (a))(NN (will)))))))) |ET| 
1  |BT| (ROOT (SBARQ (WHNP (WDT (what))(NN (month)))(SQ (NP (DT (the))(NNP (edmund))(NNP (fitzgerald)))(VP (VB (sink)))))) |ET| 
0.5409682934892375838487055261794  |BT| (ROOT (SBARQ (WHADVP (WRB (when)))(SQ (NP (PRP (you)))(VP (NP (NN (winter))(NN (wheat))))))) |ET| 
1  |BT| (ROOT (SBARQ (WHNP (WDT (what))(NN (year)))(SQ (NP (DT (the))(NNP (olympic))(NNPS (games)))(VP (PP (SBAR (WHADVP (WRB (where)))(S (NP (NNP (nadia))(NNP (comaneci)))(VP (ADJP (JJ (popular))))))))))) |ET| 
0.12548065050675813458802565492078  |BT| (ROOT (SBARQ (WHADVP (WRB (when)))(SQ (NP (DT (the))(JJ (first))(JJ (flush))(NN (toilet)))(VP (VBN (invent)))))) |ET| 
-0.082084806577412669503779341084737  |BT| (ROOT (SBARQ (WHADVP (WRB (where)))(SQ (NP (NNP (christopher))(NNP (columbus)))(VP (VBN (bear)))))) |ET| 
1  |BT| (ROOT (SBARQ (WHNP (WP (what)))(SQ (NP (NP (DT (the))(NN (fine)))(PP (S (VP (NP (DT (a))(NN (dog)))(PP (NP (DT (a))(NN (beach))))))))))) |ET| 
1  |BT| (ROOT (SBARQ (WHNP (WP (what)))(SQ (NP (NP (DT (the))(NN (chance)))(PP (S (VP (NP (NNS (quadruplet)))))))))) |ET| 
1  |BT| (ROOT (SBARQ (WHNP (WP (what)))(SQ (NP (NP (DT (the))(NN (weight)))(PP (NP (NN (air)))))))) |ET| 
-0.30851541692779199665963574261696  |BT| (ROOT (SBARQ (WHNP (WP (what)))(SQ (NP (NP (DT (a))(NN (fear)))(PP (S (VP (ADJP (JJ (cold)))))))))) |ET| 
-0.35084674885967342961023973657575  |BT| (ROOT (SBARQ (WHNP (WP (what)))(SQ (NP (NP (DT (a))(NN (fear)))(PP (S (VP (ADJP (JJ (dirty)))))))))) |ET| 
-0.81971108943411385983068839777843  |BT| (ROOT (SBARQ (WHNP (WP (what)))(SQ (NP (NP (DT (the))(NN (motto)))(PP (NP (DT (the))(NN (boy))(NNS (scout)))))))) |ET| 
-0.19931612689134478588748322636093  |BT| (ROOT (SBARQ (WHNP (WP (what)))(SQ (NP (DT (the))(NNP (vietnam))(NNP (war)))))) |ET| 
-0.35093500546855938004853214806644  |BT| (ROOT (SBARQ (WHNP (WP (what)))(SQ (NP (NP (NP (DT (the))(NN (order)))(PP (NP (DT (the))(NNP (arrow)))))(PP (NP (NN (boy))(NNS (scout)))))))) |ET| 
0.13556021882421240287719399475463  |BT| (ROOT (SBARQ (WHADVP (WRB (when)))(SQ (NP (NP (DT (the))(NNS (woman))(POS ('s))))(VP (VBN (ratify)))))) |ET| 
-0.086783949601186627376137039391324  |BT| (ROOT (SBARQ (WHADVP (WRB (why)))(SQ (NP (PRP (you)))(VP (S (NP (NNP (god)))(VP (NP (PRP (you))('' ('')))(SBAR (WHADVP (WRB (when)))(S (NP (NNS (people)))(VP (VBP (sneeze))))))))))) |ET| 
-0.093533605821340348729364677637932  |BT| (ROOT (SBARQ (WHADVP (WRB (why)))(SQ (NP (NNS (people)))(VP (NP (NP (NNS (goosebump)))(SBAR (WHADVP (WRB (when)))(S (NP (PRP (they)))(VP (NP (NN (something))(JJ (emotional)))))))(VP (PP (NP (PRP (they))))(SBAR (S (SBAR (WHADVP (WRB (when)))(S (NP (PRP (they)))(VP (VP (NP (NP (DT (a))(JJ (beautiful))(NN (piece)))(PP (NP (NN (music))))))(VP (VP (NP (NN (something))(JJ (beautiful))))(VP (VP (PP (NP (NN (someone))))))))))(NP (PRP (they)))(VP (VBP (love)))))))))) |ET| 
-0.84450338095817967243306156888139  |BT| (ROOT (SBARQ (WHADVP (WRB (where)))(SQ (NP (NNP (richard))(NNP (nixon)))(SBAR (WHADVP (WRB (when)))(S (NP (NNP (gerald))(NNP (ford)))(VP (NP (NN (president))))))))) |ET| 
-0.41459503168483985424686011356243  |BT| (ROOT (SBARQ (WHADVP (WRB (how)))(SQ (NP (PRP (they)))(VP (NP (DT (the))(NNS (crane)))(SBAR (WHADVP (WRB (when)))(S (VP (NP (JJ (high-rise))(NNS (building)))))))))) |ET| 
1  |BT| (ROOT (SBARQ (WHNP (WP (what)))(SQ (NP (NP (DT (the))(JJ (starting))(NN (salary)))(PP (NP (DT (a))(NN (radiographer)))))))) |ET| 
1  |BT| (ROOT (SBARQ (WHNP (WP (what)))(SQ (NP (NP (DT (the))(JJ (average))(NN (salary)))(PP (NP (DT (a))(NN (paleontologist)))))))) |ET| 
1  |BT| (ROOT (SBARQ (WHNP (WP (what)))(SQ (NP (NP (DT (the))(NN (score)))(PP (NP (DT (a))(VBN (forfeit))(NN (baseball))(NN (game)))))))) |ET| 
-0.43687364870148448492415127475397  |BT| (ROOT (SBARQ (WHNP (WP (what)))(SQ (NP (NP (DT (the))(JJ (developmental))(NNS (stage)))(PP (NP (DT (a))(NN (swimmer)))))))) |ET| 
-0.47191295156133172827850330577348  |BT| (ROOT (SBARQ (WHNP (WP (what)))(SQ (NP (NP (DT (the))(JJ (second-largest))(NN (island)))(PP (NP (DT (the))(NN (world)))))))) |ET| 
-0.62691293179098372956303819591994  |BT| (ROOT (SBARQ (WHNP (WP (what)))(SQ (NP (NP (DT (the))(JJ (second-highest))(NN (mountain)))(PP (NP (DT (the))(NN (world)))))))) |ET| 
-0.041917250860088135777647977420202  |BT| (ROOT (S (NP (DT (the))(NNP (orange))(NNP (bowl)))(VP (VP (WHPP (WHNP (WDT (what))(NN (city)))))))) |ET| 
1  |BT| (ROOT (SBARQ (WHADJP (WRB (how))(JJ (old)))(SQ (NP (NNP (lucille))(NNP (ball)))(SBAR (WHADVP (WRB (when)))(S (NP (NP (DT (the))(NN (show)))(S (NP (PRP (i)))(VP (NP (NNP (lucy))))))(VP (VBD (premiere)))))))) |ET| 
0.45694212252464794232764688786119  |BT| (ROOT (SBARQ (WHADJP (WRB (how))(JJ (old)))(SQ (NP (NNP (sir))(NNP (edmund))(NNP (hillary)))(SBAR (WHADVP (WRB (when)))(S (NP (PRP (he)))(VP (NP (NNP (mt.))(NNP (everest))))))))) |ET| 
-1  |BT| (ROOT (SBARQ (WHADJP (WRB (how))(JJ (successful)))(SQ (NP (NN (arometherapy)))))) |ET| 
-0.35978920057720575886861524850246  |BT| (ROOT (SBARQ (SBAR (WHADVP (WRB (when)))(S (NP (PRP (it)))(VP (NP (S (VP (VP (VB (relax)))))))))(WHNP (WDT (what))(CD (one))(NN (beer)))(SQ (ADJP (JJ (clear)))))) |ET| 
-0.067616375671851094986131158748321  |BT| (ROOT (SBARQ (WHPP (WHNP (WDT (what))(NN (avenue))))(SQ (VP (NP (DT (the))(JJ (original))(NNP (saks))(NN (department))(NN (store)))(VP (VBN (locate))))))) |ET| 
1  |BT| (ROOT (SBARQ (WHNP (WP (what)))(SQ (NP (NP (DT (the))(JJ (first))(NN (day)))(PP (NP (DT (the))(NN (week)))))))) |ET| 
1  |BT| (ROOT (SBARQ (WHNP (WP (what)))(SQ (NP (NP (DT (the))(NN (goat))(NN (population)))(PP (NP (DT (the))(NN (world)))))))) |ET| 
-0.70433714301330918594601371296449  |BT| (ROOT (SBARQ (WHNP (WP (what)))(SQ (NP (NP (DT (the))(NN (secret)))(PP (NP (DT (the))(NN (universe)))))))) |ET| 
-0.72228541125303080683295320341131  |BT| (ROOT (SBARQ (WHNP (WP (what)))(SQ (NP (NP (DT (the))(NN (value)))(PP (NP (DT (the))(NN (pearl)))))))) |ET| 
-0.20596378581935506635325339175324  |BT| (ROOT (SBARQ (WHNP (WP (what)))(SQ (NP (NP (DT (the))(NN (habitat)))(PP (NP (DT (the))(NN (chickadee)))))))) |ET| 
-0.29446963104463974580937701830408  |BT| (ROOT (S (NP (WP (who)))(VP (S (S (SBAR (S (NP (PRP (you)))(VP (VB (don))('' (')))))(NP (NN (t)))(VP (ADJP (JJ (good)))))(S (NP (PRP (we)))(VP (VB (don))('' ('))))(S (NP (NN (t)))(VP (ADJP (JJ (good))))))))) |ET| 
-0.56841200553699189335077335272217  |BT| (ROOT (SBARQ (SBAR (WHADVP (WRB (when)))(S (NP (DT (the))(NNP (tutankhamun))(NN (exhibit)))(VP (PP (NP (NP (NN (display)))(PP (NP (DT (the))(NNP (u.s.)))))))))(WHNP (WDT (what))(VBG (move))(NN (company)))(SQ (NP (PRP (it)))))) |ET| 
1  |BT| (ROOT (SBARQ (WHADVP (WRB (where)))(SQ (NP (DT (the))(NNP (u.s.)))(VP (PP (NP (NP (NN (world))(NNS (country)))(PP (NP (NN (area)))))))))) |ET| 
1  |BT| (ROOT (SBARQ (WHNP (WP (what)))(SQ (NP (NP (DT (the))(JJ (first))(NN (day)))(PP (NP (DT (the))(NN (week)))))))) |ET| 
-1  |BT| (ROOT (SBARQ (WHADJP (WRB (how))(JJ (effective)))(SQ (NP (NP (NNS (condom)))(PP (S (VP (PP (NP (NNP (aids))))))))))) |ET| 
-0.043604584355159549391434126164313  |BT| (ROOT (SBARQ (WHADVP (WRB (how)))(SQ (NP (PRP (it)))(ADJP (S (VP (VP (NP (`` (`))(FW (qigong))('' (')))))))))) |ET| 
-0.013983727706307314334055469373652  |BT| (ROOT (SBARQ (WHNP (WP (what)))(SQ (NP (NP (DT (a))(NN (fear)))(PP (NP (NNS (child)))))))) |ET| 
1  |BT| (ROOT (SBARQ (WHNP (WP (what)))(SQ (NP (NP (DT (the))(NN (acreage)))(PP (NP (DT (the))(NNP (chappellet))(NN (vineyard)))))))) |ET| 
1  |BT| (ROOT (SBARQ (WHNP (WP (what)))(SQ (NP (NP (DT (the))(NN (size)))(PP (NP (DT (the))(JJS (largest))(NN (akita)))))))) |ET| 
1  |BT| (ROOT (SBARQ (WHNP (WP (what)))(SQ (NP (NP (DT (the))(NNS (chance)))(PP (NP (NP (NN (pregnacy)))(SBAR (S (NP (DT (the))(NN (penis)))(VP (VP (NP (DT (the))(NN (vagina))))))))))))) |ET| 
-0.11808075918844926355255608996231  |BT| (ROOT (SBARQ (WHNP (WP (what)))(SQ (NP (NP (DT (the))(JJ (snowiest))(NN (city)))(PP (NP (DT (the))(NNP (u.s.)))))))) |ET| 
-0.55243248575564607438792563698371  |BT| (ROOT (SBARQ (WHNP (WP (what)))(SQ (NP (NP (DT (the))(NN (mystery)))(PP (NP (DT (the))(NNP (bermuda))(NN (triangle)))))))) |ET| 
-0.47227452690015286895786061904801  |BT| (ROOT (SBARQ (WHNP (WP (what)))(SQ (NP (NP (DT (the))(NN (effect)))(PP (NP (DT (the))(NNP (yalta))(NN (conference)))))))) |ET| 
1  |BT| (ROOT (S (NP (NNP (shea))(CC (and))(NNP (gould)))(VP (NP (NP (DT (a))(NN (office)))(PP (NP (NNP (los))(NNP (angeles)))))(WHPP (WHNP (WRB (how))(RB (long))))(PP (S (VP (NP (PRP (it))))))))) |ET| 
1  |BT| (ROOT (S (NP (NNP (independent))(NNP (silversmith))(POS ('s)))(VP (PP (NP (NP (WP (what))(NN (percentage)))(PP (NP (NN (silver))(NN (production))))))))) |ET| 
1  |BT| (ROOT (SBARQ (WHNP (NP (PP (NP (NP (NN (world))(POS ('s)))))))(SQ (VP (PP (NP (NNP (canada)))))))) |ET| 
-0.43255113233954761708943692610774  |BT| (ROOT (SBARQ (WHNP (NP (PP (NP (NN (jewelry))))))(SQ (VP (PP (NP (NP (NNP (monopoly))(POS ('s))))))))) |ET| 
-0.1842188254919247536456339275901  |BT| (ROOT (SBARQ (WHNP (NP (PP (NP (VBG (bet))))))(SQ (VP (PP (NP (NN (horse))(NN (racing)))))))) |ET| 
-0.49382732654790328918892328147194  |BT| (ROOT (SBARQ (WHNP (NP (PP (NP (CD (1933))))))(SQ (NP (DT (the))(NNP (german))(NNPS (nazis)))(VP (S (VP (VP (NP (NP (NN (emergency))(NNS (decree)))(VP (VP (NP (NNS (opponent))))(VP (NP (JJR (more))(NN (power)))(PP (NP (PRP (themselves)))))))))))))) |ET| 
1  |BT| (ROOT (SBARQ (WHNP (WP (what)))(SQ (NP (NP (DT (the))(NN (quantity)))(PP (NP (NP (JJ (american))(NNS (soldier)))(ADJP (PP (PP (NP (DT (the))(NNP (vietnam))(NN (war)))))))))))) |ET| 
1  |BT| (ROOT (SBARQ (WHNP (WP (what)))(SQ (NP (NP (DT (the))(NN (percentage)))(PP (NP (NP (NNS (child)))(VP (NP (CD (two)))(PP (NP (NP (NNS (eleven)))(SBAR (WHNP (WP (who)))(S (VP (S (NP (`` ('))(DT (the))(NNPS (simpsons))('' (')))))))))))))))) |ET| 
1  |BT| (ROOT (SBARQ (WHNP (WP (what)))(SQ (NP (NP (DT (the))(JJ (gestation))(NN (period)))(PP (NP (JJ (human))(NNS (pregnancy)))))))) |ET| 
-1  |BT| (ROOT (SBARQ (WHNP (WP (what)))(SQ (NP (NP (DT (the))(JJ (first))(NN (book)))(PP (NP (DT (the))(JJ (old))(NN (testament)))))))) |ET| 
-1  |BT| (ROOT (SBARQ (WHNP (WP (what)))(SQ (NP (NP (DT (the))(JJ (eighth))(NN (day)))(PP (NP (NP (DT (the))(NNS (none)))(PP (NP (NP (DT (each))(NN (month)))(PP (NP (DT (the))(NNP (roman))(NN (calendar)))))))))(VP (VBN (call)))))) |ET| 
-0.22514379139132900675690507341642  |BT| (ROOT (SBARQ (WHNP (WP (what)))(SQ (NP (NP (DT (the))(NN (name)))(PP (NP (NP (DT (the))(NN (planet)))(SBAR (S (NP (DT (the))(NNPS (ewoks)))(VP (PRT (RP (on)))))))))))) |ET| 
1  |BT| (ROOT (SBARQ (WHNP (NP (PP (NP (NNPS (americans))))))(SQ (VP (NP (PRP$ (they))(NNS (home))))))) |ET| 
1  |BT| (ROOT (SBARQ (WHNP (NP (PP (NP (NP (DT (a))(NN (beaver))(POS ('s)))))))(SQ (VP (VP (VP (VBG (swim)))))))) |ET| 
-0.060908275967849472010140488009711  |BT| (ROOT (SBARQ (WHNP (WP (what)))(SQ (NP (NP (DT (a))(NN (person))(POS ('s))))))) |ET| 
-0.19756662791413667767947970332898  |BT| (ROOT (FRAG (WHNP (WP (what)))(SBAR (S (NP (NP (NN (city))(POS ('s))))(VP (VP (VP (NP (DT (the))(NNP (roaring))(NNP (forties)))))))))) |ET| 
-0.1646663826443610645355875021778  |BT| (ROOT (SBARQ (WHNP (WP (what)))(SQ (NP (NP (DT (the))(NN (definition)))(PP (NP (NP (DT (the))(NNP (scrabble))(NN (word)))(NP (NN (syzygy))))))))) |ET| 
1  |BT| (ROOT (SBARQ (WHNP (WDT (what))(NN (time)))(SQ (NP (NNP (wee))(NNP (willie))(NNP (winkie)))(VP (PP (NP (DT (the))(NN (town)))))))) |ET| 
1  |BT| (ROOT (SBARQ (WHNP (WP (what)))(SQ (NP (NP (DT (the))(JJ (average))(NN (age)))(PP (NP (NP (DT (a))(NN (member)))(PP (NP (NP (DT (the))(NN (team)))(SBAR (WHNP (WDT (that)))(S (VP (PP (NP (DT (the))(NNP (manhatten))(NN (project))))))))))))))) |ET| 
1  |BT| (ROOT (SBARQ (WHNP (WHNP (WDT (what))(NN (month))(POS ('s))))(SQ (NP (DT (the))(NNP (monterey))(NN (jazz))(NNP (festival)))(VP (PRT (RP (on))))))) |ET| 
1  |BT| (ROOT (SBARQ (WHNP (NP (PP (NP (NP (DT (a))(NN (beaver))(POS ('s)))))))(SQ (VP (VP (VP (VBG (swim)))))))) |ET| 
-0.14253777846224660597052036337118  |BT| (ROOT (SBARQ (WHNP (WDT (what))(NN (part)))(SQ (NP (NNP (benjamin))(NNP (franklin)))(VP (PP (NP (NP (DT (the))(NN (development)))(PP (NP (NP (DT (the))(NN (newspaper)))(PP (NP (NNP (america)))))))))))) |ET| 
-0.48731670943610516655297715260531  |BT| (ROOT (S (NP (DT (the))(NN (corpus))(NN (callosum)))(VP (PP (NP (NP (WP (what))(NN (part)))(PP (NP (DT (the))(NN (body))))))))) |ET| 
-0.082530231353796140725265217952256  |BT| (ROOT (SBARQ (WHNP (WDT (what))(NN (function)))(SQ (NP (RB (homeostasis)))(VP (PP (NP (NP (DT (the))(NN (existence)))(PP (NP (DT (a))(NN (organism)))))))))) |ET| 
-0.22234199276367735964576866081188  |BT| (ROOT (SBARQ (WHNP (WP (what)))(SQ (NP (NP (DT (the))(NN (meaning)))(PP (NP (`` (``))(NNP (cpr))('' ('')))))))) |ET| 
1  |BT| (ROOT (SBARQ (WHNP (WP (what)))(SQ (NP (NP (DT (the))(NN (protection))(NN (rate)))(PP (S (VP (NP (NNS (condom)))))))))) |ET| 
1  |BT| (ROOT (SBARQ (WHNP (WP (what)))(SQ (NP (NP (DT (the))(VBG (start))(NN (salary)))(PP (S (VP (NP (NNS (lawyer)))))))))) |ET| 
-0.68459121187278415554544608312426  |BT| (ROOT (SBARQ (WHNP (WP (what)))(SQ (NP (NNP (candlemas))(NN (day)))))) |ET| 
-0.10747326551905429792288515500331  |BT| (ROOT (SBARQ (WHNP (WP (what)))(SQ (NP (NN (power))(NN (steering)))))) |ET| 
-0.33612115129016861825306250466383  |BT| (ROOT (SBARQ (WHNP (NP (PP (NP (NNS (trial))))))(SQ (NP (NNP (world))(NNP (war))(NNP (ii)))))) |ET| 
1  |BT| (ROOT (SBARQ (WHADJP (WHADVP (WRB (how))(RB (much))))(SQ (NP (NP (DT (the))(JJ (new))(JJ (vitreous))(NN (carbon))(NN (material)))(VP (PP (NP (NP (DT (the))(NNP (tokyo))(NNP (institute)))(PP (NP (NNP (technology))))))))(VP (PP (NP (NP (DT (the))(NN (material)))(VP (PP (NP (NN (cellulose))))))))))) |ET| 
1  |BT| (ROOT (SBARQ (WHNP (WHNP (WHADJP (WRB (how))(JJ (many))))(PP (NP (DT (the))(NN (ground)))))(SQ (VP (PP (NP (NP (DT (the))(NN (bombing)))(PP (NP (NP (NNP (pan))(NNP (am))(NN (flight))(CD (103)))(PP (NP (NP (NNP (lockerbie)))(NP (NNP (scotland)))(NP (NNP (december))(CD (21)))(NP (NNP (cd))))))))))))) |ET| 
1  |BT| (ROOT (SBARQ (WHNP (WP (what)))(SQ (NP (NP (DT (the))(JJ (average))(NN (life))(NN (expectancy)))(PP (NP (NP (DT (a))(NN (male)))(PP (NP (NNP (ireland)))))))(PP (NP (CD (1996))))))) |ET| 
-0.87205603470376913399775276047876  |BT| (ROOT (SBARQ (WHADVP (PP (NP (DT (the))(NN (internet)))))(SQ (NP (PRP (i)))(VP (NP (NP (NN (information)))(PP (NP (NP (DT (the))(JJ (fifth))(NN (amendment)))(PP (NP (NP (DT (the))(JJ (american))(NN (bill)))(PP (NP (NNPS (rights))))))))))))) |ET| 
-0.83687103199843515533018489804817  |BT| (ROOT (SBARQ (WHNP (WHNP (WDT (which)))(PP (NP (NP (JJ (many))(VBN (number))(NNS (vat)))(PP (NP (NNP (scotch)))))))(SQ (VP (ADVP (JJS (best)))(PP (NP (NP (DT (a))(NN (panel)))(PP (NP (NNS (expert))))))(PP (NP (CD (1863)))))))) |ET| 
-0.12490526937217724667839036101213  |BT| (ROOT (S (VP (NP (NP (DT (the))(CD (5))(NNS (word)))(SBAR (WHNP (WDT (that)))(S (VP (NP (NP (DT (all)))(PP (NP (NP (DT (the))(NNS (letter)))(PP (NP (DT (the))(NN (alphabet))))))(PP (NP (NNP (q)))))(PP (NP (DT (no))(NNS (repeat))))))))))) |ET| 
1  |BT| (ROOT (SBARQ (WHNP (WP (what)))(SQ (NP (DT (the))(NNP (pennsylvania))(NN (state))(NN (income))(NN (tax))(NN (rate)))))) |ET| 
1  |BT| (ROOT (SBARQ (WHNP (WP (what)))(SQ (NP (DT (the))(JJS (busiest))(NN (air))(NN (travel))(NN (season)))))) |ET| 
1  |BT| (ROOT (SBARQ (WHNP (WP (what)))(SQ (NP (DT (the))(JJ (federal))(JJ (minimum))(NN (wage)))))) |ET| 
-0.031054901825677168336614641930282  |BT| (ROOT (SBARQ (WHNP (WHNP (WDT (which)))(PP (NP (DT (the))(NN (following)))))(SQ (VP (VP (NP (DT (a))(CD (1983))(`` (``))(JJ (outstanding))(NN (mother))(NN (award))('' ('')))(PP (NP (NP (DT (the))(NNP (national))(NNP (mother))(POS ('s)))))))))) |ET| 
1  |BT| (ROOT (SBARQ (WHPP (WHNP (WDT (what))(NN (date))))(SQ (NP (NNP (rosa))(NNP (parks)))(VP (NP (NP (DT (a))(NN (symbol)))(PP (NP (DT (the))(JJ (civil))(NNS (rights))(NN (movement)))))(PP (S (VP (S (VP (VP (PRT (RP (up)))(NP (NP (PRP$ (she))(NN (seat)))(PP (NP (DT (the))(NN (bus))))))))))))))) |ET| 
1  |BT| (ROOT (SBARQ (WHNP (PP (NP (NP (NNS (child)))(PP (NP (NP (DT (the))(NNS (age)))(PP (NP (NP (CD (two)))(NP (NNS (eleven)))))))))(WHNP (WDT (what))(NN (percentage))))(SQ (VP (NP (`` (``))(DT (the))(NNPS (simpsons))('' (''))))))) |ET| 
1  |BT| (ROOT (SBARQ (WHNP (WDT (what))(NN (percent)))(SQ (NP (NNP (thatcher)))(SBAR (S (NP (PRP (she)))(VP (VP (PP (NP (NN (power))))(PP (NP (DT (a))(NN (decade))))))))))) |ET| 
-0.52661000106629474171171523266821  |BT| (ROOT (SBARQ (WHNP (WHNP (WDT (what))(NN (southeast))))(SQ (NP (DT (the))(NNP (wang))(NNP (river)))(VP (NP (DT (the))(NNP (ping))(NNP (river)))(PP (NP (NNP (tak)))))))) |ET| 
-0.80586054369005211128751398064196  |BT| (ROOT (SBARQ (WHNP (WDT (what))(NN (mayor)))(SQ (NP (ADJP (RB (so))(JJ (many))))(SBAR (S (NP (PRP (he)))(VP (VP (S (VP (VP (NP (NNP (aftra)))(PP (NP (CD (1984)))))))))))))) |ET| 
-1  |BT| (ROOT (SBARQ (SBARQ (WHNP (WDT (what))(NN (company)))(SQ (VP (VP (VP (PP (NP (NNP (yahoo)))))))))(SBARQ (WHADJP (WRB (how))(JJ (much)))(SQ (NP (DT (the))(NN (deal)))(ADJP (JJ (worth))))))) |ET| 
1  |BT| (ROOT (SBARQ (WHNP (WP (what)))(SQ (NP (NP (NP (NP (DT (the))(JJ (maximum))(NN (length)))(PP (NP (NNS (inch))))(PP (NP (DT (a))(JJ (first))(NN (baseman)))))))))) |ET| 
1  |BT| (ROOT (SBARQ (WHNP (WP (what)))(SQ (NP (NP (NN (bottle))(NNS (cap)))(PP (NP (NP (NNS (president))(POS ('))))))(ADJP (RB (inside))(JJ (worth)))))) |ET| 
1  |BT| (ROOT (SBARQ (WHNP (NP (PP (NP (JJ (folic))(NN (acid))))))(SQ (NP (DT (a))(JJ (expectant))(NN (mother)))(VP (ADJP (JJ (daily))))))) |ET| 
-0.18621093343187983260023088405433  |BT| (ROOT (SBARQ (WHNP (WP (what)))(SQ (NP (NP (DT (the))(NN (world))(POS ('s))))))) |ET| 
-1  |BT| (ROOT (SBARQ (WHNP (WP (what)))(SQ (NP (NP (DT (the))(NN (chemical))(NN (composition)))(PP (NP (DT (a))(NNP (barbie)))))))) |ET| 
-0.93390203436896024324909149072482  |BT| (ROOT (SBARQ (WHNP (WP (what)))(SQ (NP (NP (DT (the))(JJ (daily))(NN (requirement)))(PP (NP (NP (JJ (folic))(NN (acid)))(PP (NP (DT (a))(JJ (expectant))(NN (mother)))))))))) |ET| 
-1  |BT| (ROOT (SBARQ (WHNP (WP (what)))(SQ (NP (NP (DT (the))(NN (chemical))(NN (symbol)))(PP (NP (NN (nitrogen)))))))) |ET| 
1  |BT| (ROOT (SBARQ (WHNP (WHNP (WDT (what))(NN (chapter)))(PP (ADJP (PP (NP (DT (the))(NN (wind)))))))(SQ (NP (NNP (rhett))(NNP (butler)))(VP (NP (NP (NNP (scarlett))(NNP (o))(POS (')))))))) |ET| 
1  |BT| (ROOT (SBARQ (WHNP (WDT (what))(NN (date)))(SQ (NP (NN (man)))(VP (PP (NP (DT (the))(NN (moon)))))))) |ET| 
-0.33691070967305875027975048396911  |BT| (ROOT (SBARQ (WHNP (NP (PP (NP (NNS (book))))))(SQ (NP (NNP (fodor))(POS ('s)))(VP (VB (publish)))))) |ET| 
-0.44112754540633547506445211183745  |BT| (ROOT (SBARQ (WHNP (NP (PP (NP (DT (the))(NN (sea))))))(SQ (NP (NNP (johnny))(NNP (horton)))(VP (ADVP (RB (about))))))) |ET| 
-0.33969604147521520465247135689424  |BT| (ROOT (SBARQ (WHNP (NP (PP (NP (NN (hat))))))(SQ (NP (NNP (bat))(NNP (masterson)))(VP (VB (wear)))))) |ET| 
1  |BT| (ROOT (SBARQ (WHNP (WP (what)))(SQ (NP (NP (DT (the))(NN (chemical))(NN (reactivity)))(PP (NP (NNP (argon)))))))) |ET| 
1  |BT| (ROOT (SBARQ (WHNP (WP (what)))(SQ (NP (NP (DT (the))(NN (chemical))(NN (reactivity)))(PP (NP (NNP (helium)))))))) |ET| 
1  |BT| (ROOT (SBARQ (WHNP (WP (what)))(SQ (NP (NP (DT (the))(NNS (statistics)))(PP (NP (NP (NN (drunken))(NNS (driver)))(PP (NP (NNP (maryland)))))))))) |ET| 
-1  |BT| (ROOT (SBARQ (WHNP (WP (what)))(SQ (NP (NP (DT (the))(NN (state))(NN (nickname)))(PP (NP (NNP (mississippi)))))))) |ET| 
-1  |BT| (ROOT (SBARQ (WHNP (WP (what)))(SQ (NP (NP (DT (the))(NN (brand))(NN (name)))(PP (NP (NNP (daminozide)))))))) |ET| 
-0.021222269701458025548124197712241  |BT| (ROOT (SBARQ (WHNP (WP (what)))(SQ (NP (NP (DT (the))(NNS (ingredient)))(PP (NP (NNP (coca-cola)))))))) |ET| 
1  |BT| (ROOT (SBARQ (WHNP (NP (PP (NP (NN (day))))))(SQ (NP (NNP (emperor))(NNP (hirohito)))(VP (VB (die)))))) |ET| 
1  |BT| (ROOT (SBARQ (WHNP (NP (PP (NP (NP (NP (DT (the))(NN (world))(POS ('s))))(NP (NN (animal))(NNS (species)))))))(SQ (VP (VP (VP (PP (NP (DT (the))(NNP (amazon))(NNS (forest)))))))))) |ET| 
1  |BT| (ROOT (SBARQ (WHNP (NP (PP (NP (NN (year))))))(SQ (NP (JJS (most))(NNS (people)))(VP (VB (fly)))))) |ET| 
-0.46356168931326757753907941150828  |BT| (ROOT (SBARQ (WHNP (NP (PP (NP (NN (suit))))))(SQ (NP (JJ (true))(NNS (hepcat)))(VP (PP (NP (CD (1942)))))))) |ET| 
-0.50216795828306204363400411239127  |BT| (ROOT (SBARQ (WHNP (NP (PP (NP (NN (organization))))))(SQ (VP (NP (PP (NP (NNS (animal))))))))) |ET| 
-0.50635059957574546363190393094555  |BT| (ROOT (SBARQ (WHNP (NP (PP (NP (NN (childhood))))))(SQ (NP (NNP (jules))(NNP (verne)))(VP (VB (have)))))) |ET| 
1  |BT| (ROOT (SBARQ (WHNP (WP (what)))(SQ (NP (NP (DT (the))(JJ (highest-paying))(NNS (odds)))(PP (NP (DT (a))(NN (roulette))(NN (table)))))))) |ET| 
1  |BT| (ROOT (SBARQ (WHNP (WP (what)))(SQ (NP (NP (DT (the))(NN (telephone))(NN (number)))(PP (NP (NP (DT (the))(NNP (university)))(PP (NP (NNP (kentucky)))))))))) |ET| 
1  |BT| (ROOT (SBARQ (WHNP (WP (what)))(SQ (NP (NP (DT (the))(NNS (length)))(PP (NP (NN (pearl))(NNS (necklace)))))))) |ET| 
-0.058246596062172653618382867080072  |BT| (ROOT (SBARQ (WHNP (WDT (what))(NN (fastener)))(SQ (NP (NNP (whitcomb))(NNP (judson)))(VP (PP (NP (CD (1893)))))))) |ET| 
-0.60315760238109217272750584015739  |BT| (ROOT (SBARQ (WHNP (WP (what)))(SQ (NP (NP (NP (DT (the))(NNS (character))(POS ('))))(PP (NP (DT (the))(NNP (scooby-doo))(NN (cartoon)))))))) |ET| 
-0.22438822090111473772644501423201  |BT| (ROOT (SBARQ (WHNP (WP (what)))(SQ (NP (NP (DT (the))(NN (difference)))(PP (NP (NP (DT (the))(NNS (anus)))(NP (DT (the))(NN (rectum))))))))) |ET| 
1  |BT| (ROOT (SBARQ (WHNP (NP (PP (NP (JJ (american))(NNS (man))))))(SQ (ADJP (JJ (alcoholic)))))) |ET| 
1  |BT| (ROOT (SBARQ (WHNP (NP (PP (NP (DT (the))(NN (body))))))(SQ (NP (NN (muscle)))))) |ET| 
1  |BT| (ROOT (SBARQ (WHNP (NP (PP (NP (DT (the))(NN (silver))(NN (production))))))(SQ (VP (PP (NP (JJ (independent))(NNS (silversmith)))))))) |ET| 
1  |BT| (ROOT (SBARQ (WHNP (WP (what)))(SQ (NP (NP (DT (the))(NN (speed)))(PP (NP (DT (the))(NNP (mississippi))(NNP (river)))))))) |ET| 
-0.18051435738013255072331730843871  |BT| (ROOT (SBARQ (WHNP (NP (PP (NP (NN (luggage))))))(SQ (VP (PP (NP (DT (a))(JJ (famous))(JJ (american))(NN (flier)))))))) |ET| 
-0.60496507156317647080356891819974  |BT| (ROOT (SBARQ (WHNP (NP (PP (NP (NNP (monopoly))(NNS (property))))))(SQ (VP (VP (PRT (RP (on)))(ADVP (RBS (most))(RB (often)))))))) |ET| 
-0.58853523933563922643230625908473  |BT| (ROOT (SBARQ (WHNP (NP (PP (NP (JJ (dry))(NN (wine))))))(SQ (VP (VP (VP (PP (NP (NN (veal))(NNS (roast))(CC (and))(NNS (chop)))))))))) |ET| 
1  |BT| (ROOT (SBARQ (WHNP (WP (what)))(SQ (NP (NP (DT (the))(NN (temperature)))(PP (NP (NN (cooking)))))))) |ET| 
1  |BT| (ROOT (SBARQ (WHNP (WP (what)))(SQ (NP (NP (DT (the))(JJ (third))(NN (month)))(PP (NP (DT (the))(NNP (gregorian))(NN (calendar)))))))) |ET| 
1  |BT| (ROOT (SBARQ (WHNP (WP (what)))(SQ (NP (NP (DT (the))(JJ (per-capita))(NN (income)))(PP (NP (NP (NNP (colombia)))(NP (NNP (south))(NNP (america))))))))) |ET| 
-0.43443527204397197616358994309849  |BT| (ROOT (SBARQ (WHNP (WP (what)))(SQ (NP (NP (NN (canker))(NNS (sore)))(PP (NP (DT (the))(NN (mouth)))))))) |ET| 
-0.59214213869559995107039185313624  |BT| (ROOT (SBARQ (WHNP (WP (what)))(SQ (NP (NP (DT (the))(JJ (official))(NN (animal)))(PP (NP (NNP (canada)))))))) |ET| 
-1  |BT| (ROOT (SBARQ (WHNP (WP (what)))(SQ (NP (NP (DT (the))(NN (rallying))(NN (cry)))(PP (NP (DT (the))(JJ (early))(JJ (american))(NNS (revolutionary)))))))) |ET| 
1  |BT| (ROOT (SBARQ (WHNP (WHADJP (RB (about))(WRB (how))(JJ (many))))(SQ (VP (PP (NP (NNP (world))(NNP (war))(NNP (ii)))))))) |ET| 
1  |BT| (ROOT (SBARQ (WHNP (NP (PP (NP (DT (all))(NN (world))))))(SQ (VP (PRT (RP (down)))(PP (NP (DT (the))(NNP (us)))))))) |ET| 
1  |BT| (ROOT (SBARQ (WHADVP (WRB (how))(RB (much)))(SQ (NP (NNP (clara))(NNP (peller)))(VP (VP (PP (NP (NNP (wendy))(POS ('s))))(S (VP (VP (SBARQ (WHADVP (WRB (where)))(SQ (VP (NP (DT (the))(NN (beef))('' ('')))))))))))))) |ET| 
-0.83141096770847078278876551848953  |BT| (ROOT (SBARQ (WHADVP (WRB (how)))(SQ (NP (PRP (i)))(VP (PRT (RP (out)))(SBAR (WHADVP (WRB (how))(RB (much)))(S (NP (NN (income))(NN (tax)))(VP (VP (PP (NP (NP (NNP (social))(NNP (security)))))(PP (NP (DT (the))(CD (1998))(NN (income))(NN (tax)))))))))))) |ET| 
-1  |BT| (ROOT (SBARQ (WHADVP (WRB (how)))(SQ (NP (NNS (bird)))(VP (NP (NP (PRP$ (they))(NN (way)))(ADVP (PP (NP (DT (the))(JJ (same))(NN (place)))))(NP (DT (every))(NN (year)))))))) |ET| 
-0.15979633109956442593713177302561  |BT| (ROOT (SBARQ (WHNP (WHNP (WDT (what))(NN (product)))(PP (NP (DT (the))(NN (market)))))(SQ (ADJP (PP (S (VP (NP (JJ (facial))(NNS (scar)))))))))) |ET| 
1  |BT| (ROOT (SBARQ (WHNP (WP (what)))(SQ (NP (NP (DT (the))(NNS (dimension)))(PP (NP (DT (a))(NN (ice))(NN (hockey))(NN (goal)))))))) |ET| 
1  |BT| (ROOT (SBARQ (WHNP (WP (what)))(SQ (NP (NP (DT (the))(NN (population)))(PP (NP (NNP (india)))))))) |ET| 
1  |BT| (ROOT (SBARQ (WHNP (WP (what)))(SQ (NP (NP (DT (the))(NN (population)))(PP (NP (NNP (mozambique)))))))) |ET| 
1  |BT| (ROOT (SBARQ (WHNP (WHNP (WDT (what))(NN (chapter)))(PP (ADJP (PP (NP (DT (the))(NN (wind)))))))(SQ (NP (NNP (rhett))(NNP (butler)))(VP (NP (NP (NNP (scarlett))(NNP (o))(POS (')))))))) |ET| 
-0.65804585399198012307664384934469  |BT| (ROOT (SBARQ (WHNP (WP (what)))(SQ (NP (NP (DT (the))(NN (claim)))(PP (NP (NP (NN (fame)))(PP (NP (NP (NNP (agra)))(NP (NNP (india))))))))))) |ET| 
-0.34136404082170029861131865800417  |BT| (ROOT (SBARQ (WHNP (WP (what)))(SQ (NP (NP (DT (the))(JJS (largest))(NN (county)))(PP (NP (NP (NN (size)))(PP (NP (NNP (massachusetts)))))))))) |ET| 
-0.59323865084673255143599135408294  |BT| (ROOT (SBARQ (WHNP (WP (what)))(SQ (NP (NP (DT (the))(NN (half-life)))(PP (NP (NNP (p-32)))))))) |ET| 
1  |BT| (ROOT (S (SBAR (WHADVP (WRB (how))(JJ (many)))(S (NP (DT (no)))(VP (VBZ (answer)))))(VP (NP (DT (the)))(SBAR (WHNP (WP (what)))(S (VP (NP (PRP$ (my))(NN (line))))))))(S (NP (NN (panel)))(VP (VBD (allow))))) |ET| 
1  |BT| (ROOT (SBARQ (WHNP (WHNP (WRB (how))(RB (long)))(PP (NP (NN (intercourse)))))(SQ (NP (PRP (it)))(VP (S (VP (VP (PRT (RP (out)))(SBAR (S (NP (PRP (you)))(VP (ADJP (JJ (pregnant))))))))))))) |ET| 
1  |BT| (ROOT (SBARQ (WHADVP (WRB (when)))(SQ (NP (NNS (human)))(VP (ADJP (JJ (first)))(S (VP (VP (NP (NN (history)))(ADVP (RB (seriously)))))))))) |ET| 
-0.11545505613756171237049841238331  |BT| (ROOT (NP (NP (SBAR (WHNP (WDT (which)))(S (VP (S (NP (NN (taste))(NNS (bud)))(ADJP (JJ (first))))))))(NP (NP (NNS (snicker)))(NP (CD (3))(NNS (musketeer)))))) |ET| 
-1  |BT| (ROOT (SBARQ (WHPP (WHNP (WDT (what))(NNP (olympic))(NNPS (games))))(SQ (NP (NNP (nadia))(NNP (comaneci)))(VP (ADJP (JJ (popular))))))) |ET| 
-0.41248679235486895855444799963152  |BT| (ROOT (SBARQ (WHADVP (WRB (why)))(SQ (NP (DT (a))(NN (woman)))(VP (S (VP (VP (NP (DT (a))(JJ (virgin)))(S (VP (VP (NP (DT (a))(NN (nun))))))))))))) |ET| 
1  |BT| (ROOT (SBARQ (WHNP (WP (what)))(SQ (NP (NP (DT (the))(NN (date)))(PP (NP (NP (NP (NNP (iraq))(POS ('s))))(PP (NP (NNP (kuwait)))))))))) |ET| 
1  |BT| (ROOT (SBARQ (WHNP (WP (what)))(SQ (NP (NP (DT (the))(JJS (highest))(NN (number)))(PP (NP (NP (NN (home))(NNS (run)))(PP (NP (NP (NN (record)))(PP (NP (DT (any))(CD (one))(NN (game)))))))))))) |ET| 
1  |BT| (ROOT (SBARQ (WHNP (WP (what)))(SQ (NP (NP (JJ (average))(NN (salary)))(PP (NP (NP (NN (restaurant))(NN (manager)))(PP (NP (NNP (united))(NNPS (states)))))))))) |ET| 
-1  |BT| (ROOT (SBARQ (WHNP (WP (what)))(SQ (NP (NP (DT (the))(NN (web))(NN (address)))(PP (NP (NP (DT (the))(NN (list)))(PP (NP (NP (JJ (e-mail))(NNS (address)))(PP (NP (NP (NNS (member)))(PP (NP (NP (DT (the))(NNP (house)))(PP (NP (NNPS (representatives)))))))))))))))) |ET| 
-0.78585728708130864195169351660297  |BT| (ROOT (SBARQ (WHNP (WP (what)))(SQ (NP (NP (NP (DT (the))(NN (world))(POS ('s))))(PP (NP (NP (NN (order)))(PP (NP (NN (size)))))))))) |ET| 
-0.058733608763674768904472500707925  |BT| (ROOT (SBARQ (WHNP (WP (what)))(SQ (NP (NP (DT (the))(NNS (name)))(PP (NP (NP (NP (NNP (jack))(POS ('s))))(PP (NP (NP (CD (three))(POS ('s))))))))))) |ET| 
1  |BT| (ROOT (SBARQ (WHADJP (WRB (how))(JJ (high)))(SQ (NP (DT (a))(NN (mountain)))(VP (S (VP (VP (VP (NP (DT (a))(NN (mountain))))))))))) |ET| 
1  |BT| (ROOT (S (NP (NP (DT (the))(NNP (olympic))(NNPS (games)))(WHPP (WHNP (WDT (which)))))(NP (NN (year)))(VP (S (NP (NNP (nadia))(NNP (comaneci)))(VP (VP (ADJP (JJ (popular))))))))) |ET| 
1  |BT| (ROOT (SBARQ (WHADVP (PP (NP (`` (``))(NNS (eye))('' ('')))))(SQ (NP (DT (a))(NN (coconut)))(VP (VB (have)))))) |ET| 
-1  |BT| (ROOT (SBARQ (WHADVP (PP (NP (DT (a))(NN (tree)))))(SQ (NP (NN (photosynthesis)))(VP (VB (occur)))))) |ET| 
-1  |BT| (ROOT (SBARQ (WHADVP (WRB (how)))(SQ (NP (PRP (you)))(VP (NP (DT (a))(JJ (total))(NN (stranger)))(PP (PP (NP (DT (a))(NN (date))))))))) |ET| 
-1  |BT| (ROOT (SBARQ (WHADVP (PP (NP (DT (the))(NNP (united))(NNPS (states)))))(SQ (NP (NNS (people)))(VP (NP (DT (the))(JJS (longest))))))) |ET| 
1  |BT| (ROOT (SBARQ (WHNP (WP (what)))(SQ (NP (NP (DT (the))(NN (target))(NN (rate)))(PP (NP (NP (NNP (m3))(NN (growth)))(PP (NP (CD (1992)))))))))) |ET| 
1  |BT| (ROOT (SBARQ (WHNP (WP (what)))(SQ (NP (NP (DT (the))(CD (three))(NN (winter))(NNS (month)))(PP (NP (DT (the))(JJ (southern))(NN (hemisphere)))))))) |ET| 
1  |BT| (ROOT (SBARQ (WHNP (WP (what)))(SQ (NP (NP (DT (the))(NN (number)))(PP (NP (NP (NP (NNS (assassination)))(NP (S (VP (VP (PP (NP (DT (the))(NNP (u.s.)))))))))(PP (NP (CD (1865)))))))))) |ET| 
-1  |BT| (ROOT (SBARQ (WHNP (WP (what)))(SQ (NP (NP (DT (the))(JJ (second-most-used))(NN (murder))(NN (weapon)))(PP (NP (DT (the))(NNP (u.s.)))))))) |ET| 
-0.090693228822889535023499263388658  |BT| (ROOT (SBARQ (WHNP (WP (what)))(SQ (NP (NP (DT (the))(CD (10))(JJS (largest))(NNS (city)))(PP (NP (DT (the))(NNP (us)))))))) |ET| 
-0.62029653161124442828366909452598  |BT| (ROOT (SBARQ (WHNP (WP (what)))(SQ (NP (NP (DT (the))(JJ (first))(JJ (u.s.-based))(NN (team)))(PP (NP (DT (the))(NNP (nhl)))))))) |ET| 
-0.030770152898068097585548841266245  |BT| (ROOT (SBARQ (WHNP (WDT (which))(NN (sex)))(SQ (VP (NP (NN (voting))(NNS (rights)))(PP (NP (NNP (kuwait)))))))) |ET| 
0.63139428627256177772864020880661  |BT| (ROOT (SBARQ (WHADVP (WRB (when)))(SQ (NP (NNP (jean))(NNP (aeul)))(VP (NP (PRP$ (she))(JJ (next))(NN (book))))))) |ET| 
1  |BT| (ROOT (SBARQ (WHADVP (NP (NP (JJ (much)))(PP (NP (NP (DT (the))(NN (earth))(POS ('s)))))))(SQ (ADJP (RB (permanently))(JJ (frozen)))))) |ET| 
-0.16961697483710416745061877463741  |BT| (ROOT (SBARQ (SBAR (WHADVP (WRB (when)))(S (NP (NNP (superman)))(VP (S (VP (VP (PRT (RP (away)))(PP (NP (PRP (it))(DT (all))))))))))(WHADVP (WRB (where)))(SQ (NP (PRP (he)))(VP (VB (go)))))) |ET| 
-0.69108026296035318658539381431183  |BT| (ROOT (SBARQ (WHNP (NP (NP (CD (two))(NNS (country)))(PP (NP (NNP (south))(NNP (america))))))(SQ (ADJP (JJ (landlocked)))))) |ET| 
-0.58283447013218181442795184921124  |BT| (ROOT (SBARQ (WHNP (WDT (what))(NNP (georgia))(NN (town)))(SQ (NP (NP (NNP (scarlett))(NNP (o))(POS ('))))(VP (PP (S (VP (NP (NP (JJ (full)))(PP (NP (JJ (pushy))(NNS (people)))))))))))) |ET| 
1  |BT| (ROOT (SBARQ (WHNP (WP (what)))(SQ (NP (NP (DT (the))(JJ (current))(NN (unemployment))(NN (rate)))(PP (NP (DT (the))(NNP (u.s.)))))))) |ET| 
1  |BT| (ROOT (SBARQ (WHNP (WP (what)))(SQ (NP (NP (DT (the))(NNS (odds)))(PP (S (VP (NP (NN (birth)))(PP (NP (NNS (twin))))))))))) |ET| 
-0.71262097565622595229939406635822  |BT| (ROOT (SBARQ (WHNP (WP (what)))(SQ (NP (NP (DT (the))(NN (world))(POS ('s))))))) |ET| 
-0.64546246107592597507363052500295  |BT| (ROOT (SBARQ (WHNP (WP (what)))(SQ (NP (NP (DT (the))(NN (history)))(PP (NP (`` (``))(DT (the))(NN (toast))('' ('')))))))) |ET| 
-0.50643293885425033629132940404816  |BT| (ROOT (SBARQ (WHNP (WP (what)))(SQ (NP (NP (DT (the))(NN (monster)))(PP (NP (NP (NNP (spielberg))(POS ('s))))))))) |ET| 
-0.67201336788471510708120604249416  |BT| (ROOT (SBARQ (WHNP (WP (what)))(SQ (NP (NP (NNP (thatcher))(POS ('s))))))) |ET| 
1  |BT| (ROOT (SBARQ (WHNP (NP (PP (NP (NN (money))))))(SQ (NP (DT (the))(JJ (philippine))(JJ (ex-dictator))(NNP (marcos)))(VP (PP (NP (DT (the))(NN (treasury)))))))) |ET| 
1  |BT| (ROOT (SBARQ (WHPP (WHNP (WDT (what))(NN (year))))(SQ (NP (NNP (de))(NNP (gaulle)))(VP (NP (NP (NN (president)))(PP (NP (NNP (france))))))))) |ET| 
1  |BT| (ROOT (SBARQ (WHNP (WP (what)))(SQ (NP (PRP (you)))(VP (VP (PP (S (VP (NP (DT (a))(NN (dog)))(PP (NP (DT (a))(NN (beach)))))))))))) |ET| 
-0.74403748291757287880443527683383  |BT| (ROOT (SBARQ (WHPP (WHNP (WDT (what))(NN (disease))))(SQ (NP (DT (the))(NN (drug))(NNP (sinemet)))(VP (PP (NP (DT (a))(NN (treatment)))))))) |ET| 
-0.92696177518821354368583342875354  |BT| (ROOT (SBARQ (WHNP (WP (what)))(SQ (NP (PRP (i)))(VP (S (VP (VP (S (VP (VP (NP (PRP$ (my))(NN (dog)))(PP (NP (PRP (i))))(S (VP (VP (PP (NP (NP (NNP (dominica)))(NP (NNP (west))(NNP (indies)))))(PP (NP (DT (a))(NN (year))))))))))))))))) |ET| 
-0.42330893981966188910348591889488  |BT| (ROOT (SBARQ (WHNP (WDT (what))(NN (anesthetic)))(SQ (NP (NNP (queen))(NNP (victoria)))(VP (S (VP (VP (VP (PP (NP (NP (DT (the))(NN (birth)))(PP (NP (PRP$ (she))(JJ (seventh))(NN (child))))))(PP (NP (CD (1853)))))))))))) |ET| 
1  |BT| (ROOT (SBARQ (WHNP (WP (what)))(SQ (NP (NP (DT (the))(NNS (number)))(SBAR (WHNP (WDT (that)))(S (VP (PP (NP (NP (NNP (fermont))(POS ('s)))))))))))) |ET| 
1  |BT| (ROOT (SBARQ (WHNP (WP (what)))(SQ (NP (NP (DT (the))(NN (date)))(PP (NP (NP (NNP (cnn))(POS ('s))))))))) |ET| 
1  |BT| (ROOT (SBARQ (WHNP (WP (what)))(SQ (NP (NP (DT (the))(NN (price)))(PP (NP (NP (NNP (varian))(NNPS (associates))(POS ('))))))))) |ET| 
-0.19772471637256391896464435831149  |BT| (ROOT (SBARQ (WHNP (WP (what)))(SQ (NP (NN (time)))))) |ET| 
0.40469498404183745776663272408769  |BT| (ROOT (SBARQ (WHADVP (WRB (how))(RB (long)))(SQ (NP (PRP (it)))(VP (NP (NN (light)))(S (VP (VP (NP (DT (the))(NNP (earth)))(PP (NP (DT (the))(NNP (sun))))))))))) |ET| 
-0.41497051197440248948566932085669  |BT| (ROOT (SBARQ (WHNP (WP (what)))(SQ (NP (NP (DT (the))(NN (plural)))(PP (NP (NN (gulf)))))))) |ET| 
1  |BT| (ROOT (SBARQ (SBAR (S (PP (NP (CD (1990))))))(WHNP (NP (PP (NP (DT (the))(NN (week))))))(SQ (NP (NNP (christmas)))(VP (PRT (RP (on))))))) |ET| 
1  |BT| (ROOT (SBARQ (SBARQ (WHADVP (WRB (how))(RB (far)))(SQ (NP (NP (DT (the))(JJS (longest))(NN (hole)))(PP (NP (CD (1)))))(PP (NP (DT (any))(NN (golf))(NN (course))))))(SBARQ (WHADVP (WRB (where)))(SQ (NP (PRP (it)))(VP (VB (happen))))))) |ET| 
1  |BT| (ROOT (SBARQ (WHNP (WP (what)))(SQ (NP (NP (DT (the))(JJ (current))(NN (population)))(PP (NP (DT (these))(NNS (country))))))(NP (NP (NNP (france)))(NP (NNP (spain)))(NP (NNP (italy)))(NP (NNP (greece)))(NP (NNP (austria)))(NP (NNP (germany)))(NP (NNP (switzerland)))(NP (DT (the))(NNPS (netherlands)))))) |ET| 
-0.22414058610385467762426969784428  |BT| (ROOT (SBARQ (WHNP (WP (what)))(SQ (NP (NP (DT (a))(NN (cake)))(PP (NP (NN (soap)))))))) |ET| 
-1  |BT| (ROOT (SBARQ (WHADVP (WRB (where)))(SQ (NP (DT (a))(NN (individual)))(VP (NP (NP (DT (a))(NN (contact))(NN (lens)))(VP (VBN (test)))(SBAR (WHNP (WDT (that)))(S (VP (NP (NP (DT (the))(JJ (entire))(NN (surface)))(PP (NP (NN (eye)))))))))))(FRAG (WHADJP (WRB (when))(JJ (new)))))) |ET| 
-0.4389532808825112875084073493781  |BT| (ROOT (SBARQ (SBAR (S (PP (NP (DT (the))(JJ (past))(CD (8))(NNS (year))))))(WHNP (WP (who)))(SQ (NP (NP (DT (the))(NNP (mvp))(NNS (player)))(PP (NP (DT (the))(NNP (nhl)))))(VP (VBN (be)))))) |ET| 
1  |BT| (ROOT (SBARQ (WHNP (WP (what)))(SQ (NP (NP (DT (a))(JJ (perfect))(NN (score)))(PP (NP (DT (a))(NNS (gymnastics))(NN (exercise)))))))) |ET| 
1  |BT| (ROOT (SBARQ (WHNP (WP (what)))(SQ (NP (NP (NP (NNP (dick))(NNP (clark))(POS ('s))))(PP (NP (NN (birth)))))))) |ET| 
1  |BT| (ROOT (SBARQ (WHNP (WP (what)))(SQ (NP (NP (DT (the))(NNS (odds)))(PP (S (VP (NP (NN (birth)))(PP (NP (NNS (twin))))))))))) |ET| 
-0.19387343171622528625874792851391  |BT| (ROOT (SBARQ (WHNP (WP (what)))(SQ (NP (NP (NP (NNP (queen))(NNP (victoria))(POS ('s))))(PP (NP (NNP (india)))))))) |ET| 
-0.62322256269926279426130122374161  |BT| (ROOT (SBARQ (WHNP (WP (what)))(SQ (NP (NP (DT (the))(JJ (infamous))(NN (feat)))(PP (NP (NP (NNP (germany))(POS ('s))))))))) |ET| 
-0.75692436787536720999014505650848  |BT| (ROOT (SBARQ (WHNP (WP (what)))(SQ (NP (NP (DT (the))(NNS (name)))(PP (NP (NP (NNP (richard))(NNP (nixon))(POS ('s))))))))) |ET| 
1  |BT| (ROOT (SBARQ (WHNP (WP (what)))(SQ (NP (DT (the))(NN (temperature)))(VP (VP (PP (IN (at)))(SBAR (S (VP (NP (JJ (peachy))(NN (oat))(NNS (muffin))))))))))) |ET| 
1  |BT| (ROOT (SBARQ (WHNP (WP (what)))(SQ (NP (DT (the))(NN (increase)))(VP (PP (NP (DT (the))(NNP (california))(NN (gas))(NN (tax))))(PP (NP (CD (2000)))))))) |ET| 
1  |BT| (ROOT (SBARQ (WHNP (NP (PP (NP (DT (the))(NNP (bible))))))(SQ (NP (DT (the))(JJS (most))(NNS (verse)))))) |ET| 
1  |BT| (ROOT (SBARQ (WHNP (WP (what)))(SQ (NP (NP (DT (a))(JJ (perfect))(NN (score)))(PP (NP (DT (a))(NNS (gymnastics))(NN (exercise)))))))) |ET| 
-0.46368807755037705353728938462154  |BT| (ROOT (SBARQ (WHNP (NP (PP (NP (DT (the))(NNPS (micronauts))))))(SQ (VP (NP (CD (1))(NNS (year)))(S (VP (NP (DT (the))(NN (microverse)))(PP (NP (DT (the))(NNP (marvel))(NNS (comic)))))))))) |ET| 
-1  |BT| (ROOT (SBARQ (WHNP (WP (what)))(SQ (NP (DT (the))(NN (oven)))(VP (VP (PP (PP (S (VP (NP (JJ (peachy))(NN (oat))(NNS (muffin)))))))))))) |ET| 
-0.98288932237633752642125273268903  |BT| (ROOT (SBARQ (WHNP (NP (PP (NP (DT (the))(NN (atmosphere))))))(SQ (NP (NP (JJS (most)))(PP (NP (DT (the))(NN (ozone))(NN (layer)))))))) |ET| 
1  |BT| (ROOT (SBARQ (WHNP (WDT (what))(NN (date)))(SQ (NP (NP (NNP (richard))(NNP (nixon))(POS ('s))))))) |ET| 
1  |BT| (ROOT (SBARQ (WHNP (WDT (what))(NN (season)))(SQ (NP (NP (DT (the))(NN (setting)))(PP (NP (NP (NNP (shakespeare))(POS ('s)))(NP (NNP (night))(POS ('s))))))))) |ET| 
1  |BT| (ROOT (SBARQ (WHNP (WDT (what))(NN (brand))(NN (number)))(SQ (NP (NP (DT (the))(JJ (black))(NN (label)))(PP (NP (NP (DT (a))(NN (bottle)))(PP (NP (NNP (jack))(NNP (daniel))(POS ('s)))))))))) |ET| 
-0.27507689216474523474786906263034  |BT| (ROOT (SBARQ (WHNP (WDT (what))(NN (term)))(SQ (NP (NP (DT (a))(JJ (sexual))(NN (attraction)))(PP (NP (NP (DT (a))(NN (male)))(NP (DT (a))(NN (female))))))))) |ET| 
-0.36199016765398450701241017668508  |BT| (ROOT (SBARQ (WHNP (WDT (what))(NN (comedian)))(SQ (NP (NP (DT (a))(JJ (legendary))(NN (reputation)))(PP (S (VP (NP (NNS (joke)))))))))) |ET| 
-1  |BT| (ROOT (SBARQ (WHNP (WDT (what))(NN (woman)))(SQ (NP (NP (NP (NNP (time))(POS ('s))))(PP (NP (NP (DT (the))(NN (year)))(PP (NP (CD (1952)))))))))) |ET| 
1  |BT| (ROOT (SBARQ (WHNP (WP (what)))(SQ (NP (NP (DT (each)))(PP (NP (DT (the))(NNS (utility)))))(VP (PP (NP (NNP (monopoly)))))))) |ET| 
1  |BT| (ROOT (SBARQ (WHNP (WP (what)))(SQ (NP (NP (DT (the))(NN (probability)))(SBAR (S (NP (NP (QP (XS (IN (at))(JJS (least)))))(PP (PP (NP (CD (25))(NNS (people))))))(VP (VP (NP (DT (the))(JJ (same))(NN (birthday))))))))))) |ET| 
-0.53225711052703494896576330575044  |BT| (ROOT (SBARQ (WHNP (WP (what)))(SQ (NP (NP (DT (the))(CD (three))(NNS (prophecy)))(SBAR (S (NP (DT (the))(NNS (witch)))(VP (PP (NP (NNP (macbeth))))))))))) |ET| 
-0.014081675573601909121079778230978  |BT| (ROOT (SBARQ (WHNP (WDT (which)))(SQ (NP (DT (the))(JJ (most-used))(NN (computer))(NN (program)))))) |ET| 
0.017031355056905263245514703385197  |BT| (ROOT (SBARQ (WHADJP (WRB (how))(JJ (much)))(SQ (NP (NNP (manchester))(NNP (united)))(VP (PP (NP (NNS (player))))(PP (NP (CD (1993)))))))) |ET| 
1  |BT| (ROOT (SBARQ (WHNP (WP (what)))(SQ (NP (NP (DT (the))(NN (life))(NN (expectancy)))(PP (NP (DT (a))(NN (elephant)))))))) |ET| 
1  |BT| (ROOT (SBARQ (WHNP (WP (what)))(SQ (NP (NP (DT (the))(JJ (recomended))(NN (age)))(S (VP (VP (NP (DT (a))(NN (child)))(PP (NP (DT (a))(NN (crib))))(PP (NP (DT (a))(NN (bed))))))))))) |ET| 
1  |BT| (ROOT (SBARQ (WHNP (NP (PP (NP (DT (the))(NN (week))))))(SQ (VP (NP (DT (the))(RBS (most))(JJ (fatal))(NN (car))(NNS (accident))))))) |ET| 
-0.46625911127933283850666157377418  |BT| (ROOT (S (NP (WDT (which)))(VP (NP (DT (the))(JJR (longer))(NN (sperm)))(NP (NP (DT (a))(NN (elephant)))(NP (DT (a))(NN (mouse))))))) |ET| 
-0.94500939545216089410217819022364  |BT| (ROOT (SBARQ (WHADVP (WRB (how)))(SQ (NP (NP (DT (the))(NN (speed)))(SBAR (S (NP (DT (the))(NN (magnet)))(VP (PP (NP (DT (a))(NN (generator))))))))(VP (NP (NP (DT (the))(NN (output)))(PP (NP (DT (the))(NN (generator))))))))) |ET| 
-0.32106318116788529204441715592111  |BT| (ROOT (S (NP (NP (WP (what))(NN (element)))(PP (NP (DT (the))(NNP (periodic))(NNP (table)))))(VP (NP (NP (NP (DT (a))(NN (gas)))(NP (DT (a))(JJ (solid))))(CONJP (CC (but))(RB (never)))(NP (DT (a))(NN (liquid))))))) |ET| 
1  |BT| (ROOT (SBARQ (WHNP (WP (what)))(SQ (NP (DT (a))(JJ (average))(NN (daycare))(NN (provider)))(VP (VP (PP (NP (NNP (new))(NNP (england))))))))) |ET| 
1  |BT| (ROOT (SBARQ (WHNP (WP (what)))(SQ (NP (NP (NNP (great))(NNP (britain))))(PP (NP (CD (1699-172))))))) |ET| 
1  |BT| (ROOT (SBARQ (WHNP (WP (what)))(SQ (NP (NP (DT (the))(NN (probability)))(SBAR (S (NP (NP (QP (XS (IN (at))(JJS (least)))))(PP (PP (NP (CD (25))(NNS (people))))))(VP (VP (NP (DT (the))(JJ (same))(NN (birthday))))))))))) |ET| 
-0.13628307827416255570973646626953  |BT| (ROOT (SBARQ (WHNP (WP (what)))(SQ (NP (DT (a))(FW (auberge)))(PP (NP (NNP (france))))))) |ET| 
-0.41499292696541517644348573412572  |BT| (ROOT (SBARQ (WHNP (WP (what)))(SQ (NP (NNS (concert)))(VP (VP (PP (NP (NNP (new))(NNP (york))))(NP (DT (this))(NN (week)))))))) |ET| 
-0.80306478544104853423135637058294  |BT| (ROOT (SBARQ (WHNP (WP (what)))(SQ (NP (NP (DT (the))(JJ (arabic))(NNS (numeral)))(PP (PP (NP (CD (1))))(PP (NP (CD (10))))))))) |ET| 
1  |BT| (ROOT (SBARQ (WHNP (WP (what)))(SQ (NP (NP (DT (the))(NN (time)))(SBAR (S (NP (PRP (it)))(VP (NP (DT (a))(NN (typist)))(PP (NP (NP (NP (NN (type)))(NP (DT (a))(NN (screenplay))))(SBAR (WHNP (WDT (that)))(S (VP (ADVP (NP (CD (100))(NNS (page)))))))))))))))) |ET| 
1  |BT| (ROOT (SBARQ (WHPP (WHNP (WDT (what))(NN (year))))(SQ (NP (NP (NNP (china)))(NP (NP (DT (the))(NN (republic)))(PP (NP (NNP (korea))))))(VP (NP (JJ (diplomatic))(NNS (relation))))))) |ET| 
1  |BT| (ROOT (SBARQ (WHADVP (WRB (where)))(SQ (NP (DT (the))(NNP (u.s.)))(VP (PP (NP (NP (NN (world))(NNS (country)))(PP (NP (NN (area)))))))))) |ET| 
1  |BT| (ROOT (SBARQ (WHNP (WP (what)))(SQ (NP (DT (a))(JJ (average))(NN (daycare))(NN (provider)))(VP (VP (PP (NP (NNP (new))(NNP (england))))))))) |ET| 
-0.64494586807128795324928205445758  |BT| (ROOT (SBARQ (WHPP (WHNP (WDT (what))(NN (movie))))(SQ (NP (NP (DT (the))(NN (number))(CD (nine)))(VP (PP (NP (DT (the))(NN (title))))))))) |ET| 
-0.46133740943904194553581987747748  |BT| (ROOT (SBARQ (WHNP (WDT (what))(NNP (don))(NNP (mclean))(NN (song)))(SQ (NP (NP (DT (the))(NN (day)))(SBAR (S (NP (NNP (buddy))(NNP (holly)))(VP (VBD (die))))))))) |ET| 
-1  |BT| (ROOT (SBARQ (WHADVP (PP (NP (DT (the))(NNP (bible)))))(SQ (NP (PRP (it)))(VP (PP (NP (NP (NNP (jesus))(NNP (christ))(POS ('s))))))))) |ET| 
1  |BT| (ROOT (SBARQ (WHNP (WP (what)))(SQ (NP (NP (DT (the))(NN (latitude))(CC (and))(NN (longitude)))(PP (NP (NP (NNP (el))(NNP (paso)))(NP (NNP (texas))))))))) |ET| 
-1  |BT| (ROOT (SBARQ (WHNP (WP (what)))(SQ (NP (NP (DT (a))(JJ (easy))(NN (way)))(S (VP (VP (NP (NP (DT (the))(JJ (approximate))(NN (number)))(PP (NP (NN (fish)))))(PP (NP (DT (a))(NN (lake))))))))))) |ET| 
-0.82224414283296032301961986377137  |BT| (ROOT (SBARQ (WHNP (WP (what)))(SQ (NP (NP (DT (the))(NNS (snake)))(PP (NP (NNP (new))(NNP (england)))))))) |ET| 
-0.49076485991467178049418862428865  |BT| (ROOT (SBARQ (WHNP (WP (what)))(SQ (NP (NP (DT (a))(NN (example)))(PP (NP (NP (DT (a))(JJ (famous))(NN (rock))(NN (band)))(PP (NP (DT (the))(NNS (sixty)))))))))) |ET| 
1  |BT| (ROOT (SBARQ (SBARQ (WHADVP (WRB (how))(JJ (many)))(S (NP (CD (four))(NN (star))(NNS (general)))(VP (S (NP (EX (there)))))))(SBARQ (WHNP (WP (who)))(SQ (NP (PRP (they))))))) |ET| 
1  |BT| (ROOT (SBARQ (WHNP (WHNP (WRB (how))(RB (far)))(PP (IN (out))))(SQ (NP (DT (the))(NN (universe)))))) |ET| 
1  |BT| (ROOT (SBARQ (WHADVP (WRB (how)))(S (NP (NP (JJ (many))(NNS (type)))(PP (NP (NP (NNS (dog))(POS ('))))))(VP (NP (EX (there)))(NP (CD (three))))))) |ET| 
1  |BT| (ROOT (SBARQ (WHNP (WP (what)))(SQ (NP (NP (DT (the))(NN (latitude))(CC (and))(NN (longitude)))(PP (NP (NP (NNP (el))(NNP (paso)))(NP (NNP (texas))))))))) |ET| 
-0.70439561278687468082182476791786  |BT| (ROOT (SBARQ (WHADVP (WRB (why)))(SQ (NP (JJ (many))(NNS (umbrella)))(PP (JJ (black)))))) |ET| 
-0.32718274566982186168928592451266  |BT| (ROOT (SBARQ (WHADVP (WRB (how)))(SQ (NP (NNP (socrates)))(VP (VB (die)))))) |ET| 
-0.27307679466366713283420608604501  |BT| (ROOT (SBARQ (WHADVP (WRB (how)))(SQ (NP (NN (light))(NNS (bulb)))(VP (PRT (RP (out))))))) |ET| 
1  |BT| (ROOT (SBARQ (WHNP (WP (what)))(SQ (NP (NP (DT (the))(JJ (american))(NN (dollar))(NN (equivalent)))(PP (NP (NP (CD (8))(NNS (pound)))(PP (NP (DT (the))(NNP (u.k.)))))))))) |ET| 
1  |BT| (ROOT (SBARQ (WHNP (WP (what)))(SQ (NP (NP (DT (the))(NN (cost)))(PP (NP (DT (the))(NNS (drug)))))(VP (PP (NP (NNP (tuberculosis))(NNS (treatment)))))))) |ET| 
-1  |BT| (ROOT (SBARQ (WHNP (WP (what)))(SQ (NP (NP (CD (one)))(PP (NP (NP (DT (the))(NNS (city)))(SBAR (S (NP (NP (DT (the))(NNP (university)))(PP (NP (NNP (minnesota)))))(VP (VP (PP (IN (in))))))))))))) |ET| 
-1  |BT| (ROOT (SBARQ (WHNP (WP (what)))(SQ (NP (NP (DT (the))(NN (folklore))(NN (story)))(PP (NP (NP (NP (NNS (bird))(POS ('))))(PP (NP (NNP (christmas))(NNS (tree)))))))))) |ET| 
-1  |BT| (ROOT (SBARQ (WHNP (WP (what)))(SQ (NP (NP (DT (the))(NN (acronym)))(PP (NP (NP (DT (the))(NN (rating))(NN (system)))(PP (NP (NN (air))(NN (conditioner))(NN (efficiency)))))))))) |ET| 
0.19785911602267458597737004311057  |BT| (ROOT (SBARQ (WHADVP (WRB (when)))(SQ (NP (NP (DT (the))(NN (battle)))(PP (NP (NNP (hastings)))))))) |ET| 
-0.2589160302630472143547990526713  |BT| (ROOT (S (VP (NP (DT (the))(JJ (fast))(NN (food))(NN (chain)))(PP (NP (DT (the))(JJ (golden))(NN (arch))))))) |ET| 
0.64251736005649306981979407282779  |BT| (ROOT (SBARQ (WHADVP (WRB (when)))(SQ (NP (DT (the))(NN (site))(NNP (www.questions.com)))(VP (S (VP (VP (VB (open))))))))) |ET| 
1  |BT| (ROOT (SBARQ (WHNP (WP (what)))(SQ (NP (NP (DT (the))(JJ (american))(NN (dollar))(NN (equivalent)))(PP (NP (NP (CD (8))(NNS (pound)))(PP (NP (DT (the))(NNP (u.k.)))))))))) |ET| 
-0.30346195419766880396750252657512  |BT| (ROOT (SBARQ (WHADVP (WRB (how)))(SQ (NP (DT (the))(JJ (7th))(NN (inning))(NN (stretch)))(VP (VP (VBN (start))))))) |ET| 
-1  |BT| (ROOT (SBARQ (WHNP (ADJP (JJ (north))(JJ (american))))(SQ (NP (DT (the))(JJS (biggest))(JJ (polish))(NN (population)))))) |ET| 
-0.2120086217954329776969046861268  |BT| (ROOT (SBARQ (WHNP (ADJP (ADJP (NN (radio)))(ADJP (NN (tv)))(ADJP (NN (movie)))))(SQ (NP (NP (NNP (jackie))(NNP (gleason)))(NP (NNP (william))(NNP (bendix))))(VP (VB (play)))))) |ET| 
1  |BT| (ROOT (SBARQ (WHNP (WP (what)))(SQ (NP (NP (DT (the))(JJ (approximate))(NN (weight)))(PP (NP (NP (DT (a))(NN (teaspoon)))(PP (NP (NP (NN (matter)))(PP (NP (DT (a))(JJ (black))(NN (hole)))))))))))) |ET| 
1  |BT| (ROOT (SBARQ (WHNP (WP (what)))(SQ (NP (NP (DT (the))(NN (size)))(PP (NP (NP (DT (the))(NN (student))(NN (body)))(PP (NP (NP (DT (the))(NNP (university)))(PP (NP (NNP (massachusetts))))(PP (NP (NNP (amherst)))))))))))) |ET| 
1  |BT| (ROOT (SBARQ (WHNP (WP (what)))(SQ (NP (NP (DT (the))(JJS (most))(NN (number)))(PP (NP (NP (NNS (goal)))(VP (PP (NP (NP (DT (a))(JJ (single))(NN (team)))(PP (NP (DT (a))(NNP (nhl))(NN (hockey))(NN (game))))))))))))) |ET| 
-0.031453256642342330984263298887527  |BT| (ROOT (SBARQ (WHNP (WP (what)))(SQ (NP (NNP (black))(NNPS (hills))(, (,))(NNP (south))(NNP (dakota)))(ADJP (PP (IN (for))))))) |ET| 
-0.58084444359660813983481375544216  |BT| (ROOT (SBARQ (WHNP (WP (what)))(SQ (NP (NP (DT (the))(NN (use)))(PP (NP (NP (DT (a))(JJ (24-hour))(NN (clock)))(PP (NP (DT (a))(JJ (12-hour))(NN (clock)))))))))) |ET| 
-0.76493051258038635698000007323571  |BT| (ROOT (SBARQ (WHNP (WP (what)))(SQ (NP (NP (DT (the))(NN (staff)))(PP (NP (NN (life)))))(VP (PP (NP (NP (DT (the))(NNP (lord))(POS ('s))))))))) |ET| 
0.38826580485290157485067652487487  |BT| (ROOT (SBARQ (WHNP (WDT (what))(NN (year)))(SQ (NP (NNP (spielberg)))(VP (NP (`` (``))(NNP (jaws))('' (''))))))) |ET| 
0.65810845876123114095435084891506  |BT| (ROOT (SBARQ (WHNP (WDT (what))(NN (year)))(SQ (NP (NP (NNP (janet))(NNP (jackson))(POS ('s))))(VP (VBN (release)))))) |ET| 
0.44305202557268319463190664464491  |BT| (ROOT (SBARQ (WHADJP (WRB (how))(JJ (much)))(SQ (NP (ADJP (QP (CD (1967))(CD (twenty))))))(FRAG (ADJP (JJ (worth)))))) |ET| 
-0.31956346112089545341561347413517  |BT| (ROOT (SBARQ (WHPP (WHNP (WDT (which))(NN (sport))))(SQ (NP (EX (there)))(NP (DT (a))(`` (``))(NN (scrum))('' ('')))))) |ET| 
-0.11509808805286179944626923088435  |BT| (ROOT (SBARQ (WHPP (WHNP (WDT (what))(NN (state))))(SQ (NP (EX (there)))(NP (ADJP (QP (CD (11))(CD (million)))))))) |ET| 
-0.5828236734859557621746262157103  |BT| (ROOT (SBARQ (WHNP (WDT (which))(NN (leg)))(SQ (NP (DT (a))(NN (cat)))(VP (PP (NP (PRP$ (its))(JJ (left))(JJ (front))(NN (leg))))(SBAR (WHADVP (WRB (when)))(S (VP (VBG (walk)))))))(NP (NP (ADJP (ADJP (JJ (left))(NN (rear)))(ADJP (RB (right))(JJ (rear)))))))) |ET| 
1  |BT| (ROOT (SBARQ (WHNP (WP (what)))(SQ (NP (NP (DT (the))(CD (1940))(JJ (annual))(NN (salary)))(PP (NP (DT (a))(NN (boilermaker)))))))) |ET| 
1  |BT| (ROOT (SBARQ (WHNP (WP (what)))(SQ (NP (NP (DT (the))(NN (population)))(PP (NP (DT (the))(JJS (largest))(JJ (chilean))(NN (city)))))))) |ET| 
1  |BT| (ROOT (SBARQ (WHNP (WP (what)))(SQ (NP (NP (DT (the))(NN (fahrenheit))(NN (equivalent)))(PP (NP (CD (zero))(NNS (degree))(NN (centigrade)))))))) |ET| 
-0.0026757706521381872596943019004812  |BT| (ROOT (FRAG (WHNP (WP (what)))(SBAR (S (NP (NN (web))(NNS (site)))(VP (VP (PP (NP (DT (the))(NNP (report))))(PP (NP (NNP (genesis))(NNP (eldercare)))))))))) |ET| 
-0.17192046383980552626269400207093  |BT| (ROOT (SBARQ (WHNP (WP (what)))(SQ (NP (NP (DT (the))(JJS (hardest))(NN (substance)))(PP (NP (DT (the))(JJ (human))(NN (body)))))))) |ET| 
-0.45351469756459600324305370122602  |BT| (ROOT (SBARQ (WHNP (WP (what)))(SQ (NP (NP (DT (the))(JJS (deepest))(NN (area)))(PP (NP (DT (the))(NNP (arctic))(NNP (ocean)))))))) |ET| 
1  |BT| (ROOT (SBARQ (WHPP (WHNP (WDT (which))(NN (date))))(SQ (NP (NP (DT (the))(NNPS (ukrainians))(POS ('))))))) |ET| 
1  |BT| (ROOT (SBARQ (WHPP (WHNP (WDT (which))(NN (year))))(SQ (NP (NNP (new))(NNP (zealand)))(VP (PP (NP (DT (the))(NNP (anzus))(NN (alliance)))))))) |ET| 
0.55227729966396321703570038152975  |BT| (ROOT (SBARQ (WHPP (WHNP (WDT (what))(NN (year))))(SQ (NP (NNP (joe))(NNP (dimaggio)))(VP (NP (PRP$ (he))(JJ (56-game))(VBG (hit))(NN (streak))))))) |ET| 
-0.94078497222751444883925842077588  |BT| (ROOT (SBARQ (WHPP (WHNP (WDT (which))(NN (flight))))(SQ (NP (NNP (fawaz))(NNP (younis)))(VP (NP (NP (NN (air))(NN (piracy)))(NP (NN (hostage))(NN (taking)))))))) |ET| 
-1  |BT| (ROOT (SBARQ (WHPP (WHNP (WDT (what))(NN (cause))))(SQ (NP (NNP (tuberculosis)))(VP (VB (stem)))))) |ET| 
-0.56093167915805541845486459351378  |BT| (ROOT (SBARQ (WHPP (WHNP (WDT (what))(NN (reason))))(SQ (NP (NP (NP (NNP (shea))(CC (&))(NNP (gould)))))(VP (NP (PRP$ (they))(NNP (l.a.))(NN (office))))))) |ET| 
1  |BT| (ROOT (SBARQ (WHNP (WP (what)))(SQ (NP (NP (DT (the))(JJ (normal))(JJ (resting))(NN (heart))(NN (rate)))(PP (NP (DT (a))(JJ (healthy))(NN (adult)))))))) |ET| 
1  |BT| (ROOT (SBARQ (WHNP (WP (what)))(SQ (NP (NP (DT (the))(JJ (mean))(NN (income)))(PP (NP (NP (DT (the))(JJ (top))(CD (10))(NN (%)))(ADJP (JJ (top))(CD (5))(NN (%)))(NP (ADVP (JJ (top)))))))))) |ET| 
1  |BT| (ROOT (SBARQ (WHNP (WP (what)))(SQ (NP (NP (DT (the))(NN (world))(NN (record)))(PP (NP (DT (the))(JJS (longest))(NN (hair)))))))) |ET| 
-0.54940426642747641761133081672597  |BT| (ROOT (SBARQ (WHNP (WP (what)))(SQ (NP (NP (DT (the))(JJ (predominant))(NN (color)))(PP (NP (DT (the))(NNP (tab))(NN (label)))))))) |ET| 
-1  |BT| (ROOT (SBARQ (WHNP (WP (who)))(SQ (NP (NP (DT (the))(NN (stock))(NN (ticker)))(PP (NP (CD (1870)))))))) |ET| 
-0.64247784288663889462611678027315  |BT| (ROOT (SBARQ (WHNP (WP (who)))(SQ (NP (NP (DT (the))(NN (title))(NN (role)))(PP (NP (DT (the))(JJ (romantic))(NNP (englishwoman)))))))) |ET| 
0.71893115782715433237370916685904  |BT| (ROOT (SBARQ (WHPP (WHNP (WDT (what))(NN (year))))(SQ (NP (NNP (ireland)))(VP (NP (PRP$ (its))(JJ (first))(NN (woman))(NN (president))))))) |ET| 
0.16733747516465338756042058321327  |BT| (ROOT (SBARQ (WHPP (WHNP (WDT (what))(NN (year))))(SQ (NP (NNP (thatcher)))(VP (NP (JJ (prime))(NN (minister))))))) |ET| 
1  |BT| (ROOT (SBARQ (WHADJP (WRB (how))(JJ (much)))(SQ (NP (PRP (it)))(VP (NP (NP (UCP (FRAG (NP (NN (average))))(SBAR (WHNP (WDT (whatever)))(S (VP (ADJP (JJ (available)))(S (VP (VP (VP (VB (produce)))(VP (NP (NN (junk))(NN (mail))))))))))))(PP (NP (DT (the))(NNP (us))))))))(PRN (SINV (VP (VBD (dt)))(NP (NNP (cd))(NNP (nn))(NNP (nn)))))) |ET| 
-0.61619946952141901874711038544774  |BT| (ROOT (SBARQ (WHNP (WP (what)))(SQ (NP (PRP (you)))(VP (NP (NP (DT (a))(NN (date)))(SBAR (WHNP (WDT (that)))(S (VP (NP (NP (JJ (sequencing))(NNS (number)))(PP (NP (CD (9-8-98))))))))))))) |ET| 
-0.16748820076714959759200951339153  |BT| (ROOT (SBARQ (WHNP (WP (what)))(SQ (NP (DT (a))(JJ (irate))(NN (car))(NN (owner)))(VP (NP (NN (iron))(NN (oxide))))))) |ET| 
-0.50141598827503164326202522715903  |BT| (ROOT (SBARQ (WHNP (WDT (what))(NNP (stephen))(NNP (sondheim))(NN (ballad)))(SQ (VP (FRAG (INTJ (`` (``))(UH (well)))(NP (JJ (next))(NN (year)))))))(INTJ (UH (.)))(S (VP (VB (.))('' (''))))(INTJ (UH (?)))) |ET| 
1  |BT| (ROOT (SBARQ (WHNP (WP (what)))(SQ (NP (NP (DT (the))(NNP (u.s.))(NN (highway))(NN (death))(NN (toll)))(PP (NP (CD (1969)))))))) |ET| 
1  |BT| (ROOT (SBARQ (WHNP (WP (what)))(SQ (NP (NP (DT (the))(NN (unemployment))(NNS (statistics)))(PP (NP (NP (DT (the))(NNS (year)))(ADVP (CD (1965))(CC (and))(CD (1990))))))))) |ET| 
-1  |BT| (ROOT (SBARQ (SBARQ (WHNP (WP (what)))(SQ (NP (NP (DT (the))(JJS (smallest))(NN (thing)))(VP (PP (NP (ADJP (RBS (most))(JJ (powerful)))))))))(SBARQ (WHADJP (WRB (how))(JJ (big)))(SQ (NP (PRP (it))))))) |ET| 
-0.87634898240447445250111968562123  |BT| (ROOT (SBARQ (WHNP (NP (PP (NP (NN (exercise))))))(SQ (NP (DT (the))(JJS (most))(NNS (calorie)))))) |ET| 
-0.523187572477893825251271664456  |BT| (ROOT (SBARQ (WHNP (NP (PP (NP (DT (a))(NNS (sport))(NN (team))))))(SQ (NP (DT (the))(NNP (wisconsin))(NNPS (badgers)))))) |ET| 
1  |BT| (ROOT (SBARQ (WHNP (WP (what)))(SQ (NP (NP (DT (the))(JJS (youngest))(NN (age)))(SBAR (S (NP (DT (a))(NN (boy))(CC (or))(NN (girl)))(VP (VP (NP (DT (a))(NN (orgasm))))))))))) |ET| 
1  |BT| (ROOT (SBARQ (WHNP (WP (what)))(SQ (NP (NP (DT (the))(JJ (maximum))(NN (number)))(PP (NP (NP (NNS (club)))(SBAR (S (NP (DT (a))(NN (golfer)))(VP (VP (PP (NP (DT (a))(NN (round)))))))))))))) |ET| 
1  |BT| (ROOT (SBARQ (WHNP (WP (what)))(SQ (NP (NP (DT (the))(NN (amount)))(PP (NP (NN (money)))))(VP (PP (S (ADVP (RB (illegally)))(VP (NP (DT (a))(NN (dog)))(PP (NP (DT (a))(NN (beach))))))))))) |ET| 
-0.59612505401901139112652572293882  |BT| (ROOT (SBARQ (SBAR (S (PP (NP (NP (NNP (waugh))(POS ('s)))(NX (NP (DT (a))(NN (handful)))(PP (NP (NN (dust)))))))))(WHNP (WP (what)))(SQ (NP (DT (the))(JJ (mad))(JJ (old))(NN (man)))(VP (S (NP (DT (the))(NN (hero)))(VP (VP (NP (DT (every))(NN (afternoon)))))))))) |ET| 
-0.39622371246809484635065246038721  |BT| (ROOT (SBARQ (WHNP (WP (what)))(SQ (NP (NP (DT (the))(NN (name)))(PP (NP (NP (DT (the))(JJ (medical))(NN (condition)))(SBAR (WHPP (WHNP (WDT (which))))(S (NP (DT (a))(NN (baby)))(VP (VP (PP (NP (DT (a))(NN (brain)))))))))))))) |ET| 
-1  |BT| (ROOT (SBARQ (WHNP (WP (what)))(SQ (NP (NNP (esquire)))(VP (NP (NP (NNP (ash))(NNP (hole)))(PP (NP (NP (DT (the))(NN (year)))(PP (NP (CD (1980))))))))))) |ET| 
1  |BT| (ROOT (SBARQ (WHNP (NP (PP (NP (DT (the))(NNP (bible))))))(SQ (NP (DT (the))(JJS (most))(NNS (verse)))))) |ET| 
1  |BT| (ROOT (SBARQ (WHNP (NP (PP (NP (JJ (american))(NNS (soldier))))))(SQ (ADJP (PP (NP (DT (the))(NNP (vietnam))(NN (war)))))))) |ET| 
1  |BT| (ROOT (SBARQ (WHNP (NP (PP (NP (DT (the))(NN (week))))))(SQ (NP (NNP (july))(CD (13)))))) |ET| 
-0.51691529410670478128508875670377  |BT| (ROOT (SBARQ (WHNP (NP (PP (NP (NN (puzzle))))))(SQ (ADVP (RB (first)))(VP (PP (NP (DT (the))(NNP (u.s.))))(PP (NP (DT (the))(NNP (new))(NNP (york))(NNP (world))))(PP (NP (NNP (december))(CD (21))(, (,))(CD (1913)))))))) |ET| 
-0.21802710406310957247377757539653  |BT| (ROOT (SBARQ (WHNP (WHNP (WDT (what))(NN (state)))(PP (NP (DT (the))(NNP (u.s.)))))(SQ (NP (DT (the))(JJS (most))(NNS (black)))))) |ET| 
-0.38649086197917636997800627796096  |BT| (ROOT (SBARQ (WHNP (NP (PP (NP (NNP (britain))))))(SQ (NP (NP (DT (the))(NNP (highlands)))(NP (NNP (central))(NNP (lowlands)))(NP (NNP (southern))(NNP (uplands))))))) |ET| 
1  |BT| (ROOT (SBARQ (WHNP (WP (what)))(SQ (NP (NP (DT (the))(JJ (recommended))(NN (weight)))(PP (NP (NP (DT (a))(CD (15))(JJ (year-old))(NN (male)))(SBAR (WHNP (WDT (that)))(S (VP (NP (NP (CD (5)))(NP (CD (6))))))))))))) |ET| 
1  |BT| (ROOT (SBARQ (WHNP (WDT (what))(CD (seven))(NNS (digit)))(SQ (NP (NP (DT (the))(NN (area))(NN (code)))(PP (NP (NP (DT (the))(NN (number)))(PP (NP (JJ (long))(NN (distance)))))))(NP (NN (information)))))) |ET| 
-0.69559244229675831761028348410036  |BT| (ROOT (SBARQ (WHNP (WP (what)))(SQ (NP (NP (DT (the))(JJ (first))(CD (three))(NNS (city)))(S (VP (VP (NP (NP (DT (a))(NN (population)))(PP (NP (QP (XS (JJR (more))(IN (than)))))))))))))) |ET| 
-0.09540927829945450300286324818444  |BT| (ROOT (SBARQ (WHNP (WP (what)))(SQ (NP (NP (QP (RB (only))(CD (two))))(SBAR (WHNP (WDT (that)))(S (VP (NP (DT (the))(JJ (confederate))(NN (battle))(NN (flag)))(PP (NP (PRP$ (they))(NNS (flag))))))))))) |ET| 
1  |BT| (ROOT (SBARQ (WHNP (WDT (what))(NN (century)))(SQ (NP (NP (DT (the))(NN (setting)))(PP (NP (NP (NP (NNP (tv))(POS ('s)))(NX (DT (the))(NN (adventure))))(PP (NP (NNP (robin))(NNP (hood)))))))))) |ET| 
1  |BT| (ROOT (SBARQ (WHNP (WP (what)))(SQ (NP (NP (DT (the))(JJ (current))(NN (ticket))(NN (fare)))(PP (PP (PP (NP (NNP (cairo)))))(PP (NP (NNP (barbados))))))))) |ET| 
-0.49242565720341441304341856266547  |BT| (ROOT (SBARQ (WHNP (NP (NP (JJ (famed))(NN (strip)))(PP (NP (NN (land))))))(SQ (NP (NP (DT (a))(JJ (15-minute))(NN (boat))(NN (trip)))(PP (NP (NP (DT (the))(NNP (venetian))(NN (lagoon)))(PP (NP (NNP (venice)))))))))) |ET| 
-0.61053554763761053170156856140238  |BT| (ROOT (SBARQ (WHNP (WP (what)))(SQ (NP (NP (DT (the))(NN (setting)))(PP (NP (NP (NNP (john))(NNP (le))(NNP (carre))(POS ('s)))(NP (NP (DT (a))(JJ (small))(NN (town)))(PP (NP (NNP (germany))))))))))) |ET| 
-0.64109841604814732374251207147609  |BT| (ROOT (SBARQ (WHNP (WP (what)))(SQ (NP (NP (DT (the))(NN (address)))(PP (NP (NP (DT (the))(JJ (main))(NN (government))(NN (office)))(PP (NP (NP (NNP (rome)))(NP (NNP (italy))))))))))) |ET| 
1  |BT| (ROOT (SBARQ (WHNP (WP (what)))(SQ (VP (NP (DT (the))(JJ (minimum))(NN (wage)))(PP (NP (CD (1991)))))))) |ET| 
1  |BT| (ROOT (SBARQ (WHNP (WP (what)))(SQ (VP (NP (DT (the))(JJ (first))(JJ (minimum))(NN (wage))))))) |ET| 
1  |BT| (ROOT (SBARQ (WHNP (WP (what)))(SQ (NP (NP (DT (the))(NN (temperature)))(PP (S (VP (NP (JJ (peachy))(NN (oat))(NNS (muffin)))))))))) |ET| 
1  |BT| (ROOT (SBARQ (WHNP (WP (what)))(SQ (NP (NP (DT (the))(JJ (current))(NN (ticket))(NN (fare)))(PP (PP (PP (NP (NNP (cairo)))))(PP (NP (NNP (barbados))))))))) |ET| 
-0.13772300265688966480759347632556  |BT| (ROOT (SBARQ (WHNP (WP (what)))(SQ (VP (NP (DT (the))(NN (benelux))(NNS (country))))))) |ET| 
-0.47312886865740627628795778036874  |BT| (ROOT (SBARQ (WHNP (WP (what)))(SQ (VP (NP (NP (DT (the))(JJS (costliest))(NN (disaster)))(SBAR (S (NP (DT (the))(NN (insurance))(NN (industry)))(VP (VP (VBN (face))))))))))) |ET| 
-0.59231217638523003810036016147933  |BT| (ROOT (SBARQ (WHNP (WP (what)))(SQ (VP (NP (NP (DT (the))(NN (number)))(NP (CD (5))))(VP (PRT (IN (for)))(PP (NP (JJ (fubu))(NN (clothing))))))))) |ET| 
1  |BT| (ROOT (SBARQ (WHNP (WHADJP (WRB (how))(JJ (many)))(NP (NP (NNS (vote)))(PP (NP (NNP (congress))))))(SQ (VP (PP (NP (NP (DT (the))(CD (1941))(NN (declaration)))(PP (NP (NP (NN (war)))(PP (NP (NNP (japan)))))))))))) |ET| 
1  |BT| (ROOT (SBARQ (WHADVP (NP (NP (JJ (many)))(PP (NP (PRP (they))))))(SQ (PP (NP (JJ (sub-saharan))(NNP (africa))))))) |ET| 
1  |BT| (ROOT (SBARQ (WHADVP (NP (NP (JJ (many)))(PP (NP (NP (DT (every))(CD (10))(NNS (member)))(PP (NP (DT (the))(NNP (rodeo))(NNPS (cowboys))(NNP (association))))))))(SQ (VP (ADVP (RB (never)))(NP (DT (a))(NN (ranch))))))) |ET| 
-1  |BT| (ROOT (SBARQ (WHNP (WDT (what))(JJ (famous))(NN (actress)))(SQ (VP (NP (NP (PRP$ (she))(JJ (first))(NN (appearance)))(PP (NP (NP (NN (stage)))(PP (NP (NP (DT (the))(NN (age)))(PP (NP (CD (five))))))))(PP (NP (DT (the))(NN (year))(CD (191)))))(PP (NP (NNP (baby)))))))) |ET| 
-0.45592923950327690629791277387994  |BT| (ROOT (SBARQ (WHNP (NP (PP (PP (NP (CD (18)))))))(SQ (NP (NP (CD (327))(NNS (mile)))(PP (NP (NN (book))(NNS (shelf)))))))) |ET| 
-0.2824632209149171568896008466254  |BT| (ROOT (SBARQ (WHNP (WDT (what))(NN (baseball))(NN (outcome)))(SQ (VP (NP (NP (NP (CD (nine))(NNS (ball)))(PP (NP (NNS (1879)))))(NP (NP (CD (eight))(NNS (ball)))(PP (NP (NNP (1880)))))(NP (NP (CD (seven))(NNS (ball)))(PP (NP (CD (1881)))))))))) |ET| 
1  |BT| (ROOT (SBARQ (WHNP (WP (what)))(SQ (NP (NP (DT (the))(JJ (average))(NN (time)))(SBAR (S (NP (PRP (it)))(VP (SBAR (S (NP (DT (a))(NN (male)))(VP (VP (VB (ejaculate))))))))))))) |ET| 
1  |BT| (ROOT (SBARQ (WHNP (WP (what)))(SQ (NP (NP (DT (the))(NN (shoe))(NNS (size)))(PP (NP (NP (NP (NNP (o))(POS ('))))(NP (NNP (jordan)))(NP (NP (NNP (mutombo)))(NP (DT (the))(NNP (nba))(NNS (player)))))))))) |ET| 
1  |BT| (ROOT (SBARQ (WHNP (WP (what)))(SQ (NP (NP (DT (the))(JJ (average))(NN (age)))(SBAR (S (NP (DT (a))(NN (horse)))(VP (VBZ (live))))))))) |ET| 
1  |BT| (ROOT (SBARQ (WHNP (WDT (what))(CD (seven))(NNS (digit)))(SQ (NP (NP (DT (the))(NN (area))(NN (code)))(PP (NP (NP (DT (the))(NN (number)))(PP (NP (JJ (long))(NN (distance)))))))(NP (NN (information)))))) |ET| 
-0.72328123293877255584050089964876  |BT| (ROOT (SBARQ (WHNP (WP (what)))(SQ (NP (NP (DT (the))(JJ (long))(NN (march)))(PP (NP (NNP (china)))))))) |ET| 
-0.32104544672341767119760902460257  |BT| (ROOT (SBARQ (WHNP (WP (what)))(SQ (NP (NP (DT (the))(JJ (zodiac))(NN (sign)))(PP (NP (NNP (august))(CD (14)))))))) |ET| 
-0.48467293939764316546003897201444  |BT| (ROOT (SBARQ (WHNP (WP (what)))(SQ (NP (NP (DT (the))(NN (proof)))(SBAR (S (NP (NNS (houseplant)))(VP (VBZ (metabolize))(VBD (carcinogen))))))))) |ET| 
1  |BT| (ROOT (SBARQ (WHNP (NP (PP (NP (NP (NNS (child)))(PP (NP (NP (NNS (age)))(PP (NP (NP (CD (two)))(NP (NNS (eleven)))))))))))(SQ (VP (NP (`` (`))(DT (the))(NNPS (simpsons))('' ('))))))) |ET| 
1  |BT| (ROOT (SBARQ (WHNP (NP (PP (NP (NP (NNS (child)))(PP (NP (NP (DT (the))(NNS (age)))(PP (NP (NP (CD (two)))(NP (NNS (eleven)))))))))))(SQ (VP (NP (`` (`))(DT (the))(NNPS (simpsons))('' ('))))))) |ET| 
0.91982114018930449805822036069003  |BT| (ROOT (SBARQ (WHNP (WHADJP (WRB (how))(JJ (many)))(NP (NP (NNS (quart)))(PP (NP (JJ (whole))(NN (milk))))))(SQ (VP (S (VP (VP (NP (NP (CD (one))(NN (pound)))(PP (NP (NN (butter)))))))))))) |ET| 
1  |BT| (ROOT (SBARQ (WHNP (WP (what)))(SQ (NP (NP (DT (the))(NNP (u.s.))(NN (highway))(NN (death))(NN (toll)))(PP (NP (CD (1969)))))))) |ET| 
-0.41662187583408866187184571572288  |BT| (ROOT (S (NP (NP (NNS (name)))(PP (NP (NP (NNS (book)))(PP (NP (NNP (james))(NNP (a.))(NNP (michener)))))))(VP (PP (NP (DT (the))(VBG (follow))(NNS (location))))))) |ET| 
-0.23949830034341595963454096818168  |BT| (ROOT (SBARQ (WHNP (WDT (what))(NN (car)))(SQ (VP (PP (NP (NP (DT (the))(CD (199))(NN (release)))(PP (NP (NP (NNP (smokey)))(NP (DT (the))(NN (bandit))('' (''))))))))))) |ET| 
-0.67120076659997796042489426326938  |BT| (ROOT (FRAG (WHNP (WP (what)))(SBAR (S (NP (NP (NNS (feature)))(PP (NP (DT (the))(JJ (african))(NN (elephant)))))(VP (ADJP (ADJP (JJR (larger)))(PP (NP (NP (DT (those)))(PP (NP (DT (the))(JJ (indian))(NN (elephant)))))))))))) |ET| 
1  |BT| (ROOT (SBARQ (WHNP (WP (what)))(SQ (NP (NP (DT (the))(NN (salary)))(PP (NP (DT (a))(NNP (u.s.))(NNP (representative)))))))) |ET| 
1  |BT| (ROOT (SBARQ (WHNP (WP (what)))(SQ (NP (NP (DT (the))(NN (population)))(PP (NP (DT (the))(NNP (united))(NNPS (states)))))))) |ET| 
1  |BT| (ROOT (SBARQ (WHNP (WP (what)))(SQ (NP (NP (DT (the))(NN (price)))(PP (NP (NNP (tuberculosis))(NNS (drug)))))))) |ET| 
-1  |BT| (ROOT (SBARQ (SBARQ (WHNP (WP (what)))(SQ (NP (NP (DT (the))(NN (origin)))(PP (NP (NP (DT (the))(NN (term)))(ADJP (JJ (blue))(NN (moon))))))))(SBARQ (WHADVP (WRB (how))(RB (often)))(SQ (NP (PRP (they)))(VP (VB (occur))))))) |ET| 
-0.18402011053832312281741678816616  |BT| (ROOT (SBARQ (WHNP (WP (what)))(SQ (NP (NP (DT (the))(NN (abbreviation)))(PP (NP (NNP (general))(NNPS (motors)))))))) |ET| 
-0.62058004964181623375196750203031  |BT| (ROOT (SBARQ (WHNP (WP (what)))(SQ (NP (NP (DT (the))(NN (fear)))(PP (S (VP (VP (VBN (love)))))))))) |ET| 
1  |BT| (ROOT (SBARQ (WHNP (WDT (what))(NN (day)))(SQ (VP (PP (NP (NP (DT (the))(`` (``))(JJ (national))(NN (day)))(PP (NP (NN (prayer))('' ('')))))))))) |ET| 
1  |BT| (ROOT (SBARQ (WHNP (WP (what)))(SQ (NP (NP (DT (the))(JJ (average))(NNS (hour)))(PP (NP (NNS (month)))))(VP (ADJP (JJ (online)))(PP (NP (NNP (aol))(NNS (user)))))))) |ET| 
1  |BT| (ROOT (SBARQ (WHNP (WDT (what))(NN (year)))(SQ (VP (PP (NP (NP (DT (the))(NNP (gold))(NN (medal)))(PP (NP (NNP (excellence))))))(PP (NP (DT (the))(NNP (paris))(NNP (exposition))))(PP (PP (NP (NP (DT (a))(NN (can)))(PP (NP (NP (NNP (campbell))(POS ('s)))))))))))) |ET| 
-0.12294159284055979075578335368846  |BT| (ROOT (SBARQ (WHNP (WDT (what))(NN (whisky)))(SQ (VP (S (ADJP (PP (NP (NP (DT (the))(NN (company)))(SBAR (S (NP (PRP (it)))(VP (VBZ (keep))))))))))))) |ET| 
-0.23641984428613624369397427926742  |BT| (ROOT (SBARQ (WHNP (WDT (what))(NN (game)))(SQ (ADJP (PP (NP (NP (NN (anybody)))(PP (NP (CD (21)))))))))) |ET| 
-0.15611859328553320813703919611726  |BT| (ROOT (SBARQ (WHNP (WDT (what))(NN (line)))(SQ (VP (NP (DT (the))(NNP (north))(CC (and))(NNP (south)))(PP (NP (DT (the))(NNP (u.s.))(NNP (civil))(NNP (war)))))))) |ET| 
1  |BT| (ROOT (SBARQ (WHNP (WP (what)))(SQ (NP (NP (DT (the))(JJ (per-capita))(NN (income)))(PP (NP (NP (NNP (colombia)))(NP (NNP (south))(NNP (america))))))))) |ET| 
1  |BT| (ROOT (SBARQ (WHNP (WP (what)))(SQ (NP (NP (DT (the))(JJ (approximate))(NN (population)))(PP (NP (NP (NNP (las))(NNP (vegas)))(NP (NNP (n.m))))))))) |ET| 
1  |BT| (ROOT (SBARQ (WHNP (WP (what)))(SQ (NP (NP (DT (the))(NN (number)))(PP (NP (NNS (people)))))(SBAR (S (NP (NNP (randy))(NNP (steven))(NNP (craft)))(VP (VP (PP (S (VP (VBG (kill)))))))))))) |ET| 
-0.45969287994792812357403022360813  |BT| (ROOT (SBARQ (WHNP (WP (what)))(SQ (NP (NP (DT (the))(JJ (first))(CD (three))(NNS (city)))(S (VP (VP (NP (NP (DT (a))(NN (population)))(PP (NP (QP (XS (JJR (more))(IN (than)))))))))))))) |ET| 
-0.5198374889767451989541768853087  |BT| (ROOT (SBARQ (WHNP (WP (what)))(SQ (NP (NP (DT (the))(JJ (main))(NN (language)))(PP (NP (NP (NNP (sao))(NNP (paulo)))(NP (NNP (brazil))))))))) |ET| 
-1  |BT| (ROOT (SBARQ (WHNP (WP (what)))(SQ (NP (NP (DT (the))(JJ (best-selling))(NN (television))(NN (soundtrack)))(PP (NP (DT (all))(NN (time)))))))) |ET| 
-0.61067313795377664575880771735683  |BT| (ROOT (SBARQ (WHNP (WP (what)))(SQ (NP (NP (DT (the))(JJ (better-known))(NN (identity)))(PP (NP (NP (NNP (john))(NNP (merrick)))(NP (NP (DT (the))(JJ (noble))(NN (ogre)))(PP (NP (JJ (victorian))(NNP (england))))))))))) |ET| 
1  |BT| (ROOT (S (S (VP (VBG (dial))))(NP (NP (CD (900)))(NP (NP (CD (740-tree)))(SBAR (S (VP (VP (NP (DT (a))(NN (tree)))(S (VP (VBN (plant))))))))))(VP (VP (FRAG (WHADJP (WRB (how))(JJ (much)))))))) |ET| 
-0.01781867121560302621996463301457  |BT| (ROOT (SBARQ (WHADVP (WRB (how)))(SQ (NP (NN (water)))(VP (PP (NP (DT (the))(NN (earth)))))))) |ET| 
0.94737927511917385814399494847748  |BT| (ROOT (SBARQ (WHNP (WDT (what))(NN (year)))(SQ (NP (NN (nylon))(NNS (stocking)))(ADVP (RB (first)))(VP (PP (NP (NN (sale)))))))) |ET| 
-0.41970609967855232458333603062783  |BT| (ROOT (SQ (VP (VP (S (NP (NNP (li))(POS ('))))(NP (NN (l))))(NP (NP (NNP (abner))(POS ('s))))))) |ET| 
-0.33524941736756774801619940262754  |BT| (ROOT (SBARQ (WHADVP (WRB (how)))(SINV (NP (VBG (vend))(NNS (machine)))(VP (SBAR (S (NP (PRP$ (you))(NN (dollar)))(VP (NP (NP (QP (DT (a))(CD (1))))(NP (QP (DT (a))(CD (5)))))))))))) |ET| 
-0.3719932157113932102987519101589  |BT| (ROOT (SBARQ (WHNP (WP (what)))(SINV (S (NP (NP (NN (product))(POS ('s))))(VP (SBAR (S (NP (PRP (it)))(VP (NP (NNS (odor))))))))(VP (VBZ (kill)))(NP (NP (NN (household))(NNS (germ)))(NP (NN (mold)))(NP (NN (mildew))('' (''))))))) |ET| 
1  |BT| (ROOT (SBARQ (WHNP (WP (what)))(SQ (NP (NP (DT (the))(NN (fare))(NN (cost)))(PP (NP (NP (DT (the))(JJ (round))(NN (trip)))(PP (NP (NNP (new))(NNP (york))(CC (and))(NNP (london))))(PP (NP (NNP (concorde)))))))))) |ET| 
1  |BT| (ROOT (SBARQ (WHNP (WP (what)))(SQ (NP (NP (DT (the))(JJ (average))(NN (time)))(PP (NP (NN (kiss))(NN (somene)))))))) |ET| 
1  |BT| (ROOT (SBARQ (WHNP (WP (what)))(SQ (NP (NP (DT (the))(NN (exchange))(NN (rate)))(PP (NP (ADJP (PP (NP (NNP (american))))))))))) |ET| 
-0.8196007553055654204499091974867  |BT| (ROOT (SBARQ (WHNP (WP (what)))(SQ (NP (NP (DT (the))(NN (living))(NNS (condition)))(PP (NP (NNP (cuba)))))))) |ET| 
-1  |BT| (ROOT (SBARQ (WHNP (WP (what)))(SQ (NP (NP (DT (the))(NN (origin)))(PP (NP (NP (DT (the))(NN (candy))(NN (cane)))(PP (NP (NNP (christmas)))))))))) |ET| 
-0.70403215532434315626630905171623  |BT| (ROOT (SBARQ (WHNP (WP (what)))(SQ (NP (NP (DT (the))(NN (recipe))(CC (or))(NN (formulum)))(PP (NP (NNP (coca-cola)))))))) |ET| 
1  |BT| (ROOT (SBARQ (WHADVP (WRB (how))(RB (far)))(SQ (NP (PRP (you)))(VP (S (VP (VP (SBAR (S (NP (PRP (you)))(VP (NP (DT (a))(NN (home))(NN (run))))))))))))) |ET| 
1  |BT| (ROOT (SBARQ (WHADVP (WRB (how))(RB (long))(RB (ago)))(SQ (NP (NP (NP (NNP (roe))(FW (vs.))(NNP (wade))))(PP (NP (DT (the))(NNP (supreme))(NNP (court)))))))) |ET| 
1  |BT| (ROOT (SBARQ (WHADJP (WRB (how))(JJ (large)))(SQ (NP (NP (DT (the))(NNP (arctic))(NN (refuge)))(S (VP (VP (NP (NX (NX (NN (wildlife)))(NX (NN (wilderness))(NN (value)))))(PP (NP (NP (NNP (alaska))(POS ('s)))))))))))) |ET| 
-1  |BT| (ROOT (SBARQ (WHADVP (NP (NP (NNS (shouldn))(POS (')))))(SQ (NP (PRP (you)))(VP (NP (DT (a))(NN (bee))(NN (stinger)))(PP (NP (NNS (tweezers)))))))) |ET| 
-0.18907642957391443405690267809405  |BT| (ROOT (SBARQ (WHADVP (WRB (where)))(SQ (NP (DT (a))(NN (soccer))(NN (goalie)))(VP (S (VP (VP (VP (S (VP (VP (NP (DT (the))(NN (ball)))))))))))))) |ET| 
-0.25660845507549989719109362340532  |BT| (ROOT (SBARQ (WHADVP (WRB (how)))(SQ (NP (`` (`))(NN (stat))('' (')))(VP (S (VP (VP (VP (PP (NP (NP (DT (a))(NN (expression)))(PP (NP (RB (quickly)))))))))))))) |ET| 
1  |BT| (ROOT (SBARQ (WHNP (WP (what)))(SQ (NP (NP (DT (the))(NN (population)))(PP (NP (NNP (mexico)))))))) |ET| 
1  |BT| (ROOT (SBARQ (WHNP (WP (what)))(SQ (NP (NP (DT (the))(NN (population)))(PP (NP (NNP (kansas)))))))) |ET| 
1  |BT| (ROOT (SBARQ (WHNP (WP (what)))(SQ (NP (NP (DT (the))(NN (chemical))(NN (reactivity)))(PP (NP (NN (neon)))))))) |ET| 
-0.63054664721046493891520867691725  |BT| (ROOT (SBARQ (WHNP (WP (what)))(SQ (NP (NP (DT (the))(JJ (islamic))(NN (equivalent)))(PP (NP (DT (the))(NNP (red))(NNP (cross)))))))) |ET| 
-0.60248973491175972228006685327273  |BT| (ROOT (SBARQ (WHNP (WP (what)))(SQ (NP (NP (DT (the))(NN (connection)))(PP (NP (NNP (new))(NNP (krypton))(CC (and))(NNP (daxam)))))))) |ET| 
-0.44486282401093929506075141944166  |BT| (ROOT (SBARQ (WHNP (WP (what)))(SQ (NP (NP (DT (the))(JJ (current))(NN (immigration))(NNS (law)))(PP (NP (NNP (us)))))))) |ET| 
0.57995453040891131735179442330264  |BT| (ROOT (SBARQ (WHADVP (WRB (when)))(SQ (NP (DT (a))(NN (woman)))(ADJP (RBS (most))(JJ (fertile)))))) |ET| 
1  |BT| (ROOT (SBARQ (WHNP (WHNP (WRB (how))(JJ (many)))(PP (NP (NP (NNS (year)))(PP (NP (NN (schooling)))))(NP (NN (highschool)))))(SQ (NP (PRP (it)))(VP (S (VP (VP (NP (DT (a))(NN (neurosurgeon)))))))))) |ET| 
0.13811425019072331998870595271001  |BT| (ROOT (SBARQ (WHADVP (WRB (when)))(SQ (NP (DT (the))(NNP (american))(NNP (civil))(NNP (war)))(VP (VB (end)))))) |ET| 
-0.096211359624588183026006049658463  |BT| (ROOT (SBARQ (WHADVP (WRB (how)))(SQ (NP (NN (water)))(VP (S (VP (VP (S (NP (PRP (it)))(ADJP (S (VP (VP (VB (drink)))))))))))))) |ET| 
-0.058466027464648538669589328264919  |BT| (ROOT (SBARQ (WHADVP (WRB (why)))(SQ (VP (VP (S (VP (NP (NN (t))))))(SBAR (S (NP (PRP (you)))(VP (NP (NN (anything)))(SBAR (WHADVP (WRB (when)))(S (NP (PRP (you)))(VP (NP (DT (a))(NN (cold))))))))))))) |ET| 
-0.51400553844215091103819759155158  |BT| (ROOT (SBARQ (WHADVP (WRB (how)))(SQ (NP (DT (the))(NNP (kennedy))(NN (money)))(VP (VBN (make)))))) |ET| 
1  |BT| (ROOT (SBARQ (WHNP (WP (what)))(SQ (NP (NP (DT (the))(NN (date)))(PP (NP (NNP (bastille))(NNP (day)))))))) |ET| 
1  |BT| (ROOT (SBARQ (WHNP (WP (what)))(SQ (NP (NP (DT (the))(JJ (average))(NN (cost)))(PP (NP (NP (CD (four))(NNS (year)))(PP (NP (JJ (medical))(NN (school)))))))))) |ET| 
-0.63748775781414235286348457520944  |BT| (ROOT (SBARQ (WHNP (WP (what)))(SQ (NP (NP (DT (the))(NN (death)))(PP (NP (NNP (bob))(NNP (marley)))))))) |ET| 
-0.059972717009172164803754156991999  |BT| (ROOT (SBARQ (WHNP (WP (what)))(SQ (NP (NP (DT (the))(NN (nationality)))(PP (NP (NNP (jackson))(NNP (pollock)))))))) |ET| 
-0.89916583791350579435430745434132  |BT| (ROOT (SBARQ (WHNP (WP (what)))(SQ (NP (NP (DT (a))(NN (research))(NN (expedition)))(PP (NP (NN (mountain))(NN (climbing)))))))) |ET| 
1  |BT| (ROOT (S (NP (NP (DT (the))(NN (film)))(NP (NNP (jaws))))(VP (VP (WHPP (WHNP (WDT (what))(NN (year)))))))) |ET| 
0.90966350452193167619441283022752  |BT| (ROOT (SBARQ (WHADVP (WRB (when)))(SQ (NP (NNS (mormon)))(VP (SBAR (S (NP (NNP (christ)))(VP (VP (VBN (bear)))))))))) |ET| 
1  |BT| (ROOT (SBARQ (WHPP (WHNP (WDT (what))(NN (year))))(SQ (NP (DT (the))(NNP (us))(NNP (marine))(NNP (corps)))(VP (NP (DT (the))(NN (motto))(`` (``))(FW (semper))(FW (fidelis))('' (''))))))) |ET| 
-1  |BT| (ROOT (SBARQ (WHNP (WDT (what))(JJ (new))(JJ (middle))(NN (school)))(SQ (VP (VP (PP (NP (NP (NNP (philadelphia)))(NP (NNP (pennsylvania)))))(NP (JJ (last))(NN (year)))))))) |ET| 
-0.51302818460398269539979310138733  |BT| (ROOT (SBARQ (WHPP (WHNP (WDT (what))(NN (nation))))(SQ (NP (NNP (edessa)))(VP (ADVP (RB (nowadays))))))) |ET| 
-0.50457918310061544708844394335756  |BT| (ROOT (SBARQ (WHPP (WHNP (WDT (what))(NN (city))))(SQ (NP (NNP (maurizio))(NNP (pellegrin)))(ADVP (RB (now)))(VP (VB (live)))))) |ET| 
1  |BT| (ROOT (SBARQ (WHNP (WP (what)))(SQ (NP (NP (NNS (man))(POS ('s)))(ADJP (PP (NP (DT (a))(JJ (455-yard))(NN (golf))))))))) |ET| 
1  |BT| (ROOT (SBARQ (WHNP (WP (what)))(SQ (NP (NP (DT (the))(NN (airport))(NN (code)))(PP (NP (NNP (los))(NNP (angeles))(NNP (international)))))))) |ET| 
1  |BT| (ROOT (SBARQ (WHNP (WP (what)))(SQ (NP (NP (DT (the))(NN (chromosome))(NN (number)))(PP (NP (DT (a))(NN (elephant)))))))) |ET| 
-0.83643685947218426868232654669555  |BT| (ROOT (SBARQ (WHNP (WP (what)))(SQ (NP (NP (DT (the))(NN (dialogue))(NN (circle)))(PP (NP (NNS (cartoon)))))(VP (VBN (call)))))) |ET| 
-0.95881069172645327913784285556176  |BT| (ROOT (SBARQ (WHNP (WP (what)))(SQ (NP (NP (DT (the))(NN (brand))(NN (name)))(PP (NP (DT (the))(NN (chemical))(NNP (daminozide)))))))) |ET| 
-0.49209625318364103030432943342021  |BT| (ROOT (SBARQ (WHNP (WP (what)))(SQ (NP (NP (DT (the))(NN (mascot)))(PP (NP (NNP (notre))(NNP (dame))(NNP (university)))))))) |ET| 
0.9663378656020881196653249389783  |BT| (ROOT (SBARQ (WHADVP (WRB (when)))(SQ (NP (NP (NNP (president))(NNP (kennedy)))(NP (NNP (lee))(NNP (harvey))(NNP (oswald)))(NP (NNP (jack))(NNP (ruby))))(ADVP (RB (all)))(VP (VB (die)))))) |ET| 
1  |BT| (ROOT (SBARQ (WHNP (NP (PP (NP (DT (the))(NN (year))))))(SQ (NP (EX (there)))(NP (NP (DT (no))(NN (television)))(PP (NP (NNP (iceland)))))))) |ET| 
0.32549459526828239397389097575797  |BT| (ROOT (SBARQ (WHPP (WHNP (WDT (what))(NN (year))))(SQ (NP (NNP (hitler)))(VP (NP (NP (NN (power)))(PP (NP (NNP (germany))))))))) |ET| 
-0.32433494603849349902091603325971  |BT| (ROOT (SBARQ (WHNP (NP (JJ (little))(NN (boy))(CC (and))(NN (dog))))(SQ (PP (NP (DT (a))(NN (shoe))))))) |ET| 
-0.35116215854924515138435481276247  |BT| (ROOT (SBARQ (WHNP (NP (PP (NP (NN (meat))))))(SQ (NP (NNP (fray))(NNP (bentos)))(ADJP (PP (IN (with))))))) |ET| 
