SVM-light Version V5.01-TK-1.5
5 # kernel type
3 # kernel parameter -d 
1 # kernel parameter -g 
1 # kernel parameter -s 
1 # kernel parameter -r 
empty# kernel parameter -u 
0.4 # kernel parameter -L 
1 # kernel parameter -T 
+ # kernel parameter -C 
3 # kernel parameter -F 
1 # kernel parameter -S 
0.400000 # kernel parameter -M 
3 # kernel parameter -N 
R # kernel parameter -V 
R # kernel parameter -W 
0 # kernel parameter -U 
16 # highest feature index 
4924 # number of training documents 
2064 # number of support vectors plus 1 
-0.039252951 # threshold b, each following line is a SV (starting with alpha*y)
-0.79956572838336747999221643112833  |BT| (ROOT (S (NP (WP (what)))(VP (VBZ (be)))(REL-FOCUS-ENTY-NP (DT (the))(JJ (scientific))(NN (name)))(PP (IN (for)))(REL-NP (REL-JJ (red))(REL-NNS (ant))))) |BT| (ROOT (S (VP (TO (to))(VB (sit)))(PP (IN (in)))(REL-NP (DT (a))(JJ (large))(REL-JJ (red))(REL-NN (ant))(NN (hill)))(SBAR (IN (until)))(NP (PRP (she)))(VP (VBD (be))(VBN (cover)))(PP (IN (in)))(REL-NP (REL-NN (ant))(NNS (bite))))) |BT| (ROOT (S (NP (WP (what)))(VP (VBZ (be)))(REL-FOCUS-ENTY-NP (DT (the))(JJ (scientific))(NN (name)))(PP (IN (for)))(REL-NP (REL-JJ (red))(REL-NNS (ant))))) |BT| (ROOT (S (VP (VBP (have))(VBN (be))(VBN (sting)))(PP (IN (by)))(REL-NP (DT (any))(REL-JJ (ant))(NNS (chance)))(VP (VBP (be)))(NP (PRP (it)))(VP (VBD (be)))(NP (DT (a))(NNP (solenopsis))(NN (invicta)))(REL-NP (DT (the))(REL-JJ (red))(VBN (import))(NN (fire))(REL-NN (ant)))(VP (VBZ (say)))(NP (NNP (bart))(NNP (drees)))(NP (NN (coordinator)))(PP (IN (of)))(REL-FOCUS-ENTY-NP (DT (the))(NNP (texas))(NNP (imported))(NNP (fire))(REL-NNP (ant))(NNP (research))(CC (and))(NNP (management))(NNP (project)))(PP (IN (at)))(REL-FOCUS-ENTY-NP (NNP (texas))(NNP (a&amp;m))(NNP (university))))) |ET| 1:0.33333334 2:0.21693046 3:0.37300193 4:0.15309311 5:0.28867513 6:0.041344911 7:0.13245323 8:0.028903671 9:0.11111111 11:0.49029034 12:0.40684035 13:0.19557956 14:0.69970125 15:0.45998073 16:0.24437499  |BV| 1:0.32102895 2:0.18093251 3:0.19569843 4:0.12991396 5:0.1496264 11:0.21002924 12:0.1801585 13:0.045722999 14:0.52957416 15:0.41540998 16:0.22839105  |EV| 
-0.40304302414424519884761366483872  |BT| (ROOT (S (NP (WP (what)))(VP (VBZ (be)))(REL-FOCUS-ENTY-NP (DT (the))(JJ (scientific))(NN (name)))(PP (IN (for)))(REL-NP (REL-JJ (red))(REL-NNS (ant))))) |BT| (ROOT (S (PP (IN (about)))(VP (VBG (eradicate)))(REL-NP (REL-JJ (red))(NN (fire))(REL-NNS (ant))))) |BT| (ROOT (S (NP (WP (what)))(VP (VBZ (be)))(REL-FOCUS-ENTY-NP (DT (the))(JJ (scientific))(NN (name)))(PP (IN (for)))(REL-NP (REL-JJ (red))(REL-NNS (ant))))) |BT| (ROOT (S (VP (VBP (have))(VBN (be))(VBN (sting)))(PP (IN (by)))(REL-NP (DT (any))(REL-JJ (ant))(NNS (chance)))(VP (VBP (be)))(NP (PRP (it)))(VP (VBD (be)))(NP (DT (a))(NNP (solenopsis))(NN (invicta)))(REL-NP (DT (the))(REL-JJ (red))(VBN (import))(NN (fire))(REL-NN (ant)))(VP (VBZ (say)))(NP (NNP (bart))(NNP (drees)))(NP (NN (coordinator)))(PP (IN (of)))(REL-FOCUS-ENTY-NP (DT (the))(NNP (texas))(NNP (imported))(NNP (fire))(REL-NNP (ant))(NNP (research))(CC (and))(NNP (management))(NNP (project)))(PP (IN (at)))(REL-FOCUS-ENTY-NP (NNP (texas))(NNP (a&amp;m))(NNP (university))))) |ET| 1:0.2773501 2:0.14552137 3:0.2309401 4:0.10206207 5:0.17817415 11:0.35478744 12:0.28867513 13:0.073771112 14:0.59244913 15:0.54701257 16:0.23318987  |BV| 1:0.32102895 2:0.18093251 3:0.19569843 4:0.12991396 5:0.1496264 11:0.21002924 12:0.1801585 13:0.045722999 14:0.52957416 15:0.41540998 16:0.22839105  |EV| 
-0.79956572838336747999221643112833  |BT| (ROOT (S (NP (WP (what)))(VP (VBZ (be)))(REL-FOCUS-ENTY-NP (DT (the))(JJ (scientific))(NN (name)))(PP (IN (for)))(REL-NP (REL-JJ (red))(REL-NNS (ant))))) |BT| (ROOT (S (REL-NP (REL-JJ (red))(NN (fire))(REL-NNS (ant)))(PP (IN (like)))(NP (JJ (warm))(CC (and))(JJ (wet))(NNS (condition))))(S (NP (DT (the))(JJ (southeastern))(NNS (state)))(ADVP (WRB (where)))(REL-NP (DT (the))(REL-JJ (red))(NN (fire))(REL-NN (ant)))(VP (VBZ (be))(VBN (entrench)))(NP (JJ (vast))(NNS (expanse))))) |BT| (ROOT (S (NP (WP (what)))(VP (VBZ (be)))(REL-FOCUS-ENTY-NP (DT (the))(JJ (scientific))(NN (name)))(PP (IN (for)))(REL-NP (REL-JJ (red))(REL-NNS (ant))))) |BT| (ROOT (S (VP (VBP (have))(VBN (be))(VBN (sting)))(PP (IN (by)))(REL-NP (DT (any))(REL-JJ (ant))(NNS (chance)))(VP (VBP (be)))(NP (PRP (it)))(VP (VBD (be)))(NP (DT (a))(NNP (solenopsis))(NN (invicta)))(REL-NP (DT (the))(REL-JJ (red))(VBN (import))(NN (fire))(REL-NN (ant)))(VP (VBZ (say)))(NP (NNP (bart))(NNP (drees)))(NP (NN (coordinator)))(PP (IN (of)))(REL-FOCUS-ENTY-NP (DT (the))(NNP (texas))(NNP (imported))(NNP (fire))(REL-NNP (ant))(NNP (research))(CC (and))(NNP (management))(NNP (project)))(PP (IN (at)))(REL-FOCUS-ENTY-NP (NNP (texas))(NNP (a&amp;m))(NNP (university))))) |ET| 1:0.38095239 2:0.20566981 3:0.23693955 4:0.14547859 5:0.18144368 11:0.62512016 12:0.52941495 13:0.2796542 14:0.78500098 15:0.55133349 16:0.22753336  |BV| 1:0.32102895 2:0.18093251 3:0.19569843 4:0.12991396 5:0.1496264 11:0.21002924 12:0.1801585 13:0.045722999 14:0.52957416 15:0.41540998 16:0.22839105  |EV| 
-0.79956572838336747999221643112833  |BT| (ROOT (S (NP (WP (what)))(VP (VBZ (be)))(REL-FOCUS-ENTY-NP (DT (the))(NN (name)))(PP (IN (of)))(REL-NP (DT (the))(REL-NN (canopy)))(PP (IN (at)))(REL-NP (DT (a))(REL-JJ (jewish))(REL-NN (wedding))))) |BT| (ROOT (S (NP (IN (about))(NNP (9:45pm))(CD (1845))(NN (gmt)))(SBAR (RB (just))(IN (as)))(REL-FOCUS-ENTY-NP (NNP (tomer))(NNP (cohen)))(NP (CD (23)))(NP (PRP$ (he))(NN (bride)))(VP (VBD (stand)))(PP (IN (under)))(REL-NP (DT (the))(JJ (traditional))(REL-JJ (jewish))(REL-NN (wedding))(REL-NN (canopy)))(VP (VBG (take)))(NP (PRP$ (they))(NN (marriage))))) |BT| (ROOT (S (NP (WP (what)))(VP (VBZ (be)))(REL-FOCUS-ENTY-NP (DT (the))(NN (name)))(PP (IN (of)))(REL-NP (DT (the))(REL-NN (canopy)))(PP (IN (at)))(REL-NP (DT (a))(REL-JJ (jewish))(NN (wedding))))) |BT| (ROOT (S (NP (PRP$ (my))(NN (sister)))(VP (VBD (be))(VBG (plan)))(REL-NP (DT (a))(JJ (full))(REL-JJ (jewish))(NN (ceremony)))(ADJP (JJ (complete)))(PP (IN (with)))(REL-NP (DT (the))(JJ (traditional))(NN (huppah))(REL-NN (canopy)))(NP (DT (the))(NN (ketubah))(NN (contract)))(NP (DT (the))(NN (breaking))))) |ET| 1:0.29607826 2:0.19156526 3:0.26666668 4:0.13755536 5:0.20100756 6:0.023669049 7:0.08804509 8:0.016264999 9:0.072739303 11:0.42820746 12:0.36607015 13:0.14047261 14:0.74530756 15:0.49055749 16:0.26457635  |BV| 1:0.51328945 2:0.32161209 3:0.16609097 4:0.23190841 5:0.12598816 6:0.025197631 8:0.017329169 11:0.64116085 12:0.5807749 13:0.36912471 14:0.83312321 15:0.61937433 16:0.22531275  |EV| 
0.24295000856156076518566067079519  |BT| (ROOT (S (NP (WP (what)))(VP (VBZ (be)))(REL-FOCUS-ENTY-NP (DT (the))(JJ (scientific))(NN (name)))(PP (IN (for)))(REL-NP (REL-JJ (red))(REL-NNS (ant))))) |BT| (ROOT (S (VP (VBP (have))(VBN (be))(VBN (sting)))(PP (IN (by)))(REL-NP (DT (any))(REL-JJ (ant))(NNS (chance)))(VP (VBP (be)))(NP (PRP (it)))(VP (VBD (be)))(NP (DT (a))(NNP (solenopsis))(NN (invicta)))(REL-NP (DT (the))(REL-JJ (red))(VBN (import))(NN (fire))(REL-NN (ant)))(VP (VBZ (say)))(NP (NNP (bart))(NNP (drees)))(NP (NN (coordinator)))(PP (IN (of)))(REL-FOCUS-ENTY-NP (DT (the))(NNP (texas))(NNP (imported))(NNP (fire))(REL-NNP (ant))(NNP (research))(CC (and))(NNP (management))(NNP (project)))(PP (IN (at)))(REL-FOCUS-ENTY-NP (NNP (texas))(NNP (a&amp;m))(NNP (university))))) |BT| (ROOT (S (NP (WP (what)))(VP (VBZ (be)))(REL-FOCUS-ENTY-NP (DT (the))(JJ (scientific))(NN (name)))(PP (IN (for)))(REL-NP (REL-JJ (red))(NNS (ant))))) |BT| (ROOT (S (REL-NP (NNP (crazy))(NNP (ants))(NNP (attack))(REL-NNP (red))(NNPS (crabs))))) |ET| 1:0.32102895 2:0.18093251 3:0.19569843 4:0.12991396 5:0.1496264 11:0.21002924 12:0.1801585 13:0.045722999 14:0.52957416 15:0.41540998 16:0.22839105  |BV| 14:0.17874357 15:0.1464994 16:0.25498095  |EV| 
0.37760592976886225846655520399509  |BT| (ROOT (S (NP (WP (what)))(VP (VBZ (be)))(REL-FOCUS-ENTY-NP (DT (the))(JJ (scientific))(NN (name)))(PP (IN (for)))(REL-NP (REL-JJ (red))(REL-NNS (ant))))) |BT| (ROOT (S (VP (VBP (have))(VBN (be))(VBN (sting)))(PP (IN (by)))(REL-NP (DT (any))(REL-JJ (ant))(NNS (chance)))(VP (VBP (be)))(NP (PRP (it)))(VP (VBD (be)))(NP (DT (a))(NNP (solenopsis))(NN (invicta)))(REL-NP (DT (the))(REL-JJ (red))(VBN (import))(NN (fire))(REL-NN (ant)))(VP (VBZ (say)))(NP (NNP (bart))(NNP (drees)))(NP (NN (coordinator)))(PP (IN (of)))(REL-FOCUS-ENTY-NP (DT (the))(NNP (texas))(NNP (imported))(NNP (fire))(REL-NNP (ant))(NNP (research))(CC (and))(NNP (management))(NNP (project)))(PP (IN (at)))(REL-FOCUS-ENTY-NP (NNP (texas))(NNP (a&amp;m))(NNP (university))))) |BT| (ROOT (S (NP (WP (what)))(VP (VBZ (be)))(REL-FOCUS-ENTY-NP (DT (the))(JJ (scientific))(NN (name)))(PP (IN (for)))(REL-NP (REL-JJ (red))(REL-NNS (ant))))) |BT| (ROOT (S (NP (NN (lift)))(REL-NP (REL-JJ (red))(REL-NN (ant))(NNP (love))(CC (and))(NNP (rockets))))) |ET| 1:0.32102895 2:0.18093251 3:0.19569843 4:0.12991396 5:0.1496264 11:0.21002924 12:0.1801585 13:0.045722999 14:0.52957416 15:0.41540998 16:0.22839105  |BV| 1:0.20100756 2:0.15877683 3:0.44721359 4:0.1118034 5:0.35355338 6:0.059234891 7:0.21821789 8:0.041996051 9:0.19245009 11:0.15907119 12:0.1303215 13:0.041996051 14:0.49896729 15:0.32775033 16:0.25498095  |EV| 
0.32919759070299148273619493920705  |BT| (ROOT (S (NP (WP (what)))(VP (VBZ (be)))(REL-FOCUS-ENTY-NP (DT (the))(JJ (scientific))(NN (name)))(PP (IN (for)))(REL-NP (REL-JJ (red))(REL-NNS (ant))))) |BT| (ROOT (S (VP (VBP (have))(VBN (be))(VBN (sting)))(PP (IN (by)))(REL-NP (DT (any))(REL-JJ (ant))(NNS (chance)))(VP (VBP (be)))(NP (PRP (it)))(VP (VBD (be)))(NP (DT (a))(NNP (solenopsis))(NN (invicta)))(REL-NP (DT (the))(REL-JJ (red))(VBN (import))(NN (fire))(REL-NN (ant)))(VP (VBZ (say)))(NP (NNP (bart))(NNP (drees)))(NP (NN (coordinator)))(PP (IN (of)))(REL-FOCUS-ENTY-NP (DT (the))(NNP (texas))(NNP (imported))(NNP (fire))(REL-NNP (ant))(NNP (research))(CC (and))(NNP (management))(NNP (project)))(PP (IN (at)))(REL-FOCUS-ENTY-NP (NNP (texas))(NNP (a&amp;m))(NNP (university))))) |BT| (ROOT (S (NP (WP (what)))(VP (VBZ (be)))(REL-FOCUS-ENTY-NP (DT (the))(JJ (scientific))(NN (name)))(PP (IN (for)))(REL-NP (REL-JJ (red))(REL-NNS (ant))))) |BT| (ROOT (S (VP (MD (might))(VB (be))(VBG (see)))(VP (VBZ (be)))(REL-NP (DT (the))(REL-JJ (red))(NN (velvet))(REL-NN (ant))(CC (or))(NN (cow))(NN (killer))(REL-NN (ant))))) |ET| 1:0.32102895 2:0.18093251 3:0.19569843 4:0.12991396 5:0.1496264 11:0.21002924 12:0.1801585 13:0.045722999 14:0.52957416 15:0.41540998 16:0.22839105  |BV| 1:0.39024627 2:0.25286087 3:0.17770466 4:0.187033 5:0.13693064 6:0.02309401 8:0.0160437 11:0.46926001 12:0.41038173 13:0.1614707 14:0.72150224 15:0.43081501 16:0.23482788  |EV| 
0.79956572838336747999221643112833  |BT| (ROOT (S (NP (WP (what)))(VP (VBZ (be)))(REL-FOCUS-ENTY-NP (DT (the))(JJ (scientific))(NN (name)))(PP (IN (for)))(REL-NP (REL-JJ (red))(REL-NNS (ant))))) |BT| (ROOT (S (VP (VBP (have))(VBN (be))(VBN (sting)))(PP (IN (by)))(REL-NP (DT (any))(REL-JJ (ant))(NNS (chance)))(VP (VBP (be)))(NP (PRP (it)))(VP (VBD (be)))(NP (DT (a))(NNP (solenopsis))(NN (invicta)))(REL-NP (DT (the))(REL-JJ (red))(VBN (import))(NN (fire))(REL-NN (ant)))(VP (VBZ (say)))(NP (NNP (bart))(NNP (drees)))(NP (NN (coordinator)))(PP (IN (of)))(REL-FOCUS-ENTY-NP (DT (the))(NNP (texas))(NNP (imported))(NNP (fire))(REL-NNP (ant))(NNP (research))(CC (and))(NNP (management))(NNP (project)))(PP (IN (at)))(REL-FOCUS-ENTY-NP (NNP (texas))(NNP (a&amp;m))(NNP (university))))) |BT| (ROOT (S (NP (WP (what)))(VP (VBZ (be)))(REL-FOCUS-ENTY-NP (DT (the))(JJ (scientific))(NN (name)))(PP (IN (for)))(REL-NP (REL-JJ (red))(REL-NNS (ant))))) |BT| (ROOT (S (PP (IN (like)))(NP (JJ (high-tech))(NNS (armament)))(REL-NP (DT (the))(REL-NNS (ant)))(VP (VBP (be))(RB (also))(VBG (get)))(ADJP (RB (steadily))(RBR (more))(JJ (sophisticated))))(S (NP (NN (hybridization)))(PP (IN (between)))(REL-NP (DT (the))(NN (fire))(REL-NN (ant)))(REL-NP (POS ('s))(REL-JJ (red))(CC (and))(JJ (black))(NNS (variety)))(NP (WDT (which)))(VP (VBZ (have))(VBN (give)))(REL-NP (DT (the))(REL-JJ (ant))(JJ (new))(CC (and))(RB (apparently))(JJ (useful))(JJ (genetic))(NNS (adaptation))))) |ET| 1:0.32102895 2:0.18093251 3:0.19569843 4:0.12991396 5:0.1496264 11:0.21002924 12:0.1801585 13:0.045722999 14:0.52957416 15:0.41540998 16:0.22839105  |BV| 1:0.38729832 2:0.21719877 3:0.27937213 4:0.15582226 5:0.21629523 11:0.53731465 12:0.45018378 13:0.17359127 14:0.76404411 15:0.52737832 16:0.23148029  |EV| 
0.79956572838336747999221643112833  |BT| (ROOT (S (NP (WP (what)))(VP (VBZ (be)))(REL-FOCUS-ENTY-NP (DT (the))(JJ (scientific))(NN (name)))(PP (IN (for)))(REL-NP (REL-JJ (red))(REL-NNS (ant))))) |BT| (ROOT (S (VP (VBP (have))(VBN (be))(VBN (sting)))(PP (IN (by)))(REL-NP (DT (any))(REL-JJ (ant))(NNS (chance)))(VP (VBP (be)))(NP (PRP (it)))(VP (VBD (be)))(NP (DT (a))(NNP (solenopsis))(NN (invicta)))(REL-NP (DT (the))(REL-JJ (red))(VBN (import))(NN (fire))(REL-NN (ant)))(VP (VBZ (say)))(NP (NNP (bart))(NNP (drees)))(NP (NN (coordinator)))(PP (IN (of)))(REL-FOCUS-ENTY-NP (DT (the))(NNP (texas))(NNP (imported))(NNP (fire))(REL-NNP (ant))(NNP (research))(CC (and))(NNP (management))(NNP (project)))(PP (IN (at)))(REL-FOCUS-ENTY-NP (NNP (texas))(NNP (a&amp;m))(NNP (university))))) |BT| (ROOT (S (NP (WP (what)))(VP (VBZ (be)))(REL-FOCUS-ENTY-NP (DT (the))(JJ (scientific))(NN (name)))(PP (IN (for)))(REL-NP (REL-JJ (red))(REL-NNS (ant))))) |BT| (ROOT (S (REL-NP (DT (the))(NN (fire))(REL-NNS (ant)))(NP (JJS (biggest))(NNS (move)))(VP (VBP (have))(VBN (be))))(S (NP (NNP (posadas)))(NP (DT (the))(NN (state)))(REL-NP (POS ('s))(REL-JJ (red))(NN (fire))(REL-JJ (ant))(NN (chief))))) |ET| 1:0.32102895 2:0.18093251 3:0.19569843 4:0.12991396 5:0.1496264 11:0.21002924 12:0.1801585 13:0.045722999 14:0.52957416 15:0.41540998 16:0.22839105  |BV| 1:0.34143168 2:0.19118196 3:0.21483447 4:0.13703774 5:0.16666667 11:0.47252771 12:0.40824828 13:0.2174641 14:0.70184779 15:0.50332952 16:0.22316138  |EV| 
-0.79956572838336747999221643112833  |BT| (ROOT (S (NP (WP (what)))(VP (VBP (be)))(REL-FOCUS-ENTY-NP (REL-NNS (penny)))(REL-VP (REL-VBN (make)))(PP (IN (of))))) |BT| (ROOT (S (REL-FOCUS-ENTY-NP (NNP (assistant))(NNP (u.s.))(NNP (attorney))(NNP (michael))(NNP (levy)))(VP (VBD (say)))(NP (PRP (it)))(PP (IN (with)))(NP (DT (the))(NNP (sacagawea))(NNS (mule)))(REL-VP (REL-VBD (make)))(REL-FOCUS-ENTY-NP (NNP (dempsey)))(REL-NP (POS ('s))(REL-NN (penny)))(SBAR (IN (because)))(NP (PRP (it)))(NP (DT (a))(NN (roll)))(PP (IN (of)))(REL-NP (NN (bank))(REL-NNS (penny))))) |BT| (ROOT (S (NP (WP (what)))(VP (VBP (be)))(REL-FOCUS-ENTY-NP (REL-NNS (penny)))(REL-VP (REL-VBN (make)))(PP (IN (of))))) |BT| (ROOT (S (VP (VBD (think)))(NP (PRP (she)))(REL-VP (MD (could))(VB (have))(REL-VBN (make)))(NP (PRP (it)))(SBAR (IN (if)))(NP (PRP (she)))(VP (TO (to))(VB (dye)))(REL-NP (PRP$ (she))(NN (hair))(NN (copper))(REL-NN (penny))(NN (red))))) |ET| 1:0.36927447 2:0.20353606 3:0.2705009 4:0.14704292 5:0.2254938 11:0.21357442 12:0.18311676 13:0.04950738 14:0.59047705 15:0.37643915 16:0.19520023  |BV| 1:0.13245323 2:0.077209137 3:0.28005603 4:0.05668202 5:0.23570226 11:0.089554727 12:0.07548514 14:0.44358695 15:0.31679487 16:0.18630829  |EV| 
-0.27103784723944124301908686902607  |BT| (ROOT (S (REL-VP (TO (to))(VB (be))(REL-VBN (bear)))(PP (IN (in)))(REL-FOCUS-HUM-NP (REL-NNP (america))))) |BT| (ROOT (S (ADJP (WRB (how))(JJ (fortunate)))(NP (PRP (we)))(REL-VP (VBP (be))(TO (to))(VB (have))(VBN (be))(REL-VBN (bear)))(PP (IN (in)))(REL-NP (REL-NNP (america))))) |BT| (ROOT (S (REL-VP (TO (to))(VB (be))(REL-VBN (bear)))(PP (IN (in)))(REL-FOCUS-HUM-NP (REL-NNP (america))))) |BT| (ROOT (S (NP (CD (1587)))(NP (NNP (virginia))(NNP (dare)))(REL-VP (VBZ (be))(REL-VBN (bear)))(PP (IN (at)))(NP (NNP (roanoke))(NNP (island)))(NP (NNP (north))(NNP (carolina)))(NP (JJ (first))(NN (child)))(REL-VP (REL-VBN (bear)))(PP (IN (in)))(REL-NP (REL-NNP (america)))(PP (IN (of)))(NP (NNP (english))(NNS (parent))))) |ET| 1:0.47434166 2:0.37121293 3:0.44721359 4:0.32076025 5:0.37796447 6:0.20361574 7:0.2773501 8:0.17496355 9:0.23570226 10:0.14285713 11:0.48530725 12:0.41825095 13:0.28583097 14:0.64755899 15:0.64931315 16:0.1769641  |BV| 1:0.41666666 2:0.35957327 3:0.44444445 4:0.28823069 5:0.37463433 6:0.20823167 7:0.20851441 8:0.1490712 9:0.17407766 10:0.06052275 11:0.45028725 12:0.38651034 13:0.23179317 14:0.62448472 15:0.36241043 16:0.18317941  |EV| 
-0.79956572838336747999221643112833  |BT| (ROOT (S (ADVP (WRB (where)))(VP (VBZ (be)))(REL-FOCUS-LOC-NP (REL-NNP (mesa))(REL-NNP (verde))(REL-NNP (national))(REL-NN (park))))) |BT| (ROOT (S (NP (DT (the))(NN (entrance)))(PP (IN (at)))(REL-FOCUS-LOC-NP (REL-NNP (mesa))(REL-NNP (verde))(REL-NNP (national))(REL-NNP (park))))) |BT| (ROOT (S (ADVP (WRB (where)))(VP (VBZ (be)))(REL-FOCUS-LOC-NP (REL-NNP (mesa))(REL-NNP (verde))(REL-NNP (national))(REL-NN (park))))) |BT| (ROOT (S (REL-NP (REL-NNP (mesa))(REL-NNP (verde))(REL-NNP (national))(REL-NNP (park)))(REL-FOCUS-LOC-NP (NNP (colo))))(S (ADVP (RB (quickly)))(PP (IN (across)))(REL-NP (JJ (tinder-dry))(REL-NNS (mesa))(CC (and))(NNS (canyon)))(VP (VBG (force)))(NP (DT (the))(NN (evacuation)))(NP (CD (1,000))(NNS (tourist)))(PP (IN (from)))(REL-FOCUS-LOC-NP (REL-NNP (mesa))(REL-NNP (verde))(REL-NNP (national))(REL-NNP (park))))) |ET| 1:0.31524417 2:0.25377297 3:0.43355498 4:0.20953952 5:0.38490018 6:0.14484136 7:0.3253957 8:0.10259784 9:0.25 10:0.054799661 11:0.44388801 12:0.38575837 13:0.22404481 14:0.48933202 15:0.68258494 16:0.39613348  |BV| 1:0.15289415 2:0.13798682 3:0.2503131 4:0.11704115 5:0.21821789 6:0.094820932 7:0.18090682 8:0.06666667 9:0.13608275 10:0.035333261 11:0.56536031 12:0.4959183 13:0.28377539 14:0.61760461 15:0.62371582 16:0.40678903  |EV| 
0.79956572838336747999221643112833  |BT| (ROOT (S (NP (WP (what)))(VP (VBZ (be)))(REL-FOCUS-ENTY-NP (DT (the))(REL-JJ (democratic))(REL-NN (party))(REL-NN (symbol))))) |BT| (ROOT (S (REL-FOCUS-ENTY-NP (REL-JJ (democratic))(REL-NNP (party))))(S (REL-NP (PRP$ (its))(REL-NN (symbol)))(VP (VBZ (be)))(NP (DT (a))(NN (donkey))))) |BT| (ROOT (S (NP (WP (what)))(VP (VBZ (be)))(REL-FOCUS-ENTY-NP (DT (the))(JJ (democratic))(REL-NN (party))(REL-NN (symbol))))) |BT| (ROOT (S (CONJP (RB (instead))(IN (of)))(VP (VBG (stamp)))(REL-FOCUS-ENTY-NP (DT (the))(NNP (congress))(REL-NNP (party))(REL-NN (symbol)))(PP (IN (of)))(NP (DT (a))(VBN (raise))(NN (hand)))(VP (VBD (choose)))(NP (DT (the))(NN (elephant)))(REL-NP (REL-NN (symbol)))(PP (IN (of)))(REL-FOCUS-ENTY-NP (DT (the))(NNP (bahujan))(NNP (samaj))(REL-NNP (party)))(NP (NNP (hindi)))(PP (IN (for)))(REL-FOCUS-ENTY-NP (NNP (majority))(NNP (society))(REL-NNP (party))))) |ET| 1:0.34188172 2:0.19088542 3:0.33806169 4:0.13867505 5:0.27216554 11:0.46483484 12:0.38507703 13:0.11268723 14:0.79167843 15:0.61076063 16:0.28620309  |BV| 1:0.2362278 2:0.14080317 3:0.14322297 4:0.10457597 5:0.11215443 11:0.18421657 12:0.15915318 14:0.51033354 15:0.40637177 16:0.20278782  |EV| 
0.13825088995646547807005788399692  |BT| (ROOT (S (REL-FOCUS-ENTY-NP (DT (the))(REL-NN (duomo))))) |BT| (ROOT (S (PP (IN (beneath)))(NP (NNP (florence)))(REL-NP (POS ('s))(REL-NNP (duomo))(NN (cathedral))))) |BT| (ROOT (S (REL-FOCUS-ENTY-NP (DT (the))(REL-NN (duomo))))) |BT| (ROOT (S (NP (DT (a))(NN (grave)))(PP (IN (of)))(REL-FOCUS-ENTY-NP (DT (the))(NNP (church)))(REL-FOCUS-ENTY-PP (IN (of)))(REL-FOCUS-ENTY-NP (NNP (santa))(NNP (reparata)))(NP (WDT (which)))(VP (VBD (be))(RB (later))(VBN (replace)))(PP (IN (by)))(REL-NP (DT (the))(REL-NNP (duomo))(NN (cathedral))))) |ET| 1:0.094491117 2:0.051917411 4:0.03798686 11:0.31927544 12:0.27524093 13:0.096225038 14:0.5501827 15:0.21372329 16:0.18442374  |BV| 1:0.1754116 2:0.10997148 4:0.085183538 11:0.26387969 12:0.23758365 13:0.1067521 14:0.45708349 15:0.38471651 16:0.14833544  |EV| 
0.025186398062934434172177589061903  |BT| (ROOT (S (ADVP (WRB (when)))(REL-FOCUS-NUM-NP (REL-NNP (marian))(REL-NNP (anderson)))(VP (VBP (sing)))(PP (IN (at)))(REL-NP (DT (the))(REL-NNP (lincoln))(REL-NNP (memorial))))) |BT| (ROOT (S (REL-FOCUS-NUM-NP (CD (1939)))(NP (NNP (denied)))(PP (IN (because))(IN (of)))(PP (IN (of)))(NP (DT (the))(NNP (american))(NNP (revolution)))(REL-NP (JJ (african-american))(NN (contralto))(REL-NNP (marian))(REL-NNP (anderson)))(CONJP (RB (instead)))(VP (VBZ (appear)))(NP (DT (the))(NNS (step)))(PP (IN (of)))(REL-NP (DT (the))(REL-NNP (lincoln))(REL-NNP (memorial)))(PP (IN (before)))(NP (DT (a))(NN (crowd))))(S (PP (IN (in)))(REL-FOCUS-NUM-NP (CD (1955)))(NP (PRP (she)))(VP (MD (will))(VB (become))))) |BT| (ROOT (S (ADVP (WRB (when)))(REL-FOCUS-NUM-NP (REL-NNP (marian))(REL-NNP (anderson)))(REL-VP (REL-VBP (sing)))(PP (IN (at)))(REL-NP (DT (the))(REL-NNP (lincoln))(REL-NNP (memorial))))) |BT| (ROOT (S (NP (DT (the))(NN (recital)))(PP (IN (of)))(REL-NP (REL-NNP (marian))(REL-NNP (anderson)))(NP (DT (the))(JJ (black))(NN (contralto)))(PP (IN (at)))(REL-NP (DT (the))(REL-NNP (lincoln))(REL-NNP (memorial)))(PP (IN (after)))(NP (DT (the))(NNP (daughters)))(VP (VBD (have))(VBN (deny)))(NP (PRP$ (she))(NN (permission)))(REL-VP (TO (to))(REL-VB (sing)))(PP (IN (in)))(NP (NNP (constitution))(NNP (hall))))) |ET| 1:0.29190254 2:0.23644745 3:0.25607377 4:0.18641965 5:0.18359701 6:0.10285802 7:0.10012523 8:0.071283244 9:0.072739303 10:0.02238868 11:0.594845 12:0.54619199 13:0.35359398 14:0.69372642 15:0.51973879 16:0.29921037  |BV| 1:0.30942637 2:0.24253564 3:0.23691411 4:0.19959308 5:0.17078251 6:0.11000382 7:0.081044093 8:0.088444769 9:0.058696728 10:0.05889149 11:0.63573128 12:0.57334131 13:0.33869493 14:0.62652087 15:0.52970827 16:0.29674476  |EV| 
-0.79956572838336747999221643112833  |BT| (ROOT (S (NP (WP (what)))(VP (VBZ (be)))(REL-FOCUS-ENTY-NP (DT (the))(JJ (scientific))(NN (name)))(PP (IN (for)))(REL-NP (REL-JJ (red))(REL-NNS (ant))))) |BT| (ROOT (S (REL-NP (REL-NNP (red))(REL-NNP (ant))))) |BT| (ROOT (S (NP (WP (what)))(VP (VBZ (be)))(REL-FOCUS-ENTY-NP (DT (the))(JJ (scientific))(NN (name)))(PP (IN (for)))(REL-NP (REL-JJ (red))(REL-NNS (ant))))) |BT| (ROOT (S (VP (VBP (have))(VBN (be))(VBN (sting)))(PP (IN (by)))(REL-NP (DT (any))(REL-JJ (ant))(NNS (chance)))(VP (VBP (be)))(NP (PRP (it)))(VP (VBD (be)))(NP (DT (a))(NNP (solenopsis))(NN (invicta)))(REL-NP (DT (the))(REL-JJ (red))(VBN (import))(NN (fire))(REL-NN (ant)))(VP (VBZ (say)))(NP (NNP (bart))(NNP (drees)))(NP (NN (coordinator)))(PP (IN (of)))(REL-FOCUS-ENTY-NP (DT (the))(NNP (texas))(NNP (imported))(NNP (fire))(REL-NNP (ant))(NNP (research))(CC (and))(NNP (management))(NNP (project)))(PP (IN (at)))(REL-FOCUS-ENTY-NP (NNP (texas))(NNP (a&amp;m))(NNP (university))))) |ET| 11:0.16574839 12:0.13975425 13:0.048795 14:0.43858236 15:0.26233608 16:0.25498095  |BV| 1:0.32102895 2:0.18093251 3:0.19569843 4:0.12991396 5:0.1496264 11:0.21002924 12:0.1801585 13:0.045722999 14:0.52957416 15:0.41540998 16:0.22839105  |EV| 
-0.79956572838336747999221643112833  |BT| (ROOT (S (REL-NP (WP (what))(REL-NN (galaxy)))(VP (VBZ (be)))(ADJP (JJS (closest)))(PP (TO (to)))(REL-FOCUS-ENTY-NP (DT (the))(REL-JJ (milky))(NN (way))))) |BT| (ROOT (S (REL-NP (DT (the))(REL-NNP (milky))(NNP (way)))(VP (VBZ (be)))(NP (DT (a))(JJ (cannibal))))(S (NP (PRP (it)))(VP (VBZ (consume)))(REL-NP (JJ (other))(REL-NNS (galaxy)))(VP (VBZ (make)))(NP (PRP$ (they))(NNS (star))))) |BT| (ROOT (S (NP (WP (what))(NN (galaxy)))(VP (VBZ (be)))(ADJP (JJS (closest)))(PP (TO (to)))(REL-FOCUS-ENTY-NP (DT (the))(REL-JJ (milky))(NN (way))))) |BT| (ROOT (S (PP (IN (of)))(NP (DT (the))(NNP (andromeda)))(REL-NP (REL-NNP (milky))(NNP (way))(NNP (galaxies))))) |ET| 1:0.2236068 2:0.11961783 3:0.13483997 4:0.084115818 5:0.10540926 11:0.24910095 12:0.20497289 13:0.03086067 14:0.55409074 15:0.40469289 16:0.38423097  |BV| 1:0.11111111 2:0.05882353 4:0.041666672 11:0.057831489 12:0.04902903 14:0.32690158 15:0.26880273 16:0.40816799  |EV| 
-0.59036608858390471343824401628808  |BT| (ROOT (S (REL-FOCUS-HUM-NP (WP (what))(REL-NN (percent)))(PP (IN (of)))(NP (DT (the))(NNP (u.s.)))(VP (VBZ (be)))(NP (JJ (african))(NNP (american))))) |BT| (ROOT (S (VP (VBP (be)))(NP (NN (minority)))(REL-NP (CD (50))(REL-NN (percent)))(VP (VBP (be)))(NP (NNP (latino)))(REL-NP (CD (45))(REL-NN (percent)))(VP (VBP (be)))(ADJP (JJ (african-american))))) |BT| (ROOT (S (REL-FOCUS-HUM-NP (WP (what))(REL-NN (percent)))(PP (IN (of)))(NP (DT (the))(NNP (u.s.)))(VP (VBZ (be)))(NP (JJ (african))(NNP (american))))) |BT| (ROOT (S (REL-NP (JJR (more))(IN (than))(CD (40))(REL-NN (percent)))(PP (IN (of)))(NP (CD (100,000))(NNS (child)))(VP (VBP (make)))(PRT (RP (up)))(REL-NP (RB (only))(CD (12))(REL-NN (percent)))(PP (IN (of)))(NP (DT (the))(NN (population))))) |ET| 1:0.35533452 2:0.19936305 3:0.19518001 4:0.14580296 5:0.1490712 11:0.17872502 12:0.147902 14:0.57021219 15:0.39684063 16:0.2194165  |BV| 1:0.39440531 2:0.30082843 3:0.13576885 4:0.23409554 5:0.10050378 6:0.13679712 8:0.0958101 10:0.038096972 11:0.42949221 12:0.37099925 13:0.22156671 14:0.68813491 15:0.44112656 16:0.22165115  |EV| 
0.79956572838336747999221643112833  |BT| (ROOT (S (NP (WP (who)))(VP (VBD (be)))(REL-FOCUS-HUM-NP (DT (the))(JJ (first))(REL-NN (woman)))(REL-VP (TO (to))(REL-VB (run)))(PP (IN (for)))(NP (NN (president))))) |BT| (ROOT (S (REL-FOCUS-HUM-NP (NNP (ella))(NNP (pamfilova)))(REL-NP (DT (the))(JJ (first))(REL-NN (woman)))(REL-VP (TO (to))(REL-VB (run)))(PP (IN (for)))(NP (DT (the))(NN (presidency))))) |BT| (ROOT (S (NP (WP (who)))(VP (VBD (be)))(REL-FOCUS-HUM-NP (DT (the))(JJ (first))(REL-NN (woman)))(REL-VP (TO (to))(REL-VB (run)))(PP (IN (for)))(REL-NP (REL-NN (president))))) |BT| (ROOT (S (REL-FOCUS-HUM-NP (NNP (washington))(NNP (elizabeth))(NNP (dole)))(VP (VBD (end)))(NP (PRP (she)))(REL-VP (REL-VB (run)))(PP (IN (for)))(NP (DT (the))(NNP (white))(NNP (house)))(VP (VBD (need))(TO (to))(VB (become)))(NP (DT (the))(NN (nation)))(REL-NP (POS ('s))(JJ (first))(REL-NN (woman))(REL-NN (president))))) |ET| 1:0.50596446 2:0.45481244 3:0.3721042 4:0.42236841 5:0.28867513 6:0.36896402 7:0.17407766 8:0.34299716 9:0.1490712 10:0.3146266 11:0.60647845 12:0.55119818 13:0.4114756 14:0.77527905 15:0.64747715 16:0.25352997  |BV| 1:0.44447833 2:0.30380249 3:0.25819889 4:0.21606041 5:0.19611613 6:0.065406993 8:0.045360919 11:0.36813757 12:0.30795658 13:0.080451801 14:0.75184608 15:0.57743984 16:0.22268952  |EV| 
-0.42559561711356336255462906592584  |BT| (ROOT (S (NP (WP (what)))(VP (VBZ (be)))(REL-FOCUS-DESC-NP (DT (the))(REL-NN (motto)))(PP (IN (of)))(REL-NP (DT (the))(NNP (new))(REL-NNP (york))(NNP (times))))) |BT| (ROOT (S (NP (PRP$ (we))(JJ (recent))(NN (discussion)))(PP (IN (of)))(REL-NP (JJ (one-word))(NN (state))(REL-NNS (motto)))(VP (VBD (bring)))(NP (DT (this))(NN (comment)))(VP (VBD (guess)))(SBAR (IN (that)))(REL-NP (DT (either))(NNP (new))(REL-NNP (york)))(NP (NNP (new))(NNP (jersey)))(VP (MD (would))(VB (have)))(NP (JJ (four-letter))(NNS (word)))(PP (IN (as)))(REL-NP (REL-NNS (motto))))(S (ADVP (RB (actually)))(VP (VBP (have)))(REL-NP (JJ (four-letter))(REL-NNS (motto)))(VP (VBP (be)))(NP (NNP (rhode))(NNP (island))(NNP (hope))(CC (and))(NNP (washington))(NNP (al-ki))))) |BT| (ROOT (S (NP (WP (what)))(VP (VBZ (be)))(REL-FOCUS-DESC-NP (DT (the))(REL-NN (motto)))(PP (IN (of)))(REL-NP (DT (the))(NNP (new))(REL-NNP (york))(REL-NNP (times))))) |BT| (ROOT (S (NP (DT (a))(NN (insult)))(PP (TO (to)))(REL-NP (DT (the))(REL-NN (motto)))(VP (VBN (cherish)))(PP (IN (by)))(REL-NP (DT (the))(NNP (new))(REL-NNP (york))(REL-NNP (times)))(NP (WDT (which)))(VP (VBZ (say))))) |ET| 1:0.30579641 2:0.19968078 3:0.20936957 4:0.14632928 5:0.16169041 6:0.01764187 8:0.01211787 11:0.47938105 12:0.41130036 13:0.15260725 14:0.70197165 15:0.48523453 16:0.22823688  |BV| 1:0.46625239 2:0.33270499 3:0.26666668 4:0.2568351 5:0.20254786 6:0.079351962 7:0.090166964 8:0.054584939 9:0.074535601 10:0.02120949 11:0.51349914 12:0.43972713 13:0.21501832 14:0.72024989 15:0.7360245 16:0.24100509  |EV| 
0.51664244715472906754882842506049  |BT| (ROOT (S (ADVP (WRB (where)))(VP (VBZ (be)))(NP (NNP (devil)))(REL-FOCUS-LOC-NP (POS ('s))(REL-NNP (tower))))) |BT| (ROOT (S (REL-NP (NNP (devils))(REL-NNP (tower)))(PP (IN (in)))(REL-FOCUS-LOC-NP (JJ (northeastern))(NNP (wyoming)))(VP (VBD (become)))(NP (DT (the))(JJ (first))(JJ (national))(NN (monument))))) |BT| (ROOT (S (ADVP (WRB (where)))(VP (VBZ (be)))(NP (NNP (devil)))(REL-FOCUS-LOC-NP (POS ('s))(REL-NNP (tower))))) |BT| (ROOT (S (PP (IN (by)))(VP (VBG (name)))(REL-NP (NNP (devils))(REL-NNP (tower)))(REL-FOCUS-LOC-NP (NNP (wyo))))) |ET| 1:0.060192931 2:0.03392268 3:0.071611486 4:0.02450715 5:0.05455447 11:0.33657131 12:0.2912176 13:0.0270369 14:0.55759859 15:0.31210712 16:0.17482774  |BV| 1:0.1132277 2:0.060302269 3:0.12403473 4:0.043033149 5:0.096225038 11:0.29250896 12:0.24343225 13:0.05025189 14:0.5548926 15:0.3753649 16:0.24147081  |EV| 
-0.79956572838336747999221643112833  |BT| (ROOT (S (REL-NP (WRB (how))(JJ (many))(REL-NNS (stomach)))(VP (VBZ (do)))(REL-FOCUS-NUM-NP (DT (a))(REL-NN (cow)))(VP (VBP (have))))) |BT| (ROOT (S (NP (NNS (autopsy)))(PP (IN (of)))(REL-NP (REL-NNS (cow)))(PP (IN (in)))(NP (DT (the))(NN (capital)))(VP (VBP (have))(VBN (find)))(REL-NP (PRP$ (they))(REL-NNS (stomach)))(VP (VBN (stuff)))(PP (IN (with))))) |BT| (ROOT (S (REL-NP (WRB (how))(JJ (many))(REL-NNS (stomach)))(VP (VBZ (do)))(REL-FOCUS-NUM-NP (DT (a))(REL-NN (cow)))(VP (VBP (have))))) |BT| (ROOT (S (REL-NP (REL-NNS (cow)))(VP (VBP (have)))(REL-NP (CD (four))(REL-NNS (stomach)))(NP (PRP (you)))(VP (VBP (know))))(S (NP (PRP (it)))(VP (VBZ (take)))(REL-NP (CD (four))(REL-NNS (stomach)))(REL-VP (TO (to))(REL-VB (stomach)))(NP (NNP (bahia))))) |ET| 1:0.24282147 2:0.13386989 3:0.18490008 4:0.094967149 5:0.15294382 11:0.3574073 12:0.29942474 13:0.062745579 14:0.60810977 15:0.38450915 16:0.19360426  |BV| 1:0.30316952 2:0.20519567 3:0.52981293 4:0.14920942 5:0.47140452 6:0.042295489 8:0.02993422 11:0.22875451 12:0.1869894 14:0.64058363 15:0.51823562 16:0.30314881  |EV| 
-0.79956572838336747999221643112833  |BT| (ROOT (S (ADVP (WRB (when)))(VP (VBD (be)))(REL-FOCUS-NUM-NP (DT (the))(REL-NNP (hellenistic))(NNP (age))))) |BT| (ROOT (S (REL-NP (DT (a))(REL-NNP (hellenistic))(NN (bronze))(NN (sculpture)))(PP (IN (of)))(NP (NNP (alexander)))(VP (VBD (sell)))(PP (IN (for)))(REL-FOCUS-NUM-NP (CD (244,500)))(ADVP (JJR (more)))(PP (IN (than))))) |BT| (ROOT (S (ADVP (WRB (when)))(VP (VBD (be)))(REL-FOCUS-NUM-NP (DT (the))(REL-NNP (hellenistic))(NNP (age))))) |BT| (ROOT (S (VP (VBG (date)))(PP (TO (to)))(REL-NP (DT (the))(REL-JJ (hellenistic))(NN (period)))(NP (CD (323-58))(NN (b.c.))))) |ET| 1:0.29925281 2:0.17825277 3:0.10721125 4:0.13284223 5:0.089087076 11:0.32342157 12:0.2806243 13:0.078086883 14:0.47538725 15:0.3107129 16:0.17115127  |BV| 1:0.3227486 2:0.18417737 4:0.13386989 11:0.26242441 12:0.2205644 13:0.03187884 14:0.49986103 15:0.25678131 16:0.17512196  |EV| 
0.79956572838336747999221643112833  |BT| (ROOT (S (NP (WP (what)))(VP (VBZ (be)))(REL-FOCUS-ENTY-NP (DT (the))(REL-NN (currency)))(VP (VBN (use)))(PP (IN (in)))(REL-NP (REL-NNP (china))))) |BT| (ROOT (S (NP (PRP (he)))(VP (VBD (say)))(REL-NP (REL-NN (currency))(NNS (devaluation)))(PP (IN (in)))(NP (JJ (southeast))(JJ (asian))(NNS (country)))(VP (VBD (have))(VBN (weaken)))(REL-NP (REL-NNP (china)))(NP (POS ('s))(NN (export))(NN (competitiveness)))(VP (VBD (stress)))(REL-NP (REL-NNP (china)))(VP (MD (would))(RB (not))(VB (devalue)))(REL-NP (PRP$ (its))(REL-NN (currency)))(NP (DT (the))(NN (yuan))))) |BT| (ROOT (S (NP (WP (what)))(VP (VBZ (be)))(REL-FOCUS-ENTY-NP (DT (the))(REL-NN (currency)))(VP (VBN (use)))(PP (IN (in)))(REL-NP (REL-NNP (china))))) |BT| (ROOT (S (REL-NP (NNP (deposit))(CC (and))(REL-NNP (currency)))(PP (IN (in)))(NP (NNP (circulation)))(PP (IN (up)))(PP (IN (in)))(REL-NP (REL-NNP (china))))) |ET| 1:0.36927447 2:0.20168778 3:0.40201512 4:0.14285713 5:0.34050262 11:0.24525574 12:0.20033418 13:0.02686077 14:0.71295303 15:0.54851627 16:0.17414717  |BV| 1:0.33541021 2:0.25048971 3:0.21821789 4:0.1820063 5:0.19245009 6:0.07692308 8:0.05555556 11:0.29950124 12:0.25476232 13:0.10050378 14:0.5855037 15:0.5001691 16:0.17343429  |EV| 
0.79956572838336747999221643112833  |BT| (ROOT (S (NP (WP (what)))(VP (VBZ (be)))(REL-FOCUS-ENTY-NP (DT (the))(REL-NN (currency)))(VP (VBN (use)))(PP (IN (in)))(REL-NP (REL-NNP (china))))) |BT| (ROOT (S (SBAR (RB (particularly)))(SBAR (IN (if)))(REL-NP (REL-NNP (china)))(VP (VBZ (devalue)))(REL-NP (PRP$ (its))(REL-NN (currency)))(NP (DT (the))(NN (yuan)))(VP (TO (to))(VB (survive)))(REL-NP (DT (the))(REL-NN (currency))(NN (shock))))) |BT| (ROOT (S (NP (WP (what)))(VP (VBZ (be)))(REL-FOCUS-ENTY-NP (DT (the))(REL-NN (currency)))(VP (VBN (use)))(PP (IN (in)))(REL-NP (REL-NNP (china))))) |BT| (ROOT (S (REL-NP (NNP (deposit))(CC (and))(REL-NNP (currency)))(PP (IN (in)))(NP (NNP (circulation)))(PP (IN (up)))(PP (IN (in)))(REL-NP (REL-NNP (china))))) |ET| 1:0.41247895 2:0.26447183 3:0.37796447 4:0.18935242 5:0.32163376 6:0.039621439 8:0.02777778 11:0.36313653 12:0.29834709 13:0.1067521 14:0.75881058 15:0.52185386 16:0.17078717  |BV| 1:0.33541021 2:0.25048971 3:0.21821789 4:0.1820063 5:0.19245009 6:0.07692308 8:0.05555556 11:0.29950124 12:0.25476232 13:0.10050378 14:0.5855037 15:0.5001691 16:0.17343429  |EV| 
0.79956572838336747999221643112833  |BT| (ROOT (S (NP (WP (what)))(VP (VBP (be)))(REL-FOCUS-ENTY-NP (REL-NNS (penny)))(REL-VP (REL-VBN (make)))(PP (IN (of))))) |BT| (ROOT (S (VP (VBD (think)))(NP (PRP (she)))(REL-VP (MD (could))(VB (have))(REL-VBN (make)))(NP (PRP (it)))(SBAR (IN (if)))(NP (PRP (she)))(VP (TO (to))(VB (dye)))(REL-NP (PRP$ (she))(NN (hair))(NN (copper))(REL-NN (penny))(NN (red))))) |BT| (ROOT (S (NP (WP (what)))(VP (VBP (be)))(REL-FOCUS-ENTY-NP (REL-NNS (penny)))(REL-VP (REL-VBN (make)))(PP (IN (of))))) |BT| (ROOT (S (NP (NN (plenty)))(PP (IN (of)))(REL-NP (REL-NNS (penny)))(PP (IN (around)))(NP (CD (312))(CD (billion)))(REL-VP (VBP (have))(VBN (be))(REL-VBN (make)))(PP (IN (by)))(NP (DT (the))(NNP (u.s.))(NNP (mint))))(S (PRT (RP (out)))(PP (TO (to)))(REL-NP (CD (426))(REL-NNS (penny)))(PP (IN (for)))(NP (DT (every))(NN (man))(NN (woman))(CC (and))(NN (child))))) |ET| 1:0.13245323 2:0.077209137 3:0.28005603 4:0.05668202 5:0.23570226 11:0.089554727 12:0.07548514 14:0.44358695 15:0.31679487 16:0.18630829  |BV| 1:0.37851664 2:0.21429688 3:0.29277003 4:0.1549826 5:0.24743582 11:0.28333333 12:0.24032021 13:0.02541643 14:0.65779102 15:0.48705792 16:0.20217748  |EV| 
0.79956572838336747999221643112833  |BT| (ROOT (S (REL-FOCUS-HUM-NP (WP (what))(REL-NN (band)))(VP (VBD (be)))(REL-NP (REL-NNP (jerry))(REL-NNP (garcia)))(PP (IN (with))))) |BT| (ROOT (S (VP (VBD (tour)))(PP (IN (with)))(REL-FOCUS-HUM-NP (DT (the))(REL-NNP (jerry))(REL-NNP (garcia))(NNP (acoustic))(REL-NNP (band))))) |BT| (ROOT (S (REL-FOCUS-HUM-NP (WP (what))(REL-NN (band)))(VP (VBD (be)))(REL-NP (REL-NNP (jerry))(REL-NNP (garcia)))(PP (IN (with))))) |BT| (ROOT (S (NP (DT (the))(JJ (cultlike))(NNS (follower)))(PP (IN (of)))(REL-NP (DT (the))(REL-NN (band)))(VP (VBP (be))(VBN (know))))(S (PP (IN (in)))(VP (VBG (have))(VBN (introduce)))(REL-FOCUS-HUM-NP (REL-NNP (jerry))(REL-NNP (garcia)))(REL-NP (DT (the))(REL-NN (band)))(NP (POS ('s))(NN (founder)))(NP (WP (who)))(VP (TO (to))(VB (have))(VBN (hear)))(PP (IN (of)))(REL-NP (REL-NNP (garcia))))) |ET| 1:0.31448546 2:0.22188008 3:0.40451992 4:0.15713485 5:0.31622776 6:0.062869459 7:0.19245009 8:0.044946659 9:0.16666667 11:0.44041517 12:0.37130532 13:0.12097168 14:0.72579002 15:0.60104614 16:0.35406286  |BV| 1:0.20786984 2:0.16146258 3:0.31844693 4:0.12107015 5:0.24373335 6:0.05007831 7:0.073922127 8:0.035466351 9:0.06085806 11:0.37870124 12:0.32828534 13:0.031544011 14:0.6407972 15:0.53012311 16:0.25283137  |EV| 
-0.15530730054585620281137892106926  |BT| (ROOT (S (REL-FOCUS-HUM-NP (WP (what))(NN (company)))(VP (VBZ (manufacture)))(REL-NP (REL-NNP (van))(REL-NNP (heusen))(REL-NNS (shirt))))) |BT| (ROOT (S (NP (DT (the))(NN (manufacturer)))(PP (IN (of)))(REL-FOCUS-HUM-NP (REL-NNP (van))(REL-NNP (heusen))(NN (brand))(REL-NNS (shirt)))(NP (JJ (other))(NNS (man)))(NP (POS ('s))(NN (wear))))) |BT| (ROOT (S (REL-FOCUS-HUM-NP (WP (what))(NN (company)))(VP (VBZ (manufacture)))(REL-NP (REL-NNP (van))(REL-NNP (heusen))(REL-NNS (shirt))))) |BT| (ROOT (S (REL-FOCUS-HUM-NP (REL-NNP (van))(REL-NNP (heusen)))(VP (VBZ (be))(VBG (do)))(NP (PRP (it)))(PP (IN (for)))(NP (NNP (regis)))(REL-FOCUS-HUM-NP (NNP (gellers)))(VP (VBD (add)))(VP (VBG (speak)))(PP (IN (of)))(NP (DT (the))(NN (nation)))(REL-NP (POS ('s))(NN (no.))(CD (1))(NN (dress))(REL-NN (shirt))(NN (manufacturer)))(REL-FOCUS-HUM-NP (NNP (phillips-van))(REL-NNP (heusen)))(NP (PRP$ (its))(NN (signature))(NN (collection)))(PP (IN (with))))) |ET| 1:0.1300665 2:0.10003126 3:0.18670401 4:0.072523773 5:0.13423121 6:0.03126527 7:0.055131782 8:0.021979351 9:0.040128618 11:0.29101261 12:0.25080386 13:0.01980295 14:0.51836842 15:0.36770695 16:0.34178546  |BV| 1:0.14414999 2:0.10604746 3:0.20361574 4:0.077878222 5:0.14967109 6:0.027639501 7:0.050964721 8:0.019574011 9:0.0372678 11:0.37013766 12:0.32042706 13:0.050421949 14:0.62541115 15:0.38461754 16:0.42339799  |EV| 
-0.52248558610282802572299942767131  |BT| (ROOT (S (NP (WP (what)))(VP (VBZ (be)))(REL-FOCUS-ENTY-NP (DT (the))(NN (name)))(PP (IN (of)))(REL-NP (REL-NNP (ling))(REL-NNP (ling)))(NP (POS ('s))(NN (mate))))) |BT| (ROOT (S (NP (DT (the))(NN (mascot)))(VP (VBZ (be))(VBN (name)))(REL-NP (REL-NNP (ling))(REL-NNP (ling))))(S (NP (DT (the))(NN (nimbleness))(NN (smartness))(NN (liveliness))(CC (and))(NN (loveliness)))(VP (VBD (say)))(REL-FOCUS-ENTY-NP (NNP (ms))(NNP (tang))(NNP (huaiyu)))(NP (WP (who)))(VP (VBD (give))))) |BT| (ROOT (S (NP (WP (what)))(VP (VBZ (be)))(REL-FOCUS-ENTY-NP (DT (the))(NN (name)))(PP (IN (of)))(NP (NNP (ling))(NNP (ling)))(REL-NP (POS ('s))(REL-NN (mate))))) |BT| (ROOT (S (NP (DT (the))(JJ (severe))(NN (difficulty)))(PP (IN (of)))(REL-VP (REL-VBG (mate)))(NP (NNS (panda)))(PP (IN (in))))) |ET| 1:0.40614572 2:0.30481997 3:0.22075538 4:0.23077095 5:0.16961338 6:0.0684475 7:0.06666667 8:0.047529321 9:0.05025189 11:0.560404 12:0.49104214 13:0.24431364 14:0.73468846 15:0.62269759 16:0.22212586  |BV| 1:0.2773501 2:0.15538619 3:0.064150028 4:0.11031947 5:0.048280451 11:0.32308769 12:0.26995277 13:0.12186667 14:0.64893061 15:0.44349399 16:0.26838368  |EV| 
-0.79956572838336747999221643112833  |BT| (ROOT (S (ADVP (WRB (how)))(REL-FOCUS-NUM-NP (JJ (many))(REL-NN (home))(REL-NNS (run)))(VP (VBD (do)))(REL-NP (NNP (henry))(REL-NNP (hank))(REL-NNP (aaron)))(REL-VP (REL-VBD (hit)))(PP (IN (in)))(REL-NP (PRP$ (he))(REL-JJ (major))(REL-NN (league))(NN (career))))) |BT| (ROOT (S (NP (NNP (atlanta))(NNP (ap)))(REL-NP (REL-JJ (major))(REL-NN (league))(NN (baseball)))(ADVP (RB (finally)))(VP (VBD (pay)))(NP (NN (tribute)))(PP (TO (to)))(REL-NP (REL-NNP (hank))(REL-NNP (aaron)))(NP (CD (25))(NNS (year)))(SBAR (IN (after)))(NP (PRP (he)))(REL-VP (REL-VBD (hit)))(REL-NP (REL-NN (home))(REL-NN (run))(NN (no.))(CD (715)))(VP (VBD (break)))(NP (NNP (babe))(NNP (ruth))))) |BT| (ROOT (S (ADVP (WRB (how)))(REL-FOCUS-NUM-NP (JJ (many))(REL-NN (home))(REL-NNS (run)))(VP (VBD (do)))(REL-NP (NNP (henry))(REL-NNP (hank))(REL-NNP (aaron)))(REL-VP (REL-VBD (hit)))(PP (IN (in)))(NP (PRP$ (he))(JJ (major))(NN (league))(NN (career))))) |BT| (ROOT (S (PP (IN (in)))(REL-FOCUS-NUM-NP (CD (1954)))(REL-NP (REL-NNP (hank))(REL-NNP (aaron)))(PP (IN (of)))(NP (DT (the))(NNP (milwaukee))(NNP (braves)))(REL-VP (REL-VBD (hit)))(NP (DT (the))(JJ (first)))(PP (IN (of)))(NP (PRP$ (he))(NN (record)))(PP (IN (755)))(REL-NP (JJ (major-league))(REL-NN (home))(REL-NNS (run)))(PP (IN (in)))(NP (DT (a))(NN (game))))) |ET| 1:0.32963425 2:0.21642183 3:0.36986336 4:0.1490712 5:0.25717226 6:0.046765242 7:0.12097168 8:0.03196422 9:0.08451543 11:0.53213251 12:0.44962591 13:0.11848277 14:0.78003252 15:0.53370225 16:0.46244127  |BV| 1:0.23308662 2:0.15446234 3:0.27910829 4:0.11120437 5:0.19627026 6:0.021621941 7:0.089893311 8:0.01476025 9:0.062994078 11:0.4470807 12:0.38210854 13:0.09024936 14:0.68112701 15:0.56645846 16:0.45282778  |EV| 
-0.58170695288872642514377275801962  |BT| (ROOT (S (ADVP (WRB (where)))(VP (VBD (be)))(REL-FOCUS-LOC-NP (DT (the))(REL-NN (battle)))(PP (IN (of)))(NP (NNP (alamo)))(REL-VP (REL-VBD (fight))))) |BT| (ROOT (S (PP (IN (with)))(REL-NP (JJ (armed))(REL-NNS (battle)))(REL-VP (REL-VBN (fight)))(PP (IN (on)))(NP (NN (land))))(S (NP (NNS (people)))(NP (WP (who)))(REL-VP (REL-VBD (fight)))(VP (VBD (die)))(VP (VBP (be))(VBN (bury))))(S (PP (IN (with)))(REL-NP (JJ (naval))(REL-NNS (battle)))(PP (IN (by)))(NP (PRP$ (they))(JJ (very))(NN (nature))))) |BT| (ROOT (S (ADVP (WRB (where)))(VP (VBD (be)))(REL-FOCUS-LOC-NP (DT (the))(REL-NN (battle)))(PP (IN (of)))(REL-NP (REL-NNP (alamo)))(VP (VBD (fight))))) |BT| (ROOT (S (PP (IN (after)))(REL-NP (DT (the))(REL-NNP (alamo))(REL-NN (battle)))(NP (DT (the))(NN (struggle)))(VP (VBD (shift))))) |ET| 1:0.30906126 2:0.18090682 3:0.32128772 4:0.13271219 5:0.24902911 11:0.31549665 12:0.26166895 13:0.070666529 14:0.66700947 15:0.47924325 16:0.22574627  |BV| 1:0.44194174 2:0.23973165 3:0.26967993 4:0.17039955 5:0.21081851 11:0.40098321 12:0.3307189 13:0.07647191 14:0.71129346 15:0.61145842 16:0.24559616  |EV| 
0.79956572838336747999221643112833  |BT| (ROOT (S (REL-FOCUS-LOC-NP (WP (what))(REL-NN (country)))(VP (VBZ (produce)))(REL-NP (DT (the))(RBS (most))(REL-NN (silk))))) |BT| (ROOT (S (NP (NNP (suzhou)))(VP (VBZ (be)))(REL-FOCUS-LOC-NP (NNP (china)))(REL-NP (POS ('s))(JJS (largest))(REL-NN (silk))(NN (producer)))(PP (IN (with)))(NP (PRP$ (its))(JJ (annual))(NN (output))(NN (accounting)))(NP (CD (one))(JJ (sixth)))(PP (IN (of)))(REL-NP (DT (the))(REL-NN (country)))(NP (POS ('s))(NN (total))))) |BT| (ROOT (S (REL-FOCUS-LOC-NP (WP (what))(REL-NN (country)))(REL-VP (REL-VBZ (produce)))(REL-NP (DT (the))(RBS (most))(REL-NN (silk))))) |BT| (ROOT (S (VP (VBZ (be)))(ADVP (RB (also)))(REL-NP (DT (the))(VBG (lead))(REL-NN (silk))(REL-VBG (produce))(NN (base)))(PP (IN (of)))(REL-NP (DT (the))(REL-NN (country))))(S (NP (DT (the))(NN (province)))(NP (POS ('s))(NN (garment))(NNS (factory)))(REL-VP (REL-VBP (produce)))(REL-NP (REL-NN (silk))(NN (garment))))(S (VP (VBP (be))(VBN (sole)))(PP (TO (to)))(REL-NP (JJR (more))(IN (than))(CD (100))(REL-NNS (country))(CC (and))(NNS (region)))(PP (JJ (such))(IN (as)))(REL-FOCUS-LOC-NP (DT (the))(NNP (united))(NNP (states)))(REL-FOCUS-LOC-NP (NNP (japan)))(REL-FOCUS-LOC-NP (NNP (britain))(NNP (france))(CC (and))(NNP (italy))))) |ET| 1:0.23145501 2:0.12403473 3:0.1721326 4:0.087705798 5:0.13245323 11:0.34587017 12:0.29095718 13:0.03279129 14:0.60028702 15:0.34090945 16:0.24883348  |BV| 1:0.3798686 2:0.22422425 3:0.41464421 4:0.16583952 5:0.31950483 7:0.084215187 9:0.069504797 11:0.30641294 12:0.26083601 13:0.036980011 14:0.60379732 15:0.44227615 16:0.26354739  |EV| 
0.79956572838336747999221643112833  |BT| (ROOT (S (NP (WP (what)))(VP (VBD (be)))(REL-NP (REL-NNP (aaron))(REL-NNP (copland)))(NP (POS ('s)))(ADJP (RBS (most))(JJ (famous)))(REL-FOCUS-ENTY-NP (NN (piece)))(PP (IN (of)))(REL-NP (REL-NN (music))))) |BT| (ROOT (S (PP (IN (in)))(NP (CD (1944)))(REL-FOCUS-ENTY-NP (DT (the))(NNP (martha))(NNP (graham))(NN (ballet)))(NP (NNP (appalachian))(NNP (spring)))(PP (IN (with)))(REL-NP (REL-NN (music)))(PP (IN (by)))(REL-FOCUS-ENTY-NP (REL-NNP (aaron))(REL-NNP (copland)))(VP (VBD (premiere)))(PP (IN (at)))(REL-FOCUS-ENTY-NP (DT (the))(NNP (library)))(REL-FOCUS-ENTY-PP (IN (of)))(REL-FOCUS-ENTY-NP (NNP (congress)))(PP (IN (with)))(REL-FOCUS-ENTY-NP (NNP (graham)))(PP (IN (in)))(NP (DT (a))(JJ (leading))(NN (role))))) |BT| (ROOT (S (NP (WP (what)))(VP (VBD (be)))(REL-NP (REL-NNP (aaron))(REL-NNP (copland)))(NP (POS ('s)))(ADJP (RBS (most))(JJ (famous)))(REL-FOCUS-ENTY-NP (NN (piece)))(PP (IN (of)))(REL-NP (REL-NN (music))))) |BT| (ROOT (S (VP (VBP (be)))(PP (IN (into)))(REL-NP (JJ (classical))(REL-NN (music)))(NP (PRP (you)))(VP (VBP (have))(VBN (be))(VBG (listen)))(PP (TO (to)))(REL-FOCUS-ENTY-NP (REL-NNP (aaron))(REL-NNP (copland)))(NP (PRP$ (you))(NN (life))))) |ET| 1:0.1672484 2:0.11976263 3:0.21661215 4:0.085875668 5:0.15569979 6:0.02937367 7:0.064150028 8:0.02028602 9:0.046225019 11:0.4386093 12:0.37409008 13:0.1250798 14:0.68869501 15:0.43163842 16:0.32820475  |BV| 1:0.28490144 2:0.1909821 3:0.36363637 4:0.13587324 5:0.26666668 6:0.037715711 7:0.11111111 8:0.026189139 9:0.083333328 11:0.30969006 12:0.24958438 13:0.077151671 14:0.6723507 15:0.52105677 16:0.41743535  |EV| 
-0.69418401173170574125492748862598  |BT| (ROOT (S (NP (WP (what)))(VP (VBZ (be)))(REL-FOCUS-ENTY-NP (DT (the))(REL-NN (currency)))(VP (VBN (use)))(PP (IN (in)))(REL-NP (REL-NNP (china))))) |BT| (ROOT (S (REL-NP (NNP (deposit))(CC (and))(REL-NNP (currency)))(PP (IN (in)))(NP (NNP (circulation)))(PP (IN (up)))(PP (IN (in)))(REL-NP (REL-NNP (china))))) |BT| (ROOT (S (NP (WP (what)))(VP (VBZ (be)))(REL-FOCUS-ENTY-NP (DT (the))(REL-NN (currency)))(VP (VBN (use)))(PP (IN (in)))(REL-NP (REL-NNP (china))))) |BT| (ROOT (S (NP (NNP (stiglitz)))(VP (VBD (say)))(REL-NP (REL-NNP (china)))(NP (POS ('s))(NN (decision)))(VP (TO (to))(VB (devalue)))(REL-NP (PRP$ (its))(REL-NN (currency)))(NP (DT (the))(NN (yuan)))(VP (VBZ (have))(VBN (help))))(S (REL-NP (REL-NNP (china)))(REL-NP (POS ('s))(REL-NN (currency)))(VP (VBZ (be)))(ADJP (RB (fully))(JJ (convertible)))(PP (IN (of)))(NP (NNP (asia)))(REL-NP (POS ('s))(REL-NN (currency))(NNS (meltdown))))) |ET| 1:0.33541021 2:0.25048971 3:0.21821789 4:0.1820063 5:0.19245009 6:0.07692308 8:0.05555556 11:0.29950124 12:0.25476232 13:0.10050378 14:0.5855037 15:0.5001691 16:0.17343429  |BV| 1:0.32879797 2:0.18778101 3:0.35805744 4:0.13758384 5:0.31128639 11:0.33596843 12:0.28028509 13:0.038749211 14:0.75174272 15:0.58995134 16:0.17338908  |EV| 
0.6016968778302977938210460706614  |BT| (ROOT (S (ADVP (WRB (how)))(REL-FOCUS-DESC-NP (JJ (tall)))(VP (VBZ (be)))(REL-NP (DT (the))(NNP (cnn))(REL-NNP (tower)))(PP (IN (in)))(REL-NP (REL-NNP (toronto))))) |BT| (ROOT (S (REL-NP (DT (the))(JJ (421-meter))(REL-NN (tower)))(VP (VBG (cost)))(NP (CD (108))(CD (million)))(NP (POS ('s))(JJ (third))(NN (tallest)))(PP (IN (after)))(REL-NP (DT (the))(REL-NNP (toronto))(NNP (cn))(REL-NNP (tower))(JJ (553))(NNS (meter)))(REL-NP (NNP (moscow))(REL-NNP (tower))(JJ (537))(NNS (meter))))) |BT| (ROOT (S (ADVP (WRB (how)))(REL-FOCUS-DESC-NP (REL-JJ (tall)))(VP (VBZ (be)))(REL-NP (DT (the))(NNP (cnn))(REL-NNP (tower)))(PP (IN (in)))(NP (NNP (toronto))))) |BT| (ROOT (S (NP (NNP (maine)))(PP (IN (in)))(REL-NP (REL-NN (tower))(NN (building)))(NP (JJ (small)))(VP (VBZ (be))))(S (NP (PRP (it)))(VP (VBZ (be)))(REL-NP (DT (the))(REL-JJ (tall))(NN (imagination)))(NP (IN (that)))(VP (NNS (count))))) |ET| 1:0.33333334 2:0.21045347 3:0.18156826 4:0.15161961 5:0.13483997 6:0.031544011 8:0.022156671 11:0.42421994 12:0.35318607 13:0.11805627 14:0.72282487 15:0.56619751 16:0.22706886  |BV| 1:0.32686022 2:0.21693046 3:0.09166985 4:0.15430336 5:0.068041377 6:0.042447641 8:0.02969569 11:0.4809629 12:0.40000001 13:0.14847846 14:0.71816975 15:0.59028733 16:0.23492256  |EV| 
-0.79956572838336747999221643112833  |BT| (ROOT (S (REL-FOCUS-NUM-NP (WP (what))(REL-NN (year)))(VP (VBD (do)))(REL-NP (REL-NNP (snow))(REL-NNP (white)))(VP (VB (come)))(PRT (RB (out))))) |BT| (ROOT (S (PP (VBG (speak)))(PP (IN (of)))(REL-NP (REL-NN (snow)))(SBAR (IN (if)))(NP (PRP (you)))(VP (VBP (be))(NN (yearning)))(PP (IN (for)))(REL-FOCUS-NUM-NP (DT (a))(REL-JJ (white))(NNP (christmas))(NN (head)))(PP (IN (for)))(NP (NNP (winnipeg))))(S (NP (NNP (canada)))(VP (VBZ (have))(VBN (have)))(REL-NP (REL-NN (snow)))(PP (IN (on)))(NP (DT (the))(NN (ground)))(PP (IN (on)))(REL-FOCUS-NUM-NP (NNP (christmas))(NN (day)))(PP (IN (for)))(REL-FOCUS-NUM-NP (DT (the))(JJ (last))(CD (30))(REL-NNS (year))))) |BT| (ROOT (S (REL-FOCUS-NUM-NP (WP (what))(NN (year)))(VP (VBD (do)))(REL-NP (REL-NNP (snow))(REL-NNP (white)))(VP (VB (come)))(PRT (RB (out))))) |BT| (ROOT (S (NP (CD (49)))(REL-NP (REL-NNP (snow))(REL-NNP (white)))(NP (DT (the))(CD (seven))(NNS (dwarf)))(REL-FOCUS-NUM-NP (CD (1937))))) |ET| 1:0.034020688 2:0.02052821 3:0.068199433 4:0.01501258 5:0.053149398 11:0.29295692 12:0.24733284 13:0.062994078 14:0.45853361 15:0.19642168 16:0.20957386  |BV| 1:0.16666667 2:0.13650472 3:0.44721359 4:0.096976228 5:0.35355338 6:0.052925609 7:0.21821789 8:0.0372678 9:0.19245009 11:0.29000741 12:0.23570226 13:0.1118034 14:0.46648076 15:0.35643265 16:0.20834368  |EV| 
0.79956572838336747999221643112833  |BT| (ROOT (S (ADVP (WRB (how)))(REL-FOCUS-NUM-NP (JJ (many))(NNS (story)))(VP (VBP (be)))(PP (IN (in)))(REL-NP (DT (the))(REL-NNP (sears))(REL-NNP (tower))))) |BT| (ROOT (S (NP (NNP (spiderman)))(VP (VBD (be))(VBN (arrest)))(REL-FOCUS-NUM-NP (NNP (friday)))(PP (IN (on)))(NP (NN (top)))(PP (IN (of)))(REL-NP (DT (the))(REL-NNP (sears))(REL-NNP (tower)))(PP (IN (after)))(VP (VBG (climb))))) |BT| (ROOT (S (ADVP (WRB (how)))(REL-FOCUS-NUM-NP (JJ (many))(NNS (story)))(VP (VBP (be)))(PP (IN (in)))(REL-NP (DT (the))(REL-NNP (sears))(REL-NNP (tower))))) |BT| (ROOT (S (NP (DT (the))(NNS (owner)))(PP (IN (of)))(REL-NP (DT (the))(REL-NNP (sears))(REL-NNP (tower)))(NP (DT (the))(NNP (petronas))(NNP (towers)))(PP (IN (in))))) |ET| 1:0.28867513 2:0.21045347 3:0.22677869 4:0.16701066 5:0.1714986 6:0.090659678 7:0.10050378 8:0.062994078 9:0.083333328 10:0.032915398 11:0.40214011 12:0.35053408 13:0.13397282 14:0.63920218 15:0.54731065 16:0.25535038  |BV| 1:0.35355338 2:0.26162797 3:0.3077935 4:0.20935895 5:0.23570226 6:0.11547005 7:0.14002801 8:0.080582298 9:0.11785113 10:0.042295489 11:0.51761234 12:0.4500744 13:0.24708311 14:0.70476401 15:0.55867398 16:0.27407363  |EV| 
0.79956572838336747999221643112833  |BT| (ROOT (S (REL-FOCUS-LOC-NP (WP (what))(REL-NN (country)))(VP (VBZ (produce)))(REL-NP (DT (the))(RBS (most))(REL-NN (silk))))) |BT| (ROOT (S (NP (CD (one)))(PP (IN (of)))(REL-NP (DT (the))(JJS (largest))(REL-NN (silk))(NNS (producer)))(PP (IN (in)))(REL-FOCUS-LOC-NP (NNP (china)))(VP (VBG (account)))(PP (IN (for)))(NP (NN (one-fourth)))(PP (IN (of)))(REL-NP (DT (the))(REL-NN (country)))(NP (POS ('s))(NN (total)))(PP (IN (in))))) |BT| (ROOT (S (REL-FOCUS-LOC-NP (WP (what))(REL-NN (country)))(REL-VP (REL-VBZ (produce)))(REL-NP (DT (the))(RBS (most))(REL-NN (silk))))) |BT| (ROOT (S (REL-FOCUS-LOC-NP (NNP (bangladesh)))(REL-NP (POS ('s))(REL-NN (silk))(NN (industry)))(VP (VBZ (need)))(NP (DT (some))(CD (250))(NNS (ton)))(PP (IN (of)))(REL-NP (JJ (raw))(REL-NN (silk)))(PP (IN (per)))(NP (NN (year)))(REL-NP (DT (the))(REL-NN (country)))(REL-VP (MD (can))(RB (only))(REL-VB (produce)))(NP (IN (about))(CD (30))(NNS (ton)))(ADVP (JJ (yearly))))) |ET| 1:0.25197631 2:0.13977131 3:0.17888544 4:0.10107974 5:0.13608275 11:0.31141591 12:0.26459345 13:0.028867509 14:0.55636632 15:0.32806674 16:0.24247003  |BV| 1:0.3509312 2:0.19048484 3:0.40160966 4:0.13518453 5:0.31128639 7:0.11547005 9:0.096225038 11:0.36578175 12:0.30434883 13:0.091927707 14:0.64400536 15:0.41709566 16:0.25857019  |EV| 
0.68460585557189956862345070476294  |BT| (ROOT (S (REL-FOCUS-NUM-NP (WP (what))(REL-NN (day)))(REL-NP (REL-NNP (pearl))(REL-NNP (harbor)))(VP (VBP (occur))))) |BT| (ROOT (S (NP (NNP (dec.))(CD (7)))(NP (CD (1941)))(REL-NP (REL-NNP (pearl))(REL-NNP (harbor)))(NP (NNP (japan)))(REL-NP (POS ('s))(REL-NN (day)))(PP (IN (of)))(NP (NN (infamy))))) |BT| (ROOT (S (REL-FOCUS-NUM-NP (WP (what))(NN (day)))(REL-NP (REL-NNP (pearl))(REL-NNP (harbor)))(VP (VBP (occur))))) |BT| (ROOT (S (REL-NP (REL-NN (pearl))(REL-NN (harbor)))(NP (NNP (noland)))(NP (NN (ft30.pearl))))(S (NP (NNP (uss))(NNP (arizona))(NNP (memorial)))(PP (IN (in)))(REL-NP (REL-NNP (pearl))(REL-NNP (harbor))))) |ET| 1:0.28347334 2:0.20601048 3:0.3666794 4:0.14724202 5:0.27216554 6:0.060302269 7:0.11547005 8:0.043033149 9:0.089087076 11:0.35540932 12:0.29704425 13:0.043033149 14:0.69959861 15:0.38212848 16:0.3134276  |BV| 1:0.15430336 2:0.12688649 3:0.22677869 4:0.090535752 5:0.16903085 6:0.049568161 7:0.097590007 8:0.03513642 9:0.074535601 11:0.50411838 12:0.43333334 13:0.12712835 14:0.72485423 15:0.39230815 16:0.31189764  |EV| 
-0.75564415791390660004367418878246  |BT| (ROOT (S (NP (WP (what)))(VP (VBZ (be)))(REL-FOCUS-ENTY-NP (DT (the))(JJ (scientific))(NN (name)))(PP (IN (for)))(REL-NP (DT (the))(REL-NN (zinnia))(REL-NN (plant))))) |BT| (ROOT (S (SBAR (IN (as)))(REL-NP (DT (the))(REL-NNS (plant)))(VP (VBP (begin))(TO (to))(VB (fade)))(REL-FOCUS-ENTY-NP (NNP (keller)))(VP (VBZ (collect)))(NP (PRP$ (they))(NNS (seed)))(VP (VBZ (pull)))(PRT (RP (up)))(REL-NP (DT (the))(REL-NNS (plant)))(VP (VBZ (replace)))(NP (PRP (they)))(NP (JJ (tall))(NNS (annual)))(PP (JJ (such))(IN (as)))(REL-NP (NN (cleome))(CC (and))(REL-NN (zinnia)))(NP (WDT (that)))(VP (MD (will))(VB (give))))) |BT| (ROOT (S (NP (WP (what)))(VP (VBZ (be)))(REL-FOCUS-ENTY-NP (DT (the))(JJ (scientific))(NN (name)))(PP (IN (for)))(REL-NP (DT (the))(REL-NN (zinnia))(NN (plant))))) |BT| (ROOT (S (ADVP (RB (here)))(NP (NNP (z.))(NNS (elegan)))(REL-NP (JJ (common))(REL-NN (zinnia)))(NP (NNP (z.)))(NP (NN (narrowleaf)))(REL-NP (JJ (classic))(REL-NN (zinnia)))(VP (RB (formerly))(VBN (call)))(NP (NNP (z.))(NN (lineari)))(NP (NNP (z.)))(VP (VBD (haageana)))(REL-NP (JJ (mexican))(REL-NN (zinnia))))) |ET| 1:0.3666178 2:0.21713492 3:0.22677869 4:0.15865023 5:0.17320508 11:0.37333143 12:0.31404585 13:0.055441599 14:0.70691657 15:0.51956868 16:0.25025973  |BV| 1:0.10350983 2:0.062704451 3:0.18786728 4:0.046585869 5:0.15075567 11:0.32682288 12:0.27471045 13:0.05455447 14:0.61064953 15:0.36067021 16:0.25323519  |EV| 
0.79956572838336747999221643112833  |BT| (ROOT (S (ADVP (WRB (how)))(REL-NP (JJ (many))(REL-NNS (time)))(REL-FOCUS-NUM-NP (DT (a))(REL-NN (day)))(VP (VB (do)))(REL-NP (JJ (observant))(NNP (muslims))(REL-NN (pray))))) |BT| (ROOT (S (NP (DT (a))(NNP (muslim)))(ADVP (RB (always)))(REL-VP (REL-VBD (pray)))(REL-NP (CD (five))(REL-NNS (time)))(REL-NP (DT (a))(REL-NN (day)))(NP (NNP (kujabi)))(VP (VBD (say))))) |BT| (ROOT (S (ADVP (WRB (how)))(REL-NP (JJ (many))(REL-NNS (time)))(REL-FOCUS-NUM-NP (DT (a))(REL-NN (day)))(VP (VB (do)))(REL-NP (JJ (observant))(REL-NNP (muslims))(REL-NN (pray))))) |BT| (ROOT (S (REL-NP (REL-NNP (muslims)))(REL-VP (REL-NN (pray)))(PP (IN (at)))(REL-NP (JJ (certain))(REL-NNS (time)))(PP (IN (of)))(REL-NP (DT (the))(REL-NN (day))))(S (NP (CD (one)))(PP (IN (of)))(REL-NP (DT (the))(REL-NNS (time)))(VP (VBZ (coincide)))(PP (IN (with))))(S (ADVP (WRB (when)))(NP (PRP (they)))(REL-VP (REL-VBP (pray)))(REL-NP (REL-NNP (muslims)))(VP (VBP (have))(TO (to))(VB (find)))(NP (DT (a))(JJ (clean))(NN (area))))(S (REL-NP (DT (some))(REL-NNPS (muslims)))(VP (VBD (put)))(NP (NN (prayer))(NNS (rug))))(S (PP (IN (during)))(NP (DT (the))(NN (prayer)))(REL-NP (REL-NNP (muslims))(NN (bow))(NN (kneel)))(VP (VBD (put)))(NP (PRP$ (they))(NN (face))))) |ET| 1:0.32969025 2:0.26401001 3:0.40201512 4:0.21773241 5:0.2981424 6:0.14002801 7:0.12598816 8:0.098058067 9:0.096225038 10:0.05163978 11:0.27824333 12:0.22941573 13:0.095636509 14:0.66451198 15:0.489225 16:0.35582796  |BV| 1:0.23376229 2:0.1568072 3:0.40246895 4:0.11688906 5:0.3000496 6:0.02014149 7:0.098413572 8:0.01398636 9:0.071474172 11:0.4759413 12:0.40548968 13:0.13463613 14:0.63984704 15:0.47849661 16:0.31159416  |EV| 
-0.59478007388061060467521201644558  |BT| (ROOT (S (NP (WP (what)))(VP (VBZ (be)))(REL-FOCUS-ENTY-NP (REL-NN (tequila)))(VP (VBN (make)))(PP (IN (from))))) |BT| (ROOT (S (REL-NP (CD (one))(REL-NN (tequila)))(REL-NP (CD (two))(REL-NN (tequila)))(REL-NP (CD (three))(REL-NN (tequila)))(NP (NN (floor))))) |BT| (ROOT (S (NP (WP (what)))(VP (VBZ (be)))(REL-FOCUS-ENTY-NP (REL-NN (tequila)))(REL-VP (REL-VBN (make)))(PP (IN (from))))) |BT| (ROOT (S (VP (VBD (stray)))(PP (IN (from)))(REL-VP (REL-VBG (make)))(REL-NP (REL-NN (tequila)))(PP (IN (out)))(PP (IN (of)))(NP (CD (100))(NN (percent))(NN (agave)))(VP (VBZ (be)))(REL-NP (REL-NNP (tequila))(NNP (herradura)))(NP (WDT (which)))(VP (VBZ (have))(VBN (be))))(S (NP (DT (the))(NN (vanguard)))(PP (IN (of)))(REL-NP (DT (those))(VBG (promote))(REL-NN (tequila)))(PP (IN (as)))(VP (VBG (be)))(PP (IN (with)))(NP (DT (the))(JJS (best))(NNS (spirit)))(REL-VP (REL-VBD (make)))(ADVP (RB (anywhere)))(PP (IN (in))))) |ET| 1:0.25537696 2:0.14484136 3:0.44721359 4:0.1118034 5:0.42008403 11:0.14617634 12:0.1228683 14:0.47653374 15:0.23929493 16:0.24542581  |BV| 1:0.34114411 2:0.20282415 3:0.33686078 4:0.15094638 5:0.28213826 11:0.33386305 12:0.2893641 13:0.038575839 14:0.65645903 15:0.57288444 16:0.23508783  |EV| 
0.37478747785761762356671056295454  |BT| (ROOT (S (NP (WP (what)))(VP (VBG (sport)))(REL-NP (REL-NN (event)))(ADVP (RB (first)))(VP (VBD (take)))(REL-FOCUS-ENTY-NP (NN (place)))(PP (IN (in)))(REL-NP (REL-CD (1903))))) |BT| (ROOT (S (PP (IN (around)))(PP (IN (since)))(REL-NP (REL-CD (1903)))(VP (VBG (stop)))(ADVP (RB (only))))(S (ADVP (RBR (more)))(PP (IN (than)))(REL-NP (DT (any))(JJ (other))(JJ (regular))(JJ (sporting))(REL-NN (event)))(SBAR (IN (because)))(NP (PRP (it))))) |BT| (ROOT (S (NP (WP (what)))(VP (VBG (sport)))(REL-NP (REL-NN (event)))(ADVP (RB (first)))(VP (VBD (take)))(REL-FOCUS-ENTY-NP (REL-NN (place)))(PP (IN (in)))(NP (CD (1903))))) |BT| (ROOT (S (REL-NP (DT (the))(JJ (first))(JJ (such))(REL-NN (event)))(VP (VBD (take)))(REL-NP (REL-NN (place)))(NP (CD (three))(NNS (year)))(ADVP (RB (ago))))) |ET| 1:0.089087076 2:0.048751488 3:0.13159034 4:0.034380712 5:0.096225038 11:0.24307092 12:0.20217343 13:0.018712031 14:0.61959684 15:0.52173233 16:0.26135856  |BV| 1:0.48112521 2:0.30343303 3:0.37796447 4:0.21320072 5:0.28867513 6:0.056343619 7:0.16903085 8:0.039840952 9:0.13608275 11:0.32241294 12:0.26064301 13:0.039840952 14:0.76566374 15:0.58206898 16:0.28892517  |EV| 
-0.79956572838336747999221643112833  |BT| (ROOT (S (ADVP (WRB (where)))(PP (IN (on)))(NP (DT (the))(NN (body)))(NP (PRP (you)))(VP (VB (find)))(REL-FOCUS-LOC-NP (DT (the))(REL-NNS (jowl))))) |BT| (ROOT (S (PP (IN (of)))(NP (NNP (barnaby)))(REL-NP (POS ('s))(REL-NNS (jowl)))(VP (VBD (pollute)))(NP (DT (the))(NN (air))(NN (space))))) |BT| (ROOT (S (ADVP (WRB (where)))(PP (IN (on)))(NP (DT (the))(NN (body)))(NP (PRP (you)))(VP (VB (find)))(REL-FOCUS-LOC-NP (DT (the))(REL-NNS (jowl))))) |BT| (ROOT (S (REL-NP (PRP$ (you))(REL-NNS (jowl)))(VP (VBP (be))(RB (not))(VBG (sag))))) |ET| 1:0.26352313 2:0.14987266 3:0.10846523 4:0.10721125 5:0.083333328 11:0.41202095 12:0.34050262 13:0.11556254 14:0.73566121 15:0.54988241 16:0.19505706  |BV| 1:0.20412415 2:0.12156613 3:0.1490712 4:0.089205161 5:0.11785113 11:0.10611162 12:0.087537616 14:0.38799652 15:0.22743785 16:0.21328473  |EV| 
-0.79956572838336747999221643112833  |BT| (ROOT (S (ADVP (WRB (how)))(REL-NP (JJ (many))(REL-JJ (olympic))(REL-NN (gold))(REL-NNS (medal)))(VP (VBD (do)))(REL-FOCUS-NUM-NP (NNP (carl))(REL-NNP (lewis)))(REL-VP (REL-VBP (win))))) |BT| (ROOT (S (REL-NP (REL-NNP (lewis)))(VP (VBD (be)))(NP (DT (a))(NN (member)))(PP (IN (of)))(REL-NP (CD (five))(NNP (u.s.))(REL-NNP (olympic))(NNS (team)))(REL-VP (REL-VBG (win)))(REL-NP (CD (four))(REL-NN (gold))(REL-NNS (medal)))(PP (IN (at)))(REL-FOCUS-NUM-NP (DT (the))(CD (1984))(NNPS (olympics)))(PP (IN (in)))(NP (NNP (los))(NNP (angeles)))(NP (PRP$ (he))(NN (career)))(PP (IN (with)))(REL-NP (DT (a))(JJ (record-tying))(JJ (ninth))(REL-NNP (olympic))(REL-NN (gold))(REL-NN (medal)))(PP (IN (in)))(NP (DT (the))(JJ (long))(NN (jump)))(PP (IN (at)))(REL-FOCUS-NUM-NP (DT (the))(CD (1996))(NNP (atlanta))(NNPS (olympics))))) |BT| (ROOT (S (ADVP (WRB (how)))(REL-NP (JJ (many))(REL-JJ (olympic))(REL-NN (gold))(REL-NNS (medal)))(VP (VBD (do)))(REL-FOCUS-NUM-NP (REL-NNP (carl))(REL-NNP (lewis)))(REL-VP (REL-VBP (win))))) |BT| (ROOT (S (NP (NNP (mark))(NNP (spitz)))(REL-NP (REL-NNP (carl))(REL-NNP (lewis)))(NP (WP (who)))(NP (DT (each)))(REL-VP (REL-VBD (win)))(REL-NP (DT (a))(NN (record))(CD (nine))(REL-NNP (olympic))(REL-NN (gold))(REL-NNS (medal)))(VP (VBD (say)))(NP (NN (corruption))))) |ET| 1:0.2409658 2:0.17742765 3:0.31948924 4:0.12698413 5:0.23239715 6:0.052613359 7:0.097243331 8:0.036661781 9:0.070014 11:0.35645688 12:0.30262509 13:0.079697087 14:0.54547554 15:0.34642184 16:0.424943  |BV| 1:0.2936101 2:0.21654087 3:0.46420708 4:0.15061602 5:0.3721042 6:0.067923561 7:0.26666668 8:0.047140449 9:0.19245009 11:0.39466488 12:0.32935148 13:0.068897277 14:0.63754195 15:0.40707332 16:0.43245918  |EV| 
-0.79956572838336747999221643112833  |BT| (ROOT (S (ADVP (WRB (where)))(PP (IN (on)))(NP (DT (the))(NN (body)))(NP (PRP (you)))(VP (VB (find)))(REL-FOCUS-LOC-NP (DT (the))(REL-NNS (jowl))))) |BT| (ROOT (S (PP (IN (of)))(NP (NNP (barnaby)))(REL-NP (POS ('s))(REL-NNS (jowl)))(VP (VBD (pollute)))(NP (DT (the))(NN (air))(NN (space))))) |BT| (ROOT (S (ADVP (WRB (where)))(PP (IN (on)))(NP (DT (the))(NN (body)))(NP (PRP (you)))(VP (VB (find)))(REL-FOCUS-LOC-NP (DT (the))(NNS (jowl))))) |BT| (ROOT) |ET| 1:0.26352313 2:0.14987266 3:0.10846523 4:0.10721125 5:0.083333328 11:0.41202095 12:0.34050262 13:0.11556254 14:0.73566121 15:0.54988241 16:0.19505706  |BV| 1:0.12038585 2:0.066555828 4:0.04716666 11:0.32465386 12:0.26940796 13:0.05063697 14:0.66266167 15:0.14612241 16:0.18454285  |EV| 
0.79956572838336747999221643112833  |BT| (ROOT (S (NP (WP (what)))(VP (VBZ (be)))(REL-FOCUS-LOC-NP (DT (the))(REL-NN (capital)))(PP (IN (of)))(REL-NP (REL-NNP (victoria))))) |BT| (ROOT (S (VP (VBP (have))(VBN (die)))(PP (IN (in)))(REL-FOCUS-LOC-NP (NNP (melbourne)))(REL-NP (REL-NN (capital)))(PP (IN (of)))(REL-FOCUS-LOC-NP (REL-NNP (victoria)))(PP (IN (during)))(NP (DT (the))(JJ (first))(CD (46))(NNS (day))))) |BT| (ROOT (S (NP (WP (what)))(VP (VBZ (be)))(REL-FOCUS-LOC-NP (DT (the))(REL-NN (capital)))(PP (IN (of)))(REL-NP (REL-NNP (victoria))))) |BT| (ROOT (S (REL-NP (DT (the))(REL-NN (capital)))(PP (IN (of)))(REL-FOCUS-LOC-NP (REL-NNP (victoria))(NN (state)))(NP (WDT (which)))(VP (VBD (hold))))) |ET| 1:0.40050095 2:0.29074189 3:0.33333334 4:0.23283356 5:0.2773501 6:0.11050642 7:0.2 8:0.077849887 9:0.16666667 10:0.041344911 11:0.41739935 12:0.35548571 13:0.17777778 14:0.72395295 15:0.58997166 16:0.17518097  |BV| 1:0.40089187 2:0.33658093 3:0.37796447 4:0.29546842 5:0.31622776 6:0.22473329 7:0.22941573 8:0.19069251 9:0.19245009 10:0.15249857 11:0.42640144 12:0.36978701 13:0.2191785 14:0.77469099 15:0.64520985 16:0.193571  |EV| 
0.79956572838336747999221643112833  |BT| (ROOT (S (NP (WP (what)))(VP (VBZ (be)))(REL-NP (DT (a))(JJ (female))(REL-JJ (moose))(REL-VBN (call))))) |BT| (ROOT (S (NP (NNS (--female)))(REL-VP (VBP (be))(REL-VBN (call)))(NP (NNS (cow))(CC (and))(NNS (male)))(VP (VBP (be)))(REL-NP (NN (bull))(REL-NN (moose))))) |BT| (ROOT (S (NP (WP (what)))(VP (VBZ (be)))(REL-NP (DT (a))(JJ (female))(REL-JJ (moose))(VBN (call))))) |BT| (ROOT (S (NP (PRP (i)))(VP (VBD (miss)))(REL-NP (DT (the))(JJ (annual))(REL-NNP (moose))(NNP (festival)))(PP (IN (by)))(NP (CD (two))(NNS (day))))(S (NP (PRP (it)))(VP (VBZ (feature)))(REL-NP (DT (a))(REL-JJ (moose))(NN (calling))(NN (contest)))(REL-NP (REL-JJ (moose))(JJ (stew))(NN (cook-off)))(REL-NP (VBN (guide))(REL-NN (moose))(NNS (tour)))(PP (IN (of)))(NP (NN (course)))(NP (DT (a))(NN (parade)))(PP (IN (of)))(REL-NP (JJ (mock))(REL-NN (moose)))(PP (IN (i)))(NP (NN (.e))))) |ET| 1:0.40089187 2:0.23772866 3:0.20519567 4:0.1754116 5:0.15713485 11:0.065465368 12:0.055901699 14:0.42515492 15:0.35289812 16:0.30548748  |BV| 1:0.13203564 2:0.08310122 3:0.16979054 4:0.063372433 5:0.13032705 11:0.254581 12:0.22262228 13:0.085871801 14:0.47841862 15:0.49881959 16:0.20514151  |EV| 
0.79956572838336747999221643112833  |BT| (ROOT (S (ADVP (WRB (where)))(VP (VBD (be)))(REL-FOCUS-LOC-NP (NNP (hans))(REL-NNP (christian))(REL-NNP (anderson)))(VP (VBN (bear))))) |BT| (ROOT (S (NP (CD (10)))(REL-NP (REL-NNP (christian))(REL-NNP (anderson)))(REL-FOCUS-LOC-NP (NNP (denmark)))(NP (JJ (same))(NN (time))))) |BT| (ROOT (S (ADVP (WRB (where)))(VP (VBD (be)))(REL-FOCUS-LOC-NP (NNP (hans))(REL-NNP (christian))(NNP (anderson)))(REL-VP (REL-VBN (bear))))) |BT| (ROOT (S (REL-VP (REL-VBN (bear)))(PP (IN (in)))(NP (CD (1923)))(NP (POS ('s))(NNP (university)))(PP (IN (of)))(REL-FOCUS-LOC-NP (NNP (shanghai))))(S (NP (NN (president)))(PP (IN (of)))(REL-NP (DT (the))(NNP (china))(REL-NNP (christian))(NNP (council))))) |ET| 1:0.22792114 2:0.19088542 3:0.37796447 4:0.13867505 5:0.28867513 6:0.077849887 7:0.16903085 8:0.056343619 9:0.13608275 11:0.40360367 12:0.34641016 13:0.10114435 14:0.53749096 15:0.34964645 16:0.23507197  |BV| 1:0.17291713 2:0.098746203 3:0.12777531 4:0.071428567 5:0.094280899 11:0.49372846 12:0.43246025 13:0.11834527 14:0.56492084 15:0.36531189 16:0.29826614  |EV| 
0.79956572838336747999221643112833  |BT| (ROOT (S (REL-FOCUS-LOC-NP (WP (what))(NN (country)))(VP (VBZ (be)))(VP (VB (know)))(PP (IN (as)))(REL-NP (DT (the))(REL-NNP (land)))(PP (IN (of)))(REL-NP (DT (the))(REL-VBG (rise))(REL-NNP (sun))))) |BT| (ROOT (S (PP (VBG (accord)))(PP (TO (to)))(REL-FOCUS-LOC-NP (DT (the))(NNP (japan))(NNP (times)))(NP (DT (the))(JJS (hottest))(JJ (new))(NN (beauty))(NN (trend)))(PP (IN (in)))(REL-NP (DT (the))(REL-NNP (land)))(PP (IN (of)))(REL-NP (DT (the))(REL-VBG (rise))(REL-NNP (sun)))(VP (VBZ (focus)))(PP (IN (on))))) |BT| (ROOT (S (REL-FOCUS-LOC-NP (WP (what))(REL-NN (country)))(VP (VBZ (be)))(VP (VB (know)))(PP (IN (as)))(REL-NP (DT (the))(REL-NNP (land)))(PP (IN (of)))(REL-NP (DT (the))(REL-VBG (rise))(REL-NNP (sun))))) |BT| (ROOT (S (VP (VBZ (come)))(PP (IN (from)))(REL-NP (DT (the))(REL-NNP (land)))(PP (IN (of)))(REL-NP (DT (the))(REL-VBG (rise))(REL-NNP (sun)))(NP (PRP (it)))(VP (VBZ (be)))(NP (NNS (viewer)))(PP (IN (in)))(REL-NP (DT (a))(REL-NN (country)))(NP (WDT (that)))(ADVP (RB (once)))(VP (VBD (claim)))(REL-NP (DT (the))(REL-NN (sun)))(VP (RB (never))(VBN (set)))(PP (IN (on))))(S (VP (VB (name)))(REL-NP (DT (both))(REL-NNS (country))))) |ET| 1:0.46666667 2:0.36372915 3:0.37796447 4:0.30959445 5:0.33333334 6:0.18543454 7:0.27975145 8:0.16366342 9:0.21320072 10:0.14058039 11:0.54840136 12:0.47629848 13:0.22229531 14:0.78345168 15:0.72634953 16:0.22443765  |BV| 1:0.4767313 2:0.35385984 3:0.49130368 4:0.29425022 5:0.41646338 6:0.16165808 7:0.26832816 8:0.1423737 9:0.20412415 10:0.12202383 11:0.53095657 12:0.45858818 13:0.21940519 14:0.83474439 15:0.78429812 16:0.29993701  |EV| 
-0.06794944764156402028376646740071  |BT| (ROOT (S (REL-FOCUS-ENTY-NP (WP (what))(NN (duo)))(VP (VBD (lose)))(NP (PRP$ (they))(NNP (grammy)))(PP (IN (for)))(NP (JJS (best))(JJ (new))(NN (artist)))(ADVP (WRB (when)))(NP (PRP (it)))(VP (VBD (be))(VBN (discover)))(SBAR (IN (that)))(NP (PRP (they)))(VP (VBD (lip-synch)))(REL-NP (PRP$ (they))(REL-NNS (song))))) |BT| (ROOT (S (PP (TO (to)))(VP (VBG (make)))(REL-NP (JJ (same))(NNP (old))(REL-NNP (song)))(REL-FOCUS-ENTY-NP (NNP (wilson)))(VP (VBD (say)))(NP (DT (the))(JJS (biggest))(NN (challenge))))) |BT| (ROOT (S (REL-FOCUS-ENTY-NP (WP (what))(NN (duo)))(VP (VBD (lose)))(REL-NP (PRP$ (they))(REL-NNP (grammy)))(PP (IN (for)))(NP (JJS (best))(JJ (new))(NN (artist)))(ADVP (WRB (when)))(NP (PRP (it)))(VP (VBD (be))(VBN (discover)))(SBAR (IN (that)))(NP (PRP (they)))(VP (VBD (lip-synch)))(REL-NP (PRP$ (they))(REL-NNS (song))))) |BT| (ROOT (S (NP (WDT (that)))(VP (VBD (drive)))(REL-FOCUS-ENTY-NP (NNP (bonnie))(NNP (raitt)))(REL-FOCUS-ENTY-NP (NNP (eric))(NNP (clapton)))(PP (TO (to)))(REL-NP (REL-NNP (grammy))(NN (success)))(PP (IN (in)))(NP (DT (the))(NNS ('90))))(S (NP (PRP$ (she))(JJ (own))(NN (instrument))(NN (guitar)))(VP (VBZ (sing)))(REL-NP (PRP$ (she))(JJ (own))(REL-NNS (song))(DT (no))(NN (question)))(PP (IN (of)))(NP (NN (lip-synching)))(NP (WDT (which)))(REL-NP (REL-NNP (grammy))(NNS (voter)))(VP (VBP (be))(RB (still))(VBG (explain)))(SBAR (IN (after))))(S (NP (DT (a))(NN (way)))(PP (IN (for)))(REL-NP (REL-NNP (grammy))(NNS (voter)))(VP (TO (to))(VB (tweak)))(NP (DT (the))(JJ (major))(NNS (label))))) |ET| 1:0.16439898 2:0.11349072 4:0.08075729 6:0.02279212 8:0.01555867 11:0.41030496 12:0.33922678 13:0.13010725 14:0.6861735 15:0.43223882 16:0.36490801  |BV| 1:0.14865883 2:0.090650991 3:0.10529963 4:0.066577964 5:0.075973719 11:0.32186034 12:0.27793247 13:0.040914901 14:0.60034263 15:0.54284418 16:0.36785424  |EV| 
0.79956572838336747999221643112833  |BT| (ROOT (S (NP (WP (what)))(VP (VBZ (be)))(REL-FOCUS-DESC-NP (DT (the))(REL-NN (currency)))(PP (IN (of)))(REL-NP (REL-NNP (denmark))))) |BT| (ROOT (S (SBAR (IN (though)))(REL-NP (REL-NNP (denmark)))(VP (VBZ (have)))(NP (DT (a))(NN (agreement)))(NP (DT (the))(NNP (european))(NNP (central))(NNP (bank)))(VP (TO (to))(VB (support)))(REL-NP (PRP$ (its))(REL-NN (currency)))(NP (DT (the))(NN (krone)))(PP (IN (within)))(NP (DT (the))(JJ (northern))(NNS (country)))(VP (VBD (have)))(REL-NP (REL-NN (currency))(NNS (problem)))(NP (JJ (last))(NN (year))))) |BT| (ROOT (S (NP (WP (what)))(VP (VBZ (be)))(REL-FOCUS-DESC-NP (DT (the))(REL-NN (currency)))(PP (IN (of)))(REL-NP (REL-NNP (denmark))))) |BT| (ROOT (S (NP (NNP (copenhagen)))(REL-NP (REL-NNP (denmark))(NNP (ap)))(REL-NP (REL-NNP (denmark)))(VP (MD (could))(VB (hold)))(NP (DT (a))(NN (plebiscite)))(VP (TO (to))(VB (join)))(NP (DT (the))(NNP (european))(NNP (union)))(REL-NP (POS ('s))(JJ (common))(REL-NN (currency))(NN (system)))(PP (IN (within)))(NP (CD (two))(NNS (year))))) |ET| 1:0.38401228 2:0.22299787 3:0.30151135 4:0.16228817 5:0.25264558 11:0.47637552 12:0.41844958 13:0.21081851 14:0.7755819 15:0.50837332 16:0.19613571  |BV| 1:0.27565891 2:0.15041421 3:0.26413527 4:0.1066974 5:0.21997067 11:0.36266178 12:0.30772874 13:0.090932578 14:0.70274538 15:0.47452807 16:0.18840608  |EV| 
-0.11384202946763845309963159024846  |BT| (ROOT (S (NP (WP (what)))(VP (VBZ (be)))(REL-FOCUS-HUM-NP (DT (the))(NN (nickname)))(PP (IN (of)))(REL-NP (REL-NNP (oklahoma))))) |BT| (ROOT (S (REL-NP (JJ (oklahoma-scandal))(REL-NNP (oklahoma))(NNP (city))))) |BT| (ROOT (S (NP (WP (what)))(VP (VBZ (be)))(REL-FOCUS-HUM-NP (DT (the))(REL-NN (nickname)))(PP (IN (of)))(REL-NP (REL-NNP (oklahoma))))) |BT| (ROOT (S (PP (IN (in)))(NP (NNP (north))(NNP (carolina)))(REL-NP (REL-NNP (oklahoma)))(NP (NNP (indiana)))(VP (TO (to))(VB (deal)))(PP (IN (with)))(REL-NP (DT (these))(JJ (ridiculous))(REL-NNS (nickname)))(NP (PRP (i)))(VP (VBP (have))(VBD (get))))) |ET| 1:0.16903085 2:0.09245003 3:0.25819889 4:0.068041377 5:0.23570226 11:0.12598816 12:0.10660036 14:0.45679626 15:0.35093588 16:0.16255115  |BV| 1:0.29649973 2:0.19088542 3:0.1721326 4:0.1401808 5:0.14547859 6:0.026967989 8:0.01924501 11:0.2949968 12:0.24743988 13:0.033903182 14:0.71620172 15:0.46470761 16:0.18949839  |EV| 
0.79956572838336747999221643112833  |BT| (ROOT (S (NP (WP (what)))(VP (VBZ (be)))(REL-NP (DT (a))(JJ (female))(REL-JJ (moose))(REL-VBN (call))))) |BT| (ROOT (S (REL-NP (DT (the))(REL-NN (call)))(PP (IN (of)))(REL-NP (DT (the))(REL-NNP (moose)))(VP (VBD (be))(VBN (hear)))(PP (IN (in))))) |BT| (ROOT (S (NP (WP (what)))(VP (VBZ (be)))(REL-NP (DT (a))(JJ (female))(REL-JJ (moose))(REL-VBN (call))))) |BT| (ROOT (S (VP (VBZ (sum)))(PRT (RP (up)))(REL-NP (REL-NNP (moose)))(REL-NP (POS ('s))(REL-VBG (call))))) |ET| 1:0.20701967 2:0.1142909 3:0.10846523 4:0.081649661 5:0.083333328 11:0.19178532 12:0.15713485 14:0.45963818 15:0.34870794 16:0.21510313  |BV| 1:0.11952286 2:0.067267276 3:0.11547005 4:0.049147319 5:0.091287091 11:0.043033149 12:0.036084391 14:0.4221147 15:0.38373974 16:0.24190436  |EV| 
0.79956572838336747999221643112833  |BT| (ROOT (S (REL-FOCUS-NUM-NP (WP (what))(NN (year)))(VP (VBD (do)))(REL-NP (DT (the))(REL-NN (shuttle))(REL-NNP (challenger)))(REL-VP (REL-VB (explode))))) |BT| (ROOT (S (VP (VBP (estimate)))(SBAR (IN (that)))(REL-NP (DT (each))(REL-NN (shuttle))(NN (flight)))(VP (VBZ (have)))(REL-FOCUS-NUM-NP (DT (a))(JJ (1-in-483))(NN (chance)))(PP (IN (of)))(REL-VP (REL-VBG (explode)))(PP (IN (upon)))(NP (NN (launch))))(S (NP (EX (there)))(VP (VBP (have))(VBN (be)))(REL-NP (CD (91))(REL-NN (shuttle))(NNS (launch)))(PP (TO (to)))(NP (NN (date)))(PP (IN (with)))(NP (CD (one))(JJ (catastrophic))(NN (failure)))(REL-FOCUS-NUM-NP (DT (the))(CD (1986))(REL-NNP (challenger))(NN (explosion))))) |BT| (ROOT (S (REL-FOCUS-NUM-NP (WP (what))(NN (year)))(VP (VBD (do)))(REL-NP (DT (the))(REL-NN (shuttle))(REL-NNP (challenger)))(REL-VP (REL-VB (explode))))) |BT| (ROOT (S (NP (RB (just))(CD (three))(NNS (week)))(PP (IN (after)))(REL-NP (DT (the))(NNP (u.s.))(REL-NN (shuttle))(REL-NNP (challenger)))(REL-VP (REL-VBD (explode)))(VP (VBG (kill)))(NP (DT (all))(CD (seven))(NNS (passenger))))(S (NP (NNS (picture)))(PP (IN (of)))(REL-NP (DT (the))(REL-NNP (challenger))(NN (crew)))(PP (IN (into)))(NP (NN (orbit))))) |ET| 1:0.23211917 2:0.12845875 3:0.22052714 4:0.091241479 5:0.16289259 11:0.33054706 12:0.2790702 13:0.020064309 14:0.62935233 15:0.41435412 16:0.26829442  |BV| 1:0.34050262 2:0.23870496 3:0.3307907 4:0.18859299 5:0.28506204 6:0.086279601 7:0.20952909 8:0.060412209 9:0.15811388 10:0.031960141 11:0.34050262 12:0.28613168 13:0.035840221 14:0.65284646 15:0.41726711 16:0.26298994  |EV| 
-0.79956572838336747999221643112833  |BT| (ROOT (S (REL-FOCUS-ENTY-NP (WP (what))(REL-NN (liverpool))(NN (club)))(VP (VBD (spawn)))(REL-NP (DT (the))(REL-NNP (beatles))))) |BT| (ROOT (S (NP (NNS (people)))(PP (IN (in)))(REL-NP (REL-NN (liverpool)))(NP (DT (a))(VBD (fade))(JJ (port))(NN (city)))(PP (IN (of)))(NP (DT (the))(JJ (potential))(NN (impact)))(PP (IN (of)))(REL-FOCUS-ENTY-NP (DT (the))(REL-NNP (beatles)))(PP (IN (on)))(NP (DT (the))(JJ (local))(NN (economy))))(S (NP (WP (who)))(VP (VBP (visit)))(REL-NP (REL-NNP (liverpool)))(NP (DT (each))(NN (year)))(NP (IN (about))(CD (500,000)))(VP (VBN (come)))(PP (IN (because))(IN (of)))(REL-FOCUS-ENTY-NP (DT (the))(REL-NNP (beatles)))(PP (VBG (accord)))(PP (TO (to)))(NP (DT (the))(NNP (merseyside))(NNP (tourism)))(REL-FOCUS-ENTY-NP (NNP (conference))(NNP (bureau))))) |BT| (ROOT (S (REL-FOCUS-ENTY-NP (WP (what))(REL-NN (liverpool))(REL-NN (club)))(VP (VBD (spawn)))(NP (DT (the))(NNP (beatles))))) |BT| (ROOT (S (REL-NP (NNP (mccartney-liverpool))(REL-NN (liverpool)))(NP (NNP (england)))(REL-FOCUS-ENTY-NP (NNP (paul))(NNP (mccartney))(NNS (return)))(PP (TO (to)))(REL-NP (REL-NNP (liverpool)))(REL-NP (POS ('s))(NNP (cavern))(REL-NNP (club))))(S (PP (IN (by)))(REL-FOCUS-ENTY-NP (NNP (allan))(NNP (kozinn))))) |ET| 1:0.30358836 2:0.22188008 3:0.15289415 4:0.1672484 5:0.1132277 6:0.052686341 8:0.037562411 11:0.34900504 12:0.30253169 13:0.066805989 14:0.59342736 15:0.35777465 16:0.2679514  |BV| 1:0.080582298 2:0.043314811 3:0.078811042 4:0.03068582 5:0.058025889 11:0.28246635 12:0.24358869 13:0.064549722 14:0.49053022 15:0.32913232 16:0.2668713  |EV| 
0.14001128519801020466672980546718  |BT| (ROOT (S (NP (WP (what)))(VP (VBZ (be)))(REL-FOCUS-LOC-NP (DT (the))(NN (city)))(PP (IN (of)))(REL-NP (REL-JJ (brotherly))(REL-NN (love))))) |BT| (ROOT (S (NP (CD (two))(NNS (dollar)))(PP (IN (for)))(REL-FOCUS-LOC-NP (DT (a))(NNP (philadelphia))(NN (pretzel)))(VP (MD (may))(VB (seem)))(PP (IN (like)))(REL-NP (REL-RB (brotherly))(NN (extortion)))(REL-CONJP (RB (not))(REL-RB (brotherly))(REL-VB (love))))) |BT| (ROOT (S (NP (WP (what)))(VP (VBZ (be)))(REL-FOCUS-LOC-NP (DT (the))(NN (city)))(PP (IN (of)))(REL-NP (REL-JJ (brotherly))(REL-NN (love))))) |BT| (ROOT (S (REL-NP (REL-NNP (brotherly))(REL-NNP (love))(NNP (it)))(NP (POS ('s))(NNP (got)))(VP (RB (now))(RB (there))(VBZ (be))))) |ET| 1:0.22116293 2:0.15749985 3:0.41039133 4:0.1108548 5:0.32025632 6:0.044411559 7:0.1490712 8:0.031219531 9:0.12598816 11:0.18887687 12:0.15430336 14:0.53580821 15:0.44734469 16:0.28095961  |BV| 1:0.16666667 2:0.089893311 4:0.063660704 11:0.12202383 12:0.10189239 13:0.034752399 14:0.4906958 15:0.32534435 16:0.27932024  |EV| 
-0.79956572838336747999221643112833  |BT| (ROOT (S (NP (WP (what)))(VP (VBZ (be)))(REL-FOCUS-LOC-NP (REL-NN (capital)))(PP (IN (of)))(REL-NP (REL-NNP (maryland))))) |BT| (ROOT (S (REL-FOCUS-LOC-NP (REL-NNP (maryland))(NNS (authority)))(VP (VBD (say)))(PP (IN (in)))(NP (PRP (they)))(VP (MD (would))(RB (not))(VB (pursue)))(REL-NP (DT (a))(REL-NN (capital))(NN (case)))(VP (VBD (add)))(SBAR (IN (that)))(PP (IN (than)))(PP (IN (in)))(REL-FOCUS-LOC-NP (NNP (israel))))) |BT| (ROOT (S (NP (WP (what)))(VP (VBZ (be)))(REL-FOCUS-LOC-NP (REL-NN (capital)))(PP (IN (of)))(REL-NP (REL-NNP (maryland))))) |BT| (ROOT (S (NP (NNS (reason)))(VP (TO (to))(VB (visit)))(REL-FOCUS-LOC-NP (REL-NNP (maryland)))(REL-NP (POS ('s))(REL-NN (capital))))) |ET| 1:0.18898223 2:0.1058677 3:0.22222222 4:0.076323278 5:0.18490008 11:0.42696318 12:0.36128739 13:0.17320508 14:0.6767354 15:0.50895911 16:0.17442538  |BV| 1:0.17407766 2:0.094176322 3:0.24077171 4:0.067229263 5:0.20100756 11:0.27975145 12:0.22874786 13:0.039283711 14:0.71111429 15:0.48481554 16:0.17442538  |EV| 
0.79956572838336747999221643112833  |BT| (ROOT (S (NP (WP (who)))(VP (VBD (create)))(REL-FOCUS-HUM-NP (DT (the))(REL-JJ (literary))(NN (character))(NNP (phineas))(REL-NNP (fogg))))) |BT| (ROOT (S (REL-FOCUS-HUM-NP (NNP (jules))(NNP (verne)))(REL-NP (POS ('s))(NNP (phileas))(REL-NNP (fogg)))(VP (VBD (make)))(REL-NP (REL-JJ (literary))(NN (history)))(ADVP (WRB (when)))(NP (PRP (he))))) |BT| (ROOT (S (NP (WP (who)))(REL-VP (REL-VBD (create)))(REL-FOCUS-HUM-NP (DT (the))(REL-JJ (literary))(REL-NN (character))(NNP (phineas))(NNP (fogg))))) |BT| (ROOT (S (NP (NNS (part)))(PP (IN (of)))(REL-FOCUS-HUM-NP (DT (the))(NNP (reagan))(NN (story)))(ADVP (RB (brilliantly))))(S (NP (JJ (dutch))(NNS (trip)))(PP (IN (over)))(REL-NP (PRP$ (its))(JJ (own))(JJ (central))(REL-JJ (literary))(NN (device))))(S (NP (PRP (he)))(REL-VP (REL-VBZ (create)))(REL-NP (DT (a))(JJ (fictional))(REL-NN (character)))(VP (VBN (model)))(PP (IN (after)))(VP (VBZ (run)))(PP (IN (into)))(REL-FOCUS-HUM-NP (NNP (reagan)))(ADVP (RB (repeatedly)))(PP (IN (through))))(S (PP (IN (in)))(NP (NN (effect)))(REL-NP (DT (another))(REL-NN (character)))(PP (IN (in)))(NP (DT (the))(NN (narrative))))) |ET| 1:0.21650635 2:0.11547005 3:0.13333333 4:0.081199788 5:0.096225038 11:0.3934485 12:0.32433748 13:0.088388354 14:0.62887192 15:0.45086071 16:0.29836947  |BV| 1:0.23652495 2:0.14022146 3:0.14294834 4:0.1028689 5:0.10540926 11:0.44099343 12:0.37911341 13:0.086874448 14:0.6053918 15:0.34041858 16:0.22183013  |EV| 
0.79956572838336747999221643112833  |BT| (ROOT (S (REL-FOCUS-ENTY-NP (WP (what))(REL-NN (liverpool))(REL-NN (club)))(VP (VBD (spawn)))(REL-NP (DT (the))(REL-NNP (beatles))))) |BT| (ROOT (S (VP (VBZ (be))(VBN (house)))(PP (IN (at)))(REL-NP (REL-NNP (liverpool)))(NP (POS ('s))(NNP (matthew))(NNP (street))(NNP (gallery)))(NP (NNS (yard)))(NP (DT (the))(NN (site)))(PP (IN (of)))(REL-NP (DT (the))(NNP (cavern))(REL-NNP (club)))(ADVP (WRB (where)))(REL-FOCUS-ENTY-NP (DT (the))(REL-NNP (beatles)))(ADVP (RB (once)))(VP (VBD (play))))) |BT| (ROOT (S (REL-FOCUS-ENTY-NP (WP (what))(REL-NN (liverpool))(NN (club)))(VP (VBD (spawn)))(REL-NP (DT (the))(REL-NNP (beatles))))) |BT| (ROOT (S (NP (NNS (people)))(PP (IN (in)))(REL-NP (REL-NN (liverpool)))(NP (DT (a))(VBD (fade))(JJ (port))(NN (city)))(PP (IN (of)))(NP (DT (the))(JJ (potential))(NN (impact)))(PP (IN (of)))(REL-FOCUS-ENTY-NP (DT (the))(REL-NNP (beatles)))(PP (IN (on)))(NP (DT (the))(JJ (local))(NN (economy))))(S (NP (WP (who)))(VP (VBP (visit)))(REL-NP (REL-NNP (liverpool)))(NP (DT (each))(NN (year)))(NP (IN (about))(CD (500,000)))(VP (VBN (come)))(PP (IN (because))(IN (of)))(REL-FOCUS-ENTY-NP (DT (the))(REL-NNP (beatles)))(PP (VBG (accord)))(PP (TO (to)))(NP (DT (the))(NNP (merseyside))(NNP (tourism)))(REL-FOCUS-ENTY-NP (NNP (conference))(NNP (bureau))))) |ET| 1:0.24000768 2:0.16896382 3:0.062136982 4:0.12356041 5:0.045360919 6:0.036297701 8:0.025565499 11:0.33692628 12:0.28786004 13:0.046373889 14:0.62266541 15:0.40272382 16:0.28567842  |BV| 1:0.30358836 2:0.22188008 3:0.15289415 4:0.1672484 5:0.1132277 6:0.052686341 8:0.037562411 11:0.34900504 12:0.30253169 13:0.066805989 14:0.59342736 15:0.35777465 16:0.2679514  |EV| 
0.46390837390978106880012887813791  |BT| (ROOT (S (NP (WP (what)))(VP (VBZ (be)))(REL-FOCUS-NUM-NP (DT (the))(NN (range)))(PP (IN (for)))(NP (DT (the))(NN (number)))(PP (IN (of)))(REL-NP (REL-NNS (passenger)))(REL-NP (DT (a))(REL-NNP (boeing))(REL-CD (747))(NN (airplane)))(REL-VP (MD (can))(REL-VB (carry))))) |BT| (ROOT (S (PP (IN (with)))(REL-NP (PRP$ (its))(REL-CD (747)))(REL-NP (REL-NNP (boeing)))(REL-FOCUS-NUM-NP (NN (today)))(VP (VBZ (enjoy)))(NP (DT (a))(NN (monopoly)))(NP (NNS (plane)))(NP (WDT (that)))(REL-VP (MD (can))(REL-VB (carry)))(REL-NP (JJR (more))(IN (than))(CD (400))(REL-NNS (passenger))))(S (VP (VBZ (want))(TO (to))(VB (break)))(SBAR (IN (that)))(REL-NP (REL-NNP (boeing))(NN (stranglehold)))(VP (VBZ (be))(VBG (plan))(TO (to))(VB (develop)))(NP (DT (a))(NN (plane)))(VP (MD (will))(VB (be)))(ADJP (JJ (able)))(REL-VP (TO (to))(REL-VB (carry)))(ADVP (RB (upward)))(PP (IN (of)))(REL-NP (CD (600))(REL-NNS (passenger))))) |BT| (ROOT (S (NP (WP (what)))(VP (VBZ (be)))(REL-FOCUS-NUM-NP (DT (the))(NN (range)))(PP (IN (for)))(NP (DT (the))(NN (number)))(PP (IN (of)))(REL-NP (REL-NNS (passenger)))(REL-NP (DT (a))(REL-NNP (boeing))(REL-CD (747))(REL-NN (airplane)))(VP (MD (can))(VB (carry))))) |BT| (ROOT (S (NP (JJ (southwest))(NNP (china)))(VP (MD (can))(VB (handle)))(REL-NP (REL-NNP (boeing))(REL-CD (747))(REL-NNS (airplane)))(VP (VBZ (have)))(NP (DT (a))(VBN (design))(JJ (annual))(NN (turnover)))(PP (IN (of)))(REL-NP (CD (five))(CD (million))(REL-NNS (passenger))))) |ET| 1:0.41380295 2:0.25320387 3:0.27185747 4:0.18114109 5:0.19580898 6:0.019255711 8:0.01318302 11:0.51909912 12:0.4501631 13:0.19219165 14:0.78212678 15:0.66524225 16:0.41285345  |BV| 1:0.44232586 2:0.28544962 3:0.33282012 4:0.21545687 5:0.27498597 6:0.084954821 7:0.18860838 8:0.058321182 9:0.13483997 10:0.03005565 11:0.43041423 12:0.35743955 13:0.11990802 14:0.76467967 15:0.62112552 16:0.45786566  |EV| 
-0.055742907999130730800629862642381  |BT| (ROOT (S (ADVP (WRB (when)))(VP (VBD (be)))(REL-FOCUS-NUM-NP (DT (the))(REL-NNP (tet))(REL-NN (offensive)))(PP (IN (in)))(REL-NP (REL-NNP (vietnam))))) |BT| (ROOT (S (NP (PRP$ (he))(NNS (deferment)))(VP (VBG (end)))(REL-NP (DT (the))(REL-NNP (vietnam))(NNP (war)))(VP (VBG (escalate)))(PP (IN (as)))(NP (DT (the))(NNP (north))(NNP (vietnamese)))(VP (VBD (launch)))(REL-NP (DT (the))(JJ (bloody))(REL-NNP (tet))(REL-NNP (offensive)))(NP (NNP (bush)))(ADVP (IN (like)))(VP (VBG (go)))(PP (TO (to)))(REL-NP (REL-NNP (vietnam))))) |BT| (ROOT (S (ADVP (WRB (when)))(VP (VBD (be)))(REL-FOCUS-NUM-NP (DT (the))(REL-NNP (tet))(REL-NN (offensive)))(PP (IN (in)))(REL-NP (REL-NNP (vietnam))))) |BT| (ROOT (S (NP (DT (the))(NNP (holy))(NNP (cross)))(NP (PRP (himself)))(REL-NP (DT (a))(REL-NNP (vietnam))(NN (veteran)))(NP (WP (who)))(VP (VBD (be))(VBN (draft)))(PP (IN (after)))(REL-FOCUS-NUM-NP (DT (the))(CD (1968))(REL-NNP (tet))(REL-NNP (offensive)))(VP (VBD (serve)))(NP (CD (13))(NNS (month)))(PP (IN (in)))(REL-NP (REL-NNP (vietnam))))) |ET| 1:0.3307189 2:0.18946619 3:0.2205644 4:0.13662601 5:0.16823165 11:0.4684867 12:0.39696229 13:0.13018891 14:0.73016638 15:0.53702372 16:0.32308942  |BV| 1:0.41079193 2:0.26216125 3:0.2205644 4:0.18921891 5:0.16823165 6:0.032461371 8:0.02268046 11:0.55277514 12:0.46933967 13:0.20672455 14:0.76836479 15:0.62331915 16:0.33566543  |EV| 
-0.14367081399795925134021956637298  |BT| (ROOT (S (REL-NP (WP (what))(CD (1857))(NNP (u.s.))(REL-NNP (supreme))(REL-NNP (court))(REL-NN (decision)))(VP (VBD (deny)))(SBAR (IN (that)))(REL-FOCUS-ENTY-NP (REL-NNS (black)))(VP (VBD (be)))(NP (NNS (citizen))))) |BT| (ROOT (S (NP (CD (4)))(NP (DT (a)))(REL-FOCUS-ENTY-NP (DT (the))(REL-NNP (supreme))(REL-NNP (court)))(NP (POS ('s))(NNP (roe)))(PP (IN (v.)))(REL-FOCUS-ENTY-NP (NNP (wade))(REL-NN (decision)))(NP (WDT (which)))(VP (VBD (legalize)))(NP (NN (abortion)))(REL-FOCUS-ENTY-NP (DT (b]the))(REL-NNP (supreme))(REL-NNP (court)))(REL-FOCUS-ENTY-NP (POS ('s))(NNP (brown))(CC (v.))(NNP (board)))(REL-FOCUS-ENTY-PP (IN (of)))(REL-FOCUS-ENTY-NP (NNP (education))(REL-NN (decision)))(NP (WDT (which)))(VP (VBD (declare)))(NP (JJ (separate))(CC (but))(JJ (equal))(NNS (facility)))(PP (IN (for)))(REL-NP (REL-NNS (black))(CC (and))(NNS (whites)))(VP (VBD (be)))(ADJP (JJ (unconstitutional))))) |BT| (ROOT (S (REL-NP (WP (what))(REL-CD (1857))(NNP (u.s.))(REL-NNP (supreme))(REL-NNP (court))(REL-NN (decision)))(VP (VBD (deny)))(SBAR (IN (that)))(REL-FOCUS-ENTY-NP (NNS (black)))(VP (VBD (be)))(NP (NNS (citizen))))) |BT| (ROOT (S (PP (IN (in)))(REL-NP (REL-CD (1857)))(PP (IN (in)))(REL-NP (PRP$ (its))(NNP (dred))(NNP (scott))(REL-NN (decision)))(REL-FOCUS-ENTY-NP (DT (the))(REL-NNP (supreme))(REL-NNP (court)))(VP (VBD (hold)))(SBAR (IN (that)))(REL-FOCUS-ENTY-NP (NNP (scott)))(NP (DT (a))(NN (slave)))(VP (MD (could))(RB (not))(VB (sue)))(NP (PRP$ (he))(NN (freedom)))(PP (IN (in)))(REL-NP (JJ (federal))(REL-NN (court))))) |ET| 1:0.29568851 2:0.19791313 3:0.28823069 4:0.13937367 5:0.20587905 6:0.044777371 7:0.07479576 8:0.03142697 9:0.053376049 11:0.49021068 12:0.41207674 13:0.1069045 14:0.71549225 15:0.50939006 16:0.31918079  |BV| 1:0.20211302 2:0.13900961 3:0.24845199 4:0.099585921 5:0.17699808 6:0.02840955 7:0.057831489 8:0.019574011 9:0.0410305 11:0.38181558 12:0.32241571 13:0.090684533 14:0.61932659 15:0.48674926 16:0.40463403  |EV| 
0.79956572838336747999221643112833  |BT| (ROOT (S (NP (WP (what)))(VP (VBZ (be)))(REL-FOCUS-LOC-NP (DT (the))(RBS (most))(JJ (populated))(REL-NN (country)))(PP (IN (in)))(REL-NP (DT (the))(REL-NN (world))))) |BT| (ROOT (S (REL-FOCUS-LOC-NP (NNP (china)))(REL-NP (DT (a))(VBG (develop))(REL-NN (country)))(NP (DT (the))(RBS (most))(JJ (populous))(NN (nation)))(PP (IN (in)))(REL-NP (DT (the))(REL-NN (world)))(VP (VBZ (be)))(NP (DT (the))(NN (hope)))(PP (IN (of)))(REL-NP (JJ (other))(VBG (develop))(REL-NNS (country)))(NP (PRP (he)))(VP (VBD (say))))) |BT| (ROOT (S (NP (WP (what)))(VP (VBZ (be)))(REL-FOCUS-LOC-NP (DT (the))(RBS (most))(JJ (populated))(REL-NN (country)))(PP (IN (in)))(REL-NP (DT (the))(REL-NN (world))))) |BT| (ROOT (S (NP (WP (what)))(VP (VBP (be)))(REL-NP (DT (the))(CD (five))(JJ (most-populated))(REL-NNS (country)))(PP (IN (in)))(REL-NP (DT (the))(REL-NN (world))))) |ET| 1:0.51639777 2:0.40864757 3:0.27975145 4:0.31888705 5:0.2236068 6:0.16657415 8:0.11631053 10:0.03688556 11:0.61175829 12:0.55814612 13:0.41338369 14:0.83963031 15:0.68995374 16:0.21226195  |BV| 1:0.77151674 2:0.69829726 3:0.60000002 4:0.62776482 5:0.5 6:0.52925611 7:0.33333334 8:0.44721359 9:0.33333334 10:0.35540932 11:0.45538256 12:0.39129278 13:0.2236068 14:0.81146276 15:0.72736353 16:0.23800956  |EV| 
0.79956572838336747999221643112833  |BT| (ROOT (S (REL-FOCUS-HUM-NP (WP (what))(REL-NN (band)))(VP (VBD (be)))(REL-NP (NNP (jerry))(REL-NNP (garcia)))(PP (IN (with))))) |BT| (ROOT (S (NP (DT (a))(NN (guitarist)))(PP (IN (for)))(REL-FOCUS-HUM-NP (DT (the))(JJ (new))(JJ (post-jerry))(REL-NNP (garcia))(NN (group)))(NP (DT (the))(JJ (other))(NNP (ones))))(S (PP (IN (at)))(NP (DT (the))(NNP (warfield)))(REL-NP (DT (the))(JJ (indecisive))(REL-NN (band)))(VP (VBD (invite)))(NP (RB (not))(CD (one))(CC (but))(CD (two))(NNS (replacement)))(PP (IN (for)))(REL-NP (DT (the))(JJ (irreplaceable))(REL-NNP (garcia))))) |BT| (ROOT (S (REL-FOCUS-HUM-NP (WP (what))(NN (band)))(VP (VBD (be)))(REL-NP (REL-NNP (jerry))(REL-NNP (garcia)))(PP (IN (with))))) |BT| (ROOT (S (NP (NNP (god)))(VP (VBZ (be)))(REL-FOCUS-HUM-NP (REL-NNP (jerry))(REL-NNP (garcia))))) |ET| 1:0.18993428 2:0.11285215 3:0.2 4:0.083333328 5:0.15191092 11:0.36442405 12:0.31407213 13:0.035892129 14:0.62788564 15:0.35903618 16:0.27686894  |BV| 1:0.34188172 2:0.31814238 3:0.50709254 4:0.2773501 5:0.40824828 6:0.23354968 7:0.25819889 8:0.16903085 9:0.23570226 10:0.09245003 11:0.38890874 12:0.33106109 13:0.05383819 14:0.67967266 15:0.48087969 16:0.26741216  |EV| 
0.025050166028596984602039299261378  |BT| (ROOT (S (NP (WP (what))(NN (river)))(VP (VBZ (be))(VBN (call)))(NP (NNP (china)))(REL-NP (POS ('s))(REL-JJ (sorrow))))) |BT| (ROOT (S (NP (DT (the))(NN (cradle)))(PP (IN (of)))(REL-NP (JJ (chinese))(NN (civilization))(CC (and))(DT (the))(REL-NN (sorrow)))(PP (IN (of)))(NP (DT (the))(JJ (chinese))(NN (nation))))) |BT| (ROOT (S (NP (WP (what))(NN (river)))(REL-VP (VBZ (be))(REL-VBN (call)))(NP (NNP (china)))(REL-NP (POS ('s))(REL-JJ (sorrow))))) |BT| (ROOT (S (NP (NNP (arafat)))(ADVP (RB (also)))(REL-VP (REL-VBD (call)))(NP (NNP (prime))(NNP (minister))(NNP (benjamin))(NNP (netanyahu)))(VP (TO (to))(VB (express)))(REL-NP (PRP$ (he))(REL-NN (sorrow))))) |ET| 1:0.33557802 2:0.20901483 3:0.064150028 4:0.15638369 5:0.046829291 11:0.24184744 12:0.198373 14:0.5082944 15:0.27053779 16:0.2103011  |BV| 1:0.16666667 2:0.09100315 3:0.1721326 4:0.064650819 5:0.12598816 11:0.17248496 12:0.14348601 14:0.49871036 15:0.39824829 16:0.20685595  |EV| 
-0.44214577251607445340653157472843  |BT| (ROOT (S (ADVP (WRB (when)))(VP (VBD (be)))(REL-FOCUS-NUM-NP (DT (the))(NNP (u.s.))(REL-NN (invasion)))(PP (IN (of)))(REL-NP (REL-NNP (haiti))))) |BT| (ROOT (S (NP (CD (nine))(NNS (time)))(PP (JJ (such))(IN (as)))(REL-NP (DT (the))(REL-NN (invasion)))(PP (IN (of)))(NP (NNP (grenada)))(NP (PRP$ (its))(NN (intervention)))(PP (IN (in)))(REL-NP (NNP (somalia))(CC (and))(REL-NNP (haiti))))) |BT| (ROOT (S (ADVP (WRB (when)))(VP (VBD (be)))(REL-FOCUS-NUM-NP (DT (the))(REL-NNP (u.s.))(REL-NN (invasion)))(PP (IN (of)))(REL-NP (REL-NNP (haiti))))) |BT| (ROOT (S (REL-NP (DT (the))(REL-NNP (u.s.))(NN (military)))(VP (VBD (pull)))(ADVP (IN (out)))(PP (IN (of)))(REL-NP (REL-NNP (haiti)))(NP (DT (this))(NN (month)))(VP (VBG (end)))(VP (VBD (begin)))(PP (IN (with)))(REL-FOCUS-NUM-NP (DT (the))(CD (1994))(JJ (u.s.-led))(REL-NN (invasion)))(NP (WDT (that)))(VP (VBD (restore))(VBN (elect))))(S (PP (IN (for)))(NP (NNP (cbs)))(REL-FOCUS-NUM-NP (POS ('s))(NNP (sunday))(NNP (morning))))) |ET| 1:0.30323923 2:0.20149815 3:0.14704292 4:0.14803913 5:0.11111111 6:0.02939905 8:0.020593399 11:0.42214784 12:0.3596473 13:0.16222142 14:0.65700179 15:0.4705267 16:0.19704631  |BV| 1:0.33678767 2:0.23841582 3:0.20459829 4:0.16903085 5:0.15430336 6:0.06163336 8:0.043033149 11:0.5500499 12:0.46814084 13:0.17556173 14:0.74437231 15:0.62257797 16:0.19286305  |EV| 
-0.79956572838336747999221643112833  |BT| (ROOT (S (NP (WP (what)))(VP (VBZ (be)))(REL-FOCUS-LOC-NP (DT (the))(REL-NN (city)))(PP (IN (of)))(REL-NP (REL-JJ (brotherly))(REL-NN (love))))) |BT| (ROOT (S (NP (DT (the))(NNS (taxpayer)))(PP (IN (of)))(REL-NP (DT (the))(REL-NNP (city)))(PP (IN (of)))(REL-NP (REL-NNP (brotherly))(REL-NNP (love))))) |BT| (ROOT (S (NP (WP (what)))(VP (VBZ (be)))(REL-FOCUS-LOC-NP (DT (the))(NN (city)))(PP (IN (of)))(REL-NP (REL-JJ (brotherly))(REL-NN (love))))) |BT| (ROOT (S (NP (CD (two))(NNS (dollar)))(PP (IN (for)))(REL-FOCUS-LOC-NP (DT (a))(NNP (philadelphia))(NN (pretzel)))(VP (MD (may))(VB (seem)))(PP (IN (like)))(REL-NP (REL-RB (brotherly))(NN (extortion)))(REL-CONJP (RB (not))(REL-RB (brotherly))(REL-VB (love))))) |ET| 1:0.29462782 2:0.16807316 4:0.12123216 11:0.22747026 12:0.19030844 13:0.027399831 14:0.63439971 15:0.51137584 16:0.27805993  |BV| 1:0.22116293 2:0.15749985 3:0.41039133 4:0.1108548 5:0.32025632 6:0.044411559 7:0.1490712 8:0.031219531 9:0.12598816 11:0.18887687 12:0.15430336 14:0.53580821 15:0.44734469 16:0.28095961  |EV| 
-0.79956572838336747999221643112833  |BT| (ROOT (S (NP (WP (what)))(VP (VBZ (be)))(REL-FOCUS-ENTY-NP (DT (the))(JJ (scientific))(NN (name)))(PP (IN (for)))(REL-NP (DT (the))(REL-NN (zinnia))(REL-NN (plant))))) |BT| (ROOT (S (NP (NN (half)))(PP (IN (of)))(REL-NP (DT (a))(NN (oregano))(REL-NN (plant)))(NP (DT (the))(JJR (lower))(NNS (leaf)))(PP (IN (of)))(REL-NP (CD (three))(JJ (red))(REL-NNS (zinnia))))) |BT| (ROOT (S (NP (WP (what)))(VP (VBZ (be)))(REL-FOCUS-ENTY-NP (DT (the))(JJ (scientific))(NN (name)))(PP (IN (for)))(REL-NP (DT (the))(REL-NN (zinnia))(NN (plant))))) |BT| (ROOT (S (ADVP (RB (here)))(NP (NNP (z.))(NNS (elegan)))(REL-NP (JJ (common))(REL-NN (zinnia)))(NP (NNP (z.)))(NP (NN (narrowleaf)))(REL-NP (JJ (classic))(REL-NN (zinnia)))(VP (RB (formerly))(VBN (call)))(NP (NNP (z.))(NN (lineari)))(NP (NNP (z.)))(VP (VBD (haageana)))(REL-NP (JJ (mexican))(REL-NN (zinnia))))) |ET| 1:0.36369649 2:0.24372336 3:0.1721326 4:0.17915215 5:0.13074408 6:0.029630439 8:0.02051525 11:0.58566201 12:0.51665604 13:0.24745077 14:0.81739908 15:0.52843475 16:0.24649724  |BV| 1:0.10350983 2:0.062704451 3:0.18786728 4:0.046585869 5:0.15075567 11:0.32682288 12:0.27471045 13:0.05455447 14:0.61064953 15:0.36067021 16:0.25323519  |EV| 
-0.51019305724352470576832274673507  |BT| (ROOT (S (NP (WP (who)))(VP (VBZ (be)))(REL-FOCUS-HUM-NP (DT (the))(REL-NN (governor)))(PP (IN (of)))(REL-NP (REL-NNP (tennessee))))) |BT| (ROOT (S (VP (VB (consider)))(REL-FOCUS-HUM-NP (NNP (lamar))(NNP (alexander)))(REL-NP (DT (the))(JJ (former))(REL-NNP (tennessee))(REL-NN (governor)))(NP (WP (who)))(VP (VBD (finish))))) |BT| (ROOT (S (NP (WP (who)))(VP (VBZ (be)))(REL-FOCUS-HUM-NP (DT (the))(REL-NN (governor)))(PP (IN (of)))(REL-NP (REL-NNP (tennessee))))) |BT| (ROOT (S (SBAR (IN (while)))(REL-FOCUS-HUM-NP (NNP (bush)))(VP (VBZ (have))(VBN (dwarf)))(NP (PRP (he)))(NP (NNS (endorsement)))(PP (IN (from)))(REL-NP (REL-NNS (governor)))(REL-FOCUS-HUM-NP (NNP (alexander)))(VP (VBD (trumpet)))(REL-NP (DT (the))(CD (two))(REL-NNS (governor)))(NP (WP (who)))(VP (VBP (be))(VBG (back)))(NP (PRP (he)))(NP (NNP (tuesday)))(REL-FOCUS-HUM-NP (NNP (don))(NNP (sundquist)))(PP (IN (of)))(REL-FOCUS-HUM-NP (REL-NNP (tennessee))(CC (and))(NNP (mike))(NNP (huckabee)))(PP (IN (of)))(NP (NNP (arkansas))))) |ET| 1:0.37062466 2:0.20672455 3:0.28005603 4:0.14847846 5:0.23570226 11:0.38348249 12:0.31665024 13:0.10350983 14:0.74136972 15:0.57034183 16:0.22016282  |BV| 1:0.48595431 2:0.33487442 3:0.30151135 4:0.24072845 5:0.25264558 6:0.073670954 8:0.051899929 11:0.37463433 12:0.31611803 13:0.11935248 14:0.75742191 15:0.53197831 16:0.22862799  |EV| 
0.67917163553086024041505197601509  |BT| (ROOT (S (NP (WP (what)))(VP (VBD (be)))(REL-NP (REL-NNP (aaron))(REL-NNP (copland)))(REL-NP (REL-POS ('s)))(ADJP (RBS (most))(JJ (famous)))(REL-FOCUS-ENTY-NP (NN (piece)))(PP (IN (of)))(NP (NN (music))))) |BT| (ROOT (S (NP (NNP (appalachian))(NNP (spring)))(REL-FOCUS-ENTY-NP (REL-NNP (aaron))(REL-NNP (copland)))(REL-NP (REL-POS ('s))(NN (ballet)))(PP (IN (for)))(REL-FOCUS-ENTY-NP (NNP (martha))))) |BT| (ROOT (S (NP (WP (what)))(VP (VBD (be)))(REL-NP (REL-NNP (aaron))(REL-NNP (copland)))(NP (POS ('s)))(ADJP (RBS (most))(JJ (famous)))(REL-FOCUS-ENTY-NP (NN (piece)))(PP (IN (of)))(REL-NP (REL-NN (music))))) |BT| (ROOT (S (NP (NN (cancer)))(VP (VBD (say)))(REL-FOCUS-ENTY-NP (NNP (ronald))(NNP (cannava)))(NP (DT (a))(NN (spokesman)))(PP (IN (for)))(NP (DT (the))(NN (faculty)))(PP (IN (of)))(REL-FOCUS-ENTY-NP (DT (the))(REL-NNP (aaron))(REL-NNP (copland))(NNP (school)))(PP (IN (of)))(REL-NP (REL-NNP (music))))) |ET| 1:0.27272728 2:0.23809524 3:0.41812101 4:0.2 5:0.36514837 6:0.15789475 7:0.30151135 8:0.11111111 9:0.2236068 10:0.05882353 11:0.45186892 12:0.37848905 13:0.17868543 14:0.72216189 15:0.48640138 16:0.32438651  |BV| 1:0.26967993 2:0.17878331 3:0.18860838 4:0.12780192 5:0.13483997 6:0.03093441 7:0.072739303 8:0.02138334 9:0.052704629 11:0.47087097 12:0.40191847 13:0.14613242 14:0.74729067 15:0.52458405 16:0.34457263  |EV| 
0.79956572838336747999221643112833  |BT| (ROOT (S (REL-FOCUS-ENTY-NP (WP (what))(NNP (american))(NN (landmark))(NNS (stand)))(PP (IN (on)))(REL-NP (REL-NNP (liberty))(REL-NNP (island))))) |BT| (ROOT (S (VP (VBZ (have))(VBN (be))(VBN (move)))(PP (TO (to)))(REL-NP (REL-NNP (liberty))(REL-NNP (island)))(NP (JJ (federal))(NN (property)))(NP (WDT (that)))(NP (DT (the))(NNP (statue)))(PP (IN (of)))(REL-NP (REL-NNP (liberty))))) |BT| (ROOT (S (REL-FOCUS-ENTY-NP (WP (what))(NNP (american))(REL-NN (landmark))(NNS (stand)))(PP (IN (on)))(REL-NP (NNP (liberty))(REL-NNP (island))))) |BT| (ROOT (S (PP (IN (on)))(REL-NP (NNP (staten))(REL-NNP (island)))(REL-FOCUS-ENTY-NP (DT (a))(REL-NNP (landmark))(CD (1959))(NNP (wright))(NNP (home))))) |ET| 1:0.19695964 2:0.14754222 3:0.30588764 4:0.10585122 5:0.22645541 6:0.044411559 7:0.097590007 8:0.031219531 9:0.072739303 11:0.43580097 12:0.36402199 13:0.093658581 14:0.63140756 15:0.48703682 16:0.23292354  |BV| 1:0.11785113 2:0.062622428 4:0.044543538 11:0.56750435 12:0.49029034 13:0.19658928 14:0.73634827 15:0.62632638 16:0.22958875  |EV| 
-0.79956572838336747999221643112833  |BT| (ROOT (S (NP (WP (what)))(VP (VBZ (be)))(REL-FOCUS-LOC-NP (DT (the))(REL-NN (capital)))(PP (IN (of)))(REL-NP (REL-NNP (victoria))))) |BT| (ROOT (S (REL-FOCUS-LOC-NP (REL-NNP (victoria))(NNP (falls)))(REL-FOCUS-LOC-NP (NNP (zimbabwe))(NNP (ruins)))(REL-NP (DT (the))(REL-NN (capital))(NNP (harare)))(NP (DT (the))(NNP (wankie))(NNP (national))(NNP (park)))(VP (VBP (be))))) |BT| (ROOT (S (NP (WP (what)))(VP (VBZ (be)))(REL-FOCUS-LOC-NP (DT (the))(REL-NN (capital)))(PP (IN (of)))(REL-NP (REL-NNP (victoria))))) |BT| (ROOT (S (VP (VBD (march)))(PP (IN (in)))(REL-FOCUS-LOC-NP (NNP (melbourne)))(REL-NP (REL-NN (capital)))(PP (IN (of)))(NP (DT (the))(NN (state)))(PP (IN (of)))(REL-FOCUS-LOC-NP (REL-NNP (victoria)))(PP (IN (in)))(NP (NN (protest))))) |ET| 1:0.36369649 2:0.23772866 3:0.2309401 4:0.16903085 5:0.19245009 6:0.045980051 8:0.032529999 11:0.30792013 12:0.26162797 13:0.029049641 14:0.62635785 15:0.36050433 16:0.18391742  |BV| 1:0.31943828 2:0.25275534 3:0.2309401 4:0.18220273 5:0.19245009 6:0.0879599 8:0.062166989 11:0.52668518 12:0.46056619 13:0.32842833 14:0.76476747 15:0.60734093 16:0.18391742  |EV| 
-0.79956572838336747999221643112833  |BT| (ROOT (S (REL-FOCUS-NUM-NP (WP (what))(NN (year)))(VP (VBD (be)))(REL-NP (REL-NNP (alaska)))(REL-VP (REL-VBD (purchase))))) |BT| (ROOT (S (NP (NNP (phillips))(NNP (petroleum))(NNP (co.)))(VP (VBD (announce)))(REL-FOCUS-NUM-NP (NNP (wednesday)))(NP (PRP (it)))(VP (VBZ (have))(VBN (conclude)))(REL-FOCUS-NUM-NP (PRP$ (its))(CD (7))(CD (billion))(REL-NN (purchase)))(PP (IN (of)))(NP (NNP (atlantic))(NNP (richfield))(NNP (co.)))(NP (POS ('s))(NNS (property)))(PP (IN (in)))(REL-NP (REL-NNP (alaska)))(SBAR (IN (that)))(NP (PRP (it)))(VP (VBZ (have))(VBN (hire)))(NP (NNP (arco)))(REL-NP (POS ('s))(JJ (top))(REL-NNP (alaska))(JJ (executive)))(VP (TO (to))(VB (head)))(NP (PRP$ (its))(NNS (operation))))) |BT| (ROOT (S (REL-FOCUS-NUM-NP (WP (what))(NN (year)))(VP (VBD (be)))(REL-NP (REL-NNP (alaska)))(REL-VP (REL-VBD (purchase))))) |BT| (ROOT (S (NP (NN (treaty)))(PP (IN (for)))(REL-NP (REL-NN (purchase)))(PP (IN (of)))(REL-NP (REL-NNP (alaska)))(PP (IN (from)))(NP (NNP (russia))))) |ET| 1:0.15944821 2:0.088273481 3:0.17770466 4:0.063671447 5:0.13608275 11:0.26517078 12:0.22906534 13:0.046373889 14:0.55281705 15:0.24634033 16:0.19423887  |BV| 1:0.21081851 2:0.1119785 3:0.20519567 4:0.079681911 5:0.15713485 11:0.22757478 12:0.19733804 14:0.50122273 15:0.27032521 16:0.21517169  |EV| 
-0.79956572838336747999221643112833  |BT| (ROOT (S (NP (WP (what)))(VP (VBZ (be)))(REL-FOCUS-LOC-NP (DT (the))(REL-NN (capital)))(PP (IN (of)))(REL-NP (REL-NNP (victoria))))) |BT| (ROOT (S (REL-FOCUS-LOC-NP (NNP (central))(NNP (uganda)))(VP (VBZ (comprise)))(REL-NP (DT (the))(REL-NN (capital))(NNP (kampala)))(REL-FOCUS-LOC-NP (NNP (uganda)))(NP (POS ('s))(JJ (southern))(NN (part)))(PP (VBG (include)))(NP (DT (the))(NNS (island)))(REL-FOCUS-LOC-ADVP (RB (inside))(RB (late)))(REL-FOCUS-LOC-NP (REL-NNP (victoria))))) |BT| (ROOT (S (NP (WP (what)))(VP (VBZ (be)))(REL-FOCUS-LOC-NP (DT (the))(REL-NN (capital)))(PP (IN (of)))(REL-NP (REL-NNP (victoria))))) |BT| (ROOT (S (VP (VBD (march)))(PP (IN (in)))(REL-FOCUS-LOC-NP (NNP (melbourne)))(REL-NP (REL-NN (capital)))(PP (IN (of)))(NP (DT (the))(NN (state)))(PP (IN (of)))(REL-FOCUS-LOC-NP (REL-NNP (victoria)))(PP (IN (in)))(NP (NN (protest))))) |ET| 1:0.32232919 2:0.2220578 3:0.21442251 4:0.15891042 5:0.18033393 6:0.05248639 8:0.0372678 11:0.40291148 12:0.33341566 13:0.1490712 14:0.69711322 15:0.450434 16:0.18391742  |BV| 1:0.31943828 2:0.25275534 3:0.2309401 4:0.18220273 5:0.19245009 6:0.0879599 8:0.062166989 11:0.52668518 12:0.46056619 13:0.32842833 14:0.76476747 15:0.60734093 16:0.18391742  |EV| 
