SVM-light Version V5.01-TK-1.5
5 # kernel type
3 # kernel parameter -d 
1 # kernel parameter -g 
1 # kernel parameter -s 
1 # kernel parameter -r 
empty# kernel parameter -u 
0.4 # kernel parameter -L 
1 # kernel parameter -T 
+ # kernel parameter -C 
3 # kernel parameter -F 
1 # kernel parameter -S 
0.400000 # kernel parameter -M 
3 # kernel parameter -N 
R # kernel parameter -V 
R # kernel parameter -W 
0 # kernel parameter -U 
16 # highest feature index 
4865 # number of training documents 
2067 # number of support vectors plus 1 
-0.039613588 # threshold b, each following line is a SV (starting with alpha*y)
0.8138080436861333533116180660727  |BT| (ROOT (S (NP (WP (what)))(VP (VBZ (be)))(REL-NP (REL-NNP (horatio)))(REL-FOCUS-DESC-NP (REL-POS ('s))(NN (relationship)))(PP (TO (to)))(REL-NP (REL-NNP (hamlet))))) |BT| (ROOT (S (NP (DT (some)))(PP (IN (of)))(REL-NP (REL-NNP (hamlet)))(REL-NP (REL-POS ('s))(NN (schoolmate))(REL-NNP (horatio)))(NP (DT (the))(JJ (beloved))(NN (friend)))(PP (TO (to))))(S (REL-NP (REL-NNP (horatio)))(VP (VBZ (be)))(NP (DT (a))(NN (witness)))(PP (IN (of)))(NP (PRP$ (he))(NN (friend)))(REL-NP (REL-POS ('s))(JJ (mortal))(NN (enemy)))(NP (DT (the))(NN (king))))) |BT| (ROOT (S (NP (WP (what)))(VP (VBZ (be)))(REL-NP (REL-NNP (horatio)))(REL-FOCUS-DESC-NP (POS ('s))(NN (relationship)))(PP (TO (to)))(REL-NP (REL-NNP (hamlet))))) |BT| (ROOT (S (REL-NP (REL-NNP (hamlet)))(VP (VBZ (be)))(ADVP (RB (always))))(S (PP (IN (on)))(NP (NN (stage)))(REL-NP (REL-NN (hamlet)))(VP (VBZ (fall)))(PP (IN (at)))(NP (DT (the))(NN (center)))(PP (IN (with)))(REL-NP (REL-NNP (horatio)))(PP (IN (at)))(NP (PRP$ (he))(NN (side))))) |ET| 1:0.24646088 2:0.15564133 3:0.23440363 4:0.11854715 5:0.17376201 11:0.34698895 12:0.30070561 13:0.078688949 14:0.71537453 15:0.6014365 16:0.25403291  |BV| 1:0.20140237 2:0.11943584 3:0.10012523 4:0.087899201 5:0.073176168 11:0.23223923 12:0.19914833 13:0.01367683 14:0.63274252 15:0.56048846 16:0.25271317  |EV| 
0.67724367740247048974566723700264  |BT| (ROOT (S (NP (WP (what)))(VP (VBZ (be)))(REL-FOCUS-ENTY-NP (DT (the))(NN (name)))(PP (IN (of)))(REL-NP (REL-NNP (scarlett))(REL-NNP (o'hara)))(NP (POS ('s))(NN (house))))) |BT| (ROOT (S (VP (VB (mean))(TO (to))(VB (tell)))(NP (PRP (i)))(REL-FOCUS-ENTY-NP (NNP (katie))(REL-NNP (scarlett))(REL-NNP (o'hara)))(NP (WDT (that)))(REL-FOCUS-ENTY-NP (NNP (tara)))(SBAR (DT (that)))(NP (NN (land))))) |BT| (ROOT (S (NP (WP (what)))(VP (VBZ (be)))(REL-FOCUS-ENTY-NP (DT (the))(NN (name)))(PP (IN (of)))(REL-NP (REL-NNP (scarlett))(REL-NNP (o'hara)))(NP (POS ('s))(NN (house))))) |BT| (ROOT (S (NP (DT (the))(JJ (secret))(NN (diary)))(PP (IN (of)))(REL-NP (REL-NNP (scarlett))(REL-NNP (o'hara))))) |ET| 1:0.23354968 2:0.17742765 3:0.260133 4:0.12698413 5:0.19245009 6:0.053896811 7:0.10846523 8:0.0372678 9:0.083333328 11:0.40141371 12:0.33232519 13:0.09165445 14:0.73575616 15:0.4350937 16:0.31148893  |BV| 1:0.42257714 2:0.30905756 3:0.34188172 4:0.24653342 5:0.25819889 6:0.14552137 7:0.1490712 8:0.10206207 9:0.11785113 10:0.05383819 11:0.48435947 12:0.41932961 13:0.23179317 14:0.74449223 15:0.68461353 16:0.35715717  |EV| 
-0.36591630586668350000323357562593  |BT| (ROOT (S (ADVP (WRB (how)))(REL-FOCUS-NUM-NP (JJ (many))(REL-NNS (stripe)))(VP (VBP (be)))(PP (IN (on)))(REL-NP (DT (the))(REL-JJ (american))(REL-NN (flag))))) |BT| (ROOT (S (NP (PRP (it)))(VP (VBD (have)))(REL-NP (DT (the))(REL-JJ (american))(REL-NN (flag)))(PP (IN (with)))(NP (NNS (bomb)))(VP (VBG (fall)))(PP (IN (inside)))(REL-NP (DT (the))(REL-NNS (stripe))))) |BT| (ROOT (S (ADVP (WRB (how)))(REL-FOCUS-NUM-NP (JJ (many))(REL-NNS (stripe)))(VP (VBP (be)))(PP (IN (on)))(REL-NP (DT (the))(REL-JJ (american))(REL-NN (flag))))) |BT| (ROOT (S (NP (DT (a))(NN (picture)))(PP (IN (of)))(REL-NP (DT (a))(JJ (old))(REL-JJ (american))(REL-NN (flag)))(PP (IN (with)))(REL-NP (CD (15))(REL-NNS (stripe))))(S (NP (PRP (i)))(VP (VBD (think)))(REL-NP (DT (the))(REL-NNS (stripe)))(VP (VBD (represent)))(NP (DT (the))(CD (13))(JJ (original))(NNS (colony))))) |ET| 1:0.36440545 2:0.25905314 3:0.43386093 4:0.20412415 5:0.33333334 6:0.1008439 7:0.1490712 8:0.070186242 9:0.12598816 10:0.036735918 11:0.36531755 12:0.30460384 13:0.10750824 14:0.65816933 15:0.58566624 16:0.29514995  |BV| 1:0.37363237 2:0.23704354 3:0.44721359 4:0.16843037 5:0.34503278 6:0.034815531 7:0.12598816 8:0.02424643 9:0.10540926 11:0.4163332 12:0.34645116 13:0.11194342 14:0.66522503 15:0.53303593 16:0.29924929  |EV| 
-0.8138080436861333533116180660727  |BT| (ROOT (S (NP (WP (what)))(VP (VBZ (be)))(REL-FOCUS-ENTY-NP (DT (the))(NN (name)))(PP (IN (of)))(REL-NP (REL-NNP (scarlett))(REL-NNP (o'hara)))(NP (POS ('s))(NN (house))))) |BT| (ROOT (S (VP (VBZ (be)))(NP (DT (a))(JJ (strong))(NN (denouncement)))(REL-FOCUS-ENTY-NP (NNP (rod))(NNP (steiger)))(PP (IN (as)))(NP (DT (the))(NNP (southern))(NN (judge))))(S (NP (DT (the))(NN (spirit)))(PP (IN (of)))(REL-NP (REL-NNP (scarlett))(REL-NNP (o'hara))))) |BT| (ROOT (S (NP (WP (what)))(VP (VBZ (be)))(REL-FOCUS-ENTY-NP (DT (the))(NN (name)))(PP (IN (of)))(REL-NP (REL-NNP (scarlett))(REL-NNP (o'hara)))(NP (POS ('s))(NN (house))))) |BT| (ROOT (S (VP (VB (mean))(TO (to))(VB (tell)))(NP (PRP (i)))(REL-FOCUS-ENTY-NP (NNP (katie))(REL-NNP (scarlett))(REL-NNP (o'hara)))(NP (WDT (that)))(REL-FOCUS-ENTY-NP (NNP (tara)))(SBAR (DT (that)))(NP (NN (land))))) |ET| 1:0.24701609 2:0.19031443 3:0.20365328 4:0.15430336 5:0.1490712 6:0.088891327 7:0.083045483 8:0.061545748 9:0.062994078 10:0.032025632 11:0.51058888 12:0.46073931 13:0.26648545 14:0.79954177 15:0.67876428 16:0.28929442  |BV| 1:0.23354968 2:0.17742765 3:0.260133 4:0.12698413 5:0.19245009 6:0.053896811 7:0.10846523 8:0.0372678 9:0.083333328 11:0.40141371 12:0.33232519 13:0.09165445 14:0.73575616 15:0.4350937 16:0.31148893  |EV| 
-0.14437592633193227498189514790283  |BT| (ROOT (S (PP (IN (in)))(REL-FOCUS-ENTY-NP (WP (what))(JJ (canadian))(NN (province)))(VP (VBP (be)))(NP (RBS (most))(NNS (people)))(PP (IN (of)))(REL-NP (JJ (french))(REL-NN (descent))))) |BT| (ROOT (S (NP (NN (shoulder)))(VP (TO (to))(VB (shoulder)))(REL-FOCUS-ENTY-NP (NNP (dana)))(VP (VBD (say))))(S (NP (DT (a))(RB (deeply))(JJ (religious))(NNP (catholic)))(PP (IN (of)))(REL-NP (JJ (french-canadian))(REL-NN (descent)))(VP (VBD (move)))(NP (DT (the))(NNS (boy))))) |BT| (ROOT (S (PP (IN (in)))(REL-FOCUS-ENTY-NP (WP (what))(REL-JJ (canadian))(REL-NN (province)))(VP (VBP (be)))(NP (RBS (most))(NNS (people)))(PP (IN (of)))(NP (JJ (french))(NN (descent))))) |BT| (ROOT (S (NP (NNP (quebec))(NNS (separatist)))(VP (VBD (lampoon)))(REL-NP (DT (those))(REL-JJ (canadian))(NNS (politician)))(NP (WP (who)))(VP (VBD (submit)))(NP (JJ (special))(NN (status)))(PP (IN (for)))(REL-NP (DT (the))(JJ (french-canadian))(REL-NN (province)))(VP (VB (be))(VBN (enshrine)))(PP (IN (in))))) |ET| 1:0.11677484 2:0.065795168 3:0.052057918 4:0.047140449 5:0.038575839 11:0.32921934 12:0.2734116 13:0.070186242 14:0.59899002 15:0.47001508 16:0.25947967  |BV| 1:0.29346958 2:0.17878331 3:0.10959932 4:0.12355079 5:0.078567423 6:0.02761841 8:0.0190554 11:0.45633826 12:0.39036518 13:0.17868543 14:0.71436667 15:0.56091338 16:0.23124489  |EV| 
0.35225989109547073407924244747846  |BT| (ROOT (S (NP (WP (what)))(VP (VBZ (be)))(REL-FOCUS-ENTY-NP (DT (the))(NN (name)))(PP (IN (of)))(REL-NP (REL-NNP (scarlett))(REL-NNP (o'hara)))(NP (POS ('s))(NN (house))))) |BT| (ROOT (S (NP (DT (a))(NN (bit)))(PP (IN (like)))(REL-FOCUS-ENTY-NP (REL-NNP (scarlett))(REL-NNP (o'hara)))(VP (VBG (survey)))(REL-FOCUS-ENTY-NP (NNP (tara)))(ADVP (IN (though)))(PP (IN (in)))(NP (DT (the))(JJ (current))(NN (housing))(NN (market)))(REL-FOCUS-ENTY-NP (NNP (tara)))(VP (MD (would))(VB (be)))(NP (DT (a))(NN (teardown))))) |BT| (ROOT (S (NP (WP (what)))(VP (VBZ (be)))(REL-FOCUS-ENTY-NP (DT (the))(NN (name)))(PP (IN (of)))(REL-NP (REL-NNP (scarlett))(REL-NNP (o'hara)))(NP (POS ('s))(NN (house))))) |BT| (ROOT (S (NP (DT (the))(JJ (secret))(NN (diary)))(PP (IN (of)))(REL-NP (REL-NNP (scarlett))(REL-NNP (o'hara))))) |ET| 1:0.24701609 2:0.15823503 3:0.1770844 4:0.11305037 5:0.13130642 6:0.02662174 7:0.07559289 8:0.01855674 9:0.0571662 11:0.47568262 12:0.41714883 13:0.17919968 14:0.76760119 15:0.55908984 16:0.30093682  |BV| 1:0.42257714 2:0.30905756 3:0.34188172 4:0.24653342 5:0.25819889 6:0.14552137 7:0.1490712 8:0.10206207 9:0.11785113 10:0.05383819 11:0.48435947 12:0.41932961 13:0.23179317 14:0.74449223 15:0.68461353 16:0.35715717  |EV| 
0.17158898961183860487622609980463  |BT| (ROOT (S (ADVP (WRB (when)))(VP (VBD (be)))(REL-FOCUS-NUM-NP (REL-NNP (benjamin))(REL-NNP (disraeli))(REL-JJ (prime))(REL-NN (minister))))) |BT| (ROOT (S (NP (NNP (france)))(VP (VBD (have)))(REL-NP (DT (a))(JJ (jewish))(REL-JJ (prime))(REL-NN (minister)))(PP (IN (in)))(REL-FOCUS-NUM-NP (CD (1936)))(NP (NNP (england)))(PP (IN (in)))(REL-FOCUS-NUM-NP (CD (1868)))(NP (NNP (spain)))(PP (IN (of)))(NP (DT (all))(NNS (country)))(PP (IN (in)))(REL-FOCUS-NUM-NP (CD (1835)))(NP (NN (none)))(PP (IN (of)))(NP (PRP (they)))(NP (NNP (leon))(NNP (blum)))(REL-NP (REL-NNP (benjamin))(REL-NNP (disraeli)))(NP (NNP (juan))(NNP (alvarez))(NNP (mendizabal)))(VP (VBD (be))))(S (ADVP (RB (indeed)))(REL-NP (REL-NNP (disraeli)))(VP (VBD (have))(VBN (be))(VBN (baptize)))(PP (IN (as))))) |BT| (ROOT (S (ADVP (WRB (when)))(VP (VBD (be)))(REL-FOCUS-NUM-NP (REL-NNP (benjamin))(REL-NNP (disraeli))(REL-JJ (prime))(REL-NN (minister))))) |BT| (ROOT (S (PP (IN (in)))(NP (NNP (victorian))(NNP (england)))(REL-NP (REL-NNP (benjamin))(REL-NNP (disraeli)))(VP (VBN (baptize)))(PP (IN (in)))(VP (VBD (serve)))(PP (IN (as)))(REL-NP (REL-JJ (prime))(REL-NN (minister))))) |ET| 1:0.22528177 2:0.17189598 3:0.31399292 4:0.13012514 5:0.23103443 6:0.046386361 7:0.11268723 8:0.032659858 9:0.084666751 11:0.45907643 12:0.40364376 13:0.13386989 14:0.51951092 15:0.29154441 16:0.32463381  |BV| 1:0.2057378 2:0.17255919 3:0.38332593 4:0.12451456 5:0.28005603 6:0.069631062 7:0.15569979 8:0.049236599 9:0.11785113 11:0.42174116 12:0.36084393 13:0.17334056 14:0.51139128 15:0.36080217 16:0.35315871  |EV| 
0.8138080436861333533116180660727  |BT| (ROOT (S (REL-NP (WP (what))(REL-NN (color)))(VP (VBZ (be)))(REL-FOCUS-ENTY-NP (DT (the))(JJ (top))(REL-NN (stripe)))(PP (IN (on)))(REL-NP (DT (the))(NNP (u.s.))(REL-NN (flag))))) |BT| (ROOT (S (VP (VBP (be)))(ADJP (JJ (red)))(REL-NP (JJ (green))(JJ (black))(CC (and))(JJ (white))(REL-NNS (stripe)))(VP (TO (to))(VB (demonstrate)))(REL-NP (DT (the))(REL-NNS (color)))(PP (IN (of)))(REL-NP (DT (the))(JJ (palestinian))(JJ (national))(REL-NN (flag))))) |BT| (ROOT (S (REL-NP (WP (what))(REL-NN (color)))(VP (VBZ (be)))(REL-FOCUS-ENTY-NP (DT (the))(JJ (top))(REL-NN (stripe)))(PP (IN (on)))(NP (DT (the))(NNP (u.s.))(NN (flag))))) |BT| (ROOT (S (NP (DT (a))(NN (candle)))(PP (IN (of)))(REL-NP (DT (all))(CD (one))(REL-NN (color)))(REL-NP (NN (layer))(REL-NNS (color)))(VP (TO (to))(VB (make)))(REL-NP (REL-NNS (stripe)))(VP (VB (run)))(NP (DT (a))(NN (knife)))(NP (PRP (it)))(VP (TO (to))(VB (marbleize)))(REL-NP (DT (the))(REL-NNS (color)))(VP (VB (tilt)))(NP (DT (the))(NN (jar))(CC (or))(JJ (mug)))(NP (NN (layer)))(PP (IN (in)))(REL-NP (REL-NNS (color)))(VP (TO (to))(VB (make)))(REL-NP (VBN (slant))(REL-NNS (stripe))))) |ET| 1:0.51753318 2:0.33570173 3:0.15617377 4:0.24696958 5:0.11371471 6:0.025181649 8:0.017352641 11:0.50164205 12:0.42571011 13:0.12874788 14:0.74902833 15:0.4991906 16:0.26310238  |BV| 1:0.30261377 2:0.18080492 3:0.24806947 4:0.13287351 5:0.18786728 11:0.36261258 12:0.3074933 13:0.075601541 14:0.64684594 15:0.47192553 16:0.27592385  |EV| 
0.66882183631592417860645127802854  |BT| (ROOT (S (NP (WP (what)))(VP (VBZ (be)))(REL-NP (REL-NNP (horatio)))(REL-FOCUS-DESC-NP (REL-POS ('s))(NN (relationship)))(PP (TO (to)))(REL-NP (REL-NNP (hamlet))))) |BT| (ROOT (S (NP (DT (the))(JJ (last))(NNS (line)))(PP (TO (to)))(REL-NP (REL-NNP (hamlet)))(REL-NP (REL-POS ('s))(NN (friend))(REL-NNP (horatio)))(ADVP (RB (rather)))(PP (IN (than))))) |BT| (ROOT (S (NP (WP (what)))(VP (VBZ (be)))(REL-NP (REL-NNP (horatio)))(REL-FOCUS-DESC-NP (POS ('s))(NN (relationship)))(PP (TO (to)))(REL-NP (REL-NNP (hamlet))))) |BT| (ROOT (S (NP (NNP (with)))(REL-NP (NNP (ted))(NNP (zurkowski))(REL-NNP (hamlet)))(NP (NNP (austin))(NNP (pendleton))(NNP (claudius))(CC (and))(NNP (ghost)))(NP (NNP (vivien))(NNP (landau))(NNP (gertrude)))(NP (NNP (josephine))(NNP (gallarello))(NNP (ophelia)))(NP (NNP (matthew))(NNP (d.))(NNP (barton))(NNP (laertes)))(REL-NP (NNP (joe))(NNP (corey))(REL-NNP (horatio)))(NP (NNP (jerry))(NNP (less))(NNP (rosencrantz)))(NP (NNP (tom))(NNP (marsden))))) |ET| 1:0.22430886 2:0.15223655 3:0.16198477 4:0.11454053 5:0.11785113 6:0.0238705 8:0.01687899 11:0.33323869 12:0.28641751 13:0.077540353 14:0.64958084 15:0.62277597 16:0.22259527  |BV| 1:0.050125469 2:0.03069666 3:0.10585122 4:0.023809521 5:0.076980039 11:0.29601881 12:0.24902911 14:0.52761823 15:0.13982531 16:0.22686745  |EV| 
0.06311851286527139781590278744261  |BT| (ROOT (S (REL-FOCUS-LOC-NP (WP (what))(REL-NN (country)))(VP (VBZ (be)))(REL-NP (DT (the))(REL-JJS (largest)))(PP (IN (in)))(REL-NP (REL-JJ (square))(REL-NNS (mile))))) |BT| (ROOT (S (ADVP (RB (also)))(VP (VBD (call)))(REL-FOCUS-LOC-NP (DT (the))(NNP (soviet))(NNP (union)))(VP (VBD (be)))(REL-NP (DT (the))(REL-JJS (largest))(REL-NN (country)))(PP (IN (in)))(NP (DT (the))(NN (world))))(S (VP (VBZ (be)))(ADVP (RB (now)))(REL-FOCUS-LOC-NP (NNP (russia)))(NP (DT (the))(NNP (russian))(NNP (federation)))(VP (VBZ (be)))(ADVP (RB (still)))(NP (DT (the))(NN (world)))(REL-NP (POS ('s))(REL-JJS (largest))(REL-NN (country)))(VP (VBZ (be)))(NP (RB (almost))(RB (twice))(RB (as))(JJ (big)))(PP (IN (as)))(REL-FOCUS-LOC-NP (NNP (canada))))(S (NP (DT (the))(NNS (statistics)))(REL-FOCUS-LOC-NP (NNP (russia)))(REL-NP (CD (6.6))(CD (million))(REL-NN (square))(REL-NNS (mile)))(REL-FOCUS-LOC-NP (NNP (canada)))(REL-NP (CD (3.85))(CD (million))(REL-JJ (square))(REL-NNS (mile))))(S (PP (IN (for)))(NP (NN (comparison)))(REL-NP (CD (8.65))(CD (million))(REL-JJ (square))(REL-NNS (mile))))) |BT| (ROOT (S (REL-FOCUS-LOC-NP (WP (what))(REL-NN (country)))(VP (VBZ (be)))(REL-NP (DT (the))(REL-JJS (largest)))(PP (IN (in)))(REL-NP (REL-JJ (square))(REL-NNS (mile))))) |BT| (ROOT (S (NP (NNP (area)))(REL-NP (DT (the))(REL-JJS (largest))(REL-NN (country)))(PP (IN (in)))(NP (DT (the))(NN (world)))(VP (VBG (encompass)))(NP (CD (11))(NN (time))(NNS (zone)))(REL-NP (CD (6.5))(CD (million))(REL-JJ (square))(REL-NNS (mile)))(NP (IN (about))(CD (1.8))(NNS (time)))(NP (DT (the))(NN (size))))) |ET| 1:0.47853661 2:0.35561779 3:0.42929783 4:0.27979898 5:0.32571328 6:0.1051661 7:0.13349825 8:0.074604712 9:0.10350983 10:0.02017425 11:0.33069509 12:0.28177226 13:0.075997218 14:0.64588875 15:0.58606243 16:0.27686238  |BV| 1:0.46291006 2:0.32117644 3:0.32897586 4:0.23036966 5:0.24310832 6:0.070932686 7:0.083045483 8:0.04941662 9:0.062994078 11:0.30725494 12:0.25354627 13:0.04706208 14:0.73123288 15:0.44444051 16:0.25831068  |EV| 
0.24299263222057518318841573545797  |BT| (ROOT (S (REL-FOCUS-LOC-NP (WP (what))(NN (body)))(PP (IN (of)))(REL-NP (REL-NN (water)))(VP (VBZ (do)))(REL-NP (DT (the))(REL-NNP (colorado))(REL-NNP (river))(JJ (empty)))(PP (IN (into))))) |BT| (ROOT (S (VP (VBP (have))(VBN (plead)))(PP (IN (with)))(REL-NP (JJ (federal))(CC (and))(NN (state))(REL-NN (water))(NNS (manager)))(VP (TO (to))(VB (set)))(REL-NP (RP (aside))(REL-NN (water)))(VP (TO (to))(VB (help))(VB (preserve))(CC (and))(VB (restore)))(REL-NP (REL-NN (river))(NNS (system))))(S (VP (VBZ (flow)))(PP (IN (in)))(REL-FOCUS-LOC-NP (DT (the))(REL-NNP (colorado))(REL-NNP (river)))(PP (IN (for)))(NP (NN (example)))(NP (JJ (entire))(NNS (ecosystem)))(PP (IN (because)))(REL-NP (RB (so))(JJ (little))(REL-NN (water)))(PP (IN (from)))(REL-NP (DT (the))(REL-NNP (colorado)))(ADVP (RB (actually)))(VP (VBZ (reach)))(REL-FOCUS-LOC-NP (DT (the))(NNP (gulf)))(PP (IN (of)))(REL-FOCUS-LOC-NP (NNP (california))))) |BT| (ROOT (S (REL-FOCUS-LOC-NP (WP (what))(NN (body)))(PP (IN (of)))(REL-NP (REL-NN (water)))(VP (VBZ (do)))(REL-NP (DT (the))(NNP (colorado))(REL-NNP (river))(REL-JJ (empty)))(PP (IN (into))))) |BT| (ROOT (S (NP (NNP (san))(NNP (diego)))(REL-FOCUS-LOC-NP (DT (the))(NNP (tijuana))(REL-NNP (river))(REL-NNS (empty)))(PP (IN (into)))(REL-FOCUS-LOC-NP (DT (the))(NNP (pacific))(NNP (ocean)))(ADVP (RB (here)))(NP (JJS (most)))(NP (PRP$ (its))(NNS (bank)))(VP (VBZ (be)))(REL-NP (REL-NN (water))))) |ET| 1:0.34815532 2:0.25172818 3:0.34717044 4:0.19266866 5:0.2534897 6:0.091310874 7:0.10798985 8:0.063064501 9:0.078567423 10:0.02462576 11:0.5217492 12:0.44008622 13:0.13483997 14:0.75984001 15:0.67798835 16:0.26789522  |BV| 1:0.43322429 2:0.29424495 3:0.29095718 4:0.22739701 5:0.21081851 6:0.10039117 7:0.086710997 8:0.069504797 9:0.064150028 10:0.036155079 11:0.50689685 12:0.42780998 13:0.16506252 14:0.78004718 15:0.4553569 16:0.2618477  |EV| 
-0.70742347840340213949161807249766  |BT| (ROOT (S (NP (WP (what)))(VP (VBZ (be)))(REL-FOCUS-ENTY-NP (DT (the))(NN (name)))(PP (IN (of)))(REL-NP (REL-NNP (scarlett))(REL-NNP (o'hara)))(REL-NP (REL-POS ('s))(NN (house))))) |BT| (ROOT (S (REL-FOCUS-ENTY-NP (NNP (gordon)))(VP (VBZ (have))(VBN (say)))(PP (IN (with)))(VP (VBG (cast)))(NP (NNP (connelly)))(REL-NP (REL-POS ('s))(NN (part)))(PP (IN (in)))(VP (VBG (wake)))(NP (DT (the))(NN (search)))(PP (IN (for)))(REL-NP (DT (a))(REL-NNP (scarlett))(REL-NNP (o'hara)))(PP (IN (for)))(VP (VBN (go))))) |BT| (ROOT (S (NP (WP (what)))(VP (VBZ (be)))(REL-FOCUS-ENTY-NP (DT (the))(NN (name)))(PP (IN (of)))(REL-NP (REL-NNP (scarlett))(REL-NNP (o'hara)))(NP (POS ('s))(NN (house))))) |BT| (ROOT (S (VP (VB (mean))(TO (to))(VB (tell)))(NP (PRP (i)))(REL-FOCUS-ENTY-NP (NNP (katie))(REL-NNP (scarlett))(REL-NNP (o'hara)))(NP (WDT (that)))(REL-FOCUS-ENTY-NP (NNP (tara)))(SBAR (DT (that)))(NP (NN (land))))) |ET| 1:0.33218193 2:0.20964275 3:0.28074497 4:0.1490712 5:0.2057378 6:0.027639501 7:0.086066298 8:0.019117979 9:0.06537205 11:0.54958332 12:0.47450587 13:0.24326682 14:0.75980443 15:0.60124445 16:0.28929442  |BV| 1:0.23354968 2:0.17742765 3:0.260133 4:0.12698413 5:0.19245009 6:0.053896811 7:0.10846523 8:0.0372678 9:0.083333328 11:0.40141371 12:0.33232519 13:0.09165445 14:0.73575616 15:0.4350937 16:0.31148893  |EV| 
-0.8138080436861333533116180660727  |BT| (ROOT (S (NP (WP (what)))(VP (VBZ (be)))(REL-FOCUS-ENTY-NP (DT (the))(NN (name)))(PP (IN (of)))(REL-NP (REL-NNP (scarlett))(REL-NNP (o'hara)))(REL-NP (REL-POS ('s))(NN (house))))) |BT| (ROOT (S (PP (IN (of)))(NP (NNP (becky)))(REL-NP (REL-POS ('s))(JJ (few))(NNS (moment)))(PP (IN (of)))(NP (NN (introspection))))(S (VP (VBZ (be)))(ADVP (RB (surely)))(REL-FOCUS-ENTY-NP (REL-NNP (scarlett))(REL-NNP (o'hara)))(REL-NP (REL-POS ('s))(NN (prototype)))(VP (VBG (resume)))(NP (PRP$ (she))(JJ (ardent))(NN (pursuit))))) |BT| (ROOT (S (NP (WP (what)))(VP (VBZ (be)))(REL-FOCUS-ENTY-NP (DT (the))(NN (name)))(PP (IN (of)))(REL-NP (REL-NNP (scarlett))(REL-NNP (o'hara)))(NP (POS ('s))(NN (house))))) |BT| (ROOT (S (VP (VB (mean))(TO (to))(VB (tell)))(NP (PRP (i)))(REL-FOCUS-ENTY-NP (NNP (katie))(REL-NNP (scarlett))(REL-NNP (o'hara)))(NP (WDT (that)))(REL-FOCUS-ENTY-NP (NNP (tara)))(SBAR (DT (that)))(NP (NN (land))))) |ET| 1:0.44177064 2:0.29676035 3:0.33806169 4:0.2301897 5:0.29633364 6:0.084016807 7:0.22677869 8:0.058387421 9:0.1714986 10:0.030642571 11:0.53895509 12:0.46169025 13:0.25663245 14:0.78718281 15:0.65199977 16:0.30372182  |BV| 1:0.23354968 2:0.17742765 3:0.260133 4:0.12698413 5:0.19245009 6:0.053896811 7:0.10846523 8:0.0372678 9:0.083333328 11:0.40141371 12:0.33232519 13:0.09165445 14:0.73575616 15:0.4350937 16:0.31148893  |EV| 
-0.8138080436861333533116180660727  |BT| (ROOT (S (NP (WP (what)))(VP (VBZ (be)))(REL-FOCUS-ENTY-NP (DT (the))(NN (name)))(PP (IN (of)))(REL-NP (DT (the))(REL-NN (airport)))(PP (IN (in)))(REL-NP (REL-NNP (amsterdam))))) |BT| (ROOT (S (PP (IN (out)))(PP (IN (of)))(REL-NP (DT (the))(JJ (present))(JJ (international))(REL-NN (airport)))(NP (PRP (he)))(VP (VBD (say)))(NP (DT (this)))(VP (MD (would))(VB (be)))(REL-FOCUS-ENTY-NP (DT (the))(NNP (klm))(NN (flight)))(PP (TO (to)))(REL-NP (REL-NNP (amsterdam))))) |BT| (ROOT (S (NP (WP (what)))(VP (VBZ (be)))(REL-FOCUS-ENTY-NP (DT (the))(NN (name)))(PP (IN (of)))(REL-NP (DT (the))(REL-NN (airport)))(PP (IN (in)))(REL-NP (REL-NNP (amsterdam))))) |BT| (ROOT (S (REL-NP (REL-NNP (amsterdam)))(REL-NP (NNP (schipol))(REL-NNP (airport)))(NP (NN (&ql))))) |ET| 1:0.48795003 2:0.34091458 3:0.28005603 4:0.24607943 5:0.24077171 6:0.070754908 8:0.049147319 11:0.41192627 12:0.34539846 13:0.094660312 14:0.78459954 15:0.72284234 16:0.22189179  |BV| 1:0.091287091 2:0.050062619 3:0.17407766 4:0.035737079 5:0.1490712 11:0.17505471 12:0.14896989 14:0.54693145 15:0.43188506 16:0.24200073  |EV| 
-0.8138080436861333533116180660727  |BT| (ROOT (S (REL-NP (WP (what))(REL-NN (galaxy)))(VP (VBZ (be)))(REL-ADJP (REL-JJS (closest)))(PP (TO (to)))(REL-FOCUS-ENTY-NP (DT (the))(REL-JJ (milky))(NN (way))))) |BT| (ROOT (S (NP (DT (the))(NN (star)))(VP (VBZ (be)))(REL-NP (DT (the))(REL-JJS (closest)))(PP (TO (to)))(NP (NNP (earth))))(S (NP (CD (one)))(PP (IN (of)))(REL-NP (DT (the))(REL-JJS (closest))(NNS (member)))(PP (IN (of)))(NP (DT (a))(NN (class)))(NP (DT (the))(RBS (most))(JJ (common)))(PP (IN (in)))(REL-NP (DT (the))(REL-NNP (milky))(NNP (way))(REL-NN (galaxy))))) |BT| (ROOT (S (NP (WP (what))(NN (galaxy)))(VP (VBZ (be)))(ADJP (JJS (closest)))(PP (TO (to)))(REL-FOCUS-ENTY-NP (DT (the))(REL-JJ (milky))(NN (way))))) |BT| (ROOT (S (PP (IN (of)))(NP (DT (the))(NNP (andromeda)))(REL-NP (REL-NNP (milky))(NNP (way))(NNP (galaxies))))) |ET| 1:0.44459063 2:0.28198081 3:0.2409658 4:0.20732211 5:0.18677184 6:0.026490649 8:0.018509001 11:0.39021218 12:0.32789463 13:0.087078422 14:0.66990036 15:0.48664591 16:0.4455685  |BV| 1:0.11111111 2:0.05882353 4:0.041666672 11:0.057831489 12:0.04902903 14:0.32690158 15:0.26880273 16:0.40816799  |EV| 
-0.8138080436861333533116180660727  |BT| (ROOT (S (REL-NP (WP (what))(REL-NN (galaxy)))(VP (VBZ (be)))(ADJP (JJS (closest)))(PP (TO (to)))(REL-FOCUS-ENTY-NP (DT (the))(REL-JJ (milky))(NN (way))))) |BT| (ROOT (S (NP (NN (part)))(PP (IN (of)))(REL-NP (DT (the))(REL-NNP (milky))(NNP (way))(REL-NN (galaxy))))(S (VP (VBP (be)))(PP (IN (in)))(REL-NP (DT (the))(REL-NNP (milky))(NN (way))))(S (NP (DT (the))(JJ (solar))(NN (system)))(ADVP (WRB (where)))(REL-FOCUS-ENTY-NP (NNP (earth)))(VP (VBZ (be))(VBN (situate)))(VP (VBP (have))))) |BT| (ROOT (S (NP (WP (what))(NN (galaxy)))(VP (VBZ (be)))(ADJP (JJS (closest)))(PP (TO (to)))(REL-FOCUS-ENTY-NP (DT (the))(REL-JJ (milky))(NN (way))))) |BT| (ROOT (S (PP (IN (of)))(NP (DT (the))(NNP (andromeda)))(REL-NP (REL-NNP (milky))(NNP (way))(NNP (galaxies))))) |ET| 1:0.41344911 2:0.25322509 3:0.068199433 4:0.18456791 5:0.05607722 6:0.02834101 8:0.02017425 11:0.46963626 12:0.39467612 13:0.15740836 14:0.67389107 15:0.5190177 16:0.37791777  |BV| 1:0.11111111 2:0.05882353 4:0.041666672 11:0.057831489 12:0.04902903 14:0.32690158 15:0.26880273 16:0.40816799  |EV| 
0.8138080436861333533116180660727  |BT| (ROOT (S (NP (WP (what)))(VP (VBZ (be)))(REL-FOCUS-ENTY-NP (DT (the))(NN (name)))(PP (IN (of)))(REL-NP (DT (the))(REL-NN (airport)))(PP (IN (in)))(REL-NP (REL-NNP (amsterdam))))) |BT| (ROOT (S (REL-NP (REL-NNP (amsterdam)))(REL-NP (NNP (schipol))(REL-NNP (airport)))(NP (NN (&ql))))) |BT| (ROOT (S (NP (WP (what)))(VP (VBZ (be)))(REL-FOCUS-ENTY-NP (DT (the))(NN (name)))(PP (IN (of)))(REL-NP (DT (the))(REL-NN (airport)))(PP (IN (in)))(REL-NP (REL-NNP (amsterdam))))) |BT| (ROOT (S (NP (DT (the))(NNS (gate)))(PP (IN (of)))(REL-NP (REL-NNP (amsterdam))(REL-NN (airport)))(NP (DT (every))(NN (day)))(PP (IN (for))))) |ET| 1:0.091287091 2:0.050062619 3:0.17407766 4:0.035737079 5:0.1490712 11:0.17505471 12:0.14896989 14:0.54693145 15:0.43188506 16:0.24200073  |BV| 1:0.55277079 2:0.32971987 3:0.28005603 4:0.24072845 5:0.23570226 11:0.58470535 12:0.51459479 13:0.32501355 14:0.82417464 15:0.69540715 16:0.21591143  |EV| 
-0.72588787421834632951345156470779  |BT| (ROOT (S (ADVP (WRB (when)))(VP (VBD (be)))(REL-FOCUS-NUM-NP (REL-NNP (sputnik)))(REL-VP (REL-VBD (launch))))) |BT| (ROOT (S (VP (VBD (mark)))(NP (DT (the))(JJ (41st))(NN (anniversary)))(REL-FOCUS-NUM-NP (NNP (sunday)))(PP (IN (of)))(REL-NP (DT (the))(REL-NN (launch)))(PP (IN (of)))(REL-NP (DT (the))(REL-NNP (sputnik))(NN (satellite)))(NP (DT (the))(JJ (first))(JJ (manmade))(NN (object)))(VP (VBD (send))))) |BT| (ROOT (S (ADVP (WRB (when)))(VP (VBD (be)))(REL-FOCUS-NUM-NP (REL-NNP (sputnik)))(REL-VP (REL-VBD (launch))))) |BT| (ROOT (S (NP (DT (the))(NN (aftermath)))(PP (IN (of)))(REL-FOCUS-NUM-NP (DT (the))(NNP (october))(CD (1957))(REL-NN (launch)))(PP (IN (of)))(REL-NP (REL-NNP (sputnik)))(NP (DT (the))(JJ (first))(JJ (man-made))(NN (satellite)))(PP (IN (by))))) |ET| 1:0.13639887 2:0.078027427 3:0.21442251 4:0.05773503 5:0.17817415 11:0.24038492 12:0.21004201 13:0.035333261 14:0.40029305 15:0.24142133 16:0.22969298  |BV| 1:0.13333333 2:0.078027427 3:0.21442251 4:0.05773503 5:0.17817415 11:0.11886433 12:0.10400629 14:0.27313873 15:0.14956971 16:0.22436412  |EV| 
0.40764237653522411575224282387353  |BT| (ROOT (S (NP (WP (what)))(VP (VBZ (be)))(REL-NP (DT (a))(JJ (female))(REL-JJ (moose))(REL-VBN (call))))) |BT| (ROOT (S (NP (NNS (--female)))(REL-VP (VBP (be))(REL-VBN (call)))(NP (NNS (cow))(CC (and))(NNS (male)))(VP (VBP (be)))(REL-NP (NN (bull))(REL-NN (moose))))) |BT| (ROOT (S (NP (WP (what)))(VP (VBZ (be)))(REL-NP (DT (a))(JJ (female))(REL-JJ (moose))(REL-VBN (call))))) |BT| (ROOT (S (VP (VBZ (sum)))(PRT (RP (up)))(REL-NP (REL-NNP (moose)))(REL-NP (POS ('s))(REL-VBG (call))))) |ET| 1:0.40089187 2:0.23772866 3:0.20519567 4:0.1754116 5:0.15713485 11:0.065465368 12:0.055901699 14:0.42515492 15:0.35289812 16:0.30548748  |BV| 1:0.11952286 2:0.067267276 3:0.11547005 4:0.049147319 5:0.091287091 11:0.043033149 12:0.036084391 14:0.4221147 15:0.38373974 16:0.24190436  |EV| 
0.8138080436861333533116180660727  |BT| (ROOT (S (ADVP (WRB (how))(RB (far)))(VP (VBZ (be)))(REL-FOCUS-NUM-NP (DT (the))(REL-NNS (pitcher))(REL-NN (mound)))(PP (IN (from)))(REL-NP (REL-NN (home))(REL-NN (plate)))(PP (IN (in)))(NP (NN (softball))))) |BT| (ROOT (S (ADVP (WRB (where)))(NP (NNS (game)))(REL-NP (JJ (last))(CD (seven))(NNS (inning))(CC (and))(REL-NNS (pitcher)))(VP (VBN (bind)))(PRT (IN (off)))(REL-NP (DT (a))(REL-NN (mound)))(NP (RB (only))(CD (46))(NNS (foot)))(PP (IN (from)))(REL-NP (REL-NN (home))(REL-NN (plate)))(VP (TO (to))(VB (hurl)))(NP (DT (a))(JJ (blinding))(NN (assortment))))) |BT| (ROOT (S (ADVP (WRB (how))(RB (far)))(VP (VBZ (be)))(REL-FOCUS-NUM-NP (DT (the))(REL-NNS (pitcher))(REL-NN (mound)))(PP (IN (from)))(REL-NP (REL-NN (home))(REL-NN (plate)))(PP (IN (in)))(NP (NN (softball))))) |BT| (ROOT (S (NP (DT (a))(NN (path)))(PP (IN (from)))(REL-NP (DT (the))(REL-NN (pitcher)))(REL-NP (POS ('s))(REL-NN (mound)))(PP (TO (to)))(REL-NP (REL-NN (home))(REL-NN (plate)))(ADVP (RB (just)))(PP (IN (like))))) |ET| 1:0.28867513 2:0.19972059 3:0.25416428 4:0.15582862 5:0.18480532 6:0.070186242 7:0.062136982 8:0.048412289 9:0.045360919 10:0.025181649 11:0.59396726 12:0.52050757 13:0.19179882 14:0.7691676 15:0.54742253 16:0.30421561  |BV| 1:0.36514837 2:0.24746108 3:0.37139067 4:0.17321374 5:0.31180477 6:0.05587988 7:0.21821789 8:0.03849002 9:0.16012815 11:0.36234984 12:0.31848481 13:0.070429519 14:0.6851806 15:0.71702981 16:0.3395046  |EV| 
0.46725953622970040068906882879674  |BT| (ROOT (S (ADVP (WRB (where)))(VP (VBZ (be)))(REL-FOCUS-LOC-NP (REL-NNP (hill))(REL-NNP (air))(REL-NNP (force))(REL-NNP (base))))) |BT| (ROOT (S (NP (NNP (sps))(NNPS (technologies)))(PP (IN (of)))(REL-FOCUS-LOC-NP (NNP (jenkintown)))(VP (VBD (win)))(NP (DT (a))(CD (279,627))(NN (contract)))(PP (IN (from)))(REL-FOCUS-LOC-NP (DT (the))(REL-NNP (hill))(REL-NNP (air))(REL-NNP (force))(REL-NNP (base)))(PP (IN (in)))(REL-FOCUS-LOC-NP (NNP (utah)))(PP (IN (for)))(NP (NN (hardware))(CC (and))(NNS (abrasive))))) |BT| (ROOT (S (ADVP (WRB (where)))(VP (VBZ (be)))(REL-FOCUS-LOC-NP (REL-NNP (hill))(REL-NNP (air))(REL-NNP (force))(REL-NNP (base))))) |BT| (ROOT (S (NP (NNP (salt))(NN (lake))(NN (city)))(NP (NNP (ap)))(REL-NP (DT (a))(REL-NNP (air))(REL-NNP (force))(NN (cruise))(NN (missile)))(VP (VBD (malfunction)))(PP (IN (during)))(VP (VBD (crash)))(PP (IN (in)))(REL-FOCUS-LOC-NP (DT (the))(NNP (great))(NNP (salt))(NNP (lake))(NNP (desert)))(REL-FOCUS-LOC-NP (REL-NNP (hill))(REL-NNP (air))(REL-NNP (force))(REL-NNP (base))(NNS (official)))(VP (VBD (say))))) |ET| 1:0.32232919 2:0.29606846 3:0.52915025 4:0.26726124 5:0.5 6:0.23544081 7:0.46625239 8:0.2 9:0.42640144 10:0.16012815 11:0.59078801 12:0.53817314 13:0.34403124 14:0.60362434 15:0.45502186 16:0.26680961  |BV| 1:0.36788359 2:0.32915401 3:0.56343615 4:0.28143901 5:0.50395262 6:0.22792114 7:0.42966893 8:0.18843368 9:0.3818813 10:0.13018891 11:0.69759738 12:0.65060008 13:0.50785565 14:0.71015513 15:0.50538075 16:0.27454466  |EV| 
-0.8138080436861333533116180660727  |BT| (ROOT (S (ADVP (WRB (when)))(REL-FOCUS-NUM-NP (REL-NNP (international))(NNP (volunteers))(REL-NNP (day)))(VP (VB (begin))))) |BT| (ROOT (S (REL-FOCUS-NUM-NP (NNP (kathmandu,))(NNP (december))(CD (5))(NNP (xinhua)))(NP (DT (a))(NN (number)))(PP (IN (of)))(NP (NNS (event)))(VP (VBD (be))(VBN (organize)))(REL-FOCUS-NUM-NP (NNP (saturday)))(PP (IN (in)))(NP (NNP (nepal)))(VP (TO (to))(VB (mark)))(REL-NP (DT (the))(REL-NNP (international))(NNP (volunteer))(REL-NNP (day))))) |BT| (ROOT (S (ADVP (WRB (when)))(REL-FOCUS-NUM-NP (REL-NNP (international))(REL-NNP (volunteers))(REL-NNP (day)))(VP (VB (begin))))) |BT| (ROOT (S (REL-NP (DT (the))(REL-NNP (international))(NNP (volunteer))(REL-NNP (day)))(PP (IN (on)))(REL-FOCUS-NUM-NP (NNP (december))(CD (5)))(VP (VBD (be))(VBN (create)))(PP (IN (by)))(NP (DT (the))(NNP (united))(NNPS (nations))(NNP (general))(NNP (assembly)))(PP (IN (in)))(REL-FOCUS-NUM-NP (CD (1985))))(S (ADVP (RB (recently)))(VP (VBD (designate)))(REL-FOCUS-NUM-NP (DT (the))(NN (year))(CD (2001)))(PP (IN (as)))(REL-NP (DT (the))(REL-NNP (international))(NN (year)))(PP (IN (of)))(REL-NP (REL-NNP (volunteers)))(VP (TO (to))(RB (further))(VB (recognize)))(NP (DT (the))(NN (value))))) |ET| 1:0.15762208 2:0.082689822 3:0.1511858 4:0.058025889 5:0.11111111 11:0.58037043 12:0.50349653 13:0.20438501 14:0.66165394 15:0.40182611 16:0.20528939  |BV| 1:0.16695677 2:0.098443367 3:0.20766965 4:0.072956748 5:0.15605485 11:0.45831212 12:0.40414518 13:0.13862066 14:0.52445352 15:0.30261341 16:0.23409028  |EV| 
0.53118978385666659747244011668954  |BT| (ROOT (S (ADVP (WRB (where)))(REL-FOCUS-LOC-NP (REL-NNP (kublai))(REL-NNP (khan)))(VP (VBP (live))))) |BT| (ROOT (S (NP (JJ (chinese))(NNS (archeologist)))(PP (IN (in)))(REL-FOCUS-LOC-NP (JJ (northwest))(NNP (china)))(NP (POS ('s))(NNP (xinjiang))(NNP (uygur))(NNP (autonomous))(NNP (region)))(ADVP (RB (recently)))(NP (DT (the))(NN (tomb)))(PP (IN (of)))(REL-NP (NNP (genghis))(REL-NNP (khan)))(NP (WP (who)))(VP (VBD (found)))(NP (JJ (ancient))(NNP (mongolia)))(REL-NP (WP$ (whose))(NN (grandson))(REL-NNP (kublai))(REL-NNP (khan)))(VP (VBD (establish)))(NP (DT (the))(JJ (yuan))(NNP (dynasty))(CD (1271-1368))))) |BT| (ROOT (S (ADVP (WRB (where)))(REL-FOCUS-LOC-NP (REL-NNP (kublai))(REL-NNP (khan)))(VP (VBP (live))))) |BT| (ROOT (S (NP (NNP (xanadu)))(VP (VBD (do)))(REL-NP (REL-NNP (kublai))(REL-NNP (khan)))(NP (DT (a))(JJ (stately))(NN (pleasure))(NN (dome))(NN (decree))))) |ET| 1:0.18677184 2:0.13400504 3:0.25555062 4:0.095076539 5:0.19380063 6:0.03849002 7:0.086066298 8:0.027399831 9:0.071066909 11:0.46548223 12:0.40380356 13:0.12242553 14:0.60454661 15:0.22222447 16:0.2729879  |BV| 1:0.17496355 2:0.16547585 3:0.22677869 4:0.14638501 5:0.17677671 6:0.12598816 7:0.10721125 8:0.090784132 9:0.090166964 10:0.050062619 11:0.3556715 12:0.30429032 13:0.082199492 14:0.50589257 15:0.29406306 16:0.29407945  |EV| 
-0.70161223160211938498775907646632  |BT| (ROOT (S (REL-FOCUS-ENTY-NP (WP (what))(NN (duo)))(VP (VBD (lose)))(NP (PRP$ (they))(NNP (grammy)))(PP (IN (for)))(NP (JJS (best))(JJ (new))(NN (artist)))(ADVP (WRB (when)))(NP (PRP (it)))(VP (VBD (be))(VBN (discover)))(SBAR (IN (that)))(NP (PRP (they)))(VP (VBD (lip-synch)))(REL-NP (PRP$ (they))(REL-NNS (song))))) |BT| (ROOT (S (PP (TO (to)))(VP (VBG (make)))(REL-NP (JJ (same))(NNP (old))(REL-NNP (song)))(REL-FOCUS-ENTY-NP (NNP (wilson)))(VP (VBD (say)))(NP (DT (the))(JJS (biggest))(NN (challenge))))) |BT| (ROOT (S (REL-FOCUS-ENTY-NP (WP (what))(REL-NN (duo)))(VP (VBD (lose)))(NP (PRP$ (they))(NNP (grammy)))(PP (IN (for)))(NP (JJS (best))(JJ (new))(NN (artist)))(ADVP (WRB (when)))(NP (PRP (it)))(VP (VBD (be))(VBN (discover)))(SBAR (IN (that)))(NP (PRP (they)))(VP (VBD (lip-synch)))(REL-NP (PRP$ (they))(REL-NNS (song))))) |BT| (ROOT (S (NP (DT (some))(NNS (year)))(ADVP (RB (ago)))(REL-NP (DT (the))(JJ (popular))(NN (rock))(REL-NN (duo))(NNP (milli))(NNP (vanilli)))(VP (VBD (create)))(NP (DT (a))(NN (scandal)))(NP (PRP (they)))(VP (VBD (do))(RB (not))(RB (actually))(VB (perform)))(REL-NP (PRP$ (they))(JJ (own))(REL-NNS (song)))(VP (NN (lip-synching)))(ADVP (RB (instead))))) |ET| 1:0.16439898 2:0.11349072 4:0.08075729 6:0.02279212 8:0.01555867 11:0.41030496 12:0.33922678 13:0.13010725 14:0.6861735 15:0.43223882 16:0.36490801  |BV| 1:0.47133198 2:0.31843951 3:0.088823117 4:0.23773324 5:0.062994078 6:0.070876993 8:0.048206769 10:0.01845219 11:0.51784772 12:0.46481302 13:0.2463527 14:0.79480082 15:0.53829247 16:0.41015595  |EV| 
0.8138080436861333533116180660727  |BT| (ROOT (S (NP (WP (what)))(VP (VBZ (be)))(REL-FOCUS-DESC-NP (DT (the))(REL-NN (motto)))(PP (IN (for)))(REL-NP (DT (the))(REL-NNP (boy))(NNP (scouts))))) |BT| (ROOT (S (VP (VBZ (be)))(ADVP (RB (still)))(REL-NP (DT (the))(JJ (official))(REL-NNP (boy))(NNP (scout))(REL-NN (motto))))) |BT| (ROOT (S (NP (WP (what)))(VP (VBZ (be)))(REL-FOCUS-DESC-NP (DT (the))(REL-NN (motto)))(PP (IN (for)))(REL-NP (DT (the))(REL-NNP (boy))(NNP (scouts))))) |BT| (ROOT (S (ADVP (RB (far)))(PP (IN (from)))(REL-NP (DT (a))(NN (model))(REL-NNP (boy))(NNP (scout)))(NP (PRP (i)))(VP (VBP (do))(RB (not))(VB (recall)))(PP (IN (in)))(NP (DT (the))(NNP (scout))(NN (oath)))(REL-NP (NN (law))(REL-NN (motto))(CC (or))(NN (slogan)))(SBAR (IN (that)))(NP (NNS (state))))) |ET| 1:0.48420012 2:0.29950377 3:0.15569979 4:0.22343586 5:0.11909827 11:0.30658492 12:0.25676295 13:0.058789641 14:0.63082159 15:0.6079964 16:0.33623666  |BV| 1:0.23262104 2:0.13425539 3:0.1721326 4:0.096619479 5:0.13245323 11:0.4545528 12:0.3943128 13:0.21821789 14:0.67514372 15:0.46739888 16:0.35037103  |EV| 
0.8138080436861333533116180660727  |BT| (ROOT (S (REL-FOCUS-ENTY-NP (WP (what))(REL-NN (duo)))(VP (VBD (lose)))(NP (PRP$ (they))(NNP (grammy)))(PP (IN (for)))(NP (JJS (best))(JJ (new))(NN (artist)))(ADVP (WRB (when)))(NP (PRP (it)))(VP (VBD (be))(VBN (discover)))(SBAR (IN (that)))(NP (PRP (they)))(VP (VBD (lip-synch)))(REL-NP (PRP$ (they))(REL-NNS (song))))) |BT| (ROOT (S (VP (VBD (be)))(NP (NNP (milli))(NNP (vanilli)))(REL-NP (DT (the))(NNP (grammy-winning))(REL-NN (duo)))(NP (WP (who)))(VP (VBD (turn)))(NP (PRP (they)))(VP (VBD (be)))(REL-NP (JJ (lip-syncing))(REL-NNS (song)))(VP (VBN (perform)))(PP (IN (by))))) |BT| (ROOT (S (REL-FOCUS-ENTY-NP (WP (what))(REL-NN (duo)))(VP (VBD (lose)))(REL-NP (PRP$ (they))(REL-NNP (grammy)))(PP (IN (for)))(REL-NP (JJS (best))(JJ (new))(REL-NN (artist)))(ADVP (WRB (when)))(NP (PRP (it)))(VP (VBD (be))(VBN (discover)))(SBAR (IN (that)))(NP (PRP (they)))(VP (VBD (lip-synch)))(REL-NP (PRP$ (they))(REL-NNS (song))))) |BT| (ROOT (S (VP (VBD (nominate)))(PP (IN (for)))(REL-NP (CD (seven))(REL-NNP (grammy))(NNS (award)))(PP (IN (on)))(NP (NNP (tuesday)))(NP (NN (pop))(NN (performance)))(PP (IN (by)))(REL-NP (DT (a))(REL-NN (duo))(CC (or))(NN (group)))(PP (IN (with)))(NP (NN (vocal)))(PP (IN (for)))(REL-NP (DT (the))(REL-NN (song))(NNP (unpretty)))(VP (VBZ (appear)))(REL-FOCUS-ENTY-NP (RB (tonight))(IN (with))(JJS (best))(JJ (new))(REL-NN (artist))(REL-NNP (grammy))(NN (nominee))(NNP (christina))(NNP (aguilera)))(NP (NNP (blaque)))(PP (IN (at))))) |ET| 1:0.23338398 2:0.15441687 3:0.1067521 4:0.11078234 5:0.07548514 6:0.02129589 8:0.01452023 11:0.4208127 12:0.3538937 13:0.076790661 14:0.72171605 15:0.68535846 16:0.40957654  |BV| 1:0.24253564 2:0.16918197 3:0.19418392 4:0.13065492 5:0.13699916 6:0.05148745 8:0.035007 10:0.01785999 11:0.34341481 12:0.29968107 13:0.07515797 14:0.61280352 15:0.45756343 16:0.45709094  |EV| 
0.8138080436861333533116180660727  |BT| (ROOT (S (REL-FOCUS-ENTY-NP (WP (what))(REL-NN (duo)))(VP (VBD (lose)))(NP (PRP$ (they))(NNP (grammy)))(PP (IN (for)))(NP (JJS (best))(JJ (new))(NN (artist)))(ADVP (WRB (when)))(NP (PRP (it)))(VP (VBD (be))(VBN (discover)))(SBAR (IN (that)))(NP (PRP (they)))(VP (VBD (lip-synch)))(REL-NP (PRP$ (they))(REL-NNS (song))))) |BT| (ROOT (S (NP (DT (some))(NNS (year)))(ADVP (RB (ago)))(REL-NP (DT (the))(JJ (popular))(NN (rock))(REL-NN (duo))(NNP (milli))(NNP (vanilli)))(VP (VBD (create)))(NP (DT (a))(NN (scandal)))(NP (PRP (they)))(VP (VBD (do))(RB (not))(RB (actually))(VB (perform)))(REL-NP (PRP$ (they))(JJ (own))(REL-NNS (song)))(VP (NN (lip-synching)))(ADVP (RB (instead))))) |BT| (ROOT (S (REL-FOCUS-ENTY-NP (WP (what))(REL-NN (duo)))(VP (VBD (lose)))(REL-NP (PRP$ (they))(REL-NNP (grammy)))(PP (IN (for)))(REL-NP (JJS (best))(JJ (new))(REL-NN (artist)))(ADVP (WRB (when)))(NP (PRP (it)))(VP (VBD (be))(VBN (discover)))(SBAR (IN (that)))(NP (PRP (they)))(VP (VBD (lip-synch)))(REL-NP (PRP$ (they))(REL-NNS (song))))) |BT| (ROOT (S (VP (VBD (nominate)))(PP (IN (for)))(REL-NP (CD (seven))(REL-NNP (grammy))(NNS (award)))(PP (IN (on)))(NP (NNP (tuesday)))(NP (NN (pop))(NN (performance)))(PP (IN (by)))(REL-NP (DT (a))(REL-NN (duo))(CC (or))(NN (group)))(PP (IN (with)))(NP (NN (vocal)))(PP (IN (for)))(REL-NP (DT (the))(REL-NN (song))(NNP (unpretty)))(VP (VBZ (appear)))(REL-FOCUS-ENTY-NP (RB (tonight))(IN (with))(JJS (best))(JJ (new))(REL-NN (artist))(REL-NNP (grammy))(NN (nominee))(NNP (christina))(NNP (aguilera)))(NP (NNP (blaque)))(PP (IN (at))))) |ET| 1:0.47133198 2:0.31843951 3:0.088823117 4:0.23773324 5:0.062994078 6:0.070876993 8:0.048206769 10:0.01845219 11:0.51784772 12:0.46481302 13:0.2463527 14:0.79480082 15:0.53829247 16:0.41015595  |BV| 1:0.24253564 2:0.16918197 3:0.19418392 4:0.13065492 5:0.13699916 6:0.05148745 8:0.035007 10:0.01785999 11:0.34341481 12:0.29968107 13:0.07515797 14:0.61280352 15:0.45756343 16:0.45709094  |EV| 
-0.8138080436861333533116180660727  |BT| (ROOT (S (ADVP (WRB (how)))(REL-FOCUS-NUM-NP (JJ (many))(REL-NNS (year)))(VP (VBP (be)))(ADVP (RB (there)))(PP (IN (in)))(REL-NP (DT (a))(REL-JJ (french))(REL-NN (president)))(REL-NP (POS ('s))(REL-NN (term))))) |BT| (ROOT (S (PP (IN (in)))(REL-NP (REL-NNS (term)))(PP (IN (of)))(NP (DT (the))(NNS (election)))(REL-NP (DT (the))(REL-JJ (french))(NN (guest)))(VP (VBD (say)))(REL-NP (REL-NNP (president))(NNP (biya)))(VP (VBD (assure)))(NP (PRP (he)))(NP (DT (the))(NNS (election)))(VP (MD (will))(VB (hold)))(REL-FOCUS-NUM-NP (DT (this))(REL-NN (year)))(SBAR (IN (as)))(VP (VBN (schedule))))) |BT| (ROOT (S (ADVP (WRB (how)))(REL-FOCUS-NUM-NP (JJ (many))(REL-NNS (year)))(VP (VBP (be)))(ADVP (RB (there)))(PP (IN (in)))(REL-NP (DT (a))(REL-JJ (french))(REL-NN (president)))(REL-NP (POS ('s))(REL-NN (term))))) |BT| (ROOT (S (NP (NNS (pari))(NNP (ap)))(REL-NP (REL-NNP (president))(NNP (jacques))(NNP (chirac)))(VP (VBD (say)))(NP (PRP (he)))(VP (MD (would))(VB (move))(TO (to))(VB (reduce)))(REL-NP (DT (the))(JJ (presidential))(REL-NN (term)))(PP (IN (from)))(REL-NP (CD (seven))(REL-NNS (year)))(PP (TO (to)))(NP (CD (five)))(NP (DT (the))(NN (issue)))(PP (TO (to)))(REL-NP (DT (the))(REL-NNP (french)))(PP (IN (in)))(NP (DT (a))(NN (referendum))))) |ET| 1:0.1980295 2:0.10858506 3:0.20851441 4:0.07736785 5:0.15309311 11:0.34017298 12:0.27805424 13:0.08856149 14:0.58822089 15:0.41438982 16:0.23203592  |BV| 1:0.15713485 2:0.11051242 3:0.12830006 4:0.078480273 5:0.09245003 6:0.02627035 8:0.018077539 11:0.27185366 12:0.22383817 13:0.086258188 14:0.54490417 15:0.37451357 16:0.21550266  |EV| 
0.44917275530603273381302642519586  |BT| (ROOT (S (ADVP (WRB (when)))(VP (VBD (be)))(REL-FOCUS-NUM-NP (DT (the))(REL-NNP (los))(REL-NNP (angeles))(NNS (riot))))) |BT| (ROOT (S (PP (IN (in)))(REL-FOCUS-NUM-NP (NNP (april))(CD (1992)))(NP (DT (the))(NNS (expo)))(VP (VBD (be))(VBN (tell)))(NP (NN (rioting)))(PP (IN (in)))(REL-NP (REL-NNP (los))(REL-NNP (angeles))))(S (VP (VBD (be))(VBN (postpone)))(SBAR (IN (because)))(REL-NP (REL-NNP (los))(REL-NNP (angeles)))(VP (VBD (be))(VBN (consider)))(ADJP (RB (too))(JJ (dangerous))))) |BT| (ROOT (S (ADVP (WRB (when)))(VP (VBD (be)))(REL-FOCUS-NUM-NP (DT (the))(REL-NNP (los))(REL-NNP (angeles))(REL-NNS (riot))))) |BT| (ROOT (S (REL-NP (DT (those))(JJ (same))(REL-NNS (riot)))(VP (VBD (cause)))(REL-NP (DT (the))(REL-NNP (los))(REL-NNP (angeles))(NNP (dodgers)))(VP (TO (to))(VB (postpone)))(NP (CD (four))(NN (home))(NNS (game))))) |ET| 1:0.44666249 2:0.31301072 3:0.41905817 4:0.2282767 5:0.32444283 6:0.071565628 7:0.19518001 8:0.05063697 9:0.16329932 11:0.36009449 12:0.30828977 13:0.066914961 14:0.57042283 15:0.49479774 16:0.27173424  |BV| 1:0.30860671 2:0.24806947 3:0.41039133 4:0.20464687 5:0.31426969 6:0.14126448 7:0.14002801 8:0.1 9:0.11785113 10:0.053376049 11:0.48471791 12:0.42505223 13:0.2191785 14:0.59097254 15:0.43256512 16:0.27152666  |EV| 
0.45182066701603795788599882143899  |BT| (ROOT (S (NP (WP (who)))(VP (VBD (be))(VBN (elect)))(REL-FOCUS-HUM-NP (REL-NNP (president)))(PP (IN (of)))(REL-NP (REL-NNP (south))(REL-NNP (africa)))(PP (IN (in)))(REL-NP (REL-CD (1994))))) |BT| (ROOT (S (NP (NNP (mandela,79)))(VP (VBD (,has))(VBN (be)))(REL-NP (REL-NN (president)))(PP (IN (of)))(NP (DT (the))(NNP (anc))))(S (NP (PRP (he)))(VP (VBD (become)))(REL-NP (REL-NNP (south))(REL-NNP (africa)))(REL-NP (POS ('s))(JJ (first))(JJ (black))(REL-NN (president)))(PP (IN (after)))(NP (DT (all-race))(JJ (democratic))(NNS (election)))(PP (IN (in)))(REL-NP (REL-CD (1994))))) |BT| (ROOT (S (NP (WP (who)))(VP (VBD (be))(VBN (elect)))(REL-FOCUS-HUM-NP (NNP (president)))(PP (IN (of)))(REL-NP (REL-NNP (south))(REL-NNP (africa)))(PP (IN (in)))(REL-NP (REL-CD (1994))))) |BT| (ROOT (S (VP (VBD (have))(VBN (continue)))(PP (IN (in)))(REL-NP (REL-NNP (south))(REL-NNP (africa)))(PP (IN (until)))(REL-NP (DT (the))(REL-CD (1994))(NNS (election))))) |ET| 1:0.35233212 2:0.25210139 3:0.24759378 4:0.17660432 5:0.18033393 6:0.070754908 7:0.07559289 8:0.049147319 9:0.05555556 11:0.56101167 12:0.48658851 13:0.26148817 14:0.81618547 15:0.66972065 16:0.33508003  |BV| 1:0.35082322 2:0.22941573 3:0.50251889 4:0.16037507 5:0.44721359 6:0.050572172 7:0.37796447 8:0.035533451 9:0.28867513 11:0.55808091 12:0.48083916 13:0.27311549 14:0.79296577 15:0.75437826 16:0.34075865  |EV| 
-0.8138080436861333533116180660727  |BT| (ROOT (S (REL-FOCUS-LOC-NP (WP (what))(NN (city)))(VP (VBZ (do)))(REL-NP (DT (the))(REL-NNP (tour)))(REL-PP (REL-IN (de)))(REL-NP (REL-NNP (france)))(VP (NN (end)))(PP (IN (in))))) |BT| (ROOT (S (REL-FOCUS-LOC-NP (NN (tour-de-france))(NNP (futuroscope))(REL-NNP (france))(NNP (advance)))(PP (IN (on)))(REL-FOCUS-LOC-NP (DT (the))(REL-NNP (tour))(REL-NNP (de))(REL-NNP (france))))) |BT| (ROOT (S (REL-FOCUS-LOC-NP (WP (what))(NN (city)))(VP (VBZ (do)))(REL-NP (DT (the))(REL-NNP (tour)))(PP (IN (de)))(NP (NNP (france)))(REL-VP (REL-NN (end)))(PP (IN (in))))) |BT| (ROOT (S (REL-FOCUS-LOC-NP (NN (tour-de-france-react))(NNP (paris))(REL-JJ (tour)))(REL-VP (REL-NNS (end)))(PP (IN (for)))(NP (NNS (rider))))) |ET| 1:0.33709994 2:0.29388735 3:0.45883146 4:0.25949964 5:0.39629695 6:0.21110018 7:0.29277003 8:0.17677671 9:0.21821789 10:0.13912167 11:0.44310677 12:0.3796283 13:0.080408439 14:0.64448035 15:0.44128382 16:0.3193554  |BV| 1:0.14142136 2:0.075431429 3:0.080845207 4:0.05287011 5:0.058925569 11:0.45046112 12:0.37508863 13:0.028306929 14:0.73944265 15:0.47790614 16:0.32111478  |EV| 
-0.8138080436861333533116180660727  |BT| (ROOT (S (REL-FOCUS-LOC-NP (WP (what))(NN (city)))(VP (VBZ (do)))(REL-NP (DT (the))(REL-NNP (tour)))(REL-PP (REL-IN (de)))(REL-NP (REL-NNP (france)))(REL-VP (REL-NN (end)))(PP (IN (in))))) |BT| (ROOT (S (NP (NNP (july))(CD (11)))(REL-FOCUS-LOC-NP (REL-NNP (tour))(REL-FW (de))(REL-NNP (france)))(REL-VP (REL-VBZ (end)))(NP (NNP (august))(CD (2))))) |BT| (ROOT (S (REL-FOCUS-LOC-NP (WP (what))(NN (city)))(VP (VBZ (do)))(REL-NP (DT (the))(REL-NNP (tour)))(PP (IN (de)))(NP (NNP (france)))(REL-VP (REL-NN (end)))(PP (IN (in))))) |BT| (ROOT (S (REL-FOCUS-LOC-NP (NN (tour-de-france-react))(NNP (paris))(REL-JJ (tour)))(REL-VP (REL-NNS (end)))(PP (IN (for)))(NP (NNS (rider))))) |ET| 1:0.38138503 2:0.3003757 3:0.60246408 4:0.24595493 5:0.56694669 6:0.16692448 7:0.52414244 8:0.11785113 9:0.47140452 10:0.062622428 11:0.23099715 12:0.19364917 14:0.58388126 15:0.28925723 16:0.32254174  |BV| 1:0.14142136 2:0.075431429 3:0.080845207 4:0.05287011 5:0.058925569 11:0.45046112 12:0.37508863 13:0.028306929 14:0.73944265 15:0.47790614 16:0.32111478  |EV| 
-0.8138080436861333533116180660727  |BT| (ROOT (S (REL-FOCUS-HUM-NP (WP (what))(REL-NN (band)))(VP (VBD (be)))(REL-NP (REL-NNP (jerry))(REL-NNP (garcia)))(PP (IN (with))))) |BT| (ROOT (S (NP (DT (the))(JJ (cultlike))(NNS (follower)))(PP (IN (of)))(REL-NP (DT (the))(REL-NN (band)))(VP (VBP (be))(VBN (know))))(S (PP (IN (in)))(VP (VBG (have))(VBN (introduce)))(REL-FOCUS-HUM-NP (REL-NNP (jerry))(REL-NNP (garcia)))(REL-NP (DT (the))(REL-NN (band)))(NP (POS ('s))(NN (founder)))(NP (WP (who)))(VP (TO (to))(VB (have))(VBN (hear)))(PP (IN (of)))(REL-NP (REL-NNP (garcia))))) |BT| (ROOT (S (REL-FOCUS-HUM-NP (WP (what))(REL-NN (band)))(VP (VBD (be)))(REL-NP (REL-NNP (jerry))(REL-NNP (garcia)))(PP (IN (with))))) |BT| (ROOT (S (PP (IN (at)))(NP (NNP (chicago)))(REL-FOCUS-HUM-NP (POS ('s))(NNP (soldier))(NNP (field))))(S (NP (PRP (it)))(VP (MD (would)))(REL-NP (DT (the))(REL-NN (band)))(NP (POS ('s))(JJ (last))(NN (concert)))(PP (IN (with)))(REL-FOCUS-HUM-NP (NN (lead))(NN (guitarist))(REL-NNP (jerry))(REL-NNP (garcia)))(NP (WP (who)))(VP (VBD (die))))) |ET| 1:0.20786984 2:0.16146258 3:0.31844693 4:0.12107015 5:0.24373335 6:0.05007831 7:0.073922127 8:0.035466351 9:0.06085806 11:0.37870124 12:0.32828534 13:0.031544011 14:0.6407972 15:0.53012311 16:0.25283137  |BV| 1:0.24209101 2:0.16457701 3:0.29408586 4:0.11669001 5:0.22430886 6:0.03798686 7:0.10050378 8:0.02677398 9:0.083333328 11:0.4860411 12:0.41045043 13:0.077849887 14:0.72329229 15:0.46220601 16:0.26190594  |EV| 
0.24408008489824964404313334398466  |BT| (ROOT (S (NP (WP (what)))(VP (VBZ (be)))(REL-FOCUS-LOC-NP (DT (the))(REL-JJS (longest))(REL-NN (river)))(PP (IN (in)))(REL-NP (DT (the))(REL-NN (world))))) |BT| (ROOT (S (PP (IN (along)))(NP (DT (the))(NNP (nile)))(REL-NP (DT (the))(REL-NN (world)))(REL-NP (POS ('s))(REL-JJS (longest))(REL-NN (river))))) |BT| (ROOT (S (NP (WP (what)))(VP (VBZ (be)))(REL-FOCUS-LOC-NP (DT (the))(REL-JJS (longest))(REL-NN (river)))(PP (IN (in)))(REL-NP (DT (the))(REL-NN (world))))) |BT| (ROOT (S (VP (VBD (go))(VBG (sightsee)))(PP (TO (to)))(REL-FOCUS-LOC-NP (DT (the))(NNP (nanjing))(NNP (yangtze))(REL-NNP (river))(NNP (bridge)))(PP (IN (across)))(REL-NP (DT (the))(REL-NN (world)))(REL-NP (POS ('s))(JJ (third))(REL-JJS (longest))(REL-NN (river)))(NP (CD (one)))(PP (IN (of))))) |ET| 1:0.52636135 2:0.36735919 3:0.46188021 4:0.26207122 5:0.35634831 6:0.087287158 7:0.16012815 8:0.061113231 9:0.13608275 11:0.57047909 12:0.47259453 13:0.26482046 14:0.78297448 15:0.69301766 16:0.26655266  |BV| 1:0.44611344 2:0.31794032 3:0.33218193 4:0.22996655 5:0.25503069 6:0.07231015 7:0.11547005 8:0.050395261 9:0.096225038 11:0.39929786 12:0.33277178 13:0.15672079 14:0.700849 15:0.59817255 16:0.25484031  |EV| 
0.8138080436861333533116180660727  |BT| (ROOT (S (NP (WP (what)))(VP (VBZ (be)))(REL-FOCUS-ENTY-NP (DT (the))(NN (name)))(PP (IN (of)))(NP (NNP (ling))(NNP (ling)))(REL-NP (POS ('s))(REL-NN (mate))))) |BT| (ROOT (S (NP (DT (the))(JJ (severe))(NN (difficulty)))(PP (IN (of)))(REL-VP (REL-VBG (mate)))(NP (NNS (panda)))(PP (IN (in))))) |BT| (ROOT (S (NP (WP (what)))(VP (VBZ (be)))(REL-FOCUS-ENTY-NP (DT (the))(NN (name)))(PP (IN (of)))(REL-NP (REL-NNP (ling))(REL-NNP (ling)))(NP (POS ('s))(NN (mate))))) |BT| (ROOT (S (NP (DT (those)))(PP (IN (of)))(REL-NP (NNP (chang))(REL-NNP (ling)))(NP (DT (the))(NN (burial))(NN (name)))(PP (IN (for)))(NP (NNP (yong))(NNP (le)))(NP (CD (1403-24)))(REL-FOCUS-ENTY-NP (JJ (ding))(REL-NN (ling))(NNP (emperor))(NNP (wan))(NNP (li)))(NP (CD (1562-1620))))(S (REL-NP (DT (the))(NNP (chang))(REL-NNP (ling))(NNP (tomb)))(VP (VBZ (be)))(NP (DT (the))(JJS (largest))(CC (and))(JJS (best))))) |ET| 1:0.2773501 2:0.15538619 3:0.064150028 4:0.11031947 5:0.048280451 11:0.32308769 12:0.26995277 13:0.12186667 14:0.64893061 15:0.44349399 16:0.26838368  |BV| 1:0.40734407 2:0.27017933 3:0.19047619 4:0.20215948 5:0.14625448 6:0.02389775 8:0.01661139 11:0.48325813 12:0.41761455 13:0.2159671 14:0.76877266 15:0.56333077 16:0.21819559  |EV| 
-0.8138080436861333533116180660727  |BT| (ROOT (S (REL-NP (WRB (how))(JJ (many))(REL-NNS (stomach)))(VP (VBZ (do)))(REL-FOCUS-NUM-NP (DT (a))(REL-NN (cow)))(VP (VBP (have))))) |BT| (ROOT (S (REL-FOCUS-NUM-NP (JJ (last))(NN (year)))(NP (NNS (researcher)))(PP (IN (at)))(NP (NNP (e.))(NNS (coli)))(PP (IN (in)))(REL-NP (DT (a))(JJ (grain-fed))(REL-NN (cow)))(NP (POS ('s))(JJ (digestive))(NN (tract)))(VP (VBP (be)))(NP (DT (that)))(PP (IN (in)))(REL-NP (DT (the))(JJ (human))(REL-NN (stomach))))(S (ADVP (WRB (when)))(REL-NP (DT (the))(REL-NN (cow)))(NP (POS ('s))(NN (diet)))(VP (VBD (be))(VBN (switch))))) |BT| (ROOT (S (REL-NP (WRB (how))(JJ (many))(REL-NNS (stomach)))(VP (VBZ (do)))(REL-FOCUS-NUM-NP (DT (a))(REL-NN (cow)))(VP (VBP (have))))) |BT| (ROOT (S (REL-NP (REL-NNS (cow)))(VP (VBP (have)))(REL-NP (CD (four))(REL-NNS (stomach)))(NP (PRP (you)))(VP (VBP (know))))(S (NP (PRP (it)))(VP (VBZ (take)))(REL-NP (CD (four))(REL-NNS (stomach)))(REL-VP (TO (to))(REL-VB (stomach)))(NP (NNP (bahia))))) |ET| 1:0.19287919 2:0.10872135 3:0.3006584 4:0.078134537 5:0.25197631 7:0.13736056 9:0.11396058 11:0.33028328 12:0.28009892 13:0.048336819 14:0.58391321 15:0.38388366 16:0.20203926  |BV| 1:0.30316952 2:0.20519567 3:0.52981293 4:0.14920942 5:0.47140452 6:0.042295489 8:0.02993422 11:0.22875451 12:0.1869894 14:0.64058363 15:0.51823562 16:0.30314881  |EV| 
0.8138080436861333533116180660727  |BT| (ROOT (S (REL-FOCUS-NUM-NP (WRB (how))(JJ (many))(REL-NNS (room)))(VP (VBZ (do)))(REL-NP (DT (the))(REL-NNP (las))(REL-NNP (vegas))(REL-NNP (mgm))(REL-NNP (grand))(REL-NNP (hotel)))(VP (VBP (have))))) |BT| (ROOT (S (NP (NN (&lr)))(REL-NP (DT (the))(REL-NNP (mgm))(REL-NNP (grand))(REL-NNP (hotel))(NNP (&amp)))(NP (NNP (theme))(NNP (park)))(PP (IN (with)))(REL-FOCUS-NUM-NP (CD (5,005))(REL-NNS (room)))(VP (VBZ (have)))(REL-NP (DT (the))(JJS (most))(REL-NNS (room)))(PP (IN (of)))(REL-NP (DT (any))(REL-NNP (las))(REL-NNP (vegas))(REL-NN (hotel))))(S (NP (NN (fact)))(NP (DT (the))(NN (world)))(REL-NP (POS ('s))(JJS (largest))(REL-NN (hotel))))) |BT| (ROOT (S (REL-FOCUS-NUM-NP (WRB (how))(JJ (many))(NNS (room)))(VP (VBZ (do)))(REL-NP (DT (the))(REL-NNP (las))(REL-NNP (vegas))(REL-NNP (mgm))(REL-NNP (grand))(REL-NNP (hotel)))(VP (VBP (have))))) |BT| (ROOT (S (REL-NP (NNP (vegas-bellagio-cox))(REL-NNP (las))(REL-NNP (vegas)))(REL-NP (DT (every))(JJ (major))(REL-NN (hotel)))(PP (IN (in)))(REL-NP (REL-NNP (las))(REL-NNP (vegas)))(VP (VBZ (have)))(NP (DT (a))(NN (theme)))(NP (NNP (hollywood))(NN (glitz)))(PP (IN (at)))(REL-NP (DT (the))(REL-NNP (mgm))(REL-NNP (grand))(CC (or))(JJ (ancient))(NNP (egypt)))(PP (IN (at)))(NP (DT (the))(NNP (luxor))))(S (PP (IN (at)))(NP (DT (the))(NNP (bellagio)))(REL-FOCUS-NUM-NP (DT (a))(JJ (3,005-room))(NN (hotel/casino/entertainment))(NN (complex)))(NP (WDT (that)))(VP (VBZ (be)))(REL-NP (REL-NNP (las))(REL-NNP (vegas)))(NP (JJ (grandest))(NN (project)))(PP (TO (to))))) |ET| 1:0.43047303 2:0.30329368 3:0.50578052 4:0.23179184 5:0.42976674 6:0.093581647 7:0.32879797 8:0.064549722 9:0.23570226 10:0.025181649 11:0.56092066 12:0.50757349 13:0.38252988 14:0.64831901 15:0.58528304 16:0.56018698  |BV| 1:0.35781321 2:0.2620351 3:0.41778636 4:0.18984048 5:0.308301 6:0.075687557 7:0.17358521 8:0.052704629 9:0.12598816 11:0.50943071 12:0.45186651 13:0.19012506 14:0.64275753 15:0.56297064 16:0.50331932  |EV| 
-0.8138080436861333533116180660727  |BT| (ROOT (S (REL-NP (WRB (how))(JJ (many))(REL-NNS (stomach)))(VP (VBZ (do)))(REL-FOCUS-NUM-NP (DT (a))(REL-NN (cow)))(VP (VBP (have))))) |BT| (ROOT (S (NP (NNS (hundred)))(PP (IN (of)))(REL-NP (REL-NNS (cow)))(VP (VB (die)))(PP (IN (in))))(S (NP (NNS (autopsy)))(PP (IN (of)))(REL-NP (REL-NNS (cow)))(PP (IN (in)))(NP (DT (the))(NN (capital)))(VP (VBP (have))(VBN (find)))(REL-NP (DT (the))(REL-NNS (stomach)))(PP (IN (of)))(REL-NP (REL-NNS (cow)))(VP (VBN (stuff)))(PP (IN (with))))) |BT| (ROOT (S (REL-NP (WRB (how))(JJ (many))(REL-NNS (stomach)))(VP (VBZ (do)))(REL-FOCUS-NUM-NP (DT (a))(REL-NN (cow)))(VP (VBP (have))))) |BT| (ROOT (S (REL-NP (REL-NNS (cow)))(VP (VBP (have)))(REL-NP (CD (four))(REL-NNS (stomach)))(NP (PRP (you)))(VP (VBP (know))))(S (NP (PRP (it)))(VP (VBZ (take)))(REL-NP (CD (four))(REL-NNS (stomach)))(REL-VP (TO (to))(REL-VB (stomach)))(NP (NNP (bahia))))) |ET| 1:0.21379653 2:0.12326313 3:0.31311214 4:0.090166964 5:0.26462805 7:0.12038585 9:0.099014752 11:0.34705645 12:0.29777935 13:0.06968683 14:0.54997259 15:0.35578892 16:0.1946653  |BV| 1:0.30316952 2:0.20519567 3:0.52981293 4:0.14920942 5:0.47140452 6:0.042295489 8:0.02993422 11:0.22875451 12:0.1869894 14:0.64058363 15:0.51823562 16:0.30314881  |EV| 
0.8138080436861333533116180660727  |BT| (ROOT (S (ADVP (WRB (where)))(VP (VBD (be)))(REL-FOCUS-LOC-NP (NNP (hans))(REL-NNP (christian))(REL-NNP (anderson)))(VP (VBN (bear))))) |BT| (ROOT (S (NP (CD (6)))(REL-NP (REL-NNP (christian))(REL-NNP (anderson)))(REL-FOCUS-LOC-NP (NNP (denmark))))) |BT| (ROOT (S (ADVP (WRB (where)))(VP (VBD (be)))(REL-FOCUS-LOC-NP (NNP (hans))(REL-NNP (christian))(NNP (anderson)))(REL-VP (REL-VBN (bear))))) |BT| (ROOT (S (REL-VP (REL-VBN (bear)))(PP (IN (in)))(NP (CD (1923)))(NP (POS ('s))(NNP (university)))(PP (IN (of)))(REL-FOCUS-LOC-NP (NNP (shanghai))))(S (NP (NN (president)))(PP (IN (of)))(REL-NP (DT (the))(NNP (china))(REL-NNP (christian))(NNP (council))))) |ET| 1:0.30860671 2:0.25087261 3:0.42857143 4:0.18257418 5:0.33333334 6:0.10050378 7:0.2 8:0.074535601 9:0.16666667 11:0.51355261 12:0.44721359 13:0.14002801 14:0.61112297 15:0.42562497 16:0.24262971  |BV| 1:0.17291713 2:0.098746203 3:0.12777531 4:0.071428567 5:0.094280899 11:0.49372846 12:0.43246025 13:0.11834527 14:0.56492084 15:0.36531189 16:0.29826614  |EV| 
0.8138080436861333533116180660727  |BT| (ROOT (S (NP (WP (what)))(VP (VBZ (be)))(REL-NP (DT (a))(JJ (female))(REL-JJ (moose))(REL-VBN (call))))) |BT| (ROOT (S (NP (NNS (--female)))(REL-VP (VBP (be))(REL-VBN (call)))(NP (NNS (cow))(CC (and))(NNS (male)))(VP (VBP (be)))(REL-NP (NN (bull))(REL-NN (moose))))) |BT| (ROOT (S (NP (WP (what)))(VP (VBZ (be)))(REL-NP (DT (a))(JJ (female))(REL-JJ (moose))(VBN (call))))) |BT| (ROOT (S (NP (PRP (i)))(VP (VBD (miss)))(REL-NP (DT (the))(JJ (annual))(REL-NNP (moose))(NNP (festival)))(PP (IN (by)))(NP (CD (two))(NNS (day))))(S (NP (PRP (it)))(VP (VBZ (feature)))(REL-NP (DT (a))(REL-JJ (moose))(NN (calling))(NN (contest)))(REL-NP (REL-JJ (moose))(JJ (stew))(NN (cook-off)))(REL-NP (VBN (guide))(REL-NN (moose))(NNS (tour)))(PP (IN (of)))(NP (NN (course)))(NP (DT (a))(NN (parade)))(PP (IN (of)))(REL-NP (JJ (mock))(REL-NN (moose)))(PP (IN (i)))(NP (NN (.e))))) |ET| 1:0.40089187 2:0.23772866 3:0.20519567 4:0.1754116 5:0.15713485 11:0.065465368 12:0.055901699 14:0.42515492 15:0.35289812 16:0.30548748  |BV| 1:0.13203564 2:0.08310122 3:0.16979054 4:0.063372433 5:0.13032705 11:0.254581 12:0.22262228 13:0.085871801 14:0.47841862 15:0.49881959 16:0.20514151  |EV| 
0.8138080436861333533116180660727  |BT| (ROOT (S (REL-FOCUS-DESC-NP (WP (what))(REL-NN (canal)))(VP (VBZ (be)))(PP (IN (between)))(REL-NP (DT (the))(REL-NNP (mediterranean))(REL-NNP (sea)))(REL-NP (DT (the))(REL-NNP (red))(REL-NNP (sea))))) |BT| (ROOT (S (REL-NP (DT (the))(NNP (suez))(REL-NN (canal)))(VP (VBZ (be)))(ADVP (RB (actually)))(REL-NP (DT (the))(JJ (first))(REL-NN (canal)))(VP (RB (directly))(VBG (link)))(REL-NP (DT (the))(REL-NNP (mediterranean))(REL-NNP (sea)))(PP (TO (to)))(REL-NP (DT (the))(REL-NNP (red))(REL-NNP (sea))))) |BT| (ROOT (S (REL-FOCUS-DESC-NP (WP (what))(REL-NN (canal)))(VP (VBZ (be)))(PP (IN (between)))(REL-NP (DT (the))(REL-NNP (mediterranean))(REL-NNP (sea)))(REL-NP (DT (the))(REL-NNP (red))(REL-NNP (sea))))) |BT| (ROOT (S (VP (VBZ (be)))(ADVP (RB (actually)))(REL-NP (DT (the))(JJ (first))(REL-NN (canal)))(VP (RB (directly))(VBG (link)))(REL-NP (DT (the))(REL-NNP (mediterranean))(REL-NNP (sea)))(PP (TO (to)))(REL-NP (DT (the))(REL-NNP (red))(REL-NNP (sea))))(S (NP (NNP (egypt)))(VP (VBD (nationalize)))(REL-NP (DT (the))(REL-NN (canal)))(PP (IN (on)))(NP (CD (26))(NNP (july))))) |ET| 1:0.58916497 2:0.45510411 3:0.50578052 4:0.36125052 5:0.44485083 6:0.17638342 7:0.31068489 8:0.12130422 9:0.27216554 10:0.053702161 11:0.58917183 12:0.51245284 13:0.25264558 14:0.79571247 15:0.80128139 16:0.38258788  |BV| 1:0.57616597 2:0.42552316 3:0.53108501 4:0.34084582 5:0.46848747 6:0.15324283 7:0.32897586 8:0.10590068 9:0.28867513 10:0.05523682 11:0.545223 12:0.47308367 13:0.23518021 14:0.77323389 15:0.76445299 16:0.39587861  |EV| 
-0.8138080436861333533116180660727  |BT| (ROOT (S (ADVP (WRB (how)))(NP (JJ (old)))(VP (VBZ (be)))(REL-FOCUS-NUM-NP (DT (the))(REL-NNP (red))(REL-NNP (pyramid))))) |BT| (ROOT (S (REL-NP (DT (the))(REL-NN (pyramid)))(VP (VBD (believe))(TO (to))(VB (be)))(NP (DT (the))(NN (burial))(NN (site)))(NP (NNP (king))(NNP (sneferu)))(VP (VBZ (be))(VBN (call)))(REL-NP (REL-NNP (red))(REL-NNP (pyramid)))(VP (VBN (color)))(PP (IN (by))))) |BT| (ROOT (S (ADVP (WRB (how)))(NP (JJ (old)))(VP (VBZ (be)))(REL-FOCUS-NUM-NP (DT (the))(NNP (red))(REL-NNP (pyramid))))) |BT| (ROOT (S (NP (DT (the))(NN (restoration))(NN (work)))(PP (IN (on)))(REL-FOCUS-NUM-NP (DT (the))(JJ (4,500-year-old))(REL-NN (pyramid)))(PP (IN (of)))(NP (NNP (khafra)))(NP (NN (director)))(PP (IN (of)))(REL-NP (NNP (giza))(REL-NNS (pyramid))(CC (and))(NNS (antiquity))))) |ET| 1:0.41833001 2:0.30960941 3:0.36115757 4:0.22485951 5:0.30151135 6:0.086146101 7:0.21821789 8:0.06085806 9:0.18257418 11:0.29083753 12:0.24514517 13:0.0556846 14:0.62627155 15:0.46015605 16:0.24925126  |BV| 1:0.09600307 2:0.05465623 4:0.039420828 11:0.24449661 12:0.20868251 13:0.020672459 14:0.53375769 15:0.33270904 16:0.18879563  |EV| 
0.53636570950292050685703770795953  |BT| (ROOT (S (REL-NP (WDT (which))(JJ (african))(REL-NN (country)))(REL-FOCUS-LOC-NP (POS ('s))(REL-JJ (major))(REL-NN (export)))(VP (VBZ (be)))(REL-NP (REL-NN (coffee))))) |BT| (ROOT (S (NP (CD (one)))(PP (IN (of)))(REL-NP (REL-JJ (major))(REL-NN (coffee)))(REL-VP (VBG (produce))(CC (and))(REL-VBG (export)))(REL-NP (REL-NNS (country)))(PP (IN (in)))(NP (DT (the))(NN (world))))(S (REL-NP (REL-NNP (coffee))(NNS (share)))(NP (CD (60))(NN (percent)))(PP (IN (of)))(REL-NP (PRP$ (its))(REL-NN (export)))(NP (CD (25))(NN (percent)))(PP (IN (of)))(ADJP (VBN (engage)))(PP (IN (in)))(REL-NP (REL-NN (coffee))(NN (production)))(NP (NN (trade))(CC (or))(JJ (related))(NNS (activity))))) |BT| (ROOT (S (REL-NP (WDT (which))(REL-JJ (african))(REL-NN (country)))(REL-FOCUS-LOC-NP (POS ('s))(JJ (major))(REL-NN (export)))(VP (VBZ (be)))(REL-NP (REL-NN (coffee))))) |BT| (ROOT (S (PP (IN (in)))(NP (NN (contrast)))(REL-NP (JJ (many))(REL-JJ (african))(REL-NNS (country)))(VP (VBP (have))(VBN (use)))(REL-NP (REL-NN (coffee))(NN (income)))(PP (IN (on)))(NP (JJ (parastatal))(NN (infrastructure)))(VP (TO (to))(VB (manage)))(REL-NP (REL-NN (coffee))(REL-NNS (export)))(SBAR (IN (while)))(PP (IN (at))))) |ET| 1:0.34426519 2:0.19500598 3:0.26387969 4:0.14054567 5:0.19069251 11:0.40539578 12:0.34961715 13:0.05663402 14:0.66909283 15:0.34390336 16:0.31541249  |BV| 1:0.30429032 2:0.19274777 3:0.32491821 4:0.13443321 5:0.23354968 6:0.035466351 7:0.064150028 8:0.02470831 9:0.046225019 11:0.50851303 12:0.43822992 13:0.15559398 14:0.71332067 15:0.42210197 16:0.31524301  |EV| 
0.8138080436861333533116180660727  |BT| (ROOT (S (ADVP (WRB (how)))(REL-NP (JJ (many))(REL-NNS (time)))(REL-FOCUS-NUM-NP (DT (a))(REL-NN (day)))(VP (VB (do)))(REL-NP (JJ (observant))(NNP (muslims))(REL-NN (pray))))) |BT| (ROOT (S (NP (DT (a))(NNP (muslim)))(ADVP (RB (always)))(REL-VP (REL-VBD (pray)))(REL-NP (CD (five))(REL-NNS (time)))(REL-NP (DT (a))(REL-NN (day)))(NP (NNP (kujabi)))(VP (VBD (say))))) |BT| (ROOT (S (ADVP (WRB (how)))(REL-NP (JJ (many))(REL-NNS (time)))(REL-FOCUS-NUM-NP (DT (a))(REL-NN (day)))(VP (VB (do)))(REL-NP (JJ (observant))(REL-NNP (muslims))(REL-NN (pray))))) |BT| (ROOT (S (REL-NP (REL-NNP (muslims)))(REL-VP (REL-NN (pray)))(PP (IN (at)))(REL-NP (JJ (certain))(REL-NNS (time)))(PP (IN (of)))(REL-NP (DT (the))(REL-NN (day))))(S (NP (CD (one)))(PP (IN (of)))(REL-NP (DT (the))(REL-NNS (time)))(VP (VBZ (coincide)))(PP (IN (with))))(S (ADVP (WRB (when)))(NP (PRP (they)))(REL-VP (REL-VBP (pray)))(REL-NP (REL-NNP (muslims)))(VP (VBP (have))(TO (to))(VB (find)))(NP (DT (a))(JJ (clean))(NN (area))))(S (REL-NP (DT (some))(REL-NNPS (muslims)))(VP (VBD (put)))(NP (NN (prayer))(NNS (rug))))(S (PP (IN (during)))(NP (DT (the))(NN (prayer)))(REL-NP (REL-NNP (muslims))(NN (bow))(NN (kneel)))(VP (VBD (put)))(NP (PRP$ (they))(NN (face))))) |ET| 1:0.32969025 2:0.26401001 3:0.40201512 4:0.21773241 5:0.2981424 6:0.14002801 7:0.12598816 8:0.098058067 9:0.096225038 10:0.05163978 11:0.27824333 12:0.22941573 13:0.095636509 14:0.66451198 15:0.489225 16:0.35582796  |BV| 1:0.23376229 2:0.1568072 3:0.40246895 4:0.11688906 5:0.3000496 6:0.02014149 7:0.098413572 8:0.01398636 9:0.071474172 11:0.4759413 12:0.40548968 13:0.13463613 14:0.63984704 15:0.47849661 16:0.31159416  |EV| 
0.8138080436861333533116180660727  |BT| (ROOT (S (NP (WP (what)))(VP (VBZ (do)))(REL-FOCUS-NUM-NP (DT (the))(REL-NN (bugler))(NN (play)))(PP (IN (at)))(NP (DT (the))(NN (end)))(PP (IN (of)))(NP (DT (the))(NN (day)))(PP (IN (on)))(REL-NP (DT (a))(NNP (us))(REL-JJ (military))(NN (base))))) |BT| (ROOT (S (REL-NP (REL-JJ (military))(NNS (honor)))(NP (DT (the))(NN (firing)))(PP (IN (of)))(PP (IN (than)))(PP (IN (by)))(REL-NP (REL-NNS (bugler)))(NP (NN (service))(NNS (personnel))))) |BT| (ROOT (S (NP (WP (what)))(VP (VBZ (do)))(REL-FOCUS-NUM-NP (DT (the))(REL-NN (bugler))(NN (play)))(PP (IN (at)))(NP (DT (the))(NN (end)))(PP (IN (of)))(NP (DT (the))(NN (day)))(PP (IN (on)))(REL-NP (DT (a))(NNP (us))(REL-JJ (military))(NN (base))))) |BT| (ROOT (S (NP (EX (there)))(VP (VBP (be)))(REL-NP (RB (only))(CD (500))(REL-NNS (bugler)))(PP (IN (in)))(NP (DT (the))(JJ (whole)))(REL-ADJP (REL-JJ (military)))(NP (PRP (we)))(VP (VBP (seem))(TO (to))(VB (have))))) |ET| 1:0.23168267 2:0.13990462 3:0.089893311 4:0.1014301 5:0.064051263 11:0.46596885 12:0.41445613 13:0.2139139 14:0.67233336 15:0.68550783 16:0.23894751  |BV| 1:0.22116293 2:0.12508146 3:0.22792114 4:0.08856149 5:0.1721326 11:0.20824929 12:0.17293721 13:0.037736598 14:0.56120509 15:0.43958622 16:0.27975515  |EV| 
-0.8138080436861333533116180660727  |BT| (ROOT (S (ADVP (WRB (where)))(PP (IN (on)))(NP (DT (the))(NN (body)))(NP (PRP (you)))(VP (VB (find)))(REL-FOCUS-LOC-NP (DT (the))(REL-NNS (jowl))))) |BT| (ROOT (S (PP (IN (of)))(NP (NNP (barnaby)))(REL-NP (POS ('s))(REL-NNS (jowl)))(VP (VBD (pollute)))(NP (DT (the))(NN (air))(NN (space))))) |BT| (ROOT (S (ADVP (WRB (where)))(PP (IN (on)))(NP (DT (the))(NN (body)))(NP (PRP (you)))(VP (VB (find)))(REL-FOCUS-LOC-NP (DT (the))(REL-NNS (jowl))))) |BT| (ROOT (S (REL-NP (PRP$ (you))(REL-NNS (jowl)))(VP (VBP (be))(RB (not))(VBG (sag))))) |ET| 1:0.26352313 2:0.14987266 3:0.10846523 4:0.10721125 5:0.083333328 11:0.41202095 12:0.34050262 13:0.11556254 14:0.73566121 15:0.54988241 16:0.19505706  |BV| 1:0.20412415 2:0.12156613 3:0.1490712 4:0.089205161 5:0.11785113 11:0.10611162 12:0.087537616 14:0.38799652 15:0.22743785 16:0.21328473  |EV| 
-0.8138080436861333533116180660727  |BT| (ROOT (S (NP (WP (what)))(VP (VBP (be)))(REL-FOCUS-ENTY-NP (NNS (penny)))(REL-VP (REL-VBN (make)))(PP (IN (of))))) |BT| (ROOT (S (PP (IN (of)))(NP (NN (planning)))(REL-VP (VBP (have))(REL-VBN (make)))(NP (DT (the))(NN (team)))(NP (DT (a))(JJ (nonstop))(NN (folly))))) |BT| (ROOT (S (NP (WP (what)))(VP (VBP (be)))(REL-FOCUS-ENTY-NP (REL-NNS (penny)))(REL-VP (REL-VBN (make)))(PP (IN (of))))) |BT| (ROOT (S (VP (VBD (think)))(NP (PRP (she)))(REL-VP (MD (could))(VB (have))(REL-VBN (make)))(NP (PRP (it)))(SBAR (IN (if)))(NP (PRP (she)))(VP (TO (to))(VB (dye)))(REL-NP (PRP$ (she))(NN (hair))(NN (copper))(REL-NN (penny))(NN (red))))) |ET| 1:0.17407766 2:0.094176322 3:0.13245323 4:0.067229263 5:0.11111111 11:0.11935248 12:0.10180787 14:0.41323739 15:0.42907298 16:0.1767793  |BV| 1:0.13245323 2:0.077209137 3:0.28005603 4:0.05668202 5:0.23570226 11:0.089554727 12:0.07548514 14:0.44358695 15:0.31679487 16:0.18630829  |EV| 
-0.8138080436861333533116180660727  |BT| (ROOT (S (NP (WP (what)))(VP (VBZ (do)))(REL-FOCUS-NUM-NP (DT (the))(REL-NN (bugler))(REL-NN (play)))(PP (IN (at)))(REL-NP (DT (the))(REL-NN (end)))(PP (IN (of)))(NP (DT (the))(NN (day)))(PP (IN (on)))(NP (DT (a))(NNP (us))(JJ (military))(NN (base))))) |BT| (ROOT (S (PP (IN (in)))(NP (NNP (maryland)))(REL-FOCUS-NUM-NP (JJ (last))(NN (week)))(PP (IN (from)))(NP (NNP (cuba))))(S (NP (NNP (miami)))(NP (DT (the))(NN (demonstration)))(REL-VP (REL-VBD (end)))(ADVP (RB (quietly)))(PP (IN (with)))(REL-NP (DT (a))(REL-NN (bugler)))(REL-VP (REL-VBG (play)))(NP (DT (the))(JJ (cuban))(JJ (national))(PRP (anthem))))) |BT| (ROOT (S (NP (WP (what)))(VP (VBZ (do)))(REL-FOCUS-NUM-NP (DT (the))(REL-NN (bugler))(REL-NN (play)))(PP (IN (at)))(NP (DT (the))(NN (end)))(PP (IN (of)))(NP (DT (the))(NN (day)))(PP (IN (on)))(NP (DT (a))(NNP (us))(JJ (military))(NN (base))))) |BT| (ROOT (S (REL-NP (DT (a))(JJ (lone))(REL-NN (bugler)))(REL-VP (REL-VBD (play)))(NP (NNS (tap))))) |ET| 1:0.30380249 2:0.19714563 3:0.20385888 4:0.14213382 5:0.14462031 6:0.02073903 7:0.058025889 8:0.01414921 9:0.041666672 11:0.58093035 12:0.49672434 13:0.2196379 14:0.78655416 15:0.69653738 16:0.24483579  |BV| 1:0.22116293 2:0.16537964 3:0.34188172 4:0.11878277 5:0.25819889 6:0.04981355 7:0.1490712 8:0.03513642 9:0.11785113 11:0.24525574 12:0.20330223 13:0.02651858 14:0.56875163 15:0.32667387 16:0.29962361  |EV| 
0.8138080436861333533116180660727  |BT| (ROOT (S (REL-FOCUS-HUM-NP (WP (what))(NN (position)))(VP (VBD (do)))(REL-NP (REL-NNP (satchel))(REL-NNP (paige))(NN (play)))(PP (IN (in)))(REL-NP (JJ (professional))(REL-NN (baseball))))) |BT| (ROOT (S (VP (VBP (do))(RB (not))(VB (look)))(ADVP (RB (back)))(REL-FOCUS-HUM-NP (DT (the))(JJ (legendary))(REL-NN (baseball))(NN (pitcher))(REL-NNP (satchel))(REL-NNP (paige)))(ADVP (RB (once)))(VP (VBD (say))))) |BT| (ROOT (S (REL-FOCUS-HUM-NP (WP (what))(NN (position)))(VP (VBD (do)))(REL-NP (REL-NNP (satchel))(REL-NNP (paige))(REL-NN (play)))(PP (IN (in)))(REL-NP (JJ (professional))(REL-NN (baseball))))) |BT| (ROOT (S (REL-FOCUS-HUM-NP (NNP (miller)))(NP (WP (who)))(REL-VP (REL-VBD (play)))(NP (JJ (semi-pro))(NN (ball)))(PP (IN (during)))(NP (PRP$ (he))(NN (student))(NNS (year)))(PP (IN (against)))(REL-NP (JJ (several))(REL-NN (baseball))(NNS (great)))(PP (VBG (include)))(REL-NP (REL-NNP (satchel))(REL-NNP (paige)))(VP (MD (may))(RB (not)))(SBAR (IN (as)))(VP (VBP (have))(RB (once))(VBN (strike)))(PRT (RP (out)))(REL-FOCUS-HUM-NP (NNP (babe))(NNP (ruth)))(NP (PRP$ (he))(NN (friendship)))(PP (IN (with))))) |ET| 1:0.19289713 2:0.13425539 3:0.26318067 4:0.095276989 5:0.18856181 6:0.031575449 7:0.07647191 8:0.02188441 9:0.05555556 11:0.43666303 12:0.36473113 13:0.064911351 14:0.67958558 15:0.38910434 16:0.39823571  |BV| 1:0.13719887 2:0.10178677 3:0.24784081 4:0.074239232 5:0.17568208 6:0.02662174 7:0.056343619 8:0.018405249 9:0.0404226 11:0.48894709 12:0.4159455 13:0.13468701 14:0.74182802 15:0.46529692 16:0.36906469  |EV| 
0.38904420686832907883001553273061  |BT| (ROOT (S (ADVP (WRB (when)))(VP (VBD (be)))(REL-FOCUS-NUM-NP (REL-NNP (julius))(REL-NNP (caesar)))(REL-VP (REL-VBN (bear))))) |BT| (ROOT (S (PP (IN (in)))(REL-NP (CD (100))(NNP (b.c.))(NNP (roman))(NN (dictator))(REL-NNP (julius))(REL-NNP (caesar)))(REL-VP (VBD (be))(REL-VBN (bear))))) |BT| (ROOT (S (ADVP (WRB (when)))(VP (VBD (be)))(REL-FOCUS-NUM-NP (NNP (julius))(NNP (caesar)))(VP (VBN (bear))))) |BT| (ROOT (S (NP (NNP (`julius))(NNP (caesar')))(REL-FOCUS-NUM-NP (CD (1953))))) |ET| 1:0.49236596 2:0.32897586 3:0.62017369 4:0.23570226 5:0.57735026 6:0.07647191 7:0.52223295 8:0.05555556 9:0.44721359 11:0.48651278 12:0.4110961 13:0.11111111 14:0.70186752 15:0.45775232 16:0.42416808  |BV| 11:0.3253957 12:0.27386129 13:0.074535601 14:0.45505095 15:0.32438377 16:0.3505795  |EV| 
0.8138080436861333533116180660727  |BT| (ROOT (S (REL-FOCUS-HUM-NP (WP (what))(NN (position)))(VP (VBD (do)))(REL-NP (REL-NNP (satchel))(REL-NNP (paige))(NN (play)))(PP (IN (in)))(REL-NP (JJ (professional))(REL-NN (baseball))))) |BT| (ROOT (S (VP (VBP (do))(RB (not))(VB (look)))(ADVP (RB (back)))(REL-FOCUS-HUM-NP (DT (the))(JJ (legendary))(REL-NN (baseball))(NN (pitcher))(REL-NNP (satchel))(REL-NNP (paige)))(ADVP (RB (once)))(VP (VBD (say))))) |BT| (ROOT (S (REL-FOCUS-HUM-NP (WP (what))(NN (position)))(VP (VBD (do)))(REL-NP (REL-NNP (satchel))(REL-NNP (paige))(REL-NN (play)))(PP (IN (in)))(NP (JJ (professional))(NN (baseball))))) |BT| (ROOT (S (VP (VBP (be))(VBG (make)))(NP (NN (history)))(REL-FOCUS-HUM-NP (NNP (boyd)))(VP (VBD (say))))(S (NP (DT (the))(JJ (only))(NN (owner)))(NP (IN (that)))(REL-VP (REL-NNS (play)))(NP (PRP (i)))(REL-VP (VBP (be))(VBG (plan))(TO (to))(REL-VB (play)))(SBAR (IN (until)))(NP (PRP (i)))(ADJP (RB (as))(JJ (old)))(PP (IN (as)))(REL-NP (REL-NNP (satchel))(REL-NNP (paige))))) |ET| 1:0.19289713 2:0.13425539 3:0.26318067 4:0.095276989 5:0.18856181 6:0.031575449 7:0.07647191 8:0.02188441 9:0.05555556 11:0.43666303 12:0.36473113 13:0.064911351 14:0.67958558 15:0.38910434 16:0.39823571  |BV| 1:0.11359237 2:0.080908693 3:0.21989974 4:0.05979133 5:0.1652949 6:0.020874141 7:0.059868429 8:0.01504823 9:0.043519411 11:0.28699392 12:0.2440806 13:0.05083286 14:0.55217403 15:0.49515232 16:0.37492943  |EV| 
-0.8138080436861333533116180660727  |BT| (ROOT (S (REL-FOCUS-LOC-NP (WP (what))(NN (city)))(VP (VBZ (be)))(REL-NP (REL-JJ (ole))(REL-NNP (mississippi))(REL-NNP (university)))(PP (IN (in))))) |BT| (ROOT (S (PRT (RP (up)))(PP (IN (on)))(REL-NP (REL-JJ (ole))(NNP (miss))(NN (football))(NNS (souvenir)))(PP (IN (at)))(REL-NP (REL-NNP (university))(NNP (sporting))(NNP (goods)))(PP (IN (on)))(NP (DT (the))(NN (square)))(PP (IN (at)))(NP (DT (the))(NNP (southside))(NNP (gallery)))(REL-NP (REL-NNP (mississippi))(NNP (madness))))) |BT| (ROOT (S (REL-FOCUS-LOC-NP (WP (what))(NN (city)))(VP (VBZ (be)))(REL-NP (REL-JJ (ole))(REL-NNP (mississippi))(REL-NNP (university)))(PP (IN (in))))) |BT| (ROOT (S (NP (NN (nyt3)))(NP (NNP (oxford)))(REL-FOCUS-LOC-NP (NNP (miss))))(S (NP (DT (the))(NN (chancellor)))(PP (IN (of)))(REL-NP (DT (the))(REL-NNP (university)))(PP (IN (of)))(REL-NP (REL-NNP (mississippi))))(S (NP (NNP (khayat)))(REL-NP (DT (a))(JJ (former))(REL-JJ (ole))(NNP (miss))(NN (student)))(NP (NN (football))(NN (hero))(CC (and))(NN (law))(NN (professor)))(VP (VBZ (have))(VBN (stake)))(PP (IN (on)))(VP (VBG (recast)))(REL-NP (REL-JJ (ole))(NNP (miss)))(NP (POS ('s))(NN (image)))(PP (IN (by))))(S (REL-NP (REL-JJ (ole))(NNP (miss)))(VP (VBZ (be)))(NP (DT (the))(JJ (national))(NN (repository))))(S (NP (PRP$ (he))(NN (goal)))(PP (IN (for)))(REL-NP (REL-JJ (ole))(NNP (miss)))(VP (VBZ (be)))(NP (DT (a))(JJ (dual))(CD (one)))(VP (TO (to))(VB (be))(VBN (perceive)))(ADVP (IN (as)))(REL-NP (DT (a))(JJ (great))(JJ (public))(REL-NN (university))))) |ET| 1:0.15811388 2:0.087148927 3:0.18641093 4:0.061858959 5:0.13608275 11:0.49203137 12:0.41666666 13:0.15253477 14:0.6867609 15:0.42273229 16:0.24514101  |BV| 1:0.19984019 2:0.12239801 3:0.17762677 4:0.092049658 5:0.13576885 11:0.50778729 12:0.44368431 13:0.11251468 14:0.58077896 15:0.47792393 16:0.23186079  |EV| 
0.8138080436861333533116180660727  |BT| (ROOT (S (NP (WP (what)))(VP (VBZ (be)))(REL-NP (REL-NNP (south))(REL-NNP (africa)))(REL-FOCUS-NUM-NP (POS ('s))(REL-JJ (total))(REL-NN (population))))) |BT| (ROOT (S (REL-NP (REL-NNP (south))(REL-NNP (africa)))(VP (VBZ (have)))(REL-NP (DT (a))(REL-JJ (total))(REL-NN (population)))(PP (IN (of)))(NP (IN (about))(CD (42))(CD (million))))) |BT| (ROOT (S (NP (WP (what)))(VP (VBZ (be)))(REL-NP (REL-NNP (south))(REL-NNP (africa)))(REL-FOCUS-NUM-NP (REL-POS ('s))(REL-JJ (total))(REL-NN (population))))) |BT| (ROOT (S (NP (NNP (johannesburg)))(REL-FOCUS-NUM-NP (NNP (august))(CD (28))(NNP (xinhua)))(REL-NP (REL-NNP (south))(REL-NNP (africa)))(REL-NP (REL-POS ('s))(JJ (black))(REL-NN (population)))(VP (VBN (increase)))(PP (IN (by)))(NP (CD (713,200)))(PP (IN (between)))(REL-FOCUS-NUM-NP (CD (1995))(CC (and))(CD (1996)))(ADVP (RB (virtually)))(REL-NP (DT (the))(REL-JJ (total))(REL-NN (population)))(PP (IN (of)))(NP (NNP (northern))(NNP (cape))(NNP (province)))(VP (VBG (reach)))(ADVP (RB (here)))(REL-FOCUS-NUM-NP (NN (today))))) |ET| 1:0.37688917 2:0.28226724 3:0.48507124 4:0.19886684 5:0.35355338 6:0.091192149 7:0.19518001 8:0.064150028 9:0.14547859 11:0.25176173 12:0.20788047 13:0.062994078 14:0.62347722 15:0.5587998 16:0.31543854  |BV| 1:0.31622776 2:0.25819889 3:0.44721359 4:0.20261022 5:0.35805744 6:0.13166159 7:0.23611253 8:0.09200874 9:0.1721326 10:0.036297701 11:0.49428323 12:0.44047618 13:0.28327885 14:0.71641827 15:0.42021823 16:0.25410274  |EV| 
0.8138080436861333533116180660727  |BT| (ROOT (S (NP (WP (what)))(VP (VBZ (be)))(REL-FOCUS-LOC-NP (DT (the))(REL-NNP (bluegrass))(NN (state))))) |BT| (ROOT (S (ADVP (RBS (best)))(PP (IN (on)))(REL-FOCUS-LOC-NP (NNP (kentucky))(REL-NN (bluegrass)))(NP (DT (the))(RBS (most))(JJ (popular))(NN (grass)))(PP (IN (for)))(NP (JJ (much)))(PP (IN (of)))(REL-FOCUS-LOC-NP (DT (the))(NNP (united))(NNP (states))))) |BT| (ROOT (S (NP (WP (what)))(VP (VBZ (be)))(REL-FOCUS-LOC-NP (DT (the))(REL-NNP (bluegrass))(REL-NN (state))))) |BT| (ROOT (S (ADVP (RB (first)))(VP (VBD (begin))(TO (to))(VB (explore)))(REL-NP (DT (the))(JJ (present-day))(REL-NNP (bluegrass))(REL-NNP (state))))) |ET| 1:0.16666667 2:0.089893311 4:0.064051263 11:0.33734953 12:0.28207597 13:0.074535601 14:0.56026393 15:0.32051986 16:0.19943026  |BV| 1:0.21081851 2:0.1119785 3:0.14002801 4:0.079681911 5:0.11785113 11:0.20341904 12:0.16903085 14:0.5154652 15:0.35844824 16:0.19943026  |EV| 
-0.8138080436861333533116180660727  |BT| (ROOT (S (ADVP (WRB (where)))(VP (VBD (be)))(REL-FOCUS-LOC-NP (DT (the))(REL-NNP (andersonville))(REL-NNP (prison))))) |BT| (ROOT (S (NP (DT (the))(CD (six))(JJ (other))(JJ (wounded))(NNS (man)))(PP (IN (from)))(REL-NP (DT (the))(NNP (confederate))(REL-NN (prison))(NN (camp)))(PP (IN (in)))(REL-NP (REL-NNP (andersonville)))(PP (IN (after)))(NP (DT (the))(NN (war))))) |BT| (ROOT (S (ADVP (WRB (where)))(VP (VBD (be)))(REL-FOCUS-LOC-NP (DT (the))(REL-NNP (andersonville))(REL-NNP (prison))))) |BT| (ROOT (S (NP (DT (a))(NN (lot)))(PP (IN (about)))(REL-NP (REL-NNP (andersonville)))(REL-NP (DT (the))(NNP (civil))(NNP (war))(REL-NN (prison))(NN (camp)))(PP (IN (in)))(REL-FOCUS-LOC-NP (NNP (south))(NNP (georgia)))(ADVP (WRB (where)))(NP (JJ (many))(JJ (northern))(NNS (soldier))))(S (NP (NN (war))(NN (camp)))(PP (IN (in)))(REL-FOCUS-LOC-NP (NNP (delaware)))(VP (VBD (be)))(PP (RB (just))(IN (as))))) |ET| 1:0.33557802 2:0.19302286 3:0.12038585 4:0.14085904 5:0.10050378 11:0.26094109 12:0.22427131 13:0.031686209 14:0.46186733 15:0.25352028 16:0.26871932  |BV| 1:0.26135418 2:0.14181902 3:0.090166964 4:0.1014301 5:0.075164601 11:0.33417481 12:0.28913823 13:0.081854552 14:0.51219893 15:0.3175948 16:0.25427523  |EV| 
-0.60699823562403365517781139715225  |BT| (ROOT (S (ADVP (WRB (when)))(VP (VBD (be)))(REL-FOCUS-NUM-NP (REL-NNP (apollo))(REL-CD (11)))(REL-VP (REL-VBN (launch))))) |BT| (ROOT (S (PP (IN (on)))(REL-NP (NNP (oct.))(REL-CD (11))(CD (1968)))(REL-NP (REL-NNP (apollo))(CD (7)))(REL-NP (DT (the))(JJ (first))(JJ (manned))(REL-NNP (apollo))(NN (mission)))(REL-VP (VBD (be))(REL-VBN (launch)))(PP (IN (with)))(NP (NNS (astronaut))(NNP (wally))(NNP (schirra))(NNP (donn))(NNP (fulton))(NNP (eisele))))) |BT| (ROOT (S (ADVP (WRB (when)))(VP (VBD (be)))(REL-FOCUS-NUM-NP (REL-NNP (apollo))(REL-CD (11)))(REL-VP (REL-VBN (launch))))) |BT| (ROOT (S (PP (IN (in)))(REL-FOCUS-NUM-NP (CD (1969)))(NP (PRP (he)))(NP (PRP$ (he))(NN (staff)))(NP (NN (film)))(PP (IN (of)))(REL-NP (DT (the))(REL-NNP (apollo))(REL-CD (11))(REL-NN (launch)))(PP (TO (to)))(NP (DT (the))(NN (paper)))(NP (NN (publication)))(PP (IN (in)))(REL-FOCUS-NUM-NP (PRP$ (its))(NN (evening))(NN (edition))))) |ET| 1:0.28038609 2:0.16547585 3:0.28644595 4:0.12198751 5:0.21821789 11:0.29966813 12:0.2602984 13:0.05248639 14:0.47417238 15:0.26648456 16:0.27786243  |BV| 1:0.20134681 2:0.1869894 3:0.44721359 4:0.16151457 5:0.40824828 6:0.13483997 7:0.36115757 8:0.096225038 9:0.30151135 10:0.051917411 11:0.1112256 12:0.095346257 13:0.02961744 14:0.30243009 15:0.15805818 16:0.2703059  |EV| 
0.8138080436861333533116180660727  |BT| (ROOT (S (ADVP (WRB (how)))(REL-NP (REL-RB (fast)))(VP (VBZ (do)))(REL-FOCUS-NUM-NP (REL-JJ (light))(REL-NN (travel)))(PP (IN (through)))(REL-NP (REL-NN (space))))) |BT| (ROOT (S (SBAR (IN (that)))(NP (NN (nothing)))(REL-VP (MD (can))(REL-VB (travel)))(ADVP (RBR (faster)))(PP (IN (than)))(REL-NP (REL-NN (light)))(PP (IN (in)))(NP (DT (a))(NN (vacuum)))(REL-NP (JJ (empty))(REL-NN (space))))(S (ADVP (RB (really)))(ADVP (RB (really)))(REL-NP (REL-JJ (fast)))(NP (IN (about))(CD (186,000))(NNS (mile)))(PP (IN (per))))(S (NP (DT (a))(NN (way)))(VP (TO (to))(VB (break)))(REL-NP (DT (the))(REL-JJ (light))(NN (speed))(NN (barrier)))(ADVP (IN (at))(JJS (least)))(PP (IN (in))))) |BT| (ROOT (S (ADVP (WRB (how)))(NP (RB (fast)))(VP (VBZ (do)))(REL-FOCUS-NUM-NP (REL-JJ (light))(NN (travel)))(PP (IN (through)))(REL-NP (REL-NN (space))))) |BT| (ROOT (S (VP (TO (to))(VB (look)))(PP (IN (at)))(REL-NP (CD (six))(JJ (young))(NNS (star))(CD (450))(REL-JJ (light))(NNS (year)))(ADVP (RB (away)))(PP (IN (in))))(S (NP (NN (measurement)))(PP (IN (in)))(REL-NP (REL-NN (space)))(VP (VBP (represent)))(REL-NP (DT (the))(NN (distance))(REL-NN (light))(NNS (travels)))(PP (IN (in)))(NP (DT (a))(NN (year)))(REL-FOCUS-NUM-NP (RB (nearly))(CD (6))(CD (trillion))(NNS (mile))))) |ET| 1:0.16854997 2:0.09649346 3:0.25958708 4:0.069707148 5:0.19117978 11:0.56426179 12:0.48627388 13:0.24946108 14:0.70761883 15:0.47260466 16:0.251995  |BV| 1:0.1315587 2:0.074883088 3:0.16903085 4:0.053812198 5:0.125 11:0.3680037 12:0.31127062 13:0.078841649 14:0.64727974 15:0.48704433 16:0.22489938  |EV| 
0.8138080436861333533116180660727  |BT| (ROOT (S (ADVP (WRB (where)))(VP (VBZ (be)))(NP (NNP (devil)))(REL-FOCUS-LOC-NP (POS ('s))(REL-NNP (tower))))) |BT| (ROOT (S (REL-NP (NNP (devils))(REL-NNP (tower)))(PP (IN (in)))(REL-FOCUS-LOC-NP (JJ (northeastern))(NNP (wyoming)))(VP (VBD (become)))(NP (DT (the))(JJ (first))(JJ (national))(NN (monument))))) |BT| (ROOT (S (ADVP (WRB (where)))(VP (VBZ (be)))(NP (NNP (devil)))(REL-FOCUS-LOC-NP (POS ('s))(REL-NNP (tower))))) |BT| (ROOT (S (PP (IN (by)))(VP (VBG (name)))(REL-NP (NNP (devils))(REL-NNP (tower)))(REL-FOCUS-LOC-NP (NNP (wyo))))) |ET| 1:0.060192931 2:0.03392268 3:0.071611486 4:0.02450715 5:0.05455447 11:0.33657131 12:0.2912176 13:0.0270369 14:0.55759859 15:0.31210712 16:0.17482774  |BV| 1:0.1132277 2:0.060302269 3:0.12403473 4:0.043033149 5:0.096225038 11:0.29250896 12:0.24343225 13:0.05025189 14:0.5548926 15:0.3753649 16:0.24147081  |EV| 
0.39901933333488531774335683621757  |BT| (ROOT (S (ADVP (WRB (how)))(REL-FOCUS-NUM-NP (JJ (many))(REL-NNS (stripe)))(VP (VBP (be)))(PP (IN (on)))(REL-NP (DT (the))(REL-JJ (american))(REL-NN (flag))))) |BT| (ROOT (S (PP (IN (in)))(REL-FOCUS-NUM-NP (CD (1794)))(NP (NNP (president))(NNP (washington)))(VP (VBD (approve)))(VP (VBG (add)))(NP (CD (two))(NNS (star)))(REL-NP (CD (two))(REL-NNS (stripe)))(PP (TO (to)))(REL-NP (DT (the))(REL-JJ (american))(REL-NN (flag)))(PP (VBG (follow)))(NP (DT (the))(NN (admission))))(S (NP (DT (the))(NN (number)))(PP (IN (of)))(REL-NP (REL-NNS (stripe)))(VP (VBD (be))(RB (later))(VBN (reduce)))(PP (TO (to))))) |BT| (ROOT (S (ADVP (WRB (how)))(REL-FOCUS-NUM-NP (JJ (many))(NNS (stripe)))(VP (VBP (be)))(PP (IN (on)))(REL-NP (DT (the))(REL-JJ (american))(REL-NN (flag))))) |BT| (ROOT (S (NP (NN (q)))(ADVP (WRB (when)))(REL-NP (DT (the))(REL-JJ (american))(REL-NN (flag)))(VP (VBZ (be))(VBN (fly)))(PP (IN (with)))(REL-NP (DT (the))(REL-NN (flag)))(PP (IN (of)))(NP (DT (another))(NN (country)))(NP (DT (the))(NNP (stars))(CC (and))(NNP (stripes)))(VP (VBZ (do)))(REL-NP (DT (the))(JJ (other))(REL-NN (flag)))(VP (VBP (go))))) |ET| 1:0.35112345 2:0.26906911 3:0.44112876 4:0.21111019 5:0.39254051 6:0.11202241 7:0.30151135 8:0.078072011 9:0.25 10:0.03081668 11:0.3038218 12:0.25354627 13:0.072993189 14:0.61088163 15:0.49074674 16:0.27253565  |BV| 1:0.52380949 2:0.35931349 3:0.46625239 4:0.28022426 5:0.37267801 6:0.10444659 7:0.1490712 8:0.072739303 9:0.12598816 10:0.038096972 11:0.46356517 12:0.38945216 13:0.19542141 14:0.70529002 15:0.59220237 16:0.34466919  |EV| 
0.10042764188298868022197751770364  |BT| (ROOT (S (NP (WP (what)))(VP (VBD (be)))(REL-NP (REL-NNP (aaron))(REL-NNP (copland)))(NP (POS ('s)))(ADJP (RBS (most))(JJ (famous)))(REL-FOCUS-ENTY-NP (NN (piece)))(PP (IN (of)))(REL-NP (REL-NN (music))))) |BT| (ROOT (S (PP (IN (in)))(NP (CD (1944)))(REL-FOCUS-ENTY-NP (DT (the))(NNP (martha))(NNP (graham))(NN (ballet)))(NP (NNP (appalachian))(NNP (spring)))(PP (IN (with)))(REL-NP (REL-NN (music)))(PP (IN (by)))(REL-FOCUS-ENTY-NP (REL-NNP (aaron))(REL-NNP (copland)))(VP (VBD (premiere)))(PP (IN (at)))(REL-FOCUS-ENTY-NP (DT (the))(NNP (library)))(REL-FOCUS-ENTY-PP (IN (of)))(REL-FOCUS-ENTY-NP (NNP (congress)))(PP (IN (with)))(REL-FOCUS-ENTY-NP (NNP (graham)))(PP (IN (in)))(NP (DT (a))(JJ (leading))(NN (role))))) |BT| (ROOT (S (NP (WP (what)))(VP (VBD (be)))(REL-NP (REL-NNP (aaron))(REL-NNP (copland)))(NP (POS ('s)))(ADJP (RBS (most))(JJ (famous)))(REL-FOCUS-ENTY-NP (NN (piece)))(PP (IN (of)))(REL-NP (REL-NN (music))))) |BT| (ROOT (S (VP (VBP (be)))(PP (IN (into)))(REL-NP (JJ (classical))(REL-NN (music)))(NP (PRP (you)))(VP (VBP (have))(VBN (be))(VBG (listen)))(PP (TO (to)))(REL-FOCUS-ENTY-NP (REL-NNP (aaron))(REL-NNP (copland)))(NP (PRP$ (you))(NN (life))))) |ET| 1:0.1672484 2:0.11976263 3:0.21661215 4:0.085875668 5:0.15569979 6:0.02937367 7:0.064150028 8:0.02028602 9:0.046225019 11:0.4386093 12:0.37409008 13:0.1250798 14:0.68869501 15:0.43163842 16:0.32820475  |BV| 1:0.28490144 2:0.1909821 3:0.36363637 4:0.13587324 5:0.26666668 6:0.037715711 7:0.11111111 8:0.026189139 9:0.083333328 11:0.30969006 12:0.24958438 13:0.077151671 14:0.6723507 15:0.52105677 16:0.41743535  |EV| 
0.8138080436861333533116180660727  |BT| (ROOT (S (ADVP (WRB (where)))(VP (VBZ (be)))(REL-FOCUS-LOC-NP (DT (the))(REL-NNP (salton))(REL-NNP (sea))))) |BT| (ROOT (S (NP (DT (a))(JJ (small))(NN (farming))(NN (community)))(PP (IN (in)))(REL-FOCUS-LOC-NP (NNP (southern))(NNP (california)))(PP (IN (near)))(REL-NP (DT (the))(REL-NNP (salton))(REL-NNP (sea))))) |BT| (ROOT (S (ADVP (WRB (where)))(VP (VBZ (be)))(REL-FOCUS-LOC-NP (DT (the))(REL-NNP (salton))(REL-NNP (sea))))) |BT| (ROOT (S (ADVP (RB (generally)))(NP (CD (two))(JJ (hot))(NN (dove))(NNS (area)))(REL-FOCUS-LOC-NP (NNP (palo))(NNP (verdes)))(ADVP (RB (just))(RB (south)))(PP (IN (of)))(PP (IN (between)))(NP (NNP (indio)))(REL-NP (DT (the))(REL-NNP (salton))(REL-NNP (sea))))) |ET| 1:0.38729832 2:0.29468378 3:0.31108552 4:0.2409658 5:0.25819889 6:0.13736056 7:0.18569534 8:0.098058067 9:0.15430336 10:0.052925609 11:0.52210224 12:0.47149518 13:0.26802814 14:0.57927483 15:0.33343792 16:0.24088155  |BV| 1:0.30772874 2:0.24702464 3:0.34641016 4:0.20759971 5:0.28867513 6:0.13483997 7:0.20851441 8:0.096824579 9:0.17407766 10:0.052925609 11:0.49928406 12:0.44536397 13:0.28306925 14:0.63372242 15:0.31235325 16:0.25846264  |EV| 
-0.8138080436861333533116180660727  |BT| (ROOT (S (ADVP (WRB (how)))(REL-FOCUS-NUM-NP (JJ (many))(REL-JJ (electoral))(REL-NN (college))(REL-NNS (vote)))(PP (IN (in)))(NP (NNP (tennessee))))) |BT| (ROOT (S (NP (DT (a))(NN (total)))(PP (IN (of)))(REL-NP (CD (171))(REL-NNS (vote)))(VP (VBD (be)))(ADJP (JJ (invalid)))(NP (CD (191))(NNS (elector)))(VP (VBD (do))(RB (not))(VB (cast)))(REL-NP (PRP$ (they))(REL-NNS (vote)))(PP (IN (in)))(REL-NP (DT (a))(REL-JJ (electoral))(REL-NN (college)))(PP (IN (of)))(REL-FOCUS-NUM-NP (CD (4,833))))) |BT| (ROOT (S (ADVP (WRB (how)))(REL-FOCUS-NUM-NP (JJ (many))(REL-JJ (electoral))(REL-NN (college))(REL-NNS (vote)))(PP (IN (in)))(NP (NNP (tennessee))))) |BT| (ROOT (S (REL-FOCUS-NUM-NP (NNP (tuesday)))(NP (POS ('s))(NNS (result)))(VP (VBD (be))))(S (NP (NNP (pennsylvania)))(PP (IN (with)))(REL-NP (CD (23))(REL-NNP (electoral))(REL-NNP (college))(REL-NNS (vote)))(VP (MD (could))(VB (be)))(NP (DT (a))(JJ (critical))(NN (swing))(NN (state)))(PP (IN (in)))(REL-FOCUS-NUM-NP (NNP (november))))(S (NP (NNP (wisconsin)))(VP (VBZ (have)))(REL-NP (CD (11))(REL-JJ (electoral))(REL-NNS (vote))))) |ET| 1:0.32826608 2:0.25308552 3:0.39405519 4:0.18002057 5:0.29462782 6:0.084590986 7:0.10259784 8:0.059391391 9:0.078567423 11:0.30669782 12:0.25456658 13:0.054433111 14:0.59778243 15:0.41660124 16:0.30905157  |BV| 1:0.20851441 2:0.11619858 3:0.18156826 4:0.082849301 5:0.13363062 11:0.46496263 12:0.3893806 13:0.094280899 14:0.66808558 15:0.48317015 16:0.27758595  |EV| 
-0.8138080436861333533116180660727  |BT| (ROOT (S (NP (WP (what)))(VP (VBZ (be)))(REL-FOCUS-ENTY-NP (DT (the))(JJ (scientific))(NN (name)))(PP (IN (for)))(REL-NP (DT (the))(REL-NN (zinnia))(REL-NN (plant))))) |BT| (ROOT (S (NP (NN (half)))(PP (IN (of)))(REL-NP (DT (a))(NN (oregano))(REL-NN (plant)))(NP (DT (the))(JJR (lower))(NNS (leaf)))(PP (IN (of)))(REL-NP (CD (three))(JJ (red))(REL-NNS (zinnia))))) |BT| (ROOT (S (NP (WP (what)))(VP (VBZ (be)))(REL-FOCUS-ENTY-NP (DT (the))(JJ (scientific))(NN (name)))(PP (IN (for)))(REL-NP (DT (the))(REL-NN (zinnia))(NN (plant))))) |BT| (ROOT (S (ADVP (RB (here)))(NP (NNP (z.))(NNS (elegan)))(REL-NP (JJ (common))(REL-NN (zinnia)))(NP (NNP (z.)))(NP (NN (narrowleaf)))(REL-NP (JJ (classic))(REL-NN (zinnia)))(VP (RB (formerly))(VBN (call)))(NP (NNP (z.))(NN (lineari)))(NP (NNP (z.)))(VP (VBD (haageana)))(REL-NP (JJ (mexican))(REL-NN (zinnia))))) |ET| 1:0.36369649 2:0.24372336 3:0.1721326 4:0.17915215 5:0.13074408 6:0.029630439 8:0.02051525 11:0.58566201 12:0.51665604 13:0.24745077 14:0.81739908 15:0.52843475 16:0.24649724  |BV| 1:0.10350983 2:0.062704451 3:0.18786728 4:0.046585869 5:0.15075567 11:0.32682288 12:0.27471045 13:0.05455447 14:0.61064953 15:0.36067021 16:0.25323519  |EV| 
-0.8138080436861333533116180660727  |BT| (ROOT (S (REL-NP (WP (what))(REL-NN (city)))(VP (VBZ (be))(VBN (know)))(PP (IN (as)))(REL-FOCUS-LOC-NP (DT (the))(NN (rubber))(REL-NN (capital)))(PP (IN (of)))(REL-NP (DT (the))(REL-NN (world))))) |BT| (ROOT (S (VP (VBG (be))(VBN (know)))(PP (IN (as)))(REL-NP (DT (the))(NN (tourism))(REL-NN (capital)))(PP (IN (of)))(REL-NP (DT (the))(REL-NN (world)))(REL-NP (DT (the))(NN (lightning))(REL-NN (capital)))(PP (IN (of)))(REL-NP (DT (the))(REL-NN (world)))(REL-NP (DT (the))(JJ (bad))(NN (driving))(CC (and))(NN (auto))(NN (theft))(REL-NN (capital)))(PP (IN (of)))(REL-FOCUS-LOC-NP (NNP (america))(NNS (town))(CC (and))(REL-NNS (city)))(PP (IN (throughout)))(NP (DT (the))(NN (state))))) |BT| (ROOT (S (NP (WP (what))(NN (city)))(VP (VBZ (be))(VBN (know)))(PP (IN (as)))(REL-FOCUS-LOC-NP (DT (the))(REL-NN (rubber))(REL-NN (capital)))(PP (IN (of)))(REL-NP (DT (the))(REL-NN (world))))) |BT| (ROOT (S (REL-FOCUS-LOC-NP (NNP (akron)))(SBAR (RB (once)))(VP (VBN (know)))(PP (IN (as)))(REL-NP (DT (the))(REL-NNP (rubber))(REL-NNP (capital)))(PP (IN (of)))(REL-NP (DT (the))(REL-NNP (world)))(VP (VBD (welcome)))(NP (NNP (wednesday)))(SBAR (IN (that)))(NP (NNP (goodyear))(NNP (tire))(NNP (&amp)))(REL-NP (REL-NNP (rubber))(NNP (co.)))(VP (VBZ (be))(VBG (form)))(NP (DT (a))(NN (alliance)))(PP (IN (with)))(REL-FOCUS-LOC-NP (NNP (japan)))(REL-NP (POS ('s))(NNP (sumitomo))(REL-NNP (rubber))(NNPS (industries))(NNP (ltd.)))(VP (VBG (make)))(NP (PRP (it))))) |ET| 1:0.64142698 2:0.54974741 3:0.45074895 4:0.48171797 5:0.34143168 6:0.35450673 7:0.1511858 8:0.29529318 9:0.11547005 10:0.22395267 11:0.76704335 12:0.72697115 13:0.5928545 14:0.8661226 15:0.77545947 16:0.26510015  |BV| 1:0.36788359 2:0.2705009 4:0.20803797 6:0.090512559 8:0.062166989 10:0.024049301 11:0.41905817 12:0.38166127 13:0.30228177 14:0.60594612 15:0.47858059 16:0.28931284  |EV| 
0.62489908039361319325166732596699  |BT| (ROOT (S (ADVP (WRB (how)))(REL-FOCUS-NUM-NP (JJ (many))(REL-JJ (electoral))(REL-NN (college))(REL-NNS (vote)))(PP (IN (in)))(NP (NNP (tennessee))))) |BT| (ROOT (S (REL-FOCUS-NUM-NP (NNP (tuesday)))(NP (POS ('s))(NNS (result)))(VP (VBD (be))))(S (NP (NNP (pennsylvania)))(PP (IN (with)))(REL-NP (CD (23))(REL-NNP (electoral))(REL-NNP (college))(REL-NNS (vote)))(VP (MD (could))(VB (be)))(NP (DT (a))(JJ (critical))(NN (swing))(NN (state)))(PP (IN (in)))(REL-FOCUS-NUM-NP (NNP (november))))(S (NP (NNP (wisconsin)))(VP (VBZ (have)))(REL-NP (CD (11))(REL-JJ (electoral))(REL-NNS (vote))))) |BT| (ROOT (S (ADVP (WRB (how)))(REL-FOCUS-NUM-NP (JJ (many))(REL-JJ (electoral))(REL-NN (college))(REL-NNS (vote)))(PP (IN (in)))(NP (NNP (tennessee))))) |BT| (ROOT (S (NP (NNS (president)))(REL-VP (VBP (be))(REL-VBN (vote)))(PP (IN (on)))(PP (IN (in)))(NP (PRP$ (its))(JJ (proscribed))(NN (number)))(PP (IN (of)))(REL-NP (REL-JJ (electoral))(REL-NNS (vote)))(PP (VBG (accord)))(PP (TO (to)))(NP (PRP (it)))(VP (VBZ (be)))(REL-NP (DT (the))(REL-JJ (electoral))(REL-NN (college))(REL-NN (vote)))(NP (IN (that)))(ADVP (RB (officially))))) |ET| 1:0.20851441 2:0.11619858 3:0.18156826 4:0.082849301 5:0.13363062 11:0.46496263 12:0.3893806 13:0.094280899 14:0.66808558 15:0.48317015 16:0.27758595  |BV| 1:0.37310126 2:0.26832816 3:0.48418203 4:0.21295886 5:0.41208169 6:0.10653312 7:0.24913643 8:0.074535601 9:0.18898223 10:0.039253429 11:0.44647387 12:0.37416574 13:0.11785113 14:0.68934077 15:0.50865829 16:0.29838863  |EV| 
0.8138080436861333533116180660727  |BT| (ROOT (S (NP (WP (who)))(VP (VBD (create)))(REL-FOCUS-HUM-NP (DT (the))(REL-JJ (literary))(NN (character))(NNP (phineas))(REL-NNP (fogg))))) |BT| (ROOT (S (REL-FOCUS-HUM-NP (NNP (jules))(NNP (verne)))(REL-NP (POS ('s))(NNP (phileas))(REL-NNP (fogg)))(VP (VBD (make)))(REL-NP (REL-JJ (literary))(NN (history)))(ADVP (WRB (when)))(NP (PRP (he))))) |BT| (ROOT (S (NP (WP (who)))(REL-VP (REL-VBD (create)))(REL-FOCUS-HUM-NP (DT (the))(REL-JJ (literary))(REL-NN (character))(NNP (phineas))(NNP (fogg))))) |BT| (ROOT (S (NP (NNS (part)))(PP (IN (of)))(REL-FOCUS-HUM-NP (DT (the))(NNP (reagan))(NN (story)))(ADVP (RB (brilliantly))))(S (NP (JJ (dutch))(NNS (trip)))(PP (IN (over)))(REL-NP (PRP$ (its))(JJ (own))(JJ (central))(REL-JJ (literary))(NN (device))))(S (NP (PRP (he)))(REL-VP (REL-VBZ (create)))(REL-NP (DT (a))(JJ (fictional))(REL-NN (character)))(VP (VBN (model)))(PP (IN (after)))(VP (VBZ (run)))(PP (IN (into)))(REL-FOCUS-HUM-NP (NNP (reagan)))(ADVP (RB (repeatedly)))(PP (IN (through))))(S (PP (IN (in)))(NP (NN (effect)))(REL-NP (DT (another))(REL-NN (character)))(PP (IN (in)))(NP (DT (the))(NN (narrative))))) |ET| 1:0.21650635 2:0.11547005 3:0.13333333 4:0.081199788 5:0.096225038 11:0.3934485 12:0.32433748 13:0.088388354 14:0.62887192 15:0.45086071 16:0.29836947  |BV| 1:0.23652495 2:0.14022146 3:0.14294834 4:0.1028689 5:0.10540926 11:0.44099343 12:0.37911341 13:0.086874448 14:0.6053918 15:0.34041858 16:0.22183013  |EV| 
0.29308850084689597181863973673899  |BT| (ROOT (S (ADVP (WRB (where)))(VP (VBZ (be)))(NP (NNP (devil)))(REL-FOCUS-LOC-NP (POS ('s))(REL-NNP (tower))))) |BT| (ROOT (S (REL-NP (NNP (devils))(REL-NNP (tower)))(PP (IN (in)))(REL-FOCUS-LOC-NP (JJ (northeastern))(NNP (wyoming)))(VP (VBD (become)))(NP (DT (the))(JJ (first))(JJ (national))(NN (monument))))) |BT| (ROOT (S (ADVP (WRB (where)))(VP (VBZ (be)))(REL-NP (REL-NNP (devil)))(REL-FOCUS-LOC-NP (POS ('s))(REL-NNP (tower))))) |BT| (ROOT (S (PP (IN (on)))(NP (DT (the))(NNS (book)))(REL-NP (DT (the))(REL-NNS (devil)))(REL-VP (VBP (have))(REL-VBN (tower)))(PP (IN (over)))(NP (DT (the))(NNPS (rangers)))(NP (CD (1995)))(PP (IN (for)))(REL-NP (DT (the))(REL-NNS (devil)))(SBAR (IN (after)))(NP (DT (the))(NNPS (rangers))))) |ET| 1:0.060192931 2:0.03392268 3:0.071611486 4:0.02450715 5:0.05455447 11:0.33657131 12:0.2912176 13:0.0270369 14:0.55759859 15:0.31210712 16:0.17482774  |BV| 11:0.059859499 12:0.052623481 14:0.3234897 15:0.11692328 16:0.20497762  |EV| 
0.8138080436861333533116180660727  |BT| (ROOT (S (NP (WP (what)))(VP (VBZ (be)))(REL-FOCUS-ENTY-NP (DT (a))(JJ (indian))(REL-NN (flute)))(REL-VP (REL-VBN (make)))(PP (IN (of))))) |BT| (ROOT (S (REL-NP (REL-NNS (flute)))(NP (NNS (whistle)))(VP (VBD (kindr))))(S (NP (DT (the))(NNP (maya))(CC (and))(NNP (incas)))(REL-VP (REL-VBD (make)))(REL-NP (REL-NNS (flute)))(PP (IN (of)))(NP (NN (clay))))) |BT| (ROOT (S (NP (WP (what)))(VP (VBZ (be)))(REL-FOCUS-ENTY-NP (DT (a))(JJ (indian))(REL-NN (flute)))(REL-VP (REL-VBN (make)))(PP (IN (of))))) |BT| (ROOT (S (SBAR (IN (that)))(REL-NP (DT (the))(REL-NNS (flute)))(REL-VP (VBD (be))(REL-VBN (make)))(PP (IN (of)))(NP (JJ (durable))(NN (bone)))(PP (RB (rather))(IN (than))(RB (bamboo)))(SBAR (IN (as)))(REL-NP (RB (later))(REL-NNS (flute)))(VP (VBD (be)))(ADVP (RB (also))))(S (NP (DT (a))(JJ (stylized))(NN (representation)))(PP (IN (of)))(REL-NP (DT (a))(JJ (vertical))(REL-NN (flute)))(VP (VBN (hold)))(PP (IN (in))))) |ET| 1:0.23426063 2:0.13639887 3:0.18786728 4:0.098974332 5:0.1423737 11:0.25410274 12:0.21209492 13:0.018405249 14:0.60646135 15:0.3959876 16:0.20051605  |BV| 1:0.42426407 2:0.28849122 3:0.31311214 4:0.21031836 5:0.2405626 6:0.052649811 7:0.08804509 8:0.03681051 9:0.072739303 11:0.50590307 12:0.45522314 13:0.29069388 14:0.7340101 15:0.5270642 16:0.22626498  |EV| 
-0.8138080436861333533116180660727  |BT| (ROOT (S (ADVP (WRB (when)))(VP (VBD (be)))(REL-FOCUS-NUM-NP (DT (the))(REL-NNP (hellenistic))(REL-NNP (age))))) |BT| (ROOT (S (NP (NNP (nicosia)))(REL-FOCUS-NUM-NP (NNP (october))(CD (14))(NNP (xinhua)))(NP (DT (a))(JJ (19th))(NN (century))(NN (house)))(VP (VBN (build)))(VP (VBG (date)))(PP (TO (to)))(REL-NP (DT (the))(REL-NNP (hellenistic))(REL-NN (age)))(VP (VBD (be))(VBN (award)))(REL-FOCUS-NUM-NP (NNP (wednesday)))(NP (DT (a))(NNP (europa))(NNP (nostra))(NN (award)))(PP (IN (for))))) |BT| (ROOT (S (ADVP (WRB (when)))(VP (VBD (be)))(REL-FOCUS-NUM-NP (DT (the))(REL-NNP (hellenistic))(NNP (age))))) |BT| (ROOT (S (VP (VBP (be)))(PP (IN (from)))(REL-NP (DT (the))(REL-JJ (hellenistic))(NN (period)))(VP (VBG (span)))(PP (IN (from))))) |ET| 1:0.19364917 2:0.13926212 3:0.08804509 4:0.098923869 5:0.073323563 6:0.040128618 8:0.0285831 11:0.40603468 12:0.34938562 13:0.11111111 14:0.52917826 15:0.3151125 16:0.2181748  |BV| 1:0.30618623 2:0.18181819 4:0.13535365 11:0.20655748 12:0.17823276 13:0.02613542 14:0.37827867 15:0.29648876 16:0.18364298  |EV| 
0.8138080436861333533116180660727  |BT| (ROOT (S (NP (WP (what)))(REL-NP (NNP (e))(REL-NNP (pluribus))(REL-NNP (unum))(VB (mean))))) |BT| (ROOT (S (REL-NP (NNP (e))(REL-NN (pluribus))(REL-NN (unum))))) |BT| (ROOT (S (NP (WP (what)))(REL-NP (NNP (e))(REL-NNP (pluribus))(REL-NNP (unum))(VB (mean))))) |BT| (ROOT (S (VP (VBN (engrave)))(PP (IN (with)))(REL-NP (NNP (e))(REL-NNP (pluribus))(REL-NNP (unum)))(NP (DT (a))(JJ (six-pointed))(NN (star)))(VP (VBG (represent))))) |ET| 1:0.08703883 2:0.050062619 4:0.036417849 11:0.15386435 12:0.12824729 14:0.48053837 15:0.43816248 16:0.51526713  |BV| 1:0.11980846 2:0.11768779 3:0.30151135 4:0.10241831 5:0.25 6:0.089442722 7:0.17960531 8:0.062136982 9:0.1490712 10:0.032461371 11:0.25819889 12:0.23183954 13:0.13949481 14:0.40943146 15:0.53817362 16:0.32526967  |EV| 
0.8138080436861333533116180660727  |BT| (ROOT (S (NP (WP (who)))(REL-VP (REL-VBZ (make)))(REL-FOCUS-HUM-NP (REL-NN (viagra))))) |BT| (ROOT (S (PP (IN (for)))(NP (NNP (pfizer))(NNP (inc.)))(REL-NP (POS ('s))(REL-NNP (viagra)))(SBAR (IN (since)))(NP (PRP (it)))(PP (IN (in)))(NP (NNP (april)))(REL-VP (REL-VBG (make)))(REL-NP (REL-NNP (viagra)))(NP (DT (the))(RBS (most))(JJ (successful))(JJ (new))(JJ (pharmaceutical)))(PP (IN (on))))) |BT| (ROOT (S (NP (WP (who)))(REL-VP (REL-VBZ (make)))(REL-FOCUS-HUM-NP (REL-NN (viagra))))) |BT| (ROOT (S (PP (IN (after)))(VP (VBG (take)))(REL-NP (DT (the))(NN (impotence))(NN (pill))(REL-NNP (viagra)))(NP (WDT (which)))(NP (PRP (he))))(S (NP (NN (heart))(NN (disease)))(NP (WDT (which)))(REL-VP (REL-VBZ (make))(VBG (take)))(REL-NP (REL-NNP (viagra))(JJ (dangerous))))) |ET| 1:0.077151671 2:0.043073051 3:0.09245003 4:0.0316386 5:0.077151671 11:0.067884423 12:0.059999999 13:0.038575839 14:0.41439822 15:0.25994554 16:0.21102546  |BV| 1:0.15811388 2:0.094820932 3:0.086066298 4:0.071981579 5:0.072168782 11:0.24111313 12:0.21314339 14:0.62680662 15:0.36337772 16:0.22395176  |EV| 
0.052375016480454263112509494249025  |BT| (ROOT (S (REL-FOCUS-ENTY-NP (WP (what))(NN (duo)))(REL-VP (REL-VBD (lose)))(REL-NP (PRP$ (they))(REL-NNP (grammy)))(PP (IN (for)))(REL-NP (JJS (best))(JJ (new))(REL-NN (artist)))(ADVP (WRB (when)))(NP (PRP (it)))(VP (VBD (be))(VBN (discover)))(SBAR (IN (that)))(NP (PRP (they)))(VP (VBD (lip-synch)))(NP (PRP$ (they))(NNS (song))))) |BT| (ROOT (S (NP (NNP (indigo))(NNP (girls)))(VP (VBZ (win)))(REL-FOCUS-ENTY-NP (DT (the))(REL-NNP (grammy))(NNP (award)))(PP (IN (for)))(NP (JJS (best))(JJ (contemporary))(NN (folk))(NN (recording))))(S (ADVP (RB (up)))(PP (IN (for)))(REL-NP (JJS (best))(JJ (new))(REL-NN (artist)))(REL-VP (REL-VBD (lose))))(S (NP (DT (that))(NN (year)))(REL-NP (POS ('s))(JJS (best))(JJ (new))(REL-NN (artist))(NN (race)))(VP (MD (would))(VB (become)))(ADJP (JJ (infamous))))(S (NP (NNS (salier)))(VP (VBG (win)))(REL-FOCUS-ENTY-NP (DT (the))(REL-NNP (grammy)))(VP (VBD (be)))(ADVP (RB (really))))(S (ADVP (RB (actually))(RB (up)))(SBAR (IN (for)))(REL-NP (JJS (best))(JJ (new))(REL-NN (artist)))(ADVP (RB (too)))(NP (NNP (milli))(NNP (vanilli))))) |BT| (ROOT (S (REL-FOCUS-ENTY-NP (WP (what))(NN (duo)))(VP (VBD (lose)))(NP (PRP$ (they))(NNP (grammy)))(PP (IN (for)))(NP (JJS (best))(JJ (new))(NN (artist)))(ADVP (WRB (when)))(NP (PRP (it)))(VP (VBD (be))(VBN (discover)))(SBAR (IN (that)))(NP (PRP (they)))(VP (VBD (lip-synch)))(REL-NP (PRP$ (they))(REL-NNS (song))))) |BT| (ROOT (S (VP (VBZ (be))(VBN (choreograph)))(PP (IN (for)))(REL-FOCUS-ENTY-NP (NNP (ms.))(NNP (jackson)))(NP (CD (nine))(NNS (dancer)))(NP (PRP$ (she))(NN (band))))(S (PP (IN (in)))(REL-NP (DT (the))(JJR (more))(JJ (athletic))(REL-NNS (song)))(NP (PRP (she)))(VP (VBZ (appear))(TO (to))(VB (be)))(NP (NNS (ballad))(CC (and))(NNS (part)))(PP (IN (of)))(REL-NP (DT (the))(JJ (uptempo))(REL-NNS (song))))) |ET| 1:0.32307693 2:0.27894005 3:0.19749241 4:0.24015453 5:0.14359163 6:0.17398353 8:0.13868026 10:0.096034691 11:0.46111232 12:0.40700206 13:0.21690769 14:0.73315454 15:0.55780107 16:0.3986291  |BV| 1:0.125 2:0.075130649 3:0.09656091 4:0.054360669 5:0.068761423 11:0.30454996 12:0.25354362 13:0.036623511 14:0.63389283 15:0.4913964 16:0.36873093  |EV| 
